{"learner":{"attributes":{"best_iteration":"11","best_score":"0.05823457573245634","scikit_learn":"{\"_estimator_type\": \"regressor\"}"},"feature_names":["Fourier_Dominant","HMM_State","RSI","MACD","MACD_Signal","BB_Upper","BB_Lower","Close_Lag_1","Close_Lag_2","Close_Lag_3","Close_Lag_4","Close_Lag_5"],"feature_types":["float","int","float","float","float","float","float","float","float","float","float","float"],"gradient_booster":{"model":{"cats":{"enc":[],"feature_segments":[],"sorted_idx":[]},"gbtree_model_param":{"num_parallel_tree":"1","num_trees":"62"},"iteration_indptr":[0,1,2,3,4,5,6,7,8,9,10,11,12,13,14,15,16,17,18,19,20,21,22,23,24,25,26,27,28,29,30,31,32,33,34,35,36,37,38,39,40,41,42,43,44,45,46,47,48,49,50,51,52,53,54,55,56,57,58,59,60,61,62],"tree_info":[0,0,0,0,0,0,0,0,0,0,0,0,0,0,0,0,0,0,0,0,0,0,0,0,0,0,0,0,0,0,0,0,0,0,0,0,0,0,0,0,0,0,0,0,0,0,0,0,0,0,0,0,0,0,0,0,0,0,0,0,0,0],"trees":[{"base_weights":[1.12402406E-4,8.996672E-2,-4.5912717E-3,-0E0,9.487556E-2,1.6836848E-2,-2.0654019E-2,3.015293E-3,-0E0,5.6788072E-2,1.0216989E-2,-3.854475E-2,8.5933395E-3,1.8646371E-3,-0E0,-1.3641636E-4,4.1776957E-4,-1.7434241E-3,-0E0,-6.38867E-4,1.0530134E-3],"categories":[],"categories_nodes":[],"categories_segments":[],"categories_sizes":[],"default_left":[0,0,0,0,0,0,0,0,0,0,0,0,0,0,0,0,0,0,0,0,0],"id":0,"left_children":[1,3,5,-1,7,9,11,-1,-1,13,15,17,19,-1,-1,-1,-1,-1,-1,-1,-1],"loss_changes":[1.0150996E-1,1.8869638E-3,7.232192E-2,0E0,2.0070449E-3,1.5728306E-2,6.7163676E-2,0E0,0E0,2.5198683E-3,5.272094E-3,5.6355476E-2,3.778005E-2,0E0,0E0,0E0,0E0,0E0,0E0,0E0,0E0],"parents":[2147483647,0,0,1,1,2,2,4,4,5,5,6,6,9,9,10,10,11,11,12,12],"right_children":[2,4,6,-1,8,10,12,-1,-1,14,16,18,20,-1,-1,-1,-1,-1,-1,-1,-1],"split_conditions":[-4.5226642E-1,9.562861E0,2.617233E0,-0E0,1.6104729E1,3E0,9.091067E0,3.015293E-3,-0E0,5.0632904E1,8.308645E-1,7.86E0,2.7215187E1,1.8646371E-3,-0E0,-1.3641636E-4,4.1776957E-4,-1.7434241E-3,-0E0,-6.38867E-4,1.0530134E-3],"split_indices":[3,0,0,0,0,9,0,0,0,2,0,7,2,0,0,0,0,0,0,0,0],"split_type":[0,0,0,0,0,0,0,0,0,0,0,0,0,0,0,0,0,0,0,0,0],"sum_hessian":[2.18E2,1.1E1,2.07E2,1E0,1E1,8.6E1,1.21E2,9E0,1E0,9E0,7.7E1,7.7E1,4.4E1,8E0,1E0,1E1,6.7E1,5E1,2.7E1,1.9E1,2.5E1],"tree_param":{"num_deleted":"0","num_feature":"12","num_nodes":"21","size_leaf_vector":"1"}},{"base_weights":[3.5850445E-3,8.2886174E-2,-9.958365E-4,-0E0,8.67959E-2,1.6573528E-2,-1.3513657E-2,2.7355016E-3,-0E0,5.6168176E-2,9.552705E-3,-2.7104793E-2,6.9125365E-3,2.0201632E-3,-0E0,-2.5834073E-4,4.2479637E-4,-0E0,-1.0603287E-3,1.1405186E-3,-1.3215464E-4],"categories":[],"categories_nodes":[],"categories_segments":[],"categories_sizes":[],"default_left":[0,0,0,0,0,0,0,0,0,0,0,0,0,0,0,0,0,0,0,0,0],"id":1,"left_children":[1,3,5,-1,7,9,11,-1,-1,13,15,17,19,-1,-1,-1,-1,-1,-1,-1,-1],"loss_changes":[8.6737685E-2,1.0908097E-3,4.4783734E-2,0E0,1.0561794E-3,1.5686287E-2,3.6353257E-2,0E0,0E0,4.727438E-3,6.7857937E-3,1.7134354E-2,2.0074282E-2,0E0,0E0,0E0,0E0,0E0,0E0,0E0,0E0],"parents":[2147483647,0,0,1,1,2,2,4,4,5,5,6,6,9,9,10,10,11,11,12,12],"right_children":[2,4,6,-1,8,10,12,-1,-1,14,16,18,20,-1,-1,-1,-1,-1,-1,-1,-1],"split_conditions":[-4.5226642E-1,9.562861E0,2.617233E0,-0E0,1.6104729E1,2.96E0,4.805194E1,2.7355016E-3,-0E0,-7.09572E-2,8.326717E-1,4.897773E0,5.77E0,2.0201632E-3,-0E0,-2.5834073E-4,4.2479637E-4,-0E0,-1.0603287E-3,1.1405186E-3,-1.3215464E-4],"split_indices":[3,0,0,0,0,8,2,0,0,3,0,5,7,0,0,0,0,0,0,0,0],"split_type":[0,0,0,0,0,0,0,0,0,0,0,0,0,0,0,0,0,0,0,0,0],"sum_hessian":[2.15E2,1.2E1,2.03E2,1E0,1.1E1,8.1E1,1.22E2,1E1,1E0,9E0,7.2E1,7.6E1,4.6E1,7E0,2E0,1E1,6.2E1,1.8E1,5.8E1,1.4E1,3.2E1],"tree_param":{"num_deleted":"0","num_feature":"12","num_nodes":"21","size_leaf_vector":"1"}},{"base_weights":[-1.962412E-3,6.783815E-2,-6.7275534E-3,2.7057563E-3,-0E0,1.742696E-2,-2.2073261E-2,-1.159671E-2,2.3671266E-2,-3.7588116E-2,1.3323395E-2,-0E0,-5.3652434E-4,-0E0,7.655572E-4,-3.8659456E-4,-1.7120347E-3,8.710029E-4,-2.8983603E-4],"categories":[],"categories_nodes":[],"categories_segments":[],"categories_sizes":[],"default_left":[0,0,0,0,0,0,0,0,0,0,0,0,0,0,0,0,0,0,0],"id":2,"left_children":[1,3,5,-1,-1,7,9,11,13,15,17,-1,-1,-1,-1,-1,-1,-1,-1],"loss_changes":[6.851726E-2,1.3384983E-2,7.906028E-2,0E0,0E0,1.5980577E-2,7.541825E-2,9.4493653E-4,4.3163523E-3,3.750013E-2,1.6300187E-2,0E0,0E0,0E0,0E0,0E0,0E0,0E0,0E0],"parents":[2147483647,0,0,1,1,2,2,5,5,6,6,7,7,8,8,9,9,10,10],"right_children":[2,4,6,-1,-1,8,10,12,14,16,18,-1,-1,-1,-1,-1,-1,-1,-1],"split_conditions":[-4.0912786E-1,1.6104729E1,2.2850516E0,2.7057563E-3,-0E0,8.326717E-1,5.2830173E1,-2.4287947E-2,-1.679286E-1,5.61E0,6.984126E1,-0E0,-5.3652434E-4,-0E0,7.655572E-4,-3.8659456E-4,-1.7120347E-3,8.710029E-4,-2.8983603E-4],"split_indices":[4,0,0,0,0,0,2,4,4,9,2,0,0,0,0,0,0,0,0],"split_type":[0,0,0,0,0,0,0,0,0,0,0,0,0,0,0,0,0,0,0],"sum_hessian":[2.22E2,1.2E1,2.1E2,8E0,4E0,7.9E1,1.31E2,1.1E1,6.8E1,9.3E1,3.8E1,4E0,7E0,3E0,6.5E1,4.4E1,4.9E1,2.5E1,1.3E1],"tree_param":{"num_deleted":"0","num_feature":"12","num_nodes":"19","size_leaf_vector":"1"}},{"base_weights":[1.0770812E-3,8.979386E-2,-2.8554825E-3,-0E0,2.8501528E-3,1.612291E-2,-1.4936406E-2,-7.1674637E-3,2.0718465E-2,-2.700977E-2,1.44589655E-2,-0E0,-4.9045676E-4,-0E0,7.0595386E-4,-1.6782747E-4,-1.5235594E-3,1.6120946E-3,-3.852736E-5],"categories":[],"categories_nodes":[],"categories_segments":[],"categories_sizes":[],"default_left":[0,0,0,0,0,0,0,0,0,0,0,0,0,0,0,0,0,0,0],"id":3,"left_children":[1,3,5,-1,-1,7,9,11,13,15,17,-1,-1,-1,-1,-1,-1,-1,-1],"loss_changes":[9.02403E-2,1.5673712E-3,5.125083E-2,0E0,0E0,1.0494303E-2,5.133176E-2,1.0385544E-3,5.336091E-3,4.6012826E-2,2.9430054E-2,0E0,0E0,0E0,0E0,0E0,0E0,0E0,0E0],"parents":[2147483647,0,0,1,1,2,2,5,5,6,6,7,7,8,8,9,9,10,10],"right_children":[2,4,6,-1,-1,8,10,12,14,16,18,-1,-1,-1,-1,-1,-1,-1,-1],"split_conditions":[-4.7030026E-1,9.562861E0,2.2850516E0,-0E0,2.8501528E-3,8.308645E-1,5.2830173E1,-1.5296855E-2,-1.4522415E-1,5.4476614E0,5.77E0,-0E0,-4.9045676E-4,-0E0,7.0595386E-4,-1.6782747E-4,-1.5235594E-3,1.6120946E-3,-3.852736E-5],"split_indices":[3,0,0,0,0,0,2,3,3,6,7,0,0,0,0,0,0,0,0],"split_type":[0,0,0,0,0,0,0,0,0,0,0,0,0,0,0,0,0,0,0],"sum_hessian":[2.32E2,1E1,2.22E2,1E0,9E0,8.3E1,1.39E2,1E1,7.3E1,1.01E2,3.8E1,5E0,5E0,7E0,6.6E1,5.6E1,4.5E1,1.2E1,2.6E1],"tree_param":{"num_deleted":"0","num_feature":"12","num_nodes":"19","size_leaf_vector":"1"}},{"base_weights":[2.631587E-3,8.3811305E-2,-2.2242432E-3,8.735975E-2,-0E0,4.334596E-2,-5.3997026E-3,2.7424386E-3,-0E0,5.0054777E-2,-0E0,-1.1700625E-2,8.8302E-3,-0E0,1.614236E-3,-1.9544674E-4,-4.0990594E-3,5.9055915E-4,-4.3227108E-5],"categories":[],"categories_nodes":[],"categories_segments":[],"categories_sizes":[],"default_left":[0,0,0,0,0,0,0,0,0,0,0,0,0,0,0,0,0,0,0],"id":4,"left_children":[1,3,5,7,-1,9,11,-1,-1,13,-1,15,17,-1,-1,-1,-1,-1,-1],"loss_changes":[9.782737E-2,8.717552E-4,2.7406583E-2,1.0671541E-3,0E0,2.5083385E-3,1.859165E-2,0E0,0E0,1.0027718E-3,0E0,7.9385E-2,8.319452E-3,0E0,0E0,0E0,0E0,0E0,0E0],"parents":[2147483647,0,0,1,1,2,2,3,3,5,5,6,6,9,9,11,11,12,12],"right_children":[2,4,6,8,-1,10,12,-1,-1,14,-1,16,18,-1,-1,-1,-1,-1,-1],"split_conditions":[-4.5226642E-1,-3.4347346E-1,2.99E0,6.47E0,-0E0,-7.210584E-2,7.9E0,2.7424386E-3,-0E0,-8.066132E-2,-0E0,8.1908494E-2,8.580597E0,-0E0,1.614236E-3,-1.9544674E-4,-4.0990594E-3,5.9055915E-4,-4.3227108E-5],"split_indices":[3,4,7,7,0,3,8,0,0,4,0,4,5,0,0,0,0,0,0],"split_type":[0,0,0,0,0,0,0,0,0,0,0,0,0,0,0,0,0,0,0],"sum_hessian":[2.26E2,1.3E1,2.13E2,1.2E1,1E0,1.1E1,2.02E2,1.1E1,1E0,9E0,2E0,1.45E2,5.7E1,1E0,8E0,1.41E2,4E0,3.2E1,2.5E1],"tree_param":{"num_deleted":"0","num_feature":"12","num_nodes":"19","size_leaf_vector":"1"}},{"base_weights":[2.7781348E-3,8.496078E-2,-1.8908677E-3,-0E0,2.6670217E-3,1.536975E-2,-1.358008E-2,-6.8647563E-3,2.0006508E-2,-3.280159E-2,6.430456E-3,-0E0,-4.66743E-4,-7.800065E-5,6.8662484E-4,-1.6407743E-3,-0E0,-3.5070622E-4,6.6350267E-4],"categories":[],"categories_nodes":[],"categories_segments":[],"categories_sizes":[],"default_left":[0,0,0,0,0,0,0,0,0,0,0,0,0,0,0,0,0,0,0],"id":5,"left_children":[1,3,5,-1,-1,7,9,11,13,15,17,-1,-1,-1,-1,-1,-1,-1,-1],"loss_changes":[9.288406E-2,1.0017008E-3,4.1996464E-2,0E0,0E0,9.802295E-3,5.2081026E-2,1.1760077E-3,6.71242E-3,4.6486475E-2,1.8640222E-2,0E0,0E0,0E0,0E0,0E0,0E0,0E0,0E0],"parents":[2147483647,0,0,1,1,2,2,5,5,6,6,7,7,8,8,9,9,10,10],"right_children":[2,4,6,-1,-1,8,10,12,14,16,18,-1,-1,-1,-1,-1,-1,-1,-1],"split_conditions":[-4.5226642E-1,9.562861E0,2.617233E0,-0E0,2.6670217E-3,8.308645E-1,6.787276E0,-2.4287947E-2,-1.6796657E-1,7.86E0,2.8321676E1,-0E0,-4.66743E-4,-7.800065E-5,6.8662484E-4,-1.6407743E-3,-0E0,-3.5070622E-4,6.6350267E-4],"split_indices":[3,0,0,0,0,0,0,4,4,7,2,0,0,0,0,0,0,0,0],"split_type":[0,0,0,0,0,0,0,0,0,0,0,0,0,0,0,0,0,0,0],"sum_hessian":[2.19E2,1.2E1,2.07E2,1E0,1.1E1,8E1,1.27E2,1E1,7E1,6.7E1,6E1,4E0,6E0,4E0,6.6E1,3.9E1,2.8E1,2.5E1,3.5E1],"tree_param":{"num_deleted":"0","num_feature":"12","num_nodes":"19","size_leaf_vector":"1"}},{"base_weights":[-8.321303E-4,7.535992E-2,-4.782077E-3,2.3918832E-3,-0E0,-1.6611964E-2,1.2072258E-2,3.7229378E-3,-3.4467883E-2,2.678636E-2,1.2061187E-3,3.5218944E-4,-3.4088513E-4,-5.580256E-4,-2.3927768E-3,1.02448575E-4,1.5335375E-3,-1.5608431E-3,2.871031E-4],"categories":[],"categories_nodes":[],"categories_segments":[],"categories_sizes":[],"default_left":[0,0,0,0,0,0,0,0,0,0,0,0,0,0,0,0,0,0,0],"id":6,"left_children":[1,3,5,-1,-1,7,9,11,13,15,17,-1,-1,-1,-1,-1,-1,-1,-1],"loss_changes":[6.161927E-2,4.198663E-4,4.4120416E-2,0E0,0E0,5.1131804E-2,1.1078481E-2,7.427373E-3,4.1141056E-2,1.3138019E-2,2.0740878E-2,0E0,0E0,0E0,0E0,0E0,0E0,0E0,0E0],"parents":[2147483647,0,0,1,1,2,2,5,5,6,6,7,7,8,8,9,9,10,10],"right_children":[2,4,6,-1,-1,8,10,12,14,16,18,-1,-1,-1,-1,-1,-1,-1,-1],"split_conditions":[-4.5226642E-1,3.252032E1,4.8181816E1,2.3918832E-3,-0E0,4.897773E0,5.77E0,-6.634905E-2,3E0,3.7923944E0,6.2747493E0,3.5218944E-4,-3.4088513E-4,-5.580256E-4,-2.3927768E-3,1.02448575E-4,1.5335375E-3,-1.5608431E-3,2.871031E-4],"split_indices":[3,2,2,0,0,5,8,3,1,5,5,0,0,0,0,0,0,0,0],"split_type":[0,0,0,0,0,0,0,0,0,0,0,0,0,0,0,0,0,0,0],"sum_hessian":[2.26E2,9E0,2.17E2,8E0,1E0,1.31E2,8.6E1,5.9E1,7.2E1,3.2E1,5.4E1,4.3E1,1.6E1,5.6E1,1.6E1,1.9E1,1.3E1,5E0,4.9E1],"tree_param":{"num_deleted":"0","num_feature":"12","num_nodes":"19","size_leaf_vector":"1"}},{"base_weights":[-0E0,7.004078E-2,-3.556986E-3,-0E0,7.351589E-2,1.40171265E-2,-1.5475748E-2,2.3304154E-3,-0E0,-7.74873E-3,1.8536672E-2,-2.8887978E-2,1.0613585E-2,-3.80238E-4,-0E0,1.392598E-3,3.829036E-4,-1.12970665E-4,-1.5176344E-3,1.0358965E-3,-0E0],"categories":[],"categories_nodes":[],"categories_segments":[],"categories_sizes":[],"default_left":[0,0,0,0,0,0,0,0,0,0,0,0,0,0,0,0,0,0,0,0,0],"id":7,"left_children":[1,3,5,-1,7,9,11,-1,-1,13,15,17,19,-1,-1,-1,-1,-1,-1,-1,-1],"loss_changes":[5.6619767E-2,8.30479E-5,4.4349737E-2,0E0,2.6249513E-4,9.288918E-3,4.727322E-2,0E0,0E0,7.8533834E-4,5.079467E-3,4.234732E-2,1.0768846E-2,0E0,0E0,0E0,0E0,0E0,0E0,0E0,0E0],"parents":[2147483647,0,0,1,1,2,2,4,4,5,5,6,6,9,9,10,10,11,11,12,12],"right_children":[2,4,6,-1,8,10,12,-1,-1,14,16,18,20,-1,-1,-1,-1,-1,-1,-1,-1],"split_conditions":[-4.549729E-1,9.562861E0,2.2850516E0,-0E0,1.6104729E1,8.326717E-1,5.2830173E1,2.3304154E-3,-0E0,8E0,3E0,5.61E0,5.77E0,-3.80238E-4,-0E0,1.392598E-3,3.829036E-4,-1.12970665E-4,-1.5176344E-3,1.0358965E-3,-0E0],"split_indices":[3,0,0,0,0,0,2,0,0,8,9,9,8,0,0,0,0,0,0,0,0],"split_type":[0,0,0,0,0,0,0,0,0,0,0,0,0,0,0,0,0,0,0,0,0],"sum_hessian":[2.19E2,1E1,2.09E2,1E0,9E0,8.1E1,1.28E2,8E0,1E0,1E1,7.1E1,8.7E1,4.1E1,8E0,2E0,8E0,6.3E1,4.3E1,4.4E1,1.2E1,2.9E1],"tree_param":{"num_deleted":"0","num_feature":"12","num_nodes":"21","size_leaf_vector":"1"}},{"base_weights":[2.6633852E-4,1.9078524E-3,-2.4591521E-3,1.3630855E-2,-1.5009636E-2,4.5345727E-2,8.058633E-3,-2.648514E-2,1.3054119E-2,1.4818999E-3,-0E0,-0E0,7.9296576E-4,-1.736526E-4,-1.3105316E-3,1.5596383E-3,-1.7967857E-5],"categories":[],"categories_nodes":[],"categories_segments":[],"categories_sizes":[],"default_left":[0,0,0,0,0,0,0,0,0,0,0,0,0,0,0,0,0],"id":8,"left_children":[1,-1,3,5,7,9,11,13,15,-1,-1,-1,-1,-1,-1,-1,-1],"loss_changes":[4.579581E-2,0E0,4.4566758E-2,1.0729315E-2,4.258865E-2,1.7817188E-3,1.277503E-2,2.7904876E-2,2.3774825E-2,0E0,0E0,0E0,0E0,0E0,0E0,0E0,0E0],"parents":[2147483647,0,0,2,2,3,3,4,4,5,5,6,6,7,7,8,8],"right_children":[2,-1,4,6,8,10,12,14,16,-1,-1,-1,-1,-1,-1,-1,-1],"split_conditions":[-4.5226642E-1,1.9078524E-3,2.617233E0,3E0,5.2702694E1,5.0632904E1,7.93E0,5.61E0,5.72E0,1.4818999E-3,-0E0,-0E0,7.9296576E-4,-1.736526E-4,-1.3105316E-3,1.5596383E-3,-1.7967857E-5],"split_indices":[3,0,0,9,2,2,9,9,7,0,0,0,0,0,0,0,0],"split_type":[0,0,0,0,0,0,0,0,0,0,0,0,0,0,0,0,0],"sum_hessian":[2.28E2,1E1,2.18E2,9.2E1,1.26E2,1E1,8.2E1,9.2E1,3.4E1,9E0,1E0,5.7E1,2.5E1,4.5E1,4.7E1,1E1,2.4E1],"tree_param":{"num_deleted":"0","num_feature":"12","num_nodes":"17","size_leaf_vector":"1"}},{"base_weights":[5.9660187E-4,6.08282E-2,-2.3577858E-3,2.2289276E-3,-0E0,1.3466046E-2,-1.3295927E-2,-8.960958E-3,1.7311072E-2,-3.0336374E-2,7.006679E-3,-0E0,-3.6118907E-4,-9.16048E-5,5.972948E-4,-1.4767454E-3,-0E0,-3.6783097E-4,6.409362E-4],"categories":[],"categories_nodes":[],"categories_segments":[],"categories_sizes":[],"default_left":[0,0,0,0,0,0,0,0,0,0,0,0,0,0,0,0,0,0,0],"id":9,"left_children":[1,3,5,-1,-1,7,9,11,13,15,17,-1,-1,-1,-1,-1,-1,-1,-1],"loss_changes":[4.549481E-2,5.280331E-3,3.668261E-2,0E0,0E0,8.147427E-3,4.7175076E-2,4.3693383E-4,5.715618E-3,4.1857272E-2,1.6940959E-2,0E0,0E0,0E0,0E0,0E0,0E0,0E0,0E0],"parents":[2147483647,0,0,1,1,2,2,5,5,6,6,7,7,8,8,9,9,10,10],"right_children":[2,4,6,-1,-1,8,10,12,14,16,18,-1,-1,-1,-1,-1,-1,-1,-1],"split_conditions":[-4.0912786E-1,1.6104729E1,2.547596E0,2.2289276E-3,-0E0,8.326717E-1,6.874347E0,-3.7869457E-2,-1.6796657E-1,7.5853467E0,5.1E0,-0E0,-3.6118907E-4,-9.16048E-5,5.972948E-4,-1.4767454E-3,-0E0,-3.6783097E-4,6.409362E-4],"split_indices":[4,0,0,0,0,0,0,4,4,6,7,0,0,0,0,0,0,0,0],"split_type":[0,0,0,0,0,0,0,0,0,0,0,0,0,0,0,0,0,0,0],"sum_hessian":[2.21E2,1.1E1,2.1E2,8E0,3E0,8.2E1,1.28E2,8E0,7.4E1,7.2E1,5.6E1,1E0,7E0,4E0,7E1,4.4E1,2.8E1,2.1E1,3.5E1],"tree_param":{"num_deleted":"0","num_feature":"12","num_nodes":"19","size_leaf_vector":"1"}},{"base_weights":[-1.6567984E-3,9.6275965E-3,-1.6104547E-2,-0E0,3.205212E-2,-1.2963155E-1,-0E0,3.4550104E-2,-7.274392E-3,7.567185E-2,6.159203E-3,-0E0,-4.4125332E-3,9.747048E-3,-2.4104426E-2,1.1724755E-3,-0E0,-1.28557085E-5,-1.0453847E-3,2.5469298E-3,-0E0,-3.978603E-4,8.7740924E-4,4.640662E-4,-2.255442E-4,-1.7784163E-3,1.1000739E-4],"categories":[],"categories_nodes":[],"categories_segments":[],"categories_sizes":[],"default_left":[0,0,0,0,0,0,0,0,0,0,0,0,0,0,0,0,0,0,0,0,0,0,0,0,0,0,0],"id":10,"left_children":[1,3,5,7,9,11,13,15,17,19,21,-1,-1,23,25,-1,-1,-1,-1,-1,-1,-1,-1,-1,-1,-1,-1],"loss_changes":[3.8626652E-2,2.8294483E-2,1.9096464E-1,2.1874404E-2,3.5399057E-2,1.9515738E-2,2.2633985E-2,1.9511171E-3,1.061405E-2,1.2050375E-2,1.4092969E-2,0E0,0E0,7.530193E-3,3.3131607E-2,0E0,0E0,0E0,0E0,0E0,0E0,0E0,0E0,0E0,0E0,0E0,0E0],"parents":[2147483647,0,0,1,1,2,2,3,3,4,4,5,5,6,6,7,7,8,8,9,9,10,10,13,13,14,14],"right_children":[2,4,6,8,10,12,14,16,18,20,22,-1,-1,24,26,-1,-1,-1,-1,-1,-1,-1,-1,-1,-1,-1,-1],"split_conditions":[5.4059105E0,3.7672064E0,6E0,2.99E0,5.23E0,5.9E0,3E0,3E0,4.897773E0,6.6940026E0,5.72E0,-0E0,-4.4125332E-3,7.954117E0,4.3809517E1,1.1724755E-3,-0E0,-1.28557085E-5,-1.0453847E-3,2.5469298E-3,-0E0,-3.978603E-4,8.7740924E-4,4.640662E-4,-2.255442E-4,-1.7784163E-3,1.1000739E-4],"split_indices":[6,6,7,7,11,11,1,8,5,5,11,0,0,6,2,0,0,0,0,0,0,0,0,0,0,0,0],"split_type":[0,0,0,0,0,0,0,0,0,0,0,0,0,0,0,0,0,0,0,0,0,0,0,0,0,0,0],"sum_hessian":[2.31E2,1.26E2,1.05E2,8.8E1,3.8E1,1.2E1,9.3E1,1.4E1,7.4E1,1.2E1,2.6E1,2E0,1E1,6.6E1,2.7E1,1.2E1,2E0,6.3E1,1.1E1,1.1E1,1E0,1.2E1,1.4E1,5.4E1,1.2E1,1.3E1,1.4E1],"tree_param":{"num_deleted":"0","num_feature":"12","num_nodes":"27","size_leaf_vector":"1"}},{"base_weights":[4.472408E-4,6.549432E-2,-3.910169E-3,2.4355415E-3,-0E0,1.1650632E-2,-1.4073691E-2,-0E0,1.6739331E-2,-0E0,-2.6951008E-2,2.0329364E-5,-3.9707765E-4,-0E0,5.9803826E-4,-2.7708223E-4,1.0400858E-3,-3.6610581E-3,-4.536612E-4],"categories":[],"categories_nodes":[],"categories_segments":[],"categories_sizes":[],"default_left":[0,0,0,0,0,0,0,0,0,0,0,0,0,0,0,0,0,0,0],"id":11,"left_children":[1,3,5,-1,-1,7,9,11,13,15,17,-1,-1,-1,-1,-1,-1,-1,-1],"loss_changes":[7.188841E-2,1.0459386E-2,3.4567222E-2,0E0,0E0,6.2422715E-3,2.628476E-2,1.2332154E-3,5.278427E-3,2.220959E-2,6.65455E-2,0E0,0E0,0E0,0E0,0E0,0E0,0E0,0E0],"parents":[2147483647,0,0,1,1,2,2,5,5,6,6,7,7,8,8,9,9,10,10],"right_children":[2,4,6,-1,-1,8,10,12,14,16,18,-1,-1,-1,-1,-1,-1,-1,-1],"split_conditions":[-4.0912786E-1,1.6104729E1,2.2850516E0,2.4355415E-3,-0E0,8.80927E-1,5.77E0,-1.5296855E-2,-1.679286E-1,5.1E0,5.86E0,2.0329364E-5,-3.9707765E-4,-0E0,5.9803826E-4,-2.7708223E-4,1.0400858E-3,-3.6610581E-3,-4.536612E-4],"split_indices":[4,0,0,0,0,0,8,3,4,7,7,0,0,0,0,0,0,0,0],"split_type":[0,0,0,0,0,0,0,0,0,0,0,0,0,0,0,0,0,0,0],"sum_hessian":[2.3E2,1.5E1,2.15E2,1.1E1,4E0,8.1E1,1.34E2,2E1,6.1E1,6.2E1,7.2E1,1.4E1,6E0,5E0,5.6E1,4.8E1,1.4E1,6E0,6.6E1],"tree_param":{"num_deleted":"0","num_feature":"12","num_nodes":"19","size_leaf_vector":"1"}},{"base_weights":[-1.6468355E-3,2.2934389E-3,-5.1919967E-3,-1.9199888E-5,-3.961301E-2,-1.611211E-2,1.2128378E-2,-5.1439656E-3,-0E0,1.0217585E-4,-9.919555E-4,1.3647752E-3,1.9843857E-4,-1.8758976E-4,9.348515E-5],"categories":[],"categories_nodes":[],"categories_segments":[],"categories_sizes":[],"default_left":[0,0,0,0,0,0,0,0,0,0,0,0,0,0,0],"id":12,"left_children":[1,-1,3,5,7,9,11,-1,13,-1,-1,-1,-1,-1,-1],"loss_changes":[5.805624E-2,0E0,3.6275975E-2,3.969176E-2,1.3403443E-1,3.285861E-2,1.4908126E-2,0E0,5.7601475E-4,0E0,0E0,0E0,0E0,0E0,0E0],"parents":[2147483647,0,0,2,2,3,3,4,4,5,5,6,6,8,8],"right_children":[2,-1,4,6,8,10,12,-1,14,-1,-1,-1,-1,-1,-1],"split_conditions":[-4.5226642E-1,2.2934389E-3,6.682429E-2,3.2885906E1,6.148953E0,4.897773E0,-3.1671754E-1,-5.1439656E-3,1.2010276E-1,1.0217585E-4,-9.919555E-4,1.3647752E-3,1.9843857E-4,-1.8758976E-4,9.348515E-5],"split_indices":[3,0,4,2,5,5,4,0,4,0,0,0,0,0,0],"split_type":[0,0,0,0,0,0,0,0,0,0,0,0,0,0,0],"sum_hessian":[2.33E2,8E0,2.25E2,1.99E2,2.6E1,8.9E1,1.1E2,5E0,2.1E1,3.9E1,5E1,1.2E1,9.8E1,1.1E1,1E1],"tree_param":{"num_deleted":"0","num_feature":"12","num_nodes":"15","size_leaf_vector":"1"}},{"base_weights":[4.3054635E-4,2.041397E-3,-2.5797656E-3,5.203588E-2,-5.4387995E-3,1.7476978E-3,-0E0,-1.6330792E-2,1.0336876E-2,-3.3101047E-4,-2.1856837E-3,1.2956939E-3,1.4325154E-4],"categories":[],"categories_nodes":[],"categories_segments":[],"categories_sizes":[],"default_left":[0,0,0,0,0,0,0,0,0,0,0,0,0],"id":13,"left_children":[1,-1,3,5,7,-1,-1,9,11,-1,-1,-1,-1],"loss_changes":[5.2316375E-2,0E0,2.9038975E-2,2.7810559E-3,3.6164872E-2,0E0,0E0,2.8534178E-2,9.797779E-3,0E0,0E0,0E0,0E0],"parents":[2147483647,0,0,2,2,3,3,4,4,7,7,8,8],"right_children":[2,-1,4,6,8,-1,-1,10,12,-1,-1,-1,-1],"split_conditions":[-4.5226642E-1,2.041397E-3,2.8133435E0,5.0632904E1,4.8181816E1,1.7476978E-3,-0E0,4.5390068E1,-2.9273582E-1,-3.3101047E-4,-2.1856837E-3,1.2956939E-3,1.4325154E-4],"split_indices":[3,0,6,2,2,0,0,2,4,0,0,0,0],"split_type":[0,0,0,0,0,0,0,0,0,0,0,0,0],"sum_hessian":[2.23E2,1E1,2.13E2,8E0,2.05E2,7E0,1E0,1.25E2,8E1,1.17E2,8E0,8E0,7.2E1],"tree_param":{"num_deleted":"0","num_feature":"12","num_nodes":"13","size_leaf_vector":"1"}},{"base_weights":[2.4840955E-3,6.407142E-2,-1.3237103E-3,2.2700473E-3,-0E0,-9.083691E-3,1.2443328E-2,-4.547103E-3,-6.551617E-2,2.6759714E-2,1.522007E-3,1.9352643E-5,-9.891262E-4,-4.118996E-3,-0E0,3.364045E-5,1.7156937E-3,-5.06316E-4,2.8960826E-4],"categories":[],"categories_nodes":[],"categories_segments":[],"categories_sizes":[],"default_left":[0,0,0,0,0,0,0,0,0,0,0,0,0,0,0,0,0,0,0],"id":14,"left_children":[1,3,5,-1,-1,7,9,11,13,15,17,-1,-1,-1,-1,-1,-1,-1,-1],"loss_changes":[6.053198E-2,7.1310066E-3,2.2959601E-2,0E0,0E0,2.956133E-2,8.7012835E-3,2.3324952E-2,3.677372E-2,1.5949728E-2,6.472473E-3,0E0,0E0,0E0,0E0,0E0,0E0,0E0,0E0],"parents":[2147483647,0,0,1,1,2,2,5,5,6,6,7,7,8,8,9,9,10,10],"right_children":[2,4,6,-1,-1,8,10,12,14,16,18,-1,-1,-1,-1,-1,-1,-1,-1],"split_conditions":[-4.0912786E-1,6.47E0,5.0349644E1,2.2700473E-3,-0E0,7.637141E-2,5.77E0,3E0,6.148953E0,3.4012387E0,6.74E0,1.9352643E-5,-9.891262E-4,-4.118996E-3,-0E0,3.364045E-5,1.7156937E-3,-5.06316E-4,2.8960826E-4],"split_indices":[4,7,2,0,0,4,7,1,5,5,7,0,0,0,0,0,0,0,0],"split_type":[0,0,0,0,0,0,0,0,0,0,0,0,0,0,0,0,0,0,0],"sum_hessian":[2.3E2,1.4E1,2.16E2,1.1E1,3E0,1.43E2,7.3E1,1.35E2,8E0,2.7E1,4.6E1,1.12E2,2.3E1,3E0,5E0,1.7E1,1E1,1E1,3.6E1],"tree_param":{"num_deleted":"0","num_feature":"12","num_nodes":"19","size_leaf_vector":"1"}},{"base_weights":[-0E0,6.7590736E-2,-3.9984677E-3,2.1257582E-3,-0E0,3.6757883E-2,-7.683705E-3,4.3806653E-2,-0E0,-1.6093718E-2,1.1420288E-2,1.418125E-3,-0E0,-3.6498368E-6,-1.5863831E-3,5.9062557E-4,-1.7335115E-4],"categories":[],"categories_nodes":[],"categories_segments":[],"categories_sizes":[],"default_left":[0,0,0,0,0,0,0,0,0,0,0,0,0,0,0,0,0],"id":15,"left_children":[1,3,5,-1,-1,7,9,11,-1,13,15,-1,-1,-1,-1,-1,-1],"loss_changes":[6.287593E-2,8.6070225E-4,3.0117927E-2,0E0,0E0,3.3290219E-3,3.32661E-2,1.8670838E-3,0E0,7.988727E-2,9.893611E-3,0E0,0E0,0E0,0E0,0E0,0E0],"parents":[2147483647,0,0,1,1,2,2,5,5,6,6,7,7,9,9,10,10],"right_children":[2,4,6,-1,-1,8,10,12,-1,14,16,-1,-1,-1,-1,-1,-1],"split_conditions":[-4.5226642E-1,9.192128E0,2.99E0,2.1257582E-3,-0E0,3E0,7.662858E0,-7.09572E-2,-0E0,5.4476614E0,7.954117E0,1.418125E-3,-0E0,-3.6498368E-6,-1.5863831E-3,5.9062557E-4,-1.7335115E-4],"split_indices":[3,5,7,0,0,9,6,3,0,6,6,0,0,0,0,0,0],"split_type":[0,0,0,0,0,0,0,0,0,0,0,0,0,0,0,0,0],"sum_hessian":[2.29E2,1.2E1,2.17E2,1.1E1,1E0,1.5E1,2.02E2,1.2E1,3E0,1.44E2,5.8E1,1.1E1,1E0,1.03E2,4.1E1,4.3E1,1.5E1],"tree_param":{"num_deleted":"0","num_feature":"12","num_nodes":"17","size_leaf_vector":"1"}},{"base_weights":[-1.6528254E-3,2.4573589E-3,-5.3771622E-2,1.5100841E-3,-0E0,-4.8597E-3,-0E0,2.915073E-3,-4.1855343E-2,1.4865957E-3,3.152483E-6,-5.677385E-5,-2.8023007E-3],"categories":[],"categories_nodes":[],"categories_segments":[],"categories_sizes":[],"default_left":[0,0,0,0,0,0,0,0,0,0,0,0,0],"id":16,"left_children":[1,3,5,-1,7,-1,-1,9,11,-1,-1,-1,-1],"loss_changes":[5.5604763E-2,2.6560616E-2,1.025082E-1,0E0,2.6174719E-2,0E0,0E0,2.0453181E-2,1.9136809E-2,0E0,0E0,0E0,0E0],"parents":[2147483647,0,0,1,1,2,2,4,4,7,7,8,8],"right_children":[2,4,6,-1,8,-1,-1,10,12,-1,-1,-1,-1],"split_conditions":[6.450248E-2,-4.5226642E-1,6.148953E0,1.5100841E-3,8.719992E0,-4.8597E-3,-0E0,2.8133435E0,3E0,1.4865957E-3,3.152483E-6,-5.677385E-5,-2.8023007E-3],"split_indices":[4,3,5,0,5,0,0,6,1,0,0,0,0],"split_type":[0,0,0,0,0,0,0,0,0,0,0,0,0],"sum_hessian":[2.34E2,2.16E2,1.8E1,1E1,2.06E2,5E0,1.3E1,1.93E2,1.3E1,8E0,1.85E2,9E0,4E0],"tree_param":{"num_deleted":"0","num_feature":"12","num_nodes":"13","size_leaf_vector":"1"}},{"base_weights":[2.1126234E-5,6.575899E-2,-2.7483741E-3,2.0942113E-3,-0E0,1.2755452E-2,-1.3339594E-2,4.2903364E-2,8.385838E-3,-2.4020692E-2,1.0929614E-2,1.4309821E-3,-0E0,6.3056445E-6,5.33197E-4,-1.8474933E-4,-1.2688041E-3,1.5291085E-3,-7.702642E-5],"categories":[],"categories_nodes":[],"categories_segments":[],"categories_sizes":[],"default_left":[0,0,0,0,0,0,0,0,0,0,0,0,0,0,0,0,0,0,0],"id":17,"left_children":[1,3,5,-1,-1,7,9,11,13,15,17,-1,-1,-1,-1,-1,-1,-1,-1],"loss_changes":[4.9266133E-2,1.1635534E-3,3.7174564E-2,0E0,0E0,6.103956E-3,3.7344247E-2,1.2010438E-3,4.414514E-3,2.7207512E-2,2.6588563E-2,0E0,0E0,0E0,0E0,0E0,0E0,0E0,0E0],"parents":[2147483647,0,0,1,1,2,2,5,5,6,6,7,7,8,8,9,9,10,10],"right_children":[2,4,6,-1,-1,8,10,12,14,16,18,-1,-1,-1,-1,-1,-1,-1,-1],"split_conditions":[-4.5226642E-1,1.523259E1,2.2850516E0,2.0942113E-3,-0E0,2.94E0,5.2830173E1,1.7163831E0,7.632706E0,5.4476614E0,5.77E0,1.4309821E-3,-0E0,6.3056445E-6,5.33197E-4,-1.8474933E-4,-1.2688041E-3,1.5291085E-3,-7.702642E-5],"split_indices":[3,0,0,0,0,7,2,0,6,6,7,0,0,0,0,0,0,0,0],"split_type":[0,0,0,0,0,0,0,0,0,0,0,0,0,0,0,0,0,0,0],"sum_hessian":[2.34E2,1E1,2.24E2,9E0,1E0,8.7E1,1.37E2,7E0,8E1,9.8E1,3.9E1,6E0,1E0,4.9E1,3.1E1,5.3E1,4.5E1,1.1E1,2.8E1],"tree_param":{"num_deleted":"0","num_feature":"12","num_nodes":"19","size_leaf_vector":"1"}},{"base_weights":[3.1283642E-3,5.4034572E-2,2.9781675E-5,1.7073058E-3,-0E0,1.402946E-2,-9.437964E-3,4.7297616E-2,9.048221E-3,-2.2476017E-2,1.2505677E-2,1.5935061E-3,-0E0,-0E0,5.656512E-4,-6.095138E-5,-1.226419E-3,6.601504E-4,-1.8978928E-4],"categories":[],"categories_nodes":[],"categories_segments":[],"categories_sizes":[],"default_left":[0,0,0,0,0,0,0,0,0,0,0,0,0,0,0,0,0,0,0],"id":18,"left_children":[1,3,5,-1,-1,7,9,11,13,15,17,-1,-1,-1,-1,-1,-1,-1,-1],"loss_changes":[2.9925061E-2,2.7062E-4,2.8956275E-2,0E0,0E0,9.0176705E-3,3.6754802E-2,2.4376363E-3,6.714244E-3,2.6103549E-2,9.5783025E-3,0E0,0E0,0E0,0E0,0E0,0E0,0E0,0E0],"parents":[2147483647,0,0,1,1,2,2,5,5,6,6,7,7,8,8,9,9,10,10],"right_children":[2,4,6,-1,-1,8,10,12,14,16,18,-1,-1,-1,-1,-1,-1,-1,-1],"split_conditions":[-4.5226642E-1,1.6104729E1,2.617233E0,1.7073058E-3,-0E0,2.8133435E0,4.7058784E1,5.0632904E1,3.5648103E0,5.4476614E0,6.984126E1,1.5935061E-3,-0E0,-0E0,5.656512E-4,-6.095138E-5,-1.226419E-3,6.601504E-4,-1.8978928E-4],"split_indices":[3,0,0,0,0,6,2,2,5,6,2,0,0,0,0,0,0,0,0],"split_type":[0,0,0,0,0,0,0,0,0,0,0,0,0,0,0,0,0,0,0],"sum_hessian":[2.23E2,1E1,2.13E2,9E0,1E0,9E1,1.23E2,8E0,8.2E1,8E1,4.3E1,7E0,1E0,4.5E1,3.7E1,4.1E1,3.9E1,3.2E1,1.1E1],"tree_param":{"num_deleted":"0","num_feature":"12","num_nodes":"19","size_leaf_vector":"1"}},{"base_weights":[4.333593E-3,-2.0240052E-2,7.72262E-3,8.595211E-5,-3.0518238E-2,1.3777721E-3,3.2076895E-2,-3.5730395E-2,-0E0,1.2708781E-2,-9.555364E-3,4.537591E-2,-0E0,-0E0,-1.1786388E-3,1.159304E-3,1.9118185E-4,-9.942157E-4,-0E0,1.6902947E-3,-0E0,-3.2041775E-4,-0E0],"categories":[],"categories_nodes":[],"categories_segments":[],"categories_sizes":[],"default_left":[0,0,0,0,0,0,0,0,0,0,0,0,0,0,0,0,0,0,0,0,0,0,0],"id":19,"left_children":[1,3,5,-1,7,9,11,13,-1,15,17,19,21,-1,-1,-1,-1,-1,-1,-1,-1,-1,-1],"loss_changes":[1.6976483E-2,8.314766E-3,2.6742551E-2,0E0,4.007347E-3,2.013425E-2,1.9580945E-2,2.9934645E-3,0E0,8.890971E-3,1.4935404E-2,1.5363425E-2,5.703751E-4,0E0,0E0,0E0,0E0,0E0,0E0,0E0,0E0,0E0,0E0],"parents":[2147483647,0,0,1,1,2,2,4,4,5,5,6,6,7,7,9,9,10,10,11,11,12,12],"right_children":[2,4,6,-1,8,10,12,14,-1,16,18,20,22,-1,-1,-1,-1,-1,-1,-1,-1,-1,-1],"split_conditions":[1.1538455E1,3.24E0,1.0356934E1,8.595211E-5,7.86E0,2.7184277E0,1.523259E1,1E0,-0E0,2.99E0,6.1815925E0,6.18E0,3.1999983E1,-0E0,-1.1786388E-3,1.159304E-3,1.9118185E-4,-9.942157E-4,-0E0,1.6902947E-3,-0E0,-3.2041775E-4,-0E0],"split_indices":[2,7,0,0,7,0,0,1,0,9,5,7,2,0,0,0,0,0,0,0,0,0,0],"split_type":[0,0,0,0,0,0,0,0,0,0,0,0,0,0,0,0,0,0,0,0,0,0,0],"sum_hessian":[2.16E2,2.2E1,1.94E2,4E0,1.8E1,1.58E2,3.6E1,1.6E1,2E0,8.2E1,7.6E1,2.7E1,9E0,1E0,1.5E1,1.2E1,7E1,1.9E1,5.7E1,2.2E1,5E0,4E0,5E0],"tree_param":{"num_deleted":"0","num_feature":"12","num_nodes":"23","size_leaf_vector":"1"}},{"base_weights":[-1.7556045E-4,5.4203294E-2,-3.7078173E-3,5.703408E-2,-0E0,-1.4052035E-2,9.215771E-3,1.8062895E-3,-0E0,2.5704682E-3,-2.9005095E-2,3.7526265E-2,4.431373E-3,3.2342417E-4,-2.0594685E-4,-1.3235438E-3,1.3416272E-4,1.6960995E-3,-0E0,-1.1353983E-4,4.0479313E-4],"categories":[],"categories_nodes":[],"categories_segments":[],"categories_sizes":[],"default_left":[0,0,0,0,0,0,0,0,0,0,0,0,0,0,0,0,0,0,0,0,0],"id":20,"left_children":[1,3,5,7,-1,9,11,-1,-1,13,15,17,19,-1,-1,-1,-1,-1,-1,-1,-1],"loss_changes":[3.817737E-2,5.2578E-4,2.9087909E-2,4.702732E-4,0E0,3.3290565E-2,7.963773E-3,0E0,0E0,4.8037814E-3,3.856595E-2,5.096155E-3,7.1269344E-3,0E0,0E0,0E0,0E0,0E0,0E0,0E0,0E0],"parents":[2147483647,0,0,1,1,2,2,3,3,5,5,6,6,9,9,10,10,11,11,12,12],"right_children":[2,4,6,8,-1,10,12,-1,-1,14,16,18,20,-1,-1,-1,-1,-1,-1,-1,-1],"split_conditions":[-4.5226642E-1,-3.4347346E-1,4.8181816E1,6.2E0,-0E0,3.77E0,-2.9273582E-1,1.8062895E-3,-0E0,-8.415498E-2,7.662858E0,4.3765836E0,2E0,3.2342417E-4,-2.0594685E-4,-1.3235438E-3,1.3416272E-4,1.6960995E-3,-0E0,-1.1353983E-4,4.0479313E-4],"split_indices":[3,4,2,8,0,11,4,0,0,3,6,6,1,0,0,0,0,0,0,0,0],"split_type":[0,0,0,0,0,0,0,0,0,0,0,0,0,0,0,0,0,0,0,0,0],"sum_hessian":[2.23E2,1.1E1,2.12E2,1E1,1E0,1.22E2,9E1,9E0,1E0,5.5E1,6.7E1,9E0,8.1E1,3.5E1,2E1,4.8E1,1.9E1,5E0,4E0,3.7E1,4.4E1],"tree_param":{"num_deleted":"0","num_feature":"12","num_nodes":"21","size_leaf_vector":"1"}},{"base_weights":[-1.6411559E-3,8.262351E-3,-1.566408E-2,-0E0,2.840764E-2,-1.2064164E-1,-8.9178735E-4,1.3570971E-3,-2.9423048E-3,2.1700223E-3,4.884622E-3,-0E0,-3.904117E-3,6.9076107E-3,-2.1894457E-2,-4.4775364E-4,-0E0,-8.721661E-5,8.292687E-4,1.2955988E-3,7.458427E-5,-2.2609713E-3,-0E0],"categories":[],"categories_nodes":[],"categories_segments":[],"categories_sizes":[],"default_left":[0,0,0,0,0,0,0,0,0,0,0,0,0,0,0,0,0,0,0,0,0,0,0],"id":21,"left_children":[1,3,5,7,9,11,13,-1,15,-1,17,-1,-1,19,21,-1,-1,-1,-1,-1,-1,-1,-1],"loss_changes":[3.1561222E-2,2.0450212E-2,1.3661195E-1,1.3022598E-2,2.9122975E-2,9.258524E-3,1.5737426E-2,0E0,4.156188E-3,0E0,7.164298E-3,0E0,0E0,4.9497457E-3,3.249701E-2,0E0,0E0,0E0,0E0,0E0,0E0,0E0,0E0],"parents":[2147483647,0,0,1,1,2,2,3,3,4,4,5,5,6,6,8,8,10,10,13,13,14,14],"right_children":[2,4,6,8,10,12,14,-1,16,-1,18,-1,-1,20,22,-1,-1,-1,-1,-1,-1,-1,-1],"split_conditions":[5.399782E0,4.19E0,6E0,2.8133435E0,5.08E0,5.437545E0,3E0,1.3570971E-3,3.093888E0,2.1700223E-3,5.86E0,-0E0,-3.904117E-3,6.2E0,2.7586193E1,-4.4775364E-4,-0E0,-8.721661E-5,8.292687E-4,1.2955988E-3,7.458427E-5,-2.2609713E-3,-0E0],"split_indices":[6,7,7,6,11,6,1,0,6,0,11,0,0,9,2,0,0,0,0,0,0,0,0],"split_type":[0,0,0,0,0,0,0,0,0,0,0,0,0,0,0,0,0,0,0,0,0,0,0],"sum_hessian":[2.2E2,1.25E2,9.5E1,9E1,3.5E1,1E1,8.5E1,5E0,8.5E1,1E1,2.5E1,1E0,9E0,5.9E1,2.6E1,2.1E1,6.4E1,1.6E1,9E0,3E0,5.6E1,7E0,1.9E1],"tree_param":{"num_deleted":"0","num_feature":"12","num_nodes":"23","size_leaf_vector":"1"}},{"base_weights":[-0E0,1.2858992E-3,-2.5939045E-3,1.0451386E-2,-1.2620883E-2,-6.724671E-3,1.450154E-2,-2.3700172E-2,8.987606E-3,-0E0,-4.3488262E-4,-0E0,5.027193E-4,-4.3581254E-4,-2.1749015E-3,1.3285576E-3,-4.8866583E-5],"categories":[],"categories_nodes":[],"categories_segments":[],"categories_sizes":[],"default_left":[0,0,0,0,0,0,0,0,0,0,0,0,0,0,0,0,0],"id":22,"left_children":[1,-1,3,5,7,9,11,13,15,-1,-1,-1,-1,-1,-1,-1,-1],"loss_changes":[2.3406286E-2,0E0,2.6771434E-2,6.718723E-3,3.0173657E-2,7.18165E-4,3.1817807E-3,2.694888E-2,1.8577788E-2,0E0,0E0,0E0,0E0,0E0,0E0,0E0,0E0],"parents":[2147483647,0,0,2,2,3,3,4,4,5,5,6,6,7,7,8,8],"right_children":[2,-1,4,6,8,10,12,14,16,-1,-1,-1,-1,-1,-1,-1,-1],"split_conditions":[-4.4531456E-1,1.2858992E-3,2.683364E0,8.308645E-1,5.135134E1,-1.5296855E-2,-1.4628239E-1,2.8635817E-2,5.77E0,-0E0,-4.3488262E-4,-0E0,5.027193E-4,-4.3581254E-4,-2.1749015E-3,1.3285576E-3,-4.8866583E-5],"split_indices":[3,0,0,0,2,3,3,3,7,0,0,0,0,0,0,0,0],"split_type":[0,0,0,0,0,0,0,0,0,0,0,0,0,0,0,0,0],"sum_hessian":[2.12E2,1.1E1,2.01E2,8.3E1,1.18E2,1.1E1,7.2E1,8.1E1,3.7E1,6E0,5E0,7E0,6.5E1,7.1E1,1E1,1E1,2.7E1],"tree_param":{"num_deleted":"0","num_feature":"12","num_nodes":"17","size_leaf_vector":"1"}},{"base_weights":[-1.3583433E-3,1.0751121E-2,-9.741105E-3,-0E0,1.8217962E-2,-3.1837963E-2,1.0119331E-2,-6.124475E-3,3.1291042E-3,2.1409512E-2,-0E0,-5.0398257E-2,-0E0,-1.0868798E-2,2.1376872E-2,-0E0,-2.495176E-4,1.7933807E-4,-0E0,7.902672E-5,9.7371516E-4,-3.0044894E-5,-2.6688178E-3,-0E0,3.0005282E-5,2.9309733E-5,-8.051157E-4,-0E0,1.2504046E-3],"categories":[],"categories_nodes":[],"categories_segments":[],"categories_sizes":[],"default_left":[0,0,0,0,0,0,0,0,0,0,0,0,0,0,0,0,0,0,0,0,0,0,0,0,0,0,0,0,0],"id":23,"left_children":[1,3,5,7,9,11,13,15,17,19,-1,21,23,25,27,-1,-1,-1,-1,-1,-1,-1,-1,-1,-1,-1,-1,-1,-1],"loss_changes":[2.2437602E-2,6.9861542E-3,6.2178083E-2,7.2261057E-4,2.3248196E-3,4.1304387E-2,1.782238E-2,3.425007E-4,4.439876E-4,5.117126E-3,0E0,7.282345E-2,1.5005282E-5,6.7737196E-3,2.1039316E-2,0E0,0E0,0E0,0E0,0E0,0E0,0E0,0E0,0E0,0E0,0E0,0E0,0E0,0E0],"parents":[2147483647,0,0,1,1,2,2,3,3,4,4,5,5,6,6,7,7,8,8,9,9,11,11,12,12,13,13,14,14],"right_children":[2,4,6,8,10,12,14,16,18,20,-1,22,24,26,28,-1,-1,-1,-1,-1,-1,-1,-1,-1,-1,-1,-1,-1,-1],"split_conditions":[2.2850516E0,1.126611E0,6.787276E0,3.3E0,6.410254E1,7.8E0,4.19E0,4.0201E0,5.6989243E1,3.0769226E1,-0E0,5.61E0,4.157303E1,4.897773E0,1.0356934E1,-0E0,-2.495176E-4,1.7933807E-4,-0E0,7.902672E-5,9.7371516E-4,-3.0044894E-5,-2.6688178E-3,-0E0,3.0005282E-5,2.9309733E-5,-8.051157E-4,-0E0,1.2504046E-3],"split_indices":[0,0,0,10,2,7,10,2,2,2,0,9,2,5,0,0,0,0,0,0,0,0,0,0,0,0,0,0,0],"split_type":[0,0,0,0,0,0,0,0,0,0,0,0,0,0,0,0,0,0,0,0,0,0,0,0,0,0,0,0,0],"sum_hessian":[2.2E2,8.5E1,1.35E2,3.5E1,5E1,6.6E1,6.9E1,1.2E1,2.3E1,4.1E1,9E0,4.2E1,2.4E1,2.1E1,4.8E1,1E0,1.1E1,1.8E1,5E0,1.9E1,2.2E1,2E1,2.2E1,1E1,1.4E1,9E0,1.2E1,2.4E1,2.4E1],"tree_param":{"num_deleted":"0","num_feature":"12","num_nodes":"29","size_leaf_vector":"1"}},{"base_weights":[-1.6359634E-4,5.495713E-2,-3.8577404E-3,1.8183917E-3,-0E0,-0E0,-3.801353E-2,3.3225873E-3,-5.6820493E-2,-4.41467E-3,-0E0,-7.8221457E-4,2.08831E-4,-0E0,-2.8932944E-3,-3.100084E-5,-0E0],"categories":[],"categories_nodes":[],"categories_segments":[],"categories_sizes":[],"default_left":[0,0,0,0,0,0,0,0,0,0,0,0,0,0,0,0,0],"id":24,"left_children":[1,3,5,-1,-1,7,9,11,13,-1,15,-1,-1,-1,-1,-1,-1],"loss_changes":[4.254644E-2,1.1496507E-3,3.1391725E-2,0E0,0E0,3.4372166E-2,9.524807E-2,1.8485142E-2,2.3522008E-2,0E0,1.3881864E-5,0E0,0E0,0E0,0E0,0E0,0E0],"parents":[2147483647,0,0,1,1,2,2,5,5,6,6,7,7,8,8,10,10],"right_children":[2,4,6,-1,-1,8,10,12,14,-1,16,-1,-1,-1,-1,-1,-1],"split_conditions":[-4.5226642E-1,6.18E0,6.682429E-2,1.8183917E-3,-0E0,8.792238E0,6.148953E0,-4.075689E-1,3E0,-4.41467E-3,1.3161016E-1,-7.8221457E-4,2.08831E-4,-0E0,-2.8932944E-3,-3.100084E-5,-0E0],"split_indices":[3,7,4,0,0,5,5,3,1,0,4,0,0,0,0,0,0],"split_type":[0,0,0,0,0,0,0,0,0,0,0,0,0,0,0,0,0],"sum_hessian":[2.32E2,1.2E1,2.2E2,1E1,2E0,1.97E2,2.3E1,1.88E2,9E0,5E0,1.8E1,1.7E1,1.71E2,4E0,5E0,1.2E1,6E0],"tree_param":{"num_deleted":"0","num_feature":"12","num_nodes":"17","size_leaf_vector":"1"}},{"base_weights":[-0E0,5.2509345E-2,-3.3254903E-3,1.8549677E-3,-0E0,1.1008477E-2,-1.3487426E-2,-0E0,1.9652229E-2,-0E0,-2.9934231E-2,-1.0379204E-4,9.143396E-5,1.6312017E-3,2.75813E-4,-7.494984E-4,1.9718008E-4,-1.5039543E-3,-0E0],"categories":[],"categories_nodes":[],"categories_segments":[],"categories_sizes":[],"default_left":[0,0,0,0,0,0,0,0,0,0,0,0,0,0,0,0,0,0,0],"id":25,"left_children":[1,3,5,-1,-1,7,9,11,13,15,17,-1,-1,-1,-1,-1,-1,-1,-1],"loss_changes":[3.817743E-2,2.3882724E-3,3.1130813E-2,0E0,0E0,7.199781E-3,2.6894698E-2,4.1570107E-4,9.484235E-3,1.3073192E-2,3.2756295E-2,0E0,0E0,0E0,0E0,0E0,0E0,0E0,0E0],"parents":[2147483647,0,0,1,1,2,2,5,5,6,6,7,7,8,8,9,9,10,10],"right_children":[2,4,6,-1,-1,8,10,12,14,16,18,-1,-1,-1,-1,-1,-1,-1,-1],"split_conditions":[-4.0912786E-1,1.523259E1,2.2850516E0,1.8549677E-3,-0E0,1.3081921E0,-1.3432115E-1,3.3E0,1.4116496E0,1.1538455E1,7.9E0,-1.0379204E-4,9.143396E-5,1.6312017E-3,2.75813E-4,-7.494984E-4,1.9718008E-4,-1.5039543E-3,-0E0],"split_indices":[4,0,0,0,0,0,4,11,0,2,8,0,0,0,0,0,0,0,0],"split_type":[0,0,0,0,0,0,0,0,0,0,0,0,0,0,0,0,0,0,0],"sum_hessian":[2.22E2,1.2E1,2.1E2,9E0,3E0,8.3E1,1.27E2,3.9E1,4.4E1,7.2E1,5.5E1,1.2E1,2.7E1,7E0,3.7E1,1.6E1,5.6E1,3.2E1,2.3E1],"tree_param":{"num_deleted":"0","num_feature":"12","num_nodes":"19","size_leaf_vector":"1"}},{"base_weights":[-7.030121E-4,4.7109116E-2,-3.7762658E-3,1.7239937E-3,-0E0,8.67901E-3,-1.4762183E-2,4.1432872E-2,4.6495544E-3,-2.8460052E-2,-0E0,-0E0,1.4360715E-3,-7.248791E-5,4.6499172E-4,-1.3306222E-3,-0E0,-4.633255E-4,3.3674034E-4],"categories":[],"categories_nodes":[],"categories_segments":[],"categories_sizes":[],"default_left":[0,0,0,0,0,0,0,0,0,0,0,0,0,0,0,0,0,0,0],"id":26,"left_children":[1,3,5,-1,-1,7,9,11,13,15,17,-1,-1,-1,-1,-1,-1,-1,-1],"loss_changes":[2.9640535E-2,3.0903183E-3,3.0702787E-2,0E0,0E0,8.265156E-3,2.4659831E-2,2.306657E-3,8.399007E-3,2.766297E-2,1.037284E-2,0E0,0E0,0E0,0E0,0E0,0E0,0E0,0E0],"parents":[2147483647,0,0,1,1,2,2,5,5,6,6,7,7,8,8,9,9,10,10],"right_children":[2,4,6,-1,-1,8,10,12,14,16,18,-1,-1,-1,-1,-1,-1,-1,-1],"split_conditions":[-4.1343477E-1,1.523259E1,3.1458063E0,1.7239937E-3,-0E0,2.8133435E0,6.874347E0,2.7119267E0,3.56675E0,7.86E0,5.1E0,-0E0,1.4360715E-3,-7.248791E-5,4.6499172E-4,-1.3306222E-3,-0E0,-4.633255E-4,3.3674034E-4],"split_indices":[4,0,0,0,0,6,0,6,5,7,7,0,0,0,0,0,0,0,0],"split_type":[0,0,0,0,0,0,0,0,0,0,0,0,0,0,0,0,0,0,0],"sum_hessian":[2.29E2,1.1E1,2.18E2,8E0,3E0,9.8E1,1.2E2,7E0,9.1E1,6.2E1,5.8E1,1E0,6E0,5E1,4.1E1,3.9E1,2.3E1,2.4E1,3.4E1],"tree_param":{"num_deleted":"0","num_feature":"12","num_nodes":"19","size_leaf_vector":"1"}},{"base_weights":[-7.817806E-4,1.1670787E-2,-8.333656E-3,-0E0,1.5708903E-2,-2.5789995E-2,7.6868576E-3,-4.2672046E-3,-0E0,1.8886592E-2,-0E0,-4.321831E-2,-0E0,4.1332953E-2,1.0577862E-3,-0E0,-2.1960428E-4,-0E0,6.541498E-4,-0E0,-2.308057E-3,1.5300966E-4,-7.052732E-5,-0E0,1.3071975E-3,-5.9988553E-4,3.7710098E-4],"categories":[],"categories_nodes":[],"categories_segments":[],"categories_sizes":[],"default_left":[0,0,0,0,0,0,0,0,0,0,0,0,0,0,0,0,0,0,0,0,0,0,0,0,0,0,0],"id":27,"left_children":[1,3,5,7,9,11,13,15,-1,17,-1,19,21,23,25,-1,-1,-1,-1,-1,-1,-1,-1,-1,-1,-1,-1],"loss_changes":[2.1580882E-2,5.475131E-3,4.3957483E-2,1.6388131E-4,2.8383527E-3,3.603555E-2,1.2668425E-2,2.6479462E-4,0E0,3.6787447E-3,0E0,6.2055923E-2,5.196008E-4,3.5241246E-6,1.5748097E-2,0E0,0E0,0E0,0E0,0E0,0E0,0E0,0E0,0E0,0E0,0E0,0E0],"parents":[2147483647,0,0,1,1,2,2,3,3,4,4,5,5,6,6,7,7,9,9,11,11,12,12,13,13,14,14],"right_children":[2,4,6,8,10,12,14,16,-1,18,-1,20,22,24,26,-1,-1,-1,-1,-1,-1,-1,-1,-1,-1,-1,-1],"split_conditions":[2.452164E0,8.5091543E-1,6.787276E0,7.7607107E0,5.918367E1,7.5853467E0,-4.5226642E-1,4.0201E0,-0E0,-1.4522415E-1,-0E0,4.9523854E0,7.954117E0,9.562861E0,-4.0406537E-1,-0E0,-2.1960428E-4,-0E0,6.541498E-4,-0E0,-2.308057E-3,1.5300966E-4,-7.052732E-5,-0E0,1.3071975E-3,-5.9988553E-4,3.7710098E-4],"split_indices":[0,0,0,6,2,6,3,2,0,3,0,6,6,0,3,0,0,0,0,0,0,0,0,0,0,0,0],"split_type":[0,0,0,0,0,0,0,0,0,0,0,0,0,0,0,0,0,0,0,0,0,0,0,0,0,0,0],"sum_hessian":[2.31E2,8.2E1,1.49E2,1.5E1,6.7E1,7.4E1,7.5E1,8E0,7E0,5.4E1,1.3E1,4.5E1,2.9E1,9E0,6.6E1,1E0,7E0,6E0,4.8E1,2.1E1,2.4E1,1.6E1,1.3E1,1E0,8E0,2E1,4.6E1],"tree_param":{"num_deleted":"0","num_feature":"12","num_nodes":"27","size_leaf_vector":"1"}},{"base_weights":[1.0857279E-3,3.8418945E-2,-2.9066938E-3,-0E0,5.512196E-2,8.585589E-4,-3.0848455E-2,1.996982E-3,-0E0,-2.041752E-3,3.501109E-2,-1.2253365E-1,-0E0,4.5484358E-5,-7.5312384E-4,1.176545E-3,-0E0,-0E0,-4.1757375E-3,-4.516052E-5,3.2844546E-5],"categories":[],"categories_nodes":[],"categories_segments":[],"categories_sizes":[],"default_left":[0,0,0,0,0,0,0,0,0,0,0,0,0,0,0,0,0,0,0,0,0],"id":28,"left_children":[1,3,5,-1,7,9,11,-1,-1,13,15,17,19,-1,-1,-1,-1,-1,-1,-1,-1],"loss_changes":[3.8391538E-2,1.4752932E-2,2.5013905E-2,0E0,5.9502125E-3,2.1396056E-2,7.84559E-2,0E0,0E0,1.6017752E-2,3.7708357E-3,1.1143766E-2,4.0377865E-5,0E0,0E0,0E0,0E0,0E0,0E0,0E0,0E0],"parents":[2147483647,0,0,1,1,2,2,4,4,5,5,6,6,9,9,10,10,11,11,12,12],"right_children":[2,4,6,-1,8,10,12,-1,-1,14,16,18,20,-1,-1,-1,-1,-1,-1,-1,-1],"split_conditions":[-3.880739E-1,3.6274161E0,5.5473626E-2,-0E0,6.18E0,-2.369521E-3,5.98E0,1.996982E-3,-0E0,3E0,7.7492847E0,5.9484836E-2,1.2010276E-1,4.5484358E-5,-7.5312384E-4,1.176545E-3,-0E0,-0E0,-4.1757375E-3,-4.516052E-5,3.2844546E-5],"split_indices":[4,6,4,0,7,4,7,0,0,1,6,4,4,0,0,0,0,0,0,0,0],"split_type":[0,0,0,0,0,0,0,0,0,0,0,0,0,0,0,0,0,0,0,0,0],"sum_hessian":[2.32E2,2.4E1,2.08E2,8E0,1.6E1,1.81E2,2.7E1,1.2E1,4E0,1.65E2,1.6E1,6E0,2.1E1,1.4E2,2.5E1,1.5E1,1E0,1E0,5E0,1.1E1,1E1],"tree_param":{"num_deleted":"0","num_feature":"12","num_nodes":"21","size_leaf_vector":"1"}},{"base_weights":[3.690147E-4,4.672494E-2,-2.0036083E-3,1.8010037E-3,-0E0,1.0093001E-2,-1.0016579E-2,-0E0,2.0611554E-2,-1.9268177E-2,8.774036E-3,-2.884414E-4,1.2598273E-4,1.4468849E-3,2.7224686E-4,-1.603321E-4,-1.1516375E-3,1.2297431E-3,-0E0],"categories":[],"categories_nodes":[],"categories_segments":[],"categories_sizes":[],"default_left":[0,0,0,0,0,0,0,0,0,0,0,0,0,0,0,0,0,0,0],"id":29,"left_children":[1,3,5,-1,-1,7,9,11,13,15,17,-1,-1,-1,-1,-1,-1,-1,-1],"loss_changes":[2.9202422E-2,4.0542856E-3,2.0642566E-2,0E0,0E0,8.843952E-3,2.433962E-2,1.7879824E-3,6.576635E-3,2.0179972E-2,1.1966348E-2,0E0,0E0,0E0,0E0,0E0,0E0,0E0,0E0],"parents":[2147483647,0,0,1,1,2,2,5,5,6,6,7,7,8,8,9,9,10,10],"right_children":[2,4,6,-1,-1,8,10,12,14,16,18,-1,-1,-1,-1,-1,-1,-1,-1],"split_conditions":[-4.0912786E-1,1.523259E1,2.2850516E0,1.8010037E-3,-0E0,1.2706522E0,5.2702694E1,3.3E0,1.4116496E0,-1.3432115E-1,5.61E0,-2.884414E-4,1.2598273E-4,1.4468849E-3,2.7224686E-4,-1.603321E-4,-1.1516375E-3,1.2297431E-3,-0E0],"split_indices":[4,0,0,0,0,0,2,10,0,4,8,0,0,0,0,0,0,0,0],"split_type":[0,0,0,0,0,0,0,0,0,0,0,0,0,0,0,0,0,0,0],"sum_hessian":[2.23E2,1.2E1,2.11E2,8E0,4E0,7.9E1,1.32E2,4E1,3.9E1,9.2E1,4E1,1.3E1,2.7E1,8E0,3.1E1,5.7E1,3.5E1,8E0,3.2E1],"tree_param":{"num_deleted":"0","num_feature":"12","num_nodes":"19","size_leaf_vector":"1"}},{"base_weights":[2.8383697E-4,4.732334E-2,-2.1532932E-3,1.666903E-3,-0E0,-7.976956E-3,1.25857005E-2,1.1281999E-3,-3.4256276E-2,1.9216906E-2,-0E0,-5.488377E-4,1.7255178E-4,-2.180639E-3,-4.1426736E-4,1.9568921E-4,9.480036E-4,-2.8996803E-5,-0E0],"categories":[],"categories_nodes":[],"categories_segments":[],"categories_sizes":[],"default_left":[0,0,0,0,0,0,0,0,0,0,0,0,0,0,0,0,0,0,0],"id":30,"left_children":[1,3,5,-1,-1,7,9,11,13,15,17,-1,-1,-1,-1,-1,-1,-1,-1],"loss_changes":[3.0069295E-2,1.7594714E-3,1.7664855E-2,0E0,0E0,4.0678717E-2,6.059589E-3,9.088344E-3,2.4137128E-2,2.2692308E-3,1.2145099E-5,0E0,0E0,0E0,0E0,0E0,0E0,0E0,0E0],"parents":[2147483647,0,0,1,1,2,2,5,5,6,6,7,7,8,8,9,9,10,10],"right_children":[2,4,6,-1,-1,8,10,12,14,16,18,-1,-1,-1,-1,-1,-1,-1,-1],"split_conditions":[-4.1343477E-1,6.18E0,7.6162605E0,1.666903E-3,-0E0,4.963468E0,7.954117E0,-4.041852E-1,6E0,-1.9278618E-2,9.9412665E-2,-5.488377E-4,1.7255178E-4,-2.180639E-3,-4.1426736E-4,1.9568921E-4,9.480036E-4,-2.8996803E-5,-0E0],"split_indices":[4,7,6,0,0,6,6,3,7,4,3,0,0,0,0,0,0,0,0],"split_type":[0,0,0,0,0,0,0,0,0,0,0,0,0,0,0,0,0,0,0],"sum_hessian":[2.21E2,1.2E1,2.09E2,9E0,3E0,1.55E2,5.4E1,1.13E2,4.2E1,3.9E1,1.5E1,1.7E1,9.6E1,1.2E1,3E1,2.4E1,1.5E1,1.2E1,3E0],"tree_param":{"num_deleted":"0","num_feature":"12","num_nodes":"19","size_leaf_vector":"1"}},{"base_weights":[-1.3514672E-4,4.538504E-2,-3.6287368E-3,1.5501762E-3,-0E0,9.116525E-3,-1.1766809E-2,-5.821409E-4,1.7273651E-2,-1.9876286E-2,9.728019E-3,-3.9173427E-4,-0E0,-0E0,6.1545626E-4,-7.964372E-5,-9.2622114E-4,1.3060776E-3,-1.19580516E-4],"categories":[],"categories_nodes":[],"categories_segments":[],"categories_sizes":[],"default_left":[0,0,0,0,0,0,0,0,0,0,0,0,0,0,0,0,0,0,0],"id":31,"left_children":[1,3,5,-1,-1,7,9,11,13,15,17,-1,-1,-1,-1,-1,-1,-1,-1],"loss_changes":[3.161153E-2,5.333405E-4,2.2257611E-2,0E0,0E0,7.85004E-3,2.4565972E-2,1.524052E-3,4.1962555E-3,1.569432E-2,1.989238E-2,0E0,0E0,0E0,0E0,0E0,0E0,0E0,0E0],"parents":[2147483647,0,0,1,1,2,2,5,5,6,6,7,7,8,8,9,9,10,10],"right_children":[2,4,6,-1,-1,8,10,12,14,16,18,-1,-1,-1,-1,-1,-1,-1,-1],"split_conditions":[-4.5226642E-1,6.18E0,2.2850516E0,1.5501762E-3,-0E0,1.1698635E0,5.2830173E1,8.308645E-1,-1.679286E-1,5E0,5.77E0,-3.9173427E-4,-0E0,-0E0,6.1545626E-4,-7.964372E-5,-9.2622114E-4,1.3060776E-3,-1.19580516E-4],"split_indices":[3,7,0,0,0,0,2,0,4,7,7,0,0,0,0,0,0,0,0],"split_type":[0,0,0,0,0,0,0,0,0,0,0,0,0,0,0,0,0,0,0],"sum_hessian":[2.23E2,1.3E1,2.1E2,1E1,3E0,7.7E1,1.33E2,3E1,4.7E1,1E2,3.3E1,8E0,2.2E1,4E0,4.3E1,4.3E1,5.7E1,1.1E1,2.2E1],"tree_param":{"num_deleted":"0","num_feature":"12","num_nodes":"19","size_leaf_vector":"1"}},{"base_weights":[1.6340733E-3,4.4859286E-2,-6.3851435E-4,1.6581741E-3,-0E0,2.699022E-2,-3.241501E-3,3.2576855E-2,-0E0,-1.0166583E-2,8.591522E-3,1.0681734E-3,-0E0,-1.6234709E-4,-1.4224052E-3,6.4346526E-4,-0E0],"categories":[],"categories_nodes":[],"categories_segments":[],"categories_sizes":[],"default_left":[0,0,0,0,0,0,0,0,0,0,0,0,0,0,0,0,0],"id":32,"left_children":[1,3,5,-1,-1,7,9,11,-1,13,15,-1,-1,-1,-1,-1,-1],"loss_changes":[2.763373E-2,2.3774803E-3,1.3750159E-2,0E0,0E0,2.1407176E-3,1.728934E-2,1.4169896E-3,0E0,1.872493E-2,6.6467486E-3,0E0,0E0,0E0,0E0,0E0,0E0],"parents":[2147483647,0,0,1,1,2,2,5,5,6,6,7,7,9,9,10,10],"right_children":[2,4,6,-1,-1,8,10,12,-1,14,16,-1,-1,-1,-1,-1,-1],"split_conditions":[-4.0912786E-1,6.18E0,2.99E0,1.6581741E-3,-0E0,-7.210584E-2,5.0349644E1,-6.274515E-2,-0E0,2.8635817E-2,5.77E0,1.0681734E-3,-0E0,-1.6234709E-4,-1.4224052E-3,6.4346526E-4,-0E0],"split_indices":[4,7,7,0,0,3,2,4,0,3,7,0,0,0,0,0,0],"split_type":[0,0,0,0,0,0,0,0,0,0,0,0,0,0,0,0,0],"sum_hessian":[2.35E2,1.3E1,2.22E2,9E0,4E0,1.5E1,2.07E2,1.2E1,3E0,1.36E2,7.1E1,1.1E1,1E0,1.24E2,1.2E1,2.5E1,4.6E1],"tree_param":{"num_deleted":"0","num_feature":"12","num_nodes":"17","size_leaf_vector":"1"}},{"base_weights":[-3.3211944E-4,4.3640815E-2,-3.639095E-3,1.5005269E-3,-0E0,7.1028867E-3,-1.1496505E-2,-0E0,1.58385E-2,-1.8029202E-2,4.5192665E-3,-2.6578928E-4,1.2941484E-4,-0E0,6.3400884E-4,-2.1156775E-4,-1.5013199E-3,8.59137E-4,-1.6405722E-5],"categories":[],"categories_nodes":[],"categories_segments":[],"categories_sizes":[],"default_left":[0,0,0,0,0,0,0,0,0,0,0,0,0,0,0,0,0,0,0],"id":33,"left_children":[1,3,5,-1,-1,7,9,11,13,15,17,-1,-1,-1,-1,-1,-1,-1,-1],"loss_changes":[2.7423386E-2,2.5879964E-4,1.7655065E-2,0E0,0E0,4.9443585E-3,1.4301494E-2,1.7728906E-3,4.814648E-3,2.6268516E-2,6.734781E-3,0E0,0E0,0E0,0E0,0E0,0E0,0E0,0E0],"parents":[2147483647,0,0,1,1,2,2,5,5,6,6,7,7,8,8,9,9,10,10],"right_children":[2,4,6,-1,-1,8,10,12,14,16,18,-1,-1,-1,-1,-1,-1,-1,-1],"split_conditions":[-4.5226642E-1,6.18E0,2.2850516E0,1.5005269E-3,-0E0,1.3081921E0,5.2830173E1,3.3E0,-1.4522415E-1,-6.1726313E-2,5.77E0,-2.6578928E-4,1.2941484E-4,-0E0,6.3400884E-4,-2.1156775E-4,-1.5013199E-3,8.59137E-4,-1.6405722E-5],"split_indices":[3,7,0,0,0,0,2,11,3,3,7,0,0,0,0,0,0,0,0],"split_type":[0,0,0,0,0,0,0,0,0,0,0,0,0,0,0,0,0,0,0],"sum_hessian":[2.14E2,1.2E1,2.02E2,9E0,3E0,8E1,1.22E2,4.5E1,3.5E1,9.1E1,3.1E1,1.4E1,3.1E1,5E0,3E1,7.1E1,2E1,8E0,2.3E1],"tree_param":{"num_deleted":"0","num_feature":"12","num_nodes":"19","size_leaf_vector":"1"}},{"base_weights":[-3.3554184E-4,1.2017202E-3,-2.9383465E-3,6.1072595E-3,-1.2210529E-2,-0E0,1.47196725E-2,-0E0,-2.475883E-2,7.457805E-4,-1.0424064E-4,5.509304E-4,-0E0,-8.284019E-4,2.4886592E-4,-3.0671502E-3,-2.0662944E-4],"categories":[],"categories_nodes":[],"categories_segments":[],"categories_sizes":[],"default_left":[0,0,0,0,0,0,0,0,0,0,0,0,0,0,0,0,0],"id":34,"left_children":[1,-1,3,5,7,9,11,13,15,-1,-1,-1,-1,-1,-1,-1,-1],"loss_changes":[1.943032E-2,0E0,1.8214256E-2,4.4662524E-3,1.6850408E-2,6.8439133E-3,2.558563E-3,1.2940392E-2,6.315434E-2,0E0,0E0,0E0,0E0,0E0,0E0,0E0,0E0],"parents":[2147483647,0,0,2,2,3,3,4,4,5,5,6,6,7,7,8,8],"right_children":[2,-1,4,6,8,10,12,14,16,-1,-1,-1,-1,-1,-1,-1,-1],"split_conditions":[-4.549729E-1,1.2017202E-3,3.1458063E0,7.649217E0,5.4476614E0,2.98E0,5.7894695E1,-4.075689E-1,6E0,7.457805E-4,-1.0424064E-4,5.509304E-4,-0E0,-8.284019E-4,2.4886592E-4,-3.0671502E-3,-2.0662944E-4],"split_indices":[3,0,0,6,6,7,2,3,7,0,0,0,0,0,0,0,0],"split_type":[0,0,0,0,0,0,0,0,0,0,0,0,0,0,0,0,0],"sum_hessian":[2.18E2,1E1,2.08E2,1E2,1.08E2,6.3E1,3.7E1,5.5E1,5.3E1,9E0,5.4E1,3.1E1,6E0,1.2E1,4.3E1,8E0,4.5E1],"tree_param":{"num_deleted":"0","num_feature":"12","num_nodes":"17","size_leaf_vector":"1"}},{"base_weights":[4.174947E-3,3.785296E-2,1.4336744E-3,1.4716465E-3,-0E0,1.0567226E-2,-4.061679E-3,3.4155E-2,5.6983745E-3,-1.0664756E-2,7.73648E-3,1.147395E-3,-0E0,-0E0,4.5518077E-4,-4.1442233E-4,2.7803666E-4,1.1000561E-3,-7.2034076E-5],"categories":[],"categories_nodes":[],"categories_segments":[],"categories_sizes":[],"default_left":[0,0,0,0,0,0,0,0,0,0,0,0,0,0,0,0,0,0,0],"id":35,"left_children":[1,3,5,-1,-1,7,9,11,13,15,17,-1,-1,-1,-1,-1,-1,-1,-1],"loss_changes":[1.6604561E-2,1.5975814E-3,1.1233814E-2,0E0,0E0,5.6967363E-3,1.0113355E-2,1.7957464E-3,5.3593284E-3,5.9812376E-3,1.524687E-2,0E0,0E0,0E0,0E0,0E0,0E0,0E0,0E0],"parents":[2147483647,0,0,1,1,2,2,5,5,6,6,7,7,8,8,9,9,10,10],"right_children":[2,4,6,-1,-1,8,10,12,14,16,18,-1,-1,-1,-1,-1,-1,-1,-1],"split_conditions":[-4.0912786E-1,1.523259E1,2.617233E0,1.4716465E-3,-0E0,3E0,5.2702694E1,5.0632904E1,3.5648103E0,8.914066E0,5.77E0,1.147395E-3,-0E0,-0E0,4.5518077E-4,-4.1442233E-4,2.7803666E-4,1.1000561E-3,-7.2034076E-5],"split_indices":[4,0,0,0,0,9,2,2,5,5,7,0,0,0,0,0,0,0,0],"split_type":[0,0,0,0,0,0,0,0,0,0,0,0,0,0,0,0,0,0,0],"sum_hessian":[2.22E2,1.3E1,2.09E2,8E0,5E0,8.5E1,1.24E2,1E1,7.5E1,8.5E1,3.9E1,9E0,1E0,4.2E1,3.3E1,7.8E1,7E0,1.2E1,2.7E1],"tree_param":{"num_deleted":"0","num_feature":"12","num_nodes":"19","size_leaf_vector":"1"}},{"base_weights":[5.156331E-5,4.3217405E-3,-2.4372974E-2,-1.8022593E-2,8.301922E-3,-3.804749E-3,-0E0,-3.5292253E-2,-0E0,3.7933923E-2,5.5878353E-3,-3.933308E-3,3.8329659E-3,-0E0,-1.443659E-3,2.9430867E-5,-1.1759051E-4,1.2582911E-3,-0E0,2.522454E-4,-1.0964922E-3,-1.3609715E-4,-0E0,1.6096383E-4,-0E0],"categories":[],"categories_nodes":[],"categories_segments":[],"categories_sizes":[],"default_left":[0,0,0,0,0,0,0,0,0,0,0,0,0,0,0,0,0,0,0,0,0,0,0,0,0],"id":36,"left_children":[1,3,5,7,9,-1,11,13,15,17,19,21,23,-1,-1,-1,-1,-1,-1,-1,-1,-1,-1,-1,-1],"loss_changes":[2.146276E-2,1.6519785E-2,7.868619E-2,7.7469014E-3,9.107905E-3,0E0,3.8899592E-4,6.9651753E-3,8.644378E-5,4.157424E-6,1.6507959E-2,2.5405636E-5,1.5327678E-4,0E0,0E0,0E0,0E0,0E0,0E0,0E0,0E0,0E0,0E0,0E0,0E0],"parents":[2147483647,0,0,1,1,2,2,3,3,4,4,6,6,7,7,8,8,9,9,10,10,11,11,12,12],"right_children":[2,4,6,8,10,-1,12,14,16,18,20,22,24,-1,-1,-1,-1,-1,-1,-1,-1,-1,-1,-1,-1],"split_conditions":[5.5473626E-2,9.090905E0,6.148953E0,-2.103582E-1,-4.5226642E-1,-3.804749E-3,8.753572E0,6.29333E0,-4.5349777E-2,6.18E0,8.580597E0,6.737588E1,1.7124997E-1,-0E0,-1.443659E-3,2.9430867E-5,-1.1759051E-4,1.2582911E-3,-0E0,2.522454E-4,-1.0964922E-3,-1.3609715E-4,-0E0,1.6096383E-4,-0E0],"split_indices":[4,2,5,4,3,0,5,5,3,7,5,2,3,0,0,0,0,0,0,0,0,0,0,0,0],"split_type":[0,0,0,0,0,0,0,0,0,0,0,0,0,0,0,0,0,0,0,0,0,0,0,0,0],"sum_hessian":[2.23E2,1.94E2,2.9E1,2.5E1,1.69E2,5E0,2.4E1,1.2E1,1.3E1,1E1,1.59E2,8E0,1.6E1,3E0,9E0,9E0,4E0,8E0,2E0,1.52E2,7E0,7E0,1E0,1.3E1,3E0],"tree_param":{"num_deleted":"0","num_feature":"12","num_nodes":"25","size_leaf_vector":"1"}},{"base_weights":[-0E0,4.2465445E-2,-2.170695E-3,1.5492811E-3,-0E0,8.847916E-3,-1.0467757E-2,-9.034697E-3,1.2635558E-2,-1.9146426E-2,6.8191816E-3,-0E0,-4.5976965E-4,-0E0,4.3814594E-4,-1.0391021E-4,-1.167759E-3,1.1255909E-3,-9.0308844E-5],"categories":[],"categories_nodes":[],"categories_segments":[],"categories_sizes":[],"default_left":[0,0,0,0,0,0,0,0,0,0,0,0,0,0,0,0,0,0,0],"id":37,"left_children":[1,3,5,-1,-1,7,9,11,13,15,17,-1,-1,-1,-1,-1,-1,-1,-1],"loss_changes":[2.2633981E-2,2.3629554E-3,1.9544663E-2,0E0,0E0,6.2992782E-3,2.0266768E-2,7.462466E-4,3.2237926E-3,2.2922747E-2,1.5332914E-2,0E0,0E0,0E0,0E0,0E0,0E0,0E0,0E0],"parents":[2147483647,0,0,1,1,2,2,5,5,6,6,7,7,8,8,9,9,10,10],"right_children":[2,4,6,-1,-1,8,10,12,14,16,18,-1,-1,-1,-1,-1,-1,-1,-1],"split_conditions":[-4.0912786E-1,1.523259E1,2.617233E0,1.5492811E-3,-0E0,8.326717E-1,5.2702694E1,-1.5296855E-2,-1.679286E-1,-1.3432115E-1,5.77E0,-0E0,-4.5976965E-4,-0E0,4.3814594E-4,-1.0391021E-4,-1.167759E-3,1.1255909E-3,-9.0308844E-5],"split_indices":[4,0,0,0,0,0,2,3,4,4,7,0,0,0,0,0,0,0,0],"split_type":[0,0,0,0,0,0,0,0,0,0,0,0,0,0,0,0,0,0,0],"sum_hessian":[2.21E2,1.1E1,2.1E2,8E0,3E0,8.5E1,1.25E2,1E1,7.5E1,8.7E1,3.8E1,4E0,6E0,4E0,7.1E1,5.2E1,3.5E1,1.1E1,2.7E1],"tree_param":{"num_deleted":"0","num_feature":"12","num_nodes":"19","size_leaf_vector":"1"}},{"base_weights":[1.557694E-3,3.601105E-2,-5.133855E-4,1.2980753E-3,-0E0,-1.1530328E-2,3.3096212E-3,-3.8895453E-3,-2.198186E-3,-2.694032E-3,9.706225E-3,-8.020047E-4,2.3449118E-5,8.394662E-5,-1.3283908E-3,4.0120515E-4,-2.6126236E-5],"categories":[],"categories_nodes":[],"categories_segments":[],"categories_sizes":[],"default_left":[0,0,0,0,0,0,0,0,0,0,0,0,0,0,0,0,0],"id":38,"left_children":[1,3,5,-1,-1,7,9,11,-1,13,15,-1,-1,-1,-1,-1,-1],"loss_changes":[1.8981073E-2,1.1424962E-3,9.368036E-3,0E0,0E0,1.9832678E-2,6.2573995E-3,8.485035E-3,0E0,1.9574784E-2,4.2874664E-3,0E0,0E0,0E0,0E0,0E0,0E0],"parents":[2147483647,0,0,1,1,2,2,5,5,6,6,7,7,9,9,10,10],"right_children":[2,4,6,-1,-1,8,10,12,-1,14,16,-1,-1,-1,-1,-1,-1],"split_conditions":[-4.0912786E-1,6.47E0,-1.5903684E-1,1.2980753E-3,-0E0,7.42954E0,6.1815925E0,-4.041852E-1,-2.198186E-3,-1.3541472E-2,7.953996E0,-8.020047E-4,2.3449118E-5,8.394662E-5,-1.3283908E-3,4.0120515E-4,-2.6126236E-5],"split_indices":[4,7,3,0,0,6,5,3,0,3,6,0,0,0,0,0,0],"split_type":[0,0,0,0,0,0,0,0,0,0,0,0,0,0,0,0,0],"sum_hessian":[2.15E2,1.4E1,2.01E2,1E1,4E0,5.8E1,1.43E2,5.4E1,4E0,6.6E1,7.7E1,1.2E1,4.2E1,5.7E1,9E0,6.4E1,1.3E1],"tree_param":{"num_deleted":"0","num_feature":"12","num_nodes":"17","size_leaf_vector":"1"}},{"base_weights":[-0E0,2.6452694E-2,-3.2925755E-3,4.134583E-2,-0E0,-0E0,-2.4973646E-2,-0E0,1.4970067E-3,-8.133399E-3,6.596211E-3,-3.4768647E-3,-0E0,5.09575E-5,-6.594793E-4,3.704956E-5,8.103226E-4,-0E0,5.474294E-5],"categories":[],"categories_nodes":[],"categories_segments":[],"categories_sizes":[],"default_left":[0,0,0,0,0,0,0,0,0,0,0,0,0,0,0,0,0,0,0],"id":39,"left_children":[1,3,5,7,-1,9,11,-1,-1,13,15,-1,17,-1,-1,-1,-1,-1,-1],"loss_changes":[1.962931E-2,9.85802E-3,1.158534E-2,2.5287475E-3,0E0,9.648498E-3,5.34378E-2,0E0,0E0,1.377598E-2,7.1017426E-3,0E0,3.3297663E-5,0E0,0E0,0E0,0E0,0E0,0E0],"parents":[2147483647,0,0,1,1,2,2,3,3,5,5,6,6,9,9,10,10,12,12],"right_children":[2,4,6,8,-1,10,12,-1,-1,14,16,-1,18,-1,-1,-1,-1,-1,-1],"split_conditions":[-3.880739E-1,1.523259E1,6.334498E-2,4.416546E0,-0E0,3.7142857E1,6.1356993E0,-0E0,1.4970067E-3,6.662392E0,-1.6477391E-2,-3.4768647E-3,1.00736514E-1,5.09575E-5,-6.594793E-4,3.704956E-5,8.103226E-4,-0E0,5.474294E-5],"split_indices":[4,0,4,5,0,2,5,0,0,5,4,0,4,0,0,0,0,0,0],"split_type":[0,0,0,0,0,0,0,0,0,0,0,0,0,0,0,0,0,0,0],"sum_hessian":[2.2E2,2.4E1,1.96E2,1.5E1,9E0,1.75E2,2.1E1,4E0,1.1E1,8.5E1,9E1,4E0,1.7E1,4.6E1,3.9E1,7.6E1,1.4E1,8E0,9E0],"tree_param":{"num_deleted":"0","num_feature":"12","num_nodes":"19","size_leaf_vector":"1"}},{"base_weights":[-0E0,3.5628535E-2,-2.381436E-3,1.2259285E-3,-0E0,6.901191E-3,-1.1624326E-2,-0E0,1.195751E-2,-2.1393554E-2,5.5884537E-3,-1.5566287E-4,-0E0,-3.2161024E-5,4.581799E-4,-1.9460598E-4,-1.2943432E-3,1.143043E-3,-0E0],"categories":[],"categories_nodes":[],"categories_segments":[],"categories_sizes":[],"default_left":[0,0,0,0,0,0,0,0,0,0,0,0,0,0,0,0,0,0,0],"id":40,"left_children":[1,3,5,-1,-1,7,9,11,13,15,17,-1,-1,-1,-1,-1,-1,-1,-1],"loss_changes":[1.898514E-2,5.972944E-4,1.8913371E-2,0E0,0E0,4.435937E-3,2.0701643E-2,3.5000237E-4,4.244106E-3,1.9399099E-2,1.0426984E-2,0E0,0E0,0E0,0E0,0E0,0E0,0E0,0E0],"parents":[2147483647,0,0,1,1,2,2,5,5,6,6,7,7,8,8,9,9,10,10],"right_children":[2,4,6,-1,-1,8,10,12,14,16,18,-1,-1,-1,-1,-1,-1,-1,-1],"split_conditions":[-4.0912786E-1,1.6104729E1,3.1458063E0,1.2259285E-3,-0E0,1.1698635E0,5.0326794E1,3.3E0,-1.679286E-1,-1.3432115E-1,5.61E0,-1.5566287E-4,-0E0,-3.2161024E-5,4.581799E-4,-1.9460598E-4,-1.2943432E-3,1.143043E-3,-0E0],"split_indices":[4,0,0,0,0,0,2,11,4,4,8,0,0,0,0,0,0,0,0],"split_type":[0,0,0,0,0,0,0,0,0,0,0,0,0,0,0,0,0,0,0],"sum_hessian":[2.26E2,1.3E1,2.13E2,1E1,3E0,1.01E2,1.12E2,3.7E1,6.4E1,7.5E1,3.7E1,1.2E1,2.5E1,7E0,5.7E1,4.8E1,2.7E1,7E0,3E1],"tree_param":{"num_deleted":"0","num_feature":"12","num_nodes":"19","size_leaf_vector":"1"}},{"base_weights":[1.2921578E-3,3.504254E-2,-5.049456E-4,1.2035542E-3,-0E0,-6.40299E-3,7.7619627E-3,1.2575822E-3,-4.2321272E-2,1.22334035E-2,-0E0,-6.8990316E-4,2.0999706E-4,-3.0212551E-3,-7.570879E-4,1.6179969E-4,9.7213883E-4,-2.1579498E-4,3.7970077E-4],"categories":[],"categories_nodes":[],"categories_segments":[],"categories_sizes":[],"default_left":[0,0,0,0,0,0,0,0,0,0,0,0,0,0,0,0,0,0,0],"id":41,"left_children":[1,3,5,-1,-1,7,9,11,13,15,17,-1,-1,-1,-1,-1,-1,-1,-1],"loss_changes":[1.687575E-2,5.1269867E-4,1.0055589E-2,0E0,0E0,3.9654538E-2,2.213994E-3,1.3185294E-2,9.802677E-3,2.5301576E-3,3.437711E-3,0E0,0E0,0E0,0E0,0E0,0E0,0E0,0E0],"parents":[2147483647,0,0,1,1,2,2,5,5,6,6,7,7,8,8,9,9,10,10],"right_children":[2,4,6,-1,-1,8,10,12,14,16,18,-1,-1,-1,-1,-1,-1,-1,-1],"split_conditions":[-4.0912786E-1,1.6104729E1,7.1721053E0,1.2035542E-3,-0E0,5.72E0,8.420869E0,-4.041852E-1,6.1356993E0,-1.9278618E-2,8.905091E0,-6.8990316E-4,2.0999706E-4,-3.0212551E-3,-7.570879E-4,1.6179969E-4,9.7213883E-4,-2.1579498E-4,3.7970077E-4],"split_indices":[4,0,5,0,0,9,5,3,5,4,5,0,0,0,0,0,0,0,0],"split_type":[0,0,0,0,0,0,0,0,0,0,0,0,0,0,0,0,0,0,0],"sum_hessian":[2.2E2,1.3E1,2.07E2,1E1,3E0,1.28E2,7.9E1,1.04E2,2.4E1,4.6E1,3.3E1,1.6E1,8.8E1,3E0,2.1E1,3.9E1,7E0,1.9E1,1.4E1],"tree_param":{"num_deleted":"0","num_feature":"12","num_nodes":"19","size_leaf_vector":"1"}},{"base_weights":[1.4070614E-3,1.2176203E-3,-0E0,1.0427383E-3,-1.5005537E-3,-8.275194E-3,7.542441E-3,-3.785104E-4,3.240444E-4,3.0068331E-5,6.234313E-4],"categories":[],"categories_nodes":[],"categories_segments":[],"categories_sizes":[],"default_left":[0,0,0,0,0,0,0,0,0,0,0],"id":42,"left_children":[1,-1,3,-1,5,7,9,-1,-1,-1,-1],"loss_changes":[1.2729242E-2,0E0,1.1350385E-2,0E0,1.31234545E-2,1.0919753E-2,5.1603625E-3,0E0,0E0,0E0,0E0],"parents":[2147483647,0,0,2,2,4,4,5,5,6,6],"right_children":[2,-1,4,-1,6,8,10,-1,-1,-1,-1],"split_conditions":[2.8133435E0,1.2176203E-3,-4.5226642E-1,1.0427383E-3,4.8181816E1,7.662858E0,9.091067E0,-3.785104E-4,3.240444E-4,3.0068331E-5,6.234313E-4],"split_indices":[6,0,3,0,2,6,0,0,0,0,0],"split_type":[0,0,0,0,0,0,0,0,0,0,0],"sum_hessian":[2.26E2,7E0,2.19E2,8E0,2.11E2,1.27E2,8.4E1,1.08E2,1.9E1,6.2E1,2.2E1],"tree_param":{"num_deleted":"0","num_feature":"12","num_nodes":"11","size_leaf_vector":"1"}},{"base_weights":[-0E0,1.1856578E-3,-1.0871906E-3,3.0010775E-2,-3.3678107E-3,9.95033E-4,-0E0,-7.965373E-3,7.6648216E-3,-2.2545712E-6,-6.942099E-4,3.5593746E-4,-0E0],"categories":[],"categories_nodes":[],"categories_segments":[],"categories_sizes":[],"default_left":[0,0,0,0,0,0,0,0,0,0,0,0,0],"id":43,"left_children":[1,-1,3,5,7,-1,-1,9,11,-1,-1,-1,-1],"loss_changes":[1.2753536E-2,0E0,1.28979115E-2,1.9324664E-4,1.0590812E-2,0E0,0E0,1.5995977E-2,2.681047E-3,0E0,0E0,0E0,0E0],"parents":[2147483647,0,0,2,2,3,3,4,4,7,7,8,8],"right_children":[2,-1,4,6,8,-1,-1,10,12,-1,-1,-1,-1],"split_conditions":[2.8133435E0,1.1856578E-3,-4.0912786E-1,1.681025E1,7.6941314E0,9.95033E-4,-0E0,4.963468E0,7.954117E0,-2.2545712E-6,-6.942099E-4,3.5593746E-4,-0E0],"split_indices":[6,0,4,0,6,0,0,6,6,0,0,0,0],"split_type":[0,0,0,0,0,0,0,0,0,0,0,0,0],"sum_hessian":[2.24E2,7E0,2.17E2,1.1E1,2.06E2,9E0,2E0,1.52E2,5.4E1,1.05E2,4.7E1,4.1E1,1.3E1],"tree_param":{"num_deleted":"0","num_feature":"12","num_nodes":"13","size_leaf_vector":"1"}},{"base_weights":[-8.9748733E-4,3.5588637E-2,-3.7880477E-3,1.3041076E-3,-0E0,4.8143174E-3,-9.513394E-3,-7.147052E-3,7.927352E-3,-1.6784273E-2,6.0639833E-3,-0E0,-4.005759E-4,-7.702805E-5,3.0453474E-4,-1.4476225E-4,-9.472434E-4,5.0854846E-4,-1.7459005E-4],"categories":[],"categories_nodes":[],"categories_segments":[],"categories_sizes":[],"default_left":[0,0,0,0,0,0,0,0,0,0,0,0,0,0,0,0,0,0,0],"id":44,"left_children":[1,3,5,-1,-1,7,9,11,13,15,17,-1,-1,-1,-1,-1,-1,-1,-1],"loss_changes":[2.0578988E-2,1.1649169E-3,1.090778E-2,0E0,0E0,3.0391074E-3,1.6350813E-2,5.5893674E-4,2.394793E-3,1.3187874E-2,6.2578553E-3,0E0,0E0,0E0,0E0,0E0,0E0,0E0,0E0],"parents":[2147483647,0,0,1,1,2,2,5,5,6,6,7,7,8,8,9,9,10,10],"right_children":[2,4,6,-1,-1,8,10,12,14,16,18,-1,-1,-1,-1,-1,-1,-1,-1],"split_conditions":[-4.0912786E-1,1.4467567E1,2.2775881E0,1.3041076E-3,-0E0,8.326717E-1,5.2830173E1,-1.7685572E-2,-1.6796657E-1,-1.260811E-1,6.984126E1,-0E0,-4.005759E-4,-7.702805E-5,3.0453474E-4,-1.4476225E-4,-9.472434E-4,5.0854846E-4,-1.7459005E-4],"split_indices":[4,0,0,0,0,0,2,3,4,4,2,0,0,0,0,0,0,0,0],"split_type":[0,0,0,0,0,0,0,0,0,0,0,0,0,0,0,0,0,0,0],"sum_hessian":[2.23E2,1.3E1,2.1E2,9E0,4E0,7.7E1,1.33E2,9E0,6.8E1,9.5E1,3.8E1,4E0,5E0,4E0,6.4E1,5.7E1,3.8E1,2.4E1,1.4E1],"tree_param":{"num_deleted":"0","num_feature":"12","num_nodes":"19","size_leaf_vector":"1"}},{"base_weights":[2.1691967E-3,2.2229835E-2,-6.3549215E-4,-0E0,3.8256224E-2,3.2894272E-2,-2.792118E-3,-1.560624E-4,3.1490654E-5,4.6036046E-2,-0E0,1.1512345E-3,-0E0,-8.494298E-3,9.125699E-3,-0E0,1.4417574E-3,-0E0,-5.8119535E-4,3.7155126E-4,-0E0],"categories":[],"categories_nodes":[],"categories_segments":[],"categories_sizes":[],"default_left":[0,0,0,0,0,0,0,0,0,0,0,0,0,0,0,0,0,0,0,0,0],"id":45,"left_children":[1,3,5,7,9,11,13,-1,-1,15,-1,-1,-1,17,19,-1,-1,-1,-1,-1,-1],"loss_changes":[1.4832927E-2,1.1993937E-2,1.1109993E-2,1.4632664E-4,3.982529E-3,2.0425087E-3,1.265448E-2,0E0,0E0,5.450137E-4,0E0,0E0,0E0,1.0743074E-2,1.8620384E-3,0E0,0E0,0E0,0E0,0E0,0E0],"parents":[2147483647,0,0,1,1,2,2,3,3,4,4,5,5,6,6,9,9,13,13,14,14],"right_children":[2,4,6,8,10,12,14,-1,-1,16,-1,-1,-1,18,20,-1,-1,-1,-1,-1,-1],"split_conditions":[-3.5956696E-1,3.6274161E0,2.8133435E0,-4.0700155E-1,6.18E0,-7.09572E-2,7.6941314E0,-1.560624E-4,3.1490654E-5,-4.876964E-1,-0E0,1.1512345E-3,-0E0,4.6049337E0,7.954117E0,-0E0,1.4417574E-3,-0E0,-5.8119535E-4,3.7155126E-4,-0E0],"split_indices":[4,6,6,4,8,3,6,0,0,4,0,0,0,6,6,0,0,0,0,0,0],"split_type":[0,0,0,0,0,0,0,0,0,0,0,0,0,0,0,0,0,0,0,0,0],"sum_hessian":[2.24E2,3.1E1,1.93E2,1.3E1,1.8E1,8E0,1.85E2,4E0,9E0,1.4E1,4E0,7E0,1E0,1.31E2,5.4E1,1E0,1.3E1,7.8E1,5.3E1,4.1E1,1.3E1],"tree_param":{"num_deleted":"0","num_feature":"12","num_nodes":"21","size_leaf_vector":"1"}},{"base_weights":[-0E0,2.2498472E-2,-3.2788701E-3,-0E0,3.805994E-2,7.5497953E-3,-1.12804305E-2,-0E0,-1.3369774E-4,1.3437272E-3,-0E0,-7.517937E-5,9.45285E-3,-0E0,-2.2001045E-2,-0E0,4.357455E-4,-6.530903E-4,1.3015591E-4,-1.1626716E-3,-0E0],"categories":[],"categories_nodes":[],"categories_segments":[],"categories_sizes":[],"default_left":[0,0,0,0,0,0,0,0,0,0,0,0,0,0,0,0,0,0,0,0,0],"id":46,"left_children":[1,3,5,7,9,11,13,-1,-1,-1,-1,-1,15,17,19,-1,-1,-1,-1,-1,-1],"loss_changes":[1.5784837E-2,1.095861E-2,1.7527534E-2,9.930607E-5,1.4554299E-3,2.2301744E-3,1.3416187E-2,0E0,0E0,0E0,0E0,0E0,3.213922E-3,6.6281683E-3,2.40115E-2,0E0,0E0,0E0,0E0,0E0,0E0],"parents":[2147483647,0,0,1,1,2,2,3,3,4,4,5,5,6,6,12,12,13,13,14,14],"right_children":[2,4,6,8,10,12,14,-1,-1,-1,-1,-1,16,18,20,-1,-1,-1,-1,-1,-1],"split_conditions":[-3.880739E-1,3.6274161E0,2.547596E0,2.2222218E1,1.523259E1,-1.6796657E-1,-1.3432115E-1,-0E0,-1.3369774E-4,1.3437272E-3,-0E0,-7.517937E-5,1.0647923E0,4.545454E0,7.86E0,-0E0,4.357455E-4,-6.530903E-4,1.3015591E-4,-1.1626716E-3,-0E0],"split_indices":[4,6,0,2,0,4,4,0,0,0,0,0,0,2,7,0,0,0,0,0,0],"split_type":[0,0,0,0,0,0,0,0,0,0,0,0,0,0,0,0,0,0,0,0,0],"sum_hessian":[2.22E2,2.6E1,1.96E2,1E1,1.6E1,7.8E1,1.18E2,6E0,4E0,1.2E1,4E0,4E0,7.4E1,6E1,5.8E1,2.8E1,4.6E1,1.1E1,4.9E1,3.4E1,2.4E1],"tree_param":{"num_deleted":"0","num_feature":"12","num_nodes":"21","size_leaf_vector":"1"}},{"base_weights":[-4.9144288E-5,2.4993112E-3,-2.7774144E-2,3.2966085E-2,-0E0,-3.389067E-3,-0E0,1.1786828E-3,-0E0,-2.0533013E-3,2.2358757E-2,-0E0,4.2692386E-3,5.566096E-4,-1.3516248E-4,9.48584E-4,-0E0,1.5258921E-4,-0E0],"categories":[],"categories_nodes":[],"categories_segments":[],"categories_sizes":[],"default_left":[0,0,0,0,0,0,0,0,0,0,0,0,0,0,0,0,0,0,0],"id":47,"left_children":[1,3,5,7,9,-1,11,-1,-1,13,15,-1,17,-1,-1,-1,-1,-1,-1],"loss_changes":[1.9059733E-2,1.4983418E-2,5.8829576E-2,6.7880563E-4,9.757341E-3,0E0,1.6403757E-4,0E0,0E0,7.7742795E-3,5.9984066E-3,0E0,4.2926637E-5,0E0,0E0,0E0,0E0,0E0,0E0],"parents":[2147483647,0,0,1,1,2,2,3,3,4,4,6,6,9,9,10,10,12,12],"right_children":[2,4,6,8,10,-1,12,-1,-1,14,16,-1,18,-1,-1,-1,-1,-1,-1],"split_conditions":[5.5473626E-2,-4.0912786E-1,6.148953E0,6.18E0,-2.369521E-3,-3.389067E-3,1.1404829E-1,1.1786828E-3,-0E0,2.99E0,8.433218E0,-0E0,1.7124997E-1,5.566096E-4,-1.3516248E-4,9.48584E-4,-0E0,1.5258921E-4,-0E0],"split_indices":[4,4,5,7,4,0,4,0,0,7,5,0,3,0,0,0,0,0,0],"split_type":[0,0,0,0,0,0,0,0,0,0,0,0,0,0,0,0,0,0,0],"sum_hessian":[2.32E2,2.1E2,2.2E1,1.4E1,1.96E2,5E0,1.7E1,1E1,4E0,1.79E2,1.7E1,9E0,8E0,1.4E1,1.65E2,1.4E1,3E0,7E0,1E0],"tree_param":{"num_deleted":"0","num_feature":"12","num_nodes":"19","size_leaf_vector":"1"}},{"base_weights":[9.7649626E-4,2.7321039E-2,-3.3322398E-5,8.582504E-4,-0E0,3.105114E-2,-1.7094878E-3,3.71927E-2,-0E0,-5.98697E-3,7.732052E-3,1.2071804E-3,-0E0,-7.972761E-5,-1.413325E-3,-0E0,4.3478227E-4],"categories":[],"categories_nodes":[],"categories_segments":[],"categories_sizes":[],"default_left":[0,0,0,0,0,0,0,0,0,0,0,0,0,0,0,0,0],"id":48,"left_children":[1,3,5,-1,-1,7,9,11,-1,13,15,-1,-1,-1,-1,-1,-1],"loss_changes":[8.7420065E-3,4.5544468E-5,8.320997E-3,0E0,0E0,1.9696914E-3,8.272074E-3,3.215205E-5,0E0,1.5572436E-2,1.7834823E-3,0E0,0E0,0E0,0E0,0E0,0E0],"parents":[2147483647,0,0,1,1,2,2,5,5,6,6,7,7,9,9,10,10],"right_children":[2,4,6,-1,-1,8,10,12,-1,14,16,-1,-1,-1,-1,-1,-1],"split_conditions":[-4.0912786E-1,1.681025E1,2.8133435E0,8.582504E-4,-0E0,-7.09572E-2,7.632706E0,-6.535515E-2,-0E0,6.682429E-2,-5.63982E-3,1.2071804E-3,-0E0,-7.972761E-5,-1.413325E-3,-0E0,4.3478227E-4],"split_indices":[4,0,6,0,0,3,6,4,0,4,3,0,0,0,0,0,0],"split_type":[0,0,0,0,0,0,0,0,0,0,0,0,0,0,0,0,0],"sum_hessian":[2.25E2,1.1E1,2.14E2,1E1,1E0,7E0,2.07E2,6E0,1E0,1.5E2,5.7E1,5E0,1E0,1.42E2,8E0,3.3E1,2.4E1],"tree_param":{"num_deleted":"0","num_feature":"12","num_nodes":"17","size_leaf_vector":"1"}},{"base_weights":[-1.2803413E-3,6.5810996E-4,-2.5181176E-2,2.9319467E-3,-2.8392216E-2,-3.0867076E-3,-0E0,7.96102E-5,2.1071913E-2,4.1703293E-3,-7.831649E-2,-1.0773693E-3,4.4681037E-5,8.678267E-4,-0E0,2.5396084E-4,-0E0,-0E0,-2.582579E-3],"categories":[],"categories_nodes":[],"categories_segments":[],"categories_sizes":[],"default_left":[0,0,0,0,0,0,0,0,0,0,0,0,0,0,0,0,0,0,0],"id":49,"left_children":[1,3,5,7,9,-1,-1,11,13,15,17,-1,-1,-1,-1,-1,-1,-1,-1],"loss_changes":[1.3032257E-2,1.1276802E-2,3.96161E-2,8.076204E-3,2.7249157E-2,0E0,0E0,5.5414136E-3,5.293901E-3,2.3657022E-4,2.5313348E-4,0E0,0E0,0E0,0E0,0E0,0E0,0E0,0E0],"parents":[2147483647,0,0,1,1,2,2,3,3,4,4,7,7,8,8,9,9,10,10],"right_children":[2,4,6,8,10,-1,-1,12,14,16,18,-1,-1,-1,-1,-1,-1,-1,-1],"split_conditions":[6.334498E-2,8.792238E0,6.1356993E0,-1.1670729E-2,3E0,-3.0867076E-3,-0E0,1.604278E0,8.433218E0,-3.7031075E-1,4.1666665E0,-1.0773693E-3,4.4681037E-5,8.678267E-4,-0E0,2.5396084E-4,-0E0,-0E0,-2.582579E-3],"split_indices":[4,5,5,4,1,0,0,2,5,3,2,0,0,0,0,0,0,0,0],"split_type":[0,0,0,0,0,0,0,0,0,0,0,0,0,0,0,0,0,0,0],"sum_hessian":[2.27E2,2.07E2,2E1,1.96E2,1.1E1,4E0,1.6E1,1.75E2,2.1E1,6E0,5E0,3E0,1.72E2,1.7E1,4E0,4E0,2E0,1E0,4E0],"tree_param":{"num_deleted":"0","num_feature":"12","num_nodes":"19","size_leaf_vector":"1"}},{"base_weights":[-0E0,2.5095979E-2,-4.191345E-3,3.8849447E-2,-0E0,6.1389636E-3,-1.2190494E-2,-0E0,4.4965982E-2,-0E0,1.2081105E-2,-2.0801196E-2,3.5885673E-3,-0E0,1.4734808E-3,-1.3160052E-4,-0E0,9.126238E-4,1.66487E-5,-5.814494E-5,-9.710638E-4,3.6698498E-4,-1.6856268E-4],"categories":[],"categories_nodes":[],"categories_segments":[],"categories_sizes":[],"default_left":[0,0,0,0,0,0,0,0,0,0,0,0,0,0,0,0,0,0,0,0,0,0,0],"id":50,"left_children":[1,3,5,7,-1,9,11,-1,13,15,17,19,21,-1,-1,-1,-1,-1,-1,-1,-1,-1,-1],"loss_changes":[2.163737E-2,8.902596E-3,1.6545657E-2,5.184004E-3,0E0,3.5906264E-3,1.7284954E-2,0E0,1.4223456E-3,1.9243002E-4,6.397912E-3,1.3526168E-2,3.6749914E-3,0E0,0E0,0E0,0E0,0E0,0E0,0E0,0E0,0E0,0E0],"parents":[2147483647,0,0,1,1,2,2,3,3,5,5,6,6,8,8,9,9,10,10,11,11,12,12],"right_children":[2,4,6,8,-1,10,12,-1,14,16,18,20,22,-1,-1,-1,-1,-1,-1,-1,-1,-1,-1],"split_conditions":[-3.5956696E-1,1.4467567E1,2.2850516E0,1.0356934E1,-0E0,1.1698635E0,5.2830173E1,-0E0,4.4156656E0,3.3E0,1.4116496E0,5.61E0,6.984126E1,-0E0,1.4734808E-3,-1.3160052E-4,-0E0,9.126238E-4,1.66487E-5,-5.814494E-5,-9.710638E-4,3.6698498E-4,-1.6856268E-4],"split_indices":[4,0,0,0,0,0,2,0,5,11,0,9,2,0,0,0,0,0,0,0,0,0,0],"split_type":[0,0,0,0,0,0,0,0,0,0,0,0,0,0,0,0,0,0,0,0,0,0,0],"sum_hessian":[2.19E2,2.8E1,1.91E2,1.7E1,1.1E1,7.8E1,1.13E2,2E0,1.5E1,3.4E1,4.4E1,7.7E1,3.6E1,2E0,1.3E1,9E0,2.5E1,1.3E1,3.1E1,3.3E1,4.4E1,2.4E1,1.2E1],"tree_param":{"num_deleted":"0","num_feature":"12","num_nodes":"23","size_leaf_vector":"1"}},{"base_weights":[1.4382198E-3,2.995376E-2,-0E0,1.0657157E-3,-0E0,2.6349597E-2,-2.0322283E-3,2.9836023E-2,-0E0,-0E0,-1.6505271E-2,9.775986E-4,-0E0,3.9369348E-5,-6.177871E-4,-2.9893212E-3,-0E0],"categories":[],"categories_nodes":[],"categories_segments":[],"categories_sizes":[],"default_left":[0,0,0,0,0,0,0,0,0,0,0,0,0,0,0,0,0],"id":51,"left_children":[1,3,5,-1,-1,7,9,11,-1,13,15,-1,-1,-1,-1,-1,-1],"loss_changes":[1.2093713E-2,5.825516E-5,9.165864E-3,0E0,0E0,1.4604563E-3,6.5211975E-3,8.268077E-4,0E0,4.1059325E-3,4.2289224E-2,0E0,0E0,0E0,0E0,0E0,0E0],"parents":[2147483647,0,0,1,1,2,2,5,5,6,6,7,7,9,9,10,10],"right_children":[2,4,6,-1,-1,8,10,12,-1,14,16,-1,-1,-1,-1,-1,-1],"split_conditions":[-4.0912786E-1,1.523259E1,2.99E0,1.0657157E-3,-0E0,-7.09572E-2,5.5473626E-2,2.617233E0,-0E0,8.09E0,6.1356993E0,9.775986E-4,-0E0,3.9369348E-5,-6.177871E-4,-2.9893212E-3,-0E0],"split_indices":[4,0,9,0,0,3,4,0,0,11,5,0,0,0,0,0,0],"split_type":[0,0,0,0,0,0,0,0,0,0,0,0,0,0,0,0,0],"sum_hessian":[2.25E2,1.3E1,2.12E2,9E0,4E0,1.1E1,2.01E2,1E1,1E0,1.75E2,2.6E1,9E0,1E0,1.67E2,8E0,4E0,2.2E1],"tree_param":{"num_deleted":"0","num_feature":"12","num_nodes":"17","size_leaf_vector":"1"}},{"base_weights":[-5.978996E-4,1.8834144E-2,-4.29156E-3,-0E0,3.2915596E-2,4.273428E-3,-1.1468583E-2,2.0854424E-5,-1.2201637E-4,-0E0,3.6719974E-2,-7.978373E-3,7.3046032E-3,-1.9213106E-2,2.2066366E-3,1.318653E-3,-0E0,-0E0,-3.378636E-4,-7.063448E-5,2.8133992E-4,-7.7795505E-4,-0E0,7.979864E-4,-6.423964E-5],"categories":[],"categories_nodes":[],"categories_segments":[],"categories_sizes":[],"default_left":[0,0,0,0,0,0,0,0,0,0,0,0,0,0,0,0,0,0,0,0,0,0,0,0,0],"id":52,"left_children":[1,3,5,7,9,11,13,-1,-1,-1,15,17,19,21,23,-1,-1,-1,-1,-1,-1,-1,-1,-1,-1],"loss_changes":[1.4417151E-2,8.505381E-3,1.2448038E-2,7.14844E-5,3.420202E-3,2.9990273E-3,1.3392931E-2,0E0,0E0,0E0,2.1946058E-3,5.049738E-4,2.166383E-3,1.1316927E-2,6.320917E-3,0E0,0E0,0E0,0E0,0E0,0E0,0E0,0E0,0E0,0E0],"parents":[2147483647,0,0,1,1,2,2,3,3,4,4,5,5,6,6,10,10,11,11,12,12,13,13,14,14],"right_children":[2,4,6,8,10,12,14,-1,-1,-1,16,18,20,22,24,-1,-1,-1,-1,-1,-1,-1,-1,-1,-1],"split_conditions":[-3.5956696E-1,4.12E0,2.2850516E0,2.2222218E1,1.084231E1,8.308645E-1,5.2830173E1,2.0854424E-5,-1.2201637E-4,-0E0,1.523259E1,4.0201E0,-1.6796657E-1,7.8E0,5.77E0,1.318653E-3,-0E0,-0E0,-3.378636E-4,-7.063448E-5,2.8133992E-4,-7.7795505E-4,-0E0,7.979864E-4,-6.423964E-5],"split_indices":[4,7,0,2,0,0,2,0,0,0,0,2,4,7,7,0,0,0,0,0,0,0,0,0,0],"split_type":[0,0,0,0,0,0,0,0,0,0,0,0,0,0,0,0,0,0,0,0,0,0,0,0,0],"sum_hessian":[2.19E2,3E1,1.89E2,1.3E1,1.7E1,8E1,1.09E2,1E1,3E0,1E0,1.6E1,9E0,7.1E1,7.4E1,3.5E1,1.2E1,4E0,1E0,8E0,4E0,6.7E1,5.7E1,1.7E1,8E0,2.7E1],"tree_param":{"num_deleted":"0","num_feature":"12","num_nodes":"25","size_leaf_vector":"1"}},{"base_weights":[3.4356028E-5,1.5064835E-2,-1.986257E-3,-0E0,2.8911686E-2,1.9796923E-2,-4.4533545E-3,8.425891E-5,-3.2660304E-4,4.229764E-2,-0E0,2.4476433E-2,-0E0,-1.0937866E-2,7.4457694E-3,-2.5089053E-4,-0E0,-0E0,1.3555544E-3,8.9712E-4,-0E0,-8.472892E-6,-9.6400146E-4,3.0906955E-4,-0E0],"categories":[],"categories_nodes":[],"categories_segments":[],"categories_sizes":[],"default_left":[0,0,0,0,0,0,0,0,0,0,0,0,0,0,0,0,0,0,0,0,0,0,0,0,0],"id":53,"left_children":[1,3,5,7,9,11,13,-1,15,17,-1,19,-1,21,23,-1,-1,-1,-1,-1,-1,-1,-1,-1,-1],"loss_changes":[8.262319E-3,5.8848434E-3,9.087087E-3,1.0318926E-4,2.7276427E-3,1.5175543E-3,1.4396612E-2,0E0,3.4906034E-4,2.317708E-4,0E0,2.0484957E-3,0E0,2.4528585E-2,1.7175449E-3,0E0,0E0,0E0,0E0,0E0,0E0,0E0,0E0,0E0,0E0],"parents":[2147483647,0,0,1,1,2,2,3,3,4,4,5,5,6,6,8,8,9,9,11,11,13,13,14,14],"right_children":[2,4,6,8,10,12,14,-1,16,18,-1,20,-1,22,24,-1,-1,-1,-1,-1,-1,-1,-1,-1,-1],"split_conditions":[-3.5956696E-1,4.83E0,2.99E0,2.5274723E1,6.17E0,-6.274515E-2,7.632706E0,8.425891E-5,3.1999983E1,-4.5128277E-1,-0E0,4.296296E1,-0E0,5.3377824E0,7.954117E0,-2.5089053E-4,-0E0,-0E0,1.3555544E-3,8.9712E-4,-0E0,-8.472892E-6,-9.6400146E-4,3.0906955E-4,-0E0],"split_indices":[4,8,7,2,7,4,6,0,2,4,0,2,0,6,6,0,0,0,0,0,0,0,0,0,0],"split_type":[0,0,0,0,0,0,0,0,0,0,0,0,0,0,0,0,0,0,0,0,0,0,0,0,0],"sum_hessian":[2.27E2,3.2E1,1.95E2,1.7E1,1.5E1,1.5E1,1.8E2,1.2E1,5E0,8E0,7E0,1.2E1,3E0,1.22E2,5.8E1,4E0,1E0,1E0,7E0,1E1,2E0,8.5E1,3.7E1,4.6E1,1.2E1],"tree_param":{"num_deleted":"0","num_feature":"12","num_nodes":"25","size_leaf_vector":"1"}},{"base_weights":[2.4815934E-5,7.573513E-4,-8.8400714E-4,2.1123923E-2,-2.8231835E-3,2.74953E-2,-0E0,-7.479254E-3,8.05152E-3,9.0274867E-4,-0E0,-4.0984168E-7,-8.2911056E-4,3.6454562E-4,-0E0],"categories":[],"categories_nodes":[],"categories_segments":[],"categories_sizes":[],"default_left":[0,0,0,0,0,0,0,0,0,0,0,0,0,0,0],"id":54,"left_children":[1,-1,3,5,7,9,-1,11,13,-1,-1,-1,-1,-1,-1],"loss_changes":[7.82187E-3,0E0,7.7465917E-3,2.0688246E-3,1.0636004E-2,7.391507E-4,0E0,2.0409964E-2,2.6542195E-3,0E0,0E0,0E0,0E0,0E0,0E0],"parents":[2147483647,0,0,2,2,3,3,4,4,5,5,7,7,8,8],"right_children":[2,-1,4,6,8,10,-1,12,14,-1,-1,-1,-1,-1,-1],"split_conditions":[-4.5226642E-1,7.573513E-4,2.99E0,-7.210584E-2,7.632706E0,2.617233E0,-0E0,5.4476614E0,7.954117E0,9.0274867E-4,-0E0,-4.0984168E-7,-8.2911056E-4,3.6454562E-4,-0E0],"split_indices":[3,0,7,3,6,0,0,6,6,0,0,0,0,0,0],"split_type":[0,0,0,0,0,0,0,0,0,0,0,0,0,0,0],"sum_hessian":[2.33E2,1.1E1,2.22E2,1.3E1,2.09E2,1E1,3E0,1.53E2,5.6E1,9E0,1E0,1.16E2,3.7E1,4.2E1,1.4E1],"tree_param":{"num_deleted":"0","num_feature":"12","num_nodes":"15","size_leaf_vector":"1"}},{"base_weights":[-0E0,2.692434E-3,-1.8406775E-2,-1.9026913E-2,4.7557987E-3,-9.012614E-2,7.0424174E-4,-0E0,-1.1427216E-3,2.8052077E-2,2.9693083E-3,-3.0589334E-3,-0E0,-0E0,3.931925E-3,9.928168E-4,-0E0,3.9613096E-4,-0E0,1.4094879E-4,-0E0],"categories":[],"categories_nodes":[],"categories_segments":[],"categories_sizes":[],"default_left":[0,0,0,0,0,0,0,0,0,0,0,0,0,0,0,0,0,0,0,0,0],"id":55,"left_children":[1,3,5,7,9,11,13,-1,-1,15,17,-1,-1,-1,19,-1,-1,-1,-1,-1,-1],"loss_changes":[1.0907505E-2,7.447102E-3,4.73833E-2,5.4500164E-3,4.472384E-3,5.5214465E-3,2.673696E-4,0E0,0E0,1.6793744E-3,6.468588E-3,0E0,0E0,0E0,5.282875E-5,0E0,0E0,0E0,0E0,0E0,0E0],"parents":[2147483647,0,0,1,1,2,2,3,3,4,4,5,5,6,6,9,9,10,10,14,14],"right_children":[2,4,6,8,10,12,14,-1,-1,16,18,-1,-1,-1,20,-1,-1,-1,-1,-1,-1],"split_conditions":[5.5473626E-2,4.545454E0,5.98E0,4.18E0,2.8133435E0,6.787276E0,7.4047364E-2,-0E0,-1.1427216E-3,5.0632904E1,-2.4976094E-1,-3.0589334E-3,-0E0,-0E0,8.330493E0,9.928168E-4,-0E0,3.9613096E-4,-0E0,1.4094879E-4,-0E0],"split_indices":[4,2,7,7,6,0,4,0,0,2,4,0,0,0,6,0,0,0,0,0,0],"split_type":[0,0,0,0,0,0,0,0,0,0,0,0,0,0,0,0,0,0,0,0,0],"sum_hessian":[2.22E2,1.95E2,2.7E1,1.2E1,1.83E2,6E0,2.1E1,6E0,6E0,8E0,1.75E2,5E0,1E0,4E0,1.7E1,7E0,1E0,4.5E1,1.3E2,1.4E1,3E0],"tree_param":{"num_deleted":"0","num_feature":"12","num_nodes":"21","size_leaf_vector":"1"}},{"base_weights":[-2.3852328E-4,1.5928088E-2,-2.4842068E-3,3.7241742E-2,-0E0,4.1038124E-3,-7.79689E-3,-0E0,1.3294587E-3,-8.983142E-3,-0E0,-6.7571956E-3,7.307722E-3,-1.3729493E-2,-0E0,-3.4578945E-4,-0E0,-0E0,-3.5203685E-4,-0E0,2.620614E-4,-7.3856884E-4,6.0931237E-5,-4.4666018E-4,2.2763447E-4],"categories":[],"categories_nodes":[],"categories_segments":[],"categories_sizes":[],"default_left":[0,0,0,0,0,0,0,0,0,0,0,0,0,0,0,0,0,0,0,0,0,0,0,0,0],"id":56,"left_children":[1,3,5,7,9,11,13,-1,-1,15,-1,17,19,21,23,-1,-1,-1,-1,-1,-1,-1,-1,-1,-1],"loss_changes":[7.117962E-3,1.0808177E-2,7.751318E-3,1.031233E-3,4.84181E-4,3.0970336E-3,6.1614886E-3,0E0,0E0,1.8009875E-4,0E0,5.0802354E-4,1.4659809E-3,1.4837333E-2,5.8987075E-3,0E0,0E0,0E0,0E0,0E0,0E0,0E0,0E0,0E0,0E0],"parents":[2147483647,0,0,1,1,2,2,3,3,4,4,5,5,6,6,9,9,11,11,12,12,13,13,14,14],"right_children":[2,4,6,8,10,12,14,-1,-1,16,-1,18,20,22,24,-1,-1,-1,-1,-1,-1,-1,-1,-1,-1],"split_conditions":[-3.880739E-1,1.3640154E1,2.2850516E0,4.4156656E0,3.2773848E0,8.326717E-1,6.874347E0,-0E0,1.3294587E-3,-4.055056E-1,-0E0,-2.4287947E-2,-1.6796657E-1,7.86E0,5.15E0,-3.4578945E-4,-0E0,-0E0,-3.5203685E-4,-0E0,2.620614E-4,-7.3856884E-4,6.0931237E-5,-4.4666018E-4,2.2763447E-4],"split_indices":[4,0,0,5,6,0,0,0,0,4,0,4,4,7,7,0,0,0,0,0,0,0,0,0,0],"split_type":[0,0,0,0,0,0,0,0,0,0,0,0,0,0,0,0,0,0,0,0,0,0,0,0,0],"sum_hessian":[2.31E2,2.2E1,2.09E2,1.1E1,1.1E1,8.5E1,1.24E2,3E0,8E0,5E0,6E0,1.2E1,7.3E1,7.2E1,5.2E1,4E0,1E0,5E0,7E0,3E0,7E1,4.6E1,2.6E1,1.6E1,3.6E1],"tree_param":{"num_deleted":"0","num_feature":"12","num_nodes":"25","size_leaf_vector":"1"}},{"base_weights":[7.9503556E-4,5.329771E-3,-4.4358466E-3,-1.726691E-2,8.678281E-3,-2.2466036E-2,8.538738E-3,-0E0,-2.8760828E-2,1.308283E-2,-0E0,-1.0192933E-2,-2.7374525E-3,1.6811894E-2,-0E0,-0E0,-9.5603964E-4,1.518086E-4,9.274905E-4,6.4258114E-5,-7.612573E-4,-0E0,-4.069245E-4,7.021565E-4,-0E0,-0E0,-1.1961559E-4],"categories":[],"categories_nodes":[],"categories_segments":[],"categories_sizes":[],"default_left":[0,0,0,0,0,0,0,0,0,0,0,0,0,0,0,0,0,0,0,0,0,0,0,0,0,0,0],"id":57,"left_children":[1,3,5,7,9,11,13,-1,15,17,19,21,-1,23,25,-1,-1,-1,-1,-1,-1,-1,-1,-1,-1,-1,-1],"loss_changes":[5.3078607E-3,8.97613E-3,2.3106508E-2,2.7415808E-3,5.641224E-3,2.4381058E-2,5.0434214E-3,0E0,4.914999E-4,8.263784E-3,3.9918795E-3,6.51611E-4,0E0,3.2898597E-3,2.8615783E-4,0E0,0E0,0E0,0E0,0E0,0E0,0E0,0E0,0E0,0E0,0E0,0E0],"parents":[2147483647,0,0,1,1,2,2,3,3,4,4,5,5,6,6,8,8,9,9,10,10,11,11,13,13,14,14],"right_children":[2,4,6,8,10,12,14,-1,16,18,20,22,-1,24,26,-1,-1,-1,-1,-1,-1,-1,-1,-1,-1,-1,-1],"split_conditions":[-7.09572E-2,4.5197735E0,6.1815925E0,4.18E0,6.74E0,5.46013E0,5.7894695E1,-0E0,4.18E0,3.582677E1,8.792238E0,1E0,-2.7374525E-3,8.076427E0,5.77E0,-0E0,-9.5603964E-4,1.518086E-4,9.274905E-4,6.4258114E-5,-7.612573E-4,-0E0,-4.069245E-4,7.021565E-4,-0E0,-0E0,-1.1961559E-4],"split_indices":[3,2,5,9,8,6,2,0,8,2,5,1,0,6,7,0,0,0,0,0,0,0,0,0,0,0,0],"split_type":[0,0,0,0,0,0,0,0,0,0,0,0,0,0,0,0,0,0,0,0,0,0,0,0,0,0,0],"sum_hessian":[2.18E2,1.27E2,9.1E1,1.2E1,1.15E2,4.1E1,5E1,5E0,7E0,8.3E1,3.2E1,3.7E1,4E0,3E1,2E1,1E0,6E0,6.2E1,2.1E1,2.7E1,5E0,1.3E1,2.4E1,2.1E1,9E0,3E0,1.7E1],"tree_param":{"num_deleted":"0","num_feature":"12","num_nodes":"27","size_leaf_vector":"1"}},{"base_weights":[1.7930738E-3,8.7122177E-4,-0E0,3.2584194E-2,-9.103707E-4,1.0723952E-3,-0E0,-5.004263E-3,8.066638E-3,4.1606003E-5,-7.590732E-4,-0E0,3.385337E-4],"categories":[],"categories_nodes":[],"categories_segments":[],"categories_sizes":[],"default_left":[0,0,0,0,0,0,0,0,0,0,0,0,0],"id":58,"left_children":[1,-1,3,5,7,-1,-1,9,11,-1,-1,-1,-1],"loss_changes":[9.416255E-3,0E0,7.59952E-3,2.3476919E-4,7.1578138E-3,0E0,0E0,2.1496706E-2,1.8316179E-3,0E0,0E0,0E0,0E0],"parents":[2147483647,0,0,2,2,3,3,4,4,7,7,8,8],"right_children":[2,-1,4,6,8,-1,-1,10,12,-1,-1,-1,-1],"split_conditions":[-4.5226642E-1,8.7122177E-4,2.8133435E0,2.98E0,7.6941314E0,1.0723952E-3,-0E0,5.4476614E0,8.80927E-1,4.1606003E-5,-7.590732E-4,-0E0,3.385337E-4],"split_indices":[3,0,6,10,6,0,0,6,0,0,0,0,0],"split_type":[0,0,0,0,0,0,0,0,0,0,0,0,0],"sum_hessian":[2.18E2,1.1E1,2.07E2,6E0,2.01E2,5E0,1E0,1.46E2,5.5E1,1.08E2,3.8E1,1.3E1,4.2E1],"tree_param":{"num_deleted":"0","num_feature":"12","num_nodes":"13","size_leaf_vector":"1"}},{"base_weights":[-0E0,2.5590235E-2,-1.885753E-3,7.976514E-4,-0E0,1.9285139E-2,-3.8985424E-3,2.4817584E-2,-0E0,-8.47083E-3,7.0030005E-3,8.586102E-4,-0E0,-2.8849286E-6,-7.140958E-4,7.0120906E-4,5.144463E-5],"categories":[],"categories_nodes":[],"categories_segments":[],"categories_sizes":[],"default_left":[0,0,0,0,0,0,0,0,0,0,0,0,0,0,0,0,0],"id":59,"left_children":[1,3,5,-1,-1,7,9,11,-1,13,15,-1,-1,-1,-1,-1,-1],"loss_changes":[9.91126E-3,2.220273E-5,7.4425475E-3,0E0,0E0,1.5682057E-3,9.975722E-3,1.4162012E-3,0E0,1.6226273E-2,1.9527571E-3,0E0,0E0,0E0,0E0,0E0,0E0],"parents":[2147483647,0,0,1,1,2,2,5,5,6,6,7,7,9,9,10,10],"right_children":[2,4,6,-1,-1,8,10,12,-1,14,16,-1,-1,-1,-1,-1,-1],"split_conditions":[-4.0912786E-1,6.78E0,2.99E0,7.976514E-4,-0E0,-6.535515E-2,7.6941314E0,5.0632904E1,-0E0,5.77E0,7.7492847E0,8.586102E-4,-0E0,-2.8849286E-6,-7.140958E-4,7.0120906E-4,5.144463E-5],"split_indices":[4,7,7,0,0,4,6,2,0,8,6,0,0,0,0,0,0],"split_type":[0,0,0,0,0,0,0,0,0,0,0,0,0,0,0,0,0],"sum_hessian":[2.21E2,1.3E1,2.08E2,1.2E1,1E0,1.3E1,1.95E2,1E1,3E0,1.44E2,5.1E1,9E0,1E0,9.8E1,4.6E1,7E0,4.4E1],"tree_param":{"num_deleted":"0","num_feature":"12","num_nodes":"17","size_leaf_vector":"1"}},{"base_weights":[-0E0,2.2677989E-3,-1.8524492E-2,-0E0,2.2616532E-2,-2.8759737E-3,-0E0,7.049179E-4,-9.529979E-4,3.1301532E-2,-0E0,-0E0,3.1930285E-3,-0E0,-1.1209691E-3,1.0567566E-3,-0E0,1.280399E-4,-0E0],"categories":[],"categories_nodes":[],"categories_segments":[],"categories_sizes":[],"default_left":[0,0,0,0,0,0,0,0,0,0,0,0,0,0,0,0,0,0,0],"id":60,"left_children":[1,3,5,7,9,-1,11,-1,13,15,-1,-1,17,-1,-1,-1,-1,-1,-1],"loss_changes":[1.0636973E-2,7.1555376E-3,4.5533106E-2,6.2322705E-3,3.5733106E-3,0E0,1.325406E-4,0E0,8.218209E-3,6.507309E-4,0E0,0E0,6.783313E-5,0E0,0E0,0E0,0E0,0E0,0E0],"parents":[2147483647,0,0,1,1,2,2,3,3,4,4,6,6,8,8,9,9,12,12],"right_children":[2,4,6,8,10,-1,12,-1,14,16,-1,-1,18,-1,-1,-1,-1,-1,-1],"split_conditions":[5.5473626E-2,2.4946516E-3,6.148953E0,-4.549729E-1,8.420869E0,-2.8759737E-3,8.789299E0,7.049179E-4,8.792238E0,3.9253473E-2,-0E0,-0E0,5.4060354E0,-0E0,-1.1209691E-3,1.0567566E-3,-0E0,1.280399E-4,-0E0],"split_indices":[4,4,5,3,5,0,5,0,5,4,0,0,0,0,0,0,0,0,0],"split_type":[0,0,0,0,0,0,0,0,0,0,0,0,0,0,0,0,0,0,0],"sum_hessian":[2.26E2,1.99E2,2.7E1,1.84E2,1.5E1,5E0,2.2E1,1E1,1.74E2,1.1E1,4E0,1E1,1.2E1,1.69E2,5E0,9E0,2E0,1E1,2E0],"tree_param":{"num_deleted":"0","num_feature":"12","num_nodes":"19","size_leaf_vector":"1"}},{"base_weights":[-1.5416605E-5,2.6246294E-2,-2.0308816E-3,8.598522E-4,-0E0,-2.5750682E-2,-0E0,-0E0,-8.5040653E-4,1.6895387E-2,-3.098695E-3,7.058407E-4,-0E0,1.2985333E-4,-3.5387356E-4],"categories":[],"categories_nodes":[],"categories_segments":[],"categories_sizes":[],"default_left":[0,0,0,0,0,0,0,0,0,0,0,0,0,0,0],"id":61,"left_children":[1,3,5,-1,-1,7,9,-1,-1,11,13,-1,-1,-1,-1],"loss_changes":[9.858489E-3,8.1166625E-5,9.043204E-3,0E0,0E0,4.996322E-4,9.977708E-3,0E0,0E0,2.2396222E-3,1.2231018E-2,0E0,0E0,0E0,0E0],"parents":[2147483647,0,0,1,1,2,2,5,5,6,6,9,9,10,10],"right_children":[2,4,6,-1,-1,8,10,-1,-1,12,14,-1,-1,-1,-1],"split_conditions":[-4.5226642E-1,1.523259E1,-4.075689E-1,8.598522E-4,-0E0,4.166666E0,-2.5247252E-1,-0E0,-8.5040653E-4,1.2850153E1,2.2775881E0,7.058407E-4,-0E0,1.2985333E-4,-3.5387356E-4],"split_indices":[3,0,3,0,0,2,4,0,0,0,0,0,0,0,0],"split_type":[0,0,0,0,0,0,0,0,0,0,0,0,0,0,0],"sum_hessian":[2.3E2,1.2E1,2.18E2,1E1,2E0,1.4E1,2.04E2,2E0,1.2E1,2.8E1,1.76E2,1.8E1,1E1,8.9E1,8.7E1],"tree_param":{"num_deleted":"0","num_feature":"12","num_nodes":"15","size_leaf_vector":"1"}}]},"name":"gbtree"},"learner_model_param":{"base_score":"[-1.4899808E-2]","boost_from_average":"1","num_class":"0","num_feature":"12","num_target":"1"},"objective":{"name":"reg:squarederror","reg_loss_param":{"scale_pos_weight":"1"}}},"version":[3,2,0]}