{"learner":{"attributes":{"best_iteration":"1","best_score":"0.0330149350505967","scikit_learn":"{\"_estimator_type\": \"regressor\"}"},"feature_names":["Fourier_Dominant","HMM_State","RSI","MACD","MACD_Signal","BB_Upper","BB_Lower","Close_Lag_1","Close_Lag_2","Close_Lag_3","Close_Lag_4","Close_Lag_5"],"feature_types":["float","int","float","float","float","float","float","float","float","float","float","float"],"gradient_booster":{"model":{"cats":{"enc":[],"feature_segments":[],"sorted_idx":[]},"gbtree_model_param":{"num_parallel_tree":"1","num_trees":"52"},"iteration_indptr":[0,1,2,3,4,5,6,7,8,9,10,11,12,13,14,15,16,17,18,19,20,21,22,23,24,25,26,27,28,29,30,31,32,33,34,35,36,37,38,39,40,41,42,43,44,45,46,47,48,49,50,51,52],"tree_info":[0,0,0,0,0,0,0,0,0,0,0,0,0,0,0,0,0,0,0,0,0,0,0,0,0,0,0,0,0,0,0,0,0,0,0,0,0,0,0,0,0,0,0,0,0,0,0,0,0,0,0,0],"trees":[{"base_weights":[7.98504E-4,5.041024E-2,-4.5300284E-4,2.0464936E-3,1.1576969E-2,-6.418452E-3,4.061166E-3,4.1439917E-4,-0E0,-1.7128936E-3,-3.992615E-2,1.8282807E-2,-5.0809915E-4,9.4563795E-5,-2.5005365E-4,-5.4608285E-4,-3.4863949E-3,7.710293E-4,2.7076163E-5,-1.1958419E-4,2.4092238E-4],"categories":[],"categories_nodes":[],"categories_segments":[],"categories_sizes":[],"default_left":[0,0,0,0,0,0,0,0,0,0,0,0,0,0,0,0,0,0,0,0,0],"id":0,"left_children":[1,3,5,-1,7,9,11,-1,-1,13,15,17,19,-1,-1,-1,-1,-1,-1,-1,-1],"loss_changes":[4.0409535E-2,2.2944957E-3,1.52074145E-2,0E0,2.6344217E-4,3.502814E-2,2.1736372E-2,0E0,0E0,7.696808E-3,3.0844953E-2,7.630836E-3,6.3987975E-3,0E0,0E0,0E0,0E0,0E0,0E0,0E0,0E0],"parents":[2147483647,0,0,1,1,2,2,4,4,5,5,6,6,9,9,10,10,11,11,12,12],"right_children":[2,4,6,-1,8,10,12,-1,-1,14,16,18,20,-1,-1,-1,-1,-1,-1,-1,-1],"split_conditions":[2.62E0,3.42857E1,-1.8618722E-2,2.0464936E-3,2.57E0,-2.7799489E-2,7.413045E-1,4.1439917E-4,-0E0,3E0,4.2515635E0,5.3124973E1,3E0,9.4563795E-5,-2.5005365E-4,-5.4608285E-4,-3.4863949E-3,7.710293E-4,2.7076163E-5,-1.1958419E-4,2.4092238E-4],"split_indices":[10,2,4,0,10,4,0,0,0,1,10,2,1,0,0,0,0,0,0,0,0],"split_type":[0,0,0,0,0,0,0,0,0,0,0,0,0,0,0,0,0,0,0,0,0],"sum_hessian":[5.69E2,1.5E1,5.54E2,8E0,7E0,2.48E2,3.06E2,6E0,1E0,2.21E2,2.7E1,7.9E1,2.27E2,1.19E2,1.02E2,2.3E1,4E0,5.1E1,2.8E1,1.7E2,5.7E1],"tree_param":{"num_deleted":"0","num_feature":"12","num_nodes":"21","size_leaf_vector":"1"}},{"base_weights":[-0E0,5.8628514E-2,-1.359421E-3,6.348996E-2,-0E0,-1.0497173E-2,1.3136952E-3,-0E0,2.0550063E-3,9.189082E-3,-1.2411847E-2,1.3061498E-2,-1.4712111E-3,-0E0,3.194929E-4,-0E0,-4.7264376E-4,1.1912882E-4,8.48529E-4,-3.6499326E-4,1.1453984E-4],"categories":[],"categories_nodes":[],"categories_segments":[],"categories_sizes":[],"default_left":[0,0,0,0,0,0,0,0,0,0,0,0,0,0,0,0,0,0,0,0,0],"id":1,"left_children":[1,3,5,7,-1,9,11,-1,-1,13,15,17,19,-1,-1,-1,-1,-1,-1,-1,-1],"loss_changes":[4.916267E-2,4.2804405E-3,1.46841295E-2,3.9046742E-3,0E0,5.562545E-3,1.518092E-2,0E0,0E0,4.9908995E-6,6.6858865E-3,8.978286E-3,2.0114852E-2,0E0,0E0,0E0,0E0,0E0,0E0,0E0,0E0],"parents":[2147483647,0,0,1,1,2,2,3,3,5,5,6,6,9,9,10,10,11,11,12,12],"right_children":[2,4,6,8,-1,10,12,-1,-1,14,16,18,20,-1,-1,-1,-1,-1,-1,-1,-1],"split_conditions":[2.58E0,1.3218305E0,3.7063115E0,5.7396805E-1,-0E0,2.58E0,4.2724285E0,-0E0,2.0550063E-3,-3.52344E-2,-8.236985E-2,-1.803537E-2,-9.265855E-3,-0E0,3.194929E-4,-0E0,-4.7264376E-4,1.1912882E-4,8.48529E-4,-3.6499326E-4,1.1453984E-4],"split_indices":[7,0,5,0,0,11,5,0,0,4,3,4,4,0,0,0,0,0,0,0,0],"split_type":[0,0,0,0,0,0,0,0,0,0,0,0,0,0,0,0,0,0,0,0,0],"sum_hessian":[5.75E2,1.3E1,5.62E2,1.2E1,1E0,1.35E2,4.27E2,1E0,1.1E1,7E0,1.28E2,8.8E1,3.39E2,2E0,5E0,2.2E1,1.06E2,6E1,2.8E1,1.18E2,2.21E2],"tree_param":{"num_deleted":"0","num_feature":"12","num_nodes":"21","size_leaf_vector":"1"}},{"base_weights":[-5.679436E-4,4.093767E-2,-2.0289735E-3,-0E0,4.3781918E-2,6.4480044E-3,-5.0634723E-3,1.3818669E-3,-0E0,-0E0,3.1947993E-2,-3.0633744E-3,-1.9969823E-2,-1.5911521E-4,2.544735E-4,1.4945844E-3,-0E0,-2.834573E-4,5.3473468E-5,-5.9033784E-5,-1.7393326E-3],"categories":[],"categories_nodes":[],"categories_segments":[],"categories_sizes":[],"default_left":[0,0,0,0,0,0,0,0,0,0,0,0,0,0,0,0,0,0,0,0,0],"id":2,"left_children":[1,3,5,-1,7,9,11,-1,-1,13,15,17,19,-1,-1,-1,-1,-1,-1,-1,-1],"loss_changes":[3.0575609E-2,2.1795202E-3,1.4067778E-2,0E0,1.156237E-3,1.9820843E-2,1.0008383E-2,0E0,0E0,5.397965E-3,1.1712851E-2,1.2324659E-2,2.3312813E-2,0E0,0E0,0E0,0E0,0E0,0E0,0E0,0E0],"parents":[2147483647,0,0,1,1,2,2,4,4,5,5,6,6,9,9,10,10,11,11,12,12],"right_children":[2,4,6,-1,8,10,12,-1,-1,14,16,18,20,-1,-1,-1,-1,-1,-1,-1,-1],"split_conditions":[2.62E0,2.782821E0,8.0551124E-1,-0E0,6.4705864E1,4.489176E0,5.261416E0,1.3818669E-3,-0E0,6.535878E-1,5.975357E-1,4.107299E0,3E0,-1.5911521E-4,2.544735E-4,1.4945844E-3,-0E0,-2.834573E-4,5.3473468E-5,-5.9033784E-5,-1.7393326E-3],"split_indices":[11,5,0,0,2,11,11,0,0,0,0,9,1,0,0,0,0,0,0,0,0],"split_type":[0,0,0,0,0,0,0,0,0,0,0,0,0,0,0,0,0,0,0,0,0],"sum_hessian":[5.66E2,1.6E1,5.5E2,1E0,1.5E1,1.36E2,4.14E2,1.4E1,1E0,1.12E2,2.4E1,3.72E2,4.2E1,6.3E1,4.9E1,1.4E1,1E1,1.69E2,2.03E2,3.1E1,1.1E1],"tree_param":{"num_deleted":"0","num_feature":"12","num_nodes":"21","size_leaf_vector":"1"}},{"base_weights":[-0E0,4.5931116E-2,-1.3346777E-3,2.02298E-3,8.21499E-3,9.422653E-3,-4.2231255E-3,9.92427E-3,-0E0,-0E0,3.8427938E-2,-2.457013E-3,-1.7698843E-2,-0E0,3.598476E-4,-1.7419616E-4,4.2830248E-4,1.597292E-3,-0E0,-3.1604082E-4,-0E0,-1.6251712E-3,-2.1597517E-4],"categories":[],"categories_nodes":[],"categories_segments":[],"categories_sizes":[],"default_left":[0,0,0,0,0,0,0,0,0,0,0,0,0,0,0,0,0,0,0,0,0,0,0],"id":3,"left_children":[1,3,5,-1,7,9,11,13,-1,15,17,19,21,-1,-1,-1,-1,-1,-1,-1,-1,-1,-1],"loss_changes":[3.687438E-2,5.667519E-3,1.7137656E-2,0E0,1.8055463E-4,2.8361503E-2,8.769761E-3,2.1921739E-4,0E0,7.933895E-3,9.797644E-3,7.7350065E-3,1.1089009E-2,0E0,0E0,0E0,0E0,0E0,0E0,0E0,0E0,0E0,0E0],"parents":[2147483647,0,0,1,1,2,2,4,4,5,5,6,6,7,7,9,9,10,10,11,11,12,12],"right_children":[2,4,6,-1,8,10,12,14,-1,16,18,20,22,-1,-1,-1,-1,-1,-1,-1,-1,-1,-1],"split_conditions":[2.62E0,3.42857E1,7.373194E-1,2.02298E-3,2.57E0,4.489176E0,5.2529297E0,2.5E0,-0E0,6.572765E-1,2.6761154E-2,3.28E0,5.269902E0,-0E0,3.598476E-4,-1.7419616E-4,4.2830248E-4,1.597292E-3,-0E0,-3.1604082E-4,-0E0,-1.6251712E-3,-2.1597517E-4],"split_indices":[10,2,0,0,10,11,9,7,0,0,3,11,9,0,0,0,0,0,0,0,0,0,0],"split_type":[0,0,0,0,0,0,0,0,0,0,0,0,0,0,0,0,0,0,0,0,0,0,0],"sum_hessian":[5.82E2,1.6E1,5.66E2,8E0,8E0,1.12E2,4.54E2,7E0,1E0,8.7E1,2.5E1,4.09E2,4.5E1,1E0,6E0,5.9E1,2.8E1,1.6E1,9E0,9.1E1,3.18E2,7E0,3.8E1],"tree_param":{"num_deleted":"0","num_feature":"12","num_nodes":"23","size_leaf_vector":"1"}},{"base_weights":[2.4371127E-4,5.012486E-2,-1.1316991E-3,2.0053475E-3,2.4040805E-3,-8.371914E-3,4.757945E-3,3.7146364E-3,-0E0,-2.6581974E-3,-4.1987557E-2,9.230001E-3,-6.050178E-4,-0E0,1.6114852E-4,4.1470907E-5,-2.60447E-4,-4.909663E-4,-4.264881E-3,1.1930906E-4,6.69801E-4,-2.0512052E-4,3.7610414E-5],"categories":[],"categories_nodes":[],"categories_segments":[],"categories_sizes":[],"default_left":[0,0,0,0,0,0,0,0,0,0,0,0,0,0,0,0,0,0,0,0,0,0,0],"id":4,"left_children":[1,3,5,-1,7,9,11,13,-1,15,17,19,21,-1,-1,-1,-1,-1,-1,-1,-1,-1,-1],"loss_changes":[4.3375988E-2,6.4785965E-3,2.3598634E-2,0E0,4.233392E-5,4.3825515E-2,7.895239E-3,6.148024E-5,0E0,6.071898E-3,6.908803E-2,8.976397E-3,2.0033582E-3,0E0,0E0,0E0,0E0,0E0,0E0,0E0,0E0,0E0,0E0],"parents":[2147483647,0,0,1,1,2,2,4,4,5,5,6,6,7,7,9,9,10,10,11,11,12,12],"right_children":[2,4,6,-1,8,10,12,14,-1,16,18,20,22,-1,-1,-1,-1,-1,-1,-1,-1,-1,-1],"split_conditions":[2.62E0,-3.785745E-2,-1.7799707E-2,2.0053475E-3,2.57E0,-2.8051794E-2,3.5730746E-2,-3.439997E-2,-0E0,3E0,5.1935267E0,4.489176E0,4.9978256E0,-0E0,1.6114852E-4,4.1470907E-5,-2.60447E-4,-4.909663E-4,-4.264881E-3,1.1930906E-4,6.69801E-4,-2.0512052E-4,3.7610414E-5],"split_indices":[10,3,4,0,10,4,4,3,0,1,7,11,5,0,0,0,0,0,0,0,0,0,0],"split_type":[0,0,0,0,0,0,0,0,0,0,0,0,0,0,0,0,0,0,0,0,0,0,0],"sum_hessian":[5.59E2,1.6E1,5.43E2,1E1,6E0,2.51E2,2.92E2,5E0,1E0,2.18E2,3.3E1,1.69E2,1.23E2,1E0,4E0,1.21E2,9.7E1,2.8E1,5E0,1.27E2,4.2E1,4E1,8.3E1],"tree_param":{"num_deleted":"0","num_feature":"12","num_nodes":"23","size_leaf_vector":"1"}},{"base_weights":[-0E0,4.5480065E-2,-1.4733406E-3,1.9040364E-3,4.8102816E-3,-6.890919E-3,2.9986715E-3,6.277358E-3,-0E0,-4.855179E-3,-3.4052737E-3,1.724928E-2,-1.1568051E-3,-0E0,2.4255889E-4,-4.0540964E-4,3.0997195E-5,7.8171375E-4,1.2683975E-5,-2.304353E-4,7.145893E-5],"categories":[],"categories_nodes":[],"categories_segments":[],"categories_sizes":[],"default_left":[0,0,0,0,0,0,0,0,0,0,0,0,0,0,0,0,0,0,0,0,0],"id":5,"left_children":[1,3,5,-1,7,9,11,13,-1,15,-1,17,19,-1,-1,-1,-1,-1,-1,-1,-1],"loss_changes":[3.638554E-2,5.3034164E-3,1.4049957E-2,0E0,9.072613E-5,4.5129895E-2,1.9335406E-2,1.163955E-4,0E0,1.4620005E-2,0E0,8.15996E-3,5.7892497E-3,0E0,0E0,0E0,0E0,0E0,0E0,0E0,0E0],"parents":[2147483647,0,0,1,1,2,2,4,4,5,5,6,6,7,7,9,9,11,11,12,12],"right_children":[2,4,6,-1,8,10,12,14,-1,16,-1,18,20,-1,-1,-1,-1,-1,-1,-1,-1],"split_conditions":[2.62E0,3.42857E1,-1.8618722E-2,1.9040364E-3,2.57E0,5.0885034E0,7.413045E-1,-3.439997E-2,-0E0,1.5148356E0,-3.4052737E-3,5.344826E1,5.263156E1,-0E0,2.4255889E-4,-4.0540964E-4,3.0997195E-5,7.8171375E-4,1.2683975E-5,-2.304353E-4,7.145893E-5],"split_indices":[10,2,4,0,10,6,0,3,0,0,0,2,2,0,0,0,0,0,0,0,0],"split_type":[0,0,0,0,0,0,0,0,0,0,0,0,0,0,0,0,0,0,0,0,0],"sum_hessian":[5.78E2,1.6E1,5.62E2,9E0,7E0,2.64E2,2.98E2,6E0,1E0,2.61E2,3E0,7.2E1,2.26E2,1E0,5E0,1.12E2,1.49E2,4.3E1,2.9E1,8.9E1,1.37E2],"tree_param":{"num_deleted":"0","num_feature":"12","num_nodes":"21","size_leaf_vector":"1"}},{"base_weights":[-0E0,4.6884183E-2,-1.5661822E-3,1.9142785E-3,7.3672854E-3,-1.0656282E-2,1.1513896E-3,9.199648E-3,-0E0,-1.7890686E-2,-9.0161036E-4,2.1480609E-2,-2.9660625E-4,-0E0,3.4483903E-4,-6.5890315E-4,-0E0,5.87766E-4,-2.22345E-4,-2.0001517E-4,1.1737068E-3,4.9086077E-5,-4.1648967E-4],"categories":[],"categories_nodes":[],"categories_segments":[],"categories_sizes":[],"default_left":[0,0,0,0,0,0,0,0,0,0,0,0,0,0,0,0,0,0,0,0,0,0,0],"id":6,"left_children":[1,3,5,-1,7,9,11,13,-1,15,17,19,21,-1,-1,-1,-1,-1,-1,-1,-1,-1,-1],"loss_changes":[3.8705E-2,3.7823096E-3,1.4425892E-2,0E0,1.5821957E-4,7.560918E-3,1.4252661E-2,2.0032504E-4,0E0,3.8061514E-3,7.4655344E-3,1.9398004E-2,1.1252408E-2,0E0,0E0,0E0,0E0,0E0,0E0,0E0,0E0,0E0,0E0],"parents":[2147483647,0,0,1,1,2,2,4,4,5,5,6,6,7,7,9,9,10,10,11,11,12,12],"right_children":[2,4,6,-1,8,10,12,14,-1,16,18,20,22,-1,-1,-1,-1,-1,-1,-1,-1,-1,-1],"split_conditions":[2.62E0,3.42857E1,3.7E0,1.9142785E-3,2.57E0,3E0,3.788636E0,2.782821E0,-0E0,3.35E0,-8.236985E-2,-1.9459245E-1,6.25539E-2,-0E0,3.4483903E-4,-6.5890315E-4,-0E0,5.87766E-4,-2.22345E-4,-2.0001517E-4,1.1737068E-3,4.9086077E-5,-4.1648967E-4],"split_indices":[10,2,9,0,10,1,6,5,0,10,3,3,3,0,0,0,0,0,0,0,0,0,0],"split_type":[0,0,0,0,0,0,0,0,0,0,0,0,0,0,0,0,0,0,0,0,0,0,0],"sum_hessian":[5.6E2,1.6E1,5.44E2,9E0,7E0,1.33E2,4.11E2,6E0,1E0,7E1,6.3E1,3.1E1,3.8E2,1E0,5E0,5.4E1,1.6E1,1.1E1,5.2E1,1E1,2.1E1,3.27E2,5.3E1],"tree_param":{"num_deleted":"0","num_feature":"12","num_nodes":"23","size_leaf_vector":"1"}},{"base_weights":[5.2815385E-6,4.634842E-2,-1.2941551E-3,1.8465201E-3,7.1517616E-3,-1.2334644E-2,5.0504453E-4,8.953336E-3,-0E0,-2.1168789E-2,-0E0,2.7607519E-3,-1.2846305E-2,-0E0,3.3621807E-4,-7.0670166E-4,-0E0,-8.336889E-5,2.9028047E-4,2.32021E-4,-0E0,-6.425621E-5,-1.780968E-3],"categories":[],"categories_nodes":[],"categories_segments":[],"categories_sizes":[],"default_left":[0,0,0,0,0,0,0,0,0,0,0,0,0,0,0,0,0,0,0,0,0,0,0],"id":7,"left_children":[1,3,5,-1,7,9,11,13,-1,15,17,19,21,-1,-1,-1,-1,-1,-1,-1,-1,-1,-1],"loss_changes":[3.9613433E-2,3.4153573E-3,1.2412374E-2,0E0,1.5195392E-4,9.61752E-3,1.3452828E-2,1.9248191E-4,0E0,1.0075271E-3,1.066584E-3,5.3155E-3,2.5093744E-2,0E0,0E0,0E0,0E0,0E0,0E0,0E0,0E0,0E0,0E0],"parents":[2147483647,0,0,1,1,2,2,4,4,5,5,6,6,7,7,9,9,10,10,11,11,12,12],"right_children":[2,4,6,-1,8,10,12,14,-1,16,18,20,22,-1,-1,-1,-1,-1,-1,-1,-1,-1,-1],"split_conditions":[2.62E0,3.42857E1,3.3826907E0,1.8465201E-3,2.57E0,3E0,5.38158E0,2.782821E0,-0E0,3.29991E0,1.6742494E0,4.2724285E0,3E0,-0E0,3.3621807E-4,-7.0670166E-4,-0E0,-8.336889E-5,2.9028047E-4,2.32021E-4,-0E0,-6.425621E-5,-1.780968E-3],"split_indices":[10,2,5,0,10,1,5,5,0,5,0,5,1,0,0,0,0,0,0,0,0,0,0],"split_type":[0,0,0,0,0,0,0,0,0,0,0,0,0,0,0,0,0,0,0,0,0,0,0],"sum_hessian":[5.81E2,1.7E1,5.64E2,1E1,7E0,8.6E1,4.78E2,6E0,1E0,5E1,3.6E1,4.16E2,6.2E1,1E0,5E0,4.2E1,8E0,2.8E1,8E0,1.41E2,2.75E2,5.3E1,9E0],"tree_param":{"num_deleted":"0","num_feature":"12","num_nodes":"23","size_leaf_vector":"1"}},{"base_weights":[-1.6739489E-4,4.2522807E-2,-1.6311645E-3,1.3401659E-3,-0E0,7.201022E-3,-4.182768E-3,5.4405106E-4,3.0325726E-2,-1.7168501E-3,-2.0595124E-2,-9.227049E-5,3.5829967E-4,1.1082889E-3,-0E0,-3.7257394E-4,1.3123599E-5,-1.9648483E-3,-1.4685883E-4],"categories":[],"categories_nodes":[],"categories_segments":[],"categories_sizes":[],"default_left":[0,0,0,0,0,0,0,0,0,0,0,0,0,0,0,0,0,0,0],"id":8,"left_children":[1,3,5,-1,-1,7,9,11,13,15,17,-1,-1,-1,-1,-1,-1,-1,-1],"loss_changes":[3.2223597E-2,1.1904668E-3,1.2438734E-2,0E0,0E0,1.50615E-2,1.5824217E-2,4.8846817E-3,3.4141447E-3,1.0310706E-2,3.0001085E-2,0E0,0E0,0E0,0E0,0E0,0E0,0E0,0E0],"parents":[2147483647,0,0,1,1,2,2,5,5,6,6,7,7,8,8,9,9,10,10],"right_children":[2,4,6,-1,-1,8,10,12,14,16,18,-1,-1,-1,-1,-1,-1,-1,-1],"split_conditions":[2.62E0,6.4705864E1,7.373194E-1,1.3401659E-3,-0E0,4.489176E0,5.202013E0,6.572765E-1,3.1171395E-2,3.3826907E0,-2.6442267E-2,-9.227049E-5,3.5829967E-4,1.1082889E-3,-0E0,-3.7257394E-4,1.3123599E-5,-1.9648483E-3,-1.4685883E-4],"split_indices":[10,2,0,0,0,11,7,0,3,5,3,0,0,0,0,0,0,0,0],"split_type":[0,0,0,0,0,0,0,0,0,0,0,0,0,0,0,0,0,0,0],"sum_hessian":[5.79E2,1.6E1,5.63E2,1.5E1,1E0,1.17E2,4.46E2,9.5E1,2.2E1,3.94E2,5.2E1,6.6E1,2.9E1,1.7E1,5E0,7.3E1,3.21E2,1.1E1,4.1E1],"tree_param":{"num_deleted":"0","num_feature":"12","num_nodes":"19","size_leaf_vector":"1"}},{"base_weights":[3.2373387E-4,4.5019187E-2,-7.065108E-4,-0E0,1.4296182E-3,-7.4742585E-3,4.7150967E-3,-1.8220199E-3,-4.503166E-2,1.6240917E-2,-0E0,6.970867E-5,-2.2603222E-4,-5.658537E-4,-4.0278747E-3,2.4034685E-4,9.205016E-4,-7.627811E-5,2.9419106E-4],"categories":[],"categories_nodes":[],"categories_segments":[],"categories_sizes":[],"default_left":[0,0,0,0,0,0,0,0,0,0,0,0,0,0,0,0,0,0,0],"id":9,"left_children":[1,3,5,-1,-1,7,9,11,13,15,17,-1,-1,-1,-1,-1,-1,-1,-1],"loss_changes":[3.0617913E-2,1.3916697E-3,2.0638565E-2,0E0,0E0,4.936485E-2,1.4959285E-2,5.8669266E-3,5.4545082E-2,5.630564E-3,6.0866657E-3,0E0,0E0,0E0,0E0,0E0,0E0,0E0,0E0],"parents":[2147483647,0,0,1,1,2,2,5,5,6,6,7,7,8,8,9,9,10,10],"right_children":[2,4,6,-1,-1,8,10,12,14,16,18,-1,-1,-1,-1,-1,-1,-1,-1],"split_conditions":[2.62E0,2.5E0,-1.8618722E-2,-0E0,1.4296182E-3,-2.7920535E-2,7.413045E-1,3E0,5.033185E0,4.387944E0,3E0,6.970867E-5,-2.2603222E-4,-5.658537E-4,-4.0278747E-3,2.4034685E-4,9.205016E-4,-7.627811E-5,2.9419106E-4],"split_indices":[10,8,4,0,0,4,0,1,6,6,1,0,0,0,0,0,0,0,0],"split_type":[0,0,0,0,0,0,0,0,0,0,0,0,0,0,0,0,0,0,0],"sum_hessian":[5.67E2,1.4E1,5.53E2,1E0,1.3E1,2.54E2,2.99E2,2.24E2,3E1,8.1E1,2.18E2,1.2E2,1.04E2,2.5E1,5E0,5.7E1,2.4E1,1.67E2,5.1E1],"tree_param":{"num_deleted":"0","num_feature":"12","num_nodes":"19","size_leaf_vector":"1"}},{"base_weights":[-0E0,4.07985E-2,-1.2839593E-3,1.7206209E-3,4.919679E-3,-1.2447925E-2,3.908124E-4,6.5632686E-3,-0E0,-4.4668396E-3,-3.6349256E-2,1.8223481E-3,-9.317106E-3,-0E0,2.564837E-4,-3.078961E-4,-0E0,-1.2958134E-3,-0E0,2.762947E-5,8.849242E-4,-1.557328E-3,-8.219504E-5],"categories":[],"categories_nodes":[],"categories_segments":[],"categories_sizes":[],"default_left":[0,0,0,0,0,0,0,0,0,0,0,0,0,0,0,0,0,0,0,0,0,0,0],"id":10,"left_children":[1,3,5,-1,7,9,11,13,-1,15,17,19,21,-1,-1,-1,-1,-1,-1,-1,-1,-1,-1],"loss_changes":[3.255067E-2,4.7763325E-3,1.1699646E-2,0E0,1.267828E-4,1.1207468E-2,5.952072E-3,1.6704062E-4,0E0,2.389744E-3,1.7925706E-3,7.6325694E-3,9.240708E-3,0E0,0E0,0E0,0E0,0E0,0E0,0E0,0E0,0E0,0E0],"parents":[2147483647,0,0,1,1,2,2,4,4,5,5,6,6,7,7,9,9,10,10,11,11,12,12],"right_children":[2,4,6,-1,8,10,12,14,-1,16,18,20,22,-1,-1,-1,-1,-1,-1,-1,-1,-1,-1],"split_conditions":[2.62E0,3.42857E1,3.3826907E0,1.7206209E-3,2.57E0,2.87E0,5.2529297E0,2.782821E0,-0E0,3E0,3.2E0,5.0415945E0,5.2274714E0,-0E0,2.564837E-4,-3.078961E-4,-0E0,-1.2958134E-3,-0E0,2.762947E-5,8.849242E-4,-1.557328E-3,-8.219504E-5],"split_indices":[10,2,5,0,10,11,7,5,0,1,7,6,8,0,0,0,0,0,0,0,0,0,0],"split_type":[0,0,0,0,0,0,0,0,0,0,0,0,0,0,0,0,0,0,0,0,0,0,0],"sum_hessian":[5.78E2,1.8E1,5.6E2,1E1,8E0,8E1,4.8E2,7E0,1E0,6.4E1,1.6E1,4.28E2,5.2E1,1E0,6E0,3.4E1,3E1,1.2E1,4E0,4.19E2,9E0,4E0,4.8E1],"tree_param":{"num_deleted":"0","num_feature":"12","num_nodes":"23","size_leaf_vector":"1"}},{"base_weights":[-3.503883E-4,2.9468747E-2,-1.3099263E-3,-0E0,9.6293836E-4,-6.6170157E-3,2.5731348E-3,-4.0413667E-3,-8.1901684E-2,1.442884E-2,-8.455349E-4,-4.099107E-4,5.8737623E-5,-3.7122048E-3,-0E0,2.5118818E-4,1.0311609E-3,-3.3542927E-4,1.588495E-5],"categories":[],"categories_nodes":[],"categories_segments":[],"categories_sizes":[],"default_left":[0,0,0,0,0,0,0,0,0,0,0,0,0,0,0,0,0,0,0],"id":11,"left_children":[1,3,5,-1,-1,7,9,11,13,15,17,-1,-1,-1,-1,-1,-1,-1,-1],"loss_changes":[1.3932474E-2,1.3977885E-3,1.2167834E-2,0E0,0E0,3.993924E-2,1.4299839E-2,1.539819E-2,2.9602934E-2,4.8580766E-3,4.51027E-3,0E0,0E0,0E0,0E0,0E0,0E0,0E0,0E0],"parents":[2147483647,0,0,1,1,2,2,5,5,6,6,7,7,8,8,9,9,10,10],"right_children":[2,4,6,-1,-1,8,10,12,14,16,18,-1,-1,-1,-1,-1,-1,-1,-1],"split_conditions":[2.65E0,2.5E0,-1.8618722E-2,-0E0,9.6293836E-4,5.039682E0,7.413045E-1,1.4835619E0,1.7768766E0,4.9128747E0,2.95E0,-4.099107E-4,5.8737623E-5,-3.7122048E-3,-0E0,2.5118818E-4,1.0311609E-3,-3.3542927E-4,1.588495E-5],"split_indices":[11,7,4,0,0,6,0,0,0,6,11,0,0,0,0,0,0,0,0],"split_type":[0,0,0,0,0,0,0,0,0,0,0,0,0,0,0,0,0,0,0],"sum_hessian":[5.83E2,1.4E1,5.69E2,1E0,1.3E1,2.51E2,3.18E2,2.45E2,6E0,7.7E1,2.41E2,1E2,1.45E2,4E0,2E0,6.4E1,1.3E1,3.6E1,2.05E2],"tree_param":{"num_deleted":"0","num_feature":"12","num_nodes":"19","size_leaf_vector":"1"}},{"base_weights":[-6.308521E-6,3.630177E-2,-1.2690392E-3,1.5208339E-3,1.273178E-3,-8.892658E-3,7.4167876E-4,-0E0,1.19050026E-4,5.6570447E-3,-1.2871635E-2,1.210242E-2,-1.8885448E-3,-0E0,5.2884576E-4,-1.2509967E-4,-5.931597E-4,1.4455593E-4,8.054338E-4,-3.09034E-4,8.6789005E-5],"categories":[],"categories_nodes":[],"categories_segments":[],"categories_sizes":[],"default_left":[0,0,0,0,0,0,0,0,0,0,0,0,0,0,0,0,0,0,0,0,0],"id":12,"left_children":[1,3,5,-1,7,9,11,-1,-1,13,15,17,19,-1,-1,-1,-1,-1,-1,-1,-1],"loss_changes":[2.3317633E-2,3.3093411E-3,9.528536E-3,0E0,6.577053E-5,8.262462E-3,1.4192011E-2,0E0,0E0,3.303742E-3,3.948109E-3,6.37033E-3,1.4889556E-2,0E0,0E0,0E0,0E0,0E0,0E0,0E0,0E0],"parents":[2147483647,0,0,1,1,2,2,4,4,5,5,6,6,9,9,10,10,11,11,12,12],"right_children":[2,4,6,-1,8,10,12,-1,-1,14,16,18,20,-1,-1,-1,-1,-1,-1,-1,-1],"split_conditions":[2.62E0,3.42857E1,3.7063115E0,1.5208339E-3,-3.52344E-2,-8.236985E-2,4.2724285E0,-0E0,1.19050026E-4,-9.848135E-2,2.8E0,-1.803537E-2,-9.265855E-3,-0E0,5.2884576E-4,-1.2509967E-4,-5.931597E-4,1.4455593E-4,8.054338E-4,-3.09034E-4,8.6789005E-5],"split_indices":[10,2,5,0,4,3,5,0,0,4,7,4,4,0,0,0,0,0,0,0,0],"split_type":[0,0,0,0,0,0,0,0,0,0,0,0,0,0,0,0,0,0,0,0,0],"sum_hessian":[5.83E2,1.6E1,5.67E2,9E0,7E0,1.28E2,4.39E2,3E0,4E0,2.2E1,1.06E2,8.9E1,3.5E2,1E1,1.2E1,5.4E1,5.2E1,6.5E1,2.4E1,1.34E2,2.16E2],"tree_param":{"num_deleted":"0","num_feature":"12","num_nodes":"21","size_leaf_vector":"1"}},{"base_weights":[-0E0,3.735512E-2,-8.0381864E-4,4.182464E-2,-0E0,-8.878904E-3,1.4678403E-3,1.3757375E-3,-0E0,-1.65673E-2,-5.137715E-4,1.5262495E-2,-0E0,-5.878381E-4,-0E0,5.5138033E-4,-1.458281E-4,-0E0,1.0718008E-3,6.622142E-5,-3.2696978E-4],"categories":[],"categories_nodes":[],"categories_segments":[],"categories_sizes":[],"default_left":[0,0,0,0,0,0,0,0,0,0,0,0,0,0,0,0,0,0,0,0,0],"id":13,"left_children":[1,3,5,7,-1,9,11,-1,-1,13,15,17,19,-1,-1,-1,-1,-1,-1,-1,-1],"loss_changes":[1.5706114E-2,2.1435479E-3,1.087994E-2,1.4335364E-3,0E0,6.7085717E-3,7.942641E-3,0E0,0E0,2.563903E-3,4.4867056E-3,1.28468815E-2,8.943558E-3,0E0,0E0,0E0,0E0,0E0,0E0,0E0,0E0],"parents":[2147483647,0,0,1,1,2,2,3,3,5,5,6,6,9,9,10,10,11,11,12,12],"right_children":[2,4,6,8,-1,10,12,-1,-1,14,16,18,20,-1,-1,-1,-1,-1,-1,-1,-1],"split_conditions":[2.58E0,3.42857E1,3.7063115E0,2.5339332E0,-0E0,3E0,3.788636E0,1.3757375E-3,-0E0,6.3888878E1,-8.236985E-2,-9.265588E-2,5.583443E-2,-5.878381E-4,-0E0,5.5138033E-4,-1.458281E-4,-0E0,1.0718008E-3,6.622142E-5,-3.2696978E-4],"split_indices":[7,2,5,6,0,1,6,0,0,2,3,3,3,0,0,0,0,0,0,0,0],"split_type":[0,0,0,0,0,0,0,0,0,0,0,0,0,0,0,0,0,0,0,0,0],"sum_hessian":[5.61E2,1E1,5.51E2,9E0,1E0,1.3E2,4.21E2,8E0,1E0,6.1E1,6.9E1,3.7E1,3.84E2,5E1,1.1E1,8E0,6.1E1,2.1E1,1.6E1,3.23E2,6.1E1],"tree_param":{"num_deleted":"0","num_feature":"12","num_nodes":"21","size_leaf_vector":"1"}},{"base_weights":[6.00552E-4,3.753702E-2,-1.9707535E-4,1.1919884E-3,-0E0,-4.774454E-3,3.3610808E-3,-0E0,-4.2819887E-2,4.829203E-3,-1.2241218E-2,1.6759682E-4,-1.7590572E-4,-5.857323E-4,-3.1684553E-3,-2.2108718E-4,2.0968146E-4,-9.776539E-4,-0E0],"categories":[],"categories_nodes":[],"categories_segments":[],"categories_sizes":[],"default_left":[0,0,0,0,0,0,0,0,0,0,0,0,0,0,0,0,0,0,0],"id":14,"left_children":[1,3,5,-1,-1,7,9,11,13,15,17,-1,-1,-1,-1,-1,-1,-1,-1],"loss_changes":[2.094693E-2,9.664744E-4,9.440989E-3,0E0,0E0,5.086743E-2,6.3958913E-3,7.6111755E-3,3.0772213E-2,7.6290877E-3,4.2872597E-3,0E0,0E0,0E0,0E0,0E0,0E0,0E0,0E0],"parents":[2147483647,0,0,1,1,2,2,5,5,6,6,7,7,8,8,9,9,10,10],"right_children":[2,4,6,-1,-1,8,10,12,14,16,18,-1,-1,-1,-1,-1,-1,-1,-1],"split_conditions":[2.62E0,6.307691E1,-1.8618722E-2,1.1919884E-3,-0E0,-2.8055765E-2,5.7487006E0,3E0,4.580134E0,2.95E0,5.898669E0,1.6759682E-4,-1.7590572E-4,-5.857323E-4,-3.1684553E-3,-2.2108718E-4,2.0968146E-4,-9.776539E-4,-0E0],"split_indices":[11,2,4,0,0,4,5,1,5,11,5,0,0,0,0,0,0,0,0],"split_type":[0,0,0,0,0,0,0,0,0,0,0,0,0,0,0,0,0,0,0],"sum_hessian":[5.83E2,1.4E1,5.69E2,1.3E1,1E0,2.61E2,3.08E2,2.31E2,3E1,2.88E2,2E1,1.25E2,1.06E2,2.4E1,6E0,3.6E1,2.52E2,6E0,1.4E1],"tree_param":{"num_deleted":"0","num_feature":"12","num_nodes":"19","size_leaf_vector":"1"}},{"base_weights":[-0E0,4.1484307E-2,-7.702693E-4,1.3809375E-3,-0E0,-4.456342E-3,3.359844E-3,-2.054758E-3,-3.662559E-2,1.0138714E-2,-2.0604562E-3,-1.072542E-4,5.614627E-4,-3.4535392E-3,-4.0592684E-5,7.6982986E-5,7.1457174E-4,2.3986846E-4,-1.7776023E-4],"categories":[],"categories_nodes":[],"categories_segments":[],"categories_sizes":[],"default_left":[0,0,0,0,0,0,0,0,0,0,0,0,0,0,0,0,0,0,0],"id":15,"left_children":[1,3,5,-1,-1,7,9,11,13,15,17,-1,-1,-1,-1,-1,-1,-1,-1],"loss_changes":[2.0991344E-2,2.6562605E-3,8.8479165E-3,0E0,0E0,2.0469967E-2,1.0308541E-2,7.963309E-3,4.080096E-2,1.0042668E-2,5.126065E-3,0E0,0E0,0E0,0E0,0E0,0E0,0E0,0E0],"parents":[2147483647,0,0,1,1,2,2,5,5,6,6,7,7,8,8,9,9,10,10],"right_children":[2,4,6,-1,-1,8,10,12,14,16,18,-1,-1,-1,-1,-1,-1,-1,-1],"split_conditions":[2.58E0,-3.785745E-2,6.9519057E-4,1.3809375E-3,-0E0,5.202013E0,3.1256434E-2,4.4637175E0,5.450054E0,4.5231204E0,3.9018004E0,-1.072542E-4,5.614627E-4,-3.4535392E-3,-4.0592684E-5,7.6982986E-5,7.1457174E-4,2.3986846E-4,-1.7776023E-4],"split_indices":[7,3,3,0,0,7,3,11,5,11,6,0,0,0,0,0,0,0,0],"split_type":[0,0,0,0,0,0,0,0,0,0,0,0,0,0,0,0,0,0,0],"sum_hessian":[5.83E2,1.1E1,5.72E2,1E1,1E0,3.15E2,2.57E2,2.97E2,1.8E1,1.22E2,1.35E2,2.82E2,1.5E1,4E0,1.4E1,8.4E1,3.8E1,3E1,1.05E2],"tree_param":{"num_deleted":"0","num_feature":"12","num_nodes":"19","size_leaf_vector":"1"}},{"base_weights":[-0E0,2.7598077E-2,-6.2750897E-4,-0E0,3.060892E-2,-8.446176E-3,1.4258323E-3,-0E0,3.2998815E-2,-0E0,-1.4458603E-2,1.48162395E-2,-0E0,-0E0,1.0682568E-3,-1.9634234E-4,1.5045391E-4,-9.1866753E-4,-1.6142098E-4,-2.3947355E-6,1.0413377E-3,5.7944126E-5,-3.7964663E-4],"categories":[],"categories_nodes":[],"categories_segments":[],"categories_sizes":[],"default_left":[0,0,0,0,0,0,0,0,0,0,0,0,0,0,0,0,0,0,0,0,0,0,0],"id":16,"left_children":[1,3,5,-1,7,9,11,-1,13,15,17,19,21,-1,-1,-1,-1,-1,-1,-1,-1,-1,-1],"loss_changes":[1.0124371E-2,1.3413718E-3,9.800862E-3,0E0,7.352689E-4,5.5023376E-3,9.424999E-3,0E0,7.015541E-4,2.074921E-3,6.5061776E-3,1.7394714E-2,1.0385538E-2,0E0,0E0,0E0,0E0,0E0,0E0,0E0,0E0,0E0,0E0],"parents":[2147483647,0,0,1,1,2,2,4,4,5,5,6,6,8,8,9,9,10,10,11,11,12,12],"right_children":[2,4,6,-1,8,10,12,-1,14,16,18,20,22,-1,-1,-1,-1,-1,-1,-1,-1,-1,-1],"split_conditions":[2.62E0,2.5E0,3.7063115E0,-0E0,5.7396805E-1,2.902839E0,3.7687323E0,-0E0,2.5E0,2.8285599E0,3.3027E0,-1.3887586E-1,5.583443E-2,-0E0,1.0682568E-3,-1.9634234E-4,1.5045391E-4,-9.1866753E-4,-1.6142098E-4,-2.3947355E-6,1.0413377E-3,5.7944126E-5,-3.7964663E-4],"split_indices":[9,7,5,0,0,5,6,0,8,5,5,4,3,0,0,0,0,0,0,0,0,0,0],"split_type":[0,0,0,0,0,0,0,0,0,0,0,0,0,0,0,0,0,0,0,0,0,0,0],"sum_hessian":[5.77E2,1.2E1,5.65E2,1E0,1.1E1,1.27E2,4.38E2,1E0,1E1,5.8E1,6.9E1,4.6E1,3.92E2,1E0,9E0,3.1E1,2.7E1,2E1,4.9E1,2.4E1,2.2E1,3.36E2,5.6E1],"tree_param":{"num_deleted":"0","num_feature":"12","num_nodes":"23","size_leaf_vector":"1"}},{"base_weights":[-1.1140559E-4,2.7377466E-2,-8.627256E-4,-0E0,3.0641967E-2,-1.075751E-2,6.110086E-4,3.3016026E-2,-0E0,-6.148457E-4,-2.9123547E-2,8.349467E-3,-2.1030586E-3,1.0454546E-3,-0E0,-1.9739567E-4,2.7613642E-4,-1.2109249E-3,-0E0,-1.5292711E-5,4.0865032E-4,4.714902E-4,-1.05496336E-4],"categories":[],"categories_nodes":[],"categories_segments":[],"categories_sizes":[],"default_left":[0,0,0,0,0,0,0,0,0,0,0,0,0,0,0,0,0,0,0,0,0,0,0],"id":17,"left_children":[1,3,5,-1,7,9,11,13,-1,15,17,19,21,-1,-1,-1,-1,-1,-1,-1,-1,-1,-1],"loss_changes":[9.41281E-3,1.333924E-3,9.362287E-3,0E0,5.723471E-4,1.24695385E-2,1.0933522E-2,2.9176474E-5,0E0,3.1953163E-3,5.644813E-3,7.7170897E-3,7.7516525E-3,0E0,0E0,0E0,0E0,0E0,0E0,0E0,0E0,0E0,0E0],"parents":[2147483647,0,0,1,1,2,2,4,4,5,5,6,6,7,7,9,9,10,10,11,11,12,12],"right_children":[2,4,6,-1,8,10,12,14,-1,16,18,20,22,-1,-1,-1,-1,-1,-1,-1,-1,-1,-1],"split_conditions":[2.62E0,2.5E0,3.3791928E0,-0E0,6.307691E1,3.0014153E0,4.2613482E0,-3.508654E-3,-0E0,2.77E0,3.3027E0,3.7624779E0,4.9424654E-1,1.0454546E-3,-0E0,-1.9739567E-4,2.7613642E-4,-1.2109249E-3,-0E0,-1.5292711E-5,4.0865032E-4,4.714902E-4,-1.05496336E-4],"split_indices":[10,7,5,0,2,5,5,3,0,10,5,5,0,0,0,0,0,0,0,0,0,0,0],"split_type":[0,0,0,0,0,0,0,0,0,0,0,0,0,0,0,0,0,0,0,0,0,0,0],"sum_hessian":[5.82E2,1.1E1,5.71E2,1E0,1E1,8.2E1,4.89E2,9E0,1E0,5.7E1,2.5E1,1.36E2,3.53E2,8E0,1E0,4.2E1,1.5E1,1.6E1,9E0,4.4E1,9.2E1,2E1,3.33E2],"tree_param":{"num_deleted":"0","num_feature":"12","num_nodes":"23","size_leaf_vector":"1"}},{"base_weights":[-4.53044E-5,1.2283601E-3,-1.2507135E-3,2.5889896E-2,-2.3864268E-3,3.695312E-2,-0E0,-6.7866533E-3,9.4074284E-4,9.7231954E-5,1.6774936E-3,-5.802618E-5,-1.2277775E-3,2.5832886E-4,-4.5717064E-5],"categories":[],"categories_nodes":[],"categories_segments":[],"categories_sizes":[],"default_left":[0,0,0,0,0,0,0,0,0,0,0,0,0,0,0],"id":18,"left_children":[1,-1,3,5,7,9,-1,11,13,-1,-1,-1,-1,-1,-1],"loss_changes":[2.4344549E-2,0E0,1.4942027E-2,6.3820174E-3,8.5113775E-3,2.8531197E-3,0E0,3.6386937E-2,6.31752E-3,0E0,0E0,0E0,0E0,0E0,0E0],"parents":[2147483647,0,0,2,2,3,3,4,4,5,5,7,7,8,8],"right_children":[2,-1,4,6,8,10,-1,12,14,-1,-1,-1,-1,-1,-1],"split_conditions":[2.62E0,1.2283601E-3,4.8742867E-1,2.2221081E-2,-1.9107733E-2,4.440128E0,-0E0,-2.7920535E-2,3.915517E0,9.7231954E-5,1.6774936E-3,-5.802618E-5,-1.2277775E-3,2.5832886E-4,-4.5717064E-5],"split_indices":[10,0,0,3,4,5,0,4,6,0,0,0,0,0,0],"split_type":[0,0,0,0,0,0,0,0,0,0,0,0,0,0,0],"sum_hessian":[5.71E2,1.3E1,5.58E2,1.8E1,5.4E2,1.3E1,5E0,2.45E2,2.95E2,7E0,6E0,2.18E2,2.7E1,8.1E1,2.14E2],"tree_param":{"num_deleted":"0","num_feature":"12","num_nodes":"15","size_leaf_vector":"1"}},{"base_weights":[-0E0,2.8676331E-2,-6.6538807E-4,-0E0,3.3064906E-2,-1.0472153E-2,8.9589146E-4,1.0905204E-3,-0E0,-2.763727E-3,-2.3715423E-2,7.875136E-3,-1.5730461E-3,-3.175046E-4,-0E0,-0E0,-7.845352E-4,4.4370725E-5,8.4023614E-4,1.1341408E-5,-5.6565244E-4],"categories":[],"categories_nodes":[],"categories_segments":[],"categories_sizes":[],"default_left":[0,0,0,0,0,0,0,0,0,0,0,0,0,0,0,0,0,0,0,0,0],"id":19,"left_children":[1,3,5,-1,7,9,11,-1,-1,13,15,17,19,-1,-1,-1,-1,-1,-1,-1,-1],"loss_changes":[1.3399491E-2,2.1487204E-3,9.3421815E-3,0E0,1.8718047E-3,5.8616614E-3,8.637929E-3,0E0,0E0,2.2375921E-3,1.7902609E-3,1.4007689E-2,1.3083212E-2,0E0,0E0,0E0,0E0,0E0,0E0,0E0,0E0],"parents":[2147483647,0,0,1,1,2,2,4,4,5,5,6,6,9,9,10,10,11,11,12,12],"right_children":[2,4,6,-1,8,10,12,-1,-1,14,16,18,20,-1,-1,-1,-1,-1,-1,-1,-1],"split_conditions":[2.65E0,2.51E0,3.3826907E0,-0E0,1.4675252E0,3.0259697E0,9.487502E-1,1.0905204E-3,-0E0,1E0,2.8E0,4.489176E0,5.2529297E0,-3.175046E-4,-0E0,-0E0,-7.845352E-4,4.4370725E-5,8.4023614E-4,1.1341408E-5,-5.6565244E-4],"split_indices":[11,8,5,0,0,5,0,0,0,1,11,11,7,0,0,0,0,0,0,0,0],"split_type":[0,0,0,0,0,0,0,0,0,0,0,0,0,0,0,0,0,0,0,0,0],"sum_hessian":[5.61E2,1.5E1,5.46E2,2E0,1.3E1,8.3E1,4.63E2,1.2E1,1E0,5.8E1,2.5E1,1.31E2,3.32E2,2.3E1,3.5E1,2E0,2.3E1,1.04E2,2.7E1,2.94E2,3.8E1],"tree_param":{"num_deleted":"0","num_feature":"12","num_nodes":"21","size_leaf_vector":"1"}},{"base_weights":[1.1978508E-3,2.8669257E-2,4.7234131E-4,1.2820209E-3,-0E0,-6.2899995E-3,2.8714968E-3,1.4525924E-3,-9.900898E-3,2.6491407E-2,7.411685E-4,-8.848184E-5,6.124789E-4,-8.411045E-5,-5.333898E-4,-0E0,1.1907007E-3,8.448188E-5,-2.620542E-4],"categories":[],"categories_nodes":[],"categories_segments":[],"categories_sizes":[],"default_left":[0,0,0,0,0,0,0,0,0,0,0,0,0,0,0,0,0,0,0],"id":20,"left_children":[1,3,5,-1,-1,7,9,11,13,15,17,-1,-1,-1,-1,-1,-1,-1,-1],"loss_changes":[8.353113E-3,3.742192E-3,8.696703E-3,0E0,0E0,4.6335035E-3,1.8491374E-2,4.728549E-3,3.5394626E-3,1.2900924E-2,7.1403272E-3,0E0,0E0,0E0,0E0,0E0,0E0,0E0,0E0],"parents":[2147483647,0,0,1,1,2,2,5,5,6,6,7,7,8,8,9,9,10,10],"right_children":[2,4,6,-1,-1,8,10,12,14,16,18,-1,-1,-1,-1,-1,-1,-1,-1],"split_conditions":[2.59E0,3.42857E1,3.7E0,1.2820209E-3,-0E0,-8.236985E-2,3.7925575E0,3E0,2.81E0,-1.6611083E-1,5.583443E-2,-8.848184E-5,6.124789E-4,-8.411045E-5,-5.333898E-4,-0E0,1.1907007E-3,8.448188E-5,-2.620542E-4],"split_indices":[8,2,9,0,0,3,6,1,8,4,3,0,0,0,0,0,0,0,0],"split_type":[0,0,0,0,0,0,0,0,0,0,0,0,0,0,0,0,0,0,0],"sum_hessian":[5.65E2,1E1,5.55E2,6E0,4E0,1.34E2,4.21E2,3.4E1,1E2,3E1,3.91E2,2.4E1,1E1,6E1,4E1,9E0,2.1E1,3.3E2,6.1E1],"tree_param":{"num_deleted":"0","num_feature":"12","num_nodes":"19","size_leaf_vector":"1"}},{"base_weights":[-0E0,3.3201203E-2,-1.2369511E-3,1.3606832E-3,-0E0,-7.406746E-3,8.299693E-4,1.8834006E-3,-0E0,-1.2895146E-2,-0E0,1.0334373E-2,-1.4561736E-3,-0E0,1.2863953E-4,-0E0,-4.5037793E-4,6.3253785E-5,-4.2111834E-4,8.747229E-4,1.8307599E-4,3.220323E-5,-3.2189835E-4],"categories":[],"categories_nodes":[],"categories_segments":[],"categories_sizes":[],"default_left":[0,0,0,0,0,0,0,0,0,0,0,0,0,0,0,0,0,0,0,0,0,0,0],"id":21,"left_children":[1,3,5,-1,7,9,11,13,-1,15,17,19,21,-1,-1,-1,-1,-1,-1,-1,-1,-1,-1],"loss_changes":[2.066951E-2,2.7871858E-3,7.562915E-3,0E0,2.4830384E-5,4.850952E-3,9.463867E-3,6.7103654E-5,0E0,3.2570073E-3,3.2090773E-3,3.0668434E-3,8.249479E-3,0E0,0E0,0E0,0E0,0E0,0E0,0E0,0E0,0E0,0E0],"parents":[2147483647,0,0,1,1,2,2,4,4,5,5,6,6,7,7,9,9,10,10,11,11,12,12],"right_children":[2,4,6,-1,8,10,12,14,-1,16,18,20,22,-1,-1,-1,-1,-1,-1,-1,-1,-1,-1],"split_conditions":[2.62E0,3.42857E1,3.6327615E0,1.3606832E-3,2.57E0,3E0,4.2613482E0,2.55E0,-0E0,2.435867E0,3.31E0,3.788636E0,3E0,-0E0,1.2863953E-4,-0E0,-4.5037793E-4,6.3253785E-5,-4.2111834E-4,8.747229E-4,1.8307599E-4,3.220323E-5,-3.2189835E-4],"split_indices":[10,2,6,0,10,1,5,8,0,6,8,6,1,0,0,0,0,0,0,0,0,0,0],"split_type":[0,0,0,0,0,0,0,0,0,0,0,0,0,0,0,0,0,0,0,0,0,0,0],"sum_hessian":[5.57E2,1.7E1,5.4E2,1E1,7E0,1.47E2,3.93E2,6E0,1E0,7.7E1,7E1,8.4E1,3.09E2,2E0,4E0,6E0,7.1E1,5.6E1,1.4E1,1E1,7.4E1,2.35E2,7.4E1],"tree_param":{"num_deleted":"0","num_feature":"12","num_nodes":"23","size_leaf_vector":"1"}},{"base_weights":[-0E0,3.841625E-2,-8.847878E-4,-0E0,4.179824E-2,-8.37157E-3,1.2937993E-3,1.3310144E-3,-0E0,-1.5825683E-3,-1.4617144E-2,1.17200725E-2,-1.4026008E-3,1.4755446E-4,-2.3037716E-4,-1.0252079E-3,-1.2742546E-4,7.436356E-4,1.6098714E-4,-2.723407E-4,9.1350594E-5],"categories":[],"categories_nodes":[],"categories_segments":[],"categories_sizes":[],"default_left":[0,0,0,0,0,0,0,0,0,0,0,0,0,0,0,0,0,0,0,0,0],"id":22,"left_children":[1,3,5,-1,7,9,11,-1,-1,13,15,17,19,-1,-1,-1,-1,-1,-1,-1,-1],"loss_changes":[1.6662894E-2,1.2370367E-3,9.656821E-3,0E0,2.4506636E-4,4.038659E-3,1.2715247E-2,0E0,0E0,3.2071837E-3,8.58591E-3,4.5734113E-3,1.16573125E-2,0E0,0E0,0E0,0E0,0E0,0E0,0E0,0E0],"parents":[2147483647,0,0,1,1,2,2,4,4,5,5,6,6,9,9,10,10,11,11,12,12],"right_children":[2,4,6,-1,8,10,12,-1,-1,14,16,18,20,-1,-1,-1,-1,-1,-1,-1,-1],"split_conditions":[2.58E0,5.7396805E-1,3.6995451E0,-0E0,3.42857E1,2.8E0,4.2724285E0,1.3310144E-3,-0E0,-2.9244965E-2,3.3027E0,3.788636E0,-1.0221983E-2,1.4755446E-4,-2.3037716E-4,-1.0252079E-3,-1.2742546E-4,7.436356E-4,1.6098714E-4,-2.723407E-4,9.1350594E-5],"split_indices":[7,0,5,0,2,7,5,0,0,3,5,6,3,0,0,0,0,0,0,0,0],"split_type":[0,0,0,0,0,0,0,0,0,0,0,0,0,0,0,0,0,0,0,0,0],"sum_hessian":[5.57E2,1E1,5.47E2,1E0,9E0,1.33E2,4.14E2,8E0,1E0,7.2E1,6.1E1,9.2E1,3.22E2,2.7E1,4.5E1,1.7E1,4.4E1,2.4E1,6.8E1,1.26E2,1.96E2],"tree_param":{"num_deleted":"0","num_feature":"12","num_nodes":"21","size_leaf_vector":"1"}},{"base_weights":[1.225813E-4,3.0466842E-2,-7.2557444E-4,-0E0,3.270169E-2,6.073403E-3,-2.634133E-3,1.0283417E-3,-0E0,4.6094248E-4,2.4467064E-2,-1.0864928E-3,-1.6391601E-2,-1.1364099E-4,3.1910444E-4,1.0074804E-3,-0E0,-2.6038484E-4,5.1316697E-6,-2.3101086E-3,-1.3221802E-4],"categories":[],"categories_nodes":[],"categories_segments":[],"categories_sizes":[],"default_left":[0,0,0,0,0,0,0,0,0,0,0,0,0,0,0,0,0,0,0,0,0],"id":23,"left_children":[1,3,5,-1,7,9,11,-1,-1,13,15,17,19,-1,-1,-1,-1,-1,-1,-1,-1],"loss_changes":[1.7923497E-2,1.6128663E-3,6.9647217E-3,0E0,7.255431E-4,9.0580955E-3,7.836898E-3,0E0,0E0,4.6597407E-3,3.7469305E-3,4.795887E-3,1.9848932E-2,0E0,0E0,0E0,0E0,0E0,0E0,0E0,0E0],"parents":[2147483647,0,0,1,1,2,2,4,4,5,5,6,6,9,9,10,10,11,11,12,12],"right_children":[2,4,6,-1,8,10,12,-1,-1,14,16,18,20,-1,-1,-1,-1,-1,-1,-1,-1],"split_conditions":[2.62E0,2.5E0,7.457857E-1,-0E0,6.4705864E1,4.6924887E0,5.261416E0,1.0283417E-3,-0E0,6.535878E-1,5.975357E-1,3.3634737E0,5.2274714E0,-1.1364099E-4,3.1910444E-4,1.0074804E-3,-0E0,-2.6038484E-4,5.1316697E-6,-2.3101086E-3,-1.3221802E-4],"split_indices":[11,7,0,0,2,5,10,0,0,0,0,5,8,0,0,0,0,0,0,0,0],"split_type":[0,0,0,0,0,0,0,0,0,0,0,0,0,0,0,0,0,0,0,0,0],"sum_hessian":[5.79E2,1.8E1,5.61E2,1E0,1.7E1,1.11E2,4.5E2,1.6E1,1E0,9E1,2.1E1,4.12E2,3.8E1,5.7E1,3.3E1,1.4E1,7E0,6.9E1,3.43E2,4E0,3.4E1],"tree_param":{"num_deleted":"0","num_feature":"12","num_nodes":"21","size_leaf_vector":"1"}},{"base_weights":[-0E0,2.5975607E-2,-6.558871E-4,1.0804797E-3,-0E0,-1.3109696E-3,2.3602933E-2,-0E0,3.4540848E-5,-0E0,-1.5610001E-2,2.8728241E-2,-0E0,-1.3104674E-5,6.1970303E-4,-1.18495314E-4,-1.5204186E-3,9.4075094E-4,-0E0],"categories":[],"categories_nodes":[],"categories_segments":[],"categories_sizes":[],"default_left":[0,0,0,0,0,0,0,0,0,0,0,0,0,0,0,0,0,0,0],"id":24,"left_children":[1,3,5,-1,7,9,11,-1,-1,13,15,17,-1,-1,-1,-1,-1,-1,-1],"loss_changes":[1.1715222E-2,1.5010703E-3,6.844026E-3,0E0,6.6281673E-6,1.1953903E-2,1.2997244E-3,0E0,0E0,6.494602E-3,1.6010005E-2,4.3896912E-4,0E0,0E0,0E0,0E0,0E0,0E0,0E0],"parents":[2147483647,0,0,1,1,2,2,4,4,5,5,6,6,9,9,10,10,11,11],"right_children":[2,4,6,-1,8,10,12,-1,-1,14,16,18,-1,-1,-1,-1,-1,-1,-1],"split_conditions":[2.62E0,-3.785745E-2,5.1708474E0,1.0804797E-3,-3.52344E-2,5.202013E0,5.388708E0,-0E0,3.4540848E-5,4.9128747E0,3E0,5.431139E0,-0E0,-1.3104674E-5,6.1970303E-4,-1.18495314E-4,-1.5204186E-3,9.4075094E-4,-0E0],"split_indices":[10,3,6,0,4,7,11,0,0,6,1,7,0,0,0,0,0,0,0],"split_type":[0,0,0,0,0,0,0,0,0,0,0,0,0,0,0,0,0,0,0],"sum_hessian":[5.84E2,1.6E1,5.68E2,9E0,7E0,5.58E2,1E1,3E0,4E0,5.06E2,5.2E1,8E0,2E0,4.92E2,1.4E1,4.2E1,1E1,7E0,1E0],"tree_param":{"num_deleted":"0","num_feature":"12","num_nodes":"19","size_leaf_vector":"1"}},{"base_weights":[1.7437917E-5,9.111857E-4,-7.869134E-4,5.3983256E-3,-3.1480656E-3,-0E0,2.46589E-2,-1.4299367E-2,-1.9147123E-3,-1.148994E-4,1.8024172E-4,1.1494916E-3,-0E0,-8.408982E-4,-0E0,-7.3679E-6,-3.11532E-4],"categories":[],"categories_nodes":[],"categories_segments":[],"categories_sizes":[],"default_left":[0,0,0,0,0,0,0,0,0,0,0,0,0,0,0,0,0],"id":25,"left_children":[1,-1,3,5,7,9,11,13,15,-1,-1,-1,-1,-1,-1,-1,-1],"loss_changes":[1.6948689E-2,0E0,7.89735E-3,1.3495626E-2,4.045159E-3,2.7583062E-3,7.3246956E-3,6.6089462E-3,4.334741E-3,0E0,0E0,0E0,0E0,0E0,0E0,0E0,0E0],"parents":[2147483647,0,0,2,2,3,3,4,4,5,5,6,6,7,7,8,8],"right_children":[2,-1,4,6,8,10,12,14,16,-1,-1,-1,-1,-1,-1,-1,-1],"split_conditions":[2.62E0,9.111857E-4,7.997849E-1,4.489176E0,9.591649E-1,6.572765E-1,2.6761154E-2,3.357873E0,5.1850405E0,-1.148994E-4,1.8024172E-4,1.1494916E-3,-0E0,-8.408982E-4,-0E0,-7.3679E-6,-3.11532E-4],"split_indices":[11,0,0,11,0,0,3,5,8,0,0,0,0,0,0,0,0],"split_type":[0,0,0,0,0,0,0,0,0,0,0,0,0,0,0,0,0],"sum_hessian":[5.71E2,1.7E1,5.54E2,1.41E2,4.13E2,1.13E2,2.8E1,3.2E1,3.81E2,6.4E1,4.9E1,1.6E1,1.2E1,1.6E1,1.6E1,3.29E2,5.2E1],"tree_param":{"num_deleted":"0","num_feature":"12","num_nodes":"17","size_leaf_vector":"1"}},{"base_weights":[1.2060899E-3,2.8744685E-2,3.8607587E-4,3.2029375E-2,-0E0,1.7888186E-2,-2.782997E-4,-0E0,1.0350395E-3,-0E0,1.0974957E-3,3.960918E-4,-9.852698E-3,-1.5053315E-4,8.167061E-5,-8.8611856E-4,-0E0],"categories":[],"categories_nodes":[],"categories_segments":[],"categories_sizes":[],"default_left":[0,0,0,0,0,0,0,0,0,0,0,0,0,0,0,0,0],"id":26,"left_children":[1,3,5,7,-1,9,11,-1,-1,-1,-1,13,15,-1,-1,-1,-1],"loss_changes":[9.9927485E-3,1.5692301E-3,8.277632E-3,7.831799E-4,0E0,7.740291E-3,4.4040014E-3,0E0,0E0,0E0,0E0,5.9678038E-3,6.9734612E-3,0E0,0E0,0E0,0E0],"parents":[2147483647,0,0,1,1,2,2,3,3,5,5,6,6,11,11,12,12],"right_children":[2,4,6,8,-1,10,12,-1,-1,-1,-1,14,16,-1,-1,-1,-1],"split_conditions":[2.58E0,1.3218305E0,4.8742867E-1,5.7396805E-1,-0E0,4.387944E0,5.2529297E0,-0E0,1.0350395E-3,-0E0,1.0974957E-3,3.7E0,3.359396E-3,-1.5053315E-4,8.167061E-5,-8.8611856E-4,-0E0],"split_indices":[7,0,0,0,0,6,7,0,0,0,0,9,4,0,0,0,0],"split_type":[0,0,0,0,0,0,0,0,0,0,0,0,0,0,0,0,0],"sum_hessian":[5.71E2,1.2E1,5.59E2,1.1E1,1E0,2.5E1,5.34E2,1E0,1E1,1.4E1,1.1E1,4.9E2,4.4E1,1.34E2,3.56E2,1.2E1,3.2E1],"tree_param":{"num_deleted":"0","num_feature":"12","num_nodes":"17","size_leaf_vector":"1"}},{"base_weights":[4.4867262E-4,2.9267121E-2,-3.6492293E-5,3.4229197E-2,-0E0,1.0250311E-3,-9.625102E-3,-0E0,1.1150495E-3,-4.1603167E-3,3.176282E-3,-5.5685285E-2,-0E0,1.4973572E-4,-2.1334423E-4,4.7351315E-4,2.9294442E-5,-0E0,-3.5230184E-3,3.7396155E-4,-4.241523E-4],"categories":[],"categories_nodes":[],"categories_segments":[],"categories_sizes":[],"default_left":[0,0,0,0,0,0,0,0,0,0,0,0,0,0,0,0,0,0,0,0,0],"id":27,"left_children":[1,3,5,7,-1,9,11,-1,-1,13,15,17,19,-1,-1,-1,-1,-1,-1,-1,-1],"loss_changes":[1.1019536E-2,1.7526774E-3,6.6411016E-3,9.268215E-4,0E0,5.514613E-3,3.10958E-2,0E0,0E0,3.8665335E-3,8.542394E-3,4.5534186E-2,9.814326E-3,0E0,0E0,0E0,0E0,0E0,0E0,0E0,0E0],"parents":[2147483647,0,0,1,1,2,2,3,3,5,5,6,6,9,9,10,10,11,11,12,12],"right_children":[2,4,6,8,-1,10,12,-1,-1,14,16,18,20,-1,-1,-1,-1,-1,-1,-1,-1],"split_conditions":[2.58E0,3.42857E1,5.202013E0,5.7396805E-1,-0E0,3.7063115E0,-2.6442267E-2,-0E0,1.1150495E-3,-8.236985E-2,3.7925575E0,-2.978003E-2,5.5473924E0,1.4973572E-4,-2.1334423E-4,4.7351315E-4,2.9294442E-5,-0E0,-3.5230184E-3,3.7396155E-4,-4.241523E-4],"split_indices":[7,2,7,0,0,5,3,0,0,3,6,3,5,0,0,0,0,0,0,0,0],"split_type":[0,0,0,0,0,0,0,0,0,0,0,0,0,0,0,0,0,0,0,0,0],"sum_hessian":[5.78E2,1.2E1,5.66E2,1E1,2E0,5.01E2,6.5E1,1E0,9E0,1.33E2,3.68E2,1.1E1,5.4E1,2.4E1,1.09E2,4.7E1,3.21E2,6E0,5E0,3E1,2.4E1],"tree_param":{"num_deleted":"0","num_feature":"12","num_nodes":"21","size_leaf_vector":"1"}},{"base_weights":[1.0953401E-3,3.449147E-2,2.7059938E-4,1.1237044E-3,-0E0,-4.002822E-3,4.1364264E-3,-2.2123605E-3,-2.7643212E-3,5.5240984E-3,-1.5544039E-2,4.4879677E-8,-4.4297837E-4,5.8734808E-5,4.3029006E-4,-5.331682E-4,-0E0],"categories":[],"categories_nodes":[],"categories_segments":[],"categories_sizes":[],"default_left":[0,0,0,0,0,0,0,0,0,0,0,0,0,0,0,0,0],"id":28,"left_children":[1,3,5,-1,-1,7,9,11,-1,13,15,-1,-1,-1,-1,-1,-1],"loss_changes":[1.2434398E-2,9.4385445E-4,9.413453E-3,0E0,0E0,3.1076375E-2,7.5772945E-3,8.563386E-3,0E0,7.6512136E-3,8.7193167E-4,0E0,0E0,0E0,0E0,0E0,0E0],"parents":[2147483647,0,0,1,1,2,2,5,5,6,6,7,7,9,9,10,10],"right_children":[2,4,6,-1,-1,8,10,12,-1,14,16,-1,-1,-1,-1,-1,-1],"split_conditions":[2.58E0,2.5339332E0,-1.7799707E-2,1.1237044E-3,-0E0,5.105406E0,5.4056807E0,-3.118392E-2,-2.7643212E-3,3E0,5.8384748E0,4.4879677E-8,-4.4297837E-4,5.8734808E-5,4.3029006E-4,-5.331682E-4,-0E0],"split_indices":[7,6,4,0,0,6,11,4,0,1,9,0,0,0,0,0,0],"split_type":[0,0,0,0,0,0,0,0,0,0,0,0,0,0,0,0,0],"sum_hessian":[5.77E2,1E1,5.67E2,9E0,1E0,2.57E2,3.1E2,2.54E2,3E0,2.95E2,1.5E1,2.1E2,4.4E1,2.19E2,7.6E1,1.4E1,1E0],"tree_param":{"num_deleted":"0","num_feature":"12","num_nodes":"17","size_leaf_vector":"1"}},{"base_weights":[-4.7527996E-5,2.2281755E-2,-9.131422E-4,9.5997733E-4,-0E0,1.6958525E-2,-1.8015165E-3,8.276607E-4,-0E0,2.4621265E-2,-0E0,-2.585371E-4,-1.1930997E-2,-0E0,7.892819E-5,-0E0,7.784925E-4,-2.37115E-4,3.3278528E-5,-6.395882E-5,-1.4423449E-3],"categories":[],"categories_nodes":[],"categories_segments":[],"categories_sizes":[],"default_left":[0,0,0,0,0,0,0,0,0,0,0,0,0,0,0,0,0,0,0,0,0],"id":29,"left_children":[1,3,5,-1,7,9,11,13,-1,15,-1,17,19,-1,-1,-1,-1,-1,-1,-1,-1],"loss_changes":[8.900755E-3,7.754648E-4,7.3105586E-3,0E0,5.480178E-6,3.0536782E-3,7.1241567E-3,4.297273E-5,0E0,3.3435225E-4,0E0,5.634573E-3,1.6837344E-2,0E0,0E0,0E0,0E0,0E0,0E0,0E0,0E0],"parents":[2147483647,0,0,1,1,2,2,4,4,5,5,6,6,7,7,9,9,11,11,12,12],"right_children":[2,4,6,-1,8,10,12,14,-1,16,-1,18,20,-1,-1,-1,-1,-1,-1,-1,-1],"split_conditions":[2.62E0,3.42857E1,4.8742867E-1,9.5997733E-4,2.57E0,5.1724125E1,5.1935267E0,2.782821E0,-0E0,4.2222206E1,-0E0,3.3826907E0,3E0,-0E0,7.892819E-5,-0E0,7.784925E-4,-2.37115E-4,3.3278528E-5,-6.395882E-5,-1.4423449E-3],"split_indices":[10,2,0,0,10,2,8,5,0,2,0,5,1,0,0,0,0,0,0,0,0],"split_type":[0,0,0,0,0,0,0,0,0,0,0,0,0,0,0,0,0,0,0,0,0],"sum_hessian":[5.69E2,1.6E1,5.53E2,8E0,8E0,2E1,5.33E2,7E0,1E0,1.4E1,6E0,4.72E2,6.1E1,1E0,6E0,1E0,1.3E1,8.2E1,3.9E2,5.1E1,1E1],"tree_param":{"num_deleted":"0","num_feature":"12","num_nodes":"21","size_leaf_vector":"1"}},{"base_weights":[-8.39823E-5,2.182037E-2,-1.107579E-3,8.449187E-4,-0E0,-0E0,-1.0814142E-2,-5.5399444E-4,1.3905336E-2,-4.287992E-2,-0E0,4.664045E-4,-3.360597E-5,8.3796197E-4,-0E0,-3.3667737E-3,-0E0,3.5086652E-4,-3.0180727E-4],"categories":[],"categories_nodes":[],"categories_segments":[],"categories_sizes":[],"default_left":[0,0,0,0,0,0,0,0,0,0,0,0,0,0,0,0,0,0,0],"id":30,"left_children":[1,3,5,-1,-1,7,9,11,13,15,17,-1,-1,-1,-1,-1,-1,-1,-1],"loss_changes":[1.0665722E-2,3.4858454E-3,6.2287725E-3,0E0,0E0,4.2044665E-3,1.884183E-2,2.8503237E-3,3.7414776E-3,4.9826153E-2,5.468347E-3,0E0,0E0,0E0,0E0,0E0,0E0,0E0,0E0],"parents":[2147483647,0,0,1,1,2,2,5,5,6,6,7,7,8,8,9,9,10,10],"right_children":[2,4,6,-1,-1,8,10,12,14,16,18,-1,-1,-1,-1,-1,-1,-1,-1],"split_conditions":[1.5254233E1,-3.524078E-2,5.3883305E0,8.449187E-4,-0E0,4.9128747E0,5.450054E0,2.63E0,3.8319636E-2,-2.6442267E-2,5.712833E0,4.664045E-4,-3.360597E-5,8.3796197E-4,-0E0,-3.3667737E-3,-0E0,3.5086652E-4,-3.0180727E-4],"split_indices":[2,3,5,0,0,6,5,7,3,3,5,0,0,0,0,0,0,0,0],"split_type":[0,0,0,0,0,0,0,0,0,0,0,0,0,0,0,0,0,0,0],"sum_hessian":[5.66E2,2E1,5.46E2,1.6E1,4E0,4.88E2,5.8E1,4.68E2,2E1,1.3E1,4.5E1,9E0,4.59E2,9E0,1.1E1,5E0,8E0,1.9E1,2.6E1],"tree_param":{"num_deleted":"0","num_feature":"12","num_nodes":"19","size_leaf_vector":"1"}},{"base_weights":[1.7249606E-4,1.3937642E-2,-6.91064E-4,-0E0,3.4412913E-2,2.022618E-2,-1.6766525E-3,2.7739615E-3,-9.5770025E-4,1.3896802E-3,-0E0,2.6990462E-2,-0E0,-3.2283613E-4,-1.0533373E-2,-0E0,2.6751205E-4,-1.0450752E-4,-0E0,8.7723474E-4,-0E0,-9.331105E-5,8.300396E-5,-9.433067E-4,-0E0],"categories":[],"categories_nodes":[],"categories_segments":[],"categories_sizes":[],"default_left":[0,0,0,0,0,0,0,0,0,0,0,0,0,0,0,0,0,0,0,0,0,0,0,0,0],"id":31,"left_children":[1,3,5,7,9,11,13,15,17,-1,-1,19,-1,21,23,-1,-1,-1,-1,-1,-1,-1,-1,-1,-1],"loss_changes":[8.002914E-3,9.993413E-3,8.940404E-3,1.4676224E-4,3.694171E-3,3.1544068E-3,4.954126E-3,8.1566174E-4,8.882815E-5,0E0,0E0,1.0433579E-3,0E0,3.901343E-3,1.4438382E-2,0E0,0E0,0E0,0E0,0E0,0E0,0E0,0E0,0E0,0E0],"parents":[2147483647,0,0,1,1,2,2,3,3,4,4,5,5,6,6,7,7,8,8,11,11,13,13,14,14],"right_children":[2,4,6,8,10,12,14,16,18,-1,-1,20,-1,22,24,-1,-1,-1,-1,-1,-1,-1,-1,-1,-1],"split_conditions":[5.22648E-1,4.489176E0,1.4754095E1,4.327939E0,2.3594951E-2,-3.524078E-2,5.1935267E0,-2.0094289E-2,1E0,1.3896802E-3,-0E0,3E0,-0E0,5.049504E1,1.0358199E-2,-0E0,2.6751205E-4,-1.0450752E-4,-0E0,8.7723474E-4,-0E0,-9.331105E-5,8.300396E-5,-9.433067E-4,-0E0],"split_indices":[0,10,2,8,3,3,7,3,1,0,0,1,0,2,4,0,0,0,0,0,0,0,0,0,0],"split_type":[0,0,0,0,0,0,0,0,0,0,0,0,0,0,0,0,0,0,0,0,0,0,0,0,0],"sum_hessian":[5.6E2,3.9E1,5.21E2,2.5E1,1.4E1,1.8E1,5.03E2,1.7E1,8E0,9E0,5E0,1.4E1,4E0,4.47E2,5.6E1,6E0,1.1E1,7E0,1E0,1.3E1,1E0,2.52E2,1.95E2,2E1,3.6E1],"tree_param":{"num_deleted":"0","num_feature":"12","num_nodes":"25","size_leaf_vector":"1"}},{"base_weights":[5.691915E-4,2.4624476E-2,-5.275557E-5,-0E0,2.667832E-2,-5.0701234E-3,1.4947158E-3,-0E0,2.9745663E-2,-1.8459143E-3,-1.665398E-2,1.212444E-2,-9.4269036E-4,9.414748E-4,-0E0,2.5726185E-4,-1.9645954E-4,-5.730449E-4,-0E0,1.0526715E-3,2.106938E-4,-2.4721219E-4,6.350513E-5],"categories":[],"categories_nodes":[],"categories_segments":[],"categories_sizes":[],"default_left":[0,0,0,0,0,0,0,0,0,0,0,0,0,0,0,0,0,0,0,0,0,0,0],"id":32,"left_children":[1,3,5,-1,7,9,11,-1,13,15,17,19,21,-1,-1,-1,-1,-1,-1,-1,-1,-1,-1],"loss_changes":[1.1330412E-2,1.2902571E-3,4.829553E-3,0E0,1.345682E-3,3.7589336E-3,1.214091E-2,0E0,6.1604474E-4,6.0285768E-3,8.158474E-4,5.7343673E-3,8.198845E-3,0E0,0E0,0E0,0E0,0E0,0E0,0E0,0E0,0E0,0E0],"parents":[2147483647,0,0,1,1,2,2,4,4,5,5,6,6,8,8,9,9,10,10,11,11,12,12],"right_children":[2,4,6,-1,8,10,12,-1,14,16,18,20,22,-1,-1,-1,-1,-1,-1,-1,-1,-1,-1],"split_conditions":[2.65E0,2.5E0,3.7E0,-0E0,-4.4216126E-2,3.282802E0,4.2613482E0,-0E0,6.4705864E1,-7.583322E-2,3.374538E0,3.788636E0,4.4662814E0,9.414748E-4,-0E0,2.5726185E-4,-1.9645954E-4,-5.730449E-4,-0E0,1.0526715E-3,2.106938E-4,-2.4721219E-4,6.350513E-5],"split_indices":[11,7,8,0,4,6,5,0,2,3,6,6,5,0,0,0,0,0,0,0,0,0,0],"split_type":[0,0,0,0,0,0,0,0,0,0,0,0,0,0,0,0,0,0,0,0,0,0,0],"sum_hessian":[5.92E2,1.8E1,5.74E2,1E0,1.7E1,1.5E2,4.24E2,2E0,1.5E1,1.25E2,2.5E1,8.6E1,3.38E2,1.4E1,1E0,3.2E1,9.3E1,2.1E1,4E0,1.1E1,7.5E1,1.09E2,2.29E2],"tree_param":{"num_deleted":"0","num_feature":"12","num_nodes":"23","size_leaf_vector":"1"}},{"base_weights":[-2.971923E-4,1.848102E-2,-9.906032E-4,-0E0,2.187437E-2,5.0840066E-3,-2.8018502E-3,6.85503E-4,-0E0,1.8656727E-4,2.2001877E-2,-1.6158789E-3,-2.2448558E-2,-9.195825E-5,3.1678024E-4,1.0186192E-3,-0E0,-2.427781E-4,2.5923628E-5,-2.3098877E-3,-0E0],"categories":[],"categories_nodes":[],"categories_segments":[],"categories_sizes":[],"default_left":[0,0,0,0,0,0,0,0,0,0,0,0,0,0,0,0,0,0,0,0,0],"id":33,"left_children":[1,3,5,-1,7,9,11,-1,-1,13,15,17,19,-1,-1,-1,-1,-1,-1,-1,-1],"loss_changes":[5.613119E-3,1.0971241E-3,5.8374694E-3,0E0,4.5179855E-5,7.2224345E-3,7.739571E-3,0E0,0E0,3.952453E-3,5.974476E-3,7.4438727E-3,2.5491789E-2,0E0,0E0,0E0,0E0,0E0,0E0,0E0,0E0],"parents":[2147483647,0,0,1,1,2,2,4,4,5,5,6,6,9,9,10,10,11,11,12,12],"right_children":[2,4,6,-1,8,10,12,-1,-1,14,16,18,20,-1,-1,-1,-1,-1,-1,-1,-1],"split_conditions":[2.63E0,2.51E0,7.373194E-1,-0E0,1.4481434E0,4.489176E0,5.1123686E0,6.85503E-4,-0E0,6.572765E-1,2.6761154E-2,1.4637489E0,-1.0881545E-2,-9.195825E-5,3.1678024E-4,1.0186192E-3,-0E0,-2.427781E-4,2.5923628E-5,-2.3098877E-3,-0E0],"split_indices":[10,8,0,0,0,11,6,0,0,0,3,0,3,0,0,0,0,0,0,0,0],"split_type":[0,0,0,0,0,0,0,0,0,0,0,0,0,0,0,0,0,0,0,0,0],"sum_hessian":[5.63E2,1.4E1,5.49E2,2E0,1.2E1,1.13E2,4.36E2,1.1E1,1E0,9.3E1,2E1,4.17E2,1.9E1,6.4E1,2.9E1,1.3E1,7E0,1.26E2,2.91E2,5E0,1.4E1],"tree_param":{"num_deleted":"0","num_feature":"12","num_nodes":"21","size_leaf_vector":"1"}},{"base_weights":[7.6036114E-5,1.8722432E-2,-5.331178E-4,2.939235E-2,-0E0,2.487214E-2,-1.2480702E-3,2.3685629E-3,1.5112803E-3,-9.968174E-5,-0E0,1.1068702E-3,-0E0,-5.3087403E-3,8.1466435E-4,-0E0,9.590442E-5,3.355912E-5,-3.3251042E-4,7.917009E-5,-1.7863832E-4],"categories":[],"categories_nodes":[],"categories_segments":[],"categories_sizes":[],"default_left":[0,0,0,0,0,0,0,0,0,0,0,0,0,0,0,0,0,0,0,0,0],"id":34,"left_children":[1,3,5,7,9,11,13,15,-1,-1,-1,-1,-1,17,19,-1,-1,-1,-1,-1,-1],"loss_changes":[8.212402E-3,7.488207E-3,7.4769505E-3,4.8132697E-3,5.5202494E-5,1.3628872E-3,4.8930575E-3,4.0485233E-5,0E0,0E0,0E0,0E0,0E0,8.246858E-3,3.8335687E-3,0E0,0E0,0E0,0E0,0E0,0E0],"parents":[2147483647,0,0,1,1,2,2,3,3,4,4,5,5,6,6,7,7,13,13,14,14],"right_children":[2,4,6,8,10,12,14,16,-1,-1,-1,-1,-1,18,20,-1,-1,-1,-1,-1,-1],"split_conditions":[4.8742867E-1,2.2221081E-2,1.1538455E1,4.440128E0,6.623375E1,3.6281705E0,4.358973E1,3.61702E1,1.5112803E-3,-9.968174E-5,-0E0,1.1068702E-3,-0E0,4.2196937E0,6.974789E1,-0E0,9.590442E-5,3.355912E-5,-3.3251042E-4,7.917009E-5,-1.7863832E-4],"split_indices":[0,3,2,5,2,6,2,2,0,0,0,0,0,5,2,0,0,0,0,0,0],"split_type":[0,0,0,0,0,0,0,0,0,0,0,0,0,0,0,0,0,0,0,0,0],"sum_hessian":[5.61E2,2.2E1,5.39E2,1.7E1,5E0,1E1,5.29E2,1E1,7E0,4E0,1E0,5E0,5E0,1.94E2,3.35E2,1E0,9E0,8.4E1,1.1E2,2.76E2,5.9E1],"tree_param":{"num_deleted":"0","num_feature":"12","num_nodes":"21","size_leaf_vector":"1"}},{"base_weights":[-0E0,2.8351577E-2,-6.4974325E-4,9.3118905E-4,-0E0,-2.982433E-3,2.5779523E-3,-1.0155077E-3,-3.9782673E-2,1.1375269E-2,-2.104913E-3,-1.7290993E-4,1.13032336E-4,-2.971968E-3,-3.8512E-6,6.217218E-4,6.7014145E-5,-1.6832438E-4,2.7696684E-4],"categories":[],"categories_nodes":[],"categories_segments":[],"categories_sizes":[],"default_left":[0,0,0,0,0,0,0,0,0,0,0,0,0,0,0,0,0,0,0],"id":35,"left_children":[1,3,5,-1,-1,7,9,11,13,15,17,-1,-1,-1,-1,-1,-1,-1,-1],"loss_changes":[8.277065E-3,6.330116E-4,4.3096705E-3,0E0,0E0,2.0996794E-2,1.00142425E-2,7.784281E-3,2.5330229E-2,4.836697E-3,5.1349807E-3,0E0,0E0,0E0,0E0,0E0,0E0,0E0,0E0],"parents":[2147483647,0,0,1,1,2,2,5,5,6,6,7,7,8,8,9,9,10,10],"right_children":[2,4,6,-1,-1,8,10,12,14,16,18,-1,-1,-1,-1,-1,-1,-1,-1],"split_conditions":[1.2820507E1,4.5456967E0,8.001021E-3,9.3118905E-4,-0E0,5.1935267E0,1.3707964E0,1.4389805E0,1.7768766E0,5.3124973E1,3.3388658E0,-1.7290993E-4,1.13032336E-4,-2.971968E-3,-3.8512E-6,6.217218E-4,6.7014145E-5,-1.6832438E-4,2.7696684E-4],"split_indices":[2,6,4,0,0,9,0,0,0,2,0,0,0,0,0,0,0,0,0],"split_type":[0,0,0,0,0,0,0,0,0,0,0,0,0,0,0,0,0,0,0],"sum_hessian":[5.74E2,9E0,5.65E2,8E0,1E0,3.46E2,2.19E2,3.32E2,1.4E1,8.3E1,1.36E2,1.77E2,1.55E2,4E0,1E1,3.5E1,4.8E1,1.11E2,2.5E1],"tree_param":{"num_deleted":"0","num_feature":"12","num_nodes":"19","size_leaf_vector":"1"}},{"base_weights":[-5.568835E-4,2.8087202E-2,-1.5600283E-3,-0E0,9.2329236E-4,-6.6857217E-3,2.381947E-3,-1.8954133E-3,-3.6584556E-2,1.0636813E-2,-2.4491377E-5,-2.3099875E-4,2.5353173E-5,-5.520058E-4,-2.5384324E-3,4.568201E-4,-0E0,1.7076058E-5,-5.260107E-4],"categories":[],"categories_nodes":[],"categories_segments":[],"categories_sizes":[],"default_left":[0,0,0,0,0,0,0,0,0,0,0,0,0,0,0,0,0,0,0],"id":36,"left_children":[1,3,5,-1,-1,7,9,11,13,15,17,-1,-1,-1,-1,-1,-1,-1,-1],"loss_changes":[1.3798309E-2,1.585559E-3,1.1680481E-2,0E0,0E0,3.2318495E-2,7.100399E-3,4.22345E-3,1.6090173E-2,3.0004028E-3,4.0661152E-3,0E0,0E0,0E0,0E0,0E0,0E0,0E0,0E0],"parents":[2147483647,0,0,1,1,2,2,5,5,6,6,7,7,8,8,9,9,10,10],"right_children":[2,4,6,-1,-1,8,10,12,14,16,18,-1,-1,-1,-1,-1,-1,-1,-1],"split_conditions":[2.62E0,2.5E0,-1.9107733E-2,-0E0,9.2329236E-4,-2.7920535E-2,7.413045E-1,1.4389805E0,4.580134E0,1.8160498E-2,5.4056807E0,-2.3099875E-4,2.5353173E-5,-5.520058E-4,-2.5384324E-3,4.568201E-4,-0E0,1.7076058E-5,-5.260107E-4],"split_indices":[11,7,4,0,0,4,0,0,5,3,11,0,0,0,0,0,0,0,0],"split_type":[0,0,0,0,0,0,0,0,0,0,0,0,0,0,0,0,0,0,0],"sum_hessian":[5.7E2,1.5E1,5.55E2,1E0,1.4E1,2.52E2,3.03E2,2.21E2,3.1E1,7.7E1,2.26E2,8.2E1,1.39E2,2.5E1,6E0,5E1,2.7E1,2.14E2,1.2E1],"tree_param":{"num_deleted":"0","num_feature":"12","num_nodes":"19","size_leaf_vector":"1"}},{"base_weights":[-0E0,2.1093963E-2,-4.9367914E-4,-0E0,2.3316957E-2,-7.849361E-3,7.4745045E-4,2.5626142E-2,-0E0,-9.079428E-5,-2.3992943E-2,6.5738126E-3,-1.0434011E-3,8.185114E-4,-0E0,1.9849726E-4,-1.851739E-4,-9.696872E-4,-0E0,7.181266E-5,5.174555E-4,-1.8928609E-4,3.7530164E-5],"categories":[],"categories_nodes":[],"categories_segments":[],"categories_sizes":[],"default_left":[0,0,0,0,0,0,0,0,0,0,0,0,0,0,0,0,0,0,0,0,0,0,0],"id":37,"left_children":[1,3,5,-1,7,9,11,13,-1,15,17,19,21,-1,-1,-1,-1,-1,-1,-1,-1,-1,-1],"loss_changes":[7.2564986E-3,1.0359236E-3,5.8558844E-3,0E0,1.0385802E-3,9.237795E-3,5.474385E-3,4.834272E-4,0E0,2.7702856E-3,3.8386695E-3,3.5274718E-3,4.7185104E-3,0E0,0E0,0E0,0E0,0E0,0E0,0E0,0E0,0E0,0E0],"parents":[2147483647,0,0,1,1,2,2,4,4,5,5,6,6,7,7,9,9,10,10,11,11,12,12],"right_children":[2,4,6,-1,8,10,12,14,-1,16,18,20,22,-1,-1,-1,-1,-1,-1,-1,-1,-1,-1],"split_conditions":[2.65E0,2.5E0,3.3826907E0,-0E0,1.4675252E0,3.0259697E0,4.2724285E0,6.4705864E1,-0E0,-2.8856963E-2,3.3027E0,-1.803537E-2,-1.0489281E-2,8.185114E-4,-0E0,1.9849726E-4,-1.851739E-4,-9.696872E-4,-0E0,7.181266E-5,5.174555E-4,-1.8928609E-4,3.7530164E-5],"split_indices":[11,7,5,0,0,5,5,2,0,4,5,4,4,0,0,0,0,0,0,0,0,0,0],"split_type":[0,0,0,0,0,0,0,0,0,0,0,0,0,0,0,0,0,0,0,0,0,0,0],"sum_hessian":[5.77E2,1.5E1,5.62E2,1E0,1.4E1,9.2E1,4.7E2,1.3E1,1E0,6.7E1,2.5E1,1.23E2,3.47E2,1.2E1,1E0,2.4E1,4.3E1,1.7E1,8E0,9.6E1,2.7E1,1.18E2,2.29E2],"tree_param":{"num_deleted":"0","num_feature":"12","num_nodes":"23","size_leaf_vector":"1"}},{"base_weights":[-9.7181284E-5,-3.3553343E-3,3.1529781E-3,-1.9705105E-3,-2.4101897E-3,-0E0,1.1498421E-2,1.8515778E-3,-8.721173E-3,4.1837604E-3,-1.3240143E-2,1.823596E-2,-5.834683E-4,5.73168E-4,-0E0,-4.120847E-4,3.0290004E-4,-0E0,2.9578566E-4,-1.0758898E-3,-0E0,-0E0,7.692326E-4,-0E0,-3.9180004E-4],"categories":[],"categories_nodes":[],"categories_segments":[],"categories_sizes":[],"default_left":[0,0,0,0,0,0,0,0,0,0,0,0,0,0,0,0,0,0,0,0,0,0,0,0,0],"id":38,"left_children":[1,3,5,7,-1,9,11,13,15,17,19,21,23,-1,-1,-1,-1,-1,-1,-1,-1,-1,-1,-1,-1],"loss_changes":[6.05625E-3,2.3593586E-2,6.3063875E-3,8.36619E-3,0E0,1.0671674E-2,7.311237E-3,5.219854E-3,1.1544067E-2,4.41044E-3,1.1403753E-2,8.68872E-3,1.0165732E-3,0E0,0E0,0E0,0E0,0E0,0E0,0E0,0E0,0E0,0E0,0E0,0E0],"parents":[2147483647,0,0,1,1,2,2,3,3,5,5,6,6,7,7,8,8,9,9,10,10,11,11,12,12],"right_children":[2,4,6,8,-1,10,12,14,16,18,20,22,24,-1,-1,-1,-1,-1,-1,-1,-1,-1,-1,-1,-1],"split_conditions":[-9.500788E-3,5.105406E0,3E0,4.2724285E0,-2.4101897E-3,5.197103E-2,4.7013297E0,2.5322144E0,5.4842863E0,4.540093E0,4.8702664E0,2.8E0,4.837108E0,5.73168E-4,-0E0,-4.120847E-4,3.0290004E-4,-0E0,2.9578566E-4,-1.0758898E-3,-0E0,-0E0,7.692326E-4,-0E0,-3.9180004E-4],"split_indices":[4,6,1,5,0,3,7,6,5,11,5,9,7,0,0,0,0,0,0,0,0,0,0,0,0],"split_type":[0,0,0,0,0,0,0,0,0,0,0,0,0,0,0,0,0,0,0,0,0,0,0,0,0],"sum_hessian":[5.68E2,2.99E2,2.69E2,2.96E2,3E0,2.02E2,6.7E1,1.8E2,1.16E2,1.58E2,4.4E1,4.8E1,1.9E1,1.5E1,1.65E2,9.6E1,2E1,8.5E1,7.3E1,1.4E1,3E1,1.1E1,3.7E1,1.4E1,5E0],"tree_param":{"num_deleted":"0","num_feature":"12","num_nodes":"25","size_leaf_vector":"1"}},{"base_weights":[1.7654807E-4,1.5658494E-2,-2.7350683E-4,2.224835E-2,-0E0,-9.2517695E-4,1.9872215E-2,6.99618E-4,-0E0,-0E0,-1.3426037E-2,2.5087759E-2,-0E0,-1.5207332E-5,3.551892E-4,-0E0,-7.073909E-4,-0E0,8.1209623E-4],"categories":[],"categories_nodes":[],"categories_segments":[],"categories_sizes":[],"default_left":[0,0,0,0,0,0,0,0,0,0,0,0,0,0,0,0,0,0,0],"id":39,"left_children":[1,3,5,7,-1,9,11,-1,-1,13,15,17,-1,-1,-1,-1,-1,-1,-1],"loss_changes":[5.416837E-3,3.515657E-3,5.147356E-3,3.3565424E-4,0E0,6.0407855E-3,9.257025E-4,0E0,0E0,2.9243121E-3,5.186741E-3,1.976639E-4,0E0,0E0,0E0,0E0,0E0,0E0,0E0],"parents":[2147483647,0,0,1,1,2,2,3,3,5,5,6,6,9,9,10,10,11,11],"right_children":[2,4,6,8,-1,10,12,-1,-1,14,16,18,-1,-1,-1,-1,-1,-1,-1],"split_conditions":[1.5254233E1,-3.524078E-2,5.1708474E0,4.5456967E0,-0E0,5.261416E0,3.251273E0,6.99618E-4,-0E0,1.1143776E-1,5.3623177E1,-2.978003E-2,-0E0,-1.5207332E-5,3.551892E-4,-0E0,-7.073909E-4,-0E0,8.1209623E-4],"split_indices":[2,3,6,6,0,11,0,0,0,3,2,3,0,0,0,0,0,0,0],"split_type":[0,0,0,0,0,0,0,0,0,0,0,0,0,0,0,0,0,0,0],"sum_hessian":[5.55E2,2.1E1,5.34E2,1.7E1,4E0,5.23E2,1.1E1,1.6E1,1E0,4.88E2,3.5E1,8E0,3E0,4.69E2,1.9E1,1.5E1,2E1,1E0,7E0],"tree_param":{"num_deleted":"0","num_feature":"12","num_nodes":"19","size_leaf_vector":"1"}},{"base_weights":[1.5729238E-4,2.6041409E-2,-4.0196587E-4,8.2628557E-4,-0E0,-4.988435E-3,4.006435E-3,-3.5855304E-3,-2.350427E-3,5.457799E-3,-1.1544103E-2,-2.9224087E-4,2.4573977E-5,-1.043804E-4,2.1520551E-4,-8.678994E-4,-0E0],"categories":[],"categories_nodes":[],"categories_segments":[],"categories_sizes":[],"default_left":[0,0,0,0,0,0,0,0,0,0,0,0,0,0,0,0,0],"id":40,"left_children":[1,3,5,-1,-1,7,9,11,-1,13,15,-1,-1,-1,-1,-1,-1],"loss_changes":[1.0927009E-2,5.2865315E-4,1.1481262E-2,0E0,0E0,2.1062631E-2,5.683554E-3,8.600682E-3,0E0,4.365785E-3,4.296757E-3,0E0,0E0,0E0,0E0,0E0,0E0],"parents":[2147483647,0,0,1,1,2,2,5,5,6,6,7,7,9,9,10,10],"right_children":[2,4,6,-1,-1,8,10,12,-1,14,16,-1,-1,-1,-1,-1,-1],"split_conditions":[2.62E0,6.4705864E1,-9.500788E-3,8.2628557E-4,-0E0,5.105406E0,5.712833E0,1.5148356E0,-2.350427E-3,2.95E0,3.0552995E0,-2.9224087E-4,2.4573977E-5,-1.043804E-4,2.1520551E-4,-8.678994E-4,-0E0],"split_indices":[11,2,4,0,0,6,5,0,0,11,0,0,0,0,0,0,0],"split_type":[0,0,0,0,0,0,0,0,0,0,0,0,0,0,0,0,0],"sum_hessian":[5.76E2,1.5E1,5.61E2,1.4E1,1E0,2.86E2,2.75E2,2.83E2,3E0,2.58E2,1.7E1,1.27E2,1.56E2,3.2E1,2.26E2,7E0,1E1],"tree_param":{"num_deleted":"0","num_feature":"12","num_nodes":"17","size_leaf_vector":"1"}},{"base_weights":[-5.2745594E-4,2.1884834E-2,-1.2445794E-3,2.6255326E-2,-0E0,5.260075E-3,-3.0739359E-3,-0E0,8.500165E-4,-1.9372933E-4,2.631414E-2,2.942209E-3,-5.1345276E-3,-1.6843599E-4,2.9531345E-4,1.0214872E-3,-0E0,-1.2895016E-6,4.4155738E-4,-2.8765007E-4,-1.7741229E-7],"categories":[],"categories_nodes":[],"categories_segments":[],"categories_sizes":[],"default_left":[0,0,0,0,0,0,0,0,0,0,0,0,0,0,0,0,0,0,0,0,0],"id":41,"left_children":[1,3,5,7,-1,9,11,-1,-1,13,15,17,19,-1,-1,-1,-1,-1,-1,-1,-1],"loss_changes":[6.9155283E-3,1.3564653E-3,6.2826904E-3,4.453268E-4,0E0,1.501821E-2,5.6641446E-3,0E0,0E0,4.148488E-3,2.8654449E-3,4.983666E-3,6.783909E-3,0E0,0E0,0E0,0E0,0E0,0E0,0E0,0E0],"parents":[2147483647,0,0,1,1,2,2,3,3,5,5,6,6,9,9,10,10,11,11,12,12],"right_children":[2,4,6,8,-1,10,12,-1,-1,14,16,18,20,-1,-1,-1,-1,-1,-1,-1,-1],"split_conditions":[2.58E0,3.42857E1,7.181569E-1,5.7396805E-1,-0E0,4.489176E0,-7.4382946E-2,-0E0,8.500165E-4,1E0,2.6761154E-2,-9.045428E-2,7.874909E-3,-1.6843599E-4,2.9531345E-4,1.0214872E-3,-0E0,-1.2895016E-6,4.4155738E-4,-2.8765007E-4,-1.7741229E-7],"split_indices":[7,2,0,0,0,11,3,0,0,1,3,3,4,0,0,0,0,0,0,0,0],"split_type":[0,0,0,0,0,0,0,0,0,0,0,0,0,0,0,0,0,0,0,0,0],"sum_hessian":[5.56E2,1.2E1,5.44E2,1E1,2E0,1.07E2,4.37E2,1E0,9E0,8.2E1,2.5E1,9.9E1,3.38E2,6E1,2.2E1,1.7E1,8E0,7.3E1,2.6E1,1.7E2,1.68E2],"tree_param":{"num_deleted":"0","num_feature":"12","num_nodes":"21","size_leaf_vector":"1"}},{"base_weights":[8.465362E-4,2.5377428E-2,-0E0,8.0446294E-4,-0E0,1.126386E-3,-1.1072376E-2,1.5762144E-4,1.9756362E-2,-3.3022497E-2,-0E0,-9.2590766E-5,8.03846E-5,6.7721197E-4,-0E0,-2.461537E-3,-1.6783134E-4,1.3869113E-4,-6.155922E-4],"categories":[],"categories_nodes":[],"categories_segments":[],"categories_sizes":[],"default_left":[0,0,0,0,0,0,0,0,0,0,0,0,0,0,0,0,0,0,0],"id":42,"left_children":[1,3,5,-1,-1,7,9,11,13,15,17,-1,-1,-1,-1,-1,-1,-1,-1],"loss_changes":[9.897895E-3,4.81789E-4,6.161411E-3,0E0,0E0,7.1739024E-3,1.0840392E-2,3.968034E-3,8.5646985E-4,1.09479055E-2,3.0820423E-3,0E0,0E0,0E0,0E0,0E0,0E0,0E0,0E0],"parents":[2147483647,0,0,1,1,2,2,5,5,6,6,7,7,8,8,9,9,10,10],"right_children":[2,4,6,-1,-1,8,10,12,14,16,18,-1,-1,-1,-1,-1,-1,-1,-1],"split_conditions":[2.62E0,6.4705864E1,5.2529297E0,8.0446294E-4,-0E0,5.202013E0,-1.0221983E-2,4.3421043E1,5.1528834E-2,5.269902E0,1.0396153E-1,-9.2590766E-5,8.03846E-5,6.7721197E-4,-0E0,-2.461537E-3,-1.6783134E-4,1.3869113E-4,-6.155922E-4],"split_indices":[11,2,7,0,0,11,3,2,3,7,3,0,0,0,0,0,0,0,0],"split_type":[0,0,0,0,0,0,0,0,0,0,0,0,0,0,0,0,0,0,0],"sum_hessian":[5.66E2,1.5E1,5.51E2,1.4E1,1E0,5.07E2,4.4E1,4.88E2,1.9E1,1.4E1,3E1,1.96E2,2.92E2,1.6E1,3E0,3E0,1.1E1,2.5E1,5E0],"tree_param":{"num_deleted":"0","num_feature":"12","num_nodes":"19","size_leaf_vector":"1"}},{"base_weights":[-2.8572071E-4,3.5750233E-3,-3.3021052E-3,-5.6462083E-4,1.1094303E-2,-1.1743523E-2,9.2038047E-4,1.9803504E-2,-3.7283492E-3,2.8287584E-2,4.4442583E-3,-3.2973222E-2,-0E0,7.2766445E-3,-2.5761747E-3,6.283825E-4,-0E0,-0E0,-2.6211204E-4,-0E0,9.469304E-4,-0E0,4.5022307E-4,-5.7464244E-4,-2.9498404E-3,4.4949198E-4,-1.021064E-4,-0E0,4.4441398E-4,7.479551E-5,-3.760271E-4],"categories":[],"categories_nodes":[],"categories_segments":[],"categories_sizes":[],"default_left":[0,0,0,0,0,0,0,0,0,0,0,0,0,0,0,0,0,0,0,0,0,0,0,0,0,0,0,0,0,0,0],"id":43,"left_children":[1,3,5,7,9,11,13,15,17,19,21,23,25,27,29,-1,-1,-1,-1,-1,-1,-1,-1,-1,-1,-1,-1,-1,-1,-1,-1],"loss_changes":[6.517633E-3,8.280728E-3,1.2855566E-2,7.616687E-3,7.005684E-3,3.0477613E-2,5.222724E-3,2.5965692E-4,2.8772422E-3,1.1296105E-3,2.876888E-3,2.520172E-2,4.2985086E-3,5.7604252E-3,7.4969223E-3,0E0,0E0,0E0,0E0,0E0,0E0,0E0,0E0,0E0,0E0,0E0,0E0,0E0,0E0,0E0,0E0],"parents":[2147483647,0,0,1,1,2,2,3,3,4,4,5,5,6,6,7,7,8,8,9,9,10,10,11,11,12,12,13,13,14,14],"right_children":[2,4,6,8,10,12,14,16,18,20,22,24,26,28,30,-1,-1,-1,-1,-1,-1,-1,-1,-1,-1,-1,-1,-1,-1,-1,-1],"split_conditions":[4.2724285E0,3.7624779E0,-9.41997E-3,2.62E0,3.788636E0,1.820866E0,1.3707964E0,6.307691E1,-4.970895E-2,3.968661E0,4.0309234E0,5.0403805E0,2.134831E1,4.489176E0,4.68283E0,6.283825E-4,-0E0,-0E0,-2.6211204E-4,-0E0,9.469304E-4,-0E0,4.5022307E-4,-5.7464244E-4,-2.9498404E-3,4.4949198E-4,-1.021064E-4,-0E0,4.4441398E-4,7.479551E-5,-3.760271E-4],"split_indices":[5,5,4,11,6,0,0,2,4,5,8,6,2,11,6,0,0,0,0,0,0,0,0,0,0,0,0,0,0,0,0],"split_type":[0,0,0,0,0,0,0,0,0,0,0,0,0,0,0,0,0,0,0,0,0,0,0,0,0,0,0,0,0,0,0],"sum_hessian":[5.6E2,2.31E2,3.29E2,1.41E2,9E1,1.17E2,2.12E2,1.4E1,1.27E2,2E1,7E1,4.2E1,7.5E1,8.5E1,1.27E2,1.3E1,1E0,6.7E1,6E1,3E0,1.7E1,5.2E1,1.8E1,3.7E1,5E0,1.5E1,6E1,3.9E1,4.6E1,7.8E1,4.9E1],"tree_param":{"num_deleted":"0","num_feature":"12","num_nodes":"31","size_leaf_vector":"1"}},{"base_weights":[-8.83467E-6,1.4628486E-2,-7.93244E-4,-0E0,1.9976169E-2,-4.38104E-3,2.078873E-3,2.0869609E-2,-0E0,-1.1297992E-3,-2.2539701E-2,1.2296685E-2,-1.0405435E-3,6.4928044E-4,-0E0,1.8975548E-4,-9.281101E-5,-9.069475E-4,-0E0,5.4266775E-4,-0E0,1.7622346E-4,-1.17189134E-4],"categories":[],"categories_nodes":[],"categories_segments":[],"categories_sizes":[],"default_left":[0,0,0,0,0,0,0,0,0,0,0,0,0,0,0,0,0,0,0,0,0,0,0],"id":44,"left_children":[1,3,5,-1,7,9,11,13,-1,15,17,19,21,-1,-1,-1,-1,-1,-1,-1,-1,-1,-1],"loss_changes":[5.046322E-3,2.874062E-3,5.783184E-3,0E0,2.57832E-4,1.2662321E-2,1.0190516E-2,1.2316462E-4,0E0,2.9466886E-3,6.489368E-3,6.4798733E-3,4.00729E-3,0E0,0E0,0E0,0E0,0E0,0E0,0E0,0E0,0E0,0E0],"parents":[2147483647,0,0,1,1,2,2,4,4,5,5,6,6,7,7,9,9,10,10,11,11,12,12],"right_children":[2,4,6,-1,8,10,12,14,-1,16,18,20,22,-1,-1,-1,-1,-1,-1,-1,-1,-1,-1],"split_conditions":[1.5254233E1,9.3208975E-1,-1.7799707E-2,-0E0,4.5456967E0,-2.7920535E-2,7.457857E-1,-2.9244965E-2,-0E0,2.8E0,1.7768766E0,5.4098347E1,3.9018004E0,6.4928044E-4,-0E0,1.8975548E-4,-9.281101E-5,-9.069475E-4,-0E0,5.4266775E-4,-0E0,1.7622346E-4,-1.17189134E-4],"split_indices":[2,0,4,0,6,4,0,3,0,9,0,2,6,0,0,0,0,0,0,0,0,0,0],"split_type":[0,0,0,0,0,0,0,0,0,0,0,0,0,0,0,0,0,0,0,0,0,0,0],"sum_hessian":[5.58E2,2.1E1,5.37E2,3E0,1.8E1,2.54E2,2.83E2,1.7E1,1E0,2.21E2,3.3E1,7.3E1,2.1E2,1.6E1,1E0,3.5E1,1.86E2,2.5E1,8E0,5.3E1,2E1,5.1E1,1.59E2],"tree_param":{"num_deleted":"0","num_feature":"12","num_nodes":"23","size_leaf_vector":"1"}},{"base_weights":[-4.6910378E-4,4.6403124E-4,-1.0780661E-3,-6.019375E-3,3.4366362E-4,-0E0,-8.465137E-3,1.749753E-2,-8.678202E-4,-1.9216492E-4,4.0571592E-4,-9.043726E-5,-3.9603282E-4,-7.369728E-5,8.774804E-4,2.5565383E-5,-3.3779274E-4],"categories":[],"categories_nodes":[],"categories_segments":[],"categories_sizes":[],"default_left":[0,0,0,0,0,0,0,0,0,0,0,0,0,0,0,0,0],"id":45,"left_children":[1,-1,3,5,7,9,11,13,15,-1,-1,-1,-1,-1,-1,-1,-1],"loss_changes":[4.1095144E-3,0E0,4.475654E-3,2.3082285E-3,1.0344096E-2,3.5862885E-3,9.9744E-4,1.048953E-2,7.931894E-3,0E0,0E0,0E0,0E0,0E0,0E0,0E0,0E0],"parents":[2147483647,0,0,2,2,3,3,4,4,5,5,6,6,7,7,8,8],"right_children":[2,-1,4,6,8,10,12,14,16,-1,-1,-1,-1,-1,-1,-1,-1],"split_conditions":[2.62E0,4.6403124E-4,3.58E0,-7.583322E-2,3.788636E0,3E0,3.0014153E0,-1.9459245E-1,5.583443E-2,-1.9216492E-4,4.0571592E-4,-9.043726E-5,-3.9603282E-4,-7.369728E-5,8.774804E-4,2.5565383E-5,-3.3779274E-4],"split_indices":[11,0,9,3,6,1,5,3,3,0,0,0,0,0,0,0,0],"split_type":[0,0,0,0,0,0,0,0,0,0,0,0,0,0,0,0,0],"sum_hessian":[5.69E2,1.4E1,5.55E2,1.39E2,4.16E2,3.7E1,1.02E2,3.2E1,3.84E2,2.4E1,1.3E1,5.8E1,4.4E1,9E0,2.3E1,3.22E2,6.2E1],"tree_param":{"num_deleted":"0","num_feature":"12","num_nodes":"17","size_leaf_vector":"1"}},{"base_weights":[-3.2241712E-4,2.44479E-2,-9.846076E-4,-0E0,2.6320178E-2,-6.58785E-3,8.8307913E-4,8.531964E-4,-0E0,-9.117063E-4,-1.034115E-2,2.1365765E-2,-4.7314103E-4,3.4326158E-4,-1.1043981E-4,-0E0,-3.5739216E-4,-0E0,1.0033303E-3,4.7496267E-4,-4.6675304E-5],"categories":[],"categories_nodes":[],"categories_segments":[],"categories_sizes":[],"default_left":[0,0,0,0,0,0,0,0,0,0,0,0,0,0,0,0,0,0,0,0,0],"id":46,"left_children":[1,3,5,-1,7,9,11,-1,-1,13,15,17,19,-1,-1,-1,-1,-1,-1,-1,-1],"loss_changes":[7.0600687E-3,3.5281992E-4,6.457682E-3,0E0,3.5192398E-4,2.1461444E-3,1.3460996E-2,0E0,0E0,1.7637612E-3,2.3008306E-3,9.794128E-3,5.3054187E-3,0E0,0E0,0E0,0E0,0E0,0E0,0E0,0E0],"parents":[2147483647,0,0,1,1,2,2,4,4,5,5,6,6,9,9,10,10,11,11,12,12],"right_children":[2,4,6,-1,8,10,12,-1,-1,14,16,18,20,-1,-1,-1,-1,-1,-1,-1,-1],"split_conditions":[2.58E0,5.7396805E-1,3.6327615E0,-0E0,3.42857E1,2.8E0,3.7925575E0,8.531964E-4,-0E0,2.44854E0,1.625945E1,-1.2346766E-1,4.9424654E-1,3.4326158E-4,-1.1043981E-4,-0E0,-3.5739216E-4,-0E0,1.0033303E-3,4.7496267E-4,-4.6675304E-5],"split_indices":[7,0,6,0,2,7,6,0,0,6,2,3,0,0,0,0,0,0,0,0,0],"split_type":[0,0,0,0,0,0,0,0,0,0,0,0,0,0,0,0,0,0,0,0,0],"sum_hessian":[5.71E2,1E1,5.61E2,1E0,9E0,1.53E2,4.08E2,8E0,1E0,7.2E1,8.1E1,2.9E1,3.79E2,6E0,6.6E1,4E0,7.7E1,9E0,2E1,1.7E1,3.62E2],"tree_param":{"num_deleted":"0","num_feature":"12","num_nodes":"21","size_leaf_vector":"1"}},{"base_weights":[1.358707E-4,2.5450947E-2,-1.7259513E-4,2.742353E-2,-0E0,-7.2886306E-4,1.9526407E-2,8.899749E-4,-0E0,-0E0,-1.08935E-2,7.490561E-4,-0E0,-1.1191075E-5,3.2747505E-4,-1.3477968E-3,-6.4961336E-5],"categories":[],"categories_nodes":[],"categories_segments":[],"categories_sizes":[],"default_left":[0,0,0,0,0,0,0,0,0,0,0,0,0,0,0,0,0],"id":47,"left_children":[1,3,5,7,-1,9,11,-1,-1,13,15,-1,-1,-1,-1,-1,-1],"loss_changes":[7.1316324E-3,3.9524166E-4,4.4791144E-3,4.000524E-4,0E0,5.156468E-3,7.933369E-4,0E0,0E0,3.0484644E-3,8.85758E-3,0E0,0E0,0E0,0E0,0E0,0E0],"parents":[2147483647,0,0,1,1,2,2,3,3,5,5,6,6,9,9,10,10],"right_children":[2,4,6,8,-1,10,12,-1,-1,14,16,-1,-1,-1,-1,-1,-1],"split_conditions":[2.58E0,2.5339332E0,5.1708474E0,3.42857E1,-0E0,5.2529297E0,5.388708E0,8.899749E-4,-0E0,1.21082276E-1,-2.6442267E-2,7.490561E-4,-0E0,-1.1191075E-5,3.2747505E-4,-1.3477968E-3,-6.4961336E-5],"split_indices":[7,6,6,2,0,7,11,0,0,3,3,0,0,0,0,0,0],"split_type":[0,0,0,0,0,0,0,0,0,0,0,0,0,0,0,0,0],"sum_hessian":[5.88E2,1E1,5.78E2,9E0,1E0,5.68E2,1E1,8E0,1E0,5.23E2,4.5E1,7E0,3E0,4.99E2,2.4E1,6E0,3.9E1],"tree_param":{"num_deleted":"0","num_feature":"12","num_nodes":"17","size_leaf_vector":"1"}},{"base_weights":[7.616114E-5,2.0206193E-2,-3.1087137E-4,-0E0,7.1945507E-4,-3.7485403E-3,3.1520864E-3,-2.2689512E-3,-4.552477E-2,7.728913E-3,-0E0,-2.2243365E-4,3.0004629E-5,-2.6075738E-3,-0E0,-0E0,5.618371E-4,1.3677806E-4,-1.5901416E-4],"categories":[],"categories_nodes":[],"categories_segments":[],"categories_sizes":[],"default_left":[0,0,0,0,0,0,0,0,0,0,0,0,0,0,0,0,0,0,0],"id":48,"left_children":[1,3,5,-1,-1,7,9,11,13,15,17,-1,-1,-1,-1,-1,-1,-1,-1],"loss_changes":[6.5846983E-3,1.5191557E-3,6.9046454E-3,0E0,0E0,1.3846263E-2,4.4060987E-3,5.627919E-3,2.1194639E-2,9.3759205E-3,3.792004E-3,0E0,0E0,0E0,0E0,0E0,0E0,0E0,0E0],"parents":[2147483647,0,0,1,1,2,2,5,5,6,6,7,7,8,8,9,9,10,10],"right_children":[2,4,6,-1,-1,8,10,12,14,16,18,-1,-1,-1,-1,-1,-1,-1,-1],"split_conditions":[2.62E0,2.51E0,-9.500788E-3,-0E0,7.1945507E-4,5.0403805E0,1.4265158E0,1.4389805E0,1.7562718E0,4.489176E0,4.752247E0,-2.2243365E-4,3.0004629E-5,-2.6075738E-3,-0E0,-0E0,5.618371E-4,1.3677806E-4,-1.5901416E-4],"split_indices":[11,9,4,0,0,6,0,0,0,11,7,0,0,0,0,0,0,0,0],"split_type":[0,0,0,0,0,0,0,0,0,0,0,0,0,0,0,0,0,0,0],"sum_hessian":[5.88E2,1.5E1,5.73E2,2E0,1.3E1,3.02E2,2.71E2,2.95E2,7E0,1.18E2,1.53E2,1.26E2,1.69E2,4E0,3E0,7.2E1,4.6E1,7.6E1,7.7E1],"tree_param":{"num_deleted":"0","num_feature":"12","num_nodes":"19","size_leaf_vector":"1"}},{"base_weights":[1.9195076E-4,5.688939E-3,-9.406993E-4,9.6661184E-4,2.5527777E-2,-6.4557535E-3,1.8175287E-3,9.355616E-3,-4.445856E-3,2.8352086E-2,-0E0,-2.9081427E-3,-6.4987905E-2,4.733841E-3,-2.7467315E-3,-1.7348955E-4,4.2812942E-4,2.2755744E-4,-2.3821366E-4,9.6539094E-4,-0E0,2.6545362E-4,-1.62933E-4,-0E0,-2.7804126E-3,3.0846306E-5,3.9585785E-4,1.8765483E-4,-1.6676783E-4],"categories":[],"categories_nodes":[],"categories_segments":[],"categories_sizes":[],"default_left":[0,0,0,0,0,0,0,0,0,0,0,0,0,0,0,0,0,0,0,0,0,0,0,0,0,0,0,0,0],"id":49,"left_children":[1,3,5,7,9,11,13,15,17,19,-1,21,23,25,27,-1,-1,-1,-1,-1,-1,-1,-1,-1,-1,-1,-1,-1,-1],"loss_changes":[4.116255E-3,8.099714E-3,7.625092E-3,4.9822805E-3,1.9352809E-3,2.8114134E-2,4.2315777E-3,4.354269E-3,2.324077E-3,8.3216745E-4,0E0,4.511467E-3,1.7750539E-2,4.7723553E-3,2.6232328E-3,0E0,0E0,0E0,0E0,0E0,0E0,0E0,0E0,0E0,0E0,0E0,0E0,0E0,0E0],"parents":[2147483647,0,0,1,1,2,2,3,3,4,4,5,5,6,6,7,7,8,8,9,9,11,11,12,12,13,13,14,14],"right_children":[2,4,6,8,10,12,14,16,18,20,-1,22,24,26,28,-1,-1,-1,-1,-1,-1,-1,-1,-1,-1,-1,-1,-1,-1],"split_conditions":[-7.4382946E-2,4.125555E0,-1.8618722E-2,4.2168818E0,4.6268646E1,5.0403805E0,4.0928524E-2,2.6255333E0,1.4062497E1,-4.4216126E-2,-0E0,2.6310573E0,-6.5665945E-2,4.489176E0,3.8997588E0,-1.7348955E-4,4.2812942E-4,2.2755744E-4,-2.3821366E-4,9.6539094E-4,-0E0,2.6545362E-4,-1.62933E-4,-0E0,-2.7804126E-3,3.0846306E-5,3.9585785E-4,1.8765483E-4,-1.6676783E-4],"split_indices":[3,6,4,5,2,6,4,6,2,4,0,6,3,11,6,0,0,0,0,0,0,0,0,0,0,0,0,0,0],"split_type":[0,0,0,0,0,0,0,0,0,0,0,0,0,0,0,0,0,0,0,0,0,0,0,0,0,0,0,0,0],"sum_hessian":[5.83E2,1.14E2,4.69E2,9.7E1,1.7E1,1.68E2,3.01E2,4.5E1,5.2E1,1.6E1,1E0,1.61E2,7E0,1.97E2,1.04E2,6E0,3.9E1,5E0,4.7E1,1.3E1,3E0,2.1E1,1.4E2,2E0,5E0,1.46E2,5.1E1,1.6E1,8.8E1],"tree_param":{"num_deleted":"0","num_feature":"12","num_nodes":"29","size_leaf_vector":"1"}},{"base_weights":[2.2408488E-4,1.83519E-2,-1.224891E-4,7.643704E-4,-0E0,4.4886516E-3,-1.5991195E-3,-0E0,6.475859E-5,1.3670654E-4,1.5869047E-2,-3.506375E-4,-2.0361641E-2,-7.005466E-5,3.256411E-4,8.175645E-4,-0E0,-1.78504E-4,5.042108E-5,-1.4913128E-3,-0E0],"categories":[],"categories_nodes":[],"categories_segments":[],"categories_sizes":[],"default_left":[0,0,0,0,0,0,0,0,0,0,0,0,0,0,0,0,0,0,0,0,0],"id":50,"left_children":[1,3,5,-1,7,9,11,-1,-1,13,15,17,19,-1,-1,-1,-1,-1,-1,-1,-1],"loss_changes":[5.3685918E-3,4.5394525E-4,3.4563388E-3,0E0,2.3298195E-5,4.1918973E-3,8.064514E-3,0E0,0E0,3.3146958E-3,3.1073424E-3,5.123229E-3,1.3119017E-2,0E0,0E0,0E0,0E0,0E0,0E0,0E0,0E0],"parents":[2147483647,0,0,1,1,2,2,4,4,5,5,6,6,9,9,10,10,11,11,12,12],"right_children":[2,4,6,-1,8,10,12,-1,-1,14,16,18,20,-1,-1,-1,-1,-1,-1,-1,-1],"split_conditions":[2.62E0,3.42857E1,7.413045E-1,7.643704E-4,-3.52344E-2,4.489176E0,5.1123686E0,-0E0,6.475859E-5,1E0,5.316423E-1,1.466397E0,1.0358199E-2,-7.005466E-5,3.256411E-4,8.175645E-4,-0E0,-1.78504E-4,5.042108E-5,-1.4913128E-3,-0E0],"split_indices":[11,2,0,0,4,11,6,0,0,1,0,0,4,0,0,0,0,0,0,0,0],"split_type":[0,0,0,0,0,0,0,0,0,0,0,0,0,0,0,0,0,0,0,0,0],"sum_hessian":[5.63E2,1.5E1,5.48E2,8E0,7E0,1.16E2,4.32E2,3E0,4E0,9.1E1,2.5E1,4.11E2,2.1E1,6.7E1,2.4E1,1.2E1,1.3E1,1.22E2,2.89E2,8E0,1.3E1],"tree_param":{"num_deleted":"0","num_feature":"12","num_nodes":"21","size_leaf_vector":"1"}},{"base_weights":[3.875024E-4,1.29469745E-2,-3.787815E-4,3.422124E-5,9.919236E-4,5.737995E-4,-1.1985791E-3,6.0460535E-3,-1.9928652E-3,-3.918138E-4,-1.2390582E-2,-0E0,3.495086E-4,-1.1070414E-4,-0E0,-9.210618E-5,4.2435302E-5,-1.4600299E-3,5.4682664E-6],"categories":[],"categories_nodes":[],"categories_segments":[],"categories_sizes":[],"default_left":[0,0,0,0,0,0,0,0,0,0,0,0,0,0,0,0,0,0,0],"id":51,"left_children":[1,3,5,7,-1,-1,9,11,13,15,17,-1,-1,-1,-1,-1,-1,-1,-1],"loss_changes":[6.862962E-3,7.33951E-3,6.8969727E-3,7.707765E-4,0E0,0E0,3.466328E-3,1.169113E-3,8.283896E-5,2.5889345E-3,1.7172286E-2,0E0,0E0,0E0,0E0,0E0,0E0,0E0,0E0],"parents":[2147483647,0,0,1,1,2,2,3,3,6,6,7,7,8,8,9,9,10,10],"right_children":[2,4,6,8,-1,-1,10,12,14,16,18,-1,-1,-1,-1,-1,-1,-1,-1],"split_conditions":[5.3438693E-1,4.387944E0,2.62E0,4.327939E0,9.919236E-4,5.737995E-4,5.1123686E0,-2.264179E-2,4.6924887E0,1.5148356E0,1.0358199E-2,-0E0,3.495086E-4,-1.1070414E-4,-0E0,-9.210618E-5,4.2435302E-5,-1.4600299E-3,5.4682664E-6],"split_indices":[0,6,11,8,0,0,6,4,5,0,4,0,0,0,0,0,0,0,0],"split_type":[0,0,0,0,0,0,0,0,0,0,0,0,0,0,0,0,0,0,0],"sum_hessian":[5.81E2,4E1,5.41E2,2.8E1,1.2E1,1.6E1,5.25E2,1.9E1,9E0,4.99E2,2.6E1,6E0,1.3E1,8E0,1E0,2.23E2,2.76E2,8E0,1.8E1],"tree_param":{"num_deleted":"0","num_feature":"12","num_nodes":"19","size_leaf_vector":"1"}}]},"name":"gbtree"},"learner_model_param":{"base_score":"[-3.1168566E-3]","boost_from_average":"1","num_class":"0","num_feature":"12","num_target":"1"},"objective":{"name":"reg:squarederror","reg_loss_param":{"scale_pos_weight":"1"}}},"version":[3,2,0]}