{"learner":{"attributes":{"best_iteration":"2","best_score":"0.05054524448521153","scikit_learn":"{\"_estimator_type\": \"regressor\"}"},"feature_names":["Fourier_Dominant","HMM_State","RSI","MACD","MACD_Signal","BB_Upper","BB_Lower","Close_Lag_1","Close_Lag_2","Close_Lag_3","Close_Lag_4","Close_Lag_5"],"feature_types":["float","int","float","float","float","float","float","float","float","float","float","float"],"gradient_booster":{"model":{"cats":{"enc":[],"feature_segments":[],"sorted_idx":[]},"gbtree_model_param":{"num_parallel_tree":"1","num_trees":"53"},"iteration_indptr":[0,1,2,3,4,5,6,7,8,9,10,11,12,13,14,15,16,17,18,19,20,21,22,23,24,25,26,27,28,29,30,31,32,33,34,35,36,37,38,39,40,41,42,43,44,45,46,47,48,49,50,51,52,53],"tree_info":[0,0,0,0,0,0,0,0,0,0,0,0,0,0,0,0,0,0,0,0,0,0,0,0,0,0,0,0,0,0,0,0,0,0,0,0,0,0,0,0,0,0,0,0,0,0,0,0,0,0,0,0,0],"trees":[{"base_weights":[5.791222E-4,7.737273E-2,-8.977659E-3,4.197829E-2,4.3728676E-2,2.134782E-2,-1.2499159E-2,2.1877943E-3,2.9920357E-1,7.054303E-2,-2.442996E-3,-8.191522E-3,-3.9923847E-2,4.7861828E-4,-1.8277783E-4,-1.5902173E-4,2.9705195E-2,4.474953E-3,-0E0,-9.2221645E-4,1.1175141E-4,-1.8127366E-4,-1.1307972E-3,-5.4268512E-5,-1.523134E-3],"categories":[],"categories_nodes":[],"categories_segments":[],"categories_sizes":[],"default_left":[0,0,0,0,0,0,0,0,0,0,0,0,0,0,0,0,0,0,0,0,0,0,0,0,0],"id":0,"left_children":[1,3,5,7,-1,9,11,13,15,17,19,21,23,-1,-1,-1,-1,-1,-1,-1,-1,-1,-1,-1,-1],"loss_changes":[8.214289E-1,5.846644E0,1.0467807E-1,1.217891E0,0E0,1.2402174E-1,9.96477E-2,1.3280165E-2,3.4701872E0,1.8680876E-1,1.4510275E-2,4.4280972E-2,4.302299E-2,0E0,0E0,0E0,0E0,0E0,0E0,0E0,0E0,0E0,0E0,0E0,0E0],"parents":[2147483647,0,0,1,1,2,2,3,3,5,5,6,6,7,7,8,8,9,9,10,10,11,11,12,12],"right_children":[2,4,6,8,-1,10,12,14,16,18,20,22,24,-1,-1,-1,-1,-1,-1,-1,-1,-1,-1,-1,-1],"split_conditions":[2.6E-1,4.865253E-3,2.9E-1,6.2499947E1,4.3728676E-2,-5.499788E-3,6.666651E1,8.544004E-2,1.2095001E-3,3.0186963E-1,2.7E-1,7.7E-1,2.1394815E-3,4.7861828E-4,-1.8277783E-4,-1.5902173E-4,2.9705195E-2,4.474953E-3,-0E0,-9.2221645E-4,1.1175141E-4,-1.8127366E-4,-1.1307972E-3,-5.4268512E-5,-1.523134E-3],"split_indices":[10,3,9,2,0,4,2,0,4,0,10,7,3,0,0,0,0,0,0,0,0,0,0,0,0],"split_type":[0,0,0,0,0,0,0,0,0,0,0,0,0,0,0,0,0,0,0,0,0,0,0,0,0],"sum_hessian":[1.108E3,1.23E2,9.85E2,1.21E2,2E0,9.9E1,8.86E2,1.06E2,1.5E1,3.3E1,6.6E1,7.7E2,1.16E2,4.4E1,6.2E1,1.1E1,4E0,1.5E1,1.8E1,1.4E1,5.2E1,7.22E2,4.8E1,2.8E1,8.8E1],"tree_param":{"num_deleted":"0","num_feature":"12","num_nodes":"25","size_leaf_vector":"1"}},{"base_weights":[-7.1340357E-4,8.635782E-2,-1.0342784E-2,4.586654E-2,4.4862647E-2,-8.122951E-3,-4.3836094E-2,6.8045272E-3,3.033013E-1,8.047779E-3,-1.2742454E-2,3.431957E-2,-5.338333E-2,7.6941703E-4,-0E0,2.3195738E-2,-9.7643037E-4,1.4714145E-3,-1.4837843E-4,-4.4519402E-4,2.0935966E-4,-0E0,1.4105017E-3,-9.2998263E-4,-2.1086778E-3],"categories":[],"categories_nodes":[],"categories_segments":[],"categories_sizes":[],"default_left":[0,0,0,0,0,0,0,0,0,0,0,0,0,0,0,0,0,0,0,0,0,0,0,0,0],"id":1,"left_children":[1,3,5,7,-1,9,11,13,15,17,19,21,23,-1,-1,-1,-1,-1,-1,-1,-1,-1,-1,-1,-1],"loss_changes":[9.357005E-1,6.110363E0,6.983851E-2,1.063021E0,0E0,7.1911216E-2,4.850869E-2,1.4630683E-2,2.3085985E0,1.1546151E-1,3.1828456E-2,1.7752917E-3,8.505359E-3,0E0,0E0,0E0,0E0,0E0,0E0,0E0,0E0,0E0,0E0,0E0,0E0],"parents":[2147483647,0,0,1,1,2,2,3,3,5,5,6,6,7,7,8,8,9,9,10,10,11,11,12,12],"right_children":[2,4,6,8,-1,10,12,14,16,18,20,22,24,-1,-1,-1,-1,-1,-1,-1,-1,-1,-1,-1,-1],"split_conditions":[2.5E-1,4.865253E-3,7.9E-1,2.4E-1,4.4862647E-2,-9.307062E-3,-4.184873E-2,2.3123904E-1,8.760572E-2,3.5E-1,6.206763E-1,1.0308924E0,8.469508E-1,7.6941703E-4,-0E0,2.3195738E-2,-9.7643037E-4,1.4714145E-3,-1.4837843E-4,-4.4519402E-4,2.0935966E-4,-0E0,1.4105017E-3,-9.2998263E-4,-2.1086778E-3],"split_indices":[11,3,8,7,0,3,3,5,0,7,0,5,5,0,0,0,0,0,0,0,0,0,0,0,0],"split_type":[0,0,0,0,0,0,0,0,0,0,0,0,0,0,0,0,0,0,0,0,0,0,0,0,0],"sum_hessian":[1.123E3,1.1E2,1.013E3,1.08E2,2E0,9.54E2,5.9E1,9.5E1,1.3E1,2.07E2,7.47E2,5E0,5.4E1,2.8E1,6.7E1,5E0,8E0,5.1E1,1.56E2,6.8E2,6.7E1,2E0,3E0,2.7E1,2.7E1],"tree_param":{"num_deleted":"0","num_feature":"12","num_nodes":"25","size_leaf_vector":"1"}},{"base_weights":[-1.6980337E-3,6.995121E-2,-8.888834E-3,3.9226986E-3,7.4069875E-1,2.3200989E-2,-1.0825389E-2,2.4869764E-2,-5.192044E-3,5.0151825E-2,-0E0,4.914905E-3,-0E0,-8.5391635E-3,-4.3881346E-2,-0E0,1.5432846E-3,-4.0237943E-4,1.7541738E-3,-3.7665412E-4,1.9347364E-3,2.857246E-4,-3.6151073E-4,-0E0,-1.4830538E-3],"categories":[],"categories_nodes":[],"categories_segments":[],"categories_sizes":[],"default_left":[0,0,0,0,0,0,0,0,0,0,0,0,0,0,0,0,0,0,0,0,0,0,0,0,0],"id":2,"left_children":[1,3,5,7,9,11,13,15,17,-1,-1,-1,19,21,23,-1,-1,-1,-1,-1,-1,-1,-1,-1,-1],"loss_changes":[5.772241E-1,4.440055E0,6.3021615E-2,2.0044046E-2,6.2409797E0,1.8457861E-1,6.806728E-2,2.519602E-2,2.9250009E-2,0E0,0E0,0E0,3.9893456E-2,5.8463596E-2,1.8876411E-2,0E0,0E0,0E0,0E0,0E0,0E0,0E0,0E0,0E0,0E0],"parents":[2147483647,0,0,1,1,2,2,3,3,4,4,5,5,6,6,7,7,8,8,12,12,13,13,14,14],"right_children":[2,4,6,8,10,12,14,16,18,-1,-1,-1,20,22,24,-1,-1,-1,-1,-1,-1,-1,-1,-1,-1],"split_conditions":[2.4E-1,2.5016603E-1,1E0,2.3123904E-1,1.0823079E-1,3.4847638E-1,7.9E-1,-2.9169992E-3,2.200836E-1,5.0151825E-2,-0E0,4.914905E-3,6.5E-1,-1.1684107E-2,-3.2704197E-2,-0E0,1.5432846E-3,-4.0237943E-4,1.7541738E-3,-3.7665412E-4,1.9347364E-3,2.857246E-4,-3.6151073E-4,-0E0,-1.4830538E-3],"split_indices":[11,5,1,5,0,5,9,4,6,0,0,0,10,4,4,0,0,0,0,0,0,0,0,0,0],"split_type":[0,0,0,0,0,0,0,0,0,0,0,0,0,0,0,0,0,0,0,0,0,0,0,0,0],"sum_hessian":[1.13E3,1.01E2,1.029E3,9.3E1,8E0,5.5E1,9.74E2,3.1E1,6.2E1,3E0,5E0,7E0,4.8E1,9.15E2,5.9E1,1.5E1,1.6E1,5.7E1,5E0,4.1E1,7E0,1.44E2,7.71E2,5E0,5.4E1],"tree_param":{"num_deleted":"0","num_feature":"12","num_nodes":"25","size_leaf_vector":"1"}},{"base_weights":[2.038311E-3,9.688974E-2,-8.590944E-3,4.1217845E-2,4.819441E-2,-6.423893E-3,-4.4559665E-2,1.6307355E-3,2.904391E-1,1.5153609E-2,-9.255606E-3,1.139062E-3,-5.5571876E-2,7.9562806E-4,-5.946611E-5,-1.0709907E-3,3.6637373E-2,-1.0496052E-4,1.8204452E-3,-1.9584254E-4,-8.0911675E-4,-2.7232955E-4,-1.854925E-3],"categories":[],"categories_nodes":[],"categories_segments":[],"categories_sizes":[],"default_left":[0,0,0,0,0,0,0,0,0,0,0,0,0,0,0,0,0,0,0,0,0,0,0],"id":3,"left_children":[1,3,5,7,-1,9,11,13,15,17,19,-1,21,-1,-1,-1,-1,-1,-1,-1,-1,-1,-1],"loss_changes":[1.1499364E0,9.433818E0,7.388654E-2,1.0753057E0,0E0,5.8390997E-2,5.3855427E-2,1.1319268E-2,4.715735E0,9.7644165E-2,3.7834197E-2,0E0,6.898135E-3,0E0,0E0,0E0,0E0,0E0,0E0,0E0,0E0,0E0,0E0],"parents":[2147483647,0,0,1,1,2,2,3,3,5,5,6,6,7,7,8,8,9,9,10,10,12,12],"right_children":[2,4,6,8,-1,10,12,14,16,18,20,-1,22,-1,-1,-1,-1,-1,-1,-1,-1,-1,-1],"split_conditions":[2.5E-1,4.7229216E-3,7.9E-1,6.2499947E1,4.819441E-2,2.9E-1,-4.498514E-2,2.0626031E-1,2.1677205E-1,2.3766191E-1,6.428565E1,1.139062E-3,7.9E-1,7.9562806E-4,-5.946611E-5,-1.0709907E-3,3.6637373E-2,-1.0496052E-4,1.8204452E-3,-1.9584254E-4,-8.0911675E-4,-2.7232955E-4,-1.854925E-3],"split_indices":[11,3,9,2,0,9,3,6,6,0,2,0,7,0,0,0,0,0,0,0,0,0,0],"split_type":[0,0,0,0,0,0,0,0,0,0,0,0,0,0,0,0,0,0,0,0,0,0,0],"sum_hessian":[1.13E3,1.14E2,1.016E3,1.11E2,3E0,9.62E2,5.4E1,9.7E1,1.4E1,1.07E2,8.55E2,5E0,4.9E1,1.5E1,8.2E1,1.1E1,3E0,7.5E1,3.2E1,7.47E2,1.08E2,8E0,4.1E1],"tree_param":{"num_deleted":"0","num_feature":"12","num_nodes":"23","size_leaf_vector":"1"}},{"base_weights":[4.9468473E-4,1.0195904E-1,-1.0407569E-2,2.4172202E-2,1.2065731E0,-8.473789E-3,-4.411243E-2,-2.422561E-3,9.464945E-2,-0E0,5.1131736E-2,1.1676109E-2,-1.1095245E-2,3.711336E-2,-5.394257E-2,7.030927E-4,-5.971209E-4,2.4428947E-2,2.2437696E-4,1.491657E-3,-1.2938268E-4,-7.091251E-4,-1.4876397E-4,1.3241153E-3,-0E0,-1.7468848E-3,-0E0],"categories":[],"categories_nodes":[],"categories_segments":[],"categories_sizes":[],"default_left":[0,0,0,0,0,0,0,0,0,0,0,0,0,0,0,0,0,0,0,0,0,0,0,0,0,0,0],"id":4,"left_children":[1,3,5,7,9,11,13,15,17,-1,-1,19,21,23,25,-1,-1,-1,-1,-1,-1,-1,-1,-1,-1,-1,-1],"loss_changes":[1.230344E0,9.127599E0,5.9284627E-2,2.006332E-1,4.334017E0,5.004113E-2,4.4406414E-2,3.3565167E-2,1.7309585E0,0E0,0E0,6.862779E-2,6.1827593E-2,9.053545E-4,9.038344E-3,0E0,0E0,0E0,0E0,0E0,0E0,0E0,0E0,0E0,0E0,0E0,0E0],"parents":[2147483647,0,0,1,1,2,2,3,3,4,4,5,5,6,6,7,7,8,8,11,11,12,12,13,13,14,14],"right_children":[2,4,6,8,10,12,14,16,18,-1,-1,20,22,24,26,-1,-1,-1,-1,-1,-1,-1,-1,-1,-1,-1,-1],"split_conditions":[2.5E-1,4.0040207E-3,8E-1,1.289083E-3,2E0,2.9E-1,-4.498514E-2,2.3123904E-1,1.3267999E-3,-0E0,5.1131736E-2,-6.6415602E-3,5.172998E-1,-4.2776827E-2,1.7247643E-1,7.030927E-4,-5.971209E-4,2.4428947E-2,2.2437696E-4,1.491657E-3,-1.2938268E-4,-7.091251E-4,-1.4876397E-4,1.3241153E-3,-0E0,-1.7468848E-3,-0E0],"split_indices":[11,3,8,4,1,9,3,5,4,0,0,4,5,4,3,0,0,0,0,0,0,0,0,0,0,0,0],"split_type":[0,0,0,0,0,0,0,0,0,0,0,0,0,0,0,0,0,0,0,0,0,0,0,0,0,0,0],"sum_hessian":[1.102E3,1.07E2,9.95E2,1.01E2,6E0,9.45E2,5E1,7.3E1,2.8E1,2E0,4E0,1.04E2,8.41E2,4E0,4.6E1,2.7E1,4.6E1,2E0,2.6E1,3.2E1,7.2E1,2.7E2,5.71E2,3E0,1E0,4.2E1,4E0],"tree_param":{"num_deleted":"0","num_feature":"12","num_nodes":"27","size_leaf_vector":"1"}},{"base_weights":[-2.2062087E-3,6.286972E-2,-8.6757345E-3,-0E0,4.6875246E-2,1.2994899E-2,-1.1714782E-2,1.1298475E-2,-2.8342707E-2,7.5010724E-2,-7.856764E-3,-8.761112E-3,-3.1938765E-2,7.0603413E-4,-0E0,-0E0,-1.0371861E-3,4.4671698E-3,1.1126375E-4,-7.1710424E-4,1.1397923E-5,-2.1049008E-4,-1.0987E-3,-2.2016055E-4,-1.288107E-3],"categories":[],"categories_nodes":[],"categories_segments":[],"categories_sizes":[],"default_left":[0,0,0,0,0,0,0,0,0,0,0,0,0,0,0,0,0,0,0,0,0,0,0,0,0],"id":5,"left_children":[1,3,5,7,-1,9,11,13,15,17,19,21,23,-1,-1,-1,-1,-1,-1,-1,-1,-1,-1,-1,-1],"loss_changes":[4.666577E-1,9.370468E0,6.72653E-2,3.0752888E-2,0E0,1.6506699E-1,4.9411654E-2,1.1429695E-2,2.2163242E-3,1.5278955E-1,1.4389075E-2,3.3832207E-2,2.4418414E-2,0E0,0E0,0E0,0E0,0E0,0E0,0E0,0E0,0E0,0E0,0E0,0E0],"parents":[2147483647,0,0,1,1,2,2,3,3,5,5,6,6,7,7,8,8,9,9,10,10,11,11,12,12],"right_children":[2,4,6,8,-1,10,12,14,16,18,20,22,24,-1,-1,-1,-1,-1,-1,-1,-1,-1,-1,-1,-1],"split_conditions":[2.4E-1,2.5E-1,2.9E-1,4.9999912E1,4.6875246E-2,-6.6415602E-3,6.666636E1,8.544004E-2,2.3E-1,3.0548078E-1,2.7E-1,7.229299E-1,3.8803415E-3,7.0603413E-4,-0E0,-0E0,-1.0371861E-3,4.4671698E-3,1.1126375E-4,-7.1710424E-4,1.1397923E-5,-2.1049008E-4,-1.0987E-3,-2.2016055E-4,-1.288107E-3],"split_indices":[11,7,10,2,0,4,2,0,7,0,10,6,3,0,0,0,0,0,0,0,0,0,0,0,0],"split_type":[0,0,0,0,0,0,0,0,0,0,0,0,0,0,0,0,0,0,0,0,0,0,0,0,0],"sum_hessian":[1.119E3,9.9E1,1.02E3,9.6E1,3E0,1.21E2,8.99E2,7E1,2.6E1,3.1E1,9E1,7.9E2,1.09E2,3.6E1,3.4E1,7E0,1.9E1,1.4E1,1.7E1,3.4E1,5.6E1,7.48E2,4.2E1,3.7E1,7.2E1],"tree_param":{"num_deleted":"0","num_feature":"12","num_nodes":"25","size_leaf_vector":"1"}},{"base_weights":[3.3175612E-3,9.556672E-2,-6.721225E-3,4.0394936E-2,4.526182E-2,1.6067803E-2,-9.434761E-3,-0E0,3.3114752E-1,-1.008991E-2,3.699783E-2,-7.1609146E-3,-3.7618622E-2,1.8556391E-4,-7.7865715E-4,-4.387066E-4,4.5657765E-2,-6.4277154E-4,-0E0,1.68686E-3,-2.3816593E-4,-1.5673731E-4,-1.0942367E-3,-4.434756E-4,-1.4886534E-3],"categories":[],"categories_nodes":[],"categories_segments":[],"categories_sizes":[],"default_left":[0,0,0,0,0,0,0,0,0,0,0,0,0,0,0,0,0,0,0,0,0,0,0,0,0],"id":6,"left_children":[1,3,5,7,-1,9,11,13,15,17,19,21,23,-1,-1,-1,-1,-1,-1,-1,-1,-1,-1,-1,-1],"loss_changes":[1.0282035E0,8.282502E0,6.0832404E-2,1.2525971E0,0E0,5.890722E-2,5.2353077E-2,1.5707571E-2,5.525562E0,5.619874E-3,5.626142E-2,4.269447E-2,1.0094672E-2,0E0,0E0,0E0,0E0,0E0,0E0,0E0,0E0,0E0,0E0,0E0,0E0],"parents":[2147483647,0,0,1,1,2,2,3,3,5,5,6,6,7,7,8,8,9,9,10,10,11,11,12,12],"right_children":[2,4,6,8,-1,10,12,14,16,18,20,22,24,-1,-1,-1,-1,-1,-1,-1,-1,-1,-1,-1,-1],"split_conditions":[2.5E-1,4.865253E-3,2.9E-1,6.2499947E1,4.526182E-2,2.9324082E-1,7.142843E1,2.4840319E-1,2.476539E-1,2.5203514E-1,-2.0124554E-3,7.229299E-1,8.85211E-3,1.8556391E-4,-7.7865715E-4,-4.387066E-4,4.5657765E-2,-6.4277154E-4,-0E0,1.68686E-3,-2.3816593E-4,-1.5673731E-4,-1.0942367E-3,-4.434756E-4,-1.4886534E-3],"split_indices":[11,3,9,2,0,5,2,5,5,6,3,6,3,0,0,0,0,0,0,0,0,0,0,0,0],"split_type":[0,0,0,0,0,0,0,0,0,0,0,0,0,0,0,0,0,0,0,0,0,0,0,0,0],"sum_hessian":[1.099E3,1.08E2,9.91E2,1.05E2,3E0,1.01E2,8.9E2,9.3E1,1.2E1,4.3E1,5.8E1,8.28E2,6.2E1,7.5E1,1.8E1,1E1,2E0,2.1E1,2.2E1,4.2E1,1.6E1,7.81E2,4.7E1,2.5E1,3.7E1],"tree_param":{"num_deleted":"0","num_feature":"12","num_nodes":"25","size_leaf_vector":"1"}},{"base_weights":[1.1405739E-3,8.5765086E-2,-6.8414323E-3,4.5715168E-2,3.8762722E-2,1.8732732E-2,-8.372235E-3,1.3647393E-3,3.1766674E-1,1.1761457E-1,1.8388664E-3,-6.780401E-3,-3.8472764E-2,4.1176597E-4,-6.724702E-4,4.474461E-2,-6.6761894E-4,4.6112123E-3,8.13552E-4,-2.6940054E-4,1.8248877E-3,1.9444179E-4,-2.7840707E-4,-0E0,-1.2989516E-3],"categories":[],"categories_nodes":[],"categories_segments":[],"categories_sizes":[],"default_left":[0,0,0,0,0,0,0,0,0,0,0,0,0,0,0,0,0,0,0,0,0,0,0,0,0],"id":7,"left_children":[1,3,5,7,-1,9,11,13,15,17,19,21,23,-1,-1,-1,-1,-1,-1,-1,-1,-1,-1,-1,-1],"loss_changes":[7.596055E-1,4.493536E0,3.8896184E-2,1.1134744E0,0E0,7.804518E-2,4.1356027E-2,2.3836069E-2,5.367191E0,6.128028E-4,3.636547E-2,3.0806988E-2,1.21326E-2,0E0,0E0,0E0,0E0,0E0,0E0,0E0,0E0,0E0,0E0,0E0,0E0],"parents":[2147483647,0,0,1,1,2,2,3,3,5,5,6,6,7,7,8,8,9,9,10,10,11,11,12,12],"right_children":[2,4,6,8,-1,10,12,14,16,18,20,22,24,-1,-1,-1,-1,-1,-1,-1,-1,-1,-1,-1,-1],"split_conditions":[2.4E-1,4.865253E-3,1E0,2.4840319E-1,3.8762722E-2,3.6841682E-1,7.9E-1,4.9999912E1,8.760572E-2,3.0548078E-1,6.5E-1,-1.273281E-2,-4.184873E-2,4.1176597E-4,-6.724702E-4,4.474461E-2,-6.6761894E-4,4.6112123E-3,8.13552E-4,-2.6940054E-4,1.8248877E-3,1.9444179E-4,-2.7840707E-4,-0E0,-1.2989516E-3],"split_indices":[11,3,1,5,0,5,8,2,0,0,10,3,3,0,0,0,0,0,0,0,0,0,0,0,0],"split_type":[0,0,0,0,0,0,0,0,0,0,0,0,0,0,0,0,0,0,0,0,0,0,0,0,0],"sum_hessian":[1.111E3,9.6E1,1.015E3,9.4E1,2E0,5.3E1,9.62E2,8.2E1,1.2E1,6E0,4.7E1,9.18E2,4.4E1,5.7E1,2.5E1,2E0,1E1,3E0,3E0,3.9E1,8E0,1.39E2,7.79E2,3E0,4.1E1],"tree_param":{"num_deleted":"0","num_feature":"12","num_nodes":"25","size_leaf_vector":"1"}},{"base_weights":[-1.0034807E-3,6.337415E-2,-6.9065997E-3,2.1923607E-2,3.798747E-2,1.5529751E-2,-1.0129639E-2,-0E0,1.5890704E-1,-9.895687E-3,4.2699564E-2,-4.258324E-3,-2.4709905E-2,1.3346879E-3,-1.3689762E-4,-4.1742888E-4,3.4991447E-2,-5.299122E-4,5.0713564E-4,1.7777776E-3,-0E0,-7.717002E-5,-8.438569E-4,-3.2122285E-4,-9.823547E-4],"categories":[],"categories_nodes":[],"categories_segments":[],"categories_sizes":[],"default_left":[0,0,0,0,0,0,0,0,0,0,0,0,0,0,0,0,0,0,0,0,0,0,0,0,0],"id":8,"left_children":[1,3,5,7,-1,9,11,13,15,17,19,21,23,-1,-1,-1,-1,-1,-1,-1,-1,-1,-1,-1,-1],"loss_changes":[4.2156327E-1,4.4803843E0,7.417224E-2,2.8453016E-1,0E0,9.074429E-2,7.455639E-2,1.34168705E-2,2.3949466E0,1.3698388E-2,5.0183058E-2,2.3097282E-2,2.3995072E-2,0E0,0E0,0E0,0E0,0E0,0E0,0E0,0E0,0E0,0E0,0E0,0E0],"parents":[2147483647,0,0,1,1,2,2,3,3,5,5,6,6,7,7,8,8,9,9,10,10,11,11,12,12],"right_children":[2,4,6,8,-1,10,12,14,16,18,20,22,24,-1,-1,-1,-1,-1,-1,-1,-1,-1,-1,-1,-1],"split_conditions":[2.4E-1,4.865253E-3,2.9E-1,5.9999916E1,3.798747E-2,2.9324082E-1,5.4545383E1,2.2E-1,2.476539E-1,2.0186415E-1,-2.0124554E-3,7.6E-1,2.1394815E-3,1.3346879E-3,-1.3689762E-4,-4.1742888E-4,3.4991447E-2,-5.299122E-4,5.0713564E-4,1.7777776E-3,-0E0,-7.717002E-5,-8.438569E-4,-3.2122285E-4,-9.823547E-4],"split_indices":[11,3,9,2,0,5,2,10,5,0,3,7,3,0,0,0,0,0,0,0,0,0,0,0,0],"split_type":[0,0,0,0,0,0,0,0,0,0,0,0,0,0,0,0,0,0,0,0,0,0,0,0,0],"sum_hessian":[1.122E3,9.2E1,1.03E3,9E1,2E0,1.25E2,9.05E2,7.8E1,1.2E1,6.3E1,6.2E1,6.51E2,2.54E2,5E0,7.3E1,1.1E1,1E0,5.2E1,1.1E1,4.6E1,1.6E1,6.13E2,3.8E1,9.8E1,1.56E2],"tree_param":{"num_deleted":"0","num_feature":"12","num_nodes":"25","size_leaf_vector":"1"}},{"base_weights":[1.9476806E-3,8.73021E-2,-8.004665E-3,3.788152E-2,4.309824E-2,2.2511048E-2,-1.1399613E-2,8.154138E-3,1.8876746E-1,5.3722497E-2,-1.6516114E-2,-9.574389E-3,-4.250645E-2,7.124352E-5,1.428573E-3,2.5064647E-2,-1.4563433E-3,-0E0,2.809732E-3,-0E0,-6.242795E-4,-5.7384325E-4,-1.3886871E-4,9.6724724E-4,-1.5239044E-3],"categories":[],"categories_nodes":[],"categories_segments":[],"categories_sizes":[],"default_left":[0,0,0,0,0,0,0,0,0,0,0,0,0,0,0,0,0,0,0,0,0,0,0,0,0],"id":9,"left_children":[1,3,5,7,-1,9,11,13,15,17,19,21,23,-1,-1,-1,-1,-1,-1,-1,-1,-1,-1,-1,-1],"loss_changes":[9.430529E-1,7.533414E0,1.01190746E-1,4.8562384E-1,0E0,1.2154499E-1,4.491643E-2,1.6783396E-2,2.8817987E0,1.21960774E-1,1.5339861E-3,3.7459686E-2,3.1998962E-2,0E0,0E0,0E0,0E0,0E0,0E0,0E0,0E0,0E0,0E0,0E0,0E0],"parents":[2147483647,0,0,1,1,2,2,3,3,5,5,6,6,7,7,8,8,9,9,10,10,11,11,12,12],"right_children":[2,4,6,8,-1,10,12,14,16,18,20,22,24,-1,-1,-1,-1,-1,-1,-1,-1,-1,-1,-1,-1],"split_conditions":[2.7101156E-1,4.865253E-3,2.9E-1,2.4E-1,4.309824E-2,-4.0145516E-3,8E-1,2.200836E-1,8.760572E-2,2.4858138E-1,9.694584E-2,5.2191705E-1,-4.184873E-2,7.124352E-5,1.428573E-3,2.5064647E-2,-1.4563433E-3,-0E0,2.809732E-3,-0E0,-6.242795E-4,-5.7384325E-4,-1.3886871E-4,9.6724724E-4,-1.5239044E-3],"split_indices":[5,3,10,7,0,4,8,6,0,6,0,5,3,0,0,0,0,0,0,0,0,0,0,0,0],"split_type":[0,0,0,0,0,0,0,0,0,0,0,0,0,0,0,0,0,0,0,0,0,0,0,0,0],"sum_hessian":[1.099E3,1.15E2,9.84E2,1.12E2,3E0,9.5E1,8.89E2,9.5E1,1.7E1,5.4E1,4.1E1,8.44E2,4.5E1,8.6E1,9E0,4E0,1.3E1,2.3E1,3.1E1,1.2E1,2.9E1,2.8E2,5.64E2,3E0,4.2E1],"tree_param":{"num_deleted":"0","num_feature":"12","num_nodes":"25","size_leaf_vector":"1"}},{"base_weights":[-1.7241163E-3,5.190053E-2,-7.4493517E-3,1.6738206E-2,7.3883176E-1,-5.5548744E-3,-3.9033897E-2,-1.3034708E-2,1.0362722E-1,-5.511792E-4,3.8492765E-2,-2.3283889E-3,-1.9585144E-2,1.1269981E-3,-4.462558E-2,-1.1142754E-4,-1.6230287E-3,3.4090605E-2,4.906477E-4,2.5452112E-4,-1.7890269E-4,8.801992E-4,-7.111684E-4,-0E0,-1.3715398E-3],"categories":[],"categories_nodes":[],"categories_segments":[],"categories_sizes":[],"default_left":[0,0,0,0,0,0,0,0,0,0,0,0,0,0,0,0,0,0,0,0,0,0,0,0,0],"id":10,"left_children":[1,3,5,7,9,11,13,15,17,-1,-1,19,21,-1,23,-1,-1,-1,-1,-1,-1,-1,-1,-1,-1],"loss_changes":[3.3826178E-1,2.4724104E0,5.5758853E-2,2.7427778E-1,2.2106278E0,4.108496E-2,2.5511928E-2,2.3107007E-2,2.2996106E0,0E0,0E0,3.0651808E-2,3.500794E-2,0E0,3.0418932E-3,0E0,0E0,0E0,0E0,0E0,0E0,0E0,0E0,0E0,0E0],"parents":[2147483647,0,0,1,1,2,2,3,3,4,4,5,5,6,6,7,7,8,8,11,11,12,12,14,14],"right_children":[2,4,6,8,10,12,14,16,18,-1,-1,20,22,-1,24,-1,-1,-1,-1,-1,-1,-1,-1,-1,-1],"split_conditions":[2.5E-1,2.6E-1,7.9E-1,2.193169E-1,4.999988E1,5.945944E1,1E0,2.4E-1,2.1979217E-1,-5.511792E-4,3.8492765E-2,3.366363E-1,2.8E-1,1.1269981E-3,4.7619014E0,-1.1142754E-4,-1.6230287E-3,3.4090605E-2,4.906477E-4,2.5452112E-4,-1.7890269E-4,8.801992E-4,-7.111684E-4,-0E0,-1.3715398E-3],"split_indices":[11,7,8,6,2,2,1,7,6,0,0,6,10,0,2,0,0,0,0,0,0,0,0,0,0],"split_type":[0,0,0,0,0,0,0,0,0,0,0,0,0,0,0,0,0,0,0,0,0,0,0,0,0],"sum_hessian":[1.114E3,1.05E2,1.009E3,1.01E2,4E0,9.56E2,5.3E1,7.5E1,2.6E1,2E0,2E0,7.84E2,1.72E2,2E0,5.1E1,6.4E1,1.1E1,1E0,2.5E1,1.9E2,5.94E2,1.1E1,1.61E2,1E0,5E1],"tree_param":{"num_deleted":"0","num_feature":"12","num_nodes":"25","size_leaf_vector":"1"}},{"base_weights":[5.550378E-4,6.697017E-2,-5.8361455E-3,-9.551929E-3,3.3124304E-1,2.1316372E-2,-7.397497E-3,3.75302E-2,-1.6794004E-2,-0E0,1.0791259E0,9.4628915E-2,3.9579445E-3,-5.85648E-3,-4.1944243E-2,1.5694235E-3,-0E0,-2.1052788E-4,-9.150566E-4,-0E0,3.158912E-4,4.497261E-2,-0E0,3.8447164E-3,6.6524505E-4,-0E0,9.976403E-4,-7.9962905E-5,-6.819667E-4,-0E0,-1.4378802E-3],"categories":[],"categories_nodes":[],"categories_segments":[],"categories_sizes":[],"default_left":[0,0,0,0,0,0,0,0,0,0,0,0,0,0,0,0,0,0,0,0,0,0,0,0,0,0,0,0,0,0,0],"id":11,"left_children":[1,3,5,7,9,11,13,15,17,19,21,23,25,27,29,-1,-1,-1,-1,-1,-1,-1,-1,-1,-1,-1,-1,-1,-1,-1,-1],"loss_changes":[4.8785472E-1,2.0778275E0,4.260184E-2,2.5493467E-2,5.6279826E0,5.7214066E-2,4.725315E-2,3.7439596E-3,5.5489875E-3,6.652484E-4,3.0847206E0,3.9882883E-3,5.930303E-3,4.8235305E-2,1.408653E-2,0E0,0E0,0E0,0E0,0E0,0E0,0E0,0E0,0E0,0E0,0E0,0E0,0E0,0E0,0E0,0E0],"parents":[2147483647,0,0,1,1,2,2,3,3,4,4,5,5,6,6,7,7,8,8,9,9,10,10,11,11,12,12,13,13,14,14],"right_children":[2,4,6,8,10,12,14,16,18,20,22,24,26,28,30,-1,-1,-1,-1,-1,-1,-1,-1,-1,-1,-1,-1,-1,-1,-1,-1],"split_conditions":[2.1759675E-1,2.1224545E-1,1E0,2.3123904E-1,4.0040207E-3,-8.885126E-3,7.229299E-1,-2.608316E-3,2E0,2E0,1.16561055E-1,3.0166158E-1,6.5E-1,4.2504426E-3,-4.184873E-2,1.5694235E-3,-0E0,-2.1052788E-4,-9.150566E-4,-0E0,3.158912E-4,4.497261E-2,-0E0,3.8447164E-3,6.6524505E-4,-0E0,9.976403E-4,-7.9962905E-5,-6.819667E-4,-0E0,-1.4378802E-3],"split_indices":[6,6,1,5,3,4,6,4,1,1,0,0,11,3,3,0,0,0,0,0,0,0,0,0,0,0,0,0,0,0,0],"split_type":[0,0,0,0,0,0,0,0,0,0,0,0,0,0,0,0,0,0,0,0,0,0,0,0,0,0,0,0,0,0,0],"sum_hessian":[1.133E3,1E2,1.033E3,7.8E1,2.2E1,5.2E1,9.81E2,8E0,7E1,1.6E1,6E0,8E0,4.4E1,9.43E2,3.8E1,5E0,3E0,4.6E1,2.4E1,1.1E1,5E0,4E0,2E0,4E0,4E0,3.9E1,5E0,7.99E2,1.44E2,3E0,3.5E1],"tree_param":{"num_deleted":"0","num_feature":"12","num_nodes":"31","size_leaf_vector":"1"}},{"base_weights":[-2.0726244E-3,4.6764087E-2,-7.711554E-3,-0E0,4.025056E-2,7.1143406E-3,-1.193582E-2,9.06497E-3,-1.8184367E-3,2.0423783E-2,-9.525385E-3,-2.9117273E-2,-7.876506E-3,1.2960995E-3,1.4866788E-4,-4.629373E-4,9.663544E-4,-4.9763377E-4,2.455897E-4,-5.6026666E-4,-1.8191184E-3,-1.1870593E-4,-8.281738E-4],"categories":[],"categories_nodes":[],"categories_segments":[],"categories_sizes":[],"default_left":[0,0,0,0,0,0,0,0,0,0,0,0,0,0,0,0,0,0,0,0,0,0,0],"id":12,"left_children":[1,3,5,7,-1,9,11,13,-1,15,17,19,21,-1,-1,-1,-1,-1,-1,-1,-1,-1,-1],"loss_changes":[3.095701E-1,6.9467993E0,6.4573415E-2,5.9655108E-2,0E0,5.044972E-2,5.1936932E-2,8.998732E-3,0E0,5.585297E-2,1.2984318E-2,3.9646506E-2,4.7309455E-2,0E0,0E0,0E0,0E0,0E0,0E0,0E0,0E0,0E0,0E0],"parents":[2147483647,0,0,1,1,2,2,3,3,5,5,6,6,7,7,9,9,10,10,11,11,12,12],"right_children":[2,4,6,8,-1,10,12,14,-1,16,18,20,22,-1,-1,-1,-1,-1,-1,-1,-1,-1,-1],"split_conditions":[2.5E-1,4.865253E-3,3.6E-1,2.4E-1,4.025056E-2,-3.1535951E-3,5.0401753E-1,2.2E-1,-1.8184367E-3,2.916516E-1,3.5153267E-1,5.259115E-3,7.5E-1,1.2960995E-3,1.4866788E-4,-4.629373E-4,9.663544E-4,-4.9763377E-4,2.455897E-4,-5.6026666E-4,-1.8191184E-3,-1.1870593E-4,-8.281738E-4],"split_indices":[11,3,9,7,0,4,5,10,0,5,5,4,7,0,0,0,0,0,0,0,0,0,0],"split_type":[0,0,0,0,0,0,0,0,0,0,0,0,0,0,0,0,0,0,0,0,0,0,0],"sum_hessian":[1.136E3,1.15E2,1.021E3,1.12E2,3E0,2.21E2,8E2,9.9E1,1.3E1,1.26E2,9.5E1,1.47E2,6.53E2,7E0,9.2E1,2.9E1,9.7E1,7.2E1,2.3E1,1.14E2,3.3E1,5.5E2,1.03E2],"tree_param":{"num_deleted":"0","num_feature":"12","num_nodes":"23","size_leaf_vector":"1"}},{"base_weights":[1.1040592E-3,6.032037E-2,-6.206394E-3,3.1204889E-2,3.6018446E-2,1.562922E-2,-8.98291E-3,-0E0,2.998622E-1,5.7687063E-2,-3.6912067E-3,1.1220135E-2,-1.127941E-2,1.6514749E-4,-1.2846196E-3,-5.261666E-4,4.1911364E-2,-0E0,4.0615276E-3,3.832567E-4,-3.998557E-4,1.3886252E-3,-3.8588558E-5,-7.62625E-4,-1.4605708E-4],"categories":[],"categories_nodes":[],"categories_segments":[],"categories_sizes":[],"default_left":[0,0,0,0,0,0,0,0,0,0,0,0,0,0,0,0,0,0,0,0,0,0,0,0,0],"id":13,"left_children":[1,3,5,7,-1,9,11,13,15,17,19,21,23,-1,-1,-1,-1,-1,-1,-1,-1,-1,-1,-1,-1],"loss_changes":[4.919303E-1,3.9893808E0,6.0042072E-2,1.0491548E0,0E0,9.4183244E-2,4.147157E-2,2.8640319E-2,4.6896663E0,1.7346169E-1,1.1968828E-2,4.2715017E-2,6.982732E-2,0E0,0E0,0E0,0E0,0E0,0E0,0E0,0E0,0E0,0E0,0E0,0E0],"parents":[2147483647,0,0,1,1,2,2,3,3,5,5,6,6,7,7,8,8,9,9,10,10,11,11,12,12],"right_children":[2,4,6,8,-1,10,12,14,16,18,20,22,24,-1,-1,-1,-1,-1,-1,-1,-1,-1,-1,-1,-1],"split_conditions":[2.7101156E-1,4.865253E-3,2.9E-1,6.2499947E1,3.6018446E-2,-6.6415602E-3,2.2222204E1,2.4E-1,2.476539E-1,-1.2705705E-2,-4.193139E-3,3.7E-1,4.7929165E-1,1.6514749E-4,-1.2846196E-3,-5.261666E-4,4.1911364E-2,-0E0,4.0615276E-3,3.832567E-4,-3.998557E-4,1.3886252E-3,-3.8588558E-5,-7.62625E-4,-1.4605708E-4],"split_indices":[5,3,9,2,0,4,2,7,5,4,4,9,6,0,0,0,0,0,0,0,0,0,0,0,0],"split_type":[0,0,0,0,0,0,0,0,0,0,0,0,0,0,0,0,0,0,0,0,0,0,0,0,0],"sum_hessian":[1.122E3,1.24E2,9.98E2,1.22E2,2E0,1.08E2,8.9E2,1.1E2,1.2E1,3.5E1,7.3E1,8.6E1,8.04E2,9.7E1,1.3E1,1E1,2E0,2E1,1.5E1,2.3E1,5E1,2.4E1,6.2E1,2.45E2,5.59E2],"tree_param":{"num_deleted":"0","num_feature":"12","num_nodes":"25","size_leaf_vector":"1"}},{"base_weights":[3.5036742E-4,6.493602E-2,-6.636845E-3,1.992403E-2,7.229839E-1,1.5309519E-2,-9.386256E-3,-0E0,2.2831951E-1,-1.9194111E-2,3.928248E-2,6.398974E-2,-5.085769E-3,-4.8238277E-3,-2.0364482E-2,1.7600322E-4,-1.3952137E-3,-1.6397987E-4,3.2979053E-2,-0E0,-7.231408E-4,-9.231266E-5,4.113598E-3,2.9543712E-4,-4.9190084E-4,-9.9839264E-5,-1.0340903E-3,-1.6046822E-3,-5.402756E-4],"categories":[],"categories_nodes":[],"categories_segments":[],"categories_sizes":[],"default_left":[0,0,0,0,0,0,0,0,0,0,0,0,0,0,0,0,0,0,0,0,0,0,0,0,0,0,0,0,0],"id":14,"left_children":[1,3,5,7,9,11,13,15,17,19,-1,21,23,25,27,-1,-1,-1,-1,-1,-1,-1,-1,-1,-1,-1,-1,-1,-1],"loss_changes":[5.171027E-1,3.2287495E0,6.1158083E-2,4.270897E-1,3.200814E0,1.1542904E-1,4.3062627E-2,2.4692422E-2,1.9479997E0,2.6945292E-4,0E0,1.8058297E-1,1.3822706E-2,2.5018994E-2,1.2249798E-2,0E0,0E0,0E0,0E0,0E0,0E0,0E0,0E0,0E0,0E0,0E0,0E0,0E0,0E0],"parents":[2147483647,0,0,1,1,2,2,3,3,4,4,5,5,6,6,7,7,8,8,9,9,11,11,12,12,13,13,14,14],"right_children":[2,4,6,8,10,12,14,16,18,20,-1,22,24,26,28,-1,-1,-1,-1,-1,-1,-1,-1,-1,-1,-1,-1,-1,-1],"split_conditions":[2.5E-1,7.14285E1,2.9E-1,6.2499947E1,5.0777E-4,-6.6415602E-3,5.4545383E1,2.4E-1,2.476539E-1,-1.6483036E-3,3.928248E-2,-1.4471095E-2,-4.0145516E-3,7.9E-1,5.499996E1,1.7600322E-4,-1.3952137E-3,-1.6397987E-4,3.2979053E-2,-0E0,-7.231408E-4,-9.231266E-5,4.113598E-3,2.9543712E-4,-4.9190084E-4,-9.9839264E-5,-1.0340903E-3,-1.6046822E-3,-5.402756E-4],"split_indices":[11,2,10,2,4,4,2,7,5,4,0,4,4,9,2,0,0,0,0,0,0,0,0,0,0,0,0,0,0],"split_type":[0,0,0,0,0,0,0,0,0,0,0,0,0,0,0,0,0,0,0,0,0,0,0,0,0,0,0,0,0],"sum_hessian":[1.131E3,1.11E2,1.02E3,1.05E2,6E0,1.09E2,9.11E2,9.7E1,8E0,3E0,3E0,3.3E1,7.6E1,6.51E2,2.6E2,8.8E1,9E0,7E0,1E0,1E0,2E0,1.7E1,1.6E1,2.9E1,4.7E1,6.24E2,2.7E1,1.3E1,2.47E2],"tree_param":{"num_deleted":"0","num_feature":"12","num_nodes":"29","size_leaf_vector":"1"}},{"base_weights":[2.6133338E-3,7.675018E-2,-5.560484E-3,3.2239825E-2,3.7697926E-2,1.6541407E-2,-8.001403E-3,-1.1463612E-4,1.9246985E-1,-1.36587005E-2,3.791874E-2,-6.26966E-3,-3.8481373E-2,-2.0729109E-4,1.3888763E-3,-3.215285E-4,2.3506148E-2,-6.9071347E-4,-0E0,1.6306746E-3,-3.4963308E-4,2.99701E-4,-2.6357532E-4,1.1121711E-3,-1.4682178E-3],"categories":[],"categories_nodes":[],"categories_segments":[],"categories_sizes":[],"default_left":[0,0,0,0,0,0,0,0,0,0,0,0,0,0,0,0,0,0,0,0,0,0,0,0,0],"id":15,"left_children":[1,3,5,7,-1,9,11,13,15,17,19,21,23,-1,-1,-1,-1,-1,-1,-1,-1,-1,-1,-1,-1],"loss_changes":[6.8927443E-1,5.7648473E0,5.3928614E-2,5.8951473E-1,0E0,6.5566905E-2,4.3686084E-2,2.5394632E-2,2.367536E0,3.3260467E-3,5.297909E-2,3.5642948E-2,3.9351903E-2,0E0,0E0,0E0,0E0,0E0,0E0,0E0,0E0,0E0,0E0,0E0,0E0],"parents":[2147483647,0,0,1,1,2,2,3,3,5,5,6,6,7,7,8,8,9,9,10,10,11,11,12,12],"right_children":[2,4,6,8,-1,10,12,14,16,18,20,22,24,-1,-1,-1,-1,-1,-1,-1,-1,-1,-1,-1,-1],"split_conditions":[2.5E-1,4.7229216E-3,2.9E-1,2.4840319E-1,3.7697926E-2,2.9324082E-1,8E-1,2.4657442E-1,-4.282992E-3,2.7E-1,3.815847E-1,-1.5554127E-2,-4.498514E-2,-2.0729109E-4,1.3888763E-3,-3.215285E-4,2.3506148E-2,-6.9071347E-4,-0E0,1.6306746E-3,-3.4963308E-4,2.99701E-4,-2.6357532E-4,1.1121711E-3,-1.4682178E-3],"split_indices":[11,3,9,5,0,5,8,5,3,10,5,3,3,0,0,0,0,0,0,0,0,0,0,0,0],"split_type":[0,0,0,0,0,0,0,0,0,0,0,0,0,0,0,0,0,0,0,0,0,0,0,0,0],"sum_hessian":[1.124E3,1.12E2,1.012E3,1.09E2,3E0,9.6E1,9.16E2,9.1E1,1.8E1,3.8E1,5.8E1,8.71E2,4.5E1,8.2E1,9E0,1.4E1,4E0,1.9E1,1.9E1,4.5E1,1.3E1,1.11E2,7.6E2,4E0,4.1E1],"tree_param":{"num_deleted":"0","num_feature":"12","num_nodes":"25","size_leaf_vector":"1"}},{"base_weights":[2.6324918E-3,6.929894E-2,-5.107573E-3,1.3338675E-2,1.1136541E0,1.1837903E-2,-9.449589E-3,-1.077244E-2,6.5110475E-2,4.0555306E-2,-0E0,3.3397082E-2,-1.3684111E-2,-2.5342708E-2,-4.6393736E-3,8.106314E-4,-5.0718844E-4,1.881726E-4,3.2131776E-2,7.6713256E-4,3.0434323E-3,-5.7924434E-4,5.125539E-4,-2.7300496E-4,-1.3867627E-3,-7.9274825E-5,-8.9093455E-4],"categories":[],"categories_nodes":[],"categories_segments":[],"categories_sizes":[],"default_left":[0,0,0,0,0,0,0,0,0,0,0,0,0,0,0,0,0,0,0,0,0,0,0,0,0,0,0],"id":16,"left_children":[1,3,5,7,9,11,13,15,17,-1,-1,19,21,23,25,-1,-1,-1,-1,-1,-1,-1,-1,-1,-1,-1,-1],"loss_changes":[5.95016E-1,6.8855324E0,7.49957E-2,1.4968692E-1,1.6960535E0,1.1467599E-1,5.9419766E-2,1.7527252E-2,2.1346953E0,0E0,0E0,4.4883743E-2,1.6472531E-2,5.679664E-2,2.8412022E-2,0E0,0E0,0E0,0E0,0E0,0E0,0E0,0E0,0E0,0E0,0E0,0E0],"parents":[2147483647,0,0,1,1,2,2,3,3,4,4,5,5,6,6,7,7,8,8,11,11,12,12,13,13,14,14],"right_children":[2,4,6,8,10,12,14,16,18,-1,-1,20,22,24,26,-1,-1,-1,-1,-1,-1,-1,-1,-1,-1,-1,-1],"split_conditions":[2.7101156E-1,2.5E-1,3.5E-1,2.193169E-1,1.16561055E-1,-3.4712635E-3,4.7929165E-1,2.2846296E-1,1.3596223E-3,4.0555306E-2,-0E0,3.1450725E-1,3.5380152E-1,3.2786601E-3,7.229299E-1,8.106314E-4,-5.0718844E-4,1.881726E-4,3.2131776E-2,7.6713256E-4,3.0434323E-3,-5.7924434E-4,5.125539E-4,-2.7300496E-4,-1.3867627E-3,-7.9274825E-5,-8.9093455E-4],"split_indices":[5,7,8,6,0,4,6,5,3,0,0,6,5,3,6,0,0,0,0,0,0,0,0,0,0,0,0],"split_type":[0,0,0,0,0,0,0,0,0,0,0,0,0,0,0,0,0,0,0,0,0,0,0,0,0,0,0],"sum_hessian":[1.139E3,1.19E2,1.02E3,1.14E2,5E0,2.03E2,8.17E2,7.7E1,3.7E1,4E0,1E0,1.12E2,9.1E1,1.84E2,6.33E2,8E0,6.9E1,3.6E1,1E0,1.03E2,9E0,8E1,1.1E1,1.07E2,7.7E1,5.91E2,4.2E1],"tree_param":{"num_deleted":"0","num_feature":"12","num_nodes":"27","size_leaf_vector":"1"}},{"base_weights":[6.559501E-4,6.1098296E-2,-5.478912E-3,3.184415E-2,3.0938819E-2,1.2465303E-2,-7.6620444E-3,-1.6685689E-3,2.2461294E-1,-8.983552E-3,2.6684975E-2,-4.786009E-3,-2.8830897E-2,1.2158551E-4,-1.4258659E-3,-4.7474154E-4,3.9153527E-2,-4.892165E-4,1.0144922E-4,1.3826995E-3,-1.9933876E-4,-9.639266E-5,-9.297271E-4,-1.0843815E-3,-0E0],"categories":[],"categories_nodes":[],"categories_segments":[],"categories_sizes":[],"default_left":[0,0,0,0,0,0,0,0,0,0,0,0,0,0,0,0,0,0,0,0,0,0,0,0,0],"id":17,"left_children":[1,3,5,7,-1,9,11,13,15,17,19,21,23,-1,-1,-1,-1,-1,-1,-1,-1,-1,-1,-1,-1],"loss_changes":[4.3009815E-1,2.8977456E0,4.027842E-2,7.0099086E-1,0E0,3.4949403E-2,5.318182E-2,2.8154971E-2,4.3062863E0,5.060601E-3,4.8230547E-2,3.0485043E-2,2.2115022E-2,0E0,0E0,0E0,0E0,0E0,0E0,0E0,0E0,0E0,0E0,0E0,0E0],"parents":[2147483647,0,0,1,1,2,2,3,3,5,5,6,6,7,7,8,8,9,9,10,10,11,11,12,12],"right_children":[2,4,6,8,-1,10,12,14,16,18,20,22,24,-1,-1,-1,-1,-1,-1,-1,-1,-1,-1,-1,-1],"split_conditions":[2.5E-1,4.865253E-3,2.9E-1,6.2499947E1,3.0938819E-2,2.9041564E-1,6.666636E1,2.4E-1,2.476539E-1,1.7413233E-1,-2.0124554E-3,7.229299E-1,6.5951896E-1,1.2158551E-4,-1.4258659E-3,-4.7474154E-4,3.9153527E-2,-4.892165E-4,1.0144922E-4,1.3826995E-3,-1.9933876E-4,-9.639266E-5,-9.297271E-4,-1.0843815E-3,-0E0],"split_indices":[11,3,10,2,0,5,2,7,5,0,3,6,6,0,0,0,0,0,0,0,0,0,0,0,0],"split_type":[0,0,0,0,0,0,0,0,0,0,0,0,0,0,0,0,0,0,0,0,0,0,0,0,0],"sum_hessian":[1.143E3,1.06E2,1.037E3,1.04E2,2E0,1.07E2,9.3E2,8.9E1,1.5E1,4E1,6.7E1,8.24E2,1.06E2,7.8E1,1.1E1,1.3E1,2E0,3E1,1E1,4.4E1,2.3E1,7.82E2,4.2E1,8.4E1,2.2E1],"tree_param":{"num_deleted":"0","num_feature":"12","num_nodes":"25","size_leaf_vector":"1"}},{"base_weights":[-1.1897417E-3,2.9009031E-2,-8.664509E-3,8.380201E-3,3.4755972E-1,-5.718788E-3,-2.7995447E-2,-1.5933685E-3,5.6950476E-2,9.9431276E-1,-3.9254196E-2,-4.0664584E-3,-3.247151E-2,-3.497255E-2,-0E0,5.958237E-4,-2.0456823E-4,-1.9654227E-4,3.007094E-3,-0E0,3.7540313E-2,-1.500677E-3,-0E0,-4.0972323E-4,-0E0,1.3087413E-3,-1.2602325E-3,-1.569884E-4,-1.4239169E-3,4.8694466E-4,-4.501301E-4],"categories":[],"categories_nodes":[],"categories_segments":[],"categories_sizes":[],"default_left":[0,0,0,0,0,0,0,0,0,0,0,0,0,0,0,0,0,0,0,0,0,0,0,0,0,0,0,0,0,0,0],"id":18,"left_children":[1,3,5,7,9,11,13,15,17,19,21,23,25,27,29,-1,-1,-1,-1,-1,-1,-1,-1,-1,-1,-1,-1,-1,-1,-1,-1],"loss_changes":[2.5013027E-1,1.4006141E0,4.76038E-2,1.0590119E-1,3.386787E0,3.0914541E-2,2.4399415E-2,1.80021E-2,1.11728646E-1,1.3201556E0,3.6477717E-3,2.8173234E-2,3.2149095E-2,2.90303E-2,5.6762965E-3,0E0,0E0,0E0,0E0,0E0,0E0,0E0,0E0,0E0,0E0,0E0,0E0,0E0,0E0,0E0,0E0],"parents":[2147483647,0,0,1,1,2,2,3,3,4,4,5,5,6,6,7,7,8,8,9,9,10,10,11,11,12,12,13,13,14,14],"right_children":[2,4,6,8,10,12,14,16,18,20,22,24,26,28,30,-1,-1,-1,-1,-1,-1,-1,-1,-1,-1,-1,-1,-1,-1,-1,-1],"split_conditions":[2.9E-1,4.0040207E-3,6.666651E1,2.9961115E-1,1.16561055E-1,7.229299E-1,6.677154E-1,2.3123904E-1,3.3333282E1,2E0,9.452053E1,4.6836466E-1,-4.498514E-2,3.8155825E-3,1.3873979E-2,5.958237E-4,-2.0456823E-4,-1.9654227E-4,3.007094E-3,-0E0,3.7540313E-2,-1.500677E-3,-0E0,-4.0972323E-4,-0E0,1.3087413E-3,-1.2602325E-3,-1.569884E-4,-1.4239169E-3,4.8694466E-4,-4.501301E-4],"split_indices":[10,3,2,5,0,6,6,5,2,1,2,6,3,3,3,0,0,0,0,0,0,0,0,0,0,0,0,0,0,0,0],"split_type":[0,0,0,0,0,0,0,0,0,0,0,0,0,0,0,0,0,0,0,0,0,0,0,0,0,0,0,0,0,0,0],"sum_hessian":[1.115E3,2.18E2,8.97E2,2.06E2,1.2E1,7.84E2,1.13E2,1.7E2,3.6E1,4E0,8E0,7.43E2,4.1E1,9.2E1,2.1E1,2.9E1,1.41E2,1.4E1,2.2E1,1E0,3E0,6E0,2E0,2.16E2,5.27E2,3E0,3.8E1,3E1,6.2E1,1.2E1,9E0],"tree_param":{"num_deleted":"0","num_feature":"12","num_nodes":"31","size_leaf_vector":"1"}},{"base_weights":[2.1923208E-3,6.986009E-2,-5.013599E-3,1.4919557E-2,7.491194E-1,7.2174505E-3,-8.4169E-3,-2.3306592E-3,1.4088878E-1,3.788919E-2,-1.6643297E-3,-4.430298E-3,2.7241025E-2,-2.2411091E-2,-4.4273892E-3,3.2185361E-4,-2.8098168E-4,-3.4870818E-4,3.1065563E-2,9.36971E-5,-4.7927359E-4,4.285719E-3,2.3430571E-4,6.6522474E-4,-7.6926633E-4,-6.0312737E-5,-6.838832E-4],"categories":[],"categories_nodes":[],"categories_segments":[],"categories_sizes":[],"default_left":[0,0,0,0,0,0,0,0,0,0,0,0,0,0,0,0,0,0,0,0,0,0,0,0,0,0,0],"id":19,"left_children":[1,3,5,7,9,11,13,15,17,-1,-1,19,21,23,25,-1,-1,-1,-1,-1,-1,-1,-1,-1,-1,-1,-1],"loss_changes":[5.519812E-1,3.980176E0,4.2222895E-2,2.358298E-1,3.4983783E0,5.2312884E-2,4.1713428E-2,8.233088E-3,1.8881738E0,0E0,0E0,1.2933983E-2,1.6803221E-1,2.5549717E-2,2.5310148E-2,0E0,0E0,0E0,0E0,0E0,0E0,0E0,0E0,0E0,0E0,0E0,0E0],"parents":[2147483647,0,0,1,1,2,2,3,3,4,4,5,5,6,6,7,7,8,8,11,11,12,12,13,13,14,14],"right_children":[2,4,6,8,10,12,14,16,18,-1,-1,20,22,24,26,-1,-1,-1,-1,-1,-1,-1,-1,-1,-1,-1,-1],"split_conditions":[2.5E-1,2.5E-1,3.5E-1,6.2499947E1,1.16561055E-1,2.6379853E-1,5.202733E-1,2.3123904E-1,2.476539E-1,3.788919E-2,-1.6643297E-3,3.0442482E-1,3.0548078E-1,3.5E-1,8.379659E-1,3.2185361E-4,-2.8098168E-4,-3.4870818E-4,3.1065563E-2,9.36971E-5,-4.7927359E-4,4.285719E-3,2.3430571E-4,6.6522474E-4,-7.6926633E-4,-6.0312737E-5,-6.838832E-4],"split_indices":[11,7,8,2,0,0,5,5,5,0,0,5,0,11,5,0,0,0,0,0,0,0,0,0,0,0,0],"split_type":[0,0,0,0,0,0,0,0,0,0,0,0,0,0,0,0,0,0,0,0,0,0,0,0,0,0,0],"sum_hessian":[1.117E3,1.08E2,1.009E3,1.01E2,7E0,2.13E2,7.96E2,8.9E1,1.2E1,4E0,3E0,1.32E2,8.1E1,1.7E2,6.26E2,2.6E1,6.3E1,1.1E1,1E0,7.5E1,5.7E1,1E1,7.1E1,9E0,1.61E2,5.59E2,6.7E1],"tree_param":{"num_deleted":"0","num_feature":"12","num_nodes":"27","size_leaf_vector":"1"}},{"base_weights":[8.8243675E-4,3.734617E-2,-6.366792E-3,6.1391313E-3,4.5167688E-1,-3.675134E-3,-2.382854E-2,-3.8976518E-3,4.4317946E-2,-1.7982747E-2,8.7109697E-1,-2.3164726E-3,-2.5249844E-2,-0E0,-3.283385E-2,-3.8152957E-5,-2.0161015E-3,4.2892755E-3,-0E0,-7.3796633E-4,-0E0,-1.0994308E-3,3.135487E-2,-1.3239935E-4,4.011344E-4,1.1141783E-3,-1.0475172E-3,-2.3004068E-4,1.4943535E-4,-1.168726E-3,3.832569E-4],"categories":[],"categories_nodes":[],"categories_segments":[],"categories_sizes":[],"default_left":[0,0,0,0,0,0,0,0,0,0,0,0,0,0,0,0,0,0,0,0,0,0,0,0,0,0,0,0,0,0,0],"id":20,"left_children":[1,3,5,7,9,11,13,15,17,19,21,23,25,27,29,-1,-1,-1,-1,-1,-1,-1,-1,-1,-1,-1,-1,-1,-1,-1,-1],"loss_changes":[3.007114E-1,2.3952222E0,4.1202057E-2,7.203983E-2,2.6617765E0,2.1162685E-2,2.4577372E-2,1.6173499E-2,1.68706E-1,7.6186936E-4,1.2452025E0,2.4656398E-2,2.7612766E-2,1.4710063E-3,2.7135365E-2,0E0,0E0,0E0,0E0,0E0,0E0,0E0,0E0,0E0,0E0,0E0,0E0,0E0,0E0,0E0,0E0],"parents":[2147483647,0,0,1,1,2,2,3,3,4,4,5,5,6,6,7,7,8,8,9,9,10,10,11,11,12,12,13,13,14,14],"right_children":[2,4,6,8,10,12,14,16,18,20,22,24,26,28,30,-1,-1,-1,-1,-1,-1,-1,-1,-1,-1,-1,-1,-1,-1,-1,-1],"split_conditions":[2.8E-1,4.0040207E-3,6.666636E1,2.4858138E-1,2.1175714E-1,7.182179E-1,1.725701E-3,6.99999E1,-5.499788E-3,9.452053E1,4.9999912E1,6.725976E-1,-4.498514E-2,6.874994E1,7.0673823E-1,-3.8152957E-5,-2.0161015E-3,4.2892755E-3,-0E0,-7.3796633E-4,-0E0,-1.0994308E-3,3.135487E-2,-1.3239935E-4,4.011344E-4,1.1141783E-3,-1.0475172E-3,-2.3004068E-4,1.4943535E-4,-1.168726E-3,3.832569E-4],"split_indices":[11,3,2,6,6,6,3,2,4,2,2,6,3,2,6,0,0,0,0,0,0,0,0,0,0,0,0,0,0,0,0],"split_type":[0,0,0,0,0,0,0,0,0,0,0,0,0,0,0,0,0,0,0,0,0,0,0,0,0,0,0,0,0,0,0],"sum_hessian":[1.124E3,1.88E2,9.36E2,1.76E2,1.2E1,8.17E2,1.19E2,1.38E2,3.8E1,6E0,6E0,7.74E2,4.3E1,3.4E1,8.5E1,1.35E2,3E0,1.1E1,2.7E1,4E0,2E0,1E0,5E0,6.89E2,8.5E1,4E0,3.9E1,1.6E1,1.8E1,7.7E1,8E0],"tree_param":{"num_deleted":"0","num_feature":"12","num_nodes":"31","size_leaf_vector":"1"}},{"base_weights":[1.7207877E-3,6.4571984E-2,-5.585668E-3,1.5752496E-2,7.152685E-1,2.03349E-2,-7.2927275E-3,-0E0,1.5499662E-1,-1.6180642E-3,3.6227338E-2,1.12238705E-1,-0E0,-5.737598E-3,-4.3233808E-2,2.8105982E-4,-4.254193E-4,-7.051421E-4,3.0600153E-2,-0E0,3.561908E-3,-2.5941845E-4,1.5758361E-3,-1.4008216E-3,-1.4066989E-4,-0E0,-1.5021745E-3],"categories":[],"categories_nodes":[],"categories_segments":[],"categories_sizes":[],"default_left":[0,0,0,0,0,0,0,0,0,0,0,0,0,0,0,0,0,0,0,0,0,0,0,0,0,0,0],"id":21,"left_children":[1,3,5,7,9,11,13,15,17,-1,-1,19,21,23,25,-1,-1,-1,-1,-1,-1,-1,-1,-1,-1,-1,-1],"loss_changes":[5.1553375E-1,3.632331E0,4.2782284E-2,2.3696792E-1,3.2099872E0,1.0199181E-1,4.717068E-2,1.3284387E-2,1.8220818E0,0E0,0E0,8.9661777E-4,2.5213988E-2,3.3338003E-2,1.0435037E-2,0E0,0E0,0E0,0E0,0E0,0E0,0E0,0E0,0E0,0E0,0E0,0E0],"parents":[2147483647,0,0,1,1,2,2,3,3,4,4,5,5,6,6,7,7,8,8,11,11,12,12,13,13,14,14],"right_children":[2,4,6,8,10,12,14,16,18,-1,-1,20,22,24,26,-1,-1,-1,-1,-1,-1,-1,-1,-1,-1,-1,-1],"split_conditions":[2.5E-1,2.5E-1,1E0,6.2499947E1,4.9999912E1,3.6841682E-1,9.486621E-1,4.444441E1,2.476539E-1,-1.6180642E-3,3.6227338E-2,2.7604485E-1,6.5E-1,2.4758138E-1,-4.637293E-2,2.8105982E-4,-4.254193E-4,-7.051421E-4,3.0600153E-2,-0E0,3.561908E-3,-2.5941845E-4,1.5758361E-3,-1.4008216E-3,-1.4066989E-4,-0E0,-1.5021745E-3],"split_indices":[11,7,1,2,2,5,5,2,5,0,0,5,10,6,6,0,0,0,0,0,0,0,0,0,0,0,0],"split_type":[0,0,0,0,0,0,0,0,0,0,0,0,0,0,0,0,0,0,0,0,0,0,0,0,0,0,0],"sum_hessian":[1.108E3,1.16E2,9.92E2,1.09E2,7E0,5.7E1,9.35E2,9.9E1,1E1,3E0,4E0,9E0,4.8E1,9E2,3.5E1,6.1E1,3.8E1,9E0,1E0,1E0,8E0,4.1E1,7E0,1.9E1,8.81E2,5E0,3E1],"tree_param":{"num_deleted":"0","num_feature":"12","num_nodes":"27","size_leaf_vector":"1"}},{"base_weights":[-7.882121E-4,4.1495577E-2,-4.955001E-3,-0E0,6.582578E-1,-3.3692976E-3,-2.7226763E-2,-3.7033074E-3,2.1372985E-3,-2.1527172E-3,8.3861226E-1,1.5160586E-2,-5.6709535E-3,-0E0,-4.078219E-2,5.458048E-4,-4.8294864E-4,3.2727294E-2,-1.0586685E-3,-2.7767915E-4,1.5269602E-3,-4.623806E-4,-2.3823626E-5,1.0777428E-3,-5.8171194E-4,-1.6716783E-4,-1.6298005E-3],"categories":[],"categories_nodes":[],"categories_segments":[],"categories_sizes":[],"default_left":[0,0,0,0,0,0,0,0,0,0,0,0,0,0,0,0,0,0,0,0,0,0,0,0,0,0,0],"id":22,"left_children":[1,3,5,7,9,11,13,15,-1,-1,17,19,21,23,25,-1,-1,-1,-1,-1,-1,-1,-1,-1,-1,-1,-1],"loss_changes":[1.8912464E-1,2.434519E0,3.209444E-2,2.657119E-2,9.2683077E-1,3.9099514E-2,1.8903907E-2,2.369607E-2,0E0,0E0,1.2464745E0,9.1022894E-2,3.8226962E-2,1.5801895E-2,1.2306511E-2,0E0,0E0,0E0,0E0,0E0,0E0,0E0,0E0,0E0,0E0,0E0,0E0],"parents":[2147483647,0,0,1,1,2,2,3,3,4,4,5,5,6,6,7,7,10,10,11,11,12,12,13,13,14,14],"right_children":[2,4,6,8,10,12,14,16,-1,-1,18,20,22,24,26,-1,-1,-1,-1,-1,-1,-1,-1,-1,-1,-1,-1],"split_conditions":[2.4E-1,2.5E-1,7.14285E1,2.200836E-1,6.1865065E-2,2.6099813E-1,2.358525E-1,2.3123904E-1,2.1372985E-3,-2.1527172E-3,1.0823079E-1,2.9324082E-1,5.202733E-1,3.1719044E-2,4.5949044E-3,5.458048E-4,-4.8294864E-4,3.2727294E-2,-1.0586685E-3,-2.7767915E-4,1.5269602E-3,-4.623806E-4,-2.3823626E-5,1.0777428E-3,-5.8171194E-4,-1.6716783E-4,-1.6298005E-3],"split_indices":[11,7,2,6,0,6,6,5,0,0,0,5,5,3,3,0,0,0,0,0,0,0,0,0,0,0,0],"split_type":[0,0,0,0,0,0,0,0,0,0,0,0,0,0,0,0,0,0,0,0,0,0,0,0,0,0,0],"sum_hessian":[1.092E3,9.5E1,9.97E2,9E1,5E0,9.36E2,6.1E1,8.6E1,4E0,1E0,4E0,9.8E1,8.38E2,2.3E1,3.8E1,2.8E1,5.8E1,3E0,1E0,5.7E1,4.1E1,2.72E2,5.66E2,6E0,1.7E1,1.3E1,2.5E1],"tree_param":{"num_deleted":"0","num_feature":"12","num_nodes":"27","size_leaf_vector":"1"}},{"base_weights":[2.1704772E-4,5.2860666E-2,-5.1037683E-3,1.4219582E-2,6.7784214E-1,1.3927966E-2,-7.4798674E-3,-0E0,1.0843787E-1,3.152435E-2,-3.6193727E-4,-1.2826743E-2,3.211215E-2,-4.834233E-3,-2.4595207E-2,8.0957834E-5,-1.2995879E-3,-9.0406754E-4,3.0148393E-2,-5.8795034E-4,-0E0,-2.4331141E-4,1.4626341E-3,-1.2051721E-4,-1.7790516E-3,8.6970695E-6,-8.757882E-4],"categories":[],"categories_nodes":[],"categories_segments":[],"categories_sizes":[],"default_left":[0,0,0,0,0,0,0,0,0,0,0,0,0,0,0,0,0,0,0,0,0,0,0,0,0,0,0],"id":23,"left_children":[1,3,5,7,9,11,13,15,17,-1,-1,19,21,23,25,-1,-1,-1,-1,-1,-1,-1,-1,-1,-1,-1,-1],"loss_changes":[3.2296693E-1,2.481051E0,4.6037294E-2,1.4420097E-1,1.6604376E0,5.5856813E-2,3.8641892E-2,1.3733271E-2,1.8670177E0,0E0,0E0,5.6005525E-3,4.9978763E-2,2.9207505E-2,1.6399741E-2,0E0,0E0,0E0,0E0,0E0,0E0,0E0,0E0,0E0,0E0,0E0,0E0],"parents":[2147483647,0,0,1,1,2,2,3,3,4,4,5,5,6,6,7,7,8,8,11,11,12,12,13,13,14,14],"right_children":[2,4,6,8,10,12,14,16,18,-1,-1,20,22,24,26,-1,-1,-1,-1,-1,-1,-1,-1,-1,-1,-1,-1],"split_conditions":[2.5E-1,2.6E-1,2.9E-1,6.2499947E1,1.16561055E-1,2.930263E-1,6.666636E1,2.4E-1,2.476539E-1,3.152435E-2,-3.6193727E-4,1.7413233E-1,3.3333282E1,9E-1,1E0,8.0957834E-5,-1.2995879E-3,-9.0406754E-4,3.0148393E-2,-5.8795034E-4,-0E0,-2.4331141E-4,1.4626341E-3,-1.2051721E-4,-1.7790516E-3,8.6970695E-6,-8.757882E-4],"split_indices":[11,7,9,2,0,5,2,7,5,0,0,0,2,11,1,0,0,0,0,0,0,0,0,0,0,0,0],"split_type":[0,0,0,0,0,0,0,0,0,0,0,0,0,0,0,0,0,0,0,0,0,0,0,0,0,0,0],"sum_hessian":[1.134E3,1.05E2,1.029E3,1E2,5E0,1.09E2,9.2E2,8.7E1,1.3E1,3E0,2E0,4.2E1,6.7E1,8.03E2,1.17E2,8.1E1,6E0,1.2E1,1E0,3.2E1,1E1,1.8E1,4.9E1,7.94E2,9E0,1.5E1,1.02E2],"tree_param":{"num_deleted":"0","num_feature":"12","num_nodes":"27","size_leaf_vector":"1"}},{"base_weights":[-4.737518E-4,2.7359582E-2,-6.1744815E-3,1.3404815E-2,3.3239928E-1,-1.5177621E-2,-1.3967624E-3,-9.007798E-3,3.602336E-2,-0E0,2.6491271E-2,-5.9848423E-3,-4.211256E-2,1.18098884E-4,-2.3281142E-2,-3.7800084E-5,-1.6844982E-3,4.2143583E-4,2.9696168E-2,6.0537855E-5,-7.399923E-4,-0E0,-1.6159738E-3,-6.788476E-5,3.5525774E-4,1.0317067E-3,-1.0154946E-3],"categories":[],"categories_nodes":[],"categories_segments":[],"categories_sizes":[],"default_left":[0,0,0,0,0,0,0,0,0,0,0,0,0,0,0,0,0,0,0,0,0,0,0,0,0,0,0],"id":24,"left_children":[1,3,5,7,9,11,13,15,17,-1,-1,19,21,23,25,-1,-1,-1,-1,-1,-1,-1,-1,-1,-1,-1,-1],"loss_changes":[1.7893456E-1,7.740046E-1,3.9185107E-2,9.630311E-2,1.4553773E0,7.466766E-2,2.3171537E-2,2.7425792E-2,1.856065E0,0E0,0E0,3.879367E-2,4.2692035E-2,1.7314129E-2,2.8538011E-2,0E0,0E0,0E0,0E0,0E0,0E0,0E0,0E0,0E0,0E0,0E0,0E0],"parents":[2147483647,0,0,1,1,2,2,3,3,4,4,5,5,6,6,7,7,8,8,11,11,12,12,13,13,14,14],"right_children":[2,4,6,8,10,12,14,16,18,-1,-1,20,22,24,26,-1,-1,-1,-1,-1,-1,-1,-1,-1,-1,-1,-1],"split_conditions":[2.8E-1,4.865253E-3,4.7929165E-1,2.193169E-1,3E0,3.8155825E-3,7.229299E-1,3.2587927E-3,1.3596223E-3,-0E0,2.6491271E-2,3.4760922E-1,1E0,6.725976E-1,-4.184873E-2,-3.7800084E-5,-1.6844982E-3,4.2143583E-4,2.9696168E-2,6.0537855E-5,-7.399923E-4,-0E0,-1.6159738E-3,-6.788476E-5,3.5525774E-4,1.0317067E-3,-1.0154946E-3],"split_indices":[11,3,6,6,1,3,6,3,3,0,0,6,1,6,3,0,0,0,0,0,0,0,0,0,0,0,0],"split_type":[0,0,0,0,0,0,0,0,0,0,0,0,0,0,0,0,0,0,0,0,0,0,0,0,0,0,0],"sum_hessian":[1.139E3,1.9E2,9.49E2,1.83E2,7E0,3.21E2,6.28E2,9E1,9.3E1,5E0,2E0,2.43E2,7.8E1,5.84E2,4.4E1,8E1,1E1,9.2E1,1E0,1.67E2,7.6E1,1.6E1,6.2E1,4.79E2,1.05E2,5E0,3.9E1],"tree_param":{"num_deleted":"0","num_feature":"12","num_nodes":"27","size_leaf_vector":"1"}},{"base_weights":[9.059224E-4,5.4370042E-2,-4.780481E-3,2.9960563E-2,2.5961446E-2,-3.4538524E-3,-2.6925426E-2,-6.4648996E-4,2.3828167E-1,5.20206E-3,-6.31299E-3,3.3530466E-2,-3.619798E-2,6.3902386E-5,-1.4804592E-3,-1.9028755E-4,3.5120584E-2,-0E0,1.5139256E-3,3.7210007E-4,-2.2556643E-4,1.1316603E-3,-0E0,-1.719847E-3,-4.4156896E-4],"categories":[],"categories_nodes":[],"categories_segments":[],"categories_sizes":[],"default_left":[0,0,0,0,0,0,0,0,0,0,0,0,0,0,0,0,0,0,0,0,0,0,0,0,0],"id":25,"left_children":[1,3,5,7,-1,9,11,13,15,17,19,21,23,-1,-1,-1,-1,-1,-1,-1,-1,-1,-1,-1,-1],"loss_changes":[3.411594E-1,2.022546E0,2.6188446E-2,6.997837E-1,0E0,2.3580711E-2,3.063067E-2,1.7402887E-2,3.3171067E0,5.2429643E-2,1.5877679E-2,3.68997E-4,1.3282746E-2,0E0,0E0,0E0,0E0,0E0,0E0,0E0,0E0,0E0,0E0,0E0,0E0],"parents":[2147483647,0,0,1,1,2,2,3,3,5,5,6,6,7,7,8,8,9,9,10,10,11,11,12,12],"right_children":[2,4,6,8,-1,10,12,14,16,18,20,22,24,-1,-1,-1,-1,-1,-1,-1,-1,-1,-1,-1,-1],"split_conditions":[2.5E-1,4.865253E-3,8E-1,6.2499947E1,2.5961446E-2,-8.411714E-3,-4.184873E-2,3.2587927E-3,2.476539E-1,-7.158315E-3,-8.394444E-3,2.9853962E-2,5.8333263E1,6.3902386E-5,-1.4804592E-3,-1.9028755E-4,3.5120584E-2,-0E0,1.5139256E-3,3.7210007E-4,-2.2556643E-4,1.1316603E-3,-0E0,-1.719847E-3,-4.4156896E-4],"split_indices":[11,3,8,2,0,3,3,3,5,4,4,0,2,0,0,0,0,0,0,0,0,0,0,0,0],"split_type":[0,0,0,0,0,0,0,0,0,0,0,0,0,0,0,0,0,0,0,0,0,0,0,0,0],"sum_hessian":[1.104E3,1.07E2,9.97E2,1.05E2,2E0,9.46E2,5.1E1,9.2E1,1.3E1,2.26E2,7.2E2,5E0,4.6E1,8.6E1,6E0,1.1E1,2E0,2.04E2,2.2E1,3.8E1,6.82E2,4E0,1E0,2E1,2.6E1],"tree_param":{"num_deleted":"0","num_feature":"12","num_nodes":"25","size_leaf_vector":"1"}},{"base_weights":[2.7844552E-3,5.6614142E-2,-3.7377283E-3,2.4774773E-2,7.7670044E-1,1.3665735E-2,-5.8819605E-3,-0E0,1.3020708E-1,2.9634863E-2,-0E0,4.145148E-2,-1.51719E-2,-4.650345E-3,-2.4859648E-2,1.5633422E-4,-1.5380074E-3,3.4418173E-2,-7.1589235E-4,-0E0,2.4707112E-3,-0E0,-5.8790814E-4,-7.122882E-4,-9.7834454E-5,1.1045005E-3,-1.0014707E-3],"categories":[],"categories_nodes":[],"categories_segments":[],"categories_sizes":[],"default_left":[0,0,0,0,0,0,0,0,0,0,0,0,0,0,0,0,0,0,0,0,0,0,0,0,0,0,0],"id":26,"left_children":[1,3,5,7,9,11,13,15,17,-1,-1,19,21,23,25,-1,-1,-1,-1,-1,-1,-1,-1,-1,-1,-1,-1],"loss_changes":[3.962592E-1,2.6977153E0,3.6320537E-2,3.005583E-1,8.869052E-1,8.658948E-2,1.7712181E-2,2.3470413E-2,3.5871058E0,0E0,0E0,9.5412716E-2,2.70015E-3,1.9528314E-2,2.664243E-2,0E0,0E0,0E0,0E0,0E0,0E0,0E0,0E0,0E0,0E0,0E0,0E0],"parents":[2147483647,0,0,1,1,2,2,3,3,4,4,5,5,6,6,7,7,8,8,11,11,12,12,13,13,14,14],"right_children":[2,4,6,8,10,12,14,16,18,-1,-1,20,22,24,26,-1,-1,-1,-1,-1,-1,-1,-1,-1,-1,-1,-1],"split_conditions":[2.7101156E-1,2.6E-1,2.9E-1,2.4822795E-1,1.16561055E-1,-4.1376874E-3,8E-1,2.4E-1,8.760572E-2,2.9634863E-2,-0E0,2.4858138E-1,9.694584E-2,3.450701E-1,-4.2776827E-2,1.5633422E-4,-1.5380074E-3,3.4418173E-2,-7.1589235E-4,-0E0,2.4707112E-3,-0E0,-5.8790814E-4,-7.122882E-4,-9.7834454E-5,1.1045005E-3,-1.0014707E-3],"split_indices":[5,7,10,5,0,4,8,7,0,0,0,6,0,5,4,0,0,0,0,0,0,0,0,0,0,0,0],"split_type":[0,0,0,0,0,0,0,0,0,0,0,0,0,0,0,0,0,0,0,0,0,0,0,0,0,0,0],"sum_hessian":[1.112E3,1.21E2,9.91E2,1.17E2,4E0,1.03E2,8.88E2,9.6E1,2.1E1,3E0,1E0,5.4E1,4.9E1,8.4E2,4.8E1,8.9E1,7E0,2E0,1.9E1,2.7E1,2.7E1,1.3E1,3.6E1,5.1E1,7.89E2,4E0,4.4E1],"tree_param":{"num_deleted":"0","num_feature":"12","num_nodes":"27","size_leaf_vector":"1"}},{"base_weights":[3.8252862E-3,6.1761465E-2,-2.4915885E-3,2.710893E-2,2.896808E-2,1.6329577E-2,-4.752215E-3,-0E0,2.01876E-1,1.5105028E-3,4.264402E-2,-2.2014363E-3,-2.147497E-2,6.201625E-4,-2.7452735E-4,-5.6501705E-4,3.3729807E-2,9.6194295E-4,-1.8853655E-4,3.5198429E-3,-6.825352E-5,3.7412334E-4,-1.2489705E-4,-1.0142047E-3,-8.3022875E-5],"categories":[],"categories_nodes":[],"categories_segments":[],"categories_sizes":[],"default_left":[0,0,0,0,0,0,0,0,0,0,0,0,0,0,0,0,0,0,0,0,0,0,0,0,0],"id":27,"left_children":[1,3,5,7,-1,9,11,13,15,17,19,21,23,-1,-1,-1,-1,-1,-1,-1,-1,-1,-1,-1,-1],"loss_changes":[4.1707146E-1,3.382436E0,4.197806E-2,5.3120536E-1,0E0,3.6075532E-2,3.6359437E-2,1.7316053E-2,3.1856353E0,1.9451585E-2,1.2918827E-1,2.210439E-2,2.277935E-2,0E0,0E0,0E0,0E0,0E0,0E0,0E0,0E0,0E0,0E0,0E0,0E0],"parents":[2147483647,0,0,1,1,2,2,3,3,5,5,6,6,7,7,8,8,9,9,10,10,11,11,12,12],"right_children":[2,4,6,8,-1,10,12,14,16,18,20,22,24,-1,-1,-1,-1,-1,-1,-1,-1,-1,-1,-1,-1],"split_conditions":[2.7101156E-1,4.7229216E-3,2.9E-1,6.2499947E1,2.896808E-2,2.3766191E-1,6.666636E1,2.3123904E-1,2.476539E-1,2.5092125E-1,3.0186963E-1,2.2222204E1,5.871091E-1,6.201625E-4,-2.7452735E-4,-5.6501705E-4,3.3729807E-2,9.6194295E-4,-1.8853655E-4,3.5198429E-3,-6.825352E-5,3.7412334E-4,-1.2489705E-4,-1.0142047E-3,-8.3022875E-5],"split_indices":[5,3,10,2,0,0,2,5,5,6,0,2,6,0,0,0,0,0,0,0,0,0,0,0,0],"split_type":[0,0,0,0,0,0,0,0,0,0,0,0,0,0,0,0,0,0,0,0,0,0,0,0,0],"sum_hessian":[1.122E3,1.11E2,1.011E3,1.08E2,3E0,1.03E2,9.08E2,9.4E1,1.4E1,6.9E1,3.4E1,7.94E2,1.14E2,2.6E1,6.8E1,1.2E1,2E0,1.6E1,5.3E1,1.3E1,2.1E1,8.7E1,7.07E2,6.5E1,4.9E1],"tree_param":{"num_deleted":"0","num_feature":"12","num_nodes":"25","size_leaf_vector":"1"}},{"base_weights":[1.9259767E-3,5.711591E-2,-4.266517E-3,2.4335746E-2,2.8316298E-2,2.6215091E-2,-6.138483E-3,2.6537578E-3,1.4073674E-1,4.115822E-2,-0E0,-4.700673E-3,-2.9314337E-2,-0E0,1.033693E-3,-1.7488884E-3,8.876685E-3,-3.8705322E-5,1.6908266E-3,5.8998325E-4,-2.8713673E-4,2.1110628E-4,-2.151098E-4,-9.924362E-4,-0E0],"categories":[],"categories_nodes":[],"categories_segments":[],"categories_sizes":[],"default_left":[0,0,0,0,0,0,0,0,0,0,0,0,0,0,0,0,0,0,0,0,0,0,0,0,0],"id":28,"left_children":[1,3,5,7,-1,9,11,13,15,17,19,21,23,-1,-1,-1,-1,-1,-1,-1,-1,-1,-1,-1,-1],"loss_changes":[3.9274645E-1,3.2521155E0,5.6240894E-2,2.7047744E-1,0E0,2.4193034E-2,2.8550245E-2,1.1189342E-2,5.6597745E-1,2.945695E-2,3.3995127E-3,2.6500566E-2,7.844407E-3,0E0,0E0,0E0,0E0,0E0,0E0,0E0,0E0,0E0,0E0,0E0,0E0],"parents":[2147483647,0,0,1,1,2,2,3,3,5,5,6,6,7,7,8,8,9,9,10,10,11,11,12,12],"right_children":[2,4,6,8,-1,10,12,14,16,18,20,22,24,-1,-1,-1,-1,-1,-1,-1,-1,-1,-1,-1,-1],"split_conditions":[2.5E-1,4.865253E-3,1E0,2.4E-1,2.8316298E-2,1.5730426E-2,8E-1,2.200836E-1,2.1722953E-1,2.1549048E-1,4E-1,-1.1359414E-2,1.7247643E-1,-0E0,1.033693E-3,-1.7488884E-3,8.876685E-3,-3.8705322E-5,1.6908266E-3,5.8998325E-4,-2.8713673E-4,2.1110628E-4,-2.151098E-4,-9.924362E-4,-0E0],"split_indices":[11,3,1,7,0,3,8,6,6,6,10,3,3,0,0,0,0,0,0,0,0,0,0,0,0],"split_type":[0,0,0,0,0,0,0,0,0,0,0,0,0,0,0,0,0,0,0,0,0,0,0,0,0],"sum_hessian":[1.132E3,1.15E2,1.017E3,1.12E2,3E0,5.5E1,9.62E2,9.6E1,1.6E1,3.6E1,1.9E1,9.11E2,5.1E1,8.7E1,9E0,7E0,9E0,8E0,2.8E1,4E0,1.5E1,1.51E2,7.6E2,4.7E1,4E0],"tree_param":{"num_deleted":"0","num_feature":"12","num_nodes":"25","size_leaf_vector":"1"}},{"base_weights":[-3.473567E-4,2.4870949E-2,-5.4325555E-3,-0E0,1.7392159E-1,-3.1541884E-3,-2.0468323E-2,-5.0795116E-3,3.6471315E-2,-3.641494E-2,4.1093132E-1,-1.750283E-3,-2.376011E-2,-0E0,-2.7813489E-2,6.0405035E-4,-3.51286E-4,-2.8424297E-4,2.5252695E-3,-1.8658853E-3,-3.616942E-5,1.7909165E-3,3.4838513E-2,3.4911584E-4,-1.1327485E-4,1.1643681E-3,-9.304895E-4,9.528437E-4,-1.8838893E-4,-1.7138659E-3,-4.179379E-4],"categories":[],"categories_nodes":[],"categories_segments":[],"categories_sizes":[],"default_left":[0,0,0,0,0,0,0,0,0,0,0,0,0,0,0,0,0,0,0,0,0,0,0,0,0,0,0,0,0,0,0],"id":29,"left_children":[1,3,5,7,9,11,13,15,17,19,21,23,25,27,29,-1,-1,-1,-1,-1,-1,-1,-1,-1,-1,-1,-1,-1,-1,-1,-1],"loss_changes":[1.4271788E-1,7.0166254E-1,2.984328E-2,2.7632428E-2,1.3984144E0,2.1273604E-2,1.7092392E-2,2.3298942E-2,4.7720537E-2,7.200917E-3,3.2347178E0,2.0354789E-2,2.2218058E-2,6.18753E-3,2.7096897E-2,0E0,0E0,0E0,0E0,0E0,0E0,0E0,0E0,0E0,0E0,0E0,0E0,0E0,0E0,0E0,0E0],"parents":[2147483647,0,0,1,1,2,2,3,3,4,4,5,5,6,6,7,7,8,8,9,9,10,10,11,11,12,12,13,13,14,14],"right_children":[2,4,6,8,10,12,14,16,18,20,22,24,26,28,30,-1,-1,-1,-1,-1,-1,-1,-1,-1,-1,-1,-1,-1,-1,-1,-1],"split_conditions":[2.8E-1,6.2499947E1,6.666636E1,2.983195E-1,2.1175714E-1,7.229299E-1,-2.360129E-3,2.3123904E-1,3.3333282E1,8.301987E-2,1.12505E-3,-1.4556175E-2,-4.2776827E-2,2.5031692E-1,4.297621E-1,6.0405035E-4,-3.51286E-4,-2.8424297E-4,2.5252695E-3,-1.8658853E-3,-3.616942E-5,1.7909165E-3,3.4838513E-2,3.4911584E-4,-1.1327485E-4,1.1643681E-3,-9.304895E-4,9.528437E-4,-1.8838893E-4,-1.7138659E-3,-4.179379E-4],"split_indices":[10,2,2,5,6,6,4,5,2,0,4,4,4,6,5,0,0,0,0,0,0,0,0,0,0,0,0,0,0,0,0],"split_type":[0,0,0,0,0,0,0,0,0,0,0,0,0,0,0,0,0,0,0,0,0,0,0,0,0,0,0,0,0,0,0],"sum_hessian":[1.126E3,1.85E2,9.41E2,1.59E2,2.6E1,8.24E2,1.17E2,1.42E2,1.7E1,1.4E1,1.2E1,7.77E2,4.7E1,3.2E1,8.5E1,2.6E1,1.16E2,8E0,9E0,6E0,8E0,9E0,3E0,9.5E1,6.82E2,3E0,4.4E1,4E0,2.8E1,2.4E1,6.1E1],"tree_param":{"num_deleted":"0","num_feature":"12","num_nodes":"31","size_leaf_vector":"1"}},{"base_weights":[-4.3308426E-4,4.84501E-2,-5.8988696E-3,1.8809931E-2,5.424113E-1,1.973254E-2,-7.5139278E-3,2.689287E-3,1.4723279E-1,-1.992977E-3,6.974666E-1,1.02142885E-1,-0E0,-3.3119243E-2,-6.2379283E-3,8.014694E-4,-1.6760152E-5,-2.5051204E-4,2.7045969E-2,-1.3681004E-3,2.758905E-2,-0E0,3.229757E-3,-3.605443E-4,7.3206227E-4,-0E0,-1.2656521E-3,1.1403923E-3,-2.2327613E-4],"categories":[],"categories_nodes":[],"categories_segments":[],"categories_sizes":[],"default_left":[0,0,0,0,0,0,0,0,0,0,0,0,0,0,0,0,0,0,0,0,0,0,0,0,0,0,0,0,0],"id":30,"left_children":[1,3,5,7,9,11,13,15,17,-1,19,21,23,25,27,-1,-1,-1,-1,-1,-1,-1,-1,-1,-1,-1,-1,-1,-1],"loss_changes":[2.928732E-1,1.5441954E0,4.0405422E-2,2.0198905E-1,6.758648E-1,9.2959955E-2,2.6798427E-2,1.0044103E-2,1.3877658E0,0E0,9.547744E-1,1.1388212E-3,1.3553865E-2,1.5543036E-2,4.5573663E-2,0E0,0E0,0E0,0E0,0E0,0E0,0E0,0E0,0E0,0E0,0E0,0E0,0E0,0E0],"parents":[2147483647,0,0,1,1,2,2,3,3,4,4,5,5,6,6,7,7,8,8,10,10,11,11,12,12,13,13,14,14],"right_children":[2,4,6,8,10,12,14,16,18,-1,20,22,24,26,28,-1,-1,-1,-1,-1,-1,-1,-1,-1,-1,-1,-1,-1,-1],"split_conditions":[2.6493412E-1,2.5E-1,1E0,6.2499947E1,3.7636799E-3,3.6841682E-1,2.4951428E-1,2.0722954E-1,2.476539E-1,-1.992977E-3,4.9999912E1,-2.4178816E-2,6.2E-1,2.85714E1,2.5587493E-1,8.014694E-4,-1.6760152E-5,-2.5051204E-4,2.7045969E-2,-1.3681004E-3,2.758905E-2,-0E0,3.229757E-3,-3.605443E-4,7.3206227E-4,-0E0,-1.2656521E-3,1.1403923E-3,-2.2327613E-4],"split_indices":[5,7,1,2,3,5,6,6,5,0,2,3,9,2,6,0,0,0,0,0,0,0,0,0,0,0,0,0,0],"split_type":[0,0,0,0,0,0,0,0,0,0,0,0,0,0,0,0,0,0,0,0,0,0,0,0,0,0,0,0,0],"sum_hessian":[1.11E3,1.09E2,1.001E3,1.04E2,5E0,5.5E1,9.46E2,9.4E1,1E1,1E0,4E0,1E1,4.5E1,4E1,9.06E2,1.4E1,8E1,9E0,1E0,1E0,3E0,1E0,9E0,3.1E1,1.4E1,7E0,3.3E1,2.1E1,8.85E2],"tree_param":{"num_deleted":"0","num_feature":"12","num_nodes":"29","size_leaf_vector":"1"}},{"base_weights":[2.2370769E-3,4.7408443E-2,-3.2987394E-3,1.8325908E-2,2.6490971E-2,1.6764697E-2,-4.655446E-3,-2.728049E-3,1.7255214E-1,5.0907694E-2,-5.892353E-3,1.2380815E-2,-6.5942653E-3,1.0469955E-4,-1.3251784E-3,-1.068657E-3,1.8480739E-2,4.3303035E-3,-1.3264135E-4,-6.7911594E-4,-0E0,1.2288416E-3,4.918384E-5,-4.6703406E-4,-6.703378E-5],"categories":[],"categories_nodes":[],"categories_segments":[],"categories_sizes":[],"default_left":[0,0,0,0,0,0,0,0,0,0,0,0,0,0,0,0,0,0,0,0,0,0,0,0,0],"id":31,"left_children":[1,3,5,7,-1,9,11,13,15,17,19,21,23,-1,-1,-1,-1,-1,-1,-1,-1,-1,-1,-1,-1],"loss_changes":[2.8163427E-1,2.8828351E0,2.5706235E-2,4.0710184E-1,0E0,4.9669117E-2,3.0188072E-2,3.153902E-2,1.464776E0,1.4387324E-1,4.9688383E-3,2.3302224E-2,3.1048205E-2,0E0,0E0,0E0,0E0,0E0,0E0,0E0,0E0,0E0,0E0,0E0,0E0],"parents":[2147483647,0,0,1,1,2,2,3,3,5,5,6,6,7,7,8,8,9,9,10,10,11,11,12,12],"right_children":[2,4,6,8,-1,10,12,14,16,18,20,22,24,-1,-1,-1,-1,-1,-1,-1,-1,-1,-1,-1,-1],"split_conditions":[2.6E-1,4.865253E-3,2.8E-1,6.2499947E1,2.6490971E-2,-6.6415602E-3,2.3809507E1,2.4E-1,1.2095001E-3,3.0548078E-1,2.7E-1,3.8E-1,5E-1,1.0469955E-4,-1.3251784E-3,-1.068657E-3,1.8480739E-2,4.3303035E-3,-1.3264135E-4,-6.7911594E-4,-0E0,1.2288416E-3,4.918384E-5,-4.6703406E-4,-6.703378E-5],"split_indices":[10,3,10,2,0,4,2,7,4,0,10,10,10,0,0,0,0,0,0,0,0,0,0,0,0],"split_type":[0,0,0,0,0,0,0,0,0,0,0,0,0,0,0,0,0,0,0,0,0,0,0,0,0],"sum_hessian":[1.107E3,1.22E2,9.85E2,1.19E2,3E0,5.7E1,9.28E2,1.05E2,1.4E1,2.4E1,3.3E1,8.9E1,8.39E2,9E1,1.5E1,1E1,4E0,9E0,1.5E1,1.1E1,2.2E1,2.1E1,6.8E1,2.66E2,5.73E2],"tree_param":{"num_deleted":"0","num_feature":"12","num_nodes":"25","size_leaf_vector":"1"}},{"base_weights":[2.1143407E-3,5.5996682E-2,-3.629493E-3,2.5226986E-2,2.5894923E-2,6.9121793E-3,-6.431422E-3,-3.0923495E-4,2.4213189E-1,4.551087E-2,-9.373204E-4,-2.1866485E-2,-1.450991E-3,1.21391175E-4,-1.3383857E-3,-3.6273553E-4,3.1264942E-2,-3.0450983E-4,2.3658213E-3,5.083805E-4,-2.770703E-4,-3.0210704E-4,-1.1692189E-3,4.42588E-4,-8.914513E-5],"categories":[],"categories_nodes":[],"categories_segments":[],"categories_sizes":[],"default_left":[0,0,0,0,0,0,0,0,0,0,0,0,0,0,0,0,0,0,0,0,0,0,0,0,0],"id":32,"left_children":[1,3,5,7,-1,9,11,13,15,17,19,21,23,-1,-1,-1,-1,-1,-1,-1,-1,-1,-1,-1,-1],"loss_changes":[3.6290234E-1,2.6958873E0,3.0803494E-2,6.3353956E-1,0E0,6.873187E-2,6.159508E-2,2.334112E-2,2.5562506E0,7.821059E-2,2.5355874E-2,3.4660332E-2,1.4511006E-2,0E0,0E0,0E0,0E0,0E0,0E0,0E0,0E0,0E0,0E0,0E0,0E0],"parents":[2147483647,0,0,1,1,2,2,3,3,5,5,6,6,7,7,8,8,9,9,10,10,11,11,12,12],"right_children":[2,4,6,8,-1,10,12,14,16,18,20,22,24,-1,-1,-1,-1,-1,-1,-1,-1,-1,-1,-1,-1],"split_conditions":[2.5E-1,4.865253E-3,3.5E-1,6.2499947E1,2.5894923E-2,-1.1224591E-2,4.7929165E-1,2.4E-1,2.476539E-1,-2.4178816E-2,2.566805E-1,3.2786601E-3,5.142979E-1,1.21391175E-4,-1.3383857E-3,-3.6273553E-4,3.1264942E-2,-3.0450983E-4,2.3658213E-3,5.083805E-4,-2.770703E-4,-3.0210704E-4,-1.1692189E-3,4.42588E-4,-8.914513E-5],"split_indices":[11,3,9,2,0,3,6,7,5,3,6,3,6,0,0,0,0,0,0,0,0,0,0,0,0],"split_type":[0,0,0,0,0,0,0,0,0,0,0,0,0,0,0,0,0,0,0,0,0,0,0,0,0],"sum_hessian":[1.154E3,1.12E2,1.042E3,1.09E2,3E0,2.11E2,8.31E2,9.8E1,1.1E1,3.7E1,1.74E2,1.97E2,6.34E2,8.8E1,1E1,9E0,2E0,1.3E1,2.4E1,5.1E1,1.23E2,1.21E2,7.6E1,4.8E1,5.86E2],"tree_param":{"num_deleted":"0","num_feature":"12","num_nodes":"25","size_leaf_vector":"1"}},{"base_weights":[9.97471E-4,3.1893916E-2,-4.9525714E-3,1.47727765E-2,3.539548E-1,-2.5501142E-3,-2.1379413E-2,3.4310634E-3,1.0364434E-1,2.630477E-2,-3.6951587E-2,-1.5538295E-3,-3.3091333E-2,-0E0,-3.4263626E-2,-2.881239E-5,1.1699953E-3,1.422263E-2,-0E0,-1.5505798E-3,-0E0,-1.3873093E-4,2.6109305E-4,1.1306342E-3,-1.5177778E-3,-4.118615E-4,3.512747E-4,-2.8251782E-3,-4.7457038E-4],"categories":[],"categories_nodes":[],"categories_segments":[],"categories_sizes":[],"default_left":[0,0,0,0,0,0,0,0,0,0,0,0,0,0,0,0,0,0,0,0,0,0,0,0,0,0,0,0,0],"id":33,"left_children":[1,3,5,7,9,11,13,15,17,-1,19,21,23,25,27,-1,-1,-1,-1,-1,-1,-1,-1,-1,-1,-1,-1,-1,-1],"loss_changes":[2.1021816E-1,9.7799754E-1,3.480728E-2,1.6734503E-1,1.9559296E0,2.1739101E-2,2.9615615E-2,2.8677113E-2,6.949357E-1,0E0,2.4932483E-3,2.5079742E-2,3.1687863E-2,7.676864E-3,6.486098E-2,0E0,0E0,0E0,0E0,0E0,0E0,0E0,0E0,0E0,0E0,0E0,0E0,0E0,0E0],"parents":[2147483647,0,0,1,1,2,2,3,3,4,4,5,5,6,6,7,7,8,8,10,10,11,11,12,12,13,13,14,14],"right_children":[2,4,6,8,10,12,14,16,18,-1,20,22,24,26,28,-1,-1,-1,-1,-1,-1,-1,-1,-1,-1,-1,-1,-1,-1],"split_conditions":[2.8E-1,4.0040207E-3,6.666636E1,6.2499947E1,1.16561055E-1,8.4E-1,3.8155825E-3,2.947614E-1,6.666651E1,2.630477E-2,1.6666272E-1,4.312469E-1,-4.498514E-2,6.874994E1,4E-1,-2.881239E-5,1.1699953E-3,1.422263E-2,-0E0,-1.5505798E-3,-0E0,-1.3873093E-4,2.6109305E-4,1.1306342E-3,-1.5177778E-3,-4.118615E-4,3.512747E-4,-2.8251782E-3,-4.7457038E-4],"split_indices":[11,3,2,2,0,11,3,5,2,0,0,0,3,2,7,0,0,0,0,0,0,0,0,0,0,0,0,0,0],"split_type":[0,0,0,0,0,0,0,0,0,0,0,0,0,0,0,0,0,0,0,0,0,0,0,0,0,0,0,0,0],"sum_hessian":[1.127E3,1.84E2,9.43E2,1.76E2,8E0,8.29E2,1.14E2,1.58E2,1.8E1,3E0,5E0,8.07E2,2.2E1,4.5E1,6.9E1,1.39E2,1.9E1,3E0,1.5E1,3E0,2E0,6.29E2,1.78E2,3E0,1.9E1,2.3E1,2.2E1,1.4E1,5.5E1],"tree_param":{"num_deleted":"0","num_feature":"12","num_nodes":"29","size_leaf_vector":"1"}},{"base_weights":[3.759988E-4,4.071355E-2,-3.2120533E-3,-9.171744E-3,2.3074771E-1,6.3964278E-3,-6.8050562E-3,4.25788E-2,-1.7478956E-2,-0E0,5.8621544E-1,3.9969705E-2,-6.797346E-4,-2.3550468E-2,-2.146075E-3,-0E0,1.4335548E-3,-1.8487287E-4,-1.2716141E-3,2.7138303E-5,-1.2843665E-3,2.3031067E-2,-0E0,-1.2501574E-4,1.8008276E-3,2.3316019E-5,-1.578424E-3,-3.4775803E-4,-1.7702107E-3,-7.38014E-6,-7.473772E-4],"categories":[],"categories_nodes":[],"categories_segments":[],"categories_sizes":[],"default_left":[0,0,0,0,0,0,0,0,0,0,0,0,0,0,0,0,0,0,0,0,0,0,0,0,0,0,0,0,0,0,0],"id":34,"left_children":[1,3,5,7,9,11,13,15,17,19,21,23,25,27,29,-1,-1,-1,-1,-1,-1,-1,-1,-1,-1,-1,-1,-1,-1,-1,-1],"loss_changes":[1.662716E-1,9.153854E-1,3.560887E-2,3.0476954E-2,1.684298E0,6.8812765E-2,5.643834E-2,1.9507874E-3,1.3769399E-2,3.6755917E-3,7.8701305E-1,5.010082E-2,2.2173557E-2,6.009745E-2,2.3346268E-2,0E0,0E0,0E0,0E0,0E0,0E0,0E0,0E0,0E0,0E0,0E0,0E0,0E0,0E0,0E0,0E0],"parents":[2147483647,0,0,1,1,2,2,3,3,4,4,5,5,6,6,7,7,8,8,9,9,10,10,11,11,12,12,13,13,14,14],"right_children":[2,4,6,8,10,12,14,16,18,20,22,24,26,28,30,-1,-1,-1,-1,-1,-1,-1,-1,-1,-1,-1,-1,-1,-1,-1,-1],"split_conditions":[2.1759675E-1,2.1224545E-1,3.6E-1,2.2846296E-1,4.9999912E1,-9.203923E-3,4.842907E-1,7.1570516E-2,6.2499947E1,4.0040207E-3,1.16561055E-1,2.6366425E-1,7.821234E-3,3.8092218E-3,7.229299E-1,-0E0,1.4335548E-3,-1.8487287E-4,-1.2716141E-3,2.7138303E-5,-1.2843665E-3,2.3031067E-2,-0E0,-1.2501574E-4,1.8008276E-3,2.3316019E-5,-1.578424E-3,-3.4775803E-4,-1.7702107E-3,-7.38014E-6,-7.473772E-4],"split_indices":[6,6,7,5,2,3,6,0,2,3,0,0,3,4,6,0,0,0,0,0,0,0,0,0,0,0,0,0,0,0,0],"split_type":[0,0,0,0,0,0,0,0,0,0,0,0,0,0,0,0,0,0,0,0,0,0,0,0,0,0,0,0,0,0,0],"sum_hessian":[1.121E3,9.3E1,1.028E3,7.4E1,1.9E1,2.72E2,7.56E2,8E0,6.6E1,1.2E1,7E0,4.9E1,2.23E2,1.59E2,5.97E2,1E0,7E0,4.9E1,1.7E1,1.1E1,1E0,5E0,2E0,1.4E1,3.5E1,2.16E2,7E0,1.22E2,3.7E1,5.56E2,4.1E1],"tree_param":{"num_deleted":"0","num_feature":"12","num_nodes":"31","size_leaf_vector":"1"}},{"base_weights":[1.3285367E-3,4.350399E-2,-3.796246E-3,1.6866885E-2,2.4202233E-2,9.580157E-3,-5.349997E-3,-3.479837E-3,1.6619259E-1,3.2993354E-2,-1.1088116E-2,-1.5251525E-2,-7.6372776E-4,8.067531E-5,-1.5406203E-3,-9.403704E-4,3.0003825E-2,-1.0720869E-5,1.8119846E-3,-6.847287E-4,-0E0,-1.5042695E-4,-1.1256827E-3,1.4023884E-5,-5.7577394E-4],"categories":[],"categories_nodes":[],"categories_segments":[],"categories_sizes":[],"default_left":[0,0,0,0,0,0,0,0,0,0,0,0,0,0,0,0,0,0,0,0,0,0,0,0,0],"id":35,"left_children":[1,3,5,7,-1,9,11,13,15,17,19,21,23,-1,-1,-1,-1,-1,-1,-1,-1,-1,-1,-1,-1],"loss_changes":[2.4513206E-1,2.4046743E0,2.0266354E-2,3.8144425E-1,0E0,4.9495667E-2,3.9120566E-2,3.6310248E-2,2.5992393E0,4.9898475E-2,5.313543E-3,5.8713354E-2,1.5971519E-2,0E0,0E0,0E0,0E0,0E0,0E0,0E0,0E0,0E0,0E0,0E0,0E0],"parents":[2147483647,0,0,1,1,2,2,3,3,5,5,6,6,7,7,8,8,9,9,10,10,11,11,12,12],"right_children":[2,4,6,8,-1,10,12,14,16,18,20,22,24,-1,-1,-1,-1,-1,-1,-1,-1,-1,-1,-1,-1],"split_conditions":[2.7101156E-1,4.865253E-3,2.9E-1,6.2499947E1,2.4202233E-2,-4.193139E-3,4.7929165E-1,2.4E-1,2.476539E-1,2.4858138E-1,-2.46179E-3,2.5564004E-3,7.198468E-1,8.067531E-5,-1.5406203E-3,-9.403704E-4,3.0003825E-2,-1.0720869E-5,1.8119846E-3,-6.847287E-4,-0E0,-1.5042695E-4,-1.1256827E-3,1.4023884E-5,-5.7577394E-4],"split_indices":[5,3,9,2,0,4,6,7,5,6,4,3,6,0,0,0,0,0,0,0,0,0,0,0,0],"split_type":[0,0,0,0,0,0,0,0,0,0,0,0,0,0,0,0,0,0,0,0,0,0,0,0,0],"sum_hessian":[1.114E3,1.22E2,9.92E2,1.19E2,3E0,9.6E1,8.96E2,1.05E2,1.4E1,4.7E1,4.9E1,2.76E2,6.2E2,9.2E1,1.3E1,1.2E1,2E0,2E1,2.7E1,2.1E1,2.8E1,1.93E2,8.3E1,5.77E2,4.3E1],"tree_param":{"num_deleted":"0","num_feature":"12","num_nodes":"25","size_leaf_vector":"1"}},{"base_weights":[2.4576576E-3,5.303647E-2,-3.1325223E-3,2.5151351E-2,2.3657681E-2,5.6193224E-3,-5.820155E-3,6.240509E-4,2.1911624E-1,3.9608672E-2,-4.2170854E-3,-2.5455555E-2,-3.6613834E-3,6.588992E-4,-1.7456927E-4,-6.329408E-4,2.9403752E-2,2.4036143E-3,5.3433166E-4,-1.8896308E-4,9.885661E-4,-4.2877815E-4,-2.3395128E-3,3.039049E-3,-1.2719288E-4],"categories":[],"categories_nodes":[],"categories_segments":[],"categories_sizes":[],"default_left":[0,0,0,0,0,0,0,0,0,0,0,0,0,0,0,0,0,0,0,0,0,0,0,0,0],"id":36,"left_children":[1,3,5,7,-1,9,11,13,15,17,19,21,23,-1,-1,-1,-1,-1,-1,-1,-1,-1,-1,-1,-1],"loss_changes":[3.2380977E-1,2.2370439E0,2.390384E-2,5.059645E-1,0E0,8.060281E-2,3.0269952E-2,1.5491177E-2,2.3102436E0,3.646511E-2,1.12375375E-2,3.2462765E-2,3.400842E-2,0E0,0E0,0E0,0E0,0E0,0E0,0E0,0E0,0E0,0E0,0E0,0E0],"parents":[2147483647,0,0,1,1,2,2,3,3,5,5,6,6,7,7,8,8,9,9,10,10,11,11,12,12],"right_children":[2,4,6,8,-1,10,12,14,16,18,20,22,24,-1,-1,-1,-1,-1,-1,-1,-1,-1,-1,-1,-1],"split_conditions":[2.5E-1,4.865253E-3,3.9412224E-1,6.2499947E1,2.3657681E-2,-7.258144E-3,4.215663E-1,2.3123904E-1,2.476539E-1,2.8E-1,4.0746984E-1,5.184382E-3,4.2280638E-1,6.588992E-4,-1.7456927E-4,-6.329408E-4,2.9403752E-2,2.4036143E-3,5.3433166E-4,-1.8896308E-4,9.885661E-4,-4.2877815E-4,-2.3395128E-3,3.039049E-3,-1.2719288E-4],"split_indices":[11,3,5,2,0,4,5,5,5,8,0,4,5,0,0,0,0,0,0,0,0,0,0,0,0],"split_type":[0,0,0,0,0,0,0,0,0,0,0,0,0,0,0,0,0,0,0,0,0,0,0,0,0],"sum_hessian":[1.126E3,1.13E2,1.013E3,1.1E2,3E0,2.29E2,7.84E2,9.9E1,1.1E1,5.3E1,1.76E2,7.2E1,7.12E2,2.6E1,7.3E1,9E0,2E0,1.6E1,3.7E1,1.7E2,6E0,6.2E1,1E1,2E0,7.1E2],"tree_param":{"num_deleted":"0","num_feature":"12","num_nodes":"25","size_leaf_vector":"1"}},{"base_weights":[1.2073856E-3,4.516335E-2,-3.8266014E-3,1.8427432E-2,2.3125386E-2,5.0626276E-3,-7.165419E-3,-1.364888E-3,1.558144E-1,1.8118177E-2,-6.814869E-3,-5.088058E-2,-4.7051813E-3,8.315901E-5,-1.6383659E-3,-1.025427E-3,2.8815677E-2,3.1332293E-4,1.9911856E-3,-5.0264556E-4,1.1118955E-4,-8.945855E-4,-3.677899E-3,-1.1611552E-4,-1.3191876E-3],"categories":[],"categories_nodes":[],"categories_segments":[],"categories_sizes":[],"default_left":[0,0,0,0,0,0,0,0,0,0,0,0,0,0,0,0,0,0,0,0,0,0,0,0,0],"id":37,"left_children":[1,3,5,7,-1,9,11,13,15,17,19,21,23,-1,-1,-1,-1,-1,-1,-1,-1,-1,-1,-1,-1],"loss_changes":[2.5169057E-1,2.1768782E0,2.9985428E-2,3.256472E-1,0E0,4.2501688E-2,7.346614E-2,2.7363045E-2,2.4188273E0,4.0135726E-2,1.5589891E-2,3.698802E-2,1.8020988E-2,0E0,0E0,0E0,0E0,0E0,0E0,0E0,0E0,0E0,0E0,0E0,0E0],"parents":[2147483647,0,0,1,1,2,2,3,3,5,5,6,6,7,7,8,8,9,9,10,10,11,11,12,12],"right_children":[2,4,6,8,-1,10,12,14,16,18,20,22,24,-1,-1,-1,-1,-1,-1,-1,-1,-1,-1,-1,-1],"split_conditions":[2.5E-1,4.865253E-3,3.3306083E-1,6.2499947E1,2.3125386E-2,-3.1535951E-3,4.118341E-1,2.4E-1,2.4761114E-1,3.2121947E-1,3.542937E-1,-5.8168643E-3,9E-1,8.315901E-5,-1.6383659E-3,-1.025427E-3,2.8815677E-2,3.1332293E-4,1.9911856E-3,-5.0264556E-4,1.1118955E-4,-8.945855E-4,-3.677899E-3,-1.1611552E-4,-1.3191876E-3],"split_indices":[11,3,6,2,0,4,5,7,5,6,5,3,11,0,0,0,0,0,0,0,0,0,0,0,0],"split_type":[0,0,0,0,0,0,0,0,0,0,0,0,0,0,0,0,0,0,0,0,0,0,0,0,0],"sum_hessian":[1.117E3,1.16E2,1.001E3,1.13E2,3E0,2.65E2,7.36E2,9.9E1,1.4E1,1.3E2,1.35E2,3.6E1,7E2,9.1E1,8E0,1.2E1,2E0,1.15E2,1.5E1,7.4E1,6.1E1,3E1,6E0,6.89E2,1.1E1],"tree_param":{"num_deleted":"0","num_feature":"12","num_nodes":"25","size_leaf_vector":"1"}},{"base_weights":[2.6886424E-3,4.953689E-2,-2.3387903E-3,2.2079505E-2,2.2605063E-2,2.358785E-2,-4.0104045E-3,-0E0,1.1315829E-1,9.444506E-2,4.7749938E-3,-2.6581919E-2,-2.8631699E-3,-1.4027291E-4,1.2744113E-3,-2.0199323E-4,9.639704E-3,-0E0,3.0021921E-3,-1.3229024E-4,1.6852889E-3,-0E0,-1.0276919E-3,1.27766E-3,-1.289069E-4],"categories":[],"categories_nodes":[],"categories_segments":[],"categories_sizes":[],"default_left":[0,0,0,0,0,0,0,0,0,0,0,0,0,0,0,0,0,0,0,0,0,0,0,0,0],"id":38,"left_children":[1,3,5,7,-1,9,11,13,15,17,19,21,23,-1,-1,-1,-1,-1,-1,-1,-1,-1,-1,-1,-1],"loss_changes":[2.6980287E-1,2.051329E0,4.212628E-2,2.162503E-1,0E0,6.694257E-2,2.1786619E-2,1.7990265E-2,5.57724E-1,2.0276234E-3,2.808537E-2,1.0221889E-2,5.611062E-2,0E0,0E0,0E0,0E0,0E0,0E0,0E0,0E0,0E0,0E0,0E0,0E0],"parents":[2147483647,0,0,1,1,2,2,3,3,5,5,6,6,7,7,8,8,9,9,10,10,11,11,12,12],"right_children":[2,4,6,8,-1,10,12,14,16,18,20,22,24,-1,-1,-1,-1,-1,-1,-1,-1,-1,-1,-1,-1],"split_conditions":[2.5E-1,4.865253E-3,1E0,2.4822795E-1,2.2605063E-2,3.6841682E-1,2.4951428E-1,2.200836E-1,2E0,2.7604485E-1,6.5E-1,-4.637293E-2,2.5587493E-1,-1.4027291E-4,1.2744113E-3,-2.0199323E-4,9.639704E-3,-0E0,3.0021921E-3,-1.3229024E-4,1.6852889E-3,-0E0,-1.0276919E-3,1.27766E-3,-1.289069E-4],"split_indices":[11,3,1,5,0,5,6,6,1,5,10,6,6,0,0,0,0,0,0,0,0,0,0,0,0],"split_type":[0,0,0,0,0,0,0,0,0,0,0,0,0,0,0,0,0,0,0,0,0,0,0,0,0],"sum_hessian":[1.124E3,1.1E2,1.014E3,1.07E2,3E0,5.7E1,9.57E2,8.7E1,2E1,1E1,4.7E1,4.1E1,9.16E2,7.9E1,8E0,1.3E1,7E0,1E0,9E0,3.9E1,8E0,8E0,3.3E1,2.5E1,8.91E2],"tree_param":{"num_deleted":"0","num_feature":"12","num_nodes":"25","size_leaf_vector":"1"}},{"base_weights":[5.866083E-4,3.4760643E-2,-3.3251068E-3,8.72603E-3,2.209645E-2,-1.6594201E-3,-1.6797058E-2,-2.0855647E-3,9.247127E-2,-3.736446E-3,1.2136812E-2,-3.415786E-4,-2.802785E-2,7.823879E-5,-1.3516621E-3,-5.0669134E-4,2.421246E-2,1.0571006E-4,-2.2676929E-4,1.499109E-4,1.0373618E-3,1.1161277E-3,-1.8455557E-4,-0E0,-1.0374048E-3],"categories":[],"categories_nodes":[],"categories_segments":[],"categories_sizes":[],"default_left":[0,0,0,0,0,0,0,0,0,0,0,0,0,0,0,0,0,0,0,0,0,0,0,0,0],"id":39,"left_children":[1,3,5,7,-1,9,11,13,15,17,19,21,23,-1,-1,-1,-1,-1,-1,-1,-1,-1,-1,-1,-1],"loss_changes":[1.5070717E-1,2.038455E0,2.029725E-2,1.1154382E-1,0E0,2.4622414E-2,1.6003907E-2,2.4530247E-2,1.186758E0,2.2021234E-2,1.3494978E-2,7.1586077E-3,1.3816651E-2,0E0,0E0,0E0,0E0,0E0,0E0,0E0,0E0,0E0,0E0,0E0,0E0],"parents":[2147483647,0,0,1,1,2,2,3,3,5,5,6,6,7,7,8,8,9,9,10,10,11,11,12,12],"right_children":[2,4,6,8,-1,10,12,14,16,18,20,22,24,-1,-1,-1,-1,-1,-1,-1,-1,-1,-1,-1,-1],"split_conditions":[2.5E-1,4.865253E-3,7.5E-1,6.2499947E1,2.209645E-2,7.465769E-1,5.194021E-1,2.4E-1,2.476539E-1,3.2798377E-1,2.0590997E-3,-4.498514E-2,-4.637293E-2,7.823879E-5,-1.3516621E-3,-5.0669134E-4,2.421246E-2,1.0571006E-4,-2.2676929E-4,1.499109E-4,1.0373618E-3,1.1161277E-3,-1.8455557E-4,-0E0,-1.0374048E-3],"split_indices":[11,3,7,2,0,5,0,7,5,6,4,3,6,0,0,0,0,0,0,0,0,0,0,0,0],"split_type":[0,0,0,0,0,0,0,0,0,0,0,0,0,0,0,0,0,0,0,0,0,0,0,0,0],"sum_hessian":[1.102E3,1.15E2,9.87E2,1.12E2,3E0,8.86E2,1.01E2,9.9E1,1.3E1,7.77E2,1.09E2,4.5E1,5.6E1,8.8E1,1.1E1,1.2E1,1E0,2.59E2,5.18E2,8.7E1,2.2E1,3E0,4.2E1,8E0,4.8E1],"tree_param":{"num_deleted":"0","num_feature":"12","num_nodes":"25","size_leaf_vector":"1"}},{"base_weights":[1.3221609E-3,3.841938E-2,-3.1600478E-3,-4.99142E-3,2.974819E-1,-1.0370512E-3,-1.6290594E-2,3.162906E-3,-1.9337595E-2,-2.1650916E-2,2.868068E-2,-3.434465E-4,-4.197883E-2,1.4978835E-2,-2.504516E-2,-2.2802025E-4,5.42757E-4,5.233835E-4,-8.5430214E-4,-1.2016235E-3,1.4309448E-4,-1.3065223E-3,1.498371E-6,-0E0,-1.3814537E-3,2.0903323E-3,-0E0,-8.703707E-4,2.9474686E-4],"categories":[],"categories_nodes":[],"categories_segments":[],"categories_sizes":[],"default_left":[0,0,0,0,0,0,0,0,0,0,0,0,0,0,0,0,0,0,0,0,0,0,0,0,0,0,0,0,0],"id":40,"left_children":[1,3,5,7,9,11,13,15,17,19,-1,21,23,25,27,-1,-1,-1,-1,-1,-1,-1,-1,-1,-1,-1,-1,-1,-1],"loss_changes":[1.8954556E-1,1.4140056E0,2.6014943E-2,1.40788695E-2,3.897052E0,2.0317111E-2,3.7516814E-2,1.1470758E-2,1.605525E-2,1.0040421E-2,0E0,1.8868046E-2,2.1784026E-3,2.7927054E-2,1.6867451E-2,0E0,0E0,0E0,0E0,0E0,0E0,0E0,0E0,0E0,0E0,0E0,0E0,0E0,0E0],"parents":[2147483647,0,0,1,1,2,2,3,3,4,4,5,5,6,6,7,7,8,8,9,9,11,11,12,12,13,13,14,14],"right_children":[2,4,6,8,10,12,14,16,18,20,-1,22,24,26,28,-1,-1,-1,-1,-1,-1,-1,-1,-1,-1,-1,-1,-1,-1],"split_conditions":[2.5E-1,6.2499947E1,6.428565E1,4.444441E1,2.476539E-1,9E-1,-4.1376874E-3,-2.9169992E-3,2.0626031E-1,2.4557152E-1,2.868068E-2,-4.907541E-2,-2.9435102E-2,2.9E-1,7.0673823E-1,-2.2802025E-4,5.42757E-4,5.233835E-4,-8.5430214E-4,-1.2016235E-3,1.4309448E-4,-1.3065223E-3,1.498371E-6,-0E0,-1.3814537E-3,2.0903323E-3,-0E0,-8.703707E-4,2.9474686E-4],"split_indices":[11,2,2,2,5,11,4,4,6,5,0,4,4,11,6,0,0,0,0,0,0,0,0,0,0,0,0,0,0],"split_type":[0,0,0,0,0,0,0,0,0,0,0,0,0,0,0,0,0,0,0,0,0,0,0,0,0,0,0,0,0],"sum_hessian":[1.117E3,1.22E2,9.95E2,1.05E2,1.7E1,8.64E2,1.31E2,6.3E1,4.2E1,1.2E1,5E0,8.53E2,1.1E1,2.6E1,1.05E2,3.3E1,3E1,6E0,3.6E1,9E0,3E0,9E0,8.44E2,1E0,1E1,6E0,2E1,9.7E1,8E0],"tree_param":{"num_deleted":"0","num_feature":"12","num_nodes":"29","size_leaf_vector":"1"}},{"base_weights":[7.6638686E-4,3.178156E-2,-2.6942035E-3,1.5687391E-2,1.7822042E-2,-9.2431466E-4,-1.4978972E-2,-3.1836384E-3,1.3654199E-1,-3.09317E-4,-4.0613737E-2,9.351802E-3,-1.9820178E-2,4.5556935E-6,-1.4188788E-3,-8.875688E-4,2.6988706E-2,3.1987997E-4,-7.020752E-5,-0E0,-1.3486146E-3,1.4318252E-3,-0E0,-9.0243074E-4,-1.7572774E-4],"categories":[],"categories_nodes":[],"categories_segments":[],"categories_sizes":[],"default_left":[0,0,0,0,0,0,0,0,0,0,0,0,0,0,0,0,0,0,0,0,0,0,0,0,0],"id":41,"left_children":[1,3,5,7,-1,9,11,13,15,17,19,21,23,-1,-1,-1,-1,-1,-1,-1,-1,-1,-1,-1,-1],"loss_changes":[1.2277555E-1,9.7040176E-1,2.018199E-2,2.7148408E-1,0E0,1.74726E-2,1.5249237E-2,1.9140963E-2,2.141922E0,1.8668376E-2,2.064228E-3,9.90282E-3,1.0986533E-2,0E0,0E0,0E0,0E0,0E0,0E0,0E0,0E0,0E0,0E0,0E0,0E0],"parents":[2147483647,0,0,1,1,2,2,3,3,5,5,6,6,7,7,8,8,9,9,10,10,11,11,12,12],"right_children":[2,4,6,8,-1,10,12,14,16,18,20,22,24,-1,-1,-1,-1,-1,-1,-1,-1,-1,-1,-1,-1],"split_conditions":[2.5E-1,4.865253E-3,6.6666565E1,6.2499947E1,1.7822042E-2,9E-1,3.1E-1,2.4E-1,2.476539E-1,-1.4556175E-2,-2.9435102E-2,-3.7927416E-3,6.7E-1,4.5556935E-6,-1.4188788E-3,-8.875688E-4,2.6988706E-2,3.1987997E-4,-7.020752E-5,-0E0,-1.3486146E-3,1.4318252E-3,-0E0,-9.0243074E-4,-1.7572774E-4],"split_indices":[11,3,2,2,0,11,11,7,5,4,4,4,9,0,0,0,0,0,0,0,0,0,0,0,0],"split_type":[0,0,0,0,0,0,0,0,0,0,0,0,0,0,0,0,0,0,0,0,0,0,0,0,0],"sum_hessian":[1.115E3,1.14E2,1.001E3,1.12E2,2E0,8.83E2,1.18E2,9.7E1,1.5E1,8.73E2,1E1,1.6E1,1.02E2,8.9E1,8E0,1.3E1,2E0,1.28E2,7.45E2,1E0,9E0,4E0,1.2E1,5.4E1,4.8E1],"tree_param":{"num_deleted":"0","num_feature":"12","num_nodes":"25","size_leaf_vector":"1"}},{"base_weights":[-1.6469273E-4,1.9795641E-2,-4.4281012E-3,-0E0,7.684172E-2,1.06162544E-4,-9.168339E-3,-5.167516E-3,7.580967E-2,-2.4400093E-2,1.8748528E-1,1.5424135E-3,-1.5162376E-2,-1.9477215E-2,-4.7541047E-3,-5.370626E-5,-2.1988477E-3,4.6902345E-3,1.4028067E-4,-1.5603522E-3,-2.5208887E-5,1.8524481E-2,1.096974E-3,-6.586767E-5,3.930452E-4,1.0837838E-3,-7.3550834E-4,-2.0977957E-4,-1.3655068E-3,7.6370203E-4,-2.0024113E-4],"categories":[],"categories_nodes":[],"categories_segments":[],"categories_sizes":[],"default_left":[0,0,0,0,0,0,0,0,0,0,0,0,0,0,0,0,0,0,0,0,0,0,0,0,0,0,0,0,0,0,0],"id":42,"left_children":[1,3,5,7,9,11,13,15,17,19,21,23,25,27,29,-1,-1,-1,-1,-1,-1,-1,-1,-1,-1,-1,-1,-1,-1,-1,-1],"loss_changes":[9.377675E-2,2.1369742E-1,2.0831658E-2,6.1102703E-2,5.6976914E-1,8.836656E-3,1.8598959E-2,2.3652127E-2,4.0452212E-2,1.1584733E-2,1.4694963E0,1.9741973E-2,1.6037367E-2,3.734317E-2,1.761335E-2,0E0,0E0,0E0,0E0,0E0,0E0,0E0,0E0,0E0,0E0,0E0,0E0,0E0,0E0,0E0,0E0],"parents":[2147483647,0,0,1,1,2,2,3,3,4,4,5,5,6,6,7,7,8,8,9,9,10,10,11,11,12,12,13,13,14,14],"right_children":[2,4,6,8,10,12,14,16,18,20,22,24,26,28,30,-1,-1,-1,-1,-1,-1,-1,-1,-1,-1,-1,-1,-1,-1,-1,-1],"split_conditions":[2.5587493E-1,6.2499947E1,4.4444374E1,2.527063E-1,2.1175714E-1,7.5E-1,5.1E-1,4.0040207E-3,-6.227774E-3,1.3112639E-1,1.16561055E-1,3.6995977E-1,2.9853962E-2,3.2786601E-3,5.130836E-1,-5.370626E-5,-2.1988477E-3,4.6902345E-3,1.4028067E-4,-1.5603522E-3,-2.5208887E-5,1.8524481E-2,1.096974E-3,-6.586767E-5,3.930452E-4,1.0837838E-3,-7.3550834E-4,-2.0977957E-4,-1.3655068E-3,7.6370203E-4,-2.0024113E-4],"split_indices":[6,2,2,6,6,7,11,3,3,0,0,0,0,3,6,0,0,0,0,0,0,0,0,0,0,0,0,0,0,0,0],"split_type":[0,0,0,0,0,0,0,0,0,0,0,0,0,0,0,0,0,0,0,0,0,0,0,0,0,0,0,0,0,0,0],"sum_hessian":[1.118E3,1.92E2,9.26E2,1.44E2,4.8E1,4.63E2,4.63E2,1.35E2,9E0,2.5E1,2.3E1,4.3E2,3.3E1,1.31E2,3.32E2,1.31E2,4E0,3E0,6E0,9E0,1.6E1,5E0,1.8E1,3.19E2,1.11E2,3E0,3E1,9.2E1,3.9E1,1.6E1,3.16E2],"tree_param":{"num_deleted":"0","num_feature":"12","num_nodes":"31","size_leaf_vector":"1"}},{"base_weights":[1.6799301E-3,3.9254986E-2,-2.5221144E-3,9.824127E-3,3.7041235E-1,1.1952458E-2,-4.408608E-3,-9.379944E-3,5.765166E-2,-2.0591856E-3,2.2661453E-2,3.9175518E-2,-6.394007E-4,-1.07506E-2,-8.498424E-4,1.18085925E-4,-5.0605374E-4,1.0863406E-2,-0E0,3.322779E-3,-3.0361995E-4,5.4496E-4,-1.4315273E-4,4.8546685E-4,-4.4183273E-4,9.125424E-4,-6.949056E-5],"categories":[],"categories_nodes":[],"categories_segments":[],"categories_sizes":[],"default_left":[0,0,0,0,0,0,0,0,0,0,0,0,0,0,0,0,0,0,0,0,0,0,0,0,0,0,0],"id":43,"left_children":[1,3,5,7,9,11,13,15,17,-1,-1,19,21,23,25,-1,-1,-1,-1,-1,-1,-1,-1,-1,-1,-1,-1],"loss_changes":[1.788746E-1,1.0694095E0,2.6495272E-2,1.02727175E-1,1.641717E0,4.1242648E-2,1.8872678E-2,8.838483E-3,5.492723E-1,0E0,0E0,1.417507E-1,4.4199987E-3,3.319176E-2,2.385602E-2,0E0,0E0,0E0,0E0,0E0,0E0,0E0,0E0,0E0,0E0,0E0,0E0],"parents":[2147483647,0,0,1,1,2,2,3,3,4,4,5,5,6,6,7,7,8,8,11,11,12,12,13,13,14,14],"right_children":[2,4,6,8,10,12,14,16,18,-1,-1,20,22,24,26,-1,-1,-1,-1,-1,-1,-1,-1,-1,-1,-1,-1],"split_conditions":[2.5E-1,2.5E-1,2.9E-1,2.4691641E-1,5.0777E-4,-6.6415602E-3,4.9677205E-1,2.3123904E-1,7.993524E-2,-2.0591856E-3,2.2661453E-2,3.0186963E-1,2.4999956E1,2.3529392E1,5.130836E-1,1.18085925E-4,-5.0605374E-4,1.0863406E-2,-0E0,3.322779E-3,-3.0361995E-4,5.4496E-4,-1.4315273E-4,4.8546685E-4,-4.4183273E-4,9.125424E-4,-6.949056E-5],"split_indices":[11,7,10,5,4,4,6,5,0,0,0,0,2,2,6,0,0,0,0,0,0,0,0,0,0,0,0],"split_type":[0,0,0,0,0,0,0,0,0,0,0,0,0,0,0,0,0,0,0,0,0,0,0,0,0,0,0],"sum_hessian":[1.108E3,1.13E2,9.95E2,1.05E2,8E0,1.08E2,8.87E2,7.4E1,3.1E1,4E0,4E0,3.6E1,7.2E1,3.08E2,5.79E2,2.2E1,5.2E1,4E0,2.7E1,1.5E1,2.1E1,8E0,6.4E1,3.6E1,2.72E2,2.2E1,5.57E2],"tree_param":{"num_deleted":"0","num_feature":"12","num_nodes":"27","size_leaf_vector":"1"}},{"base_weights":[8.5415103E-4,2.9010637E-2,-2.8500326E-3,-0E0,1.10546805E-1,2.5088347E-2,-4.062112E-3,-3.7836025E-3,4.24807E-2,3.360495E-2,1.9626284E-2,6.7414746E-2,-0E0,-3.014355E-2,-3.1113673E-3,1.2722304E-4,-4.2373303E-4,-0E0,1.463163E-3,-4.1423365E-4,7.503779E-3,3.1035098E-3,-0E0,-3.3358662E-4,8.030317E-4,7.157262E-5,-1.5795889E-3,7.98351E-4,-1.1985923E-4],"categories":[],"categories_nodes":[],"categories_segments":[],"categories_sizes":[],"default_left":[0,0,0,0,0,0,0,0,0,0,0,0,0,0,0,0,0,0,0,0,0,0,0,0,0,0,0,0,0],"id":44,"left_children":[1,3,5,7,9,11,13,15,17,19,-1,21,23,25,27,-1,-1,-1,-1,-1,-1,-1,-1,-1,-1,-1,-1,-1,-1],"loss_changes":[1.17320925E-1,3.0524844E-1,3.081305E-2,1.7529897E-2,1.3314681E0,3.5792995E-2,1.9716121E-2,8.516345E-3,2.7882531E-3,3.45327E-1,0E0,2.6534036E-2,8.550556E-3,2.6386585E-2,2.1622121E-2,0E0,0E0,0E0,0E0,0E0,0E0,0E0,0E0,0E0,0E0,0E0,0E0,0E0,0E0],"parents":[2147483647,0,0,1,1,2,2,3,3,4,4,5,5,6,6,7,7,8,8,9,9,11,11,12,12,13,13,14,14],"right_children":[2,4,6,8,10,12,14,16,18,20,-1,22,24,26,28,-1,-1,-1,-1,-1,-1,-1,-1,-1,-1,-1,-1,-1,-1],"split_conditions":[2.2386502E-1,3E0,1E0,2.200836E-1,4.865253E-3,3.1550592E-1,2.4951428E-1,-1.8879161E-3,2.85714E1,2.193169E-1,1.9626284E-2,-3.7927416E-3,6.4E-1,1.4525373E-1,2.5587493E-1,1.2722304E-4,-4.2373303E-4,-0E0,1.463163E-3,-4.1423365E-4,7.503779E-3,3.1035098E-3,-0E0,-3.3358662E-4,8.030317E-4,7.157262E-5,-1.5795889E-3,7.98351E-4,-1.1985923E-4],"split_indices":[6,1,1,6,3,0,6,4,2,6,0,4,10,0,6,0,0,0,0,0,0,0,0,0,0,0,0,0,0],"split_type":[0,0,0,0,0,0,0,0,0,0,0,0,0,0,0,0,0,0,0,0,0,0,0,0,0,0,0,0,0],"sum_hessian":[1.098E3,1.3E2,9.68E2,9.7E1,3.3E1,3.6E1,9.32E2,8.9E1,8E0,3E1,3E0,1.2E1,2.4E1,2.8E1,9.04E2,4.5E1,4.4E1,1E0,7E0,2.5E1,5E0,7E0,5E0,1.6E1,8E0,1E1,1.8E1,2.2E1,8.82E2],"tree_param":{"num_deleted":"0","num_feature":"12","num_nodes":"29","size_leaf_vector":"1"}},{"base_weights":[2.6135377E-3,4.4365358E-2,-1.969863E-3,2.1201476E-2,1.9184694E-2,5.6200256E-3,-4.148613E-3,2.3608223E-4,1.2876502E-1,6.9567755E-2,-4.8602896E-4,-1.915463E-2,4.158941E-5,3.4289277E-4,-4.97497E-4,-1.6611407E-4,1.0071059E-2,-0E0,2.8081064E-3,1.836049E-3,-1.4144146E-4,-3.3548035E-4,-1.1651737E-3,4.9471204E-5,-5.397298E-4],"categories":[],"categories_nodes":[],"categories_segments":[],"categories_sizes":[],"default_left":[0,0,0,0,0,0,0,0,0,0,0,0,0,0,0,0,0,0,0,0,0,0,0,0,0],"id":45,"left_children":[1,3,5,7,-1,9,11,13,15,17,19,21,23,-1,-1,-1,-1,-1,-1,-1,-1,-1,-1,-1,-1],"loss_changes":[2.1674244E-1,1.4643366E0,1.6396109E-2,2.3287667E-1,0E0,9.011174E-2,5.1397286E-2,1.7183302E-2,5.073406E-1,2.5869295E-2,4.5246266E-2,2.2339016E-2,1.6106216E-2,0E0,0E0,0E0,0E0,0E0,0E0,0E0,0E0,0E0,0E0,0E0,0E0],"parents":[2147483647,0,0,1,1,2,2,3,3,5,5,6,6,7,7,8,8,9,9,10,10,11,11,12,12],"right_children":[2,4,6,8,-1,10,12,14,16,18,20,22,24,-1,-1,-1,-1,-1,-1,-1,-1,-1,-1,-1,-1],"split_conditions":[2.5E-1,4.865253E-3,3.9412224E-1,2.4822795E-1,1.9184694E-2,-1.1769411E-2,4.842907E-1,8.901456E-4,2E0,-2.0275535E-2,1E0,5.259115E-3,7.229299E-1,3.4289277E-4,-4.97497E-4,-1.6611407E-4,1.0071059E-2,-0E0,2.8081064E-3,1.836049E-3,-1.4144146E-4,-3.3548035E-4,-1.1651737E-3,4.9471204E-5,-5.397298E-4],"split_indices":[11,3,5,5,0,3,6,3,1,4,1,4,6,0,0,0,0,0,0,0,0,0,0,0,0],"split_type":[0,0,0,0,0,0,0,0,0,0,0,0,0,0,0,0,0,0,0,0,0,0,0,0,0],"sum_hessian":[1.109E3,1.11E2,9.98E2,1.08E2,3E0,2.12E2,7.86E2,9.2E1,1.6E1,1.9E1,1.93E2,1.76E2,6.1E2,5.9E1,3.3E1,1E1,6E0,6E0,1.3E1,1E1,1.83E2,1.3E2,4.6E1,5.66E2,4.4E1],"tree_param":{"num_deleted":"0","num_feature":"12","num_nodes":"25","size_leaf_vector":"1"}},{"base_weights":[5.9835624E-4,2.5619721E-2,-3.9373217E-3,1.1411319E-2,4.0962255E-1,-8.579733E-4,-1.0970675E-2,2.8370179E-3,8.804755E-2,1.8753037E-2,-0E0,-3.283202E-2,-0E0,1.9129816E-3,-1.3749955E-2,-1.112546E-4,9.1129745E-4,1.5430748E-2,-7.353007E-5,-0E0,-1.1505502E-3,3.93686E-4,-6.4348045E-5,3.8912919E-4,-5.32846E-4,-7.357549E-4,-1.2018393E-4],"categories":[],"categories_nodes":[],"categories_segments":[],"categories_sizes":[],"default_left":[0,0,0,0,0,0,0,0,0,0,0,0,0,0,0,0,0,0,0,0,0,0,0,0,0,0,0],"id":46,"left_children":[1,3,5,7,9,11,13,15,17,-1,-1,19,21,23,25,-1,-1,-1,-1,-1,-1,-1,-1,-1,-1,-1,-1],"loss_changes":[1.298306E-1,9.1349E-1,1.9361302E-2,1.0302621E-1,5.562626E-1,1.6753126E-2,1.1200238E-2,3.0900078E-2,6.697394E-1,0E0,0E0,1.8739998E-3,1.7939882E-2,9.323996E-3,2.1826666E-2,0E0,0E0,0E0,0E0,0E0,0E0,0E0,0E0,0E0,0E0,0E0,0E0],"parents":[2147483647,0,0,1,1,2,2,3,3,4,4,5,5,6,6,7,7,8,8,11,11,12,12,13,13,14,14],"right_children":[2,4,6,8,10,12,14,16,18,-1,-1,20,22,24,26,-1,-1,-1,-1,-1,-1,-1,-1,-1,-1,-1,-1],"split_conditions":[2.8E-1,4.865253E-3,5.3846127E1,6.2499947E1,1.16561055E-1,-4.5990482E-2,2.6042992E-1,2.5319362E-1,6.666651E1,1.8753037E-2,-0E0,1.5384599E1,-1.4556175E-2,8.571411E1,6.5E-1,-1.112546E-4,9.1129745E-4,1.5430748E-2,-7.353007E-5,-0E0,-1.1505502E-3,3.93686E-4,-6.4348045E-5,3.8912919E-4,-5.32846E-4,-7.357549E-4,-1.2018393E-4],"split_indices":[10,3,2,2,0,4,6,6,2,0,0,2,4,2,8,0,0,0,0,0,0,0,0,0,0,0,0],"split_type":[0,0,0,0,0,0,0,0,0,0,0,0,0,0,0,0,0,0,0,0,0,0,0,0,0,0,0],"sum_hessian":[1.123E3,1.75E2,9.48E2,1.7E2,5E0,6.7E2,2.78E2,1.55E2,1.5E1,3E0,2E0,1.5E1,6.55E2,4.3E1,2.35E2,1.23E2,3.2E1,2E0,1.3E1,3E0,1.2E1,8.8E1,5.67E2,3.1E1,1.2E1,1.06E2,1.29E2],"tree_param":{"num_deleted":"0","num_feature":"12","num_nodes":"27","size_leaf_vector":"1"}},{"base_weights":[1.1715939E-3,2.2466986E-2,-3.722918E-3,3.0892994E-3,1.186449E-1,1.4806207E-2,-5.70623E-3,-3.5500398E-3,2.5402738E-2,4.5165187E-3,3.3819196E-1,-7.1446626E-3,2.4520725E-2,-1.578026E-2,-1.2579665E-3,8.2329457E-4,-2.5730787E-4,-2.1208958E-4,1.3370713E-3,1.9189189E-3,-8.0011255E-4,-8.432747E-5,2.5084743E-2,-6.456456E-4,-0E0,2.5670184E-3,2.4115291E-4,-8.429195E-5,-9.3164714E-4,-8.872635E-4,-0E0],"categories":[],"categories_nodes":[],"categories_segments":[],"categories_sizes":[],"default_left":[0,0,0,0,0,0,0,0,0,0,0,0,0,0,0,0,0,0,0,0,0,0,0,0,0,0,0,0,0,0,0],"id":47,"left_children":[1,3,5,7,9,11,13,15,17,19,21,23,25,27,29,-1,-1,-1,-1,-1,-1,-1,-1,-1,-1,-1,-1,-1,-1,-1,-1],"loss_changes":[1.22448556E-1,3.9747524E-1,3.3608336E-2,2.968255E-2,8.662376E-1,2.025162E-2,3.6456108E-2,2.0160666E-2,3.2694314E-2,5.178489E-2,2.12338E0,1.0907705E-3,5.3341407E-2,4.684881E-2,2.1794483E-2,0E0,0E0,0E0,0E0,0E0,0E0,0E0,0E0,0E0,0E0,0E0,0E0,0E0,0E0,0E0,0E0],"parents":[2147483647,0,0,1,1,2,2,3,3,4,4,5,5,6,6,7,7,8,8,9,9,10,10,11,11,12,12,13,13,14,14],"right_children":[2,4,6,8,10,12,14,16,18,20,22,24,26,28,30,-1,-1,-1,-1,-1,-1,-1,-1,-1,-1,-1,-1,-1,-1,-1,-1],"split_conditions":[2.9E-1,6.2499947E1,2.3076899E1,2.9324082E-1,1.2095001E-3,3.7037017E0,4.7929165E-1,2.0626031E-1,3.3333282E1,-4.1376874E-3,2.032061E-1,3.2736564E-1,3.7E-1,3.2798377E-1,-2.3644129E-2,8.2329457E-4,-2.5730787E-4,-2.1208958E-4,1.3370713E-3,1.9189189E-3,-8.0011255E-4,-8.432747E-5,2.5084743E-2,-6.456456E-4,-0E0,2.5670184E-3,2.4115291E-4,-8.429195E-5,-9.3164714E-4,-8.872635E-4,-0E0],"split_indices":[10,2,2,5,4,2,6,6,2,4,6,5,10,6,3,0,0,0,0,0,0,0,0,0,0,0,0,0,0,0,0],"split_type":[0,0,0,0,0,0,0,0,0,0,0,0,0,0,0,0,0,0,0,0,0,0,0,0,0,0,0,0,0,0,0],"sum_hessian":[1.155E3,2.19E2,9.36E2,1.84E2,3.5E1,8.5E1,8.51E2,1.39E2,4.5E1,2.4E1,1.1E1,2.3E1,6.2E1,2.53E2,5.98E2,1.6E1,1.23E2,1.5E1,3E1,9E0,1.5E1,7E0,4E0,4E0,1.9E1,1.1E1,5.1E1,1.41E2,1.12E2,2.5E1,5.73E2],"tree_param":{"num_deleted":"0","num_feature":"12","num_nodes":"31","size_leaf_vector":"1"}},{"base_weights":[1.4532305E-3,3.0058509E-2,-1.5834456E-3,1.4329393E-2,1.7060488E-2,1.6855083E-2,-2.6412678E-3,-2.5047283E-3,9.135681E-2,7.437155E-2,2.099194E-3,-1.4776989E-3,-2.1121984E-2,5.0575645E-6,-1.282843E-3,2.481561E-2,-7.3116005E-4,-0E0,2.5338847E-3,-1.3557189E-4,1.3235685E-3,-1.3345946E-3,-2.7016127E-5,-7.175371E-4,-0E0],"categories":[],"categories_nodes":[],"categories_segments":[],"categories_sizes":[],"default_left":[0,0,0,0,0,0,0,0,0,0,0,0,0,0,0,0,0,0,0,0,0,0,0,0,0],"id":48,"left_children":[1,3,5,7,-1,9,11,13,15,17,19,21,23,-1,-1,-1,-1,-1,-1,-1,-1,-1,-1,-1,-1],"loss_changes":[1.0226862E-1,8.9089566E-1,1.8751977E-2,1.5304649E-1,0E0,3.5480842E-2,1.8825345E-2,1.4059804E-2,1.8887335E0,1.5763938E-4,1.611756E-2,1.8506635E-2,4.9579814E-3,0E0,0E0,0E0,0E0,0E0,0E0,0E0,0E0,0E0,0E0,0E0,0E0],"parents":[2147483647,0,0,1,1,2,2,3,3,5,5,6,6,7,7,8,8,9,9,10,10,11,11,12,12],"right_children":[2,4,6,8,-1,10,12,14,16,18,20,22,24,-1,-1,-1,-1,-1,-1,-1,-1,-1,-1,-1,-1],"split_conditions":[2.5E-1,4.865253E-3,1E0,2.4822795E-1,1.7060488E-2,3.6841682E-1,7.9E-1,2.4E-1,8.760572E-2,2.7E-1,6.5E-1,-4.907541E-2,1.7247643E-1,5.0575645E-6,-1.282843E-3,2.481561E-2,-7.3116005E-4,-0E0,2.5338847E-3,-1.3557189E-4,1.3235685E-3,-1.3345946E-3,-2.7016127E-5,-7.175371E-4,-0E0],"split_indices":[11,3,1,5,0,5,9,7,0,11,11,4,3,0,0,0,0,0,0,0,0,0,0,0,0],"split_type":[0,0,0,0,0,0,0,0,0,0,0,0,0,0,0,0,0,0,0,0,0,0,0,0,0],"sum_hessian":[1.143E3,1.12E2,1.031E3,1.1E2,2E0,5E1,9.81E2,9E1,2E1,8E0,4.2E1,9.29E2,5.2E1,8.3E1,7E0,2E0,1.8E1,2E0,6E0,3.5E1,7E0,9E0,9.2E2,4.9E1,3E0],"tree_param":{"num_deleted":"0","num_feature":"12","num_nodes":"25","size_leaf_vector":"1"}},{"base_weights":[2.3283623E-3,2.9483423E-2,-2.5710734E-3,1.6374383E-2,3.793256E-1,-4.7571413E-4,-1.6096504E-2,2.0438281E-3,1.13193855E-1,-0E0,1.7382827E-2,9.097624E-3,-2.6958871E-3,-0E0,-2.3490006E-2,-1.0684633E-4,1.3842601E-3,-0E0,1.4017406E-2,-0E0,1.7675536E-3,-1.1554958E-3,-2.3409304E-5,3.2777537E-4,-7.0375936E-5,-1.7274902E-3,-3.2313511E-4],"categories":[],"categories_nodes":[],"categories_segments":[],"categories_sizes":[],"default_left":[0,0,0,0,0,0,0,0,0,0,0,0,0,0,0,0,0,0,0,0,0,0,0,0,0,0,0],"id":49,"left_children":[1,3,5,7,9,11,13,15,17,-1,-1,19,21,23,25,-1,-1,-1,-1,-1,-1,-1,-1,-1,-1,-1,-1],"loss_changes":[1.5230903E-1,7.5678533E-1,2.5258724E-2,2.2411594E-1,4.796176E-1,1.702556E-2,1.6102321E-2,4.150039E-2,8.2252836E-1,0E0,0E0,7.106374E-2,4.2905804E-2,1.5700663E-3,2.983595E-2,0E0,0E0,0E0,0E0,0E0,0E0,0E0,0E0,0E0,0E0,0E0,0E0],"parents":[2147483647,0,0,1,1,2,2,3,3,4,4,5,5,6,6,7,7,8,8,11,11,12,12,13,13,14,14],"right_children":[2,4,6,8,10,12,14,16,18,-1,-1,20,22,24,26,-1,-1,-1,-1,-1,-1,-1,-1,-1,-1,-1,-1],"split_conditions":[2.8E-1,4.865253E-3,6.666636E1,6.2499947E1,3E0,3.3306083E-1,1.5534603E-3,2.983195E-1,1.2095001E-3,-0E0,1.7382827E-2,3.2121947E-1,4.118341E-1,3.6E-1,4E-1,-1.0684633E-4,1.3842601E-3,-0E0,1.4017406E-2,-0E0,1.7675536E-3,-1.1554958E-3,-2.3409304E-5,3.2777537E-4,-7.0375936E-5,-1.7274902E-3,-3.2313511E-4],"split_indices":[10,3,2,2,1,6,3,5,4,0,0,6,5,7,7,0,0,0,0,0,0,0,0,0,0,0,0],"split_type":[0,0,0,0,0,0,0,0,0,0,0,0,0,0,0,0,0,0,0,0,0,0,0,0,0,0,0],"sum_hessian":[1.123E3,1.74E2,9.49E2,1.69E2,5E0,8.29E2,1.2E2,1.49E2,2E1,2E0,3E0,1.47E2,6.82E2,3.5E1,8.5E1,1.31E2,1.8E1,1.6E1,4E0,1.24E2,2.3E1,3.1E1,6.51E2,1.1E1,2.4E1,2E1,6.5E1],"tree_param":{"num_deleted":"0","num_feature":"12","num_nodes":"27","size_leaf_vector":"1"}},{"base_weights":[1.4945924E-3,3.5765443E-2,-2.3591984E-3,-0E0,2.3136735E-1,6.172631E-3,-4.868275E-3,3.5998352E-2,-4.6269936E-3,-3.883418E-2,2.3847282E-2,3.6874406E-2,-4.1762996E-3,-3.769225E-2,-3.1574618E-3,1.5039613E-3,-0E0,-0E0,-8.455272E-4,-1.579207E-3,-0E0,2.245423E-3,5.059476E-4,-1.9228313E-4,9.6662104E-4,-2.0842382E-3,-2.0761027E-4,3.565754E-4,-1.549673E-4],"categories":[],"categories_nodes":[],"categories_segments":[],"categories_sizes":[],"default_left":[0,0,0,0,0,0,0,0,0,0,0,0,0,0,0,0,0,0,0,0,0,0,0,0,0,0,0,0,0],"id":50,"left_children":[1,3,5,7,9,11,13,15,17,19,-1,21,23,25,27,-1,-1,-1,-1,-1,-1,-1,-1,-1,-1,-1,-1,-1,-1],"loss_changes":[1.5147848E-1,8.1517184E-1,2.1435067E-2,1.6160103E-2,2.8473358E0,7.332453E-2,3.999054E-2,5.8510806E-3,1.00098625E-2,8.104729E-3,0E0,3.3636063E-2,1.0873955E-2,2.708786E-2,2.2106308E-2,0E0,0E0,0E0,0E0,0E0,0E0,0E0,0E0,0E0,0E0,0E0,0E0,0E0,0E0],"parents":[2147483647,0,0,1,1,2,2,3,3,4,4,5,5,6,6,7,7,8,8,9,9,11,11,12,12,13,13,14,14],"right_children":[2,4,6,8,10,12,14,16,18,20,-1,22,24,26,28,-1,-1,-1,-1,-1,-1,-1,-1,-1,-1,-1,-1,-1,-1],"split_conditions":[2.5E-1,6.2499947E1,3.9412224E-1,2.0626031E-1,2.476539E-1,-7.258144E-3,4.118341E-1,1.6214727E-1,2.4840319E-1,2.4557152E-1,2.3847282E-2,2.8E-1,4.0746984E-1,3.5219505E-1,2.3809507E1,1.5039613E-3,-0E0,-0E0,-8.455272E-4,-1.579207E-3,-0E0,2.245423E-3,5.059476E-4,-1.9228313E-4,9.6662104E-4,-2.0842382E-3,-2.0761027E-4,3.565754E-4,-1.549673E-4],"split_indices":[11,2,5,6,5,4,5,0,5,5,0,9,0,6,2,0,0,0,0,0,0,0,0,0,0,0,0,0,0],"split_type":[0,0,0,0,0,0,0,0,0,0,0,0,0,0,0,0,0,0,0,0,0,0,0,0,0,0,0,0,0],"sum_hessian":[1.12E3,1.15E2,1.005E3,9.8E1,1.7E1,2.19E2,7.86E2,1E1,8.8E1,1.2E1,5E0,5.7E1,1.62E2,3.5E1,7.51E2,7E0,3E0,7.4E1,1.4E1,9E0,3E0,1.7E1,4E1,1.56E2,6E0,1.5E1,2E1,8.2E1,6.69E2],"tree_param":{"num_deleted":"0","num_feature":"12","num_nodes":"29","size_leaf_vector":"1"}},{"base_weights":[1.2388136E-3,4.095897E-2,-2.7724796E-3,1.9879917E-2,1.6455147E-2,9.601131E-3,-4.364537E-3,1.7949066E-3,1.1919231E-1,4.0476467E-2,-1.7610445E-3,-1.0665075E-2,-1.2989002E-3,1.2821793E-3,-0E0,2.3562003E-2,-1.0807285E-3,3.4108507E-3,-1.2418252E-4,-3.3858194E-4,1.4709805E-4,-1.8433164E-4,-1.6247325E-3,1.8462694E-6,-5.708054E-4],"categories":[],"categories_nodes":[],"categories_segments":[],"categories_sizes":[],"default_left":[0,0,0,0,0,0,0,0,0,0,0,0,0,0,0,0,0,0,0,0,0,0,0,0,0],"id":51,"left_children":[1,3,5,7,-1,9,11,13,15,17,19,21,23,-1,-1,-1,-1,-1,-1,-1,-1,-1,-1,-1,-1],"loss_changes":[1.839742E-1,1.0663078E0,1.9710232E-2,1.7268209E-1,0E0,4.2532034E-2,1.6482437E-2,1.0673161E-2,1.6543287E0,1.1596094E-1,5.708358E-3,5.045927E-2,1.7043712E-2,0E0,0E0,0E0,0E0,0E0,0E0,0E0,0E0,0E0,0E0,0E0,0E0],"parents":[2147483647,0,0,1,1,2,2,3,3,5,5,6,6,7,7,8,8,9,9,10,10,11,11,12,12],"right_children":[2,4,6,8,-1,10,12,14,16,18,20,22,24,-1,-1,-1,-1,-1,-1,-1,-1,-1,-1,-1,-1],"split_conditions":[2.5E-1,4.865253E-3,2.6042992E-1,2.4840319E-1,1.6455147E-2,-6.694697E-3,4.7929165E-1,2.2E-1,8.760572E-2,3.0548078E-1,2.5031692E-1,5.259115E-3,7.229299E-1,1.2821793E-3,-0E0,2.3562003E-2,-1.0807285E-3,3.4108507E-3,-1.2418252E-4,-3.3858194E-4,1.4709805E-4,-1.8433164E-4,-1.6247325E-3,1.8462694E-6,-5.708054E-4],"split_indices":[11,3,6,5,0,4,6,11,0,0,6,4,6,0,0,0,0,0,0,0,0,0,0,0,0],"split_type":[0,0,0,0,0,0,0,0,0,0,0,0,0,0,0,0,0,0,0,0,0,0,0,0,0],"sum_hessian":[1.129E3,1.05E2,1.024E3,1.02E2,3E0,1.09E2,9.15E2,8.8E1,1.4E1,3.1E1,7.8E1,2.88E2,6.27E2,5E0,8.3E1,2E0,1.2E1,1.2E1,1.9E1,3.8E1,4E1,2.64E2,2.4E1,5.78E2,4.9E1],"tree_param":{"num_deleted":"0","num_feature":"12","num_nodes":"25","size_leaf_vector":"1"}},{"base_weights":[2.261747E-3,3.672385E-2,-1.4276566E-3,1.6775412E-2,1.6084908E-2,-9.351184E-4,-1.3350388E-3,-0E0,1.3121063E-1,1.5100311E-2,-1.9074108E-3,1.2230787E-4,-1.487522E-3,-9.3031913E-4,2.3090763E-2,2.3176584E-3,-0E0,9.149446E-5,-1.6769438E-4],"categories":[],"categories_nodes":[],"categories_segments":[],"categories_sizes":[],"default_left":[0,0,0,0,0,0,0,0,0,0,0,0,0,0,0,0,0,0,0],"id":52,"left_children":[1,3,5,7,-1,9,-1,11,13,15,17,-1,-1,-1,-1,-1,-1,-1,-1],"loss_changes":[1.4471254E-1,1.0316463E0,1.6651371E-2,2.1091586E-1,0E0,1.4191502E-2,0E0,2.1114696E-2,1.5477906E0,4.2086415E-2,1.748504E-2,0E0,0E0,0E0,0E0,0E0,0E0,0E0,0E0],"parents":[2147483647,0,0,1,1,2,2,3,3,5,5,7,7,8,8,9,9,10,10],"right_children":[2,4,6,8,-1,10,-1,12,14,16,18,-1,-1,-1,-1,-1,-1,-1,-1],"split_conditions":[2.5E-1,4.865253E-3,5.3500605E0,6.2499947E1,1.6084908E-2,1E0,-1.3350388E-3,2.4E-1,2.476539E-1,3.6841682E-1,4.1176437E1,1.2230787E-4,-1.487522E-3,-9.3031913E-4,2.3090763E-2,2.3176584E-3,-0E0,9.149446E-5,-1.6769438E-4],"split_indices":[11,3,0,2,0,1,0,7,5,5,2,0,0,0,0,0,0,0,0],"split_type":[0,0,0,0,0,0,0,0,0,0,0,0,0,0,0,0,0,0,0],"sum_hessian":[1.109E3,1.09E2,1E3,1.06E2,3E0,9.92E2,8E0,9.3E1,1.3E1,5E1,9.42E2,8.6E1,7E0,1.1E1,2E0,8E0,4.2E1,3.9E2,5.52E2],"tree_param":{"num_deleted":"0","num_feature":"12","num_nodes":"19","size_leaf_vector":"1"}}]},"name":"gbtree"},"learner_model_param":{"base_score":"[4.3069813E-3]","boost_from_average":"1","num_class":"0","num_feature":"12","num_target":"1"},"objective":{"name":"reg:squarederror","reg_loss_param":{"scale_pos_weight":"1"}}},"version":[3,2,0]}