{"learner":{"attributes":{"best_iteration":"21","best_score":"0.03426898067871836","scikit_learn":"{\"_estimator_type\": \"regressor\"}"},"feature_names":["Fourier_Dominant","HMM_State","RSI","MACD","MACD_Signal","BB_Upper","BB_Lower","Close_Lag_1","Close_Lag_2","Close_Lag_3","Close_Lag_4","Close_Lag_5"],"feature_types":["float","int","float","float","float","float","float","float","float","float","float","float"],"gradient_booster":{"model":{"cats":{"enc":[],"feature_segments":[],"sorted_idx":[]},"gbtree_model_param":{"num_parallel_tree":"1","num_trees":"72"},"iteration_indptr":[0,1,2,3,4,5,6,7,8,9,10,11,12,13,14,15,16,17,18,19,20,21,22,23,24,25,26,27,28,29,30,31,32,33,34,35,36,37,38,39,40,41,42,43,44,45,46,47,48,49,50,51,52,53,54,55,56,57,58,59,60,61,62,63,64,65,66,67,68,69,70,71,72],"tree_info":[0,0,0,0,0,0,0,0,0,0,0,0,0,0,0,0,0,0,0,0,0,0,0,0,0,0,0,0,0,0,0,0,0,0,0,0,0,0,0,0,0,0,0,0,0,0,0,0,0,0,0,0,0,0,0,0,0,0,0,0,0,0,0,0,0,0,0,0,0,0,0,0],"trees":[{"base_weights":[-2.15897E-3,-9.641631E-2,6.2497533E-3,-7.526082E-2,-6.247283E-3,5.229381E-2,-5.794745E-4,-0E0,-2.290731E-3,8.459401E-2,-4.935463E-3,-1.1496743E-2,4.5048565E-2,3.5756643E-4,3.0025267E-3,3.1352817E-4,-7.1445305E-4,-0E0,-1.0671273E-3,3.19677E-3,-8.3896075E-4],"categories":[],"categories_nodes":[],"categories_segments":[],"categories_sizes":[],"default_left":[0,0,0,0,0,0,0,0,0,0,0,0,0,0,0,0,0,0,0,0,0],"id":0,"left_children":[1,3,5,7,-1,9,11,-1,-1,13,15,17,19,-1,-1,-1,-1,-1,-1,-1,-1],"loss_changes":[4.4474778E-1,6.4801365E-2,1.636822E-1,9.881705E-4,0E0,1.3223402E-1,2.1534523E-1,0E0,0E0,3.7139893E-2,8.557061E-3,9.97193E-2,3.836022E-1,0E0,0E0,0E0,0E0,0E0,0E0,0E0,0E0],"parents":[2147483647,0,0,1,1,2,2,3,3,5,5,6,6,9,9,10,10,11,11,12,12],"right_children":[2,4,6,8,-1,10,12,-1,-1,14,16,18,20,-1,-1,-1,-1,-1,-1,-1,-1],"split_conditions":[-7.6002345E0,5.726223E2,5.579E1,8.0535576E1,-6.247283E-3,2.144349E0,4.473473E0,-0E0,-2.290731E-3,3.401E1,2.4543903E0,1.0273923E0,9.718517E0,3.5756643E-4,3.0025267E-3,3.1352817E-4,-7.1445305E-4,-0E0,-1.0671273E-3,3.19677E-3,-8.3896075E-4],"split_indices":[4,0,8,0,0,3,3,0,0,7,4,4,4,0,0,0,0,0,0,0,0],"split_type":[0,0,0,0,0,0,0,0,0,0,0,0,0,0,0,0,0,0,0,0,0],"sum_hessian":[5.48E2,4.5E1,5.03E2,4E1,5E0,6.6E1,4.37E2,1E0,3.9E1,4.3E1,2.3E1,3.55E2,8.2E1,9E0,3.4E1,1E1,1.3E1,2.4E2,1.15E2,4.5E1,3.7E1],"tree_param":{"num_deleted":"0","num_feature":"12","num_nodes":"21","size_leaf_vector":"1"}},{"base_weights":[-7.930749E-4,-7.9756446E-2,7.346072E-3,-1.8052119E-3,-5.566826E-3,5.3626686E-2,-2.953954E-4,9.106398E-2,-6.2212446E-3,-1.1163392E-2,4.6867013E-2,1.462107E-3,4.1595697E-3,2.3579941E-4,-5.570442E-4,2.3119335E-6,-1.2147033E-3,2.8891456E-3,-3.6243306E-4],"categories":[],"categories_nodes":[],"categories_segments":[],"categories_sizes":[],"default_left":[0,0,0,0,0,0,0,0,0,0,0,0,0,0,0,0,0,0,0],"id":1,"left_children":[1,3,5,-1,-1,7,9,11,13,15,17,-1,-1,-1,-1,-1,-1,-1,-1],"loss_changes":[3.6387965E-1,7.4073344E-2,1.8288217E-1,0E0,0E0,1.7261054E-1,2.1735401E-1,6.716025E-2,6.0848244E-3,1.20079726E-1,2.39813E-1,0E0,0E0,0E0,0E0,0E0,0E0,0E0,0E0],"parents":[2147483647,0,0,1,1,2,2,5,5,6,6,7,7,8,8,9,9,10,10],"right_children":[2,4,6,-1,-1,8,10,12,14,16,18,-1,-1,-1,-1,-1,-1,-1,-1],"split_conditions":[-7.6002345E0,3.3076923E1,5.665E1,-1.8052119E-3,-5.566826E-3,2.3754272E0,4.4576607E0,5.13E1,2.4543903E0,1.2753391E0,1.0231242E1,1.462107E-3,4.1595697E-3,2.3579941E-4,-5.570442E-4,2.3119335E-6,-1.2147033E-3,2.8891456E-3,-3.6243306E-4],"split_indices":[4,2,11,0,0,3,3,7,4,4,3,0,0,0,0,0,0,0,0],"split_type":[0,0,0,0,0,0,0,0,0,0,0,0,0,0,0,0,0,0,0],"sum_hessian":[5.53E2,5.2E1,5.01E2,4.6E1,6E0,7.2E1,4.29E2,4.5E1,2.7E1,3.51E2,7.8E1,2.6E1,1.9E1,9E0,1.8E1,2.52E2,9.9E1,4.3E1,3.5E1],"tree_param":{"num_deleted":"0","num_feature":"12","num_nodes":"19","size_leaf_vector":"1"}},{"base_weights":[1.4931623E-4,5.5391714E-2,-8.943005E-3,1.0673154E-1,1.6038397E-2,-2.023651E-2,4.261759E-2,1.1463345E-1,-0E0,4.625064E-2,-1.8807743E-2,-5.7571125E-3,-5.0820798E-2,1.17773525E-1,-7.340801E-3,2.054604E-3,4.9670483E-3,-0E0,1.8440493E-3,-9.929547E-4,-0E0,3.7611293E-4,-4.973602E-4,-9.4434567E-4,-2.801279E-3,4.694018E-3,-4.5118615E-4,-1.8003988E-3,1.9470729E-4],"categories":[],"categories_nodes":[],"categories_segments":[],"categories_sizes":[],"default_left":[0,0,0,0,0,0,0,0,0,0,0,0,0,0,0,0,0,0,0,0,0,0,0,0,0,0,0,0,0],"id":2,"left_children":[1,3,5,7,9,11,13,15,-1,17,19,21,23,25,27,-1,-1,-1,-1,-1,-1,-1,-1,-1,-1,-1,-1,-1,-1],"loss_changes":[2.798883E-1,1.4562221E-1,2.717229E-1,3.1442136E-2,5.309482E-2,1.654295E-1,3.235454E-1,3.8119882E-2,0E0,1.403242E-2,4.622259E-3,5.3272545E-2,8.499691E-2,1.9122308E-1,4.2167585E-2,0E0,0E0,0E0,0E0,0E0,0E0,0E0,0E0,0E0,0E0,0E0,0E0,0E0,0E0],"parents":[2147483647,0,0,1,1,2,2,3,3,4,4,5,5,6,6,7,7,9,9,10,10,11,11,12,12,13,13,14,14],"right_children":[2,4,6,8,10,12,14,16,-1,18,20,22,24,26,28,-1,-1,-1,-1,-1,-1,-1,-1,-1,-1,-1,-1,-1,-1],"split_conditions":[5.665E1,5.4015957E1,4.4593997E0,2.8373919E0,2.3448637E0,1.0440866E2,9.367261E0,3.3855423E1,-0E0,3.093983E1,5.5E1,6.3148052E1,2E0,1.45E2,2.4559328E2,2.054604E-3,4.9670483E-3,-0E0,1.8440493E-3,-9.929547E-4,-0E0,3.7611293E-4,-4.973602E-4,-9.4434567E-4,-2.801279E-3,4.694018E-3,-4.5118615E-4,-1.8003988E-3,1.9470729E-4],"split_indices":[10,2,4,4,4,0,4,2,0,6,9,6,1,11,0,0,0,0,0,0,0,0,0,0,0,0,0,0,0],"split_type":[0,0,0,0,0,0,0,0,0,0,0,0,0,0,0,0,0,0,0,0,0,0,0,0,0,0,0,0,0],"sum_hessian":[5.46E2,7.8E1,4.68E2,3.2E1,4.6E1,3.86E2,8.2E1,3E1,2E0,2.6E1,2E1,2.65E2,1.21E2,3.3E1,4.9E1,1.8E1,1.2E1,8E0,1.8E1,1E1,1E1,9.5E1,1.7E2,8.6E1,3.5E1,2.6E1,7E0,1.1E1,3.8E1],"tree_param":{"num_deleted":"0","num_feature":"12","num_nodes":"29","size_leaf_vector":"1"}},{"base_weights":[3.3691866E-4,3.983725E-2,-1.141049E-2,8.698545E-2,1.9289711E-2,-2.159232E-2,3.925477E-2,1.0987873E-1,-0E0,-3.014819E-4,4.383201E-2,-1.5320983E-2,-8.9627996E-2,1.0542749E-1,-9.296669E-3,3.5655617E-3,-0E0,1.5097681E-3,-7.671543E-4,1.5813521E-3,-4.7916584E-4,-3.2787325E-4,-1.6400897E-3,-1.6488382E-3,-5.900706E-3,-4.927633E-5,5.3520077E-3,6.5646326E-4,-6.5623544E-4],"categories":[],"categories_nodes":[],"categories_segments":[],"categories_sizes":[],"default_left":[0,0,0,0,0,0,0,0,0,0,0,0,0,0,0,0,0,0,0,0,0,0,0,0,0,0,0,0,0],"id":3,"left_children":[1,3,5,7,9,11,13,15,-1,17,19,21,23,25,27,-1,-1,-1,-1,-1,-1,-1,-1,-1,-1,-1,-1,-1,-1],"loss_changes":[2.6408014E-1,1.1460464E-1,2.2193508E-1,7.467425E-2,4.956268E-2,1.4258815E-1,2.3870063E-1,3.332278E-2,0E0,6.405905E-2,2.7881853E-2,5.056265E-2,7.1657896E-2,2.601779E-1,1.6556539E-2,0E0,0E0,0E0,0E0,0E0,0E0,0E0,0E0,0E0,0E0,0E0,0E0,0E0,0E0],"parents":[2147483647,0,0,1,1,2,2,3,3,4,4,5,5,6,6,7,7,9,9,10,10,11,11,12,12,13,13,14,14],"right_children":[2,4,6,8,10,12,14,16,-1,18,20,22,24,26,28,-1,-1,-1,-1,-1,-1,-1,-1,-1,-1,-1,-1,-1,-1],"split_conditions":[5.4363903E1,5.4015957E1,4.4576607E0,5.66E1,4.6211674E1,3.4213785E2,8.88011E0,2.3754272E0,-0E0,4.5485977E1,9.740196E1,2.0399E2,2.3705883E1,3E0,1.0449898E1,3.5655617E-3,-0E0,1.5097681E-3,-7.671543E-4,1.5813521E-3,-4.7916584E-4,-3.2787325E-4,-1.6400897E-3,-1.6488382E-3,-5.900706E-3,-4.927633E-5,5.3520077E-3,6.5646326E-4,-6.5623544E-4],"split_indices":[6,2,3,11,6,0,3,3,0,0,2,11,2,1,3,0,0,0,0,0,0,0,0,0,0,0,0,0,0],"split_type":[0,0,0,0,0,0,0,0,0,0,0,0,0,0,0,0,0,0,0,0,0,0,0,0,0,0,0,0,0],"sum_hessian":[5.61E2,1.3E2,4.31E2,3.7E1,9.3E1,3.61E2,7E1,2.9E1,8E0,5E1,4.3E1,3.33E2,2.8E1,3E1,4E1,2.7E1,2E0,1.5E1,3.5E1,3.9E1,4E0,3.03E2,3E1,2.3E1,5E0,1.2E1,1.8E1,9E0,3.1E1],"tree_param":{"num_deleted":"0","num_feature":"12","num_nodes":"29","size_leaf_vector":"1"}},{"base_weights":[-3.8527712E-4,-7.038325E-2,6.0990523E-3,-4.768678E-2,-1.13333024E-1,4.806244E-2,-1.561775E-3,-1.5453161E-3,-0E0,-5.332689E-3,-9.088807E-4,8.459906E-2,-9.882785E-3,-1.288761E-2,4.0753193E-2,6.301538E-4,2.9340752E-3,1.7586979E-5,-5.232697E-4,-0E0,-1.1479435E-3,2.5375644E-3,-5.9090403E-4],"categories":[],"categories_nodes":[],"categories_segments":[],"categories_sizes":[],"default_left":[0,0,0,0,0,0,0,0,0,0,0,0,0,0,0,0,0,0,0,0,0,0,0],"id":4,"left_children":[1,3,5,7,9,11,13,-1,-1,-1,-1,15,17,19,21,-1,-1,-1,-1,-1,-1,-1,-1],"loss_changes":[2.5105047E-1,2.4309516E-2,1.6289048E-1,7.589735E-3,4.8702687E-2,1.7344326E-1,1.9662839E-1,0E0,0E0,0E0,0E0,2.720818E-2,4.070062E-3,1.0625145E-1,2.3602583E-1,0E0,0E0,0E0,0E0,0E0,0E0,0E0,0E0],"parents":[2147483647,0,0,1,1,2,2,3,3,4,4,5,5,6,6,11,11,12,12,13,13,14,14],"right_children":[2,4,6,8,10,12,14,-1,-1,-1,-1,16,18,20,22,-1,-1,-1,-1,-1,-1,-1,-1],"split_conditions":[-7.6002345E0,1.5916191E2,5.66E1,1.5891513E2,-1.4695037E1,2.3754272E0,4.4593997E0,-1.5453161E-3,-0E0,-5.332689E-3,-9.088807E-4,3.484E1,2.4543903E0,1.0658853E0,1.1162508E1,6.301538E-4,2.9340752E-3,1.7586979E-5,-5.232697E-4,-0E0,-1.1479435E-3,2.5375644E-3,-5.9090403E-4],"split_indices":[4,5,10,5,4,3,4,0,0,0,0,7,4,4,3,0,0,0,0,0,0,0,0],"split_type":[0,0,0,0,0,0,0,0,0,0,0,0,0,0,0,0,0,0,0,0,0,0,0],"sum_hessian":[5.37E2,4.6E1,4.91E2,3.3E1,1.3E1,7.7E1,4.14E2,3.1E1,2E0,6E0,7E0,4.8E1,2.9E1,3.29E2,8.5E1,1E1,3.8E1,7E0,2.2E1,2.2E2,1.09E2,5E1,3.5E1],"tree_param":{"num_deleted":"0","num_feature":"12","num_nodes":"23","size_leaf_vector":"1"}},{"base_weights":[-1.4145477E-3,-7.52985E-2,5.80887E-3,-5.8883443E-2,-4.673437E-3,2.8745504E-2,-9.348429E-3,-0E0,-1.7875036E-3,7.9270475E-2,2.1691844E-2,-2.1057941E-2,3.2492056E-2,-0E0,2.7442297E-3,-0E0,1.1736624E-3,1.2084487E-5,-1.5026226E-3,3.6131772E-3,-3.8938533E-4],"categories":[],"categories_nodes":[],"categories_segments":[],"categories_sizes":[],"default_left":[0,0,0,0,0,0,0,0,0,0,0,0,0,0,0,0,0,0,0,0,0],"id":5,"left_children":[1,3,5,7,-1,9,11,-1,-1,13,15,17,19,-1,-1,-1,-1,-1,-1,-1,-1],"loss_changes":[3.05188E-1,3.6738157E-2,1.7881839E-1,1.8158555E-4,0E0,6.1243355E-2,1.4848004E-1,0E0,0E0,1.44559145E-2,6.541508E-2,1.5450735E-1,2.7225047E-1,0E0,0E0,0E0,0E0,0E0,0E0,0E0,0E0],"parents":[2147483647,0,0,1,1,2,2,3,3,5,5,6,6,9,9,10,10,11,11,12,12],"right_children":[2,4,6,8,-1,10,12,-1,-1,14,16,18,20,-1,-1,-1,-1,-1,-1,-1,-1],"split_conditions":[-7.6002345E0,3.3076923E1,6.3351418E1,8.0535576E1,-4.673437E-3,-3.2477007E0,4.4576607E0,-0E0,-1.7875036E-3,9.236592E1,9.130166E-1,1.0273923E0,9.718517E0,-0E0,2.7442297E-3,-0E0,1.1736624E-3,1.2084487E-5,-1.5026226E-3,3.6131772E-3,-3.8938533E-4],"split_indices":[4,2,6,0,0,4,3,0,0,0,4,4,4,0,0,0,0,0,0,0,0],"split_type":[0,0,0,0,0,0,0,0,0,0,0,0,0,0,0,0,0,0,0,0,0],"sum_hessian":[5.57E2,5E1,5.07E2,4.4E1,6E0,2.04E2,3.03E2,1E0,4.3E1,2.2E1,1.82E2,2.39E2,6.4E1,4E0,1.8E1,8.4E1,9.8E1,1.36E2,1.03E2,2.2E1,4.2E1],"tree_param":{"num_deleted":"0","num_feature":"12","num_nodes":"21","size_leaf_vector":"1"}},{"base_weights":[-0E0,3.9614633E-2,-1.2183606E-2,6.819367E-2,2.5037631E-2,-2.1242676E-2,3.1468987E-2,1.0291592E-1,-0E0,-0E0,5.013543E-2,-6.267628E-2,-1.3719592E-2,8.637042E-2,-2.6261074E-2,6.626448E-4,3.7880663E-3,2.9527792E-4,-2.3246618E-4,9.541367E-4,-7.1585487E-4,1.7295985E-3,-3.7731044E-4,-1.4517197E-3,-4.3526E-3,-0E0,-8.567893E-4,-0E0,3.742605E-3,-0E0,-1.2783273E-3],"categories":[],"categories_nodes":[],"categories_segments":[],"categories_sizes":[],"default_left":[0,0,0,0,0,0,0,0,0,0,0,0,0,0,0,0,0,0,0,0,0,0,0,0,0,0,0,0,0,0,0],"id":6,"left_children":[1,3,5,7,9,11,13,15,17,19,21,23,25,27,29,-1,-1,-1,-1,-1,-1,-1,-1,-1,-1,-1,-1,-1,-1,-1,-1],"loss_changes":[2.6105466E-1,4.1877225E-2,1.6415386E-1,8.936882E-2,5.2917432E-2,9.966338E-2,2.3014152E-1,3.145197E-2,1.3290375E-3,3.6046192E-2,2.550564E-2,3.3672884E-2,6.073493E-2,1.130715E-1,1.4681587E-2,0E0,0E0,0E0,0E0,0E0,0E0,0E0,0E0,0E0,0E0,0E0,0E0,0E0,0E0,0E0,0E0],"parents":[2147483647,0,0,1,1,2,2,3,3,4,4,5,5,6,6,7,7,8,8,9,9,10,10,11,11,12,12,13,13,14,14],"right_children":[2,4,6,8,10,12,14,16,18,20,22,24,26,28,30,-1,-1,-1,-1,-1,-1,-1,-1,-1,-1,-1,-1,-1,-1,-1,-1],"split_conditions":[5.5412483E1,5.3870968E1,4.590096E0,5.66E1,4.6211674E1,-6.5635743E0,1.1162508E1,3.920638E1,5.904E1,4.215E1,9.740196E1,3.285421E1,4.0689892E-1,5.016821E1,6.9363495E1,6.626448E-4,3.7880663E-3,2.9527792E-4,-2.3246618E-4,9.541367E-4,-7.1585487E-4,1.7295985E-3,-3.7731044E-4,-1.4517197E-3,-4.3526E-3,-0E0,-8.567893E-4,-0E0,3.742605E-3,-0E0,-1.2783273E-3],"split_indices":[6,2,3,11,6,3,3,6,8,11,2,2,3,2,2,0,0,0,0,0,0,0,0,0,0,0,0,0,0,0,0],"split_type":[0,0,0,0,0,0,0,0,0,0,0,0,0,0,0,0,0,0,0,0,0,0,0,0,0,0,0,0,0,0,0],"sum_hessian":[5.41E2,1.26E2,4.15E2,3.9E1,8.7E1,3.46E2,6.9E1,2.5E1,1.4E1,4.5E1,4.2E1,5E1,2.96E2,3.6E1,3.3E1,7E0,1.8E1,9E0,5E0,2E1,2.5E1,3.9E1,3E0,4.5E1,5E0,1.54E2,1.42E2,1.2E1,2.4E1,1.3E1,2E1],"tree_param":{"num_deleted":"0","num_feature":"12","num_nodes":"31","size_leaf_vector":"1"}},{"base_weights":[-2.5269554E-3,-5.951375E-2,3.0703887E-3,-3.750741E-2,-4.9008057E-3,1.0669395E-2,-3.0205453E-2,-0E0,-4.114584E-2,3.8488007E-3,5.5939388E-2,-8.947772E-2,-1.7303057E-2,-0E0,-1.357774E-3,1.2488958E-3,-1.3101047E-4,3.5317624E-3,-1.4068148E-3,-2.813748E-4,-4.9617994E-3,-6.980391E-4,-0E0],"categories":[],"categories_nodes":[],"categories_segments":[],"categories_sizes":[],"default_left":[0,0,0,0,0,0,0,0,0,0,0,0,0,0,0,0,0,0,0,0,0,0,0],"id":7,"left_children":[1,3,5,7,-1,9,11,-1,13,15,17,19,21,-1,-1,-1,-1,-1,-1,-1,-1,-1,-1],"loss_changes":[1.8540983E-1,9.262057E-2,1.2783471E-1,9.491883E-3,0E0,1.2348856E-1,5.889584E-2,0E0,9.137444E-3,1.181361E-1,3.493475E-1,7.218246E-2,8.290246E-3,0E0,0E0,0E0,0E0,0E0,0E0,0E0,0E0,0E0,0E0],"parents":[2147483647,0,0,1,1,2,2,3,3,5,5,6,6,8,8,9,9,10,10,11,11,12,12],"right_children":[2,4,6,8,-1,10,12,-1,14,16,18,20,22,-1,-1,-1,-1,-1,-1,-1,-1,-1,-1],"split_conditions":[-6.5635743E0,3.3076923E1,2.0575629E2,5.45E1,-4.9008057E-3,5.132275E0,2.1083617E2,-0E0,5.8677096E0,5.665E1,1.0231242E1,2.012E2,2.2169135E2,-0E0,-1.357774E-3,1.2488958E-3,-1.3101047E-4,3.5317624E-3,-1.4068148E-3,-2.813748E-4,-4.9617994E-3,-6.980391E-4,-0E0],"split_indices":[3,2,5,8,0,3,5,0,2,8,3,10,5,0,0,0,0,0,0,0,0,0,0],"split_type":[0,0,0,0,0,0,0,0,0,0,0,0,0,0,0,0,0,0,0,0,0,0,0],"sum_hessian":[5.62E2,5.1E1,5.11E2,4.4E1,7E0,4.19E2,9.2E1,2E0,4.2E1,3.67E2,5.2E1,1.4E1,7.8E1,3E0,3.9E1,6.7E1,3E2,3.3E1,1.9E1,8E0,6E0,5.8E1,2E1],"tree_param":{"num_deleted":"0","num_feature":"12","num_nodes":"23","size_leaf_vector":"1"}},{"base_weights":[-9.6679636E-4,4.3403234E-2,-1.1642185E-2,6.3500375E-2,-6.9627617E-3,-2.066997E-2,3.0859316E-2,8.444651E-2,1.9509168E-2,-0E0,-1.4722134E-2,-8.836847E-3,-4.5105603E-2,7.9727426E-2,-1.05449585E-2,4.1064923E-4,2.9679518E-3,1.1314673E-3,-5.4663885E-4,2.3436247E-4,-6.0603616E-5,-7.265658E-4,-0E0,1.3521599E-4,-4.7991777E-4,-1.1989453E-3,-4.7758888E-3,3.2027347E-3,-1.5354053E-4,4.3917572E-4,-6.953792E-4],"categories":[],"categories_nodes":[],"categories_segments":[],"categories_sizes":[],"default_left":[0,0,0,0,0,0,0,0,0,0,0,0,0,0,0,0,0,0,0,0,0,0,0,0,0,0,0,0,0,0,0],"id":8,"left_children":[1,3,5,7,9,11,13,15,17,19,21,23,25,27,29,-1,-1,-1,-1,-1,-1,-1,-1,-1,-1,-1,-1,-1,-1,-1,-1],"loss_changes":[2.6258293E-1,1.1440261E-1,1.7381617E-1,5.982977E-2,2.013458E-3,1.0321666E-1,1.6558017E-1,3.9656132E-2,2.1870868E-2,4.0698066E-4,2.3976723E-3,2.5872711E-2,4.410313E-2,9.556638E-2,1.4557121E-2,0E0,0E0,0E0,0E0,0E0,0E0,0E0,0E0,0E0,0E0,0E0,0E0,0E0,0E0,0E0,0E0],"parents":[2147483647,0,0,1,1,2,2,3,3,4,4,5,5,6,6,7,7,8,8,9,9,10,10,11,11,12,12,13,13,14,14],"right_children":[2,4,6,8,10,12,14,16,18,20,22,24,26,28,30,-1,-1,-1,-1,-1,-1,-1,-1,-1,-1,-1,-1,-1,-1,-1,-1],"split_conditions":[5.855E1,2.3754272E0,4.590096E0,5.665E1,5.844863E1,1.0440866E2,8.88011E0,3.484E1,5.992E1,8.121732E1,3.3046348E0,7.598496E1,6.003718E2,1.442E2,1.0449898E1,4.1064923E-4,2.9679518E-3,1.1314673E-3,-5.4663885E-4,2.3436247E-4,-6.0603616E-5,-7.265658E-4,-0E0,1.3521599E-4,-4.7991777E-4,-1.1989453E-3,-4.7758888E-3,3.2027347E-3,-1.5354053E-4,4.3917572E-4,-6.953792E-4],"split_indices":[11,3,3,10,0,0,3,7,7,2,3,5,0,11,3,0,0,0,0,0,0,0,0,0,0,0,0,0,0,0,0],"split_type":[0,0,0,0,0,0,0,0,0,0,0,0,0,0,0,0,0,0,0,0,0,0,0,0,0,0,0,0,0,0,0],"sum_hessian":[5.59E2,1.06E2,4.53E2,7.7E1,2.9E1,3.76E2,7.7E1,5E1,2.7E1,1.4E1,1.5E1,2.57E2,1.19E2,3.6E1,4.1E1,1E1,4E1,2E1,7E0,5E0,9E0,9E0,6E0,8.5E1,1.72E2,1.16E2,3E0,2.8E1,8E0,1.1E1,3E1],"tree_param":{"num_deleted":"0","num_feature":"12","num_nodes":"31","size_leaf_vector":"1"}},{"base_weights":[3.1701534E-4,3.8549446E-2,-1.1161134E-2,5.592836E-2,1.2331845E-2,-2.0572152E-2,3.5697572E-2,7.7404484E-2,-0E0,-0E0,1.7960336E-3,-6.501092E-2,-1.303749E-2,1.274831E-1,-1.079265E-2,9.3126047E-4,2.90837E-3,7.6060777E-4,-4.572801E-4,-4.5633494E-4,6.7959045E-4,-1.5460142E-3,-3.7267776E-3,8.859751E-5,-1.3761463E-3,5.2394816E-3,-0E0,-1.7854148E-3,4.8491795E-5],"categories":[],"categories_nodes":[],"categories_segments":[],"categories_sizes":[],"default_left":[0,0,0,0,0,0,0,0,0,0,0,0,0,0,0,0,0,0,0,0,0,0,0,0,0,0,0,0,0],"id":9,"left_children":[1,3,5,7,9,11,13,15,17,19,-1,21,23,25,27,-1,-1,-1,-1,-1,-1,-1,-1,-1,-1,-1,-1,-1,-1],"loss_changes":[2.440909E-1,5.1260993E-2,1.8487783E-1,8.893992E-2,3.1061582E-2,1.09542966E-1,3.0747685E-1,3.3114612E-2,9.037988E-3,1.599727E-2,0E0,1.5126511E-2,1.6456477E-1,1.5899679E-1,3.3696767E-2,0E0,0E0,0E0,0E0,0E0,0E0,0E0,0E0,0E0,0E0,0E0,0E0,0E0,0E0],"parents":[2147483647,0,0,1,1,2,2,3,3,4,4,5,5,6,6,7,7,8,8,9,9,11,11,12,12,13,13,14,14],"right_children":[2,4,6,8,10,12,14,16,18,20,-1,22,24,26,28,-1,-1,-1,-1,-1,-1,-1,-1,-1,-1,-1,-1,-1,-1],"split_conditions":[5.561563E1,2.144349E0,5.482457E0,5.9E1,5.259345E0,-7.6002345E0,9.367261E0,3.892455E1,-5.799102E-1,4.8446503E1,1.7960336E-3,5.726223E2,1.0273923E0,1.3038528E2,2.4878789E2,9.3126047E-4,2.90837E-3,7.6060777E-4,-4.572801E-4,-4.5633494E-4,6.7959045E-4,-1.5460142E-3,-3.7267776E-3,8.859751E-5,-1.3761463E-3,5.2394816E-3,-0E0,-1.7854148E-3,4.8491795E-5],"split_indices":[6,3,4,10,3,4,4,6,3,6,0,0,4,6,0,0,0,0,0,0,0,0,0,0,0,0,0,0,0],"split_type":[0,0,0,0,0,0,0,0,0,0,0,0,0,0,0,0,0,0,0,0,0,0,0,0,0,0,0,0,0],"sum_hessian":[5.48E2,1.28E2,4.2E2,7.4E1,5.4E1,3.52E2,6.8E1,5.3E1,2.1E1,4.4E1,1E1,4.8E1,3.04E2,2.3E1,4.5E1,1.8E1,3.5E1,8E0,1.3E1,2.6E1,1.8E1,4.2E1,6E0,2.03E2,1.01E2,1.7E1,6E0,1E1,3.5E1],"tree_param":{"num_deleted":"0","num_feature":"12","num_nodes":"29","size_leaf_vector":"1"}},{"base_weights":[1.2703405E-3,3.39056E-2,-8.911764E-3,6.2257383E-2,1.8414E-2,-2.485867E-2,9.524833E-3,9.805691E-2,-0E0,-0E0,4.1128043E-2,-1.7400863E-2,-6.0587212E-2,-3.086664E-3,3.6139753E-2,-0E0,3.4840186E-3,1.9695579E-4,-2.1554467E-4,9.873344E-4,-6.870259E-4,-0E0,1.4676973E-3,-1.0385802E-3,-2.2412608E-4,-2.4053245E-3,-0E0,2.6664278E-3,-2.4829243E-4,3.2197577E-3,1.9826839E-4],"categories":[],"categories_nodes":[],"categories_segments":[],"categories_sizes":[],"default_left":[0,0,0,0,0,0,0,0,0,0,0,0,0,0,0,0,0,0,0,0,0,0,0,0,0,0,0,0,0,0,0],"id":10,"left_children":[1,3,5,7,9,11,13,15,17,19,21,23,25,27,29,-1,-1,-1,-1,-1,-1,-1,-1,-1,-1,-1,-1,-1,-1,-1,-1],"loss_changes":[1.8789022E-1,5.008042E-2,1.2613498E-1,9.480527E-2,4.018781E-2,5.2431926E-2,6.853374E-2,4.097879E-2,8.615331E-4,3.792081E-2,1.7515235E-2,2.8702345E-2,3.7747607E-2,5.4722723E-2,1.2453803E-1,0E0,0E0,0E0,0E0,0E0,0E0,0E0,0E0,0E0,0E0,0E0,0E0,0E0,0E0,0E0,0E0],"parents":[2147483647,0,0,1,1,2,2,3,3,4,4,5,5,6,6,7,7,8,8,9,9,10,10,11,11,12,12,13,13,14,14],"right_children":[2,4,6,8,10,12,14,16,18,20,22,24,26,28,30,-1,-1,-1,-1,-1,-1,-1,-1,-1,-1,-1,-1,-1,-1,-1,-1],"split_conditions":[5.561563E1,5.4015957E1,5.016821E1,5.66E1,4.6021034E1,3E0,3E0,3.920638E1,5.904E1,4.28E1,6.1236683E1,7.004051E1,1.4096E2,6.0554943E1,6.239316E1,-0E0,3.4840186E-3,1.9695579E-4,-2.1554467E-4,9.873344E-4,-6.870259E-4,-0E0,1.4676973E-3,-1.0385802E-3,-2.2412608E-4,-2.4053245E-3,-0E0,2.6664278E-3,-2.4829243E-4,3.2197577E-3,1.9826839E-4],"split_indices":[6,2,2,11,6,1,1,6,8,11,2,6,11,5,2,0,0,0,0,0,0,0,0,0,0,0,0,0,0,0,0],"split_type":[0,0,0,0,0,0,0,0,0,0,0,0,0,0,0,0,0,0,0,0,0,0,0,0,0,0,0,0,0,0,0],"sum_hessian":[5.56E2,1.34E2,4.22E2,4.4E1,9E1,2.29E2,1.93E2,2.7E1,1.7E1,4.9E1,4.1E1,1.93E2,3.6E1,1.29E2,6.4E1,5E0,2.2E1,1.3E1,4E0,1.9E1,3E1,5E0,3.6E1,6.6E1,1.27E2,2.6E1,1E1,5E0,1.24E2,1.7E1,4.7E1],"tree_param":{"num_deleted":"0","num_feature":"12","num_nodes":"31","size_leaf_vector":"1"}},{"base_weights":[1.4382721E-3,-6.283314E-2,8.145241E-3,-4.710687E-2,-1.3093926E-1,1.5507895E-2,-3.0079134E-2,-1.5185178E-3,-0E0,-5.0814194E-3,-0E0,8.545363E-3,5.1284052E-2,-7.3179714E-2,-1.6805455E-2,1.3932955E-3,-5.604493E-5,3.7308575E-3,-3.1805335E-4,-3.787874E-4,-4.962701E-3,-0E0,-7.3841406E-4],"categories":[],"categories_nodes":[],"categories_segments":[],"categories_sizes":[],"default_left":[0,0,0,0,0,0,0,0,0,0,0,0,0,0,0,0,0,0,0,0,0,0,0],"id":11,"left_children":[1,3,5,7,9,11,13,-1,-1,-1,-1,15,17,19,21,-1,-1,-1,-1,-1,-1,-1,-1],"loss_changes":[2.3816442E-1,3.1722113E-2,1.4338437E-1,5.1888153E-3,3.497815E-2,1.0143593E-1,3.6112018E-2,0E0,0E0,0E0,0E0,1.4898616E-1,3.2022342E-1,7.506281E-2,1.0722771E-2,0E0,0E0,0E0,0E0,0E0,0E0,0E0,0E0],"parents":[2147483647,0,0,1,1,2,2,3,3,4,4,5,5,6,6,11,11,12,12,13,13,14,14],"right_children":[2,4,6,8,10,12,14,-1,-1,-1,-1,16,18,20,22,-1,-1,-1,-1,-1,-1,-1,-1],"split_conditions":[-7.6002345E0,5.726223E2,1.8357384E2,4.996875E2,-1.4695037E1,4.4540215E0,1.8981398E2,-1.5185178E-3,-0E0,-5.0814194E-3,-0E0,5.665E1,9.367261E0,1.1888897E2,1E0,1.3932955E-3,-5.604493E-5,3.7308575E-3,-3.1805335E-4,-3.787874E-4,-4.962701E-3,-0E0,-7.3841406E-4],"split_indices":[4,0,6,0,4,4,6,0,0,0,0,11,4,0,1,0,0,0,0,0,0,0,0],"split_type":[0,0,0,0,0,0,0,0,0,0,0,0,0,0,0,0,0,0,0,0,0,0,0],"sum_hessian":[5.63E2,5.1E1,5.12E2,4.4E1,7E0,4.32E2,8E1,4E1,4E0,5E0,2E0,3.65E2,6.7E1,1.6E1,6.4E1,8E1,2.85E2,3.1E1,3.6E1,1.1E1,5E0,1.7E1,4.7E1],"tree_param":{"num_deleted":"0","num_feature":"12","num_nodes":"23","size_leaf_vector":"1"}},{"base_weights":[-3.414412E-4,-5.9939515E-2,4.6149017E-3,-4.673744E-2,-4.0862584E-3,1.183932E-2,-2.8114608E-2,-6.949623E-3,-5.050251E-2,5.978552E-3,5.1528584E-2,-1.0537246E-1,-1.6188376E-2,-0E0,-6.5131206E-4,-0E0,-1.5641649E-3,1.4378615E-3,-3.466249E-5,3.0739577E-3,-1.19253E-3,-0E0,-4.653953E-3,-7.223647E-4,-0E0],"categories":[],"categories_nodes":[],"categories_segments":[],"categories_sizes":[],"default_left":[0,0,0,0,0,0,0,0,0,0,0,0,0,0,0,0,0,0,0,0,0,0,0,0,0],"id":12,"left_children":[1,3,5,7,-1,9,11,13,15,17,19,21,23,-1,-1,-1,-1,-1,-1,-1,-1,-1,-1,-1,-1],"loss_changes":[1.7270356E-1,2.0650312E-2,1.2189665E-1,4.5761466E-5,0E0,9.3963325E-2,7.0906445E-2,2.018627E-3,4.4149905E-4,1.1785722E-1,2.5676686E-1,4.632415E-2,1.0979019E-2,0E0,0E0,0E0,0E0,0E0,0E0,0E0,0E0,0E0,0E0,0E0,0E0],"parents":[2147483647,0,0,1,1,2,2,3,3,5,5,6,6,7,7,8,8,9,9,10,10,11,11,12,12],"right_children":[2,4,6,8,-1,10,12,14,16,18,20,22,24,-1,-1,-1,-1,-1,-1,-1,-1,-1,-1,-1,-1],"split_conditions":[-7.6002345E0,3.3076923E1,2.0793628E2,6.34E1,-4.0862584E-3,4.653442E0,2.1083617E2,-8.810524E0,1.1839166E1,5.9869915E1,1.1162508E1,2.012E2,2.2169135E2,-0E0,-6.5131206E-4,-0E0,-1.5641649E-3,1.4378615E-3,-3.466249E-5,3.0739577E-3,-1.19253E-3,-0E0,-4.653953E-3,-7.223647E-4,-0E0],"split_indices":[4,2,5,7,0,4,5,3,2,5,3,10,5,0,0,0,0,0,0,0,0,0,0,0,0],"split_type":[0,0,0,0,0,0,0,0,0,0,0,0,0,0,0,0,0,0,0,0,0,0,0,0,0],"sum_hessian":[5.64E2,4.4E1,5.2E2,4E1,4E0,4.29E2,9.1E1,6E0,3.4E1,3.77E2,5.2E1,1E1,8.1E1,2E0,4E0,2E0,3.2E1,5.6E1,3.21E2,3.4E1,1.8E1,4E0,6E0,5.5E1,2.6E1],"tree_param":{"num_deleted":"0","num_feature":"12","num_nodes":"25","size_leaf_vector":"1"}},{"base_weights":[5.3283724E-4,3.3849552E-2,-8.626456E-3,6.86471E-2,1.6724745E-2,-5.2558247E-2,-2.3115429E-3,8.391519E-2,-0E0,-0E0,4.3303326E-2,-3.5961594E-2,-3.447073E-3,-9.346723E-3,2.7806714E-2,1.3449601E-3,3.6308458E-3,6.7836413E-4,-2.57809E-4,1.5898603E-3,-0E0,-0E0,-1.282806E-3,9.574943E-5,-7.9684024E-4,3.471853E-3,-5.244173E-4],"categories":[],"categories_nodes":[],"categories_segments":[],"categories_sizes":[],"default_left":[0,0,0,0,0,0,0,0,0,0,0,0,0,0,0,0,0,0,0,0,0,0,0,0,0,0,0],"id":13,"left_children":[1,3,5,7,9,11,13,15,-1,17,19,21,-1,23,25,-1,-1,-1,-1,-1,-1,-1,-1,-1,-1,-1,-1],"loss_changes":[1.6759937E-1,6.122698E-2,1.1146506E-1,4.3934807E-2,3.3038825E-2,3.355147E-2,7.7236E-2,2.2953376E-2,0E0,1.1936028E-2,1.3957318E-2,1.2042932E-2,0E0,6.825394E-2,2.826059E-1,0E0,0E0,0E0,0E0,0E0,0E0,0E0,0E0,0E0,0E0,0E0,0E0],"parents":[2147483647,0,0,1,1,2,2,3,3,4,4,5,5,6,6,7,7,9,9,10,10,11,11,13,13,14,14],"right_children":[2,4,6,8,10,12,14,16,-1,18,20,22,-1,24,26,-1,-1,-1,-1,-1,-1,-1,-1,-1,-1,-1,-1],"split_conditions":[5.4363903E1,5.4015957E1,-5.378497E0,5.6E1,4.7545914E1,2.815916E1,6.137314E0,3.061459E1,-0E0,4.4E1,8.18847E1,8.4401474E1,-3.447073E-3,6.24483E-1,9.367261E0,1.3449601E-3,3.6308458E-3,6.7836413E-4,-2.57809E-4,1.5898603E-3,-0E0,-0E0,-1.282806E-3,9.574943E-5,-7.9684024E-4,3.471853E-3,-5.244173E-4],"split_indices":[6,2,3,9,6,2,4,2,0,9,5,5,0,4,4,0,0,0,0,0,0,0,0,0,0,0,0],"split_type":[0,0,0,0,0,0,0,0,0,0,0,0,0,0,0,0,0,0,0,0,0,0,0,0,0,0,0],"sum_hessian":[5.39E2,1.18E2,4.21E2,3.6E1,8.2E1,5E1,3.71E2,3E1,6E0,5.3E1,2.9E1,4.2E1,8E0,3.04E2,6.7E1,1.7E1,1.3E1,1.7E1,3.6E1,2.4E1,5E0,6E0,3.6E1,1.73E2,1.31E2,2.3E1,4.4E1],"tree_param":{"num_deleted":"0","num_feature":"12","num_nodes":"27","size_leaf_vector":"1"}},{"base_weights":[7.217271E-4,-6.4110845E-2,7.070708E-3,-4.5102347E-2,-4.301748E-3,1.4859546E-2,-2.8370125E-2,-2.6360052E-2,-6.307207E-2,7.120711E-3,6.2114213E-2,-9.3676955E-2,-1.5998494E-2,-1.4291379E-3,-2.9649638E-4,-0E0,-1.9578289E-3,1.178044E-3,-1.579938E-4,3.5543325E-3,-2.3900934E-4,-2.767832E-4,-4.51379E-3,-6.1800785E-4,-0E0],"categories":[],"categories_nodes":[],"categories_segments":[],"categories_sizes":[],"default_left":[0,0,0,0,0,0,0,0,0,0,0,0,0,0,0,0,0,0,0,0,0,0,0,0,0],"id":14,"left_children":[1,3,5,7,-1,9,11,13,15,17,19,21,23,-1,-1,-1,-1,-1,-1,-1,-1,-1,-1,-1,-1],"loss_changes":[2.269034E-1,4.852669E-2,1.4150867E-1,3.5395473E-3,0E0,1.4842075E-1,6.1057404E-2,2.5418773E-3,7.9734623E-4,1.5054855E-1,2.4109639E-1,4.49828E-2,5.242061E-3,0E0,0E0,0E0,0E0,0E0,0E0,0E0,0E0,0E0,0E0,0E0,0E0],"parents":[2147483647,0,0,1,1,2,2,3,3,5,5,6,6,7,7,8,8,9,9,10,10,11,11,12,12],"right_children":[2,4,6,8,-1,10,12,14,16,18,20,22,24,-1,-1,-1,-1,-1,-1,-1,-1,-1,-1,-1,-1],"split_conditions":[-7.6002345E0,3.3076923E1,2.0751912E2,9E1,-4.301748E-3,4.653442E0,2.1083617E2,6.899E1,9.966279E0,5.855E1,9.367261E0,2.012E2,2.2169135E2,-1.4291379E-3,-2.9649638E-4,-0E0,-1.9578289E-3,1.178044E-3,-1.579938E-4,3.5543325E-3,-2.3900934E-4,-2.767832E-4,-4.51379E-3,-6.1800785E-4,-0E0],"split_indices":[4,2,5,11,0,4,5,11,2,11,4,10,5,0,0,0,0,0,0,0,0,0,0,0,0],"split_type":[0,0,0,0,0,0,0,0,0,0,0,0,0,0,0,0,0,0,0,0,0,0,0,0,0],"sum_hessian":[5.63E2,4.8E1,5.15E2,4.1E1,7E0,4.25E2,9E1,2.4E1,1.7E1,3.68E2,5.7E1,1.2E1,7.8E1,7E0,1.7E1,1E0,1.6E1,1.04E2,2.64E2,3.2E1,2.5E1,6E0,6E0,5.9E1,1.9E1],"tree_param":{"num_deleted":"0","num_feature":"12","num_nodes":"25","size_leaf_vector":"1"}},{"base_weights":[1.9249303E-3,4.3389536E-2,-5.0261864E-3,7.661348E-2,-8.83029E-3,-1.2907761E-2,3.1186823E-2,2.8760118E-2,1.0487671E-1,-0E0,-1.4198691E-2,-5.8352336E-2,-8.7727355E-3,6.1329827E-2,-1.6587114E-2,-0E0,1.105911E-3,1.6185358E-3,4.906397E-3,-0E0,1.2756989E-4,-6.571647E-4,-0E0,-2.0247429E-4,-2.0686614E-3,1.0937358E-3,-3.3649008E-4,-1.2905344E-4,2.6994548E-3,-9.4428036E-4,-0E0],"categories":[],"categories_nodes":[],"categories_segments":[],"categories_sizes":[],"default_left":[0,0,0,0,0,0,0,0,0,0,0,0,0,0,0,0,0,0,0,0,0,0,0,0,0,0,0,0,0,0,0],"id":15,"left_children":[1,3,5,7,9,11,13,15,17,19,21,23,25,27,29,-1,-1,-1,-1,-1,-1,-1,-1,-1,-1,-1,-1,-1,-1,-1,-1],"loss_changes":[1.6632527E-1,1.5145555E-1,1.3585952E-1,5.3949565E-2,2.3432986E-3,6.7565545E-2,1.2645574E-1,4.9046744E-3,6.2048286E-2,1.0849385E-4,1.3995897E-3,8.925848E-3,3.8558163E-2,1.0862036E-1,8.0383355E-3,0E0,0E0,0E0,0E0,0E0,0E0,0E0,0E0,0E0,0E0,0E0,0E0,0E0,0E0,0E0,0E0],"parents":[2147483647,0,0,1,1,2,2,3,3,4,4,5,5,6,6,7,7,8,8,9,9,10,10,11,11,12,12,13,13,14,14],"right_children":[2,4,6,8,10,12,14,16,18,20,22,24,26,28,30,-1,-1,-1,-1,-1,-1,-1,-1,-1,-1,-1,-1,-1,-1,-1,-1],"split_conditions":[5.665E1,2.3754272E0,4.473473E0,3.920638E1,4.4E1,-1.4879494E1,1.0449898E1,3.087881E1,-1.9825271E-1,4.34E1,6.1202095E1,9E1,6.139752E1,3E0,2.2352057E2,-0E0,1.105911E-3,1.6185358E-3,4.906397E-3,-0E0,1.2756989E-4,-6.571647E-4,-0E0,-2.0247429E-4,-2.0686614E-3,1.0937358E-3,-3.3649008E-4,-1.2905344E-4,2.6994548E-3,-9.4428036E-4,-0E0],"split_indices":[11,3,3,6,11,3,3,6,3,8,5,11,5,1,5,0,0,0,0,0,0,0,0,0,0,0,0,0,0,0,0],"split_type":[0,0,0,0,0,0,0,0,0,0,0,0,0,0,0,0,0,0,0,0,0,0,0,0,0,0,0,0,0,0,0],"sum_hessian":[5.62E2,8.2E1,4.8E2,5.1E1,3.1E1,3.97E2,8.3E1,2.1E1,3E1,8E0,2.3E1,3E1,3.67E2,5.2E1,3.1E1,5E0,1.6E1,1.8E1,1.2E1,3E0,5E0,1.2E1,1.1E1,7E0,2.3E1,1.6E1,3.51E2,1.5E1,3.7E1,1.6E1,1.5E1],"tree_param":{"num_deleted":"0","num_feature":"12","num_nodes":"31","size_leaf_vector":"1"}},{"base_weights":[-4.0691838E-4,2.8208844E-2,-9.70908E-3,-0E0,3.9194666E-2,-1.6628997E-2,2.744044E-2,2.6756013E-2,-2.004259E-2,1.4559087E-1,2.1492975E-2,-7.279379E-3,-3.6281876E-2,1.1219413E-1,-1.9262629E-2,-0E0,1.0716044E-3,-0E0,-8.987477E-4,8.858511E-4,5.0237034E-3,1.9239685E-3,2.0854482E-4,-1.513316E-3,5.0989693E-5,-5.422501E-3,-8.521381E-4,4.034253E-3,-2.3488444E-4,-1.6202249E-3,-1.5359581E-4],"categories":[],"categories_nodes":[],"categories_segments":[],"categories_sizes":[],"default_left":[0,0,0,0,0,0,0,0,0,0,0,0,0,0,0,0,0,0,0,0,0,0,0,0,0,0,0,0,0,0,0],"id":16,"left_children":[1,3,5,7,9,11,13,15,17,19,21,23,25,27,29,-1,-1,-1,-1,-1,-1,-1,-1,-1,-1,-1,-1,-1,-1,-1,-1],"loss_changes":[1.4748943E-1,4.3124996E-2,1.08887665E-1,2.0693373E-2,1.6473496E-1,6.1896138E-2,2.68741E-1,3.8570007E-3,4.223232E-3,8.348316E-3,4.5769136E-2,1.0185403E-1,1.0254608E-1,7.789928E-2,1.4449071E-2,0E0,0E0,0E0,0E0,0E0,0E0,0E0,0E0,0E0,0E0,0E0,0E0,0E0,0E0,0E0,0E0],"parents":[2147483647,0,0,1,1,2,2,3,3,4,4,5,5,6,6,7,7,8,8,9,9,10,10,11,11,12,12,13,13,14,14],"right_children":[2,4,6,8,10,12,14,16,18,20,22,24,26,28,30,-1,-1,-1,-1,-1,-1,-1,-1,-1,-1,-1,-1,-1,-1,-1,-1],"split_conditions":[5.561563E1,3.892455E1,6.137314E0,4.5485977E1,5.757571E1,1.0273923E0,9.718517E0,3.087881E1,3.141799E1,3.9671703E1,-2.845103E0,-7.8047915E0,7.767035E1,1.783412E2,2.4878789E2,-0E0,1.0716044E-3,-0E0,-8.987477E-4,8.858511E-4,5.0237034E-3,1.9239685E-3,2.0854482E-4,-1.513316E-3,5.0989693E-5,-5.422501E-3,-8.521381E-4,4.034253E-3,-2.3488444E-4,-1.6202249E-3,-1.5359581E-4],"split_indices":[6,6,4,0,5,4,4,6,6,6,4,4,5,5,0,0,0,0,0,0,0,0,0,0,0,0,0,0,0,0,0],"split_type":[0,0,0,0,0,0,0,0,0,0,0,0,0,0,0,0,0,0,0,0,0,0,0,0,0,0,0,0,0,0,0],"sum_hessian":[5.59E2,1.34E2,4.25E2,3.7E1,9.7E1,3.61E2,6.4E1,1.5E1,2.2E1,1.2E1,8.5E1,2.49E2,1.12E2,2.3E1,4.1E1,4E0,1.1E1,8E0,1.4E1,3E0,9E0,1.9E1,6.6E1,4.4E1,2.05E2,4E0,1.08E2,2E1,3E0,9E0,3.2E1],"tree_param":{"num_deleted":"0","num_feature":"12","num_nodes":"31","size_leaf_vector":"1"}},{"base_weights":[-1.6916152E-5,-4.926317E-2,4.9622953E-3,-3.293698E-2,-4.196727E-3,3.674259E-2,-0E0,-0E0,-3.8012117E-2,-0E0,8.279598E-2,-5.9061297E-3,2.8716816E-2,-0E0,-1.2379029E-3,1.007659E-3,-5.6794094E-4,4.3441737E-3,9.224209E-4,1.3158731E-4,-4.845682E-4,2.3004583E-3,-6.808013E-4],"categories":[],"categories_nodes":[],"categories_segments":[],"categories_sizes":[],"default_left":[0,0,0,0,0,0,0,0,0,0,0,0,0,0,0,0,0,0,0,0,0,0,0],"id":17,"left_children":[1,3,5,7,-1,9,11,-1,13,15,17,19,21,-1,-1,-1,-1,-1,-1,-1,-1,-1,-1],"loss_changes":[1.4370722E-1,5.8008328E-2,8.454436E-2,1.1503983E-2,0E0,1.1530909E-1,7.314122E-2,0E0,6.2329695E-3,2.8497647E-2,7.804555E-2,4.0372048E-2,1.8714945E-1,0E0,0E0,0E0,0E0,0E0,0E0,0E0,0E0,0E0,0E0],"parents":[2147483647,0,0,1,1,2,2,3,3,5,5,6,6,8,8,9,9,10,10,11,11,12,12],"right_children":[2,4,6,8,-1,10,12,-1,14,16,18,20,22,-1,-1,-1,-1,-1,-1,-1,-1,-1,-1],"split_conditions":[-6.5635743E0,3.285421E1,5.6E1,5.3563786E1,-4.196727E-3,3.892455E1,5.259345E0,-0E0,9.283819E0,4.4501022E1,5.757571E1,3.3397305E-1,1.1162508E1,-0E0,-1.2379029E-3,1.007659E-3,-5.6794094E-4,4.3441737E-3,9.224209E-4,1.3158731E-4,-4.845682E-4,2.3004583E-3,-6.808013E-4],"split_indices":[3,2,7,6,0,6,3,0,2,0,5,3,3,0,0,0,0,0,0,0,0,0,0],"split_type":[0,0,0,0,0,0,0,0,0,0,0,0,0,0,0,0,0,0,0,0,0,0,0],"sum_hessian":[5.66E2,5.3E1,5.13E2,4.7E1,6E0,7.1E1,4.42E2,4E0,4.3E1,4.1E1,3E1,3.7E2,7.2E1,3E0,4E1,1.6E1,2.5E1,1.2E1,1.8E1,1.8E2,1.9E2,3.8E1,3.4E1],"tree_param":{"num_deleted":"0","num_feature":"12","num_nodes":"23","size_leaf_vector":"1"}},{"base_weights":[-2.7522768E-4,-6.1557546E-2,5.1982845E-3,-4.3049358E-2,-4.017114E-3,4.4850413E-2,-0E0,-7.106707E-2,-2.939689E-2,6.790465E-3,1.0054621E-1,-5.685179E-3,2.7149897E-2,-2.305089E-3,-0E0,-0E0,-1.2730599E-3,7.823841E-4,-1.0790669E-3,-0E0,3.7853103E-3,5.10728E-4,-3.845617E-4,2.1574507E-3,-6.1015715E-4],"categories":[],"categories_nodes":[],"categories_segments":[],"categories_sizes":[],"default_left":[0,0,0,0,0,0,0,0,0,0,0,0,0,0,0,0,0,0,0,0,0,0,0,0,0],"id":18,"left_children":[1,3,5,7,-1,9,11,13,15,17,19,21,23,-1,-1,-1,-1,-1,-1,-1,-1,-1,-1,-1,-1],"loss_changes":[1.9178388E-1,3.947313E-2,1.0093163E-1,3.1648949E-3,0E0,1.09410994E-1,7.172998E-2,2.6290715E-3,1.1026407E-2,2.964139E-2,4.824096E-2,6.0061246E-2,1.788123E-1,0E0,0E0,0E0,0E0,0E0,0E0,0E0,0E0,0E0,0E0,0E0,0E0],"parents":[2147483647,0,0,1,1,2,2,3,3,5,5,6,6,7,7,8,8,9,9,10,10,11,11,12,12],"right_children":[2,4,6,8,-1,10,12,14,16,18,20,22,24,-1,-1,-1,-1,-1,-1,-1,-1,-1,-1,-1,-1],"split_conditions":[-7.6002345E0,3.3076923E1,5.9869915E1,-1.7298038E1,-4.017114E-3,3.920638E1,4.4593997E0,9.399E1,-1.4990208E1,2.4543903E0,-8.184214E-2,-1.3055596E0,1.0231242E1,-2.305089E-3,-0E0,-0E0,-1.2730599E-3,7.823841E-4,-1.0790669E-3,-0E0,3.7853103E-3,5.10728E-4,-3.845617E-4,2.1574507E-3,-6.1015715E-4],"split_indices":[4,2,5,4,0,6,4,9,4,4,3,4,3,0,0,0,0,0,0,0,0,0,0,0,0],"split_type":[0,0,0,0,0,0,0,0,0,0,0,0,0,0,0,0,0,0,0,0,0,0,0,0,0],"sum_hessian":[5.53E2,4.6E1,5.07E2,3.9E1,7E0,5.6E1,4.51E2,9E0,3E1,3.5E1,2.1E1,3.71E2,8E1,8E0,1E0,1E1,2E1,2.6E1,9E0,5E0,1.6E1,8.5E1,2.86E2,4.2E1,3.8E1],"tree_param":{"num_deleted":"0","num_feature":"12","num_nodes":"25","size_leaf_vector":"1"}},{"base_weights":[-1.9837786E-3,2.4268799E-2,-8.787335E-3,4.39183E-2,3.818052E-3,-2.4167724E-2,6.314473E-3,6.461349E-2,9.767471E-3,4.12957E-2,-1.1974085E-2,3.088756E-3,-2.789215E-2,-3.2627499E-3,2.8818429E-2,-0E0,2.3415638E-3,-0E0,1.5177992E-3,1.7989066E-3,-8.901024E-5,-8.0838247E-4,1.3809917E-3,-2.3571747E-4,1.6170894E-3,-9.4683707E-4,-1.6128054E-6,2.880666E-5,-1.0728023E-3,2.7254298E-3,2.760768E-4],"categories":[],"categories_nodes":[],"categories_segments":[],"categories_sizes":[],"default_left":[0,0,0,0,0,0,0,0,0,0,0,0,0,0,0,0,0,0,0,0,0,0,0,0,0,0,0,0,0,0,0],"id":19,"left_children":[1,3,5,7,9,11,13,15,17,19,21,23,25,27,29,-1,-1,-1,-1,-1,-1,-1,-1,-1,-1,-1,-1,-1,-1,-1,-1],"loss_changes":[9.565082E-2,3.886E-2,1.02976106E-1,2.9388972E-2,3.716221E-2,2.479823E-2,4.9418606E-2,2.2881374E-2,1.0604134E-2,2.1577071E-2,3.320254E-2,1.837721E-2,1.6856521E-2,2.4099618E-2,7.1898445E-2,0E0,0E0,0E0,0E0,0E0,0E0,0E0,0E0,0E0,0E0,0E0,0E0,0E0,0E0,0E0,0E0],"parents":[2147483647,0,0,1,1,2,2,3,3,4,4,5,5,6,6,7,7,8,8,9,9,10,10,11,11,12,12,13,13,14,14],"right_children":[2,4,6,8,10,12,14,16,18,20,22,24,26,28,30,-1,-1,-1,-1,-1,-1,-1,-1,-1,-1,-1,-1,-1,-1,-1,-1],"split_conditions":[5.855E1,5.67734E1,5.016821E1,5.6E1,3.642624E1,3.280536E1,3E0,3.7265564E1,5.2420135E1,6.0554943E1,6.624392E1,3.0539238E1,2.02E2,2.039E2,6.260623E1,-0E0,2.3415638E-3,-0E0,1.5177992E-3,1.7989066E-3,-8.901024E-5,-8.0838247E-4,1.3809917E-3,-2.3571747E-4,1.6170894E-3,-9.4683707E-4,-1.6128054E-6,2.880666E-5,-1.0728023E-3,2.7254298E-3,2.760768E-4],"split_indices":[11,2,2,11,0,0,1,5,2,5,5,0,7,7,2,0,0,0,0,0,0,0,0,0,0,0,0,0,0,0,0],"split_type":[0,0,0,0,0,0,0,0,0,0,0,0,0,0,0,0,0,0,0,0,0,0,0,0,0,0,0,0,0,0,0],"sum_hessian":[5.42E2,1.08E2,4.34E2,5.2E1,5.6E1,2.18E2,2.16E2,3E1,2.2E1,1.8E1,3.8E1,2.3E1,1.95E2,1.49E2,6.7E1,6E0,2.4E1,1.8E1,4E0,1.4E1,4E0,3.2E1,6E0,1.8E1,5E0,1.69E2,2.6E1,1.3E2,1.9E1,1.4E1,5.3E1],"tree_param":{"num_deleted":"0","num_feature":"12","num_nodes":"31","size_leaf_vector":"1"}},{"base_weights":[-3.2657637E-5,-4.962288E-2,4.8353462E-3,-3.1688277E-2,-3.88681E-3,1.2073604E-2,-2.6230358E-2,-6.104247E-2,-1.8318146E-2,6.692708E-3,4.1504595E-2,-2.0077212E-3,-3.4227036E-2,-2.0896338E-3,-0E0,-0E0,-8.9431775E-4,8.628904E-4,-1.030969E-4,2.6564898E-3,-7.1701483E-4,5.514583E-4,-4.51896E-4,-3.8187033E-3,-7.367099E-4],"categories":[],"categories_nodes":[],"categories_segments":[],"categories_sizes":[],"default_left":[0,0,0,0,0,0,0,0,0,0,0,0,0,0,0,0,0,0,0,0,0,0,0,0,0],"id":20,"left_children":[1,3,5,7,-1,9,11,13,15,17,19,21,23,-1,-1,-1,-1,-1,-1,-1,-1,-1,-1,-1,-1],"loss_changes":[1.3725026E-1,5.2885592E-2,1.1110696E-1,8.214403E-3,0E0,5.9515458E-2,1.412826E-2,2.6776902E-3,7.2532482E-3,8.065257E-2,1.9320056E-1,7.132331E-3,4.1084394E-2,0E0,0E0,0E0,0E0,0E0,0E0,0E0,0E0,0E0,0E0,0E0,0E0],"parents":[2147483647,0,0,1,1,2,2,3,3,5,5,6,6,7,7,8,8,9,9,10,10,11,11,12,12],"right_children":[2,4,6,8,-1,10,12,14,16,18,20,22,24,-1,-1,-1,-1,-1,-1,-1,-1,-1,-1,-1,-1],"split_conditions":[-7.6002345E0,3.285421E1,1.948E2,-1.7142086E1,-3.88681E-3,4.4593997E0,2.0174237E-2,9.349E1,-1.4595066E1,5.855E1,1.0231242E1,1.8722958E2,1.98E2,-2.0896338E-3,-0E0,-0E0,-8.9431775E-4,8.628904E-4,-1.030969E-4,2.6564898E-3,-7.1701483E-4,5.514583E-4,-4.51896E-4,-3.8187033E-3,-7.367099E-4],"split_indices":[4,2,11,4,0,4,4,9,4,11,3,6,8,0,0,0,0,0,0,0,0,0,0,0,0],"split_type":[0,0,0,0,0,0,0,0,0,0,0,0,0,0,0,0,0,0,0,0,0,0,0,0,0],"sum_hessian":[5.48E2,5E1,4.98E2,4.3E1,7E0,4.07E2,9.1E1,1E1,3.3E1,3.48E2,5.9E1,2.6E1,6.5E1,8E0,2E0,1.3E1,2E1,1.12E2,2.36E2,3.5E1,2.4E1,7E0,1.9E1,4E0,6.1E1],"tree_param":{"num_deleted":"0","num_feature":"12","num_nodes":"25","size_leaf_vector":"1"}},{"base_weights":[4.492595E-4,2.6805624E-2,-7.186014E-3,3.0464884E-2,-1.007119E-3,-2.0915419E-2,7.037908E-3,4.22027E-3,4.1490503E-2,-0E0,-2.5733225E-2,-2.3858813E-3,2.8810486E-2,7.0777873E-4,-4.906585E-4,4.019667E-3,8.444509E-4,4.3021495E-4,-2.2392953E-4,-2.0254047E-3,-5.6576665E-4,6.181415E-5,-7.9697446E-4,2.057123E-3,-0E0],"categories":[],"categories_nodes":[],"categories_segments":[],"categories_sizes":[],"default_left":[0,0,0,0,0,0,0,0,0,0,0,0,0,0,0,0,0,0,0,0,0,0,0,0,0],"id":21,"left_children":[1,3,5,7,-1,9,11,13,15,17,19,21,23,-1,-1,-1,-1,-1,-1,-1,-1,-1,-1,-1,-1],"loss_changes":[1.1042066E-1,2.810777E-2,8.2578644E-2,2.968803E-2,0E0,2.0507611E-2,4.3952413E-2,1.665488E-2,7.997896E-2,4.400646E-3,3.9777145E-2,1.7342001E-2,7.853179E-2,0E0,0E0,0E0,0E0,0E0,0E0,0E0,0E0,0E0,0E0,0E0,0E0],"parents":[2147483647,0,0,1,1,2,2,3,3,5,5,6,6,7,7,8,8,9,9,10,10,11,11,12,12],"right_children":[2,4,6,8,-1,10,12,14,16,18,20,22,24,-1,-1,-1,-1,-1,-1,-1,-1,-1,-1,-1,-1],"split_conditions":[5.561563E1,9.740196E1,4.9238194E1,3.920638E1,-1.007119E-3,7.598496E1,3E0,4.28E1,5.757571E1,1E0,7.313E1,2.012E2,6.9363495E1,7.0777873E-4,-4.906585E-4,4.019667E-3,8.444509E-4,4.3021495E-4,-2.2392953E-4,-2.0254047E-3,-5.6576665E-4,6.181415E-5,-7.9697446E-4,2.057123E-3,-0E0],"split_indices":[6,2,2,6,0,5,1,11,5,1,11,7,2,0,0,0,0,0,0,0,0,0,0,0,0],"split_type":[0,0,0,0,0,0,0,0,0,0,0,0,0,0,0,0,0,0,0,0,0,0,0,0,0],"sum_hessian":[5.37E2,1.23E2,4.14E2,1.18E2,5E0,2.14E2,2E2,3.8E1,8E1,4.2E1,1.72E2,1.37E2,6.3E1,2.2E1,1.6E1,8E0,7.2E1,1.2E1,3E1,2.1E1,1.51E2,1.13E2,2.4E1,2.7E1,3.6E1],"tree_param":{"num_deleted":"0","num_feature":"12","num_nodes":"25","size_leaf_vector":"1"}},{"base_weights":[-1.1883146E-3,-4.8012692E-2,3.2742522E-3,-3.332609E-2,-3.5125716E-3,9.925715E-3,-2.2220198E-2,-3.0647297E-4,-4.154201E-2,3.566242E-2,3.7496116E-3,-1.2354372E-2,-4.1166455E-2,-0E0,-2.5901734E-4,-0E0,-1.3191503E-3,1.2787447E-3,5.834414E-5,-5.0723236E-5,1.0840696E-3,6.5428176E-4,-5.4251484E-4,-4.345297E-3,-3.19121E-4],"categories":[],"categories_nodes":[],"categories_segments":[],"categories_sizes":[],"default_left":[0,0,0,0,0,0,0,0,0,0,0,0,0,0,0,0,0,0,0,0,0,0,0,0,0],"id":22,"left_children":[1,3,5,7,-1,9,11,13,15,17,19,21,23,-1,-1,-1,-1,-1,-1,-1,-1,-1,-1,-1,-1],"loss_changes":[1.1746778E-1,3.0764759E-2,8.24222E-2,7.4677356E-3,0E0,5.8552384E-2,1.2644459E-2,5.952283E-4,4.715141E-3,1.25973E-2,6.02396E-2,1.3723628E-2,7.786591E-2,0E0,0E0,0E0,0E0,0E0,0E0,0E0,0E0,0E0,0E0,0E0,0E0],"parents":[2147483647,0,0,1,1,2,2,3,3,5,5,6,6,7,7,8,8,9,9,10,10,11,11,12,12],"right_children":[2,4,6,8,-1,10,12,14,16,18,20,22,24,-1,-1,-1,-1,-1,-1,-1,-1,-1,-1,-1,-1],"split_conditions":[-6.824919E0,3.3076923E1,1.949E2,2.0874101E2,-3.5125716E-3,-1.2619444E0,1.2180519E2,2.2082514E1,4.7180243E0,1.9936432E2,5.259345E0,1.8175264E2,2.1518802E2,-0E0,-2.5901734E-4,-0E0,-1.3191503E-3,1.2787447E-3,5.834414E-5,-5.0723236E-5,1.0840696E-3,6.5428176E-4,-5.4251484E-4,-4.345297E-3,-3.19121E-4],"split_indices":[3,2,11,0,0,3,0,2,2,5,3,6,5,0,0,0,0,0,0,0,0,0,0,0,0],"split_type":[0,0,0,0,0,0,0,0,0,0,0,0,0,0,0,0,0,0,0,0,0,0,0,0,0],"sum_hessian":[5.39E2,4.8E1,4.91E2,4.2E1,6E0,3.93E2,9.8E1,1.1E1,3.1E1,7.2E1,3.21E2,6.9E1,2.9E1,4E0,7E0,1E0,3E1,5.7E1,1.5E1,2.73E2,4.8E1,7E0,6.2E1,5E0,2.4E1],"tree_param":{"num_deleted":"0","num_feature":"12","num_nodes":"25","size_leaf_vector":"1"}},{"base_weights":[-1.0033174E-3,2.6518166E-2,-7.920368E-3,3.2968447E-2,-2.367601E-3,-1.9198723E-2,4.4770017E-3,-0E0,3.6058467E-2,-1.6025145E-2,4.207471E-3,1.2275442E-2,-2.3069933E-2,-4.7302046E-3,2.5243966E-2,1.524384E-3,4.5961965E-4,-0E0,-6.4173236E-4,3.463055E-4,-0E0,-1.10285044E-4,2.322289E-3,-1.5886237E-3,-5.614829E-4,1.3545301E-4,-6.024402E-4,1.9954506E-3,1.34860375E-5],"categories":[],"categories_nodes":[],"categories_segments":[],"categories_sizes":[],"default_left":[0,0,0,0,0,0,0,0,0,0,0,0,0,0,0,0,0,0,0,0,0,0,0,0,0,0,0,0,0],"id":23,"left_children":[1,3,5,7,9,11,13,-1,15,17,19,21,23,25,27,-1,-1,-1,-1,-1,-1,-1,-1,-1,-1,-1,-1,-1,-1],"loss_changes":[1.04194574E-1,2.3447163E-2,6.419836E-2,1.1821821E-2,2.8655806E-3,3.0483142E-2,4.232398E-2,0E0,1.8921822E-2,1.2933463E-3,6.578942E-4,3.2593805E-2,1.9945838E-2,2.1942703E-2,6.285752E-2,0E0,0E0,0E0,0E0,0E0,0E0,0E0,0E0,0E0,0E0,0E0,0E0,0E0,0E0],"parents":[2147483647,0,0,1,1,2,2,3,3,4,4,5,5,6,6,8,8,9,9,10,10,11,11,12,12,13,13,14,14],"right_children":[2,4,6,8,10,12,14,-1,16,18,20,22,24,26,28,-1,-1,-1,-1,-1,-1,-1,-1,-1,-1,-1,-1,-1,-1],"split_conditions":[5.855E1,8.274672E1,5.099206E1,3.401E1,5.54E1,3.280536E1,3E0,-0E0,5.579E1,4.05E1,2E0,3.0539238E1,4.4995556E1,1.0425339E2,6.9363495E1,1.524384E-3,4.5961965E-4,-0E0,-6.4173236E-4,3.463055E-4,-0E0,-1.10285044E-4,2.322289E-3,-1.5886237E-3,-5.614829E-4,1.3545301E-4,-6.024402E-4,1.9954506E-3,1.34860375E-5],"split_indices":[11,2,2,7,11,0,1,0,8,8,1,0,0,0,2,0,0,0,0,0,0,0,0,0,0,0,0,0,0],"split_type":[0,0,0,0,0,0,0,0,0,0,0,0,0,0,0,0,0,0,0,0,0,0,0,0,0,0,0,0,0],"sum_hessian":[5.55E2,1.08E2,4.47E2,9.1E1,1.7E1,2.38E2,2.09E2,6E0,8.5E1,1E1,7E0,2.3E1,2.15E2,1.42E2,6.7E1,4.6E1,3.9E1,2E0,8E0,5E0,2E0,1.8E1,5E0,2.3E1,1.92E2,8.5E1,5.7E1,2.3E1,4.4E1],"tree_param":{"num_deleted":"0","num_feature":"12","num_nodes":"29","size_leaf_vector":"1"}},{"base_weights":[-7.995236E-4,2.5371494E-2,-9.591914E-3,2.690257E-4,3.4071766E-2,-1.6029935E-2,2.2687506E-2,4.125561E-2,-1.325194E-2,1.265507E-1,1.905718E-2,-7.1407636E-3,-3.475649E-2,9.07775E-2,-1.1157005E-2,-0E0,1.3165877E-3,-6.139362E-4,-0E0,5.4772536E-4,4.416387E-3,1.6206371E-3,1.5832858E-4,-0E0,-1.6107504E-3,-5.205757E-3,-8.1252796E-4,3.4435666E-3,-1.02306396E-4,1.2538749E-3,-4.645426E-4],"categories":[],"categories_nodes":[],"categories_segments":[],"categories_sizes":[],"default_left":[0,0,0,0,0,0,0,0,0,0,0,0,0,0,0,0,0,0,0,0,0,0,0,0,0,0,0,0,0,0,0],"id":24,"left_children":[1,3,5,7,9,11,13,15,17,19,21,23,25,27,29,-1,-1,-1,-1,-1,-1,-1,-1,-1,-1,-1,-1,-1,-1,-1,-1],"loss_changes":[1.291354E-1,2.7132504E-2,8.8643E-2,2.551421E-2,1.2326934E-1,5.5488974E-2,1.6798347E-1,7.617362E-4,2.8643487E-3,9.853721E-3,3.6664266E-2,8.531845E-2,9.448172E-2,6.579931E-2,8.557752E-3,0E0,0E0,0E0,0E0,0E0,0E0,0E0,0E0,0E0,0E0,0E0,0E0,0E0,0E0,0E0,0E0],"parents":[2147483647,0,0,1,1,2,2,3,3,4,4,5,5,6,6,7,7,8,8,9,9,10,10,11,11,12,12,13,13,14,14],"right_children":[2,4,6,8,10,12,14,16,18,20,22,24,26,28,30,-1,-1,-1,-1,-1,-1,-1,-1,-1,-1,-1,-1,-1,-1,-1,-1],"split_conditions":[5.561563E1,3.892455E1,6.137314E0,1.5453427E0,5.757571E1,1.0273923E0,9.367261E0,3.446377E1,4.48E1,3.9671703E1,-3.2477007E0,3E0,7.767035E1,1.783412E2,1.038E2,-0E0,1.3165877E-3,-6.139362E-4,-0E0,5.4772536E-4,4.416387E-3,1.6206371E-3,1.5832858E-4,-0E0,-1.6107504E-3,-5.205757E-3,-8.1252796E-4,3.4435666E-3,-1.02306396E-4,1.2538749E-3,-4.645426E-4],"split_indices":[6,6,4,4,5,4,4,5,8,6,4,1,5,5,8,0,0,0,0,0,0,0,0,0,0,0,0,0,0,0,0],"split_type":[0,0,0,0,0,0,0,0,0,0,0,0,0,0,0,0,0,0,0,0,0,0,0,0,0,0,0,0,0,0,0],"sum_hessian":[5.66E2,1.39E2,4.27E2,3.9E1,1E2,3.59E2,6.8E1,1.1E1,2.8E1,1.2E1,8.8E1,2.48E2,1.11E2,2.3E1,4.5E1,1E0,1E1,1.8E1,1E1,3E0,9E0,2.2E1,6.6E1,2.15E2,3.3E1,4E0,1.07E2,1.9E1,4E0,1E0,4.4E1],"tree_param":{"num_deleted":"0","num_feature":"12","num_nodes":"31","size_leaf_vector":"1"}},{"base_weights":[6.829398E-4,4.533117E-2,-4.077334E-3,6.721705E-2,-1.0845653E-2,-5.744862E-2,-5.401933E-4,4.1025862E-2,1.2582703E-1,-0E0,-1.7791107E-2,-3.0067666E-2,-1.2492196E-1,-5.2944613E-3,2.551043E-2,1.6512546E-3,-0E0,-0E0,4.5885257E-3,-5.923844E-4,-0E0,-1.7304329E-3,-1.4485294E-4,-0E0,-4.197895E-3,1.2804699E-4,-6.1153475E-4,2.1660866E-3,-1.7097368E-4],"categories":[],"categories_nodes":[],"categories_segments":[],"categories_sizes":[],"default_left":[0,0,0,0,0,0,0,0,0,0,0,0,0,0,0,0,0,0,0,0,0,0,0,0,0,0,0,0,0],"id":25,"left_children":[1,3,5,7,9,11,13,15,17,-1,19,21,23,25,27,-1,-1,-1,-1,-1,-1,-1,-1,-1,-1,-1,-1,-1,-1],"loss_changes":[1.20993465E-1,7.3987514E-2,8.761705E-2,4.109019E-2,1.4008125E-3,3.4321994E-2,5.5952184E-2,1.7504085E-2,3.6388874E-2,0E0,3.4395745E-4,9.500198E-3,8.243665E-3,5.927487E-2,1.0761216E-1,0E0,0E0,0E0,0E0,0E0,0E0,0E0,0E0,0E0,0E0,0E0,0E0,0E0,0E0],"parents":[2147483647,0,0,1,1,2,2,3,3,4,4,5,5,6,6,7,7,8,8,10,10,11,11,12,12,13,13,14,14],"right_children":[2,4,6,8,10,12,14,16,18,-1,20,22,24,26,28,-1,-1,-1,-1,-1,-1,-1,-1,-1,-1,-1,-1,-1,-1],"split_conditions":[5.9869915E1,2.3754272E0,-1.3988539E1,5.652528E1,2.4543903E0,2.4409449E1,5.259345E0,1.5453427E0,2.9340593E1,-0E0,5.649E1,-1.7454481E1,4.085062E2,7.576895E-1,9.362551E0,1.6512546E-3,-0E0,-0E0,4.5885257E-3,-5.923844E-4,-0E0,-1.7304329E-3,-1.4485294E-4,-0E0,-4.197895E-3,1.2804699E-4,-6.1153475E-4,2.1660866E-3,-1.7097368E-4],"split_indices":[5,3,3,0,4,2,3,4,2,0,11,4,0,4,4,0,0,0,0,0,0,0,0,0,0,0,0,0,0],"split_type":[0,0,0,0,0,0,0,0,0,0,0,0,0,0,0,0,0,0,0,0,0,0,0,0,0,0,0,0,0],"sum_hessian":[5.48E2,5.4E1,4.94E2,4E1,1.4E1,2.8E1,4.66E2,3E1,1E1,5E0,9E0,2.2E1,6E0,3.98E2,6.8E1,2.2E1,8E0,2E0,8E0,8E0,1E0,8E0,1.4E1,1E0,5E0,2.4E2,1.58E2,2.8E1,4E1],"tree_param":{"num_deleted":"0","num_feature":"12","num_nodes":"29","size_leaf_vector":"1"}},{"base_weights":[8.976811E-4,-5.1627576E-2,6.3051516E-3,-3.8710386E-2,-1.02104016E-1,1.169825E-2,-1.657938E-2,-4.0837247E-2,-0E0,-4.0929476E-3,-0E0,7.394799E-3,3.882172E-2,-9.425401E-2,-1.1831848E-2,-0E0,-1.2859069E-3,9.07821E-4,1.8248114E-5,2.4742726E-3,-8.05927E-4,-0E0,-3.5596457E-3,4.995453E-5,-5.576124E-4],"categories":[],"categories_nodes":[],"categories_segments":[],"categories_sizes":[],"default_left":[0,0,0,0,0,0,0,0,0,0,0,0,0,0,0,0,0,0,0,0,0,0,0,0,0],"id":26,"left_children":[1,3,5,7,9,11,13,15,-1,-1,-1,17,19,21,23,-1,-1,-1,-1,-1,-1,-1,-1,-1,-1],"loss_changes":[1.528612E-1,1.4566749E-2,6.1908767E-2,3.939666E-3,2.8279625E-2,4.3181766E-2,2.2571158E-2,1.4419183E-3,0E0,0E0,0E0,5.2759532E-2,1.5975201E-1,6.7016557E-3,9.928927E-3,0E0,0E0,0E0,0E0,0E0,0E0,0E0,0E0,0E0,0E0],"parents":[2147483647,0,0,1,1,2,2,3,3,4,4,5,5,6,6,7,7,11,11,12,12,13,13,14,14],"right_children":[2,4,6,8,10,12,14,16,-1,-1,-1,18,20,22,24,-1,-1,-1,-1,-1,-1,-1,-1,-1,-1],"split_conditions":[-7.6002345E0,5.726223E2,1.95E2,5.384234E2,-1.4695037E1,4.653442E0,1.91E2,6.13E1,-0E0,-4.0929476E-3,-0E0,5.665E1,9.718517E0,5.494902E1,1E0,-0E0,-1.2859069E-3,9.07821E-4,1.8248114E-5,2.4742726E-3,-8.05927E-4,-0E0,-3.5596457E-3,4.995453E-5,-5.576124E-4],"split_indices":[4,0,9,0,4,4,7,7,0,0,0,8,4,0,1,0,0,0,0,0,0,0,0,0,0],"split_type":[0,0,0,0,0,0,0,0,0,0,0,0,0,0,0,0,0,0,0,0,0,0,0,0,0],"sum_hessian":[5.52E2,4.9E1,5.03E2,4.2E1,7E0,4.11E2,9.2E1,4E1,2E0,5E0,2E0,3.59E2,5.2E1,3E0,8.9E1,3E0,3.7E1,7.8E1,2.81E2,3.2E1,2E1,1E0,2E0,2.5E1,6.4E1],"tree_param":{"num_deleted":"0","num_feature":"12","num_nodes":"25","size_leaf_vector":"1"}},{"base_weights":[-2.7104383E-4,-5.289822E-2,2.519685E-3,-3.207923E-2,-1.1416098E-1,7.4120807E-3,-2.1662127E-2,-5.2288316E-2,-5.3229243E-3,-0E0,-3.9082617E-3,3.0875695E-3,3.0683327E-2,-1.22842975E-2,-6.1870653E-2,-1.8210155E-3,-0E0,-0E0,-5.100431E-4,6.64791E-4,-1.4685837E-4,2.873534E-3,-2.672902E-4,2.5051716E-4,-5.9932284E-4,-4.2298893E-3,-1.836228E-4],"categories":[],"categories_nodes":[],"categories_segments":[],"categories_sizes":[],"default_left":[0,0,0,0,0,0,0,0,0,0,0,0,0,0,0,0,0,0,0,0,0,0,0,0,0,0,0],"id":27,"left_children":[1,3,5,7,9,11,13,15,17,-1,-1,19,21,23,25,-1,-1,-1,-1,-1,-1,-1,-1,-1,-1,-1,-1],"loss_changes":[8.727045E-2,1.9976638E-2,6.143826E-2,7.478563E-3,6.6620335E-3,4.131154E-2,2.4252377E-2,4.0367097E-3,1.6266725E-3,0E0,0E0,5.9689883E-2,1.7965916E-1,1.2918023E-2,4.6182744E-2,0E0,0E0,0E0,0E0,0E0,0E0,0E0,0E0,0E0,0E0,0E0,0E0],"parents":[2147483647,0,0,1,1,2,2,3,3,4,4,5,5,6,6,7,7,8,8,11,11,12,12,13,13,14,14],"right_children":[2,4,6,8,10,12,14,16,18,-1,-1,20,22,24,26,-1,-1,-1,-1,-1,-1,-1,-1,-1,-1,-1,-1],"split_conditions":[-1.4376524E1,2.4409449E1,1.8357384E2,-1.6518272E1,4.085062E2,5.132275E0,1.2409046E2,4.0457837E2,2.1254794E2,-0E0,-3.9082617E-3,5.904E1,8.88011E0,1E0,1.2898535E2,-1.8210155E-3,-0E0,-0E0,-5.100431E-4,6.64791E-4,-1.4685837E-4,2.873534E-3,-2.672902E-4,2.5051716E-4,-5.9932284E-4,-4.2298893E-3,-1.836228E-4],"split_indices":[3,2,6,3,0,3,0,0,5,0,0,8,3,1,0,0,0,0,0,0,0,0,0,0,0,0,0],"split_type":[0,0,0,0,0,0,0,0,0,0,0,0,0,0,0,0,0,0,0,0,0,0,0,0,0,0,0],"sum_hessian":[5.58E2,2.9E1,5.29E2,2.4E1,5E0,4.44E2,8.5E1,1.1E1,1.3E1,1E0,4E0,3.79E2,6.5E1,7.2E1,1.3E1,9E0,2E0,7E0,6E0,1.15E2,2.64E2,2.5E1,4E1,1.6E1,5.6E1,4E0,9E0],"tree_param":{"num_deleted":"0","num_feature":"12","num_nodes":"27","size_leaf_vector":"1"}},{"base_weights":[2.2367488E-4,-4.597691E-2,5.0488347E-3,-2.3262607E-2,-6.466929E-2,1.1473283E-2,-1.911823E-2,-4.9472768E-2,-0E0,-8.159882E-2,-5.994168E-3,5.8951816E-3,4.376911E-2,-6.1968166E-2,-1.2836661E-2,-1.7932499E-3,-0E0,3.8181685E-4,-1.3249242E-4,-5.224536E-4,-3.636128E-3,-0E0,-2.434054E-4,9.550321E-4,-1.0385263E-5,2.9525047E-3,-2.6818833E-4,-0E0,-4.0615145E-3,2.8913777E-4,-6.770575E-4],"categories":[],"categories_nodes":[],"categories_segments":[],"categories_sizes":[],"default_left":[0,0,0,0,0,0,0,0,0,0,0,0,0,0,0,0,0,0,0,0,0,0,0,0,0,0,0,0,0,0,0],"id":28,"left_children":[1,3,5,7,9,11,13,15,17,19,21,23,25,27,29,-1,-1,-1,-1,-1,-1,-1,-1,-1,-1,-1,-1,-1,-1,-1,-1],"loss_changes":[1.2075452E-1,1.1356227E-2,7.8482226E-2,1.7207194E-2,1.5585154E-2,6.791619E-2,1.971719E-2,3.9122887E-3,1.0244637E-3,2.978371E-2,1.7336328E-4,5.9823424E-2,1.7401095E-1,4.94033E-2,2.207035E-2,0E0,0E0,0E0,0E0,0E0,0E0,0E0,0E0,0E0,0E0,0E0,0E0,0E0,0E0,0E0,0E0],"parents":[2147483647,0,0,1,1,2,2,3,3,4,4,5,5,6,6,7,7,8,8,9,9,10,10,11,11,12,12,13,13,14,14],"right_children":[2,4,6,8,10,12,14,16,18,20,22,24,26,28,30,-1,-1,-1,-1,-1,-1,-1,-1,-1,-1,-1,-1,-1,-1,-1,-1],"split_conditions":[-7.6002345E0,9E1,1.949E2,6.1187958E1,-1.4695037E1,4.653442E0,1.91E2,6.899E1,6.899E1,-1.7928892E1,-1.4595066E1,5.591E1,8.88011E0,-1.3255166E0,1E0,-1.7932499E-3,-0E0,3.8181685E-4,-1.3249242E-4,-5.224536E-4,-3.636128E-3,-0E0,-2.434054E-4,9.550321E-4,-1.0385263E-5,2.9525047E-3,-2.6818833E-4,-0E0,-4.0615145E-3,2.8913777E-4,-6.770575E-4],"split_indices":[4,11,11,6,4,4,7,11,7,3,4,10,3,4,1,0,0,0,0,0,0,0,0,0,0,0,0,0,0,0,0],"split_type":[0,0,0,0,0,0,0,0,0,0,0,0,0,0,0,0,0,0,0,0,0,0,0,0,0,0,0,0,0,0,0],"sum_hessian":[5.58E2,5E1,5.08E2,2.6E1,2.4E1,4.05E2,1.03E2,1.2E1,1.4E1,1.7E1,7E0,3.49E2,5.6E1,1E1,9.3E1,9E0,3E0,4E0,1E1,8E0,9E0,1E0,6E0,7E1,2.79E2,2.8E1,2.8E1,6E0,4E0,2.5E1,6.8E1],"tree_param":{"num_deleted":"0","num_feature":"12","num_nodes":"31","size_leaf_vector":"1"}},{"base_weights":[2.3563935E-4,3.5687163E-2,-5.31289E-3,2.448128E-2,4.4262963E-3,-1.1397293E-2,2.1489818E-2,5.1432315E-2,-9.5969355E-3,-1.0413846E-3,-3.305572E-2,6.342886E-2,-1.0076291E-2,-0E0,1.6588724E-3,-0E0,-6.5663E-4,2.410744E-4,-4.7127836E-4,-7.7342405E-4,-2.3114912E-3,-0E0,2.5965357E-3,-1.5874882E-3,4.1621584E-5],"categories":[],"categories_nodes":[],"categories_segments":[],"categories_sizes":[],"default_left":[0,0,0,0,0,0,0,0,0,0,0,0,0,0,0,0,0,0,0,0,0,0,0,0,0],"id":29,"left_children":[1,3,5,7,-1,9,11,13,15,17,19,21,23,-1,-1,-1,-1,-1,-1,-1,-1,-1,-1,-1,-1],"loss_changes":[1.1141413E-1,7.570085E-2,7.653487E-2,7.0805036E-2,0E0,8.403001E-2,1.1850181E-1,8.145273E-3,4.8099845E-3,3.6576018E-2,2.7097002E-2,6.43598E-2,2.8799282E-2,0E0,0E0,0E0,0E0,0E0,0E0,0E0,0E0,0E0,0E0,0E0,0E0],"parents":[2147483647,0,0,1,1,2,2,3,3,5,5,6,6,7,7,8,8,9,9,10,10,11,11,12,12],"right_children":[2,4,6,8,-1,10,12,14,16,18,20,22,24,-1,-1,-1,-1,-1,-1,-1,-1,-1,-1,-1,-1],"split_conditions":[5.665E1,5.3087345E1,4.4540215E0,1.7709916E0,4.4262963E-3,1.09995926E2,9.367261E0,3.4E1,7.5726E1,6.24483E-1,1.979E2,4.8148148E1,2.4878789E2,-0E0,1.6588724E-3,-0E0,-6.5663E-4,2.410744E-4,-4.7127836E-4,-7.7342405E-4,-2.3114912E-3,-0E0,2.5965357E-3,-1.5874882E-3,4.1621584E-5],"split_indices":[10,6,4,4,0,0,4,9,0,4,10,2,0,0,0,0,0,0,0,0,0,0,0,0,0],"split_type":[0,0,0,0,0,0,0,0,0,0,0,0,0,0,0,0,0,0,0,0,0,0,0,0,0],"sum_hessian":[5.49E2,7.6E1,4.73E2,7.1E1,5E0,3.89E2,8.4E1,4.1E1,3E1,2.67E2,1.22E2,3.7E1,4.7E1,3E0,3.8E1,1.5E1,1.5E1,1.61E2,1.06E2,1.08E2,1.4E1,9E0,2.8E1,1.1E1,3.6E1],"tree_param":{"num_deleted":"0","num_feature":"12","num_nodes":"25","size_leaf_vector":"1"}},{"base_weights":[-1.047292E-3,2.1532614E-2,-7.0848367E-3,3.4612995E-2,-1.4100663E-2,-1.9027999E-2,4.120325E-3,1.440576E-2,6.1558973E-2,-0E0,-2.1750605E-2,-4.4848792E-2,-7.765174E-3,-2.4750712E-3,2.4649903E-2,1.2576331E-3,-0E0,2.16052E-4,3.946647E-3,-9.403467E-4,-0E0,-7.919441E-4,-3.8999233E-3,1.4909809E-3,-5.990274E-4,1.3759732E-3,-2.1567212E-4,2.6764856E-3,-6.1827386E-4],"categories":[],"categories_nodes":[],"categories_segments":[],"categories_sizes":[],"default_left":[0,0,0,0,0,0,0,0,0,0,0,0,0,0,0,0,0,0,0,0,0,0,0,0,0,0,0,0,0],"id":30,"left_children":[1,3,5,7,9,11,13,15,17,-1,19,21,23,25,27,-1,-1,-1,-1,-1,-1,-1,-1,-1,-1,-1,-1,-1,-1],"loss_changes":[7.382406E-2,5.5208243E-2,6.0318366E-2,3.779953E-2,4.641921E-3,5.749721E-2,3.247285E-2,2.0841476E-2,1.1453964E-1,0E0,3.3470774E-3,7.990481E-2,1.0670607E-1,3.4289934E-2,1.7818743E-1,0E0,0E0,0E0,0E0,0E0,0E0,0E0,0E0,0E0,0E0,0E0,0E0,0E0,0E0],"parents":[2147483647,0,0,1,1,2,2,3,3,4,4,5,5,6,6,7,7,8,8,10,10,11,11,12,12,13,13,14,14],"right_children":[2,4,6,8,10,12,14,16,18,-1,20,22,24,26,28,-1,-1,-1,-1,-1,-1,-1,-1,-1,-1,-1,-1,-1,-1],"split_conditions":[5.904E1,2.3754272E0,5.016821E1,-9.690135E-2,2.4543903E0,7.004051E1,4.653442E0,-3.8315756E0,3.9671703E1,-0E0,8.178123E1,9.214213E-1,8.7691696E1,-1.2619444E0,1.0231242E1,1.2576331E-3,-0E0,2.16052E-4,3.946647E-3,-9.403467E-4,-0E0,-7.919441E-4,-3.8999233E-3,1.4909809E-3,-5.990274E-4,1.3759732E-3,-2.1567212E-4,2.6764856E-3,-6.1827386E-4],"split_indices":[7,3,2,3,4,6,4,4,6,0,2,4,5,3,3,0,0,0,0,0,0,0,0,0,0,0,0,0,0],"split_type":[0,0,0,0,0,0,0,0,0,0,0,0,0,0,0,0,0,0,0,0,0,0,0,0,0,0,0,0,0],"sum_hessian":[5.5E2,1.12E2,4.38E2,8.4E1,2.8E1,2.16E2,2.22E2,5.1E1,3.3E1,7E0,2.1E1,6.2E1,1.54E2,1.65E2,5.7E1,1.7E1,3.4E1,2E1,1.3E1,1.3E1,8E0,5.3E1,9E0,2.5E1,1.29E2,1.2E1,1.53E2,2.4E1,3.3E1],"tree_param":{"num_deleted":"0","num_feature":"12","num_nodes":"29","size_leaf_vector":"1"}},{"base_weights":[4.1910322E-4,-3.913707E-2,4.6328753E-3,-1.673804E-2,-7.943888E-2,3.1186145E-2,4.3742833E-4,-4.3847967E-2,-3.3777663E-3,-0E0,-8.260874E-2,4.9815625E-2,-1.36345085E-2,-3.879416E-3,2.2608725E-2,-1.591044E-3,-0E0,-3.2716765E-4,1.00920326E-4,-0E0,-2.688031E-3,1.0688667E-3,3.3452136E-3,-0E0,-6.358494E-4,1.7485527E-4,-4.9065234E-4,2.2133386E-3,-2.9352866E-4],"categories":[],"categories_nodes":[],"categories_segments":[],"categories_sizes":[],"default_left":[0,0,0,0,0,0,0,0,0,0,0,0,0,0,0,0,0,0,0,0,0,0,0,0,0,0,0,0,0],"id":31,"left_children":[1,3,5,7,9,11,13,15,17,-1,19,21,23,25,27,-1,-1,-1,-1,-1,-1,-1,-1,-1,-1,-1,-1,-1,-1],"loss_changes":[8.707183E-2,3.4188733E-2,5.1745594E-2,7.806182E-3,1.3944879E-3,5.7736397E-2,4.3115955E-2,2.3850314E-3,2.1611187E-3,0E0,2.005428E-3,2.2447959E-2,2.9429845E-3,4.4385258E-2,1.2977812E-1,0E0,0E0,0E0,0E0,0E0,0E0,0E0,0E0,0E0,0E0,0E0,0E0,0E0,0E0],"parents":[2147483647,0,0,1,1,2,2,3,3,4,4,5,5,6,6,7,7,8,8,10,10,11,11,12,12,13,13,14,14],"right_children":[2,4,6,8,10,12,14,16,18,-1,20,22,24,26,28,-1,-1,-1,-1,-1,-1,-1,-1,-1,-1,-1,-1,-1,-1],"split_conditions":[-7.6002345E0,2.3705883E1,5.6E1,-1.7298038E1,-1.6170893E1,2.508904E0,5.259345E0,9.349E1,2.1186726E1,-0E0,6.3E1,5.49E1,2.3448637E0,6.24483E-1,9.362551E0,-1.591044E-3,-0E0,-3.2716765E-4,1.00920326E-4,-0E0,-2.688031E-3,1.0688667E-3,3.3452136E-3,-0E0,-6.358494E-4,1.7485527E-4,-4.9065234E-4,2.2133386E-3,-2.9352866E-4],"split_indices":[4,2,7,4,3,3,3,8,2,0,8,7,4,4,4,0,0,0,0,0,0,0,0,0,0,0,0,0,0],"split_type":[0,0,0,0,0,0,0,0,0,0,0,0,0,0,0,0,0,0,0,0,0,0,0,0,0,0,0,0,0],"sum_hessian":[5.41E2,4.9E1,4.92E2,3.4E1,1.5E1,6.3E1,4.29E2,8E0,2.6E1,1E0,1.4E1,4.6E1,1.7E1,3.56E2,7.3E1,6E0,2E0,1.9E1,7E0,2E0,1.2E1,4E1,6E0,4E0,1.3E1,1.96E2,1.6E2,2.9E1,4.4E1],"tree_param":{"num_deleted":"0","num_feature":"12","num_nodes":"29","size_leaf_vector":"1"}},{"base_weights":[-2.3926794E-5,-4.0086433E-2,3.2072624E-3,-2.0665439E-2,-8.343872E-2,8.1972405E-3,-1.8517662E-2,-5.623097E-2,-3.7133156E-3,-0E0,-2.6372808E-3,3.4707356E-3,3.8799934E-2,-7.405142E-2,-8.391679E-3,-1.8393311E-3,-0E0,-0E0,-3.6937976E-4,1.3646579E-3,-0E0,2.3782754E-3,-9.299012E-4,-0E0,-3.8649074E-3,-7.899852E-5,-7.413165E-4],"categories":[],"categories_nodes":[],"categories_segments":[],"categories_sizes":[],"default_left":[0,0,0,0,0,0,0,0,0,0,0,0,0,0,0,0,0,0,0,0,0,0,0,0,0,0,0],"id":32,"left_children":[1,3,5,7,9,11,13,15,17,-1,-1,19,21,23,25,-1,-1,-1,-1,-1,-1,-1,-1,-1,-1,-1,-1],"loss_changes":[7.7732176E-2,2.5752783E-2,5.625018E-2,1.4295754E-2,1.4643967E-3,5.8269016E-2,4.455599E-2,1.6150493E-3,1.7639156E-3,0E0,0E0,5.337251E-2,1.6266476E-1,4.4893682E-2,5.0000977E-3,0E0,0E0,0E0,0E0,0E0,0E0,0E0,0E0,0E0,0E0,0E0,0E0],"parents":[2147483647,0,0,1,1,2,2,3,3,4,4,5,5,6,6,7,7,8,8,11,11,12,12,13,13,14,14],"right_children":[2,4,6,8,10,12,14,16,18,-1,-1,20,22,24,26,-1,-1,-1,-1,-1,-1,-1,-1,-1,-1,-1,-1],"split_conditions":[-7.6002345E0,2.4409449E1,2.0759488E2,-1.7298038E1,6.13E1,4.653442E0,2.1083617E2,9.349E1,-1.4595066E1,-0E0,-2.6372808E-3,-3.2477007E0,1.0231242E1,2.0111E2,1.9933589E2,-1.8393311E-3,-0E0,-0E0,-3.6937976E-4,1.3646579E-3,-0E0,2.3782754E-3,-9.299012E-4,-0E0,-3.8649074E-3,-7.899852E-5,-7.413165E-4],"split_indices":[4,2,5,4,8,4,5,8,4,0,0,4,3,11,6,0,0,0,0,0,0,0,0,0,0,0,0],"split_type":[0,0,0,0,0,0,0,0,0,0,0,0,0,0,0,0,0,0,0,0,0,0,0,0,0,0,0],"sum_hessian":[5.7E2,4.4E1,5.26E2,3.3E1,1.1E1,4.32E2,9.4E1,8E0,2.5E1,1E0,1E1,3.78E2,5.4E1,1.2E1,8.2E1,7E0,1E0,1.2E1,1.3E1,2.7E1,3.51E2,3.5E1,1.9E1,6E0,6E0,6.6E1,1.6E1],"tree_param":{"num_deleted":"0","num_feature":"12","num_nodes":"27","size_leaf_vector":"1"}},{"base_weights":[-3.8312315E-3,-2.9844888E-2,-5.4686633E-4,-2.1566859E-2,-2.4398E-3,1.781222E-2,-4.1400003E-3,-0E0,-2.4809942E-2,3.6925822E-2,-3.9435783E-3,2.0783484E-2,-7.874858E-3,-0E0,-8.29727E-4,-0E0,1.3605417E-3,1.99326E-5,-3.4769077E-4,3.2476233E-5,2.4970188E-3,-3.5580146E-4,4.1991918E-4],"categories":[],"categories_nodes":[],"categories_segments":[],"categories_sizes":[],"default_left":[0,0,0,0,0,0,0,0,0,0,0,0,0,0,0,0,0,0,0,0,0,0,0],"id":33,"left_children":[1,3,5,7,-1,9,11,-1,13,15,17,19,21,-1,-1,-1,-1,-1,-1,-1,-1,-1,-1],"loss_changes":[4.3764718E-2,1.2674414E-2,3.109615E-2,4.8937406E-3,0E0,3.5047054E-2,3.7596434E-2,0E0,4.111806E-3,1.5411738E-2,2.298159E-3,5.4225244E-2,3.1854577E-2,0E0,0E0,0E0,0E0,0E0,0E0,0E0,0E0,0E0,0E0],"parents":[2147483647,0,0,1,1,2,2,3,3,5,5,6,6,8,8,9,9,10,10,11,11,12,12],"right_children":[2,4,6,8,-1,10,12,-1,14,16,18,20,22,-1,-1,-1,-1,-1,-1,-1,-1,-1,-1],"split_conditions":[-6.5635743E0,3.3076923E1,-1.3340956E0,5.3563786E1,-2.4398E-3,1.9882356E2,5.9869915E1,-0E0,9.966279E0,1.2812961E1,1.949E2,5.3087345E1,1.9370453E2,-0E0,-8.29727E-4,-0E0,1.3605417E-3,1.99326E-5,-3.4769077E-4,3.2476233E-5,2.4970188E-3,-3.5580146E-4,4.1991918E-4],"split_indices":[3,2,3,6,0,5,5,0,2,2,11,6,0,0,0,0,0,0,0,0,0,0,0],"split_type":[0,0,0,0,0,0,0,0,0,0,0,0,0,0,0,0,0,0,0,0,0,0,0],"sum_hessian":[5.47E2,5.7E1,4.9E2,5.2E1,5E0,7.5E1,4.15E2,5E0,4.7E1,4.2E1,3.3E1,5E1,3.65E2,4E0,4.3E1,7E0,3.5E1,1.3E1,2E1,4E1,1E1,3.13E2,5.2E1],"tree_param":{"num_deleted":"0","num_feature":"12","num_nodes":"23","size_leaf_vector":"1"}},{"base_weights":[1.6586018E-3,-3.4823757E-2,5.166762E-3,-2.1362294E-2,-7.518491E-2,9.440969E-3,-1.5010206E-2,-5.3500414E-2,-8.746718E-3,-0E0,-2.5999001E-3,3.170489E-2,5.1453207E-3,-2.9713128E-2,-4.712097E-3,-0E0,-1.8044371E-3,-0E0,-5.760604E-4,1.2408033E-3,-1.3329387E-4,8.797626E-4,-0E0,-1.8752346E-4,-2.7487504E-3,2.9406823E-5,-4.8105032E-4],"categories":[],"categories_nodes":[],"categories_segments":[],"categories_sizes":[],"default_left":[0,0,0,0,0,0,0,0,0,0,0,0,0,0,0,0,0,0,0,0,0,0,0,0,0,0,0],"id":34,"left_children":[1,3,5,7,9,11,13,15,17,-1,-1,19,21,23,25,-1,-1,-1,-1,-1,-1,-1,-1,-1,-1,-1,-1],"loss_changes":[6.6326655E-2,1.318856E-2,4.236009E-2,8.308645E-3,1.698792E-3,3.574597E-2,8.984687E-3,2.4260394E-3,3.973042E-3,0E0,0E0,2.5863543E-2,4.3999813E-2,3.3217635E-2,5.0016963E-3,0E0,0E0,0E0,0E0,0E0,0E0,0E0,0E0,0E0,0E0,0E0,0E0],"parents":[2147483647,0,0,1,1,2,2,3,3,4,4,5,5,6,6,7,7,8,8,11,11,12,12,13,13,14,14],"right_children":[2,4,6,8,10,12,14,16,18,-1,-1,20,22,24,26,-1,-1,-1,-1,-1,-1,-1,-1,-1,-1,-1,-1],"split_conditions":[-7.6002345E0,2.815916E1,1.822478E2,-1.7454481E1,6.34E1,-1.2619444E0,2.098464E2,-1.880317E1,-1.4595066E1,-0E0,-2.5999001E-3,-1.3055596E0,6.0554943E1,9.9067E1,1.9751881E2,-0E0,-1.8044371E-3,-0E0,-5.760604E-4,1.2408033E-3,-1.3329387E-4,8.797626E-4,-0E0,-1.8752346E-4,-2.7487504E-3,2.9406823E-5,-4.8105032E-4],"split_indices":[4,2,6,4,9,3,5,3,4,0,0,4,5,0,6,0,0,0,0,0,0,0,0,0,0,0,0],"split_type":[0,0,0,0,0,0,0,0,0,0,0,0,0,0,0,0,0,0,0,0,0,0,0,0,0,0,0],"sum_hessian":[5.39E2,4.4E1,4.95E2,3.6E1,8E0,4.13E2,8.2E1,7E0,2.9E1,2E0,6E0,6.2E1,3.51E2,2.9E1,5.3E1,1E0,6E0,1.3E1,1.6E1,5.1E1,1.1E1,6.1E1,2.9E2,2.3E1,6E0,3E1,2.3E1],"tree_param":{"num_deleted":"0","num_feature":"12","num_nodes":"27","size_leaf_vector":"1"}},{"base_weights":[-9.0812886E-4,-3.9151672E-2,2.3406208E-3,-2.2913013E-2,-8.531955E-2,2.0028327E-2,-2.4803316E-3,5.2066236E-3,-3.1749286E-2,-0E0,-2.7220212E-3,3.2076657E-2,-1.1442885E-2,-7.940531E-3,1.9442359E-2,-0E0,3.540931E-4,-0E0,-9.898286E-4,1.3840455E-3,3.5244453E-4,-8.209952E-4,-0E0,2.9125044E-6,-6.098707E-4,2.188111E-3,-3.8967558E-4],"categories":[],"categories_nodes":[],"categories_segments":[],"categories_sizes":[],"default_left":[0,0,0,0,0,0,0,0,0,0,0,0,0,0,0,0,0,0,0,0,0,0,0,0,0,0,0],"id":35,"left_children":[1,3,5,7,9,11,13,15,17,-1,-1,19,21,23,25,-1,-1,-1,-1,-1,-1,-1,-1,-1,-1,-1,-1],"loss_changes":[7.285225E-2,2.170822E-2,4.5378257E-2,1.2013063E-2,1.2997463E-3,4.565644E-2,4.6645697E-2,6.46117E-4,1.4101639E-3,0E0,0E0,1.7961182E-2,4.3099937E-3,3.4187548E-2,1.3879572E-1,0E0,0E0,0E0,0E0,0E0,0E0,0E0,0E0,0E0,0E0,0E0,0E0],"parents":[2147483647,0,0,1,1,2,2,3,3,4,4,5,5,6,6,7,7,8,8,11,11,12,12,13,13,14,14],"right_children":[2,4,6,8,10,12,14,16,18,-1,-1,20,22,24,26,-1,-1,-1,-1,-1,-1,-1,-1,-1,-1,-1,-1],"split_conditions":[-7.6002345E0,3.0095991E1,5.9E1,1.980885E2,6.3E1,2.144349E0,5.259345E0,8.868553E1,6.1075264E1,-0E0,-2.7220212E-3,5.6E1,7.317299E1,9.261401E-1,9.362551E0,-0E0,3.540931E-4,-0E0,-9.898286E-4,1.3840455E-3,3.5244453E-4,-8.209952E-4,-0E0,2.9125044E-6,-6.098707E-4,2.188111E-3,-3.8967558E-4],"split_indices":[4,2,7,0,8,3,3,0,6,0,0,8,2,4,4,0,0,0,0,0,0,0,0,0,0,0,0],"split_type":[0,0,0,0,0,0,0,0,0,0,0,0,0,0,0,0,0,0,0,0,0,0,0,0,0,0,0],"sum_hessian":[5.55E2,4.5E1,5.1E2,3.6E1,9E0,1.13E2,3.97E2,6E0,3E1,1E0,8E0,8.4E1,2.9E1,3.22E2,7.5E1,1E0,5E0,1E0,2.9E1,4.6E1,3.8E1,1E1,1.9E1,1.91E2,1.31E2,2.9E1,4.6E1],"tree_param":{"num_deleted":"0","num_feature":"12","num_nodes":"27","size_leaf_vector":"1"}},{"base_weights":[-2.0752626E-3,-3.800417E-2,1.4725899E-3,-2.3842372E-2,-3.012413E-3,5.9796753E-3,-1.770181E-2,-4.7406968E-2,-1.2898002E-2,8.207332E-3,-2.9034453E-2,-7.103384E-2,-1.2612346E-2,-1.5464955E-3,-0E0,-0E0,-9.495908E-4,9.875888E-5,2.1801493E-3,-1.4713533E-3,4.7504486E-4,-0E0,-3.272791E-3,-4.5196075E-4,-0E0],"categories":[],"categories_nodes":[],"categories_segments":[],"categories_sizes":[],"default_left":[0,0,0,0,0,0,0,0,0,0,0,0,0,0,0,0,0,0,0,0,0,0,0,0,0],"id":36,"left_children":[1,3,5,7,-1,9,11,13,15,17,19,21,23,-1,-1,-1,-1,-1,-1,-1,-1,-1,-1,-1,-1],"loss_changes":[7.381788E-2,3.113956E-2,4.2057544E-2,4.96353E-3,0E0,3.0057373E-2,1.5439749E-2,1.8522479E-3,7.20234E-3,1.15108386E-1,2.3850659E-2,1.7330317E-2,3.1152852E-3,0E0,0E0,0E0,0E0,0E0,0E0,0E0,0E0,0E0,0E0,0E0,0E0],"parents":[2147483647,0,0,1,1,2,2,3,3,5,5,6,6,7,7,8,8,9,9,10,10,11,11,12,12],"right_children":[2,4,6,8,-1,10,12,14,16,18,20,22,24,-1,-1,-1,-1,-1,-1,-1,-1,-1,-1,-1,-1],"split_conditions":[-7.6002345E0,3.3076923E1,1.949E2,-1.7298038E1,-3.012413E-3,1.1162508E1,1.89E2,9.487E1,2.3705883E1,6.270884E0,1.343071E1,-2.0947437E0,1.2142E1,-1.5464955E-3,-0E0,-0E0,-9.495908E-4,9.875888E-5,2.1801493E-3,-1.4713533E-3,4.7504486E-4,-0E0,-3.272791E-3,-4.5196075E-4,-0E0],"split_indices":[4,2,11,4,0,3,7,8,2,4,4,4,3,0,0,0,0,0,0,0,0,0,0,0,0],"split_type":[0,0,0,0,0,0,0,0,0,0,0,0,0,0,0,0,0,0,0,0,0,0,0,0,0],"sum_hessian":[5.49E2,5.1E1,4.98E2,4.4E1,7E0,4.08E2,9E1,1E1,3.4E1,3.87E2,2.1E1,5E0,8.5E1,9E0,1E0,2.2E1,1.2E1,3.62E2,2.5E1,1.6E1,5E0,2E0,3E0,7.3E1,1.2E1],"tree_param":{"num_deleted":"0","num_feature":"12","num_nodes":"25","size_leaf_vector":"1"}},{"base_weights":[-0E0,1.8433264E-2,-6.0238284E-3,4.139203E-2,6.4376644E-3,-1.1546687E-2,2.0548658E-2,5.9479933E-2,-0E0,-8.017869E-3,2.5976429E-2,-2.9776765E-3,-3.0478697E-2,9.045431E-2,-1.4196651E-2,1.9747512E-3,-0E0,4.4725882E-4,-2.1206535E-4,4.3880448E-4,-1.0220789E-3,1.156923E-3,-4.844826E-4,-9.692872E-4,1.0387225E-4,-5.0545335E-3,-6.268069E-4,-0E0,3.633088E-3,-1.6392596E-3,-5.372482E-6],"categories":[],"categories_nodes":[],"categories_segments":[],"categories_sizes":[],"default_left":[0,0,0,0,0,0,0,0,0,0,0,0,0,0,0,0,0,0,0,0,0,0,0,0,0,0,0,0,0,0,0],"id":37,"left_children":[1,3,5,7,9,11,13,15,17,19,21,23,25,27,29,-1,-1,-1,-1,-1,-1,-1,-1,-1,-1,-1,-1,-1,-1,-1,-1],"loss_changes":[6.2701404E-2,3.3507146E-2,6.0534365E-2,3.2575235E-2,2.9118685E-2,5.3181395E-2,1.7650357E-1,1.5981428E-2,1.8332888E-3,3.3708673E-2,2.6195979E-2,4.9277067E-2,1.1643632E-1,6.761901E-2,2.058759E-2,0E0,0E0,0E0,0E0,0E0,0E0,0E0,0E0,0E0,0E0,0E0,0E0,0E0,0E0,0E0,0E0],"parents":[2147483647,0,0,1,1,2,2,3,3,4,4,5,5,6,6,7,7,8,8,9,9,10,10,11,11,12,12,13,13,14,14],"right_children":[2,4,6,8,10,12,14,16,18,20,22,24,26,28,30,-1,-1,-1,-1,-1,-1,-1,-1,-1,-1,-1,-1,-1,-1,-1,-1],"split_conditions":[5.5412483E1,5.4015957E1,6.137314E0,5.66E1,4.6021034E1,1.054615E0,9.367261E0,2.3754272E0,7.732336E1,7.069438E1,7.403E1,-7.6002345E0,7.767035E1,4.7708576E1,2.4878789E2,1.9747512E-3,-0E0,4.4725882E-4,-2.1206535E-4,4.3880448E-4,-1.0220789E-3,1.156923E-3,-4.844826E-4,-9.692872E-4,1.0387225E-4,-5.0545335E-3,-6.268069E-4,-0E0,3.633088E-3,-1.6392596E-3,-5.372482E-6],"split_indices":[6,2,4,11,6,4,4,3,0,0,7,4,5,2,0,0,0,0,0,0,0,0,0,0,0,0,0,0,0,0,0],"split_type":[0,0,0,0,0,0,0,0,0,0,0,0,0,0,0,0,0,0,0,0,0,0,0,0,0,0,0,0,0,0,0],"sum_hessian":[5.55E2,1.39E2,4.16E2,4.4E1,9.5E1,3.48E2,6.8E1,3E1,1.4E1,5.2E1,4.3E1,2.44E2,1.04E2,2.3E1,4.5E1,2.8E1,2E0,5E0,9E0,2.6E1,2.6E1,3.5E1,8E0,4.6E1,1.98E2,5E0,9.9E1,6E0,1.7E1,9E0,3.6E1],"tree_param":{"num_deleted":"0","num_feature":"12","num_nodes":"31","size_leaf_vector":"1"}},{"base_weights":[-1.2342759E-3,2.0211402E-2,-6.661015E-3,3.4405928E-2,-1.2930034E-2,-1.234995E-2,2.1128489E-2,5.517553E-2,1.3891708E-2,-0E0,-2.0300623E-2,-4.452539E-2,-9.52261E-3,5.0290026E-2,-4.422667E-3,1.1267886E-5,3.1319712E-3,1.4575778E-3,-3.4296894E-4,-7.7451824E-4,-0E0,-0E0,-2.1557838E-3,-6.448808E-5,-6.4931763E-4,2.1495481E-3,-6.279584E-4,5.32929E-4,-3.405883E-4],"categories":[],"categories_nodes":[],"categories_segments":[],"categories_sizes":[],"default_left":[0,0,0,0,0,0,0,0,0,0,0,0,0,0,0,0,0,0,0,0,0,0,0,0,0,0,0,0,0],"id":38,"left_children":[1,3,5,7,9,11,13,15,17,-1,19,21,23,25,27,-1,-1,-1,-1,-1,-1,-1,-1,-1,-1,-1,-1,-1,-1],"loss_changes":[6.302141E-2,5.3398576E-2,6.973432E-2,2.5560424E-2,3.8837772E-3,2.8103348E-2,5.920225E-2,8.659135E-2,4.205047E-2,0E0,2.9310342E-3,3.4256518E-2,2.8585691E-2,6.134267E-2,5.4034917E-3,0E0,0E0,0E0,0E0,0E0,0E0,0E0,0E0,0E0,0E0,0E0,0E0,0E0,0E0],"parents":[2147483647,0,0,1,1,2,2,3,3,4,4,5,5,6,6,7,7,8,8,10,10,11,11,12,12,13,13,14,14],"right_children":[2,4,6,8,10,12,14,16,18,-1,20,22,24,26,28,-1,-1,-1,-1,-1,-1,-1,-1,-1,-1,-1,-1,-1,-1],"split_conditions":[5.855E1,2.3754272E0,4.653442E0,5.9869915E1,2.4543903E0,-1.4695037E1,9.718517E0,3.920638E1,-3.2477007E0,-0E0,3.42245E0,9E1,9.130166E-1,1.783412E2,1.144E2,1.1267886E-5,3.1319712E-3,1.4575778E-3,-3.4296894E-4,-7.7451824E-4,-0E0,-0E0,-2.1557838E-3,-6.448808E-5,-6.4931763E-4,2.1495481E-3,-6.279584E-4,5.32929E-4,-3.405883E-4],"split_indices":[11,3,4,5,4,4,4,6,4,0,4,11,4,5,7,0,0,0,0,0,0,0,0,0,0,0,0,0,0],"split_type":[0,0,0,0,0,0,0,0,0,0,0,0,0,0,0,0,0,0,0,0,0,0,0,0,0,0,0,0,0],"sum_hessian":[5.51E2,1.07E2,4.44E2,7.7E1,3E1,3.72E2,7.2E1,3.5E1,4.2E1,9E0,2.1E1,2.6E1,3.46E2,3.5E1,3.7E1,1.8E1,1.7E1,1.9E1,2.3E1,1.7E1,4E0,1E1,1.6E1,2.21E2,1.25E2,2.8E1,7E0,5E0,3.2E1],"tree_param":{"num_deleted":"0","num_feature":"12","num_nodes":"29","size_leaf_vector":"1"}},{"base_weights":[3.2412324E-3,-7.4273753E-3,1.322908E-2,5.257151E-2,-1.292759E-2,6.10089E-3,3.6210738E-2,-0E0,6.498493E-2,-4.9718563E-3,-2.5732156E-2,1.6237015E-2,-9.498506E-3,9.948016E-2,-2.710963E-3,4.118657E-5,2.3027987E-3,6.639855E-5,-8.708406E-4,-1.0655782E-3,3.074252E-5,1.9346521E-3,1.517761E-4,8.062849E-5,-7.345928E-4,-0E0,3.6379548E-3,1.6749884E-3,-3.02616E-4],"categories":[],"categories_nodes":[],"categories_segments":[],"categories_sizes":[],"default_left":[0,0,0,0,0,0,0,0,0,0,0,0,0,0,0,0,0,0,0,0,0,0,0,0,0,0,0,0,0],"id":39,"left_children":[1,3,5,7,9,11,13,-1,15,17,19,21,23,25,27,-1,-1,-1,-1,-1,-1,-1,-1,-1,-1,-1,-1,-1,-1],"loss_changes":[5.7579555E-2,8.053693E-2,4.158067E-2,1.6516436E-2,2.0741038E-2,3.5455786E-2,1.6508748E-1,0E0,4.8149005E-3,2.8845606E-2,2.5745071E-2,6.660923E-2,1.7405195E-2,4.669726E-2,1.283014E-2,0E0,0E0,0E0,0E0,0E0,0E0,0E0,0E0,0E0,0E0,0E0,0E0,0E0,0E0],"parents":[2147483647,0,0,1,1,2,2,3,3,4,4,5,5,6,6,8,8,9,9,10,10,11,11,12,12,13,13,14,14],"right_children":[2,4,6,8,10,12,14,-1,16,18,20,22,24,26,28,-1,-1,-1,-1,-1,-1,-1,-1,-1,-1,-1,-1,-1,-1],"split_conditions":[4.9238194E1,5.591E1,4.653442E0,3.892455E1,1.0397022E2,2.2456071E0,8.88011E0,-0E0,1.2812961E1,9.214213E-1,2.7304592E0,6.0554943E1,7.403E1,9.49837E1,1.2523155E2,4.118657E-5,2.3027987E-3,6.639855E-5,-8.708406E-4,-1.0655782E-3,3.074252E-5,1.9346521E-3,1.517761E-4,8.062849E-5,-7.345928E-4,-0E0,3.6379548E-3,1.6749884E-3,-3.02616E-4],"split_indices":[2,11,4,6,0,3,3,0,2,4,4,5,7,5,0,0,0,0,0,0,0,0,0,0,0,0,0,0,0],"split_type":[0,0,0,0,0,0,0,0,0,0,0,0,0,0,0,0,0,0,0,0,0,0,0,0,0,0,0,0,0],"sum_hessian":[5.33E2,2.53E2,2.8E2,1.9E1,2.34E2,2.18E2,6.2E1,3E0,1.6E1,1.5E2,8.4E1,1.36E2,8.2E1,2.4E1,3.8E1,4E0,1.2E1,1.13E2,3.7E1,6.4E1,2E1,2.3E1,1.13E2,4.2E1,4E1,5E0,1.9E1,2E0,3.6E1],"tree_param":{"num_deleted":"0","num_feature":"12","num_nodes":"29","size_leaf_vector":"1"}},{"base_weights":[4.5979582E-4,-3.8438648E-2,4.232334E-3,-1.8241305E-2,-7.364356E-2,2.7525833E-2,5.516094E-4,-4.117481E-2,-3.758956E-3,-3.4079686E-2,-3.3192826E-3,-0E0,6.994779E-2,1.9231616E-2,-3.5598604E-3,-1.5059083E-3,-0E0,-0E0,-5.268236E-4,-1.2405383E-3,-0E0,8.031382E-4,-5.484589E-4,-0E0,2.863188E-3,9.2052657E-4,-0E0,-2.8617578E-4,5.2189856E-4],"categories":[],"categories_nodes":[],"categories_segments":[],"categories_sizes":[],"default_left":[0,0,0,0,0,0,0,0,0,0,0,0,0,0,0,0,0,0,0,0,0,0,0,0,0,0,0,0,0],"id":40,"left_children":[1,3,5,7,9,11,13,15,17,19,-1,21,23,25,27,-1,-1,-1,-1,-1,-1,-1,-1,-1,-1,-1,-1,-1,-1],"loss_changes":[7.8479506E-2,2.2887297E-2,4.0988654E-2,6.312173E-3,3.7145615E-3,7.720369E-2,3.5889454E-2,3.2042172E-3,2.7446984E-3,2.0651752E-3,0E0,2.0539673E-2,4.585564E-2,1.8462956E-2,4.4740893E-2,0E0,0E0,0E0,0E0,0E0,0E0,0E0,0E0,0E0,0E0,0E0,0E0,0E0,0E0],"parents":[2147483647,0,0,1,1,2,2,3,3,4,4,5,5,6,6,7,7,8,8,9,9,11,11,12,12,13,13,14,14],"right_children":[2,4,6,8,10,12,14,16,18,20,-1,22,24,26,28,-1,-1,-1,-1,-1,-1,-1,-1,-1,-1,-1,-1,-1,-1],"split_conditions":[-7.6002345E0,2.4409449E1,6.0554943E1,-1.7298038E1,4.085062E2,3.920638E1,-1.3055596E0,9.399E1,-1.4133796E1,6.814E1,-3.3192826E-3,1.7132463E0,-2.9533994E-1,1.9763501E2,5.001218E0,-1.5059083E-3,-0E0,-0E0,-5.268236E-4,-1.2405383E-3,-0E0,8.031382E-4,-5.484589E-4,-0E0,2.863188E-3,9.2052657E-4,-0E0,-2.8617578E-4,5.2189856E-4],"split_indices":[4,2,5,4,0,6,4,9,4,8,0,4,4,5,4,0,0,0,0,0,0,0,0,0,0,0,0,0,0],"split_type":[0,0,0,0,0,0,0,0,0,0,0,0,0,0,0,0,0,0,0,0,0,0,0,0,0,0,0,0,0],"sum_hessian":[5.56E2,4.6E1,5.1E2,3.2E1,1.4E1,6.5E1,4.45E2,9E0,2.3E1,9E0,5E0,4E1,2.5E1,8.4E1,3.61E2,7E0,2E0,1.4E1,9E0,7E0,2E0,1.6E1,2.4E1,7E0,1.8E1,5.2E1,3.2E1,2.85E2,7.6E1],"tree_param":{"num_deleted":"0","num_feature":"12","num_nodes":"29","size_leaf_vector":"1"}},{"base_weights":[-1.9525203E-4,1.8162334E-2,-3.8845844E-3,3.455535E-2,-1.1236433E-2,-1.4905535E-2,6.287218E-3,4.5367315E-2,-0E0,-0E0,-1.8572336E-2,-6.875919E-3,-2.7985655E-2,-3.353249E-4,2.627976E-2,7.309758E-4,3.2566262E-3,8.853589E-5,-0E0,-8.206845E-4,-0E0,-8.930979E-5,-2.0374644E-3,-2.660831E-3,-3.602082E-4,2.5219406E-4,-5.1934365E-4,2.1658966E-3,-3.5512255E-4],"categories":[],"categories_nodes":[],"categories_segments":[],"categories_sizes":[],"default_left":[0,0,0,0,0,0,0,0,0,0,0,0,0,0,0,0,0,0,0,0,0,0,0,0,0,0,0,0,0],"id":41,"left_children":[1,3,5,7,9,11,13,15,17,-1,19,21,23,25,27,-1,-1,-1,-1,-1,-1,-1,-1,-1,-1,-1,-1,-1,-1],"loss_changes":[3.480912E-2,4.3684598E-2,5.140186E-2,1.8381998E-2,3.9270315E-3,1.9532677E-2,3.3055596E-2,3.979768E-2,9.580516E-5,0E0,5.133605E-3,2.6740957E-2,6.549864E-2,2.626434E-2,1.136539E-1,0E0,0E0,0E0,0E0,0E0,0E0,0E0,0E0,0E0,0E0,0E0,0E0,0E0,0E0],"parents":[2147483647,0,0,1,1,2,2,3,3,4,4,5,5,6,6,7,7,8,8,10,10,11,11,12,12,13,13,14,14],"right_children":[2,4,6,8,10,12,14,16,18,-1,20,22,24,26,28,-1,-1,-1,-1,-1,-1,-1,-1,-1,-1,-1,-1,-1,-1],"split_conditions":[5.795E1,2.3754272E0,5.016821E1,5.66E1,2.3981616E0,6.221175E-1,4.515571E0,5.475E1,7.836811E1,-0E0,3.495611E0,5.726223E2,8.167632E1,1.0201255E2,9.768113E0,7.309758E-4,3.2566262E-3,8.853589E-5,-0E0,-8.206845E-4,-0E0,-8.930979E-5,-2.0374644E-3,-2.660831E-3,-3.602082E-4,2.5219406E-4,-5.1934365E-4,2.1658966E-3,-3.5512255E-4],"split_indices":[7,3,2,11,4,4,4,7,0,0,4,0,5,0,3,0,0,0,0,0,0,0,0,0,0,0,0,0,0],"split_type":[0,0,0,0,0,0,0,0,0,0,0,0,0,0,0,0,0,0,0,0,0,0,0,0,0,0,0,0,0],"sum_hessian":[5.33E2,8.4E1,4.49E2,5.6E1,2.8E1,2.2E2,2.29E2,4.1E1,1.5E1,7E0,2.1E1,1.42E2,7.8E1,1.69E2,6E1,3.3E1,8E0,1E1,5E0,1.6E1,5E0,1.36E2,6E0,1.4E1,6.4E1,1.08E2,6.1E1,2.8E1,3.2E1],"tree_param":{"num_deleted":"0","num_feature":"12","num_nodes":"29","size_leaf_vector":"1"}},{"base_weights":[-2.7546461E-3,-2.7304428E-2,-0E0,-1.4452125E-2,-2.7515478E-3,3.9639217E-3,-1.3315064E-2,-0E0,-1.9811034E-2,2.8863067E-2,-3.6398138E-4,-4.2010713E-3,-3.6284577E-2,3.9685424E-4,-3.4202993E-4,-7.2347646E-4,-0E0,1.1502493E-3,2.2800197E-4,-2.0656794E-4,4.8769685E-4,3.891985E-4,-4.065488E-4,-2.6026517E-3,-0E0],"categories":[],"categories_nodes":[],"categories_segments":[],"categories_sizes":[],"default_left":[0,0,0,0,0,0,0,0,0,0,0,0,0,0,0,0,0,0,0,0,0,0,0,0,0],"id":42,"left_children":[1,3,5,7,-1,9,11,13,15,17,19,21,23,-1,-1,-1,-1,-1,-1,-1,-1,-1,-1,-1,-1],"loss_changes":[3.8344633E-2,3.52458E-2,2.5504244E-2,2.5085472E-3,0E0,4.402515E-2,1.8826839E-2,2.7397308E-3,3.913955E-3,7.20701E-3,3.4185715E-2,1.3562593E-2,4.592687E-2,0E0,0E0,0E0,0E0,0E0,0E0,0E0,0E0,0E0,0E0,0E0,0E0],"parents":[2147483647,0,0,1,1,2,2,3,3,5,5,6,6,7,7,8,8,9,9,10,10,11,11,12,12],"right_children":[2,4,6,8,-1,10,12,14,16,18,20,22,24,-1,-1,-1,-1,-1,-1,-1,-1,-1,-1,-1,-1],"split_conditions":[-6.5635743E0,3.3076923E1,1.897E2,2.0874101E2,-2.7515478E-3,-1.2274407E0,1.2180519E2,-8.810524E0,5.384234E2,7.825E1,7.087801E1,1E0,2.055E2,3.9685424E-4,-3.4202993E-4,-7.2347646E-4,-0E0,1.1502493E-3,2.2800197E-4,-2.0656794E-4,4.8769685E-4,3.891985E-4,-4.065488E-4,-2.6026517E-3,-0E0],"split_indices":[3,2,11,0,0,3,0,3,0,9,6,1,9,0,0,0,0,0,0,0,0,0,0,0,0],"split_type":[0,0,0,0,0,0,0,0,0,0,0,0,0,0,0,0,0,0,0,0,0,0,0,0,0],"sum_hessian":[5.46E2,5.6E1,4.9E2,4.9E1,7E0,3.81E2,1.09E2,1.7E1,3.2E1,5.9E1,3.22E2,8.2E1,2.7E1,5E0,1.2E1,2.8E1,4E0,3.7E1,2.2E1,2.36E2,8.6E1,2.5E1,5.7E1,1E1,1.7E1],"tree_param":{"num_deleted":"0","num_feature":"12","num_nodes":"25","size_leaf_vector":"1"}},{"base_weights":[1.1783205E-3,-3.0094381E-2,4.460381E-3,-1.7356243E-2,-6.80375E-2,3.1611543E-2,2.1186015E-3,-0E0,-3.3345405E-2,-0E0,-2.324234E-3,4.1818537E-2,-0E0,2.157275E-2,-9.826662E-4,2.721593E-4,-1.2321437E-4,-1.5501049E-3,-8.6950065E-5,-0E0,1.420006E-3,-4.6906905E-5,1.6856788E-3,-1.7290852E-4,5.644501E-4],"categories":[],"categories_nodes":[],"categories_segments":[],"categories_sizes":[],"default_left":[0,0,0,0,0,0,0,0,0,0,0,0,0,0,0,0,0,0,0,0,0,0,0,0,0],"id":43,"left_children":[1,3,5,7,9,11,13,15,17,-1,-1,19,-1,21,23,-1,-1,-1,-1,-1,-1,-1,-1,-1,-1],"loss_changes":[5.3509034E-2,1.3962664E-2,2.8160289E-2,1.1300671E-2,1.7273314E-3,1.12429E-2,2.9953832E-2,8.122665E-4,6.110031E-3,0E0,0E0,6.553795E-3,0E0,6.0011573E-2,3.619072E-2,0E0,0E0,0E0,0E0,0E0,0E0,0E0,0E0,0E0,0E0],"parents":[2147483647,0,0,1,1,2,2,3,3,4,4,5,5,6,6,7,7,8,8,11,11,13,13,14,14],"right_children":[2,4,6,8,10,12,14,16,18,-1,-1,20,-1,22,24,-1,-1,-1,-1,-1,-1,-1,-1,-1,-1],"split_conditions":[-7.6002345E0,3.0095991E1,-3.2477007E0,1.3047752E2,6.3E1,2.0304459E2,6.139752E1,1.980885E2,1.02064766E2,-0E0,-2.324234E-3,9.236592E1,-0E0,3.920638E1,4.653442E0,2.721593E-4,-1.2321437E-4,-1.5501049E-3,-8.6950065E-5,-0E0,1.420006E-3,-4.6906905E-5,1.6856788E-3,-1.7290852E-4,5.644501E-4],"split_indices":[4,2,4,5,8,5,5,0,6,0,0,0,0,6,4,0,0,0,0,0,0,0,0,0,0],"split_type":[0,0,0,0,0,0,0,0,0,0,0,0,0,0,0,0,0,0,0,0,0,0,0,0,0],"sum_hessian":[5.44E2,4.8E1,4.96E2,3.9E1,9E0,3.5E1,4.61E2,1.9E1,2E1,2E0,7E0,2.6E1,9E0,6.7E1,3.94E2,6E0,1.3E1,1E1,1E1,3E0,2.3E1,3.9E1,2.8E1,3.22E2,7.2E1],"tree_param":{"num_deleted":"0","num_feature":"12","num_nodes":"25","size_leaf_vector":"1"}},{"base_weights":[7.0962304E-4,-8.445065E-3,8.82842E-3,4.457512E-2,-1.422048E-2,3.3532083E-3,2.879192E-2,-0E0,5.35737E-2,-2.5547707E-2,-7.0762807E-3,1.1149427E-2,-1.4486761E-2,8.886665E-2,-4.114291E-3,1.747482E-3,-0E0,-2.7134363E-4,-3.6646016E-3,1.1046228E-3,-4.2954643E-4,5.3786184E-4,-6.035599E-5,-1.0637378E-5,-1.2401142E-3,-0E0,3.7268545E-3,-8.430298E-4,4.163638E-4],"categories":[],"categories_nodes":[],"categories_segments":[],"categories_sizes":[],"default_left":[0,0,0,0,0,0,0,0,0,0,0,0,0,0,0,0,0,0,0,0,0,0,0,0,0,0,0,0,0],"id":44,"left_children":[1,3,5,7,9,11,13,-1,15,17,19,21,23,25,27,-1,-1,-1,-1,-1,-1,-1,-1,-1,-1,-1,-1,-1,-1],"loss_changes":[4.032275E-2,7.384561E-2,2.8715128E-2,8.833025E-3,1.4926553E-2,3.2512598E-2,1.2547393E-1,0E0,6.5411814E-3,1.1650594E-1,4.4690277E-2,1.6617455E-2,2.161907E-2,5.7750568E-2,1.821283E-2,0E0,0E0,0E0,0E0,0E0,0E0,0E0,0E0,0E0,0E0,0E0,0E0,0E0,0E0],"parents":[2147483647,0,0,1,1,2,2,3,3,4,4,5,5,6,6,8,8,9,9,10,10,11,11,12,12,13,13,14,14],"right_children":[2,4,6,8,10,12,14,-1,16,18,20,22,24,26,28,-1,-1,-1,-1,-1,-1,-1,-1,-1,-1,-1,-1,-1,-1],"split_conditions":[5E1,5.6E1,4.653442E0,3.920638E1,7.004051E1,1.0458681E2,8.88011E0,-0E0,2.3754272E0,8.780119E-1,7.72E1,7.4E1,7.656145E1,5.1165047E1,1.518E2,1.747482E-3,-0E0,-2.7134363E-4,-3.6646016E-3,1.1046228E-3,-4.2954643E-4,5.3786184E-4,-6.035599E-5,-1.0637378E-5,-1.2401142E-3,-0E0,3.7268545E-3,-8.430298E-4,4.163638E-4],"split_indices":[2,11,4,6,6,0,3,0,3,4,11,10,2,6,10,0,0,0,0,0,0,0,0,0,0,0,0,0,0],"split_type":[0,0,0,0,0,0,0,0,0,0,0,0,0,0,0,0,0,0,0,0,0,0,0,0,0,0,0,0,0],"sum_hessian":[5.4E2,2.48E2,2.92E2,2.2E1,2.26E2,2.34E2,5.8E1,4E0,1.8E1,8.1E1,1.45E2,1.67E2,6.7E1,2.1E1,3.7E1,1.7E1,1E0,7.1E1,1E1,1.8E1,1.27E2,1.15E2,5.2E1,4.7E1,2E1,7E0,1.4E1,1.8E1,1.9E1],"tree_param":{"num_deleted":"0","num_feature":"12","num_nodes":"29","size_leaf_vector":"1"}},{"base_weights":[1.1602437E-4,2.9808143E-2,-2.9688498E-3,-0E0,7.687731E-2,-7.1854983E-3,1.723962E-2,2.8572861E-2,-1.704526E-2,-0E0,9.601537E-2,8.361582E-3,-1.0534817E-2,5.4128926E-2,-9.25516E-3,-0E0,1.0487929E-3,-6.682895E-4,-0E0,3.333369E-3,-0E0,1.0023037E-3,-1.3071415E-4,-1.298307E-4,-7.116475E-4,2.141879E-3,-3.9958948E-4,-1.8034683E-3,-6.4452295E-5],"categories":[],"categories_nodes":[],"categories_segments":[],"categories_sizes":[],"default_left":[0,0,0,0,0,0,0,0,0,0,0,0,0,0,0,0,0,0,0,0,0,0,0,0,0,0,0,0,0],"id":45,"left_children":[1,3,5,7,9,11,13,15,17,-1,19,21,23,25,27,-1,-1,-1,-1,-1,-1,-1,-1,-1,-1,-1,-1,-1,-1],"loss_changes":[5.324207E-2,7.5243644E-2,4.1468836E-2,1.7821616E-2,3.260965E-2,2.1967415E-2,8.5133016E-2,3.2365024E-3,3.0365526E-3,0E0,2.8466985E-2,2.5033265E-2,2.5576882E-2,4.8685536E-2,1.0632712E-2,0E0,0E0,0E0,0E0,0E0,0E0,0E0,0E0,0E0,0E0,0E0,0E0,0E0,0E0],"parents":[2147483647,0,0,1,1,2,2,3,3,4,4,5,5,6,6,7,7,8,8,10,10,11,11,12,12,13,13,14,14],"right_children":[2,4,6,8,10,12,14,16,18,-1,20,22,24,26,28,-1,-1,-1,-1,-1,-1,-1,-1,-1,-1,-1,-1,-1,-1],"split_conditions":[5.9869915E1,3.920638E1,4.653442E0,1.6401612E0,-8.184214E-2,5.373553E1,9.367261E0,3.399E1,3.623481E1,-0E0,2.3754272E0,-2.845103E0,1.0273923E0,1.783412E2,6.540446E1,-0E0,1.0487929E-3,-6.682895E-4,-0E0,3.333369E-3,-0E0,1.0023037E-3,-1.3071415E-4,-1.298307E-4,-7.116475E-4,2.141879E-3,-3.9958948E-4,-1.8034683E-3,-6.4452295E-5],"split_indices":[5,6,4,4,3,6,4,11,6,0,3,4,4,5,6,0,0,0,0,0,0,0,0,0,0,0,0,0,0],"split_type":[0,0,0,0,0,0,0,0,0,0,0,0,0,0,0,0,0,0,0,0,0,0,0,0,0,0,0,0,0],"sum_hessian":[5.5E2,5.4E1,4.96E2,3.4E1,2E1,4.15E2,8.1E1,1.3E1,2.1E1,4E0,1.6E1,6.8E1,3.47E2,3.5E1,4.6E1,2E0,1.1E1,1.8E1,3E0,1.4E1,2E0,2.5E1,4.3E1,2.42E2,1.05E2,2.9E1,6E0,3E0,4.3E1],"tree_param":{"num_deleted":"0","num_feature":"12","num_nodes":"29","size_leaf_vector":"1"}},{"base_weights":[-1.3216858E-3,-5.2571762E-3,2.109198E-2,1.5380013E-2,-1.1571196E-2,5.400237E-2,-1.1482839E-2,2.7359016E-2,-1.3344032E-2,-9.873884E-3,-7.421599E-2,-0E0,7.482717E-2,-4.1894328E-2,-0E0,2.1384841E-4,1.6568484E-3,-8.064528E-4,-0E0,-1.3264833E-3,-2.3904748E-4,-0E0,-3.062113E-3,-5.745446E-4,1.0623403E-3,5.035812E-4,3.2109942E-3,-0E0,-1.7096167E-3,4.4580936E-4,-1.4437578E-4],"categories":[],"categories_nodes":[],"categories_segments":[],"categories_sizes":[],"default_left":[0,0,0,0,0,0,0,0,0,0,0,0,0,0,0,0,0,0,0,0,0,0,0,0,0,0,0,0,0,0,0],"id":46,"left_children":[1,3,5,7,9,11,13,15,17,19,21,23,25,27,29,-1,-1,-1,-1,-1,-1,-1,-1,-1,-1,-1,-1,-1,-1,-1,-1],"loss_changes":[4.7306854E-2,6.1691307E-2,8.9563996E-2,3.8927812E-2,2.9986821E-2,4.840669E-2,1.4164114E-2,3.7912097E-2,3.3296538E-3,1.805443E-2,1.8446133E-2,8.316869E-3,4.1899532E-2,9.921413E-3,2.27616E-3,0E0,0E0,0E0,0E0,0E0,0E0,0E0,0E0,0E0,0E0,0E0,0E0,0E0,0E0,0E0,0E0],"parents":[2147483647,0,0,1,1,2,2,3,3,4,4,5,5,6,6,7,7,8,8,9,9,10,10,11,11,12,12,13,13,14,14],"right_children":[2,4,6,8,10,12,14,16,18,20,22,24,26,28,30,-1,-1,-1,-1,-1,-1,-1,-1,-1,-1,-1,-1,-1,-1,-1,-1],"split_conditions":[4.590096E0,5.9E1,9.768113E0,2.1126218E0,5.726223E2,3E0,2.4878789E2,-9.073421E-2,7.55102E1,1.4051522E1,2.3705883E1,8.423203E0,5.299315E1,6.521298E1,2.927303E2,2.1384841E-4,1.6568484E-3,-8.064528E-4,-0E0,-1.3264833E-3,-2.3904748E-4,-0E0,-3.062113E-3,-5.745446E-4,1.0623403E-3,5.035812E-4,3.2109942E-3,-0E0,-1.7096167E-3,4.4580936E-4,-1.4437578E-4],"split_indices":[3,7,3,3,0,1,0,3,2,2,2,3,6,2,0,0,0,0,0,0,0,0,0,0,0,0,0,0,0,0,0],"split_type":[0,0,0,0,0,0,0,0,0,0,0,0,0,0,0,0,0,0,0,0,0,0,0,0,0,0,0,0,0,0,0],"sum_hessian":[5.52E2,4.74E2,7.8E1,1.07E2,3.67E2,4E1,3.8E1,7.8E1,2.9E1,3.6E2,7E0,1.1E1,2.9E1,1E1,2.8E1,4.8E1,3E1,1.1E1,1.8E1,1.5E1,3.45E2,2E0,5E0,8E0,3E0,1.2E1,1.7E1,2E0,8E0,7E0,2.1E1],"tree_param":{"num_deleted":"0","num_feature":"12","num_nodes":"31","size_leaf_vector":"1"}},{"base_weights":[3.5421456E-6,-3.1683464E-2,3.297273E-3,-1.895563E-2,-2.5567836E-3,6.8192887E-3,-1.6098993E-2,-3.0635793E-3,-3.444182E-2,-2.6854733E-4,2.0243676E-2,-4.7787093E-2,-7.848302E-3,-6.2402146E-4,1.2588954E-5,-1.1892586E-3,-0E0,2.1778628E-4,-6.5734814E-4,3.0229273E-3,2.9491307E-4,-0E0,-2.9258523E-3,-0E0,-6.1642006E-4],"categories":[],"categories_nodes":[],"categories_segments":[],"categories_sizes":[],"default_left":[0,0,0,0,0,0,0,0,0,0,0,0,0,0,0,0,0,0,0,0,0,0,0,0,0],"id":47,"left_children":[1,3,5,7,-1,9,11,13,15,17,19,21,23,-1,-1,-1,-1,-1,-1,-1,-1,-1,-1,-1,-1],"loss_changes":[5.6860246E-2,2.2721905E-2,3.477338E-2,6.9726687E-3,0E0,4.4439785E-2,1.3931518E-2,3.6531738E-3,1.0337234E-3,4.854837E-2,1.212683E-1,2.7383864E-2,6.1904984E-3,0E0,0E0,0E0,0E0,0E0,0E0,0E0,0E0,0E0,0E0,0E0,0E0],"parents":[2147483647,0,0,1,1,2,2,3,3,5,5,6,6,7,7,8,8,9,9,10,10,11,11,12,12],"right_children":[2,4,6,8,-1,10,12,14,16,18,20,22,24,-1,-1,-1,-1,-1,-1,-1,-1,-1,-1,-1,-1],"split_conditions":[-7.6002345E0,3.3076923E1,1.8452084E2,9E1,-2.5567836E-3,7.087801E1,1.8981398E2,6.1187958E1,1.34E2,6.3351418E1,8.658566E1,-2.5953395E0,2.1599373E2,-6.2402146E-4,1.2588954E-5,-1.1892586E-3,-0E0,2.1778628E-4,-6.5734814E-4,3.0229273E-3,2.9491307E-4,-0E0,-2.9258523E-3,-0E0,-6.1642006E-4],"split_indices":[4,2,6,11,0,6,6,6,8,6,5,3,5,0,0,0,0,0,0,0,0,0,0,0,0],"split_type":[0,0,0,0,0,0,0,0,0,0,0,0,0,0,0,0,0,0,0,0,0,0,0,0,0],"sum_hessian":[5.7E2,5E1,5.2E2,4.3E1,7E0,4.45E2,7.5E1,2.5E1,1.8E1,2.87E2,1.58E2,1.2E1,6.3E1,8E0,1.7E1,1.4E1,4E0,2.1E2,7.7E1,1.6E1,1.42E2,7E0,5E0,4E1,2.3E1],"tree_param":{"num_deleted":"0","num_feature":"12","num_nodes":"25","size_leaf_vector":"1"}},{"base_weights":[-0E0,2.5136437E-2,-2.5318342E-3,-0E0,7.0726044E-2,-6.200107E-3,1.8786404E-2,2.676359E-2,-1.576318E-2,-0E0,8.749516E-2,-4.0683692E-4,-1.7493723E-2,6.878054E-2,-8.7924665E-3,8.6941506E-4,-0E0,-0E0,-8.2812447E-4,3.100025E-3,-0E0,5.7235634E-4,-1.9158133E-4,8.046506E-4,-6.407661E-4,3.4611106E-3,-3.5877543E-4,-7.505351E-4,8.869598E-5],"categories":[],"categories_nodes":[],"categories_segments":[],"categories_sizes":[],"default_left":[0,0,0,0,0,0,0,0,0,0,0,0,0,0,0,0,0,0,0,0,0,0,0,0,0,0,0,0,0],"id":48,"left_children":[1,3,5,7,9,11,13,15,17,-1,19,21,23,25,27,-1,-1,-1,-1,-1,-1,-1,-1,-1,-1,-1,-1,-1,-1],"loss_changes":[3.742704E-2,6.592408E-2,3.9209623E-2,1.4558946E-2,2.2442997E-2,2.7317828E-2,1.0587585E-1,6.4308755E-4,2.418411E-3,0E0,2.7004838E-2,3.3921234E-2,2.486303E-2,1.1328536E-1,1.1049162E-2,0E0,0E0,0E0,0E0,0E0,0E0,0E0,0E0,0E0,0E0,0E0,0E0,0E0,0E0],"parents":[2147483647,0,0,1,1,2,2,3,3,4,4,5,5,6,6,7,7,8,8,10,10,11,11,12,12,13,13,14,14],"right_children":[2,4,6,8,10,12,14,16,18,-1,20,22,24,26,28,-1,-1,-1,-1,-1,-1,-1,-1,-1,-1,-1,-1,-1,-1],"split_conditions":[5.9869915E1,3.920638E1,6.137314E0,3.5363575E1,-8.184214E-2,1.09995926E2,8.88011E0,1.7132463E0,4.6645847E1,-0E0,1.022288E2,-1.1329722E0,5.19E1,1.415E2,1.5371E2,8.6941506E-4,-0E0,-0E0,-8.2812447E-4,3.100025E-3,-0E0,5.7235634E-4,-1.9158133E-4,8.046506E-4,-6.407661E-4,3.4611106E-3,-3.5877543E-4,-7.505351E-4,8.869598E-5],"split_indices":[5,6,4,0,3,0,3,4,5,0,0,4,11,11,11,0,0,0,0,0,0,0,0,0,0,0,0,0,0],"split_type":[0,0,0,0,0,0,0,0,0,0,0,0,0,0,0,0,0,0,0,0,0,0,0,0,0,0,0,0,0],"sum_hessian":[5.68E2,5.3E1,5.15E2,3.4E1,1.9E1,4.44E2,7.1E1,1.1E1,2.3E1,4E0,1.5E1,3E2,1.44E2,2.6E1,4.5E1,1E1,1E0,1.3E1,1E1,1.3E1,2E0,6.6E1,2.34E2,9E0,1.35E2,1.7E1,9E0,2.2E1,2.3E1],"tree_param":{"num_deleted":"0","num_feature":"12","num_nodes":"29","size_leaf_vector":"1"}},{"base_weights":[8.034465E-5,-2.8508626E-2,3.1790675E-3,-1.5279247E-2,-2.020146E-3,7.0481817E-3,-1.4653367E-2,-2.225114E-2,4.632687E-3,2.5876971E-2,3.0564077E-3,-3.647979E-2,-2.5568134E-3,-8.066772E-4,-0E0,4.4383985E-4,-0E0,9.860205E-4,-2.8056194E-4,-7.488257E-5,4.551351E-4,-1.6991918E-4,-3.4149715E-3,1.00032456E-4,-5.851797E-4],"categories":[],"categories_nodes":[],"categories_segments":[],"categories_sizes":[],"default_left":[0,0,0,0,0,0,0,0,0,0,0,0,0,0,0,0,0,0,0,0,0,0,0,0,0],"id":49,"left_children":[1,3,5,7,-1,9,11,13,15,17,19,21,23,-1,-1,-1,-1,-1,-1,-1,-1,-1,-1,-1,-1],"loss_changes":[4.743345E-2,1.7421316E-2,3.4668572E-2,7.6955305E-3,0E0,2.9045846E-2,1.8973198E-2,1.4698505E-3,1.1415977E-3,1.989742E-2,2.5319744E-2,5.4148752E-2,7.6732878E-3,0E0,0E0,0E0,0E0,0E0,0E0,0E0,0E0,0E0,0E0,0E0,0E0],"parents":[2147483647,0,0,1,1,2,2,3,3,5,5,6,6,7,7,8,8,9,9,10,10,11,11,12,12],"right_children":[2,4,6,8,-1,10,12,14,16,18,20,22,24,-1,-1,-1,-1,-1,-1,-1,-1,-1,-1,-1,-1],"split_conditions":[-7.6002345E0,3.0095991E1,1.8357384E2,-1.05446005E1,-2.020146E-3,-1.2619444E0,2.1083617E2,1.02064766E2,-8.810524E0,-1.1497687E0,7.087801E1,-1.4259653E0,1.9933589E2,-8.066772E-4,-0E0,4.4383985E-4,-0E0,9.860205E-4,-2.8056194E-4,-7.488257E-5,4.551351E-4,-1.6991918E-4,-3.4149715E-3,1.00032456E-4,-5.851797E-4],"split_indices":[4,2,6,3,0,3,5,6,3,4,6,3,6,0,0,0,0,0,0,0,0,0,0,0,0],"split_type":[0,0,0,0,0,0,0,0,0,0,0,0,0,0,0,0,0,0,0,0,0,0,0,0,0],"sum_hessian":[5.62E2,5.1E1,5.11E2,4.1E1,1E1,4.25E2,8.6E1,3.4E1,7E0,6.9E1,3.56E2,2.7E1,5.9E1,2.5E1,9E0,5E0,2E0,6E1,9E0,2.39E2,1.17E2,2.1E1,6E0,4E1,1.9E1],"tree_param":{"num_deleted":"0","num_feature":"12","num_nodes":"25","size_leaf_vector":"1"}},{"base_weights":[-8.303922E-4,-2.6385782E-2,1.4896169E-3,-9.746161E-3,-6.8545766E-2,5.3855143E-3,-1.4632383E-2,-3.2390326E-2,-0E0,-0E0,-2.1671075E-3,-6.2597665E-4,1.9384192E-2,-3.7868787E-3,-3.6897972E-2,-0E0,-1.0915564E-3,2.0136205E-4,-3.0495907E-4,2.604639E-4,-5.879586E-4,2.9655464E-3,2.3336789E-4,3.2853545E-4,-3.4875402E-4,-3.4800651E-3,-0E0],"categories":[],"categories_nodes":[],"categories_segments":[],"categories_sizes":[],"default_left":[0,0,0,0,0,0,0,0,0,0,0,0,0,0,0,0,0,0,0,0,0,0,0,0,0,0,0],"id":50,"left_children":[1,3,5,7,9,11,13,15,17,-1,-1,19,21,23,25,-1,-1,-1,-1,-1,-1,-1,-1,-1,-1,-1,-1],"loss_changes":[3.4841288E-2,2.5877532E-2,3.0370517E-2,5.8326684E-3,1.0176264E-3,3.6054045E-2,1.800809E-2,1.1488693E-3,2.3873937E-3,0E0,0E0,5.0709635E-2,1.0569243E-1,7.81907E-3,7.08926E-2,0E0,0E0,0E0,0E0,0E0,0E0,0E0,0E0,0E0,0E0,0E0,0E0],"parents":[2147483647,0,0,1,1,2,2,3,3,4,4,5,5,6,6,7,7,8,8,11,11,12,12,13,13,14,14],"right_children":[2,4,6,8,10,12,14,16,18,-1,-1,20,22,24,26,-1,-1,-1,-1,-1,-1,-1,-1,-1,-1,-1,-1],"split_conditions":[-7.6002345E0,3.0095991E1,1.949E2,-1.7142086E1,6.13E1,7.087801E1,1.2180519E2,3.4213785E2,-1.4595066E1,-0E0,-2.1671075E-3,7.107E1,8.531663E1,1E0,1.3198042E2,-0E0,-1.0915564E-3,2.0136205E-4,-3.0495907E-4,2.604639E-4,-5.879586E-4,2.9655464E-3,2.3336789E-4,3.2853545E-4,-3.4875402E-4,-3.4800651E-3,-0E0],"split_indices":[4,2,10,4,9,6,0,0,4,0,0,11,5,1,0,0,0,0,0,0,0,0,0,0,0,0,0],"split_type":[0,0,0,0,0,0,0,0,0,0,0,0,0,0,0,0,0,0,0,0,0,0,0,0,0,0,0],"sum_hessian":[5.44E2,4.8E1,4.96E2,3.7E1,1.1E1,4.05E2,9.1E1,8E0,2.9E1,1E0,1E1,2.79E2,1.26E2,6.5E1,2.6E1,1E0,7E0,1.3E1,1.6E1,1.84E2,9.5E1,1.4E1,1.12E2,1.8E1,4.7E1,7E0,1.9E1],"tree_param":{"num_deleted":"0","num_feature":"12","num_nodes":"27","size_leaf_vector":"1"}},{"base_weights":[-5.8232713E-4,-2.885125E-2,1.5517952E-3,-1.7316146E-2,-2.7916443E-3,1.9466091E-2,-2.135404E-3,-2.151054E-2,-0E0,7.193781E-2,1.3267933E-2,-5.917622E-3,1.2999307E-2,-1.7110433E-4,-1.3467754E-3,1.1892826E-5,-2.2931206E-4,-0E0,3.0270047E-3,9.015345E-4,-0E0,3.357432E-4,-3.521549E-4,1.3502825E-3,-2.6960784E-4],"categories":[],"categories_nodes":[],"categories_segments":[],"categories_sizes":[],"default_left":[0,0,0,0,0,0,0,0,0,0,0,0,0,0,0,0,0,0,0,0,0,0,0,0,0],"id":51,"left_children":[1,3,5,7,-1,9,11,13,15,17,19,21,23,-1,-1,-1,-1,-1,-1,-1,-1,-1,-1,-1,-1],"loss_changes":[3.6860794E-2,1.9197125E-2,3.632066E-2,1.7242897E-3,0E0,2.109639E-2,2.3983149E-2,5.402768E-3,4.097726E-4,1.9684676E-2,1.9904485E-2,3.5042472E-2,6.101307E-2,0E0,0E0,0E0,0E0,0E0,0E0,0E0,0E0,0E0,0E0,0E0,0E0],"parents":[2147483647,0,0,1,1,2,2,3,3,5,5,6,6,7,7,8,8,9,9,10,10,11,11,12,12],"right_children":[2,4,6,8,-1,10,12,14,16,18,20,22,24,-1,-1,-1,-1,-1,-1,-1,-1,-1,-1,-1,-1],"split_conditions":[-7.6002345E0,5.826738E2,-1.3055596E0,1.211E2,-2.7916443E-3,5.895482E1,4.653442E0,9E1,2.1254794E2,5.5068974E1,-3.2477007E0,3.7157722E1,9.362551E0,-1.7110433E-4,-1.3467754E-3,1.1892826E-5,-2.2931206E-4,-0E0,3.0270047E-3,9.015345E-4,-0E0,3.357432E-4,-3.521549E-4,1.3502825E-3,-2.6960784E-4],"split_indices":[4,0,4,10,0,0,4,11,5,0,4,0,4,0,0,0,0,0,0,0,0,0,0,0,0],"split_type":[0,0,0,0,0,0,0,0,0,0,0,0,0,0,0,0,0,0,0,0,0,0,0,0,0],"sum_hessian":[5.64E2,4.2E1,5.22E2,3.8E1,4E0,9.3E1,4.29E2,2.8E1,1E1,7E0,8.6E1,3.49E2,8E1,2E1,8E0,4E0,6E0,2E0,5E0,3.8E1,4.8E1,8.4E1,2.65E2,3.4E1,4.6E1],"tree_param":{"num_deleted":"0","num_feature":"12","num_nodes":"25","size_leaf_vector":"1"}},{"base_weights":[-6.219908E-4,-2.6632171E-2,1.6901031E-3,-1.3610176E-2,-6.475474E-2,5.2320887E-3,-1.3274566E-2,-0E0,-2.5771933E-2,-0E0,-2.0659177E-3,7.173106E-4,2.3629313E-2,-5.8024712E-2,-6.3514053E-3,6.475493E-5,-0E0,-9.161496E-4,-0E0,8.205478E-4,-9.576134E-5,1.8850811E-3,7.207319E-5,-0E0,-2.5760373E-3,-5.475502E-4,-0E0],"categories":[],"categories_nodes":[],"categories_segments":[],"categories_sizes":[],"default_left":[0,0,0,0,0,0,0,0,0,0,0,0,0,0,0,0,0,0,0,0,0,0,0,0,0,0,0],"id":52,"left_children":[1,3,5,7,9,11,13,15,17,-1,-1,19,21,23,25,-1,-1,-1,-1,-1,-1,-1,-1,-1,-1,-1,-1],"loss_changes":[3.5254277E-2,1.5110917E-2,2.5608515E-2,7.387997E-3,7.484071E-4,3.1436615E-2,2.1076968E-2,3.2613785E-5,1.241778E-3,0E0,0E0,3.7176177E-2,5.6575138E-2,1.7944414E-2,5.3936457E-3,0E0,0E0,0E0,0E0,0E0,0E0,0E0,0E0,0E0,0E0,0E0,0E0],"parents":[2147483647,0,0,1,1,2,2,3,3,4,4,5,5,6,6,7,7,8,8,11,11,12,12,13,13,14,14],"right_children":[2,4,6,8,10,12,14,16,18,-1,-1,20,22,24,26,-1,-1,-1,-1,-1,-1,-1,-1,-1,-1,-1,-1],"split_conditions":[-7.6002345E0,3.0095991E1,2.0793628E2,9E1,6.13E1,1.2191717E2,2.1083617E2,6.985E1,5.0895825E2,-0E0,-2.0659177E-3,-1.3055596E0,1.45E2,6.54392E-1,-1.4998574E-2,6.475493E-5,-0E0,-9.161496E-4,-0E0,8.205478E-4,-9.576134E-5,1.8850811E-3,7.207319E-5,-0E0,-2.5760373E-3,-5.475502E-4,-0E0],"split_indices":[4,2,5,11,9,5,5,7,0,0,0,4,11,4,3,0,0,0,0,0,0,0,0,0,0,0,0],"split_type":[0,0,0,0,0,0,0,0,0,0,0,0,0,0,0,0,0,0,0,0,0,0,0,0,0,0,0],"sum_hessian":[5.43E2,4.7E1,4.96E2,3.8E1,9E0,4.07E2,8.9E1,1.7E1,2.1E1,1E0,8E0,3.32E2,7.5E1,9E0,8E1,6E0,1.1E1,1.6E1,5E0,4.5E1,2.87E2,2.4E1,5.1E1,3E0,6E0,2.5E1,5.5E1],"tree_param":{"num_deleted":"0","num_feature":"12","num_nodes":"27","size_leaf_vector":"1"}},{"base_weights":[-6.379647E-4,2.341411E-2,-4.374927E-3,-0E0,5.6871403E-2,-2.9304875E-2,-1.3750574E-3,2.9095963E-2,-1.1156275E-2,-0E0,7.962151E-2,-1.1280818E-2,-4.636709E-2,2.271004E-2,-3.8129233E-3,9.243232E-4,-0E0,-0E0,-7.462118E-4,2.8683913E-3,-0E0,-9.038577E-4,-0E0,-1.6157317E-3,-0E0,1.2089168E-3,2.2382223E-5,-3.9343772E-4,9.203486E-5],"categories":[],"categories_nodes":[],"categories_segments":[],"categories_sizes":[],"default_left":[0,0,0,0,0,0,0,0,0,0,0,0,0,0,0,0,0,0,0,0,0,0,0,0,0,0,0,0,0],"id":53,"left_children":[1,3,5,7,9,11,13,15,17,-1,19,21,23,25,27,-1,-1,-1,-1,-1,-1,-1,-1,-1,-1,-1,-1,-1,-1],"loss_changes":[4.862215E-2,6.0793165E-2,3.353714E-2,1.2573011E-2,3.9205827E-2,8.781139E-3,2.4149459E-2,7.798523E-5,3.9358675E-3,0E0,3.422436E-2,7.3295915E-3,4.9138255E-3,1.0158123E-2,2.7029913E-2,0E0,0E0,0E0,0E0,0E0,0E0,0E0,0E0,0E0,0E0,0E0,0E0,0E0,0E0],"parents":[2147483647,0,0,1,1,2,2,3,3,4,4,5,5,6,6,7,7,8,8,10,10,11,11,12,12,13,13,14,14],"right_children":[2,4,6,8,10,12,14,16,18,-1,20,22,24,26,28,-1,-1,-1,-1,-1,-1,-1,-1,-1,-1,-1,-1,-1,-1],"split_conditions":[6.139752E1,3.920638E1,-7.6002345E0,1.4713286E0,-2.648049E-1,9E1,-3.2477007E0,3.648E1,2.4543903E0,-0E0,2.8373919E0,6.1187958E1,1.4096E2,4.9768337E1,7.004051E1,9.243232E-4,-0E0,-0E0,-7.462118E-4,2.8683913E-3,-0E0,-9.038577E-4,-0E0,-1.6157317E-3,-0E0,1.2089168E-3,2.2382223E-5,-3.9343772E-4,9.203486E-5],"split_indices":[5,6,4,4,4,11,4,10,4,0,4,6,11,6,6,0,0,0,0,0,0,0,0,0,0,0,0,0,0],"split_type":[0,0,0,0,0,0,0,0,0,0,0,0,0,0,0,0,0,0,0,0,0,0,0,0,0,0,0,0,0],"sum_hessian":[5.6E2,7.1E1,4.89E2,4.1E1,3E1,4.8E1,4.41E2,9E0,3.2E1,9E0,2.1E1,2.7E1,2.1E1,3.6E1,4.05E2,8E0,1E0,2E1,1.2E1,1.8E1,3E0,1.1E1,1.6E1,1.7E1,4E0,1.7E1,1.9E1,1.78E2,2.27E2],"tree_param":{"num_deleted":"0","num_feature":"12","num_nodes":"29","size_leaf_vector":"1"}},{"base_weights":[-5.332236E-5,-2.2759903E-2,2.1850187E-3,-1.4359749E-2,-2.0850347E-3,5.7025673E-3,-1.1559054E-2,-0E0,-1.6347067E-2,-2.8113427E-4,1.8011352E-2,-4.30248E-2,-6.1745564E-3,-0E0,-6.4115296E-4,4.033651E-4,-2.8028328E-4,2.9573727E-3,2.3644793E-4,-0E0,-2.1445763E-3,-1.9857644E-3,-8.178103E-5],"categories":[],"categories_nodes":[],"categories_segments":[],"categories_sizes":[],"default_left":[0,0,0,0,0,0,0,0,0,0,0,0,0,0,0,0,0,0,0,0,0,0,0],"id":54,"left_children":[1,3,5,7,-1,9,11,-1,13,15,17,19,21,-1,-1,-1,-1,-1,-1,-1,-1,-1,-1],"loss_changes":[2.9806884E-2,1.1425484E-2,2.3314571E-2,1.59303E-3,0E0,3.1165268E-2,1.0909992E-2,0E0,1.7550727E-3,3.2553215E-2,9.9570826E-2,1.5409144E-2,1.052036E-2,0E0,0E0,0E0,0E0,0E0,0E0,0E0,0E0,0E0,0E0],"parents":[2147483647,0,0,1,1,2,2,3,3,5,5,6,6,8,8,9,9,10,10,11,11,12,12],"right_children":[2,4,6,8,-1,10,12,-1,14,16,18,20,22,-1,-1,-1,-1,-1,-1,-1,-1,-1,-1],"split_conditions":[-6.5635743E0,3.3076923E1,2.0793628E2,1.1839166E1,-2.0850347E-3,7.087801E1,2.1083617E2,-0E0,1.980885E2,5.88E1,8.658566E1,2.0011E2,1.82E2,-0E0,-6.4115296E-4,4.033651E-4,-2.8028328E-4,2.9573727E-3,2.3644793E-4,-0E0,-2.1445763E-3,-1.9857644E-3,-8.178103E-5],"split_indices":[3,2,5,2,0,6,5,0,0,7,5,11,7,0,0,0,0,0,0,0,0,0,0],"split_type":[0,0,0,0,0,0,0,0,0,0,0,0,0,0,0,0,0,0,0,0,0,0,0],"sum_hessian":[5.44E2,5.2E1,4.92E2,4.7E1,5E0,3.98E2,9.4E1,5E0,4.2E1,2.63E2,1.35E2,1E1,8.4E1,1.4E1,2.8E1,1E2,1.63E2,1.3E1,1.22E2,4E0,6E0,2E0,8.2E1],"tree_param":{"num_deleted":"0","num_feature":"12","num_nodes":"23","size_leaf_vector":"1"}},{"base_weights":[-1.0859504E-3,1.6119855E-2,-6.7289984E-3,2.510376E-2,-4.132543E-3,1.0476102E-2,-1.0017245E-2,-6.9846516E-4,4.3299984E-2,-1.421871E-2,2.2967923E-2,-8.2784187E-4,1.00794196E-1,-4.6753883E-2,-6.818537E-3,4.2619376E-4,-4.245482E-4,5.494159E-4,2.1464732E-3,-0E0,-1.3361409E-3,-0E0,7.9984486E-4,4.2902448E-4,-2.1197929E-4,3.2406521E-3,-0E0,-0E0,-1.6458847E-3,-3.766725E-4,-0E0],"categories":[],"categories_nodes":[],"categories_segments":[],"categories_sizes":[],"default_left":[0,0,0,0,0,0,0,0,0,0,0,0,0,0,0,0,0,0,0,0,0,0,0,0,0,0,0,0,0,0,0],"id":55,"left_children":[1,3,5,7,9,11,13,15,17,19,21,23,25,27,29,-1,-1,-1,-1,-1,-1,-1,-1,-1,-1,-1,-1,-1,-1,-1,-1],"loss_changes":[5.266773E-2,2.6217695E-2,2.3820393E-2,4.8893176E-2,9.838568E-3,7.439997E-2,3.639247E-2,7.815246E-3,3.0641854E-2,1.1585401E-2,7.556435E-4,4.6625435E-3,4.0511787E-4,9.384379E-3,1.28944535E-2,0E0,0E0,0E0,0E0,0E0,0E0,0E0,0E0,0E0,0E0,0E0,0E0,0E0,0E0,0E0,0E0],"parents":[2147483647,0,0,1,1,2,2,3,3,4,4,5,5,6,6,7,7,8,8,9,9,10,10,11,11,12,12,13,13,14,14],"right_children":[2,4,6,8,10,12,14,16,18,20,22,24,26,28,30,-1,-1,-1,-1,-1,-1,-1,-1,-1,-1,-1,-1,-1,-1,-1,-1],"split_conditions":[5.561563E1,1.110813E2,3.280536E1,3.892455E1,1.9826102E2,7.092842E1,4.4995556E1,4.5485977E1,9.130166E-1,1.6179749E2,5.135E1,1.3827071E1,3.262417E1,5.635272E1,4.9999996E1,4.2619376E-4,-4.245482E-4,5.494159E-4,2.1464732E-3,-0E0,-1.3361409E-3,-0E0,7.9984486E-4,4.2902448E-4,-2.1197929E-4,3.2406521E-3,-0E0,-0E0,-1.6458847E-3,-3.766725E-4,-0E0],"split_indices":[6,0,0,6,0,6,0,0,4,0,9,0,0,6,2,0,0,0,0,0,0,0,0,0,0,0,0,0,0,0,0],"split_type":[0,0,0,0,0,0,0,0,0,0,0,0,0,0,0,0,0,0,0,0,0,0,0,0,0,0,0,0,0,0,0],"sum_hessian":[5.5E2,1.31E2,4.19E2,9.4E1,3.7E1,6.2E1,3.57E2,3.7E1,5.7E1,3E1,7E0,5.5E1,7E0,2.5E1,3.32E2,1.4E1,2.3E1,3.3E1,2.4E1,2.2E1,8E0,1E0,6E0,1.1E1,4.4E1,6E0,1E0,4E0,2.1E1,1.79E2,1.53E2],"tree_param":{"num_deleted":"0","num_feature":"12","num_nodes":"31","size_leaf_vector":"1"}},{"base_weights":[-2.3866269E-4,1.2012868E-2,-4.144886E-3,1.9381475E-2,-5.2631875E-3,-1.5850028E-2,2.0840808E-3,4.774199E-3,3.7294965E-2,-1.9170605E-2,2.5932752E-2,-5.3729294E-3,-3.9647937E-2,1.830815E-2,-7.8218095E-3,5.511189E-4,-1.0175832E-3,6.922613E-4,2.310343E-3,-1.1726371E-3,-1.0391876E-4,1.8306767E-3,-2.4555429E-4,-7.8879355E-5,-1.2903527E-3,-2.2314329E-4,-1.7948964E-3,2.0580587E-4,1.9000842E-3,-1.1948379E-3,-5.216079E-5],"categories":[],"categories_nodes":[],"categories_segments":[],"categories_sizes":[],"default_left":[0,0,0,0,0,0,0,0,0,0,0,0,0,0,0,0,0,0,0,0,0,0,0,0,0,0,0,0,0,0,0],"id":56,"left_children":[1,3,5,7,9,11,13,15,17,19,21,23,25,27,29,-1,-1,-1,-1,-1,-1,-1,-1,-1,-1,-1,-1,-1,-1,-1,-1],"loss_changes":[2.577589E-2,1.7808298E-2,3.25426E-2,2.0211753E-2,1.5005855E-2,3.3682175E-2,4.522743E-2,2.8529588E-2,1.0239575E-2,4.0559312E-3,1.6557934E-2,6.785388E-3,2.1430686E-2,4.8217528E-2,2.8288476E-2,0E0,0E0,0E0,0E0,0E0,0E0,0E0,0E0,0E0,0E0,0E0,0E0,0E0,0E0,0E0,0E0],"parents":[2147483647,0,0,1,1,2,2,3,3,4,4,5,5,6,6,7,7,8,8,9,9,10,10,11,11,12,12,13,13,14,14],"right_children":[2,4,6,8,10,12,14,16,18,20,22,24,26,28,30,-1,-1,-1,-1,-1,-1,-1,-1,-1,-1,-1,-1,-1,-1,-1,-1],"split_conditions":[5.5412483E1,2.550071E0,7.004051E1,4.810153E1,4.037604E0,6.5082214E1,1.5990666E2,