{"learner":{"attributes":{"best_iteration":"0","best_score":"0.05364406338505211","scikit_learn":"{\"_estimator_type\": \"regressor\"}"},"feature_names":["Fourier_Dominant","HMM_State","RSI","MACD","MACD_Signal","BB_Upper","BB_Lower","Close_Lag_1","Close_Lag_2","Close_Lag_3","Close_Lag_4","Close_Lag_5"],"feature_types":["float","int","float","float","float","float","float","float","float","float","float","float"],"gradient_booster":{"model":{"cats":{"enc":[],"feature_segments":[],"sorted_idx":[]},"gbtree_model_param":{"num_parallel_tree":"1","num_trees":"51"},"iteration_indptr":[0,1,2,3,4,5,6,7,8,9,10,11,12,13,14,15,16,17,18,19,20,21,22,23,24,25,26,27,28,29,30,31,32,33,34,35,36,37,38,39,40,41,42,43,44,45,46,47,48,49,50,51],"tree_info":[0,0,0,0,0,0,0,0,0,0,0,0,0,0,0,0,0,0,0,0,0,0,0,0,0,0,0,0,0,0,0,0,0,0,0,0,0,0,0,0,0,0,0,0,0,0,0,0,0,0,0],"trees":[{"base_weights":[-0E0,6.3699894E-3,-9.613561E-3,2.193419E-2,-4.4166013E-3,-6.789631E-2,-6.116385E-3,1.2841903E-1,1.0825046E-2,-5.8198202E-2,-1.4788572E-3,-0E0,-2.1836797E-3,-3.481541E-2,-2.4975084E-3,5.5390983E-3,1.4280373E-3,8.748558E-4,4.3173808E-5,-0E0,-2.8575887E-3,9.7344135E-5,-5.904782E-4,-0E0,-2.9739246E-3,5.438642E-4,-1.7442307E-4],"categories":[],"categories_nodes":[],"categories_segments":[],"categories_sizes":[],"default_left":[0,0,0,0,0,0,0,0,0,0,0,0,0,0,0,0,0,0,0,0,0,0,0,0,0,0,0],"id":0,"left_children":[1,3,5,7,9,11,13,15,17,19,21,-1,-1,23,25,-1,-1,-1,-1,-1,-1,-1,-1,-1,-1,-1,-1],"loss_changes":[3.2318506E-2,5.6411143E-2,3.4375235E-2,1.4675036E-1,2.3807578E-2,1.5854947E-3,1.6745685E-2,2.2507846E-2,1.8583523E-2,1.8269388E-2,1.7357526E-2,0E0,0E0,3.5931375E-2,1.1187573E-2,0E0,0E0,0E0,0E0,0E0,0E0,0E0,0E0,0E0,0E0,0E0,0E0],"parents":[2147483647,0,0,1,1,2,2,3,3,4,4,5,5,6,6,7,7,8,8,9,9,10,10,13,13,14,14],"right_children":[2,4,6,8,10,12,14,16,18,20,22,-1,-1,24,26,-1,-1,-1,-1,-1,-1,-1,-1,-1,-1,-1,-1],"split_conditions":[7.91E0,-9.55316E-2,-3.8003573E-1,1.9480293E0,4.82E0,1.8840578E1,8E0,-1.3430397E-1,-2.3843922E-1,-7.9222284E-2,-9.635193E-3,-0E0,-2.1836797E-3,-7.026501E-2,3.1428568E1,5.5390983E-3,1.4280373E-3,8.748558E-4,4.3173808E-5,-0E0,-2.8575887E-3,9.7344135E-5,-5.904782E-4,-0E0,-2.9739246E-3,5.438642E-4,-1.7442307E-4],"split_indices":[10,4,4,0,10,2,10,4,3,4,3,0,0,3,2,0,0,0,0,0,0,0,0,0,0,0,0],"split_type":[0,0,0,0,0,0,0,0,0,0,0,0,0,0,0,0,0,0,0,0,0,0,0,0,0,0,0],"sum_hessian":[5.3E2,3.24E2,2.06E2,1.36E2,1.88E2,9E0,1.97E2,1.1E1,1.25E2,7E0,1.81E2,1E0,8E0,1.8E1,1.79E2,5E0,6E0,3.8E1,8.7E1,3E0,4E0,1.4E2,4.1E1,1.3E1,5E0,2E1,1.59E2],"tree_param":{"num_deleted":"0","num_feature":"12","num_nodes":"27","size_leaf_vector":"1"}},{"base_weights":[-0E0,7.968774E-3,-8.598205E-3,6.1252937E-2,9.749481E-4,1.549141E-2,-1.1220033E-2,5.4006204E-3,2.6298556E-2,9.289081E-3,-1.2243559E-2,2.1036737E-2,-0E0,-1.6164478E-2,-1.5281383E-3,-0E0,1.1808148E-3,1.0547626E-3,3.5510642E-5,-1.5832944E-3,-1.5801712E-4,-0E0,7.261429E-4,-3.255557E-4,-1.6976382E-3,5.7705223E-5,-3.3487703E-4],"categories":[],"categories_nodes":[],"categories_segments":[],"categories_sizes":[],"default_left":[0,0,0,0,0,0,0,0,0,0,0,0,0,0,0,0,0,0,0,0,0,0,0,0,0,0,0],"id":1,"left_children":[1,3,5,7,9,11,13,-1,15,17,19,21,-1,23,25,-1,-1,-1,-1,-1,-1,-1,-1,-1,-1,-1,-1],"loss_changes":[3.6409587E-2,9.5453724E-2,1.6041657E-2,9.9177405E-2,2.6633987E-2,1.8010647E-3,9.563325E-3,0E0,7.4976217E-3,2.8825141E-2,1.9367002E-2,5.3560967E-4,0E0,2.4855115E-2,3.871786E-3,0E0,0E0,0E0,0E0,0E0,0E0,0E0,0E0,0E0,0E0,0E0,0E0],"parents":[2147483647,0,0,1,1,2,2,3,3,4,4,5,5,6,6,8,8,9,9,10,10,11,11,13,13,14,14],"right_children":[2,4,6,8,10,12,14,-1,16,18,20,22,-1,24,26,-1,-1,-1,-1,-1,-1,-1,-1,-1,-1,-1,-1],"split_conditions":[-7.7176705E-2,2.0396228E0,3.0208328E1,-1.3430397E-1,7.91E0,5.640221E0,8.05E0,5.4006204E-3,2.8749994E1,-2.3843922E-1,-3.8003573E-1,-1.0330243E-1,-0E0,8.254148E0,1.2098462E-1,-0E0,1.1808148E-3,1.0547626E-3,3.5510642E-5,-1.5832944E-3,-1.5801712E-4,-0E0,7.261429E-4,-3.255557E-4,-1.6976382E-3,5.7705223E-5,-3.3487703E-4],"split_indices":[4,0,2,4,10,0,11,0,2,3,4,3,0,5,4,0,0,0,0,0,0,0,0,0,0,0,0],"split_type":[0,0,0,0,0,0,0,0,0,0,0,0,0,0,0,0,0,0,0,0,0,0,0,0,0,0,0],"sum_hessian":[5.29E2,2.72E2,2.57E2,2.9E1,2.43E2,2.1E1,2.36E2,5E0,2.4E1,1.54E2,8.9E1,1.5E1,6E0,1.49E2,8.7E1,9E0,1.5E1,3.3E1,1.21E2,1E1,7.9E1,3E0,1.2E1,1.35E2,1.4E1,5.7E1,3E1],"tree_param":{"num_deleted":"0","num_feature":"12","num_nodes":"27","size_leaf_vector":"1"}},{"base_weights":[-1.2272465E-4,7.1237898E-3,-7.829908E-3,6.360485E-2,1.1292441E-3,-2.3538289E-3,-6.334299E-3,5.452865E-3,2.5885275E-2,9.478368E-3,-1.1913551E-2,1.7054783E-2,-9.196715E-3,-0E0,1.1385329E-3,7.4523047E-4,4.0318573E-5,-7.8512647E-4,-0E0,6.7651976E-4,-0E0,-1.8137666E-4,-8.2207675E-4],"categories":[],"categories_nodes":[],"categories_segments":[],"categories_sizes":[],"default_left":[0,0,0,0,0,0,0,0,0,0,0,0,0,0,0,0,0,0,0,0,0,0,0],"id":2,"left_children":[1,3,5,7,9,-1,11,-1,13,15,17,19,21,-1,-1,-1,-1,-1,-1,-1,-1,-1,-1],"loss_changes":[2.9727004E-2,8.385515E-2,1.891151E-2,8.149453E-2,2.6440006E-2,0E0,1.6844809E-2,0E0,5.3227674E-3,1.6592905E-2,1.585056E-2,1.8819394E-3,1.00846235E-2,0E0,0E0,0E0,0E0,0E0,0E0,0E0,0E0,0E0,0E0],"parents":[2147483647,0,0,1,1,2,2,3,3,4,4,6,6,8,8,9,9,10,10,11,11,12,12],"right_children":[2,4,6,8,10,-1,12,-1,14,16,18,20,22,-1,-1,-1,-1,-1,-1,-1,-1,-1,-1],"split_conditions":[-7.886401E-2,2.0396228E0,4.9145265E0,-1.6071807E-1,7.011446E0,-2.3538289E-3,3.0208328E1,5.452865E-3,2E0,-2.026517E-1,1.0807768E1,8.024868E0,5.8501487E0,-0E0,1.1385329E-3,7.4523047E-4,4.0318573E-5,-7.8512647E-4,-0E0,6.7651976E-4,-0E0,-1.8137666E-4,-8.2207675E-4],"split_indices":[4,0,5,4,6,0,2,0,1,4,5,6,0,0,0,0,0,0,0,0,0,0,0],"split_type":[0,0,0,0,0,0,0,0,0,0,0,0,0,0,0,0,0,0,0,0,0,0,0],"sum_hessian":[5.29E2,2.66E2,2.63E2,2.3E1,2.43E2,3E0,2.6E2,4E0,1.9E1,1.53E2,9E1,2.4E1,2.36E2,7E0,1.2E1,4.8E1,1.05E2,4.1E1,4.9E1,1.7E1,7E0,2.07E2,2.9E1],"tree_param":{"num_deleted":"0","num_feature":"12","num_nodes":"23","size_leaf_vector":"1"}},{"base_weights":[1.4870094E-4,7.818762E-3,-9.150662E-3,3.7454523E-2,3.0683354E-3,-2.9168066E-3,-6.822138E-3,5.8881748E-3,8.625956E-2,1.6354688E-3,1.2867993E-3,-9.179548E-3,1.820447E-2,-1.2911607E-4,6.094779E-4,7.332259E-4,4.4383304E-3,1.4247338E-4,-3.503535E-4,4.3351788E-4,-3.4781772E-4,3.1566778E-3,-2.4459448E-5],"categories":[],"categories_nodes":[],"categories_segments":[],"categories_sizes":[],"default_left":[0,0,0,0,0,0,0,0,0,0,0,0,0,0,0,0,0,0,0,0,0,0,0],"id":3,"left_children":[1,3,5,7,9,-1,11,13,15,-1,17,19,21,-1,-1,-1,-1,-1,-1,-1,-1,-1,-1],"loss_changes":[3.8668748E-2,3.8630668E-2,3.815284E-2,5.0360594E-2,1.8729892E-2,0E0,1.3188139E-2,5.5119004E-3,3.253141E-2,0E0,1.1033866E-2,1.2433328E-2,3.8662642E-2,0E0,0E0,0E0,0E0,0E0,0E0,0E0,0E0,0E0,0E0],"parents":[2147483647,0,0,1,1,2,2,3,3,4,4,6,6,7,7,8,8,10,10,11,11,12,12],"right_children":[2,4,6,8,10,-1,12,14,16,-1,18,20,22,-1,-1,-1,-1,-1,-1,-1,-1,-1,-1],"split_conditions":[-6.634214E-2,1.908337E0,4.751026E0,1.7636812E0,-5.770031E-1,-2.9168066E-3,7.411167E1,5.4726152E0,4.1666664E1,1.6354688E-3,7.274596E0,3.0107525E1,4.598619E0,-1.2911607E-4,6.094779E-4,7.332259E-4,4.4383304E-3,1.4247338E-4,-3.503535E-4,4.3351788E-4,-3.4781772E-4,3.1566778E-3,-2.4459448E-5],"split_indices":[3,0,6,0,3,0,2,6,2,0,0,2,0,0,0,0,0,0,0,0,0,0,0],"split_type":[0,0,0,0,0,0,0,0,0,0,0,0,0,0,0,0,0,0,0,0,0,0,0],"sum_hessian":[5.42E2,3.03E2,2.39E2,3.8E1,2.65E2,4E0,2.35E2,2.5E1,1.3E1,6E0,2.59E2,2.19E2,1.6E1,1.1E1,1.4E1,8E0,5E0,2.11E2,4.8E1,1.6E1,2.03E2,3E0,1.3E1],"tree_param":{"num_deleted":"0","num_feature":"12","num_nodes":"23","size_leaf_vector":"1"}},{"base_weights":[8.0138596E-4,-6.6463E-2,2.7067396E-3,-0E0,-2.3921968E-3,1.0985195E-2,-8.735167E-3,4.2136446E-2,1.8418711E-3,-5.0109487E-2,-5.9159035E-3,2.399106E-3,4.8696448E-4,2.1381471E-4,-2.8321668E-4,-1.6534696E-3,-0E0,-8.346463E-4,-6.607535E-5],"categories":[],"categories_nodes":[],"categories_segments":[],"categories_sizes":[],"default_left":[0,0,0,0,0,0,0,0,0,0,0,0,0,0,0,0,0,0,0],"id":4,"left_children":[1,3,5,-1,-1,7,9,11,13,15,17,-1,-1,-1,-1,-1,-1,-1,-1],"loss_changes":[6.083323E-2,6.1592124E-3,4.8723552E-2,0E0,0E0,8.154201E-2,1.8596495E-2,5.376543E-2,1.3968457E-2,2.7567837E-3,1.3205161E-2,0E0,0E0,0E0,0E0,0E0,0E0,0E0,0E0],"parents":[2147483647,0,0,1,1,2,2,5,5,6,6,7,7,8,8,9,9,10,10],"right_children":[2,4,6,-1,-1,8,10,12,14,16,18,-1,-1,-1,-1,-1,-1,-1,-1],"split_conditions":[4.9145265E0,-1.4695226E-1,7.9E0,-0E0,-2.3921968E-3,-1.3001843E-1,-3.8003573E-1,6.44E0,-3.675083E-2,1.06664095E1,8E0,2.399106E-3,4.8696448E-4,2.1381471E-4,-2.8321668E-4,-1.6534696E-3,-0E0,-8.346463E-4,-6.607535E-5],"split_indices":[5,3,11,0,0,4,4,9,4,5,9,0,0,0,0,0,0,0,0],"split_type":[0,0,0,0,0,0,0,0,0,0,0,0,0,0,0,0,0,0,0],"sum_hessian":[5.22E2,1.2E1,5.1E2,3E0,9E0,3.01E2,2.09E2,6.5E1,2.36E2,1E1,1.99E2,2.4E1,4.1E1,1.67E2,6.9E1,9E0,1E0,2.4E1,1.75E2],"tree_param":{"num_deleted":"0","num_feature":"12","num_nodes":"19","size_leaf_vector":"1"}},{"base_weights":[-9.394125E-4,2.877174E-3,-1.5154775E-2,1.570328E-2,-3.7673935E-3,-3.6065657E-2,-2.579941E-3,1.3530287E-1,7.248672E-3,-2.6265075E-3,-1.8243389E-3,-4.4071384E-2,-0E0,-0E0,-4.6944115E-4,-0E0,4.580944E-3,1.8360533E-3,1.3490231E-4,4.1070144E-4,-1.5587038E-4,-1.34106485E-5,-1.7095992E-3,1.0963959E-4,-9.500235E-5],"categories":[],"categories_nodes":[],"categories_segments":[],"categories_sizes":[],"default_left":[0,0,0,0,0,0,0,0,0,0,0,0,0,0,0,0,0,0,0,0,0,0,0,0,0],"id":5,"left_children":[1,3,5,7,9,11,13,15,17,-1,19,21,-1,23,-1,-1,-1,-1,-1,-1,-1,-1,-1,-1,-1],"loss_changes":[3.0568607E-2,3.7132025E-2,2.7596503E-2,1.3542806E-1,3.5345763E-2,1.5291594E-2,3.391947E-3,2.1771953E-2,1.4089925E-2,0E0,1.3291544E-2,1.4514267E-2,0E0,7.749818E-4,0E0,0E0,0E0,0E0,0E0,0E0,0E0,0E0,0E0,0E0,0E0],"parents":[2147483647,0,0,1,1,2,2,3,3,4,4,5,5,6,6,7,7,8,8,10,10,11,11,13,13],"right_children":[2,4,6,8,10,12,14,16,18,-1,20,22,-1,24,-1,-1,-1,-1,-1,-1,-1,-1,-1,-1,-1],"split_conditions":[8.52E0,-9.535787E-2,1.0835528E1,1.9480293E0,4.9145265E0,5.817646E-1,4.900662E1,1.552166E0,3.9E0,-2.6265075E-3,3.1034477E1,8.63E0,-0E0,1.108E1,-4.6944115E-4,-0E0,4.580944E-3,1.8360533E-3,1.3490231E-4,4.1070144E-4,-1.5587038E-4,-1.34106485E-5,-1.7095992E-3,1.0963959E-4,-9.500235E-5],"split_indices":[11,4,5,0,5,3,2,0,7,0,2,7,0,11,0,0,0,0,0,0,0,0,0,0,0],"split_type":[0,0,0,0,0,0,0,0,0,0,0,0,0,0,0,0,0,0,0,0,0,0,0,0,0],"sum_hessian":[5.39E2,4.2E2,1.19E2,1.48E2,2.72E2,4.1E1,7.8E1,8E0,1.4E2,4E0,2.68E2,3.5E1,6E0,6.3E1,1.5E1,1E0,7E0,4E0,1.36E2,4.2E1,2.26E2,1E1,2.5E1,3.6E1,2.7E1],"tree_param":{"num_deleted":"0","num_feature":"12","num_nodes":"25","size_leaf_vector":"1"}},{"base_weights":[-0E0,-5.548547E-2,1.4420813E-3,-1.6753664E-3,-2.2922207E-3,9.542525E-3,-7.874582E-3,-0E0,-1.8517028E-4,2.6791576E-2,1.4619506E-3,-1.6618729E-2,-4.218377E-3,2.3582873E-4,1.6005939E-3,1.8592423E-4,-3.436234E-4,-9.765182E-4,-0E0,7.325873E-5,-2.8522123E-4],"categories":[],"categories_nodes":[],"categories_segments":[],"categories_sizes":[],"default_left":[0,0,0,0,0,0,0,0,0,0,0,0,0,0,0,0,0,0,0,0,0],"id":6,"left_children":[1,3,5,7,-1,9,11,-1,-1,13,15,17,19,-1,-1,-1,-1,-1,-1,-1,-1],"loss_changes":[4.1082874E-2,6.699238E-3,3.8731184E-2,1.3555016E-4,0E0,3.602313E-2,5.2633155E-3,0E0,0E0,3.6199447E-2,1.1472368E-2,1.8393958E-2,6.823943E-3,0E0,0E0,0E0,0E0,0E0,0E0,0E0,0E0],"parents":[2147483647,0,0,1,1,2,2,3,3,5,5,6,6,9,9,10,10,11,11,12,12],"right_children":[2,4,6,8,-1,10,12,-1,-1,14,16,18,20,-1,-1,-1,-1,-1,-1,-1,-1],"split_conditions":[4.9145265E0,3.706314E0,6.8428226E0,5.316455E1,-2.2922207E-3,-1.1125848E-1,-1.3592017E-1,-0E0,-1.8517028E-4,3E0,-1.0066924E-2,1.0807768E1,-6.634214E-2,2.3582873E-4,1.6005939E-3,1.8592423E-4,-3.436234E-4,-9.765182E-4,-0E0,7.325873E-5,-2.8522123E-4],"split_indices":[5,6,6,2,0,3,3,0,0,1,3,5,3,0,0,0,0,0,0,0,0],"split_type":[0,0,0,0,0,0,0,0,0,0,0,0,0,0,0,0,0,0,0,0,0],"sum_hessian":[5.21E2,1.2E1,5.09E2,5E0,7E0,2.78E2,2.31E2,2E0,3E0,8.4E1,1.94E2,5.9E1,1.72E2,5.2E1,3.2E1,1.48E2,4.6E1,3.2E1,2.7E1,6.8E1,1.04E2],"tree_param":{"num_deleted":"0","num_feature":"12","num_nodes":"21","size_leaf_vector":"1"}},{"base_weights":[5.543272E-5,-5.6033563E-2,1.6138942E-3,-2.0312977E-3,-3.809403E-3,8.539153E-3,-7.7916514E-3,-0E0,-1.8100398E-4,2.7219351E-2,-0E0,-3.0231753E-2,-4.8964825E-3,2.9818353E-3,5.025534E-4,-6.0860053E-5,2.6120183E-3,-6.1374834E-5,-1.8983446E-3,4.803073E-4,-2.4396607E-4],"categories":[],"categories_nodes":[],"categories_segments":[],"categories_sizes":[],"default_left":[0,0,0,0,0,0,0,0,0,0,0,0,0,0,0,0,0,0,0,0,0],"id":7,"left_children":[1,3,5,-1,7,9,11,-1,-1,13,15,17,19,-1,-1,-1,-1,-1,-1,-1,-1],"loss_changes":[4.220089E-2,5.1737577E-4,3.479355E-2,0E0,7.30531E-5,4.978445E-2,1.0632083E-2,0E0,0E0,6.0759187E-2,3.8776036E-2,1.2898454E-2,1.2872057E-2,0E0,0E0,0E0,0E0,0E0,0E0,0E0,0E0],"parents":[2147483647,0,0,1,1,2,2,4,4,5,5,6,6,9,9,10,10,11,11,12,12],"right_children":[2,4,6,-1,8,10,12,-1,-1,14,16,18,20,-1,-1,-1,-1,-1,-1,-1,-1],"split_conditions":[4.9145265E0,7.880147E0,7.85E0,-2.0312977E-3,8.127626E0,-1.0469502E-1,-2.4949662E-1,-0E0,-1.8100398E-4,2.0396228E0,6.912751E1,1.0741046E1,3.1428568E1,2.9818353E-3,5.025534E-4,-6.0860053E-5,2.6120183E-3,-6.1374834E-5,-1.8983446E-3,4.803073E-4,-2.4396607E-4],"split_indices":[5,0,11,0,0,3,3,0,0,0,2,0,2,0,0,0,0,0,0,0,0],"split_type":[0,0,0,0,0,0,0,0,0,0,0,0,0,0,0,0,0,0,0,0,0],"sum_hessian":[5.43E2,1.2E1,5.31E2,8E0,4E0,3.12E2,2.19E2,1E0,3E0,9.7E1,2.15E2,2E1,1.99E2,1E1,8.7E1,2.11E2,4E0,1.3E1,7E0,2.2E1,1.77E2],"tree_param":{"num_deleted":"0","num_feature":"12","num_nodes":"21","size_leaf_vector":"1"}},{"base_weights":[4.3326923E-5,6.9508E-3,-7.837654E-3,3.2971546E-2,2.8046046E-3,-2.6225897E-3,-5.739116E-3,-0E0,4.9051505E-2,5.0475206E-2,1.0724664E-3,-8.353551E-3,2.3318937E-2,3.288117E-3,5.669373E-4,1.9025069E-3,-0E0,1.3807866E-3,-0E0,4.6451658E-4,-3.3338252E-4,3.599677E-3,-0E0],"categories":[],"categories_nodes":[],"categories_segments":[],"categories_sizes":[],"default_left":[0,0,0,0,0,0,0,0,0,0,0,0,0,0,0,0,0,0,0,0,0,0,0],"id":8,"left_children":[1,3,5,7,9,-1,11,-1,13,15,17,19,21,-1,-1,-1,-1,-1,-1,-1,-1,-1,-1],"loss_changes":[2.925326E-2,2.804872E-2,3.1098848E-2,1.9927707E-2,1.6094694E-2,0E0,1.700712E-2,0E0,3.0725349E-2,6.295994E-3,1.2420632E-2,1.4533712E-2,4.8345536E-2,0E0,0E0,0E0,0E0,0E0,0E0,0E0,0E0,0E0,0E0],"parents":[2147483647,0,0,1,1,2,2,3,3,4,4,6,6,8,8,9,9,10,10,11,11,12,12],"right_children":[2,4,6,8,10,-1,12,-1,14,16,18,20,22,-1,-1,-1,-1,-1,-1,-1,-1,-1,-1],"split_conditions":[-6.552787E-2,1.9480293E0,4.9145265E0,6.209463E0,3.9E0,-2.6225897E-3,7.411167E1,-0E0,6.41E0,7.705426E0,-5.770031E-1,3.225806E1,3.275467E0,3.288117E-3,5.669373E-4,1.9025069E-3,-0E0,1.3807866E-3,-0E0,4.6451658E-4,-3.3338252E-4,3.599677E-3,-0E0],"split_indices":[3,0,5,5,7,0,2,0,10,0,3,2,0,0,0,0,0,0,0,0,0,0,0],"split_type":[0,0,0,0,0,0,0,0,0,0,0,0,0,0,0,0,0,0,0,0,0,0,0],"sum_hessian":[5.37E2,2.93E2,2.44E2,3.6E1,2.57E2,4E0,2.4E2,1.2E1,2.4E1,6E0,2.51E2,2.24E2,1.6E1,6E0,1.8E1,5E0,1E0,5E0,2.46E2,1.9E1,2.05E2,3E0,1.3E1],"tree_param":{"num_deleted":"0","num_feature":"12","num_nodes":"23","size_leaf_vector":"1"}},{"base_weights":[4.226288E-4,-4.6789173E-2,1.9850165E-3,-0E0,-2.3623474E-3,5.6367875E-3,-9.959755E-3,-0E0,-8.913112E-3,2.7763093E-2,6.8326027E-4,-3.2014694E-2,-0E0,-0E0,-3.5139313E-4,4.7616605E-3,4.1126972E-4,-1.805168E-5,5.495762E-4,-1.1954919E-3,-0E0,1.6120155E-4,-2.1652237E-4],"categories":[],"categories_nodes":[],"categories_segments":[],"categories_sizes":[],"default_left":[0,0,0,0,0,0,0,0,0,0,0,0,0,0,0,0,0,0,0,0,0,0,0],"id":9,"left_children":[1,3,5,7,-1,9,11,-1,13,15,17,19,21,-1,-1,-1,-1,-1,-1,-1,-1,-1,-1],"loss_changes":[3.4780685E-2,1.67677E-2,2.2175163E-2,4.7666134E-4,0E0,4.130651E-2,2.5490236E-2,0E0,2.093227E-4,1.0941666E-1,9.351843E-3,1.2330163E-2,3.1281388E-3,0E0,0E0,0E0,0E0,0E0,0E0,0E0,0E0,0E0,0E0],"parents":[2147483647,0,0,1,1,2,2,3,3,5,5,6,6,8,8,9,9,10,10,11,11,12,12],"right_children":[2,4,6,8,-1,10,12,-1,14,16,18,20,22,-1,-1,-1,-1,-1,-1,-1,-1,-1,-1],"split_conditions":[4.9145265E0,4.7555375E0,8.72E0,5.8055887E0,-2.3623474E-3,-1.3001843E-1,1.0807768E1,-0E0,-1.5014662E-1,1.8263166E0,8.825401E0,5.817646E-1,1.097E1,-0E0,-3.5139313E-4,4.7616605E-3,4.1126972E-4,-1.805168E-5,5.495762E-4,-1.1954919E-3,-0E0,1.6120155E-4,-2.1652237E-4],"split_indices":[5,5,10,0,0,4,5,0,3,0,5,3,8,0,0,0,0,0,0,0,0,0,0],"split_type":[0,0,0,0,0,0,0,0,0,0,0,0,0,0,0,0,0,0,0,0,0,0,0],"sum_hessian":[5.3E2,1.4E1,5.16E2,7E0,7E0,4.02E2,1.14E2,2E0,5E0,6.9E1,3.33E2,3.5E1,7.9E1,1E0,4E0,5E0,6.4E1,3.06E2,2.7E1,3E1,5E0,4.6E1,3.3E1],"tree_param":{"num_deleted":"0","num_feature":"12","num_nodes":"23","size_leaf_vector":"1"}},{"base_weights":[-6.9014984E-4,-4.6416108E-2,2.4405324E-4,-0E0,-2.100001E-3,6.199413E-3,-8.178709E-3,-0E0,-1.3886072E-4,4.204998E-3,7.9922006E-2,-2.720529E-2,-5.547948E-3,3.265691E-4,-1.2348618E-4,3.3319956E-3,-0E0,-0E0,-1.9497355E-3,9.438214E-5,-3.4359124E-4],"categories":[],"categories_nodes":[],"categories_segments":[],"categories_sizes":[],"default_left":[0,0,0,0,0,0,0,0,0,0,0,0,0,0,0,0,0,0,0,0,0],"id":10,"left_children":[1,3,5,7,-1,9,11,-1,-1,13,15,17,19,-1,-1,-1,-1,-1,-1,-1,-1],"loss_changes":[2.7781326E-2,1.1192124E-2,2.643788E-2,8.569912E-5,0E0,3.8007867E-2,7.2353277E-3,0E0,0E0,1.8066132E-2,1.6966172E-2,2.2472E-2,1.0775156E-2,0E0,0E0,0E0,0E0,0E0,0E0,0E0,0E0],"parents":[2147483647,0,0,1,1,2,2,3,3,5,5,6,6,9,9,10,10,11,11,12,12],"right_children":[2,4,6,8,-1,10,12,-1,-1,14,16,18,20,-1,-1,-1,-1,-1,-1,-1,-1],"split_conditions":[4.9145265E0,3.6976936E0,7.91E0,4.636547E0,-2.100001E-3,6.8888885E1,8E0,-0E0,-1.3886072E-4,4.545454E1,7.9807386E0,7.7231975E0,8.72E0,3.265691E-4,-1.2348618E-4,3.3319956E-3,-0E0,-0E0,-1.9497355E-3,9.438214E-5,-3.4359124E-4],"split_indices":[5,6,9,5,0,2,10,0,0,2,5,6,11,0,0,0,0,0,0,0,0],"split_type":[0,0,0,0,0,0,0,0,0,0,0,0,0,0,0,0,0,0,0,0,0],"sum_hessian":[5.41E2,1.2E1,5.29E2,5E0,7E0,3.17E2,2.12E2,2E0,3E0,3.11E2,6E0,2E1,1.92E2,1.79E2,1.32E2,4E0,2E0,1.2E1,8E0,7.1E1,1.21E2],"tree_param":{"num_deleted":"0","num_feature":"12","num_nodes":"21","size_leaf_vector":"1"}},{"base_weights":[-7.467206E-4,-3.9166395E-2,7.6210265E-5,-0E0,-1.9463197E-3,5.5111246E-3,-6.6201333E-3,-0E0,-1.3573635E-4,4.0696166E-2,8.80317E-5,-1.1440106E-2,3.4128476E-3,4.837815E-3,4.3535573E-4,1.3805014E-3,-3.380628E-5,-2.13741E-4,-1.2075517E-3,5.271914E-4,-1.9818163E-4],"categories":[],"categories_nodes":[],"categories_segments":[],"categories_sizes":[],"default_left":[0,0,0,0,0,0,0,0,0,0,0,0,0,0,0,0,0,0,0,0,0],"id":11,"left_children":[1,3,5,7,-1,9,11,-1,-1,13,15,17,19,-1,-1,-1,-1,-1,-1,-1,-1],"loss_changes":[2.1174738E-2,1.219645E-2,1.9323613E-2,8.188604E-5,0E0,5.3733967E-2,1.2012627E-2,0E0,0E0,1.0004455E-1,1.93834E-2,1.5241986E-2,1.1001794E-2,0E0,0E0,0E0,0E0,0E0,0E0,0E0,0E0],"parents":[2147483647,0,0,1,1,2,2,3,3,5,5,6,6,9,9,10,10,11,11,12,12],"right_children":[2,4,6,8,-1,10,12,-1,-1,14,16,18,20,-1,-1,-1,-1,-1,-1,-1,-1],"split_conditions":[4.9145265E0,3.706314E0,-6.3066415E-2,8.127626E0,-1.9463197E-3,1.9480293E0,7.950057E0,-0E0,-1.3573635E-4,-1.3430397E-1,-5.147009E-1,7.7830687E0,8.163063E0,4.837815E-3,4.3535573E-4,1.3805014E-3,-3.380628E-5,-2.13741E-4,-1.2075517E-3,5.271914E-4,-1.9818163E-4],"split_indices":[5,6,4,0,0,0,6,0,0,4,4,6,6,0,0,0,0,0,0,0,0],"split_type":[0,0,0,0,0,0,0,0,0,0,0,0,0,0,0,0,0,0,0,0,0],"sum_hessian":[5.45E2,1.3E1,5.32E2,6E0,7E0,3.02E2,2.3E2,3E0,3E0,3.7E1,2.65E2,1.62E2,6.8E1,5E0,3.2E1,8E0,2.57E2,1.45E2,1.7E1,3.2E1,3.6E1],"tree_param":{"num_deleted":"0","num_feature":"12","num_nodes":"21","size_leaf_vector":"1"}},{"base_weights":[2.0661943E-4,-4.5552336E-2,1.4263579E-3,-0E0,-1.5281171E-3,8.3700055E-3,-6.1557633E-3,4.6813022E-2,1.6145603E-4,3.8811028E-2,-7.844241E-3,-0E0,1.9471103E-3,2.4327308E-4,-3.5001783E-4,-0E0,1.3623192E-3,-7.2970457E-4,-1.0662872E-4],"categories":[],"categories_nodes":[],"categories_segments":[],"categories_sizes":[],"default_left":[0,0,0,0,0,0,0,0,0,0,0,0,0,0,0,0,0,0,0],"id":12,"left_children":[1,3,5,-1,-1,7,9,11,13,15,17,-1,-1,-1,-1,-1,-1,-1,-1],"loss_changes":[2.5959354E-2,3.640445E-3,2.8281461E-2,0E0,0E0,8.523E-2,1.6037276E-2,4.2247012E-2,2.2113286E-2,1.8286873E-3,1.4233996E-2,0E0,0E0,0E0,0E0,0E0,0E0,0E0,0E0],"parents":[2147483647,0,0,1,1,2,2,5,5,6,6,7,7,8,8,9,9,10,10],"right_children":[2,4,6,-1,-1,8,10,12,14,16,18,-1,-1,-1,-1,-1,-1,-1,-1],"split_conditions":[4.9025264E0,4.252686E0,8.237737E0,-0E0,-1.5281171E-3,-1.3001843E-1,-5.147009E-1,-2.4977665E-1,-4.6934858E-2,7.18E0,8E0,-0E0,1.9471103E-3,2.4327308E-4,-3.5001783E-4,-0E0,1.3623192E-3,-7.2970457E-4,-1.0662872E-4],"split_indices":[5,5,5,0,0,4,4,4,4,8,10,0,0,0,0,0,0,0,0],"split_type":[0,0,0,0,0,0,0,0,0,0,0,0,0,0,0,0,0,0,0],"sum_hessian":[5.42E2,1.1E1,5.31E2,1E0,1E1,2.84E2,2.47E2,4.7E1,2.37E2,6E0,2.41E2,1.3E1,3.4E1,1.47E2,9E1,1E0,5E0,4.4E1,1.97E2],"tree_param":{"num_deleted":"0","num_feature":"12","num_nodes":"19","size_leaf_vector":"1"}},{"base_weights":[-0E0,6.436684E-3,-6.6097435E-3,1.3092574E-2,-1.2516745E-2,-2.243274E-3,-4.8199836E-3,2.6657598E-2,4.260782E-3,-5.1633548E-2,6.731906E-5,1.551105E-2,-7.59237E-3,-0E0,9.2396326E-4,3.462442E-4,-0E0,-0E0,-1.6478524E-3,3.460408E-4,-5.9761514E-5,-0E0,6.2716374E-4,-2.6390867E-4,6.3523627E-4],"categories":[],"categories_nodes":[],"categories_segments":[],"categories_sizes":[],"default_left":[0,0,0,0,0,0,0,0,0,0,0,0,0,0,0,0,0,0,0,0,0,0,0,0,0],"id":13,"left_children":[1,3,5,7,9,-1,11,13,15,17,19,21,23,-1,-1,-1,-1,-1,-1,-1,-1,-1,-1,-1,-1],"loss_changes":[2.2158984E-2,3.390403E-2,2.2668228E-2,2.099488E-2,3.764849E-2,0E0,1.3417264E-2,1.0256764E-2,3.936918E-3,3.3028014E-3,2.1344046E-3,2.9223934E-3,6.7452686E-3,0E0,0E0,0E0,0E0,0E0,0E0,0E0,0E0,0E0,0E0,0E0,0E0],"parents":[2147483647,0,0,1,1,2,2,3,3,4,4,6,6,7,7,8,8,9,9,10,10,11,11,12,12],"right_children":[2,4,6,8,10,-1,12,14,16,18,20,22,24,-1,-1,-1,-1,-1,-1,-1,-1,-1,-1,-1,-1],"split_conditions":[-7.812545E-2,9.677796E0,4.9145265E0,-1.3001843E-1,1.0807768E1,-2.243274E-3,3.0208328E1,4.947536E0,5.9252925E0,7.5949354E0,3.529409E1,2.2916666E1,8.423423E1,-0E0,9.2396326E-4,3.462442E-4,-0E0,-0E0,-1.6478524E-3,3.460408E-4,-5.9761514E-5,-0E0,6.2716374E-4,-2.6390867E-4,6.3523627E-4],"split_indices":[4,5,5,4,5,0,2,5,6,2,2,2,2,0,0,0,0,0,0,0,0,0,0,0,0],"split_type":[0,0,0,0,0,0,0,0,0,0,0,0,0,0,0,0,0,0,0,0,0,0,0,0,0],"sum_hessian":[5.19E2,2.66E2,2.53E2,2.01E2,6.5E1,4E0,2.49E2,7.4E1,1.27E2,1.7E1,4.8E1,2.5E1,2.24E2,8E0,6.6E1,4.6E1,8.1E1,1E0,1.6E1,1.4E1,3.4E1,5E0,2E1,2.19E2,5E0],"tree_param":{"num_deleted":"0","num_feature":"12","num_nodes":"25","size_leaf_vector":"1"}},{"base_weights":[3.788073E-4,6.6068037E-3,-6.06405E-3,1.2543904E-2,-8.930157E-3,-2.1682645E-3,-4.3631895E-3,2.3562644E-2,4.3475223E-3,-3.9935574E-2,2.0152E-3,1.3731737E-2,-7.1635605E-3,2.5446818E-4,1.4682779E-3,2.740858E-4,-6.6405155E-5,-0E0,-1.4256596E-3,-3.7606987E-5,2.6000047E-4,5.6775776E-4,-0E0,6.614651E-5,-2.7819347E-4],"categories":[],"categories_nodes":[],"categories_segments":[],"categories_sizes":[],"default_left":[0,0,0,0,0,0,0,0,0,0,0,0,0,0,0,0,0,0,0,0,0,0,0,0,0],"id":14,"left_children":[1,3,5,7,9,-1,11,13,15,17,19,21,23,-1,-1,-1,-1,-1,-1,-1,-1,-1,-1,-1,-1],"loss_changes":[2.2003185E-2,2.685532E-2,2.1413669E-2,1.6253073E-2,2.9324917E-2,0E0,1.2464384E-2,2.637519E-2,4.7340738E-3,5.563412E-3,1.9262512E-3,2.2228225E-3,5.2332925E-3,0E0,0E0,0E0,0E0,0E0,0E0,0E0,0E0,0E0,0E0,0E0,0E0],"parents":[2147483647,0,0,1,1,2,2,3,3,4,4,6,6,7,7,8,8,9,9,10,10,11,11,12,12],"right_children":[2,4,6,8,10,-1,12,14,16,18,20,22,24,-1,-1,-1,-1,-1,-1,-1,-1,-1,-1,-1,-1],"split_conditions":[-7.911516E-2,8.28E0,4.9145265E0,-1.3001843E-1,1.0807768E1,-2.1682645E-3,3.366336E1,3E0,4.382022E1,8.633455E0,1.1298722E1,1.5044501E-1,-6.3066415E-2,2.5446818E-4,1.4682779E-3,2.740858E-4,-6.6405155E-5,-0E0,-1.4256596E-3,-3.7606987E-5,2.6000047E-4,5.6775776E-4,-0E0,6.614651E-5,-2.7819347E-4],"split_indices":[4,11,5,4,5,0,2,1,2,5,5,4,4,0,0,0,0,0,0,0,0,0,0,0,0],"split_type":[0,0,0,0,0,0,0,0,0,0,0,0,0,0,0,0,0,0,0,0,0,0,0,0,0],"sum_hessian":[5.45E2,2.85E2,2.6E2,2.11E2,7.4E1,4E0,2.56E2,8.4E1,1.27E2,2.1E1,5.3E1,2.9E1,2.27E2,5.6E1,2.8E1,8.2E1,4.5E1,4E0,1.7E1,2.6E1,2.7E1,2.1E1,8E0,3.3E1,1.94E2],"tree_param":{"num_deleted":"0","num_feature":"12","num_nodes":"25","size_leaf_vector":"1"}},{"base_weights":[7.038758E-4,6.2988778E-3,-6.307874E-3,1.336571E-2,-2.3891446E-3,-2.6480865E-2,-2.837154E-3,-2.4128542E-3,2.0875124E-2,-1.1105917E-2,3.0934704E-3,-3.3401836E-2,-0E0,-0E0,-1.5229222E-2,1.5839607E-3,-3.349508E-4,1.0855601E-3,2.763646E-4,-7.445826E-4,-0E0,4.722348E-4,-0E0,-1.8596677E-4,-2.4122617E-3,-2.7294114E-4,1.7404786E-4,-6.138316E-4,-0E0],"categories":[],"categories_nodes":[],"categories_segments":[],"categories_sizes":[],"default_left":[0,0,0,0,0,0,0,0,0,0,0,0,0,0,0,0,0,0,0,0,0,0,0,0,0,0,0,0,0],"id":15,"left_children":[1,3,5,7,9,11,13,15,17,19,21,23,-1,25,27,-1,-1,-1,-1,-1,-1,-1,-1,-1,-1,-1,-1,-1,-1],"loss_changes":[2.1380363E-2,2.022399E-2,1.337653E-2,2.2987418E-2,7.2395555E-3,4.623616E-3,7.1631745E-3,2.2520065E-2,1.744723E-2,1.1202969E-2,1.9983388E-3,2.0251486E-2,0E0,8.929931E-3,3.7463307E-3,0E0,0E0,0E0,0E0,0E0,0E0,0E0,0E0,0E0,0E0,0E0,0E0,0E0,0E0],"parents":[2147483647,0,0,1,1,2,2,3,3,4,4,5,5,6,6,7,7,8,8,9,9,10,10,11,11,13,13,14,14],"right_children":[2,4,6,8,10,12,14,16,18,20,22,24,-1,26,28,-1,-1,-1,-1,-1,-1,-1,-1,-1,-1,-1,-1,-1,-1],"split_conditions":[-6.634214E-2,6.8428226E0,-5.2264627E-2,5.560298E0,-1.3592017E-1,8.554757E0,8.8E0,-2.5661337E-1,6.717052E0,1.0785963E1,-1.291659E-1,8.13399E0,-0E0,6.905471E0,1.2479921E1,1.5839607E-3,-3.349508E-4,1.0855601E-3,2.763646E-4,-7.445826E-4,-0E0,4.722348E-4,-0E0,-1.8596677E-4,-2.4122617E-3,-2.7294114E-4,1.7404786E-4,-6.138316E-4,-0E0],"split_indices":[3,6,3,5,3,5,7,3,5,5,3,5,0,5,5,0,0,0,0,0,0,0,0,0,0,0,0,0,0],"split_type":[0,0,0,0,0,0,0,0,0,0,0,0,0,0,0,0,0,0,0,0,0,0,0,0,0,0,0,0,0],"sum_hessian":[5.43E2,3.1E2,2.33E2,1.77E2,1.33E2,2.9E1,2.04E2,5.3E1,1.24E2,5.8E1,7.5E1,2.2E1,7E0,1.67E2,3.7E1,5E0,4.8E1,4.9E1,7.5E1,2.9E1,2.9E1,1E1,6.5E1,1.6E1,6E0,6.5E1,1.02E2,2.9E1,8E0],"tree_param":{"num_deleted":"0","num_feature":"12","num_nodes":"29","size_leaf_vector":"1"}},{"base_weights":[1.0203496E-3,4.3151253E-3,-9.371818E-3,1.9530231E-2,2.4617036E-4,-2.725179E-2,-0E0,5.000392E-3,6.6785985E-3,-1.2605804E-3,1.8337123E-2,-5.632208E-2,-9.832288E-3,6.624395E-3,-2.2093276E-3,1.2314502E-3,7.1770126E-5,-0E0,-1.7277525E-3,7.7541627E-4,-0E0,-0E0,-1.846841E-3,-4.893907E-4,-0E0,-0E0,3.0517593E-4,-3.1852894E-4,-0E0],"categories":[],"categories_nodes":[],"categories_segments":[],"categories_sizes":[],"default_left":[0,0,0,0,0,0,0,0,0,0,0,0,0,0,0,0,0,0,0,0,0,0,0,0,0,0,0,0,0],"id":16,"left_children":[1,3,5,7,9,11,13,-1,15,17,19,21,23,25,27,-1,-1,-1,-1,-1,-1,-1,-1,-1,-1,-1,-1,-1,-1],"loss_changes":[1.8024297E-2,2.3895757E-2,1.9645855E-2,1.3851322E-1,1.0889645E-2,1.3592772E-2,1.07304E-3,0E0,7.0485105E-3,1.9414607E-2,4.2739687E-3,4.2393357E-3,3.0509816E-3,4.9576035E-4,1.5894442E-3,0E0,0E0,0E0,0E0,0E0,0E0,0E0,0E0,0E0,0E0,0E0,0E0,0E0,0E0],"parents":[2147483647,0,0,1,1,2,2,3,3,4,4,5,5,6,6,8,8,9,9,10,10,11,11,12,12,13,13,14,14],"right_children":[2,4,6,8,10,12,14,-1,16,18,20,22,24,26,28,-1,-1,-1,-1,-1,-1,-1,-1,-1,-1,-1,-1,-1,-1],"split_conditions":[8.5E0,-1.3001843E-1,1.0779609E1,1.8263166E0,8.662829E0,-1.3081703E-1,-1.8124685E-1,5.000392E-3,-5.770031E-1,6.0626417E-2,8.027059E0,-4.255569E-1,5.817646E-1,1.0941939E1,-1.3159263E-1,1.2314502E-3,7.1770126E-5,-0E0,-1.7277525E-3,7.7541627E-4,-0E0,-0E0,-1.846841E-3,-4.893907E-4,-0E0,-0E0,3.0517593E-4,-3.1852894E-4,-0E0],"split_indices":[7,4,5,0,5,3,3,0,3,3,6,3,3,5,4,0,0,0,0,0,0,0,0,0,0,0,0,0,0],"split_type":[0,0,0,0,0,0,0,0,0,0,0,0,0,0,0,0,0,0,0,0,0,0,0,0,0,0,0,0,0],"sum_hessian":[5.39E2,4.17E2,1.22E2,8.2E1,3.35E2,4E1,8.2E1,5E0,7.7E1,3.05E2,3E1,1.2E1,2.8E1,1.6E1,6.6E1,5E0,7.2E1,3E2,5E0,2.1E1,9E0,1E0,1.1E1,2.1E1,7E0,5E0,1.1E1,1.6E1,5E1],"tree_param":{"num_deleted":"0","num_feature":"12","num_nodes":"29","size_leaf_vector":"1"}},{"base_weights":[-7.295294E-5,5.248597E-3,-6.741315E-3,3.4592887E-3,3.3135177E-3,-2.1617291E-2,-3.8633316E-3,5.460591E-3,-2.3053996E-3,-3.6490657E-3,-5.617295E-2,4.0478855E-3,-1.08195385E-2,4.3531004E-4,-2.4669253E-5,4.5223883E-6,-9.902068E-4,-2.13464E-3,-0E0,-2.2359158E-5,5.034767E-4,-9.973224E-4,-0E0],"categories":[],"categories_nodes":[],"categories_segments":[],"categories_sizes":[],"default_left":[0,0,0,0,0,0,0,0,0,0,0,0,0,0,0,0,0,0,0,0,0,0,0],"id":17,"left_children":[1,3,5,7,-1,9,11,13,-1,15,17,19,21,-1,-1,-1,-1,-1,-1,-1,-1,-1,-1],"loss_changes":[1.9630995E-2,4.4133846E-2,8.157254E-3,4.053167E-2,0E0,1.5544454E-2,1.2717951E-2,1.7812878E-2,0E0,6.1910013E-3,8.949891E-3,7.4760458E-3,2.8702905E-2,0E0,0E0,0E0,0E0,0E0,0E0,0E0,0E0,0E0,0E0],"parents":[2147483647,0,0,1,1,2,2,3,3,5,5,6,6,7,7,9,9,10,10,11,11,12,12],"right_children":[2,4,6,8,-1,10,12,14,-1,16,18,20,22,-1,-1,-1,-1,-1,-1,-1,-1,-1,-1],"split_conditions":[8.237737E0,6.8888885E1,8.360727E0,6.0626417E-2,3.3135177E-3,4.5804853E0,8.72E0,-8.9272186E-2,-2.3053996E-3,7.7830687E0,6.5470004E0,8.872132E0,1.0807768E1,4.3531004E-4,-2.4669253E-5,4.5223883E-6,-9.902068E-4,-2.13464E-3,-0E0,-2.2359158E-5,5.034767E-4,-9.973224E-4,-0E0],"split_indices":[5,2,5,3,0,0,11,3,0,6,0,5,5,0,0,0,0,0,0,0,0,0,0],"split_type":[0,0,0,0,0,0,0,0,0,0,0,0,0,0,0,0,0,0,0,0,0,0,0],"sum_hessian":[5.47E2,2.96E2,2.51E2,2.93E2,3E0,3.4E1,2.17E2,2.88E2,5E0,2.5E1,9E0,9.5E1,1.22E2,1.24E2,1.64E2,2E1,5E0,7E0,2E0,6.4E1,3.1E1,3.8E1,8.4E1],"tree_param":{"num_deleted":"0","num_feature":"12","num_nodes":"23","size_leaf_vector":"1"}},{"base_weights":[-6.974683E-4,-4.1479405E-2,2.0779962E-4,-0E0,-1.9956122E-3,6.0902582E-3,-7.055101E-3,3.4300163E-2,-2.1830412E-4,-4.2788E-3,-2.7025115E-2,4.518088E-3,4.7111107E-4,1.1726669E-4,-3.5177704E-4,-5.649606E-4,-0E0,-1.5004288E-3,-4.593144E-5],"categories":[],"categories_nodes":[],"categories_segments":[],"categories_sizes":[],"default_left":[0,0,0,0,0,0,0,0,0,0,0,0,0,0,0,0,0,0,0],"id":18,"left_children":[1,3,5,-1,-1,7,9,11,13,15,17,-1,-1,-1,-1,-1,-1,-1,-1],"loss_changes":[2.3850303E-2,1.5737107E-2,2.2205535E-2,0E0,0E0,5.6093004E-2,9.284041E-3,1.04285076E-1,1.2226118E-2,1.3997394E-2,8.24891E-3,0E0,0E0,0E0,0E0,0E0,0E0,0E0,0E0],"parents":[2147483647,0,0,1,1,2,2,5,5,6,6,7,7,8,8,9,9,10,10],"right_children":[2,4,6,-1,-1,8,10,12,14,16,18,-1,-1,-1,-1,-1,-1,-1,-1],"split_conditions":[4.9145265E0,3.706314E0,6.9712634E0,-0E0,-1.9956122E-3,-1.3001843E-1,1.1580251E1,1.8263166E0,-3.675083E-2,8.05E0,-3.65711E-1,4.518088E-3,4.7111107E-4,1.1726669E-4,-3.5177704E-4,-5.649606E-4,-0E0,-1.5004288E-3,-4.593144E-5],"split_indices":[5,6,6,0,0,4,0,0,4,10,3,0,0,0,0,0,0,0,0],"split_type":[0,0,0,0,0,0,0,0,0,0,0,0,0,0,0,0,0,0,0],"sum_hessian":[5.33E2,1.3E1,5.2E2,5E0,8E0,2.95E2,2.25E2,5.6E1,2.39E2,2.03E2,2.2E1,6E0,5E1,1.7E2,6.9E1,4.9E1,1.54E2,9E0,1.3E1],"tree_param":{"num_deleted":"0","num_feature":"12","num_nodes":"19","size_leaf_vector":"1"}},{"base_weights":[3.404165E-4,-4.259241E-4,3.0996248E-2,-3.7997887E-2,1.2526462E-4,3.0808565E-3,-0E0,-0E0,-1.7355978E-3,2.9074878E-3,-1.0461598E-2,-0E0,-1.4547972E-4,3.0250714E-5,5.313553E-4,-1.1159887E-3,-8.912421E-6,9.3067596E-5,-0E0],"categories":[],"categories_nodes":[],"categories_segments":[],"categories_sizes":[],"default_left":[0,0,0,0,0,0,0,0,0,0,0,0,0,0,0,0,0,0,0],"id":19,"left_children":[1,3,5,7,9,-1,11,-1,-1,13,15,17,-1,-1,-1,-1,-1,-1,-1],"loss_changes":[1.5403959E-2,1.4353735E-2,3.735926E-2,1.23376055E-2,1.4031968E-2,0E0,7.054783E-5,0E0,0E0,9.49686E-3,2.260185E-2,7.6991804E-5,0E0,0E0,0E0,0E0,0E0,0E0,0E0],"parents":[2147483647,0,0,1,1,2,2,3,3,4,4,6,6,9,9,10,10,11,11],"right_children":[2,4,6,8,10,-1,12,-1,-1,14,16,18,-1,-1,-1,-1,-1,-1,-1],"split_conditions":[7.448275E1,4.9145265E0,4.598619E0,4.252686E0,8.87E0,3.0808565E-3,8.333333E1,-0E0,-1.7355978E-3,8.872132E0,1.0835528E1,2.1198414E1,-1.4547972E-4,3.0250714E-5,5.313553E-4,-1.1159887E-3,-8.912421E-6,9.3067596E-5,-0E0],"split_indices":[2,5,0,5,9,0,2,0,0,5,5,0,0,0,0,0,0,0,0],"split_type":[0,0,0,0,0,0,0,0,0,0,0,0,0,0,0,0,0,0,0],"sum_hessian":[5.24E2,5.09E2,1.5E1,9E0,5E2,4E0,1.1E1,2E0,7E0,4.04E2,9.6E1,9E0,2E0,3.65E2,3.9E1,2.3E1,7.3E1,7E0,2E0],"tree_param":{"num_deleted":"0","num_feature":"12","num_nodes":"19","size_leaf_vector":"1"}},{"base_weights":[-5.340598E-4,4.391193E-3,-7.45091E-3,8.999902E-3,-6.945933E-3,-1.0606233E-2,2.645376E-2,-0E0,1.5493097E-2,-2.9862091E-2,3.2132955E-3,-4.909946E-2,-6.918426E-3,3.006916E-3,-0E0,3.2404394E-4,-4.4079752E-5,1.3124268E-3,2.171883E-4,-0E0,-1.1627786E-3,2.384051E-4,-0E0,-2.3634287E-3,-0E0,-6.0515373E-4,-9.6255964E-5,-0E0,-2.298438E-4],"categories":[],"categories_nodes":[],"categories_segments":[],"categories_sizes":[],"default_left":[0,0,0,0,0,0,0,0,0,0,0,0,0,0,0,0,0,0,0,0,0,0,0,0,0,0,0,0,0],"id":20,"left_children":[1,3,5,7,9,11,13,15,17,19,21,23,25,-1,27,-1,-1,-1,-1,-1,-1,-1,-1,-1,-1,-1,-1,-1,-1],"loss_changes":[1.8292122E-2,1.5942765E-2,2.3087304E-2,1.2905E-2,2.1618485E-2,2.4153102E-2,3.8334176E-2,1.4625783E-3,2.4433883E-2,5.0768014E-3,1.5264587E-3,1.7285846E-2,7.2834557E-3,0E0,3.5218787E-4,0E0,0E0,0E0,0E0,0E0,0E0,0E0,0E0,0E0,0E0,0E0,0E0,0E0,0E0],"parents":[2147483647,0,0,1,1,2,2,3,3,4,4,5,5,6,6,7,7,8,8,9,9,10,10,11,11,12,12,14,14],"right_children":[2,4,6,8,10,12,14,16,18,20,22,24,26,-1,28,-1,-1,-1,-1,-1,-1,-1,-1,-1,-1,-1,-1,-1,-1],"split_conditions":[-6.552787E-2,8.5E0,7.411167E1,3E0,1.0151964E1,2E0,1.3590992E-2,-3.619387E-1,-1.6071807E-1,-4.133969E-1,1.097E1,5.678637E0,-6.083606E-2,3.006916E-3,8.333333E1,3.2404394E-4,-4.4079752E-5,1.3124268E-3,2.171883E-4,-0E0,-1.1627786E-3,2.384051E-4,-0E0,-2.3634287E-3,-0E0,-6.0515373E-4,-9.6255964E-5,-0E0,-2.298438E-4],"split_indices":[3,11,2,1,6,1,4,4,4,3,8,6,4,0,2,0,0,0,0,0,0,0,0,0,0,0,0,0,0],"split_type":[0,0,0,0,0,0,0,0,0,0,0,0,0,0,0,0,0,0,0,0,0,0,0,0,0,0,0,0,0],"sum_hessian":[5.26E2,2.99E2,2.27E2,2.19E2,8E1,2.11E2,1.6E1,9.2E1,1.27E2,2.7E1,5.3E1,1.5E1,1.96E2,4E0,1.2E1,1E1,8.2E1,2.5E1,1.02E2,8E0,1.9E1,3.2E1,2.1E1,8E0,7E0,3.6E1,1.6E2,7E0,5E0],"tree_param":{"num_deleted":"0","num_feature":"12","num_nodes":"29","size_leaf_vector":"1"}},{"base_weights":[-1.1980986E-4,-5.0456792E-2,9.803898E-4,-0E0,-1.6730935E-3,5.8055543E-3,-8.896889E-3,-0E0,9.50567E-3,-6.2336557E-2,-3.8281532E-3,1.2191228E-3,-5.7762623E-5,1.1416344E-3,1.041368E-4,-2.3398036E-3,-0E0,3.6732672E-4,-3.725612E-4],"categories":[],"categories_nodes":[],"categories_segments":[],"categories_sizes":[],"default_left":[0,0,0,0,0,0,0,0,0,0,0,0,0,0,0,0,0,0,0],"id":21,"left_children":[1,3,5,-1,-1,7,9,11,13,15,17,-1,-1,-1,-1,-1,-1,-1,-1],"loss_changes":[3.3573564E-2,4.226681E-3,2.3762902E-2,0E0,0E0,7.494102E-3,3.6213472E-2,1.0390344E-2,3.2237876E-2,8.116655E-3,2.0603959E-2,0E0,0E0,0E0,0E0,0E0,0E0,0E0,0E0],"parents":[2147483647,0,0,1,1,2,2,5,5,6,6,7,7,8,8,9,9,10,10],"right_children":[2,4,6,-1,-1,8,10,12,14,16,18,-1,-1,-1,-1,-1,-1,-1,-1],"split_conditions":[4.9145265E0,4.252686E0,7.7623677E0,-0E0,-1.6730935E-3,5.697674E0,8.05E0,3.89E0,6.44E0,8.360727E0,8.72E0,1.2191228E-3,-5.7762623E-5,1.1416344E-3,1.041368E-4,-2.3398036E-3,-0E0,3.6732672E-4,-3.725612E-4],"split_indices":[5,5,6,0,0,6,11,7,10,5,10,0,0,0,0,0,0,0,0],"split_type":[0,0,0,0,0,0,0,0,0,0,0,0,0,0,0,0,0,0,0],"sum_hessian":[5.15E2,1.2E1,5.03E2,1E0,1.1E1,3.45E2,1.58E2,1.34E2,2.11E2,1.1E1,1.47E2,5E0,1.29E2,3.3E1,1.78E2,8E0,3E0,4.7E1,1E2],"tree_param":{"num_deleted":"0","num_feature":"12","num_nodes":"19","size_leaf_vector":"1"}},{"base_weights":[-0E0,-3.8966555E-2,9.7256113E-4,-0E0,-1.7526989E-3,7.5664623E-3,-6.787876E-3,-0E0,-1.8168759E-3,2.0988138E-2,1.3291532E-3,7.7732926E-4,-7.792394E-3,-0E0,-1.2325437E-4,2.412586E-3,3.435233E-4,1.633533E-4,-2.7771073E-4,-8.555627E-5,-5.3959433E-4],"categories":[],"categories_nodes":[],"categories_segments":[],"categories_sizes":[],"default_left":[0,0,0,0,0,0,0,0,0,0,0,0,0,0,0,0,0,0,0,0,0],"id":22,"left_children":[1,3,5,7,-1,9,11,-1,13,15,17,-1,19,-1,-1,-1,-1,-1,-1,-1,-1],"loss_changes":[2.0217715E-2,4.153868E-3,2.6022028E-2,1.9806228E-5,0E0,2.1264331E-2,5.813379E-3,0E0,6.459178E-5,3.750487E-2,8.296519E-3,0E0,9.096053E-3,0E0,0E0,0E0,0E0,0E0,0E0,0E0,0E0],"parents":[2147483647,0,0,1,1,2,2,3,3,5,5,6,6,8,8,9,9,10,10,12,12],"right_children":[2,4,6,8,-1,10,12,-1,14,16,18,-1,20,-1,-1,-1,-1,-1,-1,-1,-1],"split_conditions":[4.9145265E0,4.7555375E0,6.8428226E0,5.8055887E0,-1.7526989E-3,-1.0794953E-1,-5.770031E-1,-0E0,4.5344128E1,2.1048856E0,-1.0066924E-2,7.7732926E-4,5.62273E0,-0E0,-1.2325437E-4,2.412586E-3,3.435233E-4,1.633533E-4,-2.7771073E-4,-8.555627E-5,-5.3959433E-4],"split_indices":[5,5,6,0,0,3,3,0,2,0,3,0,0,0,0,0,0,0,0,0,0],"split_type":[0,0,0,0,0,0,0,0,0,0,0,0,0,0,0,0,0,0,0,0,0],"sum_hessian":[5.17E2,1.2E1,5.05E2,6E0,6E0,2.8E2,2.25E2,1E0,5E0,8.3E1,1.97E2,3E0,2.22E2,1E0,4E0,9E0,7.4E1,1.49E2,4.8E1,1.57E2,6.5E1],"tree_param":{"num_deleted":"0","num_feature":"12","num_nodes":"21","size_leaf_vector":"1"}},{"base_weights":[1.694547E-3,4.3663945E-2,9.5116295E-4,1.6942208E-3,-0E0,-3.1588733E-2,2.2808076E-3,-0E0,-1.2273665E-3,4.938923E-3,-6.2353606E-3,1.10790825E-4,1.1036828E-3,-5.836791E-4,-0E0],"categories":[],"categories_nodes":[],"categories_segments":[],"categories_sizes":[],"default_left":[0,0,0,0,0,0,0,0,0,0,0,0,0,0,0],"id":23,"left_children":[1,3,5,-1,-1,7,9,-1,-1,11,13,-1,-1,-1,-1],"loss_changes":[1.2282225E-2,5.790118E-3,2.0159032E-2,0E0,0E0,5.4720677E-3,1.1559185E-2,0E0,0E0,1.1768212E-2,1.0330571E-2,0E0,0E0,0E0,0E0],"parents":[2147483647,0,0,1,1,2,2,5,5,6,6,9,9,10,10],"right_children":[2,4,6,-1,-1,8,10,-1,-1,12,14,-1,-1,-1,-1],"split_conditions":[3.9E0,7.705426E0,4.8E0,1.6942208E-3,-0E0,4.01E0,8.5E0,-0E0,-1.2273665E-3,7.448275E1,1.0807768E1,1.10790825E-4,1.1036828E-3,-5.836791E-4,-0E0],"split_indices":[7,0,10,0,0,8,11,0,0,2,5,0,0,0,0],"split_type":[0,0,0,0,0,0,0,0,0,0,0,0,0,0,0],"sum_hessian":[5.37E2,6E0,5.31E2,5E0,1E0,1.7E1,5.14E2,4E0,1.3E1,4.01E2,1.13E2,3.9E2,1.1E1,3.8E1,7.5E1],"tree_param":{"num_deleted":"0","num_feature":"12","num_nodes":"15","size_leaf_vector":"1"}},{"base_weights":[-1.2116287E-3,-3.8443085E-2,-0E0,-0E0,-1.5182018E-3,2.9012926E-3,-1.0394681E-2,1.7390352E-2,1.3923342E-4,-2.882203E-2,-6.4101885E-4,9.9751436E-5,1.4066804E-3,-2.7770971E-5,5.928142E-4,-0E0,-1.1891335E-3,1.2090226E-4,-1.9893161E-4],"categories":[],"categories_nodes":[],"categories_segments":[],"categories_sizes":[],"default_left":[0,0,0,0,0,0,0,0,0,0,0,0,0,0,0,0,0,0,0],"id":24,"left_children":[1,3,5,-1,-1,7,9,11,13,15,17,-1,-1,-1,-1,-1,-1,-1,-1],"loss_changes":[2.1365043E-2,1.1125468E-2,1.6749669E-2,0E0,0E0,1.4692692E-2,1.914252E-2,1.9717393E-2,9.256913E-3,1.3165794E-2,2.6651232E-3,0E0,0E0,0E0,0E0,0E0,0E0,0E0,0E0],"parents":[2147483647,0,0,1,1,2,2,5,5,6,6,7,7,8,8,9,9,10,10],"right_children":[2,4,6,-1,-1,8,10,12,14,16,18,-1,-1,-1,-1,-1,-1,-1,-1],"split_conditions":[4.9145265E0,4.252686E0,8.5E0,-0E0,-1.5182018E-3,-1.8115234E-1,1.0807768E1,-2.3307641E-1,8.864941E0,8.72E0,-1.2300696E-1,9.9751436E-5,1.4066804E-3,-2.7770971E-5,5.928142E-4,-0E0,-1.1891335E-3,1.2090226E-4,-1.9893161E-4],"split_indices":[5,5,7,0,0,4,5,4,5,11,3,0,0,0,0,0,0,0,0],"split_type":[0,0,0,0,0,0,0,0,0,0,0,0,0,0,0,0,0,0,0],"sum_hessian":[5.46E2,1.4E1,5.32E2,2E0,1.2E1,4.1E2,1.22E2,5.9E1,3.51E2,3.8E1,8.4E1,4.3E1,1.6E1,3.29E2,2.2E1,1E1,2.8E1,3.8E1,4.6E1],"tree_param":{"num_deleted":"0","num_feature":"12","num_nodes":"19","size_leaf_vector":"1"}},{"base_weights":[-5.1128314E-5,-1.4761593E-3,9.855168E-4,4.1032303E-3,-9.046029E-3,1.2292554E-2,-0E0,-2.5329543E-2,-0E0,2.6684033E-3,1.675167E-4,-1.04719096E-4,3.467554E-4,-9.4126747E-4,-0E0,2.5266482E-4,-1.7733597E-4],"categories":[],"categories_nodes":[],"categories_segments":[],"categories_sizes":[],"default_left":[0,0,0,0,0,0,0,0,0,0,0,0,0,0,0,0,0],"id":25,"left_children":[1,-1,3,5,7,9,11,13,15,-1,-1,-1,-1,-1,-1,-1,-1],"loss_changes":[3.1978767E-2,0E0,1.580609E-2,1.4336182E-2,1.681266E-2,6.2044896E-2,1.0295326E-2,8.1499405E-3,3.806261E-3,0E0,0E0,0E0,0E0,0E0,0E0,0E0,0E0],"parents":[2147483647,0,0,2,2,3,3,4,4,5,5,6,6,7,7,8,8],"right_children":[2,-1,4,6,8,10,12,14,16,-1,-1,-1,-1,-1,-1,-1,-1],"split_conditions":[4.9145265E0,-1.4761593E-3,8.72E0,-9.55316E-2,1.0888066E1,1.9480293E0,8.09E0,5.817646E-1,-1.2300696E-1,2.6684033E-3,1.675167E-4,-1.04719096E-4,3.467554E-4,-9.4126747E-4,-0E0,2.5266482E-4,-1.7733597E-4],"split_indices":[5,0,9,4,5,0,10,3,3,0,0,0,0,0,0,0,0],"split_type":[0,0,0,0,0,0,0,0,0,0,0,0,0,0,0,0,0],"sum_hessian":[5.31E2,1.2E1,5.19E2,4.04E2,1.15E2,1.39E2,2.65E2,4E1,7.5E1,9E0,1.3E2,2.08E2,5.7E1,3.4E1,6E0,3E1,4.5E1],"tree_param":{"num_deleted":"0","num_feature":"12","num_nodes":"17","size_leaf_vector":"1"}},{"base_weights":[-0E0,-3.3812124E-2,7.1932405E-4,-0E0,-1.8138442E-3,5.9904703E-3,-5.773914E-3,3.0950066E-2,-4.6191024E-4,-3.629672E-2,-3.4144286E-3,4.1797813E-3,4.6837342E-4,1.3175528E-4,-3.6237124E-4,-0E0,-1.2405876E-3,-5.965142E-4,3.053361E-5],"categories":[],"categories_nodes":[],"categories_segments":[],"categories_sizes":[],"default_left":[0,0,0,0,0,0,0,0,0,0,0,0,0,0,0,0,0,0,0],"id":26,"left_children":[1,3,5,-1,-1,7,9,11,13,15,17,-1,-1,-1,-1,-1,-1,-1,-1],"loss_changes":[1.62747E-2,1.3239086E-2,1.7854182E-2,0E0,0E0,5.073356E-2,1.210903E-2,8.871362E-2,1.3959867E-2,3.3938903E-3,1.7454954E-2,0E0,0E0,0E0,0E0,0E0,0E0,0E0,0E0],"parents":[2147483647,0,0,1,1,2,2,5,5,6,6,7,7,8,8,9,9,10,10],"right_children":[2,4,6,-1,-1,8,10,12,14,16,18,-1,-1,-1,-1,-1,-1,-1,-1],"split_conditions":[4.9145265E0,3.706314E0,6.9712634E0,-0E0,-1.8138442E-3,-1.3001843E-1,-3.8003573E-1,1.8263166E0,-3.675083E-2,-4.892992E-1,8.05E0,4.1797813E-3,4.6837342E-4,1.3175528E-4,-3.6237124E-4,-0E0,-1.2405876E-3,-5.965142E-4,3.053361E-5],"split_indices":[5,6,6,0,0,4,4,0,4,4,10,0,0,0,0,0,0,0,0],"split_type":[0,0,0,0,0,0,0,0,0,0,0,0,0,0,0,0,0,0,0],"sum_hessian":[5.32E2,1.3E1,5.19E2,6E0,7E0,2.95E2,2.24E2,6.3E1,2.32E2,1.2E1,2.12E2,6E0,5.7E1,1.58E2,7.4E1,1E0,1.1E1,4.9E1,1.63E2],"tree_param":{"num_deleted":"0","num_feature":"12","num_nodes":"19","size_leaf_vector":"1"}},{"base_weights":[-2.634584E-5,-3.2147057E-2,7.666767E-4,-1.7134842E-3,-1.4539965E-3,6.103499E-3,-5.207109E-3,-0E0,-1.11276524E-4,1.6977884E-2,-0E0,-7.075252E-4,-1.4768299E-2,2.514415E-3,2.6714505E-4,-7.1257935E-5,1.0166273E-3,-5.164168E-4,1.4095503E-5,-7.7042764E-4,-0E0],"categories":[],"categories_nodes":[],"categories_segments":[],"categories_sizes":[],"default_left":[0,0,0,0,0,0,0,0,0,0,0,0,0,0,0,0,0,0,0,0,0],"id":27,"left_children":[1,3,5,-1,7,9,11,-1,-1,13,15,17,19,-1,-1,-1,-1,-1,-1,-1,-1],"loss_changes":[1.684139E-2,6.3219815E-3,1.6763318E-2,0E0,8.8925306E-5,1.7343093E-2,8.681055E-3,0E0,0E0,4.232007E-2,1.8212844E-2,4.986305E-3,1.2650325E-2,0E0,0E0,0E0,0E0,0E0,0E0,0E0,0E0],"parents":[2147483647,0,0,1,1,2,2,4,4,5,5,6,6,9,9,10,10,11,11,12,12],"right_children":[2,4,6,-1,8,10,12,-1,-1,14,16,18,20,-1,-1,-1,-1,-1,-1,-1,-1],"split_conditions":[1.1293873E0,-4.638305E-2,6.8428226E0,-1.7134842E-3,-2.6378812E-2,-1.1066175E-1,5.690771E0,-0E0,-1.11276524E-4,2.1048856E0,7.411167E1,7.43E0,8.253809E0,2.514415E-3,2.6714505E-4,-7.1257935E-5,1.0166273E-3,-5.164168E-4,1.4095503E-5,-7.7042764E-4,-0E0],"split_indices":[0,3,6,0,3,3,0,0,0,0,2,8,6,0,0,0,0,0,0,0,0],"split_type":[0,0,0,0,0,0,0,0,0,0,0,0,0,0,0,0,0,0,0,0,0],"sum_hessian":[5.36E2,1.5E1,5.21E2,6E0,9E0,2.84E2,2.37E2,2E0,7E0,9.6E1,1.88E2,1.69E2,6.8E1,8E0,8.8E1,1.74E2,1.4E1,1.6E1,1.53E2,4.1E1,2.7E1],"tree_param":{"num_deleted":"0","num_feature":"12","num_nodes":"21","size_leaf_vector":"1"}},{"base_weights":[-2.4375829E-4,4.8051598E-3,-5.163015E-3,-0E0,3.3720303E-2,-2.8345857E-2,-3.5655324E-3,1.5179755E-3,-1.7359109E-3,3.8255278E-3,1.8752377E-2,1.8154756E-4,-4.2916395E-2,8.501536E-4,-8.839092E-3,-3.1543008E-4,2.145888E-4,1.189282E-3,3.0307156E-5,-1.4414354E-3,-0E0,-1.8160214E-4,2.032177E-4,-6.956256E-4,-3.3170665E-5],"categories":[],"categories_nodes":[],"categories_segments":[],"categories_sizes":[],"default_left":[0,0,0,0,0,0,0,0,0,0,0,0,0,0,0,0,0,0,0,0,0,0,0,0,0],"id":28,"left_children":[1,3,5,7,9,11,13,15,-1,-1,17,-1,19,21,23,-1,-1,-1,-1,-1,-1,-1,-1,-1,-1],"loss_changes":[1.3373186E-2,3.6183335E-2,7.151433E-3,2.0582354E-2,3.492793E-2,1.0962843E-2,7.0704455E-3,1.4248677E-2,0E0,0E0,8.496402E-3,0E0,3.2927468E-3,5.715685E-3,1.230301E-2,0E0,0E0,0E0,0E0,0E0,0E0,0E0,0E0,0E0,0E0],"parents":[2147483647,0,0,1,1,2,2,3,3,4,4,5,5,6,6,7,7,10,10,12,12,13,13,14,14],"right_children":[2,4,6,8,10,12,14,16,-1,-1,18,-1,20,22,24,-1,-1,-1,-1,-1,-1,-1,-1,-1,-1],"split_conditions":[6.7655535E0,6.67E0,-3.8003573E-1,3.5980936E-2,6.41E0,6.9064803E0,-6.635729E-2,5.47E0,-1.7359109E-3,3.8255278E-3,-1.891547E-1,1.8154756E-4,8.253809E0,-1.3165621E-1,8.05E0,-3.1543008E-4,2.145888E-4,1.189282E-3,3.0307156E-5,-1.4414354E-3,-0E0,-1.8160214E-4,2.032177E-4,-6.956256E-4,-3.3170665E-5],"split_indices":[6,7,4,3,10,6,3,11,0,0,4,0,6,4,11,0,0,0,0,0,0,0,0,0,0],"split_type":[0,0,0,0,0,0,0,0,0,0,0,0,0,0,0,0,0,0,0,0,0,0,0,0,0],"sum_hessian":[5.35E2,2.54E2,2.81E2,2.18E2,3.6E1,1.3E1,2.68E2,2.13E2,5E0,3E0,3.3E1,2E0,1.1E1,1.36E2,1.32E2,6.2E1,1.51E2,1.2E1,2.1E1,1E1,1E0,5.5E1,8.1E1,4.1E1,9.1E1],"tree_param":{"num_deleted":"0","num_feature":"12","num_nodes":"25","size_leaf_vector":"1"}},{"base_weights":[2.3273857E-4,-4.7577865E-2,1.3397755E-3,-0E0,-1.7438331E-3,5.560149E-3,-7.785389E-3,2.6482837E-2,1.6668778E-4,-5.9304435E-2,-2.4598206E-3,3.9886762E-3,3.9211856E-4,1.3915334E-4,-2.0397005E-4,-7.643275E-5,-2.1940628E-3,3.2552058E-4,-2.613893E-4],"categories":[],"categories_nodes":[],"categories_segments":[],"categories_sizes":[],"default_left":[0,0,0,0,0,0,0,0,0,0,0,0,0,0,0,0,0,0,0],"id":29,"left_children":[1,3,5,-1,-1,7,9,11,13,15,17,-1,-1,-1,-1,-1,-1,-1,-1],"loss_changes":[2.3544757E-2,4.39417E-3,1.9923821E-2,0E0,0E0,3.8519315E-2,3.7027873E-2,8.505035E-2,9.004398E-3,2.4503656E-3,1.2032743E-2,0E0,0E0,0E0,0E0,0E0,0E0,0E0,0E0],"parents":[2147483647,0,0,1,1,2,2,5,5,6,6,7,7,8,8,9,9,10,10],"right_children":[2,4,6,-1,-1,8,10,12,14,16,18,-1,-1,-1,-1,-1,-1,-1,-1],"split_conditions":[4.9145265E0,4.636547E0,7.7623677E0,-0E0,-1.7438331E-3,-1.3430397E-1,8.05E0,1.8263166E0,-4.6599038E-2,-9.1928944E-2,8.72E0,3.9886762E-3,3.9211856E-4,1.3915334E-4,-2.0397005E-4,-7.643275E-5,-2.1940628E-3,3.2552058E-4,-2.613893E-4],"split_indices":[5,5,6,0,0,4,10,0,4,4,10,0,0,0,0,0,0,0,0],"split_type":[0,0,0,0,0,0,0,0,0,0,0,0,0,0,0,0,0,0,0],"sum_hessian":[5.3E2,9E0,5.21E2,2E0,7E0,3.64E2,1.57E2,7E1,2.94E2,1.2E1,1.45E2,6E0,6.4E1,1.88E2,1.06E2,4E0,8E0,4.1E1,1.04E2],"tree_param":{"num_deleted":"0","num_feature":"12","num_nodes":"19","size_leaf_vector":"1"}},{"base_weights":[-9.772362E-5,-3.694032E-2,7.7797595E-4,-1.6118714E-4,-1.6980574E-3,1.3361867E-2,-1.2605328E-3,-0E0,-1.0214174E-4,-1.5407327E-3,3.9712366E-2,-1.5873645E-2,-0E0,8.031244E-4,-3.615191E-4,1.7004276E-3,1.2495188E-4,-0E0,-6.406193E-4,2.8903788E-4,-6.086609E-5],"categories":[],"categories_nodes":[],"categories_segments":[],"categories_sizes":[],"default_left":[0,0,0,0,0,0,0,0,0,0,0,0,0,0,0,0,0,0,0,0,0],"id":30,"left_children":[1,3,5,7,-1,9,11,-1,-1,13,15,17,19,-1,-1,-1,-1,-1,-1,-1,-1],"loss_changes":[2.0776652E-2,5.161613E-3,1.4489252E-2,5.7752914E-5,0E0,3.4900934E-2,8.373468E-3,0E0,0E0,1.3430618E-2,1.23781E-2,3.6967704E-3,8.054164E-3,0E0,0E0,0E0,0E0,0E0,0E0,0E0,0E0],"parents":[2147483647,0,0,1,1,2,2,3,3,5,5,6,6,9,9,10,10,11,11,12,12],"right_children":[2,4,6,8,-1,10,12,-1,-1,14,16,18,20,-1,-1,-1,-1,-1,-1,-1,-1],"split_conditions":[4.9145265E0,4.7555375E0,-1.716467E-1,3.706314E0,-1.6980574E-3,-2.4873877E-1,-1.323965E-1,-0E0,-1.0214174E-4,-4.74538E-1,8.216211E0,6.8813386E0,-1.0469502E-1,8.031244E-4,-3.615191E-4,1.7004276E-3,1.2495188E-4,-0E0,-6.406193E-4,2.8903788E-4,-6.086609E-5],"split_indices":[5,5,4,6,0,4,4,0,0,4,5,5,3,0,0,0,0,0,0,0,0],"split_type":[0,0,0,0,0,0,0,0,0,0,0,0,0,0,0,0,0,0,0,0,0],"sum_hessian":[5.3E2,1.4E1,5.16E2,7E0,7E0,7.8E1,4.38E2,3E0,4E0,4.8E1,3E1,3.5E1,4.03E2,1E1,3.8E1,1.8E1,1.2E1,8E0,2.7E1,7.1E1,3.32E2],"tree_param":{"num_deleted":"0","num_feature":"12","num_nodes":"21","size_leaf_vector":"1"}},{"base_weights":[-0E0,2.0015924E-3,-7.6587093E-3,-1.1431118E-2,3.994313E-3,-2.4378296E-2,-0E0,6.4571775E-3,-1.609537E-2,1.3802109E-2,1.3622183E-4,-0E0,-3.8840186E-2,9.151498E-3,-5.098608E-3,5.624976E-4,-0E0,-1.0097651E-3,-7.6203265E-5,2.687366E-3,2.26658E-4,5.032938E-4,-5.2306328E-5,-1.6610845E-4,-0E0,-1.4955717E-3,-0E0,4.7403388E-4,-0E0,-2.5241828E-4,-0E0],"categories":[],"categories_nodes":[],"categories_segments":[],"categories_sizes":[],"default_left":[0,0,0,0,0,0,0,0,0,0,0,0,0,0,0,0,0,0,0,0,0,0,0,0,0,0,0,0,0,0,0],"id":31,"left_children":[1,3,5,7,9,11,13,15,17,19,21,23,25,27,29,-1,-1,-1,-1,-1,-1,-1,-1,-1,-1,-1,-1,-1,-1,-1,-1],"loss_changes":[8.33739E-3,1.0330245E-2,1.6490987E-2,4.989221E-3,1.2453496E-2,1.0010567E-2,3.9075627E-3,1.1560672E-3,6.2938565E-3,3.5052873E-2,1.0009357E-2,3.3723578E-4,9.061117E-3,1.9800914E-3,1.3339897E-3,0E0,0E0,0E0,0E0,0E0,0E0,0E0,0E0,0E0,0E0,0E0,0E0,0E0,0E0,0E0,0E0],"parents":[2147483647,0,0,1,1,2,2,3,3,4,4,5,5,6,6,7,7,8,8,9,9,10,10,11,11,12,12,13,13,14,14],"right_children":[2,4,6,8,10,12,14,16,18,20,22,24,26,28,30,-1,-1,-1,-1,-1,-1,-1,-1,-1,-1,-1,-1,-1,-1,-1,-1],"split_conditions":[8.72E0,5.34E0,1.03E1,4E0,-1.06897905E-1,8.87E0,-1.2300696E-1,7.274596E0,4.82E0,2.0396228E0,3.366336E1,3.518518E1,1.2547999E1,1.09E1,1.5119986E-1,5.624976E-4,-0E0,-1.0097651E-3,-7.6203265E-5,2.687366E-3,2.26658E-4,5.032938E-4,-5.2306328E-5,-1.6610845E-4,-0E0,-1.4955717E-3,-0E0,4.7403388E-4,-0E0,-2.5241828E-4,-0E0],"split_indices":[10,10,7,8,3,7,3,0,10,0,2,2,0,7,3,0,0,0,0,0,0,0,0,0,0,0,0,0,0,0,0],"split_type":[0,0,0,0,0,0,0,0,0,0,0,0,0,0,0,0,0,0,0,0,0,0,0,0,0,0,0,0,0,0,0],"sum_hessian":[5.24E2,4.11E2,1.13E2,4.6E1,3.65E2,3.8E1,7.5E1,5E0,4.1E1,9.5E1,2.7E2,1.7E1,2.1E1,3.2E1,4.3E1,3E0,2E0,1.4E1,2.7E1,5E0,9E1,3.2E1,2.38E2,1E1,7E0,1.6E1,5E0,1.8E1,1.4E1,3.4E1,9E0],"tree_param":{"num_deleted":"0","num_feature":"12","num_nodes":"31","size_leaf_vector":"1"}},{"base_weights":[-0E0,3.7331466E-2,-7.9737126E-4,-0E0,1.2568852E-3,-3.0530732E-2,-0E0,-4.306649E-2,-0E0,1.3892878E-2,-1.9397555E-3,-0E0,-1.5071887E-3,-1.6186672E-5,1.0416502E-3,-9.803141E-4,-1.9130963E-5],"categories":[],"categories_nodes":[],"categories_segments":[],"categories_sizes":[],"default_left":[0,0,0,0,0,0,0,0,0,0,0,0,0,0,0,0,0],"id":32,"left_children":[1,3,5,-1,-1,7,9,11,-1,13,15,-1,-1,-1,-1,-1,-1],"loss_changes":[1.567272E-2,2.2228714E-3,9.910685E-3,0E0,0E0,6.4391205E-3,1.31599195E-2,3.499655E-3,0E0,2.1172948E-2,1.5497952E-2,0E0,0E0,0E0,0E0,0E0,0E0],"parents":[2147483647,0,0,1,1,2,2,5,5,6,6,7,7,9,9,10,10],"right_children":[2,4,6,-1,-1,8,10,12,-1,14,16,-1,-1,-1,-1,-1,-1],"split_conditions":[-4.74538E-1,7.18E0,-3.8003573E-1,-0E0,1.2568852E-3,2.8333326E1,-1.8115234E-1,7.5949354E0,-0E0,-2.3194818E-1,4.7624736E0,-0E0,-1.5071887E-3,-1.6186672E-5,1.0416502E-3,-9.803141E-4,-1.9130963E-5],"split_indices":[4,8,4,0,0,2,4,2,0,4,6,0,0,0,0,0,0],"split_type":[0,0,0,0,0,0,0,0,0,0,0,0,0,0,0,0,0],"sum_hessian":[5.48E2,1E1,5.38E2,1E0,9E0,1E1,5.28E2,8E0,2E0,5.8E1,4.7E2,1E0,7E0,3.2E1,2.6E1,1.5E1,4.55E2],"tree_param":{"num_deleted":"0","num_feature":"12","num_nodes":"17","size_leaf_vector":"1"}},{"base_weights":[1.0499008E-3,1.5820786E-3,2.6523246E-4,-3.4259114E-2,1.9735235E-3,-0E0,-1.4128675E-3,1.2431582E-2,-1.109871E-3,2.0982034E-3,1.0209759E-4,9.927985E-4,-5.749579E-5],"categories":[],"categories_nodes":[],"categories_segments":[],"categories_sizes":[],"default_left":[0,0,0,0,0,0,0,0,0,0,0,0,0],"id":33,"left_children":[1,-1,3,5,7,-1,-1,9,11,-1,-1,-1,-1],"loss_changes":[1.6140234E-2,0E0,2.7743334E-2,7.4487906E-3,1.7365867E-2,0E0,0E0,5.577077E-2,7.4851895E-3,0E0,0E0,0E0,0E0],"parents":[2147483647,0,0,2,2,3,3,4,4,7,7,8,8],"right_children":[2,-1,4,6,8,-1,-1,10,12,-1,-1,-1,-1],"split_conditions":[3.9E0,1.5820786E-3,4.7624736E0,3.7097673E0,1.9659921E0,-0E0,-1.4128675E-3,-8.9272186E-2,-5.770031E-1,2.0982034E-3,1.0209759E-4,9.927985E-4,-5.749579E-5],"split_indices":[7,0,6,6,0,0,0,3,3,0,0,0,0],"split_type":[0,0,0,0,0,0,0,0,0,0,0,0,0],"sum_hessian":[5.28E2,5E0,5.23E2,2.1E1,5.02E2,7E0,1.4E1,1.21E2,3.81E2,1.4E1,1.07E2,5E0,3.76E2],"tree_param":{"num_deleted":"0","num_feature":"12","num_nodes":"13","size_leaf_vector":"1"}},{"base_weights":[3.9450312E-4,3.4837097E-2,-1.16317115E-5,-0E0,1.2526576E-3,6.5444796E-3,-2.5532092E-3,7.128498E-2,-7.6928636E-4,-3.714021E-3,2.3257257E-2,2.7913526E-3,-0E0,-1.2601191E-3,4.579004E-6,-5.5465E-5,-4.513758E-4,1.937303E-3,-0E0],"categories":[],"categories_nodes":[],"categories_segments":[],"categories_sizes":[],"default_left":[0,0,0,0,0,0,0,0,0,0,0,0,0,0,0,0,0,0,0],"id":34,"left_children":[1,3,5,-1,-1,7,9,11,13,15,17,-1,-1,-1,-1,-1,-1,-1,-1],"loss_changes":[1.08408155E-2,1.2818994E-3,8.248947E-3,0E0,0E0,7.055499E-2,9.667078E-3,1.9008055E-2,8.753355E-3,6.1664446E-3,9.648935E-3,0E0,0E0,0E0,0E0,0E0,0E0,0E0,0E0],"parents":[2147483647,0,0,1,1,2,2,5,5,6,6,7,7,8,8,9,9,10,10],"right_children":[2,4,6,-1,-1,8,10,12,14,16,18,-1,-1,-1,-1,-1,-1,-1,-1],"split_conditions":[-5.147009E-1,6.627735E0,2.0396228E0,-0E0,1.2526576E-3,-9.55316E-2,8.02139E1,-8.9272186E-2,4.751026E0,4.3785397E-2,4.598619E0,2.7913526E-3,-0E0,-1.2601191E-3,4.579004E-6,-5.5465E-5,-4.513758E-4,1.937303E-3,-0E0],"split_indices":[4,6,0,0,0,4,2,3,6,3,0,0,0,0,0,0,0,0,0],"split_type":[0,0,0,0,0,0,0,0,0,0,0,0,0,0,0,0,0,0,0],"sum_hessian":[5.25E2,8E0,5.17E2,2E0,6E0,1.33E2,3.84E2,1.4E1,1.19E2,3.72E2,1.2E1,1E1,4E0,4E0,1.15E2,3.28E2,4.4E1,3E0,9E0],"tree_param":{"num_deleted":"0","num_feature":"12","num_nodes":"19","size_leaf_vector":"1"}},{"base_weights":[-1.2135144E-3,-3.1919945E-2,-2.5673214E-4,-0E0,-1.4789783E-3,1.1818573E-3,-9.865331E-4,6.742537E-3,-3.5916488E-3,2.1859764E-3,-0E0,1.0249999E-3,-1.3246565E-4],"categories":[],"categories_nodes":[],"categories_segments":[],"categories_sizes":[],"default_left":[0,0,0,0,0,0,0,0,0,0,0,0,0],"id":35,"left_children":[1,3,5,-1,-1,-1,7,9,11,-1,-1,-1,-1],"loss_changes":[1.2492099E-2,3.7674522E-3,1.1332593E-2,0E0,0E0,0E0,1.0118986E-2,4.7593486E-2,9.525646E-3,0E0,0E0,0E0,0E0],"parents":[2147483647,0,0,1,1,2,2,6,6,7,7,8,8],"right_children":[2,4,6,-1,-1,-1,8,10,12,-1,-1,-1,-1],"split_conditions":[4.9145265E0,4.7555375E0,-5.185001E-1,-0E0,-1.4789783E-3,1.1818573E-3,1.9659921E0,-9.738598E-2,3.89E0,2.1859764E-3,-0E0,1.0249999E-3,-1.3246565E-4],"split_indices":[5,5,4,0,0,0,0,4,7,0,0,0,0],"split_type":[0,0,0,0,0,0,0,0,0,0,0,0,0],"sum_hessian":[5.34E2,1.2E1,5.22E2,6E0,6E0,6E0,5.16E2,1.2E2,3.96E2,9E0,1.11E2,5E0,3.91E2],"tree_param":{"num_deleted":"0","num_feature":"12","num_nodes":"13","size_leaf_vector":"1"}},{"base_weights":[-0E0,1.5234132E-3,-5.600764E-4,-2.9880399E-2,5.1607186E-4,-0E0,-1.0955359E-3,6.2454487E-3,-5.322615E-3,1.1488575E-3,3.750651E-5,-6.689603E-4,-5.338324E-5],"categories":[],"categories_nodes":[],"categories_segments":[],"categories_sizes":[],"default_left":[0,0,0,0,0,0,0,0,0,0,0,0,0],"id":36,"left_children":[1,-1,3,5,7,-1,-1,9,11,-1,-1,-1,-1],"loss_changes":[1.5637547E-2,0E0,1.9611843E-2,3.0279886E-3,1.7085709E-2,0E0,0E0,3.842306E-2,1.2168748E-2,0E0,0E0,0E0,0E0],"parents":[2147483647,0,0,2,2,3,3,4,4,7,7,8,8],"right_children":[2,-1,4,6,8,-1,-1,10,12,-1,-1,-1,-1],"split_conditions":[3.9E0,1.5234132E-3,4.82E0,4.04E0,8.216211E0,-0E0,-1.0955359E-3,-1.3430397E-1,8.360727E0,1.1488575E-3,3.750651E-5,-6.689603E-4,-5.338324E-5],"split_indices":[7,0,11,11,5,0,0,4,5,0,0,0,0],"split_type":[0,0,0,0,0,0,0,0,0,0,0,0,0],"sum_hessian":[5.32E2,5E0,5.27E2,2.1E1,5.06E2,5E0,1.6E1,2.64E2,2.42E2,3.2E1,2.32E2,3.6E1,2.06E2],"tree_param":{"num_deleted":"0","num_feature":"12","num_nodes":"13","size_leaf_vector":"1"}},{"base_weights":[5.7666487E-4,3.444187E-2,-0E0,-0E0,1.1995682E-3,8.873672E-3,-3.0305902E-3,9.222714E-2,-0E0,-2.0491539E-2,-1.4350722E-3,-0E0,3.4481203E-3,-1.1971374E-3,4.9663853E-5,-9.107899E-4,-0E0,2.0626199E-4,-1.0958558E-4],"categories":[],"categories_nodes":[],"categories_segments":[],"categories_sizes":[],"default_left":[0,0,0,0,0,0,0,0,0,0,0,0,0,0,0,0,0,0,0],"id":37,"left_children":[1,3,5,-1,-1,7,9,11,13,15,17,-1,-1,-1,-1,-1,-1,-1,-1],"loss_changes":[1.2870756E-2,1.3409695E-3,1.3734405E-2,0E0,0E0,9.1991164E-2,8.865917E-3,1.6825184E-2,6.6819256E-3,7.598602E-3,6.5406887E-3,0E0,0E0,0E0,0E0,0E0,0E0,0E0,0E0],"parents":[2147483647,0,0,1,1,2,2,5,5,6,6,7,7,8,8,9,9,10,10],"right_children":[2,4,6,-1,-1,8,10,12,14,16,18,-1,-1,-1,-1,-1,-1,-1,-1],"split_conditions":[-4.74538E-1,6.627735E0,1.9659921E0,-0E0,1.1995682E-3,-9.738598E-2,-3.0549672E-1,1.720549E0,4.9145265E0,1.06664095E1,3.1428568E1,-0E0,3.4481203E-3,-1.1971374E-3,4.9663853E-5,-9.107899E-4,-0E0,2.0626199E-4,-1.0958558E-4],"split_indices":[4,6,0,0,0,4,3,0,5,5,2,0,0,0,0,0,0,0,0],"split_type":[0,0,0,0,0,0,0,0,0,0,0,0,0,0,0,0,0,0,0],"sum_hessian":[5.34E2,1E1,5.24E2,2E0,8E0,1.27E2,3.97E2,1.1E1,1.16E2,2.7E1,3.7E2,3E0,8E0,3E0,1.13E2,2E1,7E0,6.8E1,3.02E2],"tree_param":{"num_deleted":"0","num_feature":"12","num_nodes":"19","size_leaf_vector":"1"}},{"base_weights":[-0E0,1.1660723E-2,-1.9995456E-3,2.750634E-2,-1.2650563E-2,-2.8787626E-2,-8.673641E-4,8.870698E-3,4.7220923E-2,-1.0141153E-3,-0E0,-0E0,-1.1865338E-3,1.9008922E-3,-4.9389796E-3,6.903935E-4,-0E0,-0E0,1.7359608E-3,-0E0,2.551947E-4,2.5031247E-4,-2.757223E-4,-8.606614E-4,-4.408876E-7],"categories":[],"categories_nodes":[],"categories_segments":[],"categories_sizes":[],"default_left":[0,0,0,0,0,0,0,0,0,0,0,0,0,0,0,0,0,0,0,0,0,0,0,0,0],"id":38,"left_children":[1,3,5,7,9,11,13,15,17,-1,19,-1,-1,21,23,-1,-1,-1,-1,-1,-1,-1,-1,-1,-1],"loss_changes":[1.1761155E-2,2.9955143E-2,1.0930527E-2,1.1239469E-2,1.0534104E-2,7.9048835E-3,5.328914E-3,4.6815462E-3,1.2326494E-2,0E0,3.6180188E-4,0E0,0E0,1.7928904E-2,1.9934567E-2,0E0,0E0,0E0,0E0,0E0,0E0,0E0,0E0,0E0,0E0],"parents":[2147483647,0,0,1,1,2,2,3,3,4,4,5,5,6,6,7,7,8,8,10,10,13,13,14,14],"right_children":[2,4,6,8,10,12,14,16,18,-1,20,-1,-1,22,24,-1,-1,-1,-1,-1,-1,-1,-1,-1,-1],"split_conditions":[-1.8115234E-1,7.94E0,4.7624736E0,-2.3307641E-1,1.06664095E1,4.252686E0,8.237737E0,-3.7088478E-1,4.877498E0,-1.0141153E-3,1.16028595E1,-0E0,-1.1865338E-3,-4.6934858E-2,8E0,6.903935E-4,-0E0,-0E0,1.7359608E-3,-0E0,2.551947E-4,2.5031247E-4,-2.757223E-4,-8.606614E-4,-4.408876E-7],"split_indices":[4,11,6,4,5,5,5,4,5,0,5,0,0,4,10,0,0,0,0,0,0,0,0,0,0],"split_type":[0,0,0,0,0,0,0,0,0,0,0,0,0,0,0,0,0,0,0,0,0,0,0,0,0],"sum_hessian":[5.3E2,7.2E1,4.58E2,4.6E1,2.6E1,1.4E1,4.44E2,2.7E1,1.9E1,1.2E1,1.4E1,2E0,1.2E1,2.5E2,1.94E2,1.2E1,1.5E1,3E0,1.6E1,1E1,4E0,1.64E2,8.6E1,2.9E1,1.65E2],"tree_param":{"num_deleted":"0","num_feature":"12","num_nodes":"25","size_leaf_vector":"1"}},{"base_weights":[-1.8682537E-4,4.1166916E-3,-4.9661496E-3,3.0090215E-2,-0E0,-3.9650228E-2,-3.277393E-3,3.6691579E-3,1.2702996E-2,1.3286162E-3,-1.3448601E-3,-1.3018501E-3,-0E0,4.2165047E-4,-1.0141739E-2,-0E0,8.030236E-4,5.2630896E-4,-8.433076E-5,8.1687824E-5,-1.0005281E-3,-6.882805E-4,-0E0],"categories":[],"categories_nodes":[],"categories_segments":[],"categories_sizes":[],"default_left":[0,0,0,0,0,0,0,0,0,0,0,0,0,0,0,0,0,0,0,0,0,0,0],"id":39,"left_children":[1,3,5,7,9,11,13,-1,15,-1,17,-1,-1,19,21,-1,-1,-1,-1,-1,-1,-1,-1],"loss_changes":[1.0677292E-2,2.999974E-2,1.0513391E-2,4.5873336E-2,1.0202876E-2,9.1574714E-4,7.247989E-3,0E0,7.41049E-3,0E0,4.6409653E-3,0E0,0E0,8.841463E-3,1.3812437E-2,0E0,0E0,0E0,0E0,0E0,0E0,0E0,0E0],"parents":[2147483647,0,0,1,1,2,2,3,3,4,4,5,5,6,6,8,8,10,10,13,13,14,14],"right_children":[2,4,6,8,10,12,14,-1,16,-1,18,-1,-1,20,22,-1,-1,-1,-1,-1,-1,-1,-1],"split_conditions":[-7.886401E-2,2.2935467E0,5.35E0,-1.3430397E-1,4.9504943E0,5.638195E0,-8.526865E-3,3.6691579E-3,5.749833E0,1.3286162E-3,-4.514094E-1,-1.3018501E-3,-0E0,5.8501487E0,2.9585638E0,-0E0,8.030236E-4,5.2630896E-4,-8.433076E-5,8.1687824E-5,-1.0005281E-3,-6.882805E-4,-0E0],"split_indices":[4,0,11,4,2,5,3,0,6,0,4,0,0,0,0,0,0,0,0,0,0,0,0],"split_type":[0,0,0,0,0,0,0,0,0,0,0,0,0,0,0,0,0,0,0,0,0,0,0],"sum_hessian":[5.13E2,2.59E2,2.54E2,3.7E1,2.22E2,8E0,2.46E2,4E0,3.3E1,4E0,2.18E2,7E0,1E0,1.51E2,9.5E1,1.6E1,1.7E1,1E1,2.08E2,1.45E2,6E0,4.4E1,5.1E1],"tree_param":{"num_deleted":"0","num_feature":"12","num_nodes":"23","size_leaf_vector":"1"}},{"base_weights":[-0E0,-2.527602E-2,8.8829134E-4,-0E0,-1.4367276E-3,4.3311347E-3,-3.4539714E-3,2.2792378E-2,-0E0,-1.0610238E-2,5.2804356E-3,2.8973161E-3,4.0008876E-4,1.203093E-3,-1.4063505E-5,-1.6351281E-4,-1.8130494E-3,4.6208888E-4,-7.340988E-5],"categories":[],"categories_nodes":[],"categories_segments":[],"categories_sizes":[],"default_left":[0,0,0,0,0,0,0,0,0,0,0,0,0,0,0,0,0,0,0],"id":40,"left_children":[1,3,5,-1,-1,7,9,11,13,15,17,-1,-1,-1,-1,-1,-1,-1,-1],"loss_changes":[9.995838E-3,8.765163E-3,7.921385E-3,0E0,0E0,2.337017E-2,1.42777655E-2,2.6792746E-2,6.487314E-3,2.5732018E-2,8.607853E-3,0E0,0E0,0E0,0E0,0E0,0E0,0E0,0E0],"parents":[2147483647,0,0,1,1,2,2,5,5,6,6,7,7,8,8,9,9,10,10],"right_children":[2,4,6,-1,-1,8,10,12,14,16,18,-1,-1,-1,-1,-1,-1,-1,-1],"split_conditions":[4.9145265E0,4.7555375E0,-6.411518E-2,-0E0,-1.4367276E-3,2.2935467E0,8.05E0,-1.6071807E-1,4.7619042E0,7.7457194E0,8.75E0,2.8973161E-3,4.0008876E-4,1.203093E-3,-1.4063505E-5,-1.6351281E-4,-1.8130494E-3,4.6208888E-4,-7.340988E-5],"split_indices":[5,5,4,0,0,0,11,4,2,6,9,0,0,0,0,0,0,0,0],"split_type":[0,0,0,0,0,0,0,0,0,0,0,0,0,0,0,0,0,0,0],"sum_hessian":[5.36E2,1.4E1,5.22E2,7E0,7E0,3.04E2,2.18E2,5.5E1,2.49E2,1.26E2,9.2E1,4E0,5.1E1,3E0,2.46E2,1.17E2,9E0,4.5E1,4.7E1],"tree_param":{"num_deleted":"0","num_feature":"12","num_nodes":"19","size_leaf_vector":"1"}},{"base_weights":[9.341315E-4,3.589026E-2,2.5643146E-4,1.4465653E-3,-0E0,-2.7386606E-2,1.7636721E-3,-0E0,-1.1412993E-3,4.7788587E-3,-5.2663237E-3,4.4247048E-4,3.0624527E-5,-3.4351778E-4,-1.1265461E-6],"categories":[],"categories_nodes":[],"categories_segments":[],"categories_sizes":[],"default_left":[0,0,0,0,0,0,0,0,0,0,0,0,0,0,0],"id":41,"left_children":[1,3,5,-1,-1,7,9,-1,-1,11,13,-1,-1,-1,-1],"loss_changes":[8.600048E-3,4.933566E-3,1.873501E-2,0E0,0E0,5.906092E-3,1.0320434E-2,0E0,0E0,1.1596789E-2,3.2808061E-3,0E0,0E0,0E0,0E0],"parents":[2147483647,0,0,1,1,2,2,5,5,6,6,9,9,10,10],"right_children":[2,4,6,-1,-1,8,10,-1,-1,12,14,-1,-1,-1,-1],"split_conditions":[3.9E0,7.705426E0,4.82E0,1.4465653E-3,-0E0,4.04E0,8.39E0,-0E0,-1.1412993E-3,-1.1066175E-1,1.0779609E1,4.4247048E-4,3.0624527E-5,-3.4351778E-4,-1.1265461E-6],"split_indices":[7,0,11,0,0,11,7,0,0,3,5,0,0,0,0],"split_type":[0,0,0,0,0,0,0,0,0,0,0,0,0,0,0],"sum_hessian":[5.15E2,6E0,5.09E2,5E0,1E0,2.2E1,4.87E2,7E0,1.5E1,3.51E2,1.36E2,8.8E1,2.63E2,5.3E1,8.3E1],"tree_param":{"num_deleted":"0","num_feature":"12","num_nodes":"15","size_leaf_vector":"1"}},{"base_weights":[1.0175898E-3,-0E0,2.2189999E-2,3.4856997E-2,-3.018509E-4,2.665608E-3,-0E0,1.4104011E-3,-0E0,-2.8473388E-2,4.7843304E-4,-6.396746E-4,1.4416154E-3,-0E0,-1.0663175E-3,3.0186377E-4,-6.453223E-5,-0E0,-1.2489829E-4,-0E0,6.1269864E-5],"categories":[],"categories_nodes":[],"categories_segments":[],"categories_sizes":[],"default_left":[0,0,0,0,0,0,0,0,0,0,0,0,0,0,0,0,0,0,0,0,0],"id":42,"left_children":[1,3,5,7,9,-1,11,-1,-1,13,15,17,19,-1,-1,-1,-1,-1,-1,-1,-1],"loss_changes":[9.302218E-3,8.550811E-3,2.9626887E-2,4.75647E-3,1.3847982E-2,0E0,1.5301479E-5,0E0,0E0,2.641336E-3,1.30601395E-2,1.5108561E-4,6.293154E-6,0E0,0E0,0E0,0E0,0E0,0E0,0E0,0E0],"parents":[2147483647,0,0,1,1,2,2,3,3,4,4,6,6,9,9,10,10,11,11,12,12],"right_children":[2,4,6,8,10,-1,12,-1,-1,14,16,18,20,-1,-1,-1,-1,-1,-1,-1,-1],"split_conditions":[7.448275E1,3.9E0,4.598619E0,7.705426E0,4.751026E0,2.665608E-3,6.158367E-1,1.4104011E-3,-0E0,3.688744E0,1.9659921E0,8.17E0,1.468366E1,-0E0,-1.0663175E-3,3.0186377E-4,-6.453223E-5,-0E0,-1.2489829E-4,-0E0,6.1269864E-5],"split_indices":[2,7,0,0,6,0,3,0,0,6,0,10,0,0,0,0,0,0,0,0,0],"split_type":[0,0,0,0,0,0,0,0,0,0,0,0,0,0,0,0,0,0,0,0,0],"sum_hessian":[5.26E2,5.07E2,1.9E1,6E0,5.01E2,4E0,1.5E1,5E0,1E0,1.6E1,4.85E2,1.1E1,4E0,4E0,1.2E1,1.12E2,3.73E2,3E0,8E0,1E0,3E0],"tree_param":{"num_deleted":"0","num_feature":"12","num_nodes":"21","size_leaf_vector":"1"}},{"base_weights":[2.0059671E-4,1.221707E-2,-1.4705532E-3,3.454984E-2,-0E0,-1.3711142E-2,-0E0,4.7206916E-2,-0E0,1.0119551E-3,-8.283881E-3,-1.9193212E-2,-0E0,1.029424E-2,-2.465621E-3,1.591433E-3,-0E0,-0E0,9.0673624E-5,-4.2612688E-4,5.753248E-5,-0E0,-6.2545965E-4,1.548001E-5,-0E0,6.7593873E-4,-0E0,9.810235E-5,-1.3808948E-4],"categories":[],"categories_nodes":[],"categories_segments":[],"categories_sizes":[],"default_left":[0,0,0,0,0,0,0,0,0,0,0,0,0,0,0,0,0,0,0,0,0,0,0,0,0,0,0,0,0],"id":43,"left_children":[1,3,5,7,9,11,13,15,17,-1,19,21,23,25,27,-1,-1,-1,-1,-1,-1,-1,-1,-1,-1,-1,-1,-1,-1],"loss_changes":[1.1715641E-2,2.1483183E-2,7.0933653E-3,7.883199E-3,1.1778979E-2,3.7043365E-3,9.927078E-3,4.9121715E-3,7.308184E-5,0E0,3.611379E-3,1.2518559E-3,2.3963069E-6,9.418526E-3,4.353269E-3,0E0,0E0,0E0,0E0,0E0,0E0,0E0,0E0,0E0,0E0,0E0,0E0,0E0,0E0],"parents":[2147483647,0,0,1,1,2,2,3,3,4,4,5,5,6,6,7,7,8,8,10,10,11,11,12,12,13,13,14,14],"right_children":[2,4,6,8,10,12,14,16,18,-1,20,22,24,26,28,-1,-1,-1,-1,-1,-1,-1,-1,-1,-1,-1,-1,-1,-1],"split_conditions":[-1.854994E-1,7.705426E0,1.4266809E0,8.193948E0,-4.892992E-1,7.1E0,1.9659921E0,6.746209E0,1.0853475E1,1.0119551E-3,1.2547999E1,-7.9222284E-2,8.13399E0,-5.256557E-2,6.03E0,1.591433E-3,-0E0,-0E0,9.0673624E-5,-4.2612688E-4,5.753248E-5,-0E0,-6.2545965E-4,1.548001E-5,-0E0,6.7593873E-4,-0E0,9.810235E-5,-1.3808948E-4],"split_indices":[4,0,0,5,4,8,0,6,5,0,0,4,5,4,8,0,0,0,0,0,0,0,0,0,0,0,0,0,0],"split_type":[0,0,0,0,0,0,0,0,0,0,0,0,0,0,0,0,0,0,0,0,0,0,0,0,0,0,0,0,0],"sum_hessian":[5.28E2,7.1E1,4.57E2,2.6E1,4.5E1,4.2E1,4.15E2,1.7E1,9E0,7E0,3.8E1,3.1E1,1.1E1,7.3E1,3.42E2,1.5E1,2E0,2E0,7E0,3E1,8E0,2E0,2.9E1,8E0,3E0,3.3E1,4E1,8E1,2.62E2],"tree_param":{"num_deleted":"0","num_feature":"12","num_nodes":"29","size_leaf_vector":"1"}},{"base_weights":[-0E0,4.102994E-3,-4.5642043E-3,4.199391E-2,-2.15804E-4,-2.494978E-2,-1.4720004E-3,1.0955302E-1,1.6372753E-2,1.121812E-3,-1.2671584E-3,-5.5915207E-2,-0E0,1.5358884E-2,-3.7700762E-3,-0E0,3.6521254E-3,-0E0,7.620459E-4,2.0284584E-5,-2.3570824E-4,-1.7872461E-3,-0E0,-5.762775E-5,-0E0,7.242008E-4,-0E0,-4.682874E-4,-3.6889378E-5],"categories":[],"categories_nodes":[],"categories_segments":[],"categories_sizes":[],"default_left":[0,0,0,0,0,0,0,0,0,0,0,0,0,0,0,0,0,0,0,0,0,0,0,0,0,0,0,0,0],"id":44,"left_children":[1,3,5,7,9,11,13,15,17,-1,19,21,23,25,27,-1,-1,-1,-1,-1,-1,-1,-1,-1,-1,-1,-1,-1,-1],"loss_changes":[9.815818E-3,4.837054E-2,1.3269295E-2,3.7542004E-2,5.9640952E-3,1.9465871E-2,7.6017193E-3,4.907094E-3,3.890194E-3,0E0,3.7712194E-3,1.5226975E-3,5.903924E-5,2.9686745E-3,4.4326796E-3,0E0,0E0,0E0,0E0,0E0,0E0,0E0,0E0,0E0,0E0,0E0,0E0,0E0,0E0],"parents":[2147483647,0,0,1,1,2,2,3,3,4,4,5,5,6,6,7,7,8,8,10,10,11,11,12,12,13,13,14,14],"right_children":[2,4,6,8,10,12,14,16,18,-1,20,22,24,26,28,-1,-1,-1,-1,-1,-1,-1,-1,-1,-1,-1,-1,-1,-1],"split_conditions":[-7.886401E-2,2.0396228E0,2E0,-1.3430397E-1,4.7619042E0,3.3061793E0,3.0208328E1,1.720549E0,2E0,1.121812E-3,8.28E0,6.619717E1,6.158367E-1,8.024868E0,3.653846E1,-0E0,3.6521254E-3,-0E0,7.620459E-4,2.0284584E-5,-2.3570824E-4,-1.7872461E-3,-0E0,-5.762775E-5,-0E0,7.242008E-4,-0E0,-4.682874E-4,-3.6889378E-5],"split_indices":[4,0,1,4,2,0,2,0,1,0,9,2,3,6,2,0,0,0,0,0,0,0,0,0,0,0,0,0,0],"split_type":[0,0,0,0,0,0,0,0,0,0,0,0,0,0,0,0,0,0,0,0,0,0,0,0,0,0,0,0,0],"sum_hessian":[5.21E2,2.69E2,2.52E2,2.9E1,2.4E2,2.8E1,2.24E2,6E0,2.3E1,3E0,2.37E2,1.1E1,1.7E1,2.1E1,2.03E2,1E0,5E0,8E0,1.5E1,1.72E2,6.5E1,1E1,1E0,1.5E1,2E0,1.3E1,8E0,2.8E1,1.75E2],"tree_param":{"num_deleted":"0","num_feature":"12","num_nodes":"29","size_leaf_vector":"1"}},{"base_weights":[9.853041E-4,3.2747139E-3,-7.139982E-3,-8.678911E-3,5.7890504E-3,-3.3250112E-2,-0E0,2.4168255E-2,-1.4580552E-2,1.3778058E-2,1.4716112E-3,-3.8426746E-2,-0E0,4.4069374E-3,-4.10719E-3,-0E0,1.2966414E-3,-9.138142E-4,-1.5805435E-4,1.1383571E-3,1.2215864E-5,-3.225611E-5,6.595416E-4,-0E0,-1.2384009E-3,-0E0,5.65445E-4,-2.7185594E-4,-0E0],"categories":[],"categories_nodes":[],"categories_segments":[],"categories_sizes":[],"default_left":[0,0,0,0,0,0,0,0,0,0,0,0,0,0,0,0,0,0,0,0,0,0,0,0,0,0,0,0,0],"id":45,"left_children":[1,3,5,7,9,11,13,15,17,19,21,23,-1,25,27,-1,-1,-1,-1,-1,-1,-1,-1,-1,-1,-1,-1,-1,-1],"loss_changes":[9.47737E-3,1.2474706E-2,2.1078888E-2,1.238171E-2,1.076842E-2,2.9986165E-3,1.5487097E-3,4.667603E-3,5.1391236E-3,3.3956222E-2,1.4705174E-2,2.8444827E-3,0E0,3.7443456E-3,1.6245263E-3,0E0,0E0,0E0,0E0,0E0,0E0,0E0,0E0,0E0,0E0,0E0,0E0,0E0,0E0],"parents":[2147483647,0,0,1,1,2,2,3,3,4,4,5,5,6,6,7,7,8,8,9,9,10,10,11,11,13,13,14,14],"right_children":[2,4,6,8,10,12,14,16,18,20,22,24,-1,26,28,-1,-1,-1,-1,-1,-1,-1,-1,-1,-1,-1,-1,-1,-1],"split_conditions":[8.163063E0,5.711591E0,1.0807768E1,4E0,-9.55316E-2,-4.130735E-2,1.095E1,4E0,4.7624736E0,6.49E0,7.950057E0,-4.255569E-1,-0E0,1.1298722E1,1.2479921E1,-0E0,1.2966414E-3,-9.138142E-4,-1.5805435E-4,1.1383571E-3,1.2215864E-5,-3.225611E-5,6.595416E-4,-0E0,-1.2384009E-3,-0E0,5.65445E-4,-2.7185594E-4,-0E0],"split_indices":[6,5,5,8,4,4,8,11,6,10,6,3,0,5,5,0,0,0,0,0,0,0,0,0,0,0,0,0,0],"split_type":[0,0,0,0,0,0,0,0,0,0,0,0,0,0,0,0,0,0,0,0,0,0,0,0,0,0,0,0,0],"sum_hessian":[5.28E2,4.22E2,1.06E2,6.6E1,3.56E2,2.3E1,8.3E1,7E0,5.9E1,1.16E2,2.4E2,1.9E1,4E0,4.4E1,3.9E1,3E0,4E0,1.7E1,4.2E1,3.8E1,7.8E1,2.1E2,3E1,1E0,1.8E1,3.2E1,1.2E1,2.7E1,1.2E1],"tree_param":{"num_deleted":"0","num_feature":"12","num_nodes":"29","size_leaf_vector":"1"}},{"base_weights":[6.305174E-4,-0E0,2.0527149E-2,-5.9731314E-3,2.5437973E-3,2.5651013E-3,-0E0,-1.5361468E-2,1.1777322E-4,9.409455E-3,-2.9120105E-3,3.6853387E-3,-5.2836426E-3,-2.982435E-4,-1.9475224E-3,6.939523E-4,-1.5293463E-6,1.8729107E-3,8.68257E-5,-4.54682E-4,8.532899E-6,2.0401481E-4,-0E0,-0E0,-2.072582E-4],"categories":[],"categories_nodes":[],"categories_segments":[],"categories_sizes":[],"default_left":[0,0,0,0,0,0,0,0,0,0,0,0,0,0,0,0,0,0,0,0,0,0,0,0,0],"id":46,"left_children":[1,3,5,7,9,-1,11,13,15,17,19,21,23,-1,-1,-1,-1,-1,-1,-1,-1,-1,-1,-1,-1],"loss_changes":[8.637938E-3,8.096645E-3,2.7705494E-2,1.0904267E-2,1.3674969E-2,0E0,3.4481706E-4,1.0938922E-2,2.6743182E-3,4.924898E-2,8.77103E-3,2.6682147E-4,9.095497E-5,0E0,0E0,0E0,0E0,0E0,0E0,0E0,0E0,0E0,0E0,0E0,0E0],"parents":[2147483647,0,0,1,1,2,2,3,3,4,4,6,6,7,7,8,8,9,9,10,10,11,11,12,12],"right_children":[2,4,6,8,10,-1,12,14,16,18,20,22,24,-1,-1,-1,-1,-1,-1,-1,-1,-1,-1,-1,-1],"split_conditions":[7.448275E1,3E0,4.598619E0,2.9840508E0,7.19E0,2.5651013E-3,8.333333E1,6.0626417E-2,3.9E0,-1.6071807E-1,-1.3159263E-1,2.1198414E1,8.736681E-2,-2.982435E-4,-1.9475224E-3,6.939523E-4,-1.5293463E-6,1.8729107E-3,8.68257E-5,-4.54682E-4,8.532899E-6,2.0401481E-4,-0E0,-0E0,-2.072582E-4],"split_indices":[2,1,0,0,7,0,2,3,7,4,4,0,4,0,0,0,0,0,0,0,0,0,0,0,0],"split_type":[0,0,0,0,0,0,0,0,0,0,0,0,0,0,0,0,0,0,0,0,0,0,0,0,0],"sum_hessian":[5.29E2,5.09E2,2E1,1.63E2,3.46E2,4E0,1.6E1,7E1,9.3E1,1.61E2,1.85E2,1E1,6E0,6.6E1,4E0,4E0,8.9E1,1.5E1,1.46E2,4.4E1,1.41E2,8E0,2E0,1E0,5E0],"tree_param":{"num_deleted":"0","num_feature":"12","num_nodes":"25","size_leaf_vector":"1"}},{"base_weights":[-3.6912377E-4,-1.3626771E-3,1.899264E-2,2.536074E-3,-7.172336E-3,2.5035387E-3,-0E0,5.418886E-3,-4.7149877E-3,1.2804704E-2,-9.155318E-3,3.044233E-3,-5.1356E-3,-1.13497386E-4,2.5248178E-4,-1.0983339E-3,1.3446787E-4,6.7527354E-4,-0E0,-1.9427751E-4,-6.041316E-4,1.9857442E-4,-0E0,-0E0,-2.0207673E-4],"categories":[],"categories_nodes":[],"categories_segments":[],"categories_sizes":[],"default_left":[0,0,0,0,0,0,0,0,0,0,0,0,0,0,0,0,0,0,0,0,0,0,0,0,0],"id":47,"left_children":[1,3,5,7,9,-1,11,13,15,17,19,21,23,-1,-1,-1,-1,-1,-1,-1,-1,-1,-1,-1,-1],"loss_changes":[8.843203E-3,1.2463884E-2,2.6884746E-2,6.5132976E-3,8.586239E-3,0E0,2.95829E-4,6.83861E-3,2.6258817E-2,1.936577E-3,3.3288877E-3,2.8310975E-4,8.761263E-5,0E0,0E0,0E0,0E0,0E0,0E0,0E0,0E0,0E0,0E0,0E0,0E0],"parents":[2147483647,0,0,1,1,2,2,3,3,4,4,6,6,7,7,8,8,9,9,10,10,11,11,12,12],"right_children":[2,4,6,8,10,-1,12,14,16,18,20,22,24,-1,-1,-1,-1,-1,-1,-1,-1,-1,-1,-1,-1],"split_conditions":[7.448275E1,-6.552787E-2,7.9807386E0,9.677796E0,3.0909086E1,2.5035387E-3,8.333333E1,5.560298E0,1.0807768E1,3.042668E-2,4.3785397E-2,5.341159E-1,8.736681E-2,-1.13497386E-4,2.5248178E-4,-1.0983339E-3,1.3446787E-4,6.7527354E-4,-0E0,-1.9427751E-4,-6.041316E-4,1.9857442E-4,-0E0,-0E0,-2.0207673E-4],"split_indices":[2,3,5,5,2,0,2,5,5,3,3,4,4,0,0,0,0,0,0,0,0,0,0,0,0],"split_type":[0,0,0,0,0,0,0,0,0,0,0,0,0,0,0,0,0,0,0,0,0,0,0,0,0],"sum_hessian":[5.49E2,5.28E2,2.1E1,3.06E2,2.22E2,4E0,1.7E1,2.29E2,7.7E1,1.5E1,2.07E2,1.1E1,6E0,4.8E1,1.81E2,1.9E1,5.8E1,8E0,7E0,1.75E2,3.2E1,8E0,3E0,1E0,5E0],"tree_param":{"num_deleted":"0","num_feature":"12","num_nodes":"25","size_leaf_vector":"1"}},{"base_weights":[1.0157038E-4,1.300932E-3,-1.9141781E-4,-2.3093078E-2,5.34537E-4,-0E0,-3.5550628E-2,3.0517427E-3,-4.5543737E-3,-0E0,-1.1203048E-3,2.1326543E-4,-1.4880906E-4,-1.5239947E-3,-4.7312506E-6],"categories":[],"categories_nodes":[],"categories_segments":[],"categories_sizes":[],"default_left":[0,0,0,0,0,0,0,0,0,0,0,0,0,0,0],"id":48,"left_children":[1,-1,3,5,7,-1,9,11,13,-1,-1,-1,-1,-1,-1],"loss_changes":[1.12971235E-2,0E0,1.1329134E-2,5.2309176E-3,6.588799E-3,0E0,3.04427E-4,1.2114702E-2,2.7631683E-2,0E0,0E0,0E0,0E0,0E0,0E0],"parents":[2147483647,0,0,2,2,3,3,4,4,6,6,7,7,8,8],"right_children":[2,-1,4,6,8,-1,10,12,14,-1,-1,-1,-1,-1,-1],"split_conditions":[3.9E0,1.300932E-3,4.7624736E0,3.71177E0,7.7623677E0,-0E0,9.916269E-1,-4.6599038E-2,8.05E0,-0E0,-1.1203048E-3,2.1326543E-4,-1.4880906E-4,-1.5239947E-3,-4.7312506E-6],"split_indices":[7,0,6,6,6,0,0,4,11,0,0,0,0,0,0],"split_type":[0,0,0,0,0,0,0,0,0,0,0,0,0,0,0],"sum_hessian":[5.49E2,5E0,5.44E2,2E1,5.24E2,8E0,1.2E1,3.64E2,1.6E2,1E0,1.1E1,2.5E2,1.14E2,1.1E1,1.49E2],"tree_param":{"num_deleted":"0","num_feature":"12","num_nodes":"15","size_leaf_vector":"1"}},{"base_weights":[1.2467625E-3,9.7686134E-5,3.2910176E-2,4.7514993E-3,-5.7668057E-3,2.440508E-3,1.6509531E-3,7.4245664E-3,-2.8998638E-3,-3.5484657E-2,-2.5281296E-3,-0E0,4.093669E-3,-1.1888108E-4,3.31338E-4,-7.90315E-4,6.464229E-5,-1.6280601E-3,-0E0,-2.0872788E-4,1.7745513E-4,2.1484116E-4,-0E0],"categories":[],"categories_nodes":[],"categories_segments":[],"categories_sizes":[],"default_left":[0,0,0,0,0,0,0,0,0,0,0,0,0,0,0,0,0,0,0,0,0,0,0],"id":49,"left_children":[1,3,5,7,9,-1,11,13,15,17,19,-1,21,-1,-1,-1,-1,-1,-1,-1,-1,-1,-1],"loss_changes":[1.648872E-2,1.436347E-2,1.5792767E-2,6.7120465E-3,1.7764471E-2,0E0,1.3487347E-4,1.0480418E-2,1.0770678E-2,8.471923E-3,7.887057E-3,0E0,2.4270077E-4,0E0,0E0,0E0,0E0,0E0,0E0,0E0,0E0,0E0,0E0],"parents":[2147483647,0,0,1,1,2,2,3,3,4,4,6,6,7,7,8,8,9,9,10,10,12,12],"right_children":[2,4,6,8,10,-1,12,14,16,18,20,-1,22,-1,-1,-1,-1,-1,-1,-1,-1,-1,-1],"split_conditions":[7.448275E1,-6.634214E-2,7.9807386E0,9.677796E0,2E0,2.440508E-3,5.0748367E0,5.560298E0,1.0807768E1,6.7626996E0,4.4071926E-3,-0E0,5.341159E-1,-1.1888108E-4,3.31338E-4,-7.90315E-4,6.464229E-5,-1.6280601E-3,-0E0,-2.0872788E-4,1.7745513E-4,2.1484116E-4,-0E0],"split_indices":[2,3,5,5,1,0,6,5,5,5,4,0,4,0,0,0,0,0,0,0,0,0,0],"split_type":[0,0,0,0,0,0,0,0,0,0,0,0,0,0,0,0,0,0,0,0,0,0,0],"sum_hessian":[5.43E2,5.28E2,1.5E1,3.04E2,2.24E2,4E0,1.1E1,2.35E2,6.9E1,1.8E1,2.06E2,2E0,9E0,5E1,1.85E2,1.5E1,5.4E1,1E1,8E0,1.43E2,6.3E1,7E0,2E0],"tree_param":{"num_deleted":"0","num_feature":"12","num_nodes":"23","size_leaf_vector":"1"}},{"base_weights":[-5.1816244E-4,5.771273E-3,-2.7908497E-3,7.3542096E-2,-0E0,1.1431162E-3,-3.556542E-3,-0E0,2.8180622E-3,-1.0138954E-3,5.6474726E-4,-5.0730165E-3,2.6587376E-3,3.4975386E-4,-1.5197952E-4,-1.952474E-4,1.4016498E-4,3.6389494E-4,-1.8205431E-4],"categories":[],"categories_nodes":[],"categories_segments":[],"categories_sizes":[],"default_left":[0,0,0,0,0,0,0,0,0,0,0,0,0,0,0,0,0,0,0],"id":50,"left_children":[1,3,5,7,9,-1,11,-1,-1,-1,13,15,17,-1,-1,-1,-1,-1,-1],"loss_changes":[7.222372E-3,5.5229466E-2,9.143268E-3,1.1098053E-2,4.6054944E-3,0E0,3.9684894E-3,0E0,0E0,0E0,7.901868E-3,4.8295846E-3,6.0524023E-3,0E0,0E0,0E0,0E0,0E0,0E0],"parents":[2147483647,0,0,1,1,2,2,3,3,4,4,6,6,10,10,11,11,12,12],"right_children":[2,4,6,8,10,-1,12,-1,-1,-1,14,16,18,-1,-1,-1,-1,-1,-1],"split_conditions":[1.9659921E0,-9.738598E-2,4.9504943E0,1.720549E0,4.9145265E0,1.1431162E-3,5.9801867E-5,-0E0,2.8180622E-3,-1.0138954E-3,-4.8487026E-2,1.1298722E1,4.900662E1,3.4975386E-4,-1.5197952E-4,-1.952474E-4,1.4016498E-4,3.6389494E-4,-1.8205431E-4],"split_indices":[0,4,2,0,5,0,4,0,0,0,4,5,2,0,0,0,0,0,0],"split_type":[0,0,0,0,0,0,0,0,0,0,0,0,0,0,0,0,0,0,0],"sum_hessian":[5.24E2,1.27E2,3.97E2,1E1,1.17E2,4E0,3.93E2,3E0,7E0,3E0,1.14E2,3.29E2,6.4E1,4.4E1,7E1,2.96E2,3.3E1,3.6E1,2.8E1],"tree_param":{"num_deleted":"0","num_feature":"12","num_nodes":"19","size_leaf_vector":"1"}}]},"name":"gbtree"},"learner_model_param":{"base_score":"[-7.554505E-3]","boost_from_average":"1","num_class":"0","num_feature":"12","num_target":"1"},"objective":{"name":"reg:squarederror","reg_loss_param":{"scale_pos_weight":"1"}}},"version":[3,2,0]}