{"learner":{"attributes":{"best_iteration":"42","best_score":"0.033705366001076","scikit_learn":"{\"_estimator_type\": \"regressor\"}"},"feature_names":["Fourier_Dominant","HMM_State","RSI","MACD","MACD_Signal","BB_Upper","BB_Lower","Close_Lag_1","Close_Lag_2","Close_Lag_3","Close_Lag_4","Close_Lag_5"],"feature_types":["float","int","float","float","float","float","float","float","float","float","float","float"],"gradient_booster":{"model":{"cats":{"enc":[],"feature_segments":[],"sorted_idx":[]},"gbtree_model_param":{"num_parallel_tree":"1","num_trees":"93"},"iteration_indptr":[0,1,2,3,4,5,6,7,8,9,10,11,12,13,14,15,16,17,18,19,20,21,22,23,24,25,26,27,28,29,30,31,32,33,34,35,36,37,38,39,40,41,42,43,44,45,46,47,48,49,50,51,52,53,54,55,56,57,58,59,60,61,62,63,64,65,66,67,68,69,70,71,72,73,74,75,76,77,78,79,80,81,82,83,84,85,86,87,88,89,90,91,92,93],"tree_info":[0,0,0,0,0,0,0,0,0,0,0,0,0,0,0,0,0,0,0,0,0,0,0,0,0,0,0,0,0,0,0,0,0,0,0,0,0,0,0,0,0,0,0,0,0,0,0,0,0,0,0,0,0,0,0,0,0,0,0,0,0,0,0,0,0,0,0,0,0,0,0,0,0,0,0,0,0,0,0,0,0,0,0,0,0,0,0,0,0,0,0,0,0],"trees":[{"base_weights":[2.5356649E-5,1.9509168E-2,-2.5472962E-3,3.651386E-2,2.544808E-4,6.304814E-2,-4.0391916E-3,9.841036E-3,5.986343E-2,-4.0455544E-3,7.5825714E-3,-0E0,3.0919593E-3,-1.9994281E-2,-9.772707E-4,4.4655608E-4,-0E0,3.2142331E-4,2.4958963E-3,-0E0,-1.2586359E-4,5.5672583E-4,-0E0,-1.8611203E-4,-8.9252036E-4,-2.213607E-4,1.2559438E-4],"categories":[],"categories_nodes":[],"categories_segments":[],"categories_sizes":[],"default_left":[0,0,0,0,0,0,0,0,0,0,0,0,0,0,0,0,0,0,0,0,0,0,0,0,0,0,0],"id":0,"left_children":[1,3,5,7,9,11,13,15,17,19,21,-1,-1,23,25,-1,-1,-1,-1,-1,-1,-1,-1,-1,-1,-1,-1],"loss_changes":[3.1119183E-2,2.021554E-2,4.465459E-2,1.48612E-2,1.5817973E-3,2.3984075E-2,2.2554178E-2,9.434809E-4,9.213265E-3,2.1632586E-6,2.465806E-3,0E0,0E0,6.4454935E-3,1.4563902E-2,0E0,0E0,0E0,0E0,0E0,0E0,0E0,0E0,0E0,0E0,0E0,0E0],"parents":[2147483647,0,0,1,1,2,2,3,3,4,4,5,5,6,6,7,7,8,8,9,9,10,10,13,13,14,14],"right_children":[2,4,6,8,10,12,14,16,18,20,22,-1,-1,24,26,-1,-1,-1,-1,-1,-1,-1,-1,-1,-1,-1,-1],"split_conditions":[-1.0850847E-1,5.087749E0,6.891169E0,2E0,7.933912E0,4.977509E0,7.778472E0,-1.2566017E-1,-1.2873974E-1,6.470186E0,9.208889E0,-0E0,3.0919593E-3,-5.198264E-2,4.7321565E-2,4.4655608E-4,-0E0,3.2142331E-4,2.4958963E-3,-0E0,-1.2586359E-4,5.5672583E-4,-0E0,-1.8611203E-4,-8.9252036E-4,-2.213607E-4,1.2559438E-4],"split_indices":[4,0,9,1,7,0,9,4,3,7,7,0,0,4,3,0,0,0,0,0,0,0,0,0,0,0,0],"split_type":[0,0,0,0,0,0,0,0,0,0,0,0,0,0,0,0,0,0,0,0,0,0,0,0,0,0,0],"sum_hessian":[5.85E2,7.2E1,5.13E2,3.5E1,3.7E1,9E0,5.04E2,1.9E1,1.6E1,1.5E1,2.2E1,4E0,5E0,7.5E1,4.29E2,1.2E1,7E0,7E0,9E0,1E0,1.4E1,1E1,1.2E1,3.6E1,3.9E1,2E2,2.29E2],"tree_param":{"num_deleted":"0","num_feature":"12","num_nodes":"27","size_leaf_vector":"1"}},{"base_weights":[1.8453444E-4,2.035953E-2,-2.407006E-3,4.1888844E-2,-0E0,4.3146506E-2,-3.8516861E-3,5.3418044E-2,8.9644453E-7,-4.5718635E-3,8.978166E-3,8.530006E-2,-0E0,-1.7769584E-2,-5.399677E-4,-0E0,1.7638932E-3,-1.7560374E-4,-0E0,-0E0,5.287797E-4,-0E0,2.8169744E-3,-0E0,4.1501343E-4,-2.0877492E-4,-7.4133463E-4,2.665148E-5,-5.715818E-4],"categories":[],"categories_nodes":[],"categories_segments":[],"categories_sizes":[],"default_left":[0,0,0,0,0,0,0,0,0,0,0,0,0,0,0,0,0,0,0,0,0,0,0,0,0,0,0,0,0],"id":1,"left_children":[1,3,5,7,9,11,13,15,-1,17,19,21,23,25,27,-1,-1,-1,-1,-1,-1,-1,-1,-1,-1,-1,-1,-1,-1],"loss_changes":[3.2848854E-2,2.805954E-2,3.0589657E-2,1.0579422E-2,2.05109E-3,1.7593903E-2,2.162036E-2,7.570766E-3,0E0,2.1205583E-4,1.8052817E-3,4.2865425E-4,9.5686765E-4,3.5647973E-3,1.28864115E-2,0E0,0E0,0E0,0E0,0E0,0E0,0E0,0E0,0E0,0E0,0E0,0E0,0E0,0E0],"parents":[2147483647,0,0,1,1,2,2,3,3,4,4,5,5,6,6,7,7,9,9,10,10,11,11,12,12,13,13,14,14],"right_children":[2,4,6,8,10,12,14,16,-1,18,20,22,24,26,28,-1,-1,-1,-1,-1,-1,-1,-1,-1,-1,-1,-1,-1,-1],"split_conditions":[-1.1016741E-1,5.087749E0,6.891169E0,7.623032E0,-1.6866958E-1,6.839356E0,8.271826E0,-1.7531396E-1,8.9644453E-7,1.141E1,5.723449E0,1.5495155E0,1.1146199E-1,-5.3505953E-2,1.2329285E1,-0E0,1.7638932E-3,-1.7560374E-4,-0E0,-0E0,5.287797E-4,-0E0,2.8169744E-3,-0E0,4.1501343E-4,-2.0877492E-4,-7.4133463E-4,2.665148E-5,-5.715818E-4],"split_indices":[4,0,11,10,4,7,5,3,0,8,0,0,3,4,5,0,0,0,0,0,0,0,0,0,0,0,0,0,0],"split_type":[0,0,0,0,0,0,0,0,0,0,0,0,0,0,0,0,0,0,0,0,0,0,0,0,0,0,0,0,0],"sum_hessian":[5.92E2,7.1E1,5.21E2,3.2E1,3.9E1,1.3E1,5.08E2,2.3E1,9E0,2E1,1.9E1,5E0,8E0,9.1E1,4.17E2,2E0,2.1E1,1.8E1,2E0,9E0,1E1,1E0,4E0,4E0,4E0,4.2E1,4.9E1,3.83E2,3.4E1],"tree_param":{"num_deleted":"0","num_feature":"12","num_nodes":"29","size_leaf_vector":"1"}},{"base_weights":[-0E0,3.498748E-2,-1.5743558E-3,-0E0,6.920562E-2,2.9623837E-3,-6.6855596E-3,-0E0,-6.7303954E-5,3.0094127E-3,-0E0,9.773905E-3,-0E0,-8.763824E-3,2.5393903E-2,-0E0,-5.7537112E-5,-0E0,6.2405237E-4,3.8430534E-4,-5.205204E-5,6.7643734E-5,-3.557847E-4,1.2745685E-3,-0E0],"categories":[],"categories_nodes":[],"categories_segments":[],"categories_sizes":[],"default_left":[0,0,0,0,0,0,0,0,0,0,0,0,0,0,0,0,0,0,0,0,0,0,0,0,0],"id":2,"left_children":[1,3,5,7,9,11,13,-1,-1,-1,15,17,19,21,23,-1,-1,-1,-1,-1,-1,-1,-1,-1,-1],"loss_changes":[3.443935E-2,3.878993E-2,1.3377516E-2,4.529823E-5,3.8850084E-2,4.8371186E-3,1.682701E-2,0E0,0E0,0E0,1.471342E-5,8.654615E-3,5.7931044E-3,9.889906E-3,9.022371E-3,0E0,0E0,0E0,0E0,0E0,0E0,0E0,0E0,0E0,0E0],"parents":[2147483647,0,0,1,1,2,2,3,3,4,4,5,5,6,6,10,10,11,11,12,12,13,13,14,14],"right_children":[2,4,6,8,10,12,14,-1,-1,-1,16,18,20,22,24,-1,-1,-1,-1,-1,-1,-1,-1,-1,-1],"split_conditions":[7.448568E0,-1.5296748E-1,2E0,5.012214E0,5.2358486E1,2.02632E0,9.628176E0,-0E0,-6.7303954E-5,3.0094127E-3,1.5495155E0,5.058139E1,-1.2566017E-1,7.1977124E0,2.5459588E-1,-0E0,-5.7537112E-5,-0E0,6.2405237E-4,3.8430534E-4,-5.205204E-5,6.7643734E-5,-3.557847E-4,1.2745685E-3,-0E0],"split_indices":[5,4,1,0,2,0,0,0,0,0,0,2,4,6,4,0,0,0,0,0,0,0,0,0,0],"split_type":[0,0,0,0,0,0,0,0,0,0,0,0,0,0,0,0,0,0,0,0,0,0,0,0,0],"sum_hessian":[5.85E2,2.6E1,5.59E2,1.2E1,1.4E1,2.86E2,2.73E2,4E0,8E0,1E1,4E0,7.6E1,2.1E2,2.6E2,1.3E1,1E0,3E0,4E1,3.6E1,3.1E1,1.79E2,5E1,2.1E2,9E0,4E0],"tree_param":{"num_deleted":"0","num_feature":"12","num_nodes":"25","size_leaf_vector":"1"}},{"base_weights":[-6.602645E-5,2.5092335E-2,-2.2779838E-3,-2.3618871E-3,4.718633E-2,-3.4716174E-3,2.236136E-2,1.4318369E-4,-9.3643665E-3,6.1743125E-2,1.0128236E-4,1.9100214E-3,-9.532386E-3,4.592592E-2,4.404282E-3,-0E0,-3.1282433E-4,4.145357E-4,2.5875235E-3,2.028777E-4,-0E0,-1.9909753E-4,1.4815596E-4,-4.2280887E-4,-4.64883E-5,-0E0,1.523876E-3,2.0653533E-4,-0E0],"categories":[],"categories_nodes":[],"categories_segments":[],"categories_sizes":[],"default_left":[0,0,0,0,0,0,0,0,0,0,0,0,0,0,0,0,0,0,0,0,0,0,0,0,0,0,0,0,0],"id":3,"left_children":[1,3,5,7,9,11,13,-1,15,17,19,21,23,25,27,-1,-1,-1,-1,-1,-1,-1,-1,-1,-1,-1,-1,-1,-1],"loss_changes":[3.1220907E-2,3.18897E-2,1.457022E-2,1.4530999E-3,1.2315307E-2,1.8263085E-2,4.074023E-3,0E0,1.4023122E-4,1.1117525E-2,3.2003602E-4,7.006812E-3,7.917209E-3,7.1698986E-4,4.0058416E-4,0E0,0E0,0E0,0E0,0E0,0E0,0E0,0E0,0E0,0E0,0E0,0E0,0E0,0E0],"parents":[2147483647,0,0,1,1,2,2,3,3,4,4,5,5,6,6,8,8,9,9,10,10,11,11,12,12,13,13,14,14],"right_children":[2,4,6,8,10,12,14,-1,16,18,20,22,24,26,28,-1,-1,-1,-1,-1,-1,-1,-1,-1,-1,-1,-1,-1,-1],"split_conditions":[7.098422E0,2.4999996E1,9.679452E0,4.5605764E0,5.2358486E1,2E0,5.563909E1,1.4318369E-4,-2.2589462E-1,-1.2873974E-1,7.485379E1,8.100318E0,6.952847E-2,2E0,7.485379E1,-0E0,-3.1282433E-4,4.145357E-4,2.5875235E-3,2.028777E-4,-0E0,-1.9909753E-4,1.4815596E-4,-4.2280887E-4,-4.64883E-5,-0E0,1.523876E-3,2.0653533E-4,-0E0],"split_indices":[10,2,0,0,2,1,2,0,3,3,2,9,3,1,2,0,0,0,0,0,0,0,0,0,0,0,0,0,0],"split_type":[0,0,0,0,0,0,0,0,0,0,0,0,0,0,0,0,0,0,0,0,0,0,0,0,0,0,0,0,0],"sum_hessian":[6E2,4.4E1,5.56E2,1.8E1,2.6E1,5.35E2,2.1E1,2E0,1.6E1,1.8E1,8E0,2.75E2,2.6E2,6E0,1.5E1,2E0,1.4E1,8E0,1E1,6E0,2E0,6.3E1,2.12E2,1.57E2,1.03E2,1E0,5E0,1.4E1,1E0],"tree_param":{"num_deleted":"0","num_feature":"12","num_nodes":"29","size_leaf_vector":"1"}},{"base_weights":[-3.78564E-4,2.1888638E-2,-2.616749E-3,-1.9548559E-3,3.653866E-2,-2.3762418E-2,-9.2454976E-4,-7.217888E-3,-0E0,5.3318996E-2,-0E0,-0E0,-3.187889E-2,1.02757454E-4,-1.5189786E-2,-0E0,-2.2828575E-4,-0E0,2.1207277E-3,-3.7455608E-5,-0E0,-0E0,-5.7289824E-5,-9.893809E-4,-0E0,-1.0715432E-4,1.6137547E-4,-2.0488747E-5,-7.3987397E-4],"categories":[],"categories_nodes":[],"categories_segments":[],"categories_sizes":[],"default_left":[0,0,0,0,0,0,0,0,0,0,0,0,0,0,0,0,0,0,0,0,0,0,0,0,0,0,0,0,0],"id":4,"left_children":[1,3,5,7,9,11,13,15,-1,17,19,21,23,25,27,-1,-1,-1,-1,-1,-1,-1,-1,-1,-1,-1,-1,-1,-1],"loss_changes":[2.7036196E-2,2.0645889E-2,1.6545722E-2,6.644058E-4,2.1329619E-2,3.6112238E-3,8.8083455E-3,2.3392728E-5,0E0,1.9565456E-2,1.4029229E-5,4.3761658E-5,5.5398233E-4,9.099311E-3,2.9453551E-3,0E0,0E0,0E0,0E0,0E0,0E0,0E0,0E0,0E0,0E0,0E0,0E0,0E0,0E0],"parents":[2147483647,0,0,1,1,2,2,3,3,4,4,5,5,6,6,7,7,9,9,10,10,11,11,12,12,13,13,14,14],"right_children":[2,4,6,8,10,12,14,16,-1,18,20,22,24,26,28,-1,-1,-1,-1,-1,-1,-1,-1,-1,-1,-1,-1,-1,-1],"split_conditions":[7.098422E0,-1.690658E-1,7.8373704E0,7.7899895E0,4.2870067E-2,-4.6931513E-2,1.2329285E1,-2.0850623E-1,-0E0,-1.6866958E-1,1.1449975E-1,-1.2873974E-1,7.8026958E0,5.335145E-2,1.6538154E-1,-0E0,-2.2828575E-4,-0E0,2.1207277E-3,-3.7455608E-5,-0E0,-0E0,-5.7289824E-5,-9.893809E-4,-0E0,-1.0715432E-4,1.6137547E-4,-2.0488747E-5,-7.3987397E-4],"split_indices":[9,3,5,5,3,4,5,4,0,4,3,3,5,3,4,0,0,0,0,0,0,0,0,0,0,0,0,0,0],"split_type":[0,0,0,0,0,0,0,0,0,0,0,0,0,0,0,0,0,0,0,0,0,0,0,0,0,0,0,0,0],"sum_hessian":[5.79E2,4.8E1,5.31E2,1.6E1,3.2E1,3.4E1,4.97E2,1.3E1,3E0,2.2E1,1E1,1.2E1,2.2E1,4.58E2,3.9E1,1E0,1.2E1,6E0,1.6E1,8E0,2E0,1E0,1.1E1,2.1E1,1E0,2.59E2,1.99E2,2E1,1.9E1],"tree_param":{"num_deleted":"0","num_feature":"12","num_nodes":"29","size_leaf_vector":"1"}},{"base_weights":[3.3525212E-4,2.1433318E-2,-2.3838973E-3,-0E0,4.1956913E-2,4.2037513E-2,-3.707612E-3,-4.2574303E-3,8.711401E-3,6.935948E-2,1.1566883E-2,6.90498E-2,-0E0,-1.6762165E-2,-4.7710654E-4,-0E0,-1.702978E-4,-0E0,4.280736E-4,-0E0,2.3016382E-3,6.974833E-4,-0E0,-0E0,2.4957042E-3,-2.2486142E-4,-7.400942E-4,1.4249151E-5,-8.619971E-4],"categories":[],"categories_nodes":[],"categories_segments":[],"categories_sizes":[],"default_left":[0,0,0,0,0,0,0,0,0,0,0,0,0,0,0,0,0,0,0,0,0,0,0,0,0,0,0,0,0],"id":5,"left_children":[1,3,5,7,9,11,13,15,17,19,21,23,-1,25,27,-1,-1,-1,-1,-1,-1,-1,-1,-1,-1,-1,-1,-1,-1],"loss_changes":[3.5975736E-2,3.0297898E-2,2.7017131E-2,1.5552191E-3,2.1084614E-2,1.5170012E-2,1.9776206E-2,2.2758287E-4,1.5085735E-3,6.509781E-3,3.270047E-3,3.380604E-3,0E0,3.5600215E-3,1.4030727E-2,0E0,0E0,0E0,0E0,0E0,0E0,0E0,0E0,0E0,0E0,0E0,0E0,0E0,0E0],"parents":[2147483647,0,0,1,1,2,2,3,3,4,4,5,5,6,6,7,7,8,8,9,9,10,10,11,11,13,13,14,14],"right_children":[2,4,6,8,10,12,14,16,18,20,22,24,-1,26,28,-1,-1,-1,-1,-1,-1,-1,-1,-1,-1,-1,-1,-1,-1],"split_conditions":[-1.1016741E-1,-1.6205895E-1,6.8652625E0,-1.5850595E-1,7.4715524E0,7.419354E1,8.2663765E0,5.469179E0,7.7899895E0,-1.6285405E-1,-1.3103491E-1,6.7681127E0,-0E0,-4.6931513E-2,1.2055555E1,-0E0,-1.702978E-4,-0E0,4.280736E-4,-0E0,2.3016382E-3,6.974833E-4,-0E0,-0E0,2.4957042E-3,-2.2486142E-4,-7.400942E-4,1.4249151E-5,-8.619971E-4],"split_indices":[4,3,10,4,7,2,5,0,5,4,4,7,0,4,7,0,0,0,0,0,0,0,0,0,0,0,0,0,0],"split_type":[0,0,0,0,0,0,0,0,0,0,0,0,0,0,0,0,0,0,0,0,0,0,0,0,0,0,0,0,0],"sum_hessian":[5.92E2,7.1E1,5.21E2,3.6E1,3.5E1,1.2E1,5.09E2,2.2E1,1.4E1,1.6E1,1.9E1,7E0,5E0,9.4E1,4.15E2,3E0,1.9E1,2E0,1.2E1,2E0,1.4E1,1E1,9E0,2E0,5E0,5E1,4.4E1,3.99E2,1.6E1],"tree_param":{"num_deleted":"0","num_feature":"12","num_nodes":"29","size_leaf_vector":"1"}},{"base_weights":[1.1007468E-3,2.5642091E-2,-6.0149695E-4,-2.7721403E-3,5.005101E-2,-2.1520538E-2,8.007713E-4,-5.8322833E-3,-0E0,7.7464856E-2,1.519664E-3,-0E0,-2.2678282E-2,4.2442292E-2,-1.1274219E-4,-0E0,-1.8331807E-4,-0E0,2.6285304E-3,3.932397E-4,-0E0,-7.022387E-4,-0E0,1.9581087E-3,-0E0,1.04244045E-5,-7.9731335E-4],"categories":[],"categories_nodes":[],"categories_segments":[],"categories_sizes":[],"default_left":[0,0,0,0,0,0,0,0,0,0,0,0,0,0,0,0,0,0,0,0,0,0,0,0,0,0,0],"id":6,"left_children":[1,3,5,7,9,11,13,15,-1,17,19,-1,21,23,25,-1,-1,-1,-1,-1,-1,-1,-1,-1,-1,-1,-1],"loss_changes":[2.6456758E-2,3.3302628E-2,1.7724289E-2,3.0387618E-4,2.3914173E-2,9.15885E-4,2.3105625E-2,5.871698E-6,0E0,8.11103E-3,1.3491521E-3,0E0,6.62677E-4,1.492437E-2,8.527073E-3,0E0,0E0,0E0,0E0,0E0,0E0,0E0,0E0,0E0,0E0,0E0,0E0],"parents":[2147483647,0,0,1,1,2,2,3,3,4,4,5,5,6,6,7,7,9,9,10,10,12,12,13,13,14,14],"right_children":[2,4,6,8,10,12,14,16,-1,18,20,-1,22,24,26,-1,-1,-1,-1,-1,-1,-1,-1,-1,-1,-1,-1],"split_conditions":[7.0401325E0,2.4017466E1,7.8373704E0,-1.7802908E-1,5.2358486E1,6.9753656E0,7.409302E0,-2.2589462E-1,-0E0,6.3471293E0,7.510729E1,-0E0,7.5561304E0,7.1359754E0,1.2820398E1,-0E0,-1.8331807E-4,-0E0,2.6285304E-3,3.932397E-4,-0E0,-7.022387E-4,-0E0,1.9581087E-3,-0E0,1.04244045E-5,-7.9731335E-4],"split_indices":[11,2,5,3,2,10,9,3,0,8,2,0,6,6,5,0,0,0,0,0,0,0,0,0,0,0,0],"split_type":[0,0,0,0,0,0,0,0,0,0,0,0,0,0,0,0,0,0,0,0,0,0,0,0,0,0,0],"sum_hessian":[5.72E2,4E1,5.32E2,1.7E1,2.3E1,3.7E1,4.95E2,1.2E1,5E0,1.3E1,1E1,2E0,3.5E1,1.2E1,4.83E2,1E0,1.1E1,2E0,1.1E1,7E0,3E0,3.4E1,1E0,8E0,4E0,4.72E2,1.1E1],"tree_param":{"num_deleted":"0","num_feature":"12","num_nodes":"27","size_leaf_vector":"1"}},{"base_weights":[-5.814271E-4,1.9437052E-2,-2.2724248E-3,-4.985294E-3,4.2128198E-2,-2.2123987E-2,-6.6323206E-4,-6.8957224E-3,-0E0,5.828296E-2,-0E0,-8.420474E-4,-3.210685E-3,4.008114E-2,-1.250555E-3,-0E0,-2.321714E-4,-0E0,2.0685482E-3,1.5763241E-4,-0E0,-0E0,-1.5645225E-4,-0E0,1.7065895E-3,-1.3641536E-5,-6.3403597E-4],"categories":[],"categories_nodes":[],"categories_segments":[],"categories_sizes":[],"default_left":[0,0,0,0,0,0,0,0,0,0,0,0,0,0,0,0,0,0,0,0,0,0,0,0,0,0,0],"id":7,"left_children":[1,3,5,7,9,11,13,15,-1,17,19,-1,21,23,25,-1,-1,-1,-1,-1,-1,-1,-1,-1,-1,-1,-1],"loss_changes":[1.8536875E-2,2.7199492E-2,1.5468019E-2,2.8860584E-4,1.17556155E-2,9.4173476E-4,8.61072E-3,7.768412E-5,0E0,7.455755E-3,1.9326208E-4,0E0,2.0924215E-4,4.9117235E-3,5.9968596E-3,0E0,0E0,0E0,0E0,0E0,0E0,0E0,0E0,0E0,0E0,0E0,0E0],"parents":[2147483647,0,0,1,1,2,2,3,3,4,4,5,5,6,6,7,7,9,9,10,10,12,12,13,13,14,14],"right_children":[2,4,6,8,10,12,14,16,-1,18,20,-1,22,24,26,-1,-1,-1,-1,-1,-1,-1,-1,-1,-1,-1,-1],"split_conditions":[7.0401325E0,2.4017466E1,7.8373704E0,-1.690658E-1,5.2358486E1,4.6616025E0,7.3344445E0,-2.2589462E-1,-0E0,6.398943E0,7.510729E1,-8.420474E-4,5.027608E0,3.142312E0,1.2820398E1,-0E0,-2.321714E-4,-0E0,2.0685482E-3,1.5763241E-4,-0E0,-0E0,-1.5645225E-4,-0E0,1.7065895E-3,-1.3641536E-5,-6.3403597E-4],"split_indices":[10,2,5,3,2,0,10,3,0,8,2,0,0,0,5,0,0,0,0,0,0,0,0,0,0,0,0],"split_type":[0,0,0,0,0,0,0,0,0,0,0,0,0,0,0,0,0,0,0,0,0,0,0,0,0,0,0],"sum_hessian":[5.96E2,4.1E1,5.55E2,1.8E1,2.3E1,3.6E1,5.19E2,1.5E1,3E0,1.5E1,8E0,2.3E1,1.3E1,4E0,5.15E2,2E0,1.3E1,3E0,1.2E1,6E0,2E0,1E0,1.2E1,1E0,3E0,5.01E2,1.4E1],"tree_param":{"num_deleted":"0","num_feature":"12","num_nodes":"27","size_leaf_vector":"1"}},{"base_weights":[1.7989901E-4,2.3015492E-2,-1.324488E-3,-0E0,3.9016582E-2,-2.1897705E-2,-0E0,1.2892738E-4,-6.7681777E-3,4.7402717E-2,-0E0,-1.0656028E-3,-7.629388E-3,3.67831E-2,-6.0590036E-4,-0E0,-2.3454928E-4,-0E0,1.7661719E-3,-0E0,-3.278008E-4,-0E0,1.9431388E-3,-4.8543952E-5,5.096888E-4],"categories":[],"categories_nodes":[],"categories_segments":[],"categories_sizes":[],"default_left":[0,0,0,0,0,0,0,0,0,0,0,0,0,0,0,0,0,0,0,0,0,0,0,0,0],"id":8,"left_children":[1,3,5,7,9,11,13,-1,15,17,-1,-1,19,21,23,-1,-1,-1,-1,-1,-1,-1,-1,-1,-1],"loss_changes":[2.2674311E-2,1.7861407E-2,1.3889421E-2,6.6938373E-4,1.2101769E-2,1.4394773E-3,9.661875E-3,0E0,7.68787E-5,7.2399043E-3,0E0,0E0,5.0734566E-4,7.3103085E-3,7.7519305E-3,0E0,0E0,0E0,0E0,0E0,0E0,0E0,0E0,0E0,0E0],"parents":[2147483647,0,0,1,1,2,2,3,3,4,4,5,5,6,6,8,8,9,9,12,12,13,13,14,14],"right_children":[2,4,6,8,10,12,14,-1,16,18,-1,-1,20,22,24,-1,-1,-1,-1,-1,-1,-1,-1,-1,-1],"split_conditions":[7.098422E0,2.4999996E1,7.8026958E0,5.012214E0,7.510729E1,4.031007E1,7.3356028E0,1.2892738E-4,-2.2589462E-1,-1.2873974E-1,-0E0,-1.0656028E-3,-4.080739E-2,3.5691113E0,9.835722E0,-0E0,-2.3454928E-4,-0E0,1.7661719E-3,-0E0,-3.278008E-4,-0E0,1.9431388E-3,-4.8543952E-5,5.096888E-4],"split_indices":[11,2,5,0,2,2,9,0,3,3,0,0,3,0,0,0,0,0,0,0,0,0,0,0,0],"split_type":[0,0,0,0,0,0,0,0,0,0,0,0,0,0,0,0,0,0,0,0,0,0,0,0,0],"sum_hessian":[5.95E2,4E1,5.55E2,1.5E1,2.5E1,3E1,5.25E2,3E0,1.2E1,2.2E1,3E0,1.1E1,1.9E1,6E0,5.19E2,2E0,1E1,6E0,1.6E1,6E0,1.3E1,3E0,3E0,4.97E2,2.2E1],"tree_param":{"num_deleted":"0","num_feature":"12","num_nodes":"25","size_leaf_vector":"1"}},{"base_weights":[-0E0,1.4517168E-2,-1.9889232E-3,-0E0,3.13344E-2,5.946005E-2,-3.5214971E-3,4.4758982E-4,-3.8587046E-3,3.498087E-2,-0E0,-0E0,6.7203924E-2,-1.5896E-2,-3.7156083E-4,-2.3468661E-4,-0E0,5.871633E-4,2.0558378E-3,2.1734606E-3,-0E0,-2.2217704E-4,-7.158819E-4,-1.6784646E-4,1.100481E-4],"categories":[],"categories_nodes":[],"categories_segments":[],"categories_sizes":[],"default_left":[0,0,0,0,0,0,0,0,0,0,0,0,0,0,0,0,0,0,0,0,0,0,0,0,0],"id":9,"left_children":[1,3,5,7,9,11,13,-1,15,17,-1,-1,19,21,23,-1,-1,-1,-1,-1,-1,-1,-1,-1,-1],"loss_changes":[1.742186E-2,1.7016258E-2,4.311571E-2,2.70243E-3,4.308969E-3,6.273195E-3,1.8051682E-2,0E0,1.0534719E-3,5.3563155E-3,0E0,0E0,2.0756386E-3,3.1896904E-3,8.864732E-3,0E0,0E0,0E0,0E0,0E0,0E0,0E0,0E0,0E0,0E0],"parents":[2147483647,0,0,1,1,2,2,3,3,4,4,5,5,6,6,8,8,9,9,12,12,13,13,14,14],"right_children":[2,4,6,8,10,12,14,-1,16,18,-1,-1,20,22,24,-1,-1,-1,-1,-1,-1,-1,-1,-1,-1],"split_conditions":[-1.1016741E-1,-1.6205895E-1,6.891169E0,4.705938E0,8.290128E0,5.952457E0,8.271826E0,4.4758982E-4,1.1332222E1,-1.1819303E-1,-0E0,-0E0,7.7849483E0,-4.6931513E-2,5.335145E-2,-2.3468661E-4,-0E0,5.871633E-4,2.0558378E-3,2.1734606E-3,-0E0,-2.2217704E-4,-7.158819E-4,-1.6784646E-4,1.100481E-4],"split_indices":[4,3,10,0,7,6,5,0,8,4,0,0,7,4,3,0,0,0,0,0,0,0,0,0,0],"split_type":[0,0,0,0,0,0,0,0,0,0,0,0,0,0,0,0,0,0,0,0,0,0,0,0,0],"sum_hessian":[5.86E2,7.2E1,5.14E2,4E1,3.2E1,1E1,5.04E2,9E0,3.1E1,2.9E1,3E0,1E0,9E0,9.5E1,4.09E2,2.4E1,7E0,2.3E1,6E0,8E0,1E0,5.3E1,4.2E1,1.89E2,2.2E2],"tree_param":{"num_deleted":"0","num_feature":"12","num_nodes":"25","size_leaf_vector":"1"}},{"base_weights":[-0E0,1.4437551E-2,-1.3843209E-3,2.4839846E-4,4.2749833E-2,-2.0917485E-2,3.650036E-5,2.8631581E-2,-3.0492905E-3,-0E0,5.7831347E-2,-2.658139E-2,-3.8023032E-3,3.854087E-2,-5.348027E-4,-0E0,1.0151654E-3,-2.8102088E-4,3.1243626E-4,2.1037955E-3,-0E0,-0E0,-8.5977174E-4,-0E0,-1.9569522E-4,-0E0,2.203409E-3,8.648405E-5,-1.5461826E-4],"categories":[],"categories_nodes":[],"categories_segments":[],"categories_sizes":[],"default_left":[0,0,0,0,0,0,0,0,0,0,0,0,0,0,0,0,0,0,0,0,0,0,0,0,0,0,0,0,0],"id":10,"left_children":[1,3,5,7,9,11,13,15,17,-1,19,21,23,25,27,-1,-1,-1,-1,-1,-1,-1,-1,-1,-1,-1,-1,-1,-1],"loss_changes":[1.1265774E-2,1.5374197E-2,1.7325334E-2,6.0150954E-3,1.1203436E-2,9.3198754E-4,1.499603E-2,1.1320328E-3,2.544803E-3,0E0,7.47044E-3,1.4561452E-3,1.9419786E-4,1.2118303E-2,8.119381E-3,0E0,0E0,0E0,0E0,0E0,0E0,0E0,0E0,0E0,0E0,0E0,0E0,0E0,0E0],"parents":[2147483647,0,0,1,1,2,2,3,3,4,4,5,5,6,6,7,7,8,8,10,10,11,11,12,12,13,13,14,14],"right_children":[2,4,6,8,10,12,14,16,18,-1,20,22,24,26,28,-1,-1,-1,-1,-1,-1,-1,-1,-1,-1,-1,-1,-1,-1],"split_conditions":[7.098422E0,6.524522E0,7.860766E0,6.470186E0,6.7681127E0,7.6144447E0,7.3356028E0,6.3471293E0,7.318889E0,-0E0,4.369747E1,6.9753656E0,4.7272724E1,7.24497E0,2E0,-0E0,1.0151654E-3,-2.8102088E-4,3.1243626E-4,2.1037955E-3,-0E0,-0E0,-8.5977174E-4,-0E0,-1.9569522E-4,-0E0,2.203409E-3,8.648405E-5,-1.5461826E-4],"split_indices":[11,6,5,11,7,7,8,7,7,0,2,10,2,8,1,0,0,0,0,0,0,0,0,0,0,0,0,0,0],"split_type":[0,0,0,0,0,0,0,0,0,0,0,0,0,0,0,0,0,0,0,0,0,0,0,0,0,0,0,0,0],"sum_hessian":[5.96E2,4.8E1,5.48E2,3.5E1,1.3E1,4.1E1,5.07E2,6E0,2.9E1,3E0,1E1,2.6E1,1.5E1,9E0,4.98E2,1E0,5E0,2.5E1,4E0,8E0,2E0,2E0,2.4E1,6E0,9E0,5E0,4E0,2.74E2,2.24E2],"tree_param":{"num_deleted":"0","num_feature":"12","num_nodes":"29","size_leaf_vector":"1"}},{"base_weights":[-0E0,1.7748259E-2,-2.4363825E-3,3.870879E-2,2.1948377E-3,-8.219243E-3,3.7491354E-3,5.176251E-2,6.4813355E-3,-5.034478E-4,1.3872875E-2,-1.5973162E-2,-0E0,7.7343867E-3,-1.2919246E-2,3.1774116E-4,2.3327218E-3,2.8399864E-4,-0E0,-1.5439451E-4,-0E0,7.59341E-4,-0E0,-2.149495E-4,-6.879605E-4,7.754227E-5,-4.9153465E-4,1.9678706E-3,1.8140778E-4,-5.193717E-4,-0E0],"categories":[],"categories_nodes":[],"categories_segments":[],"categories_sizes":[],"default_left":[0,0,0,0,0,0,0,0,0,0,0,0,0,0,0,0,0,0,0,0,0,0,0,0,0,0,0,0,0,0,0],"id":11,"left_children":[1,3,5,7,9,11,13,15,17,19,21,23,25,27,29,-1,-1,-1,-1,-1,-1,-1,-1,-1,-1,-1,-1,-1,-1,-1,-1],"loss_changes":[2.737143E-2,2.0927295E-2,1.925707E-2,6.4607672E-3,2.8564394E-3,1.9355614E-2,1.592265E-2,1.0676108E-2,3.920769E-4,5.2136177E-4,2.6866817E-3,6.0202144E-3,4.284895E-3,1.2357374E-2,3.6128825E-3,0E0,0E0,0E0,0E0,0E0,0E0,0E0,0E0,0E0,0E0,0E0,0E0,0E0,0E0,0E0,0E0],"parents":[2147483647,0,0,1,1,2,2,3,3,4,4,5,5,6,6,7,7,8,8,9,9,10,10,11,11,12,12,13,13,14,14],"right_children":[2,4,6,8,10,12,14,16,18,20,22,24,26,28,30,-1,-1,-1,-1,-1,-1,-1,-1,-1,-1,-1,-1,-1,-1,-1,-1],"split_conditions":[-1.1134794E-1,4.5042086E0,5.0438866E-2,8.062897E0,-1.6295385E-1,9.235934E0,1.1511111E1,-1.3569291E-1,-1.2244702E-1,9.175602E0,-1.3701496E-1,-4.6931513E-2,4.2489424E0,7.448568E0,9.679452E0,3.1774116E-4,2.3327218E-3,2.8399864E-4,-0E0,-1.5439451E-4,-0E0,7.59341E-4,-0E0,-2.149495E-4,-6.879605E-4,7.754227E-5,-4.9153465E-4,1.9678706E-3,1.8140778E-4,-5.193717E-4,-0E0],"split_indices":[4,0,4,5,3,5,7,3,3,5,4,4,0,5,0,0,0,0,0,0,0,0,0,0,0,0,0,0,0,0,0],"split_type":[0,0,0,0,0,0,0,0,0,0,0,0,0,0,0,0,0,0,0,0,0,0,0,0,0,0,0,0,0,0,0],"sum_hessian":[6E2,7.6E1,5.24E2,2.9E1,4.7E1,2.79E2,2.45E2,1.8E1,1.1E1,3.2E1,1.5E1,1.49E2,1.3E2,2.03E2,4.2E1,9E0,9E0,9E0,2E0,1.9E1,1.3E1,8E0,7E0,7.3E1,7.6E1,1.18E2,1.2E1,3E0,2E2,3.5E1,7E0],"tree_param":{"num_deleted":"0","num_feature":"12","num_nodes":"31","size_leaf_vector":"1"}},{"base_weights":[2.7150405E-4,1.7312236E-2,-2.024723E-3,5.1071774E-4,3.3655334E-2,4.621035E-2,-3.2381613E-3,-4.3978468E-3,9.104656E-3,5.2903365E-2,8.385867E-3,6.713219E-2,-0E0,-1.5622015E-2,-1.1023784E-4,-1.8345688E-4,-0E0,-0E0,5.140585E-4,9.688298E-5,2.0741364E-3,6.2547973E-4,-0E0,-0E0,2.431585E-3,-5.173935E-4,-0E0,2.9323011E-5,-4.497231E-4],"categories":[],"categories_nodes":[],"categories_segments":[],"categories_sizes":[],"default_left":[0,0,0,0,0,0,0,0,0,0,0,0,0,0,0,0,0,0,0,0,0,0,0,0,0,0,0,0,0],"id":12,"left_children":[1,3,5,7,9,11,13,15,17,19,21,23,-1,25,27,-1,-1,-1,-1,-1,-1,-1,-1,-1,-1,-1,-1,-1,-1],"loss_changes":[2.5197959E-2,1.770955E-2,2.6756406E-2,2.2824458E-3,1.0937385E-2,8.05776E-3,1.8490171E-2,2.4891138E-4,2.2040727E-3,7.0557706E-3,2.576117E-3,7.870249E-3,0E0,4.042728E-3,8.229927E-3,0E0,0E0,0E0,0E0,0E0,0E0,0E0,0E0,0E0,0E0,0E0,0E0,0E0,0E0],"parents":[2147483647,0,0,1,1,2,2,3,3,4,4,5,5,6,6,7,7,8,8,9,9,10,10,11,11,13,13,14,14],"right_children":[2,4,6,8,10,12,14,16,18,20,22,24,-1,26,28,-1,-1,-1,-1,-1,-1,-1,-1,-1,-1,-1,-1,-1,-1],"split_conditions":[-1.1016741E-1,-1.6205895E-1,6.891169E0,7.7899895E0,7.4715524E0,2.6923069E1,8.271826E0,-1.6656804E-1,-1.5850595E-1,-1.2873974E-1,-1.3103491E-1,2.4489784E1,-0E0,1.6095676E-1,1.2329285E1,-1.8345688E-4,-0E0,-0E0,5.140585E-4,9.688298E-5,2.0741364E-3,6.2547973E-4,-0E0,-0E0,2.431585E-3,-5.173935E-4,-0E0,2.9323011E-5,-4.497231E-4],"split_indices":[4,3,9,5,7,2,5,3,4,3,4,2,0,3,5,0,0,0,0,0,0,0,0,0,0,0,0,0,0],"split_type":[0,0,0,0,0,0,0,0,0,0,0,0,0,0,0,0,0,0,0,0,0,0,0,0,0,0,0,0,0],"sum_hessian":[6.03E2,7.6E1,5.27E2,4.1E1,3.5E1,1E1,5.17E2,1.9E1,2.2E1,1.7E1,1.8E1,6E0,4E0,9.7E1,4.2E2,1.6E1,3E0,9E0,1.3E1,6E0,1.1E1,8E0,1E1,1E0,5E0,9.3E1,4E0,3.86E2,3.4E1],"tree_param":{"num_deleted":"0","num_feature":"12","num_nodes":"29","size_leaf_vector":"1"}},{"base_weights":[6.484457E-4,1.846931E-2,-1.4118744E-3,-0E0,3.021813E-2,3.7505955E-2,-2.6961814E-3,-0E0,-2.2677297E-3,-0E0,3.712021E-2,-0E0,6.909043E-2,-7.660025E-3,2.5295313E-3,-9.983718E-5,-0E0,1.1792418E-3,-0E0,2.370795E-3,-0E0,-4.5819068E-4,-0E0,1.981789E-4,-3.656695E-4],"categories":[],"categories_nodes":[],"categories_segments":[],"categories_sizes":[],"default_left":[0,0,0,0,0,0,0,0,0,0,0,0,0,0,0,0,0,0,0,0,0,0,0,0,0],"id":13,"left_children":[1,3,5,7,9,11,13,-1,15,-1,17,-1,19,21,23,-1,-1,-1,-1,-1,-1,-1,-1,-1,-1],"loss_changes":[2.2954063E-2,1.7092321E-2,2.2311118E-2,9.256677E-5,7.5841136E-3,1.3720663E-2,1.3528176E-2,0E0,9.570754E-5,0E0,2.5950186E-3,0E0,4.056718E-3,1.5591055E-2,1.3621989E-2,0E0,0E0,0E0,0E0,0E0,0E0,0E0,0E0,0E0,0E0],"parents":[2147483647,0,0,1,1,2,2,3,3,4,4,5,5,6,6,8,8,10,10,12,12,13,13,14,14],"right_children":[2,4,6,8,10,12,14,-1,16,-1,18,-1,20,22,24,-1,-1,-1,-1,-1,-1,-1,-1,-1,-1],"split_conditions":[-1.1016741E-1,-1.6754803E-1,6.891169E0,6.7375684E0,-1.7535172E-1,6.4861317E0,5.335145E-2,-0E0,1.141E1,-0E0,5.326086E1,-0E0,2.6923069E1,8.569048E0,1.1580615E1,-9.983718E-5,-0E0,1.1792418E-3,-0E0,2.370795E-3,-0E0,-4.5819068E-4,-0E0,1.981789E-4,-3.656695E-4],"split_indices":[4,4,9,5,3,6,3,0,8,0,2,0,2,6,5,0,0,0,0,0,0,0,0,0,0],"split_type":[0,0,0,0,0,0,0,0,0,0,0,0,0,0,0,0,0,0,0,0,0,0,0,0,0],"sum_hessian":[5.77E2,6.4E1,5.13E2,2.2E1,4.2E1,1.3E1,5E2,5E0,1.7E1,9E0,3.3E1,7E0,6E0,2.66E2,2.34E2,1.6E1,1E0,3.1E1,2E0,5E0,1E0,1.33E2,1.33E2,1.89E2,4.5E1],"tree_param":{"num_deleted":"0","num_feature":"12","num_nodes":"25","size_leaf_vector":"1"}},{"base_weights":[-6.7233137E-4,1.3827994E-2,-2.9330018E-3,-3.6669854E-4,2.7370648E-2,4.007266E-2,-3.8694004E-3,-2.54909E-3,-0E0,4.1930657E-2,6.052039E-3,1.9536607E-3,-0E0,-1.6023552E-2,-7.132169E-4,-1.3523549E-4,-0E0,-0E0,1.6463823E-3,-0E0,3.0501976E-4,-5.3351105E-4,-0E0,3.755434E-7,-6.719074E-4],"categories":[],"categories_nodes":[],"categories_segments":[],"categories_sizes":[],"default_left":[0,0,0,0,0,0,0,0,0,0,0,0,0,0,0,0,0,0,0,0,0,0,0,0,0],"id":14,"left_children":[1,3,5,7,9,11,13,15,-1,17,19,-1,-1,21,23,-1,-1,-1,-1,-1,-1,-1,-1,-1,-1],"loss_changes":[1.8586554E-2,1.7127968E-2,1.767671E-2,1.5137673E-4,7.984728E-3,1.0992902E-2,1.8147396E-2,2.707863E-4,0E0,1.5531529E-2,7.8144704E-4,0E0,0E0,3.4204982E-3,8.816626E-3,0E0,0E0,0E0,0E0,0E0,0E0,0E0,0E0,0E0,0E0],"parents":[2147483647,0,0,1,1,2,2,3,3,4,4,5,5,6,6,7,7,9,9,10,10,13,13,14,14],"right_children":[2,4,6,8,10,12,14,16,-1,18,20,-1,-1,22,24,-1,-1,-1,-1,-1,-1,-1,-1,-1,-1],"split_conditions":[-1.1016741E-1,-1.5296748E-1,6.8652625E0,-1.6963056E-1,7.4715524E0,7.448568E0,8.271826E0,1.141E1,-0E0,2.26415E1,8.176591E0,1.9536607E-3,-0E0,1.0007514E-1,1.2055555E1,-1.3523549E-4,-0E0,-0E0,1.6463823E-3,-0E0,3.0501976E-4,-5.3351105E-4,-0E0,3.755434E-7,-6.719074E-4],"split_indices":[4,4,7,4,7,5,5,8,0,2,5,0,0,4,7,0,0,0,0,0,0,0,0,0,0],"split_type":[0,0,0,0,0,0,0,0,0,0,0,0,0,0,0,0,0,0,0,0,0,0,0,0,0],"sum_hessian":[5.98E2,7.4E1,5.24E2,3.3E1,4.1E1,8E0,5.16E2,2.3E1,1E1,2.1E1,2E1,5E0,3E0,9.9E1,4.17E2,2E1,3E0,4E0,1.7E1,6E0,1.4E1,9.1E1,8E0,4E2,1.7E1],"tree_param":{"num_deleted":"0","num_feature":"12","num_nodes":"25","size_leaf_vector":"1"}},{"base_weights":[-0E0,1.8949531E-2,-1.6325114E-3,-4.5336713E-3,2.8756257E-2,-1.8497864E-2,-2.9933252E-4,-0E0,-7.921878E-3,-0E0,4.5750026E-2,-2.112831E-2,-0E0,3.2142516E-2,-1.39397E-3,-0E0,-2.5721051E-4,-4.304427E-5,2.1711487E-4,2.2787105E-3,2.693618E-4,-7.7047996E-4,-0E0,1.4321511E-3,-0E0,-5.322123E-6,-3.8244764E-4],"categories":[],"categories_nodes":[],"categories_segments":[],"categories_sizes":[],"default_left":[0,0,0,0,0,0,0,0,0,0,0,0,0,0,0,0,0,0,0,0,0,0,0,0,0,0,0],"id":15,"left_children":[1,3,5,7,9,11,13,-1,15,17,19,21,-1,23,25,-1,-1,-1,-1,-1,-1,-1,-1,-1,-1,-1,-1],"loss_changes":[1.8709864E-2,1.360671E-2,1.05486885E-2,4.4366752E-4,1.754436E-2,9.6977595E-4,1.54007105E-2,0E0,4.4762855E-5,2.342102E-4,1.6371682E-2,1.5654257E-3,0E0,8.325541E-3,5.6946697E-3,0E0,0E0,0E0,0E0,0E0,0E0,0E0,0E0,0E0,0E0,0E0,0E0],"parents":[2147483647,0,0,1,1,2,2,3,3,4,4,5,5,6,6,8,8,9,9,10,10,11,11,13,13,14,14],"right_children":[2,4,6,8,10,12,14,-1,16,18,20,22,-1,24,26,-1,-1,-1,-1,-1,-1,-1,-1,-1,-1,-1,-1],"split_conditions":[7.098422E0,6.294518E0,7.8373704E0,6.708935E0,2E0,7.6754766E0,7.409302E0,-0E0,-2.2589462E-1,7.8025103E0,7.448568E0,7.536928E0,-0E0,7.1359754E0,1.2329285E1,-0E0,-2.5721051E-4,-4.304427E-5,2.1711487E-4,2.2787105E-3,2.693618E-4,-7.7047996E-4,-0E0,1.4321511E-3,-0E0,-5.322123E-6,-3.8244764E-4],"split_indices":[11,6,5,5,1,7,9,0,3,5,5,6,0,6,5,0,0,0,0,0,0,0,0,0,0,0,0],"split_type":[0,0,0,0,0,0,0,0,0,0,0,0,0,0,0,0,0,0,0,0,0,0,0,0,0,0,0],"sum_hessian":[5.99E2,4.7E1,5.52E2,1.1E1,3.6E1,3.4E1,5.18E2,1E0,1E1,1.4E1,2.2E1,2.8E1,6E0,1.3E1,5.05E2,1E0,9E0,1.1E1,3E0,1E1,1.2E1,2.1E1,7E0,9E0,4E0,4.65E2,4E1],"tree_param":{"num_deleted":"0","num_feature":"12","num_nodes":"27","size_leaf_vector":"1"}},{"base_weights":[-0E0,1.3628694E-2,-2.0342844E-3,3.148469E-2,-0E0,3.8339727E-2,-3.0848267E-3,-0E0,3.813052E-2,-1.3645499E-3,8.964587E-3,-0E0,2.130901E-3,-4.1538114E-3,1.8633677E-2,1.5040922E-3,-0E0,-1.3807767E-4,-0E0,6.5392215E-4,-0E0,-3.7934806E-4,-3.1802574E-5,1.0120602E-3,-0E0],"categories":[],"categories_nodes":[],"categories_segments":[],"categories_sizes":[],"default_left":[0,0,0,0,0,0,0,0,0,0,0,0,0,0,0,0,0,0,0,0,0,0,0,0,0],"id":16,"left_children":[1,3,5,7,9,11,13,-1,15,17,19,-1,-1,21,23,-1,-1,-1,-1,-1,-1,-1,-1,-1,-1],"loss_changes":[1.5735868E-2,1.51881715E-2,1.8902864E-2,4.693255E-3,1.1846775E-3,9.057051E-3,1.0609252E-2,0E0,6.7780092E-3,4.700117E-4,2.6759217E-3,0E0,0E0,1.167189E-2,6.712602E-3,0E0,0E0,0E0,0E0,0E0,0E0,0E0,0E0,0E0,0E0],"parents":[2147483647,0,0,1,1,2,2,3,3,4,4,5,5,6,6,8,8,9,9,10,10,13,13,14,14],"right_children":[2,4,6,8,10,12,14,-1,16,18,20,-1,-1,22,24,-1,-1,-1,-1,-1,-1,-1,-1,-1,-1],"split_conditions":[-1.1016741E-1,5.0125175E0,6.891169E0,-1.5296748E-1,-1.6329402E-1,6.4861317E0,9.835722E0,-0E0,7.635824E0,1.1332222E1,-1.3701496E-1,-0E0,2.130901E-3,8.158889E0,2.5459588E-1,1.5040922E-3,-0E0,-1.3807767E-4,-0E0,6.5392215E-4,-0E0,-3.7934806E-4,-3.1802574E-5,1.0120602E-3,-0E0],"split_indices":[4,0,9,4,3,6,0,0,9,8,4,0,0,9,4,0,0,0,0,0,0,0,0,0,0],"split_type":[0,0,0,0,0,0,0,0,0,0,0,0,0,0,0,0,0,0,0,0,0,0,0,0,0],"sum_hessian":[5.97E2,7.2E1,5.25E2,2.8E1,4.4E1,1E1,5.15E2,6E0,2.2E1,3.1E1,1.3E1,6E0,4E0,4.96E2,1.9E1,1.5E1,7E0,2.4E1,7E0,7E0,6E0,1.23E2,3.73E2,1.1E1,8E0],"tree_param":{"num_deleted":"0","num_feature":"12","num_nodes":"25","size_leaf_vector":"1"}},{"base_weights":[1.4982797E-4,1.6855942E-2,-1.0505869E-3,-2.3634767E-4,3.670039E-2,-1.6596304E-2,-0E0,-4.985589E-3,-0E0,5.5665843E-2,1.3523574E-4,-2.0489354E-2,-0E0,2.4665201E-2,-6.412953E-4,-0E0,-2.0096707E-4,1.845959E-3,-0E0,2.7357045E-4,-0E0,-6.504997E-4,-0E0,-0E0,1.941794E-3,-0E0,-7.119575E-4],"categories":[],"categories_nodes":[],"categories_segments":[],"categories_sizes":[],"default_left":[0,0,0,0,0,0,0,0,0,0,0,0,0,0,0,0,0,0,0,0,0,0,0,0,0,0,0],"id":17,"left_children":[1,3,5,7,9,11,13,15,-1,17,19,21,-1,23,25,-1,-1,-1,-1,-1,-1,-1,-1,-1,-1,-1,-1],"loss_changes":[1.3670915E-2,1.9257683E-2,9.851838E-3,5.206933E-4,1.1055756E-2,1.7079785E-3,9.333679E-3,2.8577732E-4,0E0,5.8387816E-3,6.6505035E-4,5.199015E-4,0E0,1.1821997E-2,8.239961E-3,0E0,0E0,0E0,0E0,0E0,0E0,0E0,0E0,0E0,0E0,0E0,0E0],"parents":[2147483647,0,0,1,1,2,2,3,3,4,4,5,5,6,6,7,7,9,9,10,10,11,11,13,13,14,14],"right_children":[2,4,6,8,10,12,14,16,-1,18,20,22,-1,24,26,-1,-1,-1,-1,-1,-1,-1,-1,-1,-1,-1,-1],"split_conditions":[7.0806975E0,2.4999996E1,7.8373704E0,7.8025103E0,5.2358486E1,7.525627E0,7.4222555E0,6.7375684E0,-0E0,6.6215816E0,7.510729E1,7.6922226E0,-0E0,3.875027E0,1.2055555E1,-0E0,-2.0096707E-4,1.845959E-3,-0E0,2.7357045E-4,-0E0,-6.504997E-4,-0E0,-0E0,1.941794E-3,-0E0,-7.119575E-4],"split_indices":[11,2,5,5,2,6,7,5,0,0,2,7,0,0,7,0,0,0,0,0,0,0,0,0,0,0,0],"split_type":[0,0,0,0,0,0,0,0,0,0,0,0,0,0,0,0,0,0,0,0,0,0,0,0,0,0,0],"sum_hessian":[6.01E2,4.5E1,5.56E2,2.2E1,2.3E1,3.7E1,5.19E2,2E1,2E0,1.3E1,1E1,2.8E1,9E0,1.4E1,5.05E2,3E0,1.7E1,1.2E1,1E0,7E0,3E0,2.6E1,2E0,1E1,4E0,4.91E2,1.4E1],"tree_param":{"num_deleted":"0","num_feature":"12","num_nodes":"27","size_leaf_vector":"1"}},{"base_weights":[3.43077E-4,1.5169903E-2,-1.4646704E-3,-2.4092438E-4,2.6554504E-2,-7.31756E-3,3.837619E-3,-5.4934723E-3,-0E0,4.1258775E-2,6.9871787E-3,-1.4148395E-2,1.8645052E-4,4.598767E-2,1.7774695E-3,-0E0,-1.921674E-4,2.3065004E-5,-0E0,-0E0,1.7795818E-3,3.543012E-4,-0E0,-1.5447674E-4,-6.5321976E-4,8.709237E-5,-5.0754024E-4,2.1062947E-3,-0E0,-0E0,6.6237553E-4],"categories":[],"categories_nodes":[],"categories_segments":[],"categories_sizes":[],"default_left":[0,0,0,0,0,0,0,0,0,0,0,0,0,0,0,0,0,0,0,0,0,0,0,0,0,0,0,0,0,0,0],"id":18,"left_children":[1,3,5,7,9,11,13,15,17,19,21,23,25,27,29,-1,-1,-1,-1,-1,-1,-1,-1,-1,-1,-1,-1,-1,-1,-1,-1],"loss_changes":[1.7152999E-2,1.4918983E-2,1.6482573E-2,4.5110635E-4,7.5469464E-3,1.45210475E-2,1.806629E-2,8.0735335E-5,5.91105E-6,1.5331559E-2,1.1087577E-3,6.8715494E-3,4.037731E-3,8.427858E-3,7.969181E-3,0E0,0E0,0E0,0E0,0E0,0E0,0E0,0E0,0E0,0E0,0E0,0E0,0E0,0E0,0E0,0E0],"parents":[2147483647,0,0,1,1,2,2,3,3,4,4,5,5,6,6,7,7,8,8,9,9,10,10,11,11,12,12,13,13,14,14],"right_children":[2,4,6,8,10,12,14,16,18,20,22,24,26,28,30,-1,-1,-1,-1,-1,-1,-1,-1,-1,-1,-1,-1,-1,-1,-1,-1],"split_conditions":[-1.1259755E-1,-1.7187636E-1,3.8946908E-2,7.7899895E0,7.448162E0,9.229498E0,6.891169E0,-2.2589462E-1,8.790238E0,-1.6285405E-1,-1.1940159E-1,-4.7065757E-2,4.2489424E0,2.6923069E1,1.0226926E1,-0E0,-1.921674E-4,2.3065004E-5,-0E0,-0E0,1.7795818E-3,3.543012E-4,-0E0,-1.5447674E-4,-6.5321976E-4,8.709237E-5,-5.0754024E-4,2.1062947E-3,-0E0,-0E0,6.6237553E-4],"split_indices":[4,3,4,5,9,5,10,3,0,4,3,4,0,2,0,0,0,0,0,0,0,0,0,0,0,0,0,0,0,0,0],"split_type":[0,0,0,0,0,0,0,0,0,0,0,0,0,0,0,0,0,0,0,0,0,0,0,0,0,0,0,0,0,0,0],"sum_hessian":[5.87E2,6.9E1,5.18E2,2.6E1,4.3E1,2.55E2,2.63E2,1.4E1,1.2E1,2.1E1,2.2E1,1.4E2,1.15E2,9E0,2.54E2,2E0,1.2E1,9E0,3E0,7E0,1.4E1,1.5E1,7E0,7.1E1,6.9E1,1.05E2,1E1,5E0,4E0,2.37E2,1.7E1],"tree_param":{"num_deleted":"0","num_feature":"12","num_nodes":"31","size_leaf_vector":"1"}},{"base_weights":[-0E0,1.972673E-2,-1.4770346E-3,-2.3264985E-3,3.841181E-2,2.6085663E-3,-5.9548933E-3,-0E0,-3.9686686E-3,4.7838405E-2,-0E0,-5.4588227E-4,3.678616E-3,1.39331985E-2,-7.98543E-3,-1.304087E-4,-0E0,1.5492057E-3,-0E0,2.765675E-4,2.6629763E-5,-8.353087E-5,1.861554E-3,-4.0257018E-4,-8.256722E-5],"categories":[],"categories_nodes":[],"categories_segments":[],"categories_sizes":[],"default_left":[0,0,0,0,0,0,0,0,0,0,0,0,0,0,0,0,0,0,0,0,0,0,0,0,0],"id":19,"left_children":[1,3,5,7,9,11,13,-1,15,17,-1,-1,19,21,23,-1,-1,-1,-1,-1,-1,-1,-1,-1,-1],"loss_changes":[1.5198171E-2,1.8532284E-2,1.0320802E-2,1.2356536E-4,1.10214725E-2,4.7149784E-3,1.0500792E-2,0E0,2.1998116E-5,4.5190267E-3,0E0,0E0,3.094249E-3,2.2992458E-2,5.5115484E-3,0E0,0E0,0E0,0E0,0E0,0E0,0E0,0E0,0E0,0E0],"parents":[2147483647,0,0,1,1,2,2,3,3,4,4,5,5,6,6,8,8,9,9,12,12,13,13,14,14],"right_children":[2,4,6,8,10,12,14,-1,16,18,-1,-1,20,22,24,-1,-1,-1,-1,-1,-1,-1,-1,-1,-1],"split_conditions":[6.891169E0,2.4999996E1,2E0,5.012214E0,7.510729E1,7.8309464E0,7.409302E0,-0E0,7.1380267E0,6.6215816E0,-0E0,-5.4588227E-4,2.205028E0,7.7961507E0,9.235934E0,-1.304087E-4,-0E0,1.5492057E-3,-0E0,2.765675E-4,2.6629763E-5,-8.353087E-5,1.861554E-3,-4.0257018E-4,-8.256722E-5],"split_indices":[10,2,1,0,2,5,9,0,0,0,0,0,0,5,5,0,0,0,0,0,0,0,0,0,0],"split_type":[0,0,0,0,0,0,0,0,0,0,0,0,0,0,0,0,0,0,0,0,0,0,0,0,0],"sum_hessian":[5.79E2,3.5E1,5.44E2,1.4E1,2.1E1,2.73E2,2.71E2,2E0,1.2E1,1.8E1,3E0,8E0,2.65E2,2E1,2.51E2,1.1E1,1E0,1.7E1,1E0,7.6E1,1.89E2,1.4E1,6E0,1.13E2,1.38E2],"tree_param":{"num_deleted":"0","num_feature":"12","num_nodes":"25","size_leaf_vector":"1"}},{"base_weights":[-4.5001777E-4,1.2360163E-2,-2.4497889E-3,1.5925041E-3,3.3672456E-2,-8.371637E-3,3.4607663E-3,-3.4616305E-3,8.747591E-3,5.6654982E-2,-0E0,-1.4193618E-2,-0E0,1.3198385E-2,-1.6304548E-3,-1.868051E-4,-0E0,-0E0,4.307835E-4,1.9014622E-3,-0E0,-0E0,-4.6533256E-4,7.3114454E-5,-1.2531031E-4,1.4505631E-3,1.3270823E-4,1.372817E-4,-2.8310728E-4],"categories":[],"categories_nodes":[],"categories_segments":[],"categories_sizes":[],"default_left":[0,0,0,0,0,0,0,0,0,0,0,0,0,0,0,0,0,0,0,0,0,0,0,0,0,0,0,0,0],"id":20,"left_children":[1,3,5,7,9,11,13,15,17,19,-1,21,23,25,27,-1,-1,-1,-1,-1,-1,-1,-1,-1,-1,-1,-1,-1,-1],"loss_changes":[1.3948586E-2,1.294269E-2,1.8405782E-2,2.4393408E-3,1.4706928E-2,1.17165595E-2,1.3473253E-2,3.4476965E-4,2.0344597E-3,5.6727156E-3,0E0,3.2237135E-3,1.3219293E-3,2.288742E-2,8.136051E-3,0E0,0E0,0E0,0E0,0E0,0E0,0E0,0E0,0E0,0E0,0E0,0E0,0E0,0E0],"parents":[2147483647,0,0,1,1,2,2,3,3,4,4,5,5,6,6,7,7,8,8,9,9,11,11,12,12,13,13,14,14],"right_children":[2,4,6,8,10,12,14,16,18,20,-1,22,24,26,28,-1,-1,-1,-1,-1,-1,-1,-1,-1,-1,-1,-1,-1,-1],"split_conditions":[-1.1016741E-1,-1.2873974E-1,4.0192988E-2,6.6571913E0,7.1359754E0,8.557289E0,8.53406E0,-1.6656804E-1,-1.6086836E-1,5.2358486E1,-0E0,2.7979273E1,2E0,5.208333E1,1.140751E-1,-1.868051E-4,-0E0,-0E0,4.307835E-4,1.9014622E-3,-0E0,-0E0,-4.6533256E-4,7.3114454E-5,-1.2531031E-4,1.4505631E-3,1.3270823E-4,1.372817E-4,-2.8310728E-4],"split_indices":[4,3,4,6,6,6,6,3,4,2,0,2,1,2,4,0,0,0,0,0,0,0,0,0,0,0,0,0,0],"split_type":[0,0,0,0,0,0,0,0,0,0,0,0,0,0,0,0,0,0,0,0,0,0,0,0,0,0,0,0,0],"sum_hessian":[5.81E2,7.1E1,5.1E2,5.1E1,2E1,2.63E2,2.47E2,2.2E1,2.9E1,1.1E1,9E0,1.49E2,1.14E2,9.1E1,1.56E2,1.5E1,7E0,9E0,2E1,1E1,1E0,1.1E1,1.38E2,6E1,5.4E1,1.5E1,7.6E1,8E1,7.6E1],"tree_param":{"num_deleted":"0","num_feature":"12","num_nodes":"29","size_leaf_vector":"1"}},{"base_weights":[-0E0,8.2655414E-4,-2.4799135E-2,1.2563288E-2,-0E0,-0E0,-2.9434415E-2,5.5641186E-4,1.9152856E-3,-1.4381089E-2,1.0785698E-3,-9.437711E-4,-0E0,8.569568E-4,-0E0,-5.1516393E-4,-0E0,1.042652E-3,6.8843806E-6],"categories":[],"categories_nodes":[],"categories_segments":[],"categories_sizes":[],"default_left":[0,0,0,0,0,0,0,0,0,0,0,0,0,0,0,0,0,0,0],"id":21,"left_children":[1,3,5,7,9,-1,11,13,-1,15,17,-1,-1,-1,-1,-1,-1,-1,-1],"loss_changes":[9.608227E-3,5.930179E-3,2.0380467E-3,1.8152846E-2,8.628856E-3,0E0,6.130487E-4,3.2530534E-3,0E0,1.3704151E-3,1.0333256E-2,0E0,0E0,0E0,0E0,0E0,0E0,0E0,0E0],"parents":[2147483647,0,0,1,1,2,2,3,3,4,4,6,6,7,7,9,9,10,10],"right_children":[2,4,6,8,10,-1,12,14,-1,16,18,-1,-1,-1,-1,-1,-1,-1,-1],"split_conditions":[1.1977778E1,6.9674067E0,1E0,6.5992975E0,7.8373704E0,-0E0,3E0,6.589504E0,1.9152856E-3,7.536928E0,7.3356028E0,-9.437711E-4,-0E0,8.569568E-4,-0E0,-5.1516393E-4,-0E0,1.042652E-3,6.8843806E-6],"split_indices":[7,11,1,6,5,0,1,5,0,6,8,0,0,0,0,0,0,0,0],"split_type":[0,0,0,0,0,0,0,0,0,0,0,0,0,0,0,0,0,0,0],"sum_hessian":[5.74E2,5.6E2,1.4E1,3.9E1,5.21E2,2E0,1.2E1,3.4E1,5E0,3.8E1,4.83E2,1.1E1,1E0,3E0,3.1E1,3.1E1,7E0,8E0,4.75E2],"tree_param":{"num_deleted":"0","num_feature":"12","num_nodes":"19","size_leaf_vector":"1"}},{"base_weights":[-5.618569E-4,1.5816102E-2,-2.0417676E-3,-8.632311E-5,3.1913184E-2,1.0463958E-2,-3.6561044E-3,-4.6011205E-3,-0E0,3.944716E-2,-0E0,1.5797231E-2,-0E0,-1.2063436E-2,-1.1421293E-3,-0E0,-1.791943E-4,-0E0,1.4721133E-3,-0E0,7.20146E-4,-0E0,-7.0176524E-5,-0E0,-4.3658027E-4,-4.5167126E-6,-9.233677E-4],"categories":[],"categories_nodes":[],"categories_segments":[],"categories_sizes":[],"default_left":[0,0,0,0,0,0,0,0,0,0,0,0,0,0,0,0,0,0,0,0,0,0,0,0,0,0,0],"id":22,"left_children":[1,3,5,7,9,11,13,15,-1,17,-1,19,21,23,25,-1,-1,-1,-1,-1,-1,-1,-1,-1,-1,-1,-1],"loss_changes":[1.2543186E-2,1.3936711E-2,1.0097729E-2,3.8092397E-4,8.234812E-3,4.3189544E-3,8.789724E-3,1.8978948E-4,0E0,5.8488958E-3,0E0,4.1741896E-3,4.3775515E-5,3.938497E-3,8.040099E-3,0E0,0E0,0E0,0E0,0E0,0E0,0E0,0E0,0E0,0E0,0E0,0E0],"parents":[2147483647,0,0,1,1,2,2,3,3,4,4,5,5,6,6,7,7,9,9,11,11,12,12,13,13,14,14],"right_children":[2,4,6,8,10,12,14,16,-1,18,-1,20,22,24,26,-1,-1,-1,-1,-1,-1,-1,-1,-1,-1,-1,-1],"split_conditions":[7.098422E0,2.4999996E1,-1.1514668E-1,7.8025103E0,7.510729E1,9.195017E0,8.011111E0,6.7375684E0,-0E0,-1.2873974E-1,-0E0,3.5011961E0,-1.7535172E-1,7.3344445E0,1.24366665E1,-0E0,-1.791943E-4,-0E0,1.4721133E-3,-0E0,7.20146E-4,-0E0,-7.0176524E-5,-0E0,-4.3658027E-4,-4.5167126E-6,-9.233677E-4],"split_indices":[11,2,3,5,2,6,9,5,0,3,0,0,3,11,7,0,0,0,0,0,0,0,0,0,0,0,0],"split_type":[0,0,0,0,0,0,0,0,0,0,0,0,0,0,0,0,0,0,0,0,0,0,0,0,0,0,0],"sum_hessian":[5.72E2,4.1E1,5.31E2,1.8E1,2.3E1,5.3E1,4.78E2,1.7E1,1E0,2E1,3E0,4E1,1.3E1,1E2,3.78E2,2E0,1.5E1,5E0,1.5E1,1.6E1,2.4E1,6E0,7E0,1.3E1,8.7E1,3.7E2,8E0],"tree_param":{"num_deleted":"0","num_feature":"12","num_nodes":"27","size_leaf_vector":"1"}},{"base_weights":[-0E0,1.0852495E-3,-2.3273815E-4,-1.0618482E-3,1.6121259E-2,-5.9444104E-5,-1.403946E-2,1.4152247E-3,-0E0,-4.6433666E-4,1.6645266E-5,-0E0,-5.658445E-4,-0E0,1.04991064E-4],"categories":[],"categories_nodes":[],"categories_segments":[],"categories_sizes":[],"default_left":[0,0,0,0,0,0,0,0,0,0,0,0,0,0,0],"id":23,"left_children":[1,-1,3,5,7,9,11,-1,13,-1,-1,-1,-1,-1,-1],"loss_changes":[7.884059E-3,0E0,6.5924986E-3,6.056333E-3,7.3748217E-3,6.6248877E-3,2.5480236E-3,0E0,1.8371873E-4,0E0,0E0,0E0,0E0,0E0,0E0],"parents":[2147483647,0,0,2,2,3,3,4,4,5,5,6,6,8,8],"right_children":[2,-1,4,6,8,10,12,-1,14,-1,-1,-1,-1,-1,-1],"split_conditions":[6.589504E0,1.0852495E-3,9.835722E0,1.2329285E1,8.6305E0,1.0049095E0,1.16044445E1,1.4152247E-3,7.9255557E0,-4.6433666E-4,1.6645266E-5,-0E0,-5.658445E-4,-0E0,1.04991064E-4],"split_indices":[5,0,0,5,5,0,7,0,8,0,0,0,0,0,0],"split_type":[0,0,0,0,0,0,0,0,0,0,0,0,0,0,0],"sum_hessian":[6E2,5E0,5.95E2,5.73E2,2.2E1,5.4E2,3.3E1,5E0,1.7E1,2.6E1,5.14E2,8E0,2.5E1,3E0,1.4E1],"tree_param":{"num_deleted":"0","num_feature":"12","num_nodes":"15","size_leaf_vector":"1"}},{"base_weights":[4.4818615E-4,1.5336926E-2,-1.45355E-3,-0E0,2.7503783E-2,-6.920639E-3,3.6004046E-3,-3.4854996E-3,1.7005033E-3,4.2094294E-2,9.424431E-3,-1.2802928E-2,-0E0,6.497644E-3,-7.549566E-3,-1.2866755E-4,-0E0,-0E0,6.301046E-5,-0E0,1.5394838E-3,4.4297427E-4,-0E0,-1.2891005E-4,-5.9698307E-4,1.2037016E-4,-9.109681E-5,1.3594101E-4,9.4623334E-4,-3.3379832E-4,-0E0],"categories":[],"categories_nodes":[],"categories_segments":[],"categories_sizes":[],"default_left":[0,0,0,0,0,0,0,0,0,0,0,0,0,0,0,0,0,0,0,0,0,0,0,0,0,0,0,0,0,0,0],"id":24,"left_children":[1,3,5,7,9,11,13,15,17,19,21,23,25,27,29,-1,-1,-1,-1,-1,-1,-1,-1,-1,-1,-1,-1,-1,-1,-1,-1],"loss_changes":[1.8399302E-2,1.5877783E-2,1.4918172E-2,3.2395968E-4,6.0580373E-3,1.1662966E-2,8.504458E-3,1.3775809E-4,6.22681E-6,7.556349E-3,2.010876E-3,6.42848E-3,1.4983895E-3,6.984669E-3,1.968651E-3,0E0,0E0,0E0,0E0,0E0,0E0,0E0,0E0,0E0,0E0,0E0,0E0,0E0,0E0,0E0,0E0],"parents":[2147483647,0,0,1,1,2,2,3,3,4,4,5,5,6,6,7,7,8,8,9,9,10,10,11,11,12,12,13,13,14,14],"right_children":[2,4,6,8,10,12,14,16,18,20,22,24,26,28,30,-1,-1,-1,-1,-1,-1,-1,-1,-1,-1,-1,-1,-1,-1,-1,-1],"split_conditions":[-1.1016741E-1,-1.5850595E-1,4.105204E-2,-1.6329402E-1,7.4715524E0,9.229498E0,1.1511111E1,1.141E1,-1.6295385E-1,-1.7187636E-1,-1.1940159E-1,-4.6931513E-2,2E0,1.0857778E1,2.4801898E-1,-1.2866755E-4,-0E0,-0E0,6.301046E-5,-0E0,1.5394838E-3,4.4297427E-4,-0E0,-1.2891005E-4,-5.9698307E-4,1.2037016E-4,-9.109681E-5,1.3594101E-4,9.4623334E-4,-3.3379832E-4,-0E0],"split_indices":[4,4,4,3,7,5,7,8,3,3,3,4,1,7,4,0,0,0,0,0,0,0,0,0,0,0,0,0,0,0,0],"split_type":[0,0,0,0,0,0,0,0,0,0,0,0,0,0,0,0,0,0,0,0,0,0,0,0,0,0,0,0,0,0,0],"sum_hessian":[5.99E2,7.3E1,5.26E2,3E1,4.3E1,2.62E2,2.64E2,2.4E1,6E0,2E1,2.3E1,1.47E2,1.15E2,2.17E2,4.7E1,2.3E1,1E0,1E0,5E0,4E0,1.6E1,1.8E1,5E0,7.4E1,7.3E1,6E1,5.5E1,2.06E2,1.1E1,3.7E1,1E1],"tree_param":{"num_deleted":"0","num_feature":"12","num_nodes":"31","size_leaf_vector":"1"}},{"base_weights":[-6.716982E-4,1.38692325E-2,-2.7921838E-3,-0E0,2.4483114E-2,-4.675465E-3,9.582307E-3,-4.7753532E-3,-0E0,2.8327612E-2,-0E0,1.9973295E-2,-5.37871E-3,1.807652E-2,-4.5338552E-4,-0E0,-1.7500065E-4,-0E0,3.0966527E-5,-0E0,9.7532594E-4,1.2048029E-3,-0E0,-2.9731065E-4,-3.783085E-5,1.2960657E-3,1.3423465E-4,-1.1813045E-4,-0E0],"categories":[],"categories_nodes":[],"categories_segments":[],"categories_sizes":[],"default_left":[0,0,0,0,0,0,0,0,0,0,0,0,0,0,0,0,0,0,0,0,0,0,0,0,0,0,0,0,0],"id":25,"left_children":[1,3,5,7,9,11,13,15,17,19,-1,21,23,25,27,-1,-1,-1,-1,-1,-1,-1,-1,-1,-1,-1,-1,-1,-1],"loss_changes":[1.7061315E-2,1.2502646E-2,1.1672536E-2,2.96452E-4,5.5205077E-3,6.604328E-3,7.0557175E-3,7.7856355E-5,9.589257E-6,4.640825E-3,0E0,6.0866084E-3,7.2859675E-3,8.367672E-3,2.4315198E-4,0E0,0E0,0E0,0E0,0E0,0E0,0E0,0E0,0E0,0E0,0E0,0E0,0E0,0E0],"parents":[2147483647,0,0,1,1,2,2,3,3,4,4,5,5,6,6,7,7,8,8,9,9,11,11,12,12,13,13,14,14],"right_children":[2,4,6,8,10,12,14,16,18,20,-1,22,24,26,28,-1,-1,-1,-1,-1,-1,-1,-1,-1,-1,-1,-1,-1,-1],"split_conditions":[-1.1016741E-1,-1.7187636E-1,2.2438885E-1,7.7899895E0,-8.677309E-2,6.8652625E0,1.02085285E1,-2.2589462E-1,-1.6086836E-1,-1.6906038E-1,-0E0,7.510729E1,9.246278E0,2.5378937E-1,9.679452E0,-0E0,-1.7500065E-4,-0E0,3.0966527E-5,-0E0,9.7532594E-4,1.2048029E-3,-0E0,-2.9731065E-4,-3.783085E-5,1.2960657E-3,1.3423465E-4,-1.1813045E-4,-0E0],"split_indices":[4,3,4,5,3,10,5,3,4,4,0,2,5,3,0,0,0,0,0,0,0,0,0,0,0,0,0,0,0],"split_type":[0,0,0,0,0,0,0,0,0,0,0,0,0,0,0,0,0,0,0,0,0,0,0,0,0,0,0,0,0],"sum_hessian":[5.87E2,6.8E1,5.19E2,2.6E1,4.2E1,4.58E2,6.1E1,1.2E1,1.4E1,3.8E1,4E0,8E0,4.5E2,3.8E1,2.3E1,2E0,1E1,6E0,8E0,5E0,3.3E1,5E0,3E0,2.02E2,2.48E2,1E1,2.8E1,1.5E1,8E0],"tree_param":{"num_deleted":"0","num_feature":"12","num_nodes":"29","size_leaf_vector":"1"}},{"base_weights":[-4.520522E-6,1.1755612E-2,-1.960796E-3,2.8692847E-2,-0E0,2.9311506E-2,-3.0303597E-3,3.627276E-2,-0E0,-3.6778206E-3,4.343961E-3,-0E0,5.403228E-2,-1.1006599E-2,-4.212834E-4,-0E0,1.287785E-3,-0E0,-1.3876209E-4,3.7389016E-4,-0E0,-0E0,1.879686E-3,-3.8626653E-4,3.6935016E-4,1.8228884E-5,-2.3591984E-4],"categories":[],"categories_nodes":[],"categories_segments":[],"categories_sizes":[],"default_left":[0,0,0,0,0,0,0,0,0,0,0,0,0,0,0,0,0,0,0,0,0,0,0,0,0,0,0],"id":26,"left_children":[1,3,5,7,9,11,13,15,-1,17,19,-1,21,23,25,-1,-1,-1,-1,-1,-1,-1,-1,-1,-1,-1,-1],"loss_changes":[1.2617143E-2,1.4057416E-2,1.4652839E-2,4.247302E-3,8.124135E-4,8.408111E-3,9.278695E-3,6.0647707E-3,0E0,5.8256002E-5,1.4908848E-3,0E0,3.1183884E-3,5.18311E-3,3.7016806E-3,0E0,0E0,0E0,0E0,0E0,0E0,0E0,0E0,0E0,0E0,0E0,0E0],"parents":[2147483647,0,0,1,1,2,2,3,3,4,4,5,5,6,6,7,7,9,9,10,10,12,12,13,13,14,14],"right_children":[2,4,6,8,10,12,14,16,-1,18,20,-1,22,24,26,-1,-1,-1,-1,-1,-1,-1,-1,-1,-1,-1,-1],"split_conditions":[-1.0850847E-1,4.8938236E0,6.891169E0,7.635824E0,7.7675214E0,6.4861317E0,8.011111E0,-1.5296748E-1,-0E0,6.244337E0,9.042349E0,-0E0,4.977509E0,9.114709E0,1.2008284E1,-0E0,1.287785E-3,-0E0,-1.3876209E-4,3.7389016E-4,-0E0,-0E0,1.879686E-3,-3.8626653E-4,3.6935016E-4,1.8228884E-5,-2.3591984E-4],"split_indices":[4,0,9,9,5,6,9,4,0,6,6,0,0,0,5,0,0,0,0,0,0,0,0,0,0,0,0],"split_type":[0,0,0,0,0,0,0,0,0,0,0,0,0,0,0,0,0,0,0,0,0,0,0,0,0,0,0],"sum_hessian":[5.89E2,7.6E1,5.13E2,2.9E1,4.7E1,1.3E1,5E2,2.1E1,8E0,2E1,2.7E1,7E0,6E0,1.13E2,3.87E2,3E0,1.8E1,5E0,1.5E1,1.2E1,1.5E1,1E0,5E0,1.09E2,4E0,3.29E2,5.8E1],"tree_param":{"num_deleted":"0","num_feature":"12","num_nodes":"27","size_leaf_vector":"1"}},{"base_weights":[3.5370793E-4,-1.5358247E-2,1.30535E-3,-6.529411E-4,-0E0,2.0563446E-3,-1.9801682E-2,9.679301E-4,1.5393661E-3,-0E0,-2.2940844E-2,2.0952157E-5,4.5312993E-4,-7.379719E-4,-0E0],"categories":[],"categories_nodes":[],"categories_segments":[],"categories_sizes":[],"default_left":[0,0,0,0,0,0,0,0,0,0,0,0,0,0,0],"id":27,"left_children":[1,3,5,-1,-1,7,9,-1,11,-1,13,-1,-1,-1,-1],"loss_changes":[7.4963393E-3,3.81693E-3,7.253856E-3,0E0,0E0,5.206101E-3,9.6007064E-4,0E0,4.660544E-3,0E0,4.1969726E-4,0E0,0E0,0E0,0E0],"parents":[2147483647,0,0,1,1,2,2,5,5,6,6,8,8,10,10],"right_children":[2,4,6,-1,-1,8,10,-1,12,-1,14,-1,-1,-1,-1],"split_conditions":[1.0049095E0,1.016453E1,1.2820398E1,-6.529411E-4,-0E0,6.589504E0,1.16044445E1,9.679301E-4,9.628176E0,-0E0,1.1619405E1,2.0952157E-5,4.5312993E-4,-7.379719E-4,-0E0],"split_indices":[0,5,5,0,0,5,7,0,0,0,6,0,0,0,0],"split_type":[0,0,0,0,0,0,0,0,0,0,0,0,0,0,0],"sum_hessian":[5.93E2,2.7E1,5.66E2,2.1E1,6E0,5.52E2,1.4E1,5E0,5.47E2,2E0,1.2E1,5.23E2,2.4E1,1.1E1,1E0],"tree_param":{"num_deleted":"0","num_feature":"12","num_nodes":"15","size_leaf_vector":"1"}},{"base_weights":[7.698528E-4,1.0726757E-2,-4.1115485E-4,-0E0,2.7180377E-2,3.2130715E-2,-1.4339202E-3,-3.987783E-3,1.767767E-3,4.6343036E-2,3.918167E-3,-0E0,4.8889212E-2,-5.3815953E-3,2.6629383E-3,-1.666452E-4,-0E0,-0E0,2.2524237E-4,-0E0,1.6637105E-3,3.7139698E-4,-0E0,-0E0,1.8118701E-3,-3.4261166E-4,4.0997573E-5,1.6320552E-4,-2.4336726E-4],"categories":[],"categories_nodes":[],"categories_segments":[],"categories_sizes":[],"default_left":[0,0,0,0,0,0,0,0,0,0,0,0,0,0,0,0,0,0,0,0,0,0,0,0,0,0,0,0,0],"id":28,"left_children":[1,3,5,7,9,11,13,15,17,19,21,-1,23,25,27,-1,-1,-1,-1,-1,-1,-1,-1,-1,-1,-1,-1,-1,-1],"loss_changes":[8.0209235E-3,1.3878629E-2,1.4383244E-2,4.0582567E-4,8.165274E-3,8.0904225E-3,8.550635E-3,2.2146181E-4,6.609512E-4,6.838288E-3,1.2716345E-3,0E0,4.0220637E-3,1.2145975E-2,6.929078E-3,0E0,0E0,0E0,0E0,0E0,0E0,0E0,0E0,0E0,0E0,0E0,0E0,0E0,0E0],"parents":[2147483647,0,0,1,1,2,2,3,3,4,4,5,5,6,6,7,7,8,8,9,9,10,10,12,12,13,13,14,14],"right_children":[2,4,6,8,10,12,14,16,18,20,22,-1,24,26,28,-1,-1,-1,-1,-1,-1,-1,-1,-1,-1,-1,-1,-1,-1],"split_conditions":[-1.1016741E-1,-1.6205895E-1,6.891169E0,6.6571913E0,7.4715524E0,6.269516E0,5.0438866E-2,-1.6656804E-1,-1.5850595E-1,-1.5296748E-1,-1.2566017E-1,-0E0,6.8004956E0,8.604555E0,1.1511111E1,-1.666452E-4,-0E0,-0E0,2.2524237E-4,-0E0,1.6637105E-3,3.7139698E-4,-0E0,-0E0,1.8118701E-3,-3.4261166E-4,4.0997573E-5,1.6320552E-4,-2.4336726E-4],"split_indices":[4,3,9,6,7,6,4,3,4,4,4,0,8,6,7,0,0,0,0,0,0,0,0,0,0,0,0,0,0],"split_type":[0,0,0,0,0,0,0,0,0,0,0,0,0,0,0,0,0,0,0,0,0,0,0,0,0,0,0,0,0],"sum_hessian":[5.93E2,7.1E1,5.22E2,4.2E1,2.9E1,1.2E1,5.1E2,2E1,2.2E1,1.3E1,1.6E1,4E0,8E0,2.72E2,2.38E2,1.7E1,3E0,1E1,1.2E1,2E0,1.1E1,9E0,7E0,2E0,6E0,1.51E2,1.21E2,1.97E2,4.1E1],"tree_param":{"num_deleted":"0","num_feature":"12","num_nodes":"29","size_leaf_vector":"1"}},{"base_weights":[2.20447E-4,1.3228811E-2,-1.4329207E-3,2.6665198E-2,-0E0,3.0579615E-2,-2.5242234E-3,3.4653455E-2,-0E0,-3.468159E-3,4.3112785E-3,1.7868734E-3,-0E0,-1.1308252E-2,-3.5653682E-4,-0E0,1.2326625E-3,-1.20311015E-4,-0E0,3.7708922E-4,-0E0,2.8520762E-5,-0E0,-1.2502282E-4,-5.3925876E-4,1.9781495E-5,-3.7961727E-4],"categories":[],"categories_nodes":[],"categories_segments":[],"categories_sizes":[],"default_left":[0,0,0,0,0,0,0,0,0,0,0,0,0,0,0,0,0,0,0,0,0,0,0,0,0,0,0],"id":29,"left_children":[1,3,5,7,9,11,13,15,-1,17,19,-1,21,23,25,-1,-1,-1,-1,-1,-1,-1,-1,-1,-1,-1,-1],"loss_changes":[1.3802004E-2,1.2111043E-2,1.5228426E-2,5.135402E-3,6.25423E-4,8.194533E-3,8.369041E-3,5.4324437E-3,0E0,4.082243E-5,1.3290378E-3,0E0,6.326708E-6,1.9955523E-3,6.354973E-3,0E0,0E0,0E0,0E0,0E0,0E0,0E0,0E0,0E0,0E0,0E0,0E0],"parents":[2147483647,0,0,1,1,2,2,3,3,4,4,5,5,6,6,7,7,9,9,10,10,12,12,13,13,14,14],"right_children":[2,4,6,8,10,12,14,16,-1,18,20,-1,22,24,26,-1,-1,-1,-1,-1,-1,-1,-1,-1,-1,-1,-1],"split_conditions":[-1.1016741E-1,5.0125175E0,6.891169E0,7.623032E0,7.7675214E0,2.6923069E1,8.2663765E0,-1.5296748E-1,-0E0,7.1380267E0,9.042349E0,1.7868734E-3,7.510729E1,-4.1764643E-2,1.2329285E1,-0E0,1.2326625E-3,-1.20311015E-4,-0E0,3.7708922E-4,-0E0,2.8520762E-5,-0E0,-1.2502282E-4,-5.3925876E-4,1.9781495E-5,-3.7961727E-4],"split_indices":[4,0,10,10,5,2,5,4,0,0,6,0,2,4,5,0,0,0,0,0,0,0,0,0,0,0,0],"split_type":[0,0,0,0,0,0,0,0,0,0,0,0,0,0,0,0,0,0,0,0,0,0,0,0,0,0,0],"sum_hessian":[5.85E2,7.2E1,5.13E2,3.4E1,3.8E1,1.3E1,5E2,2.4E1,1E1,1.7E1,2.1E1,5E0,8E0,8.9E1,4.11E2,4E0,2E1,1.5E1,2E0,1E1,1.1E1,6E0,2E0,5.1E1,3.8E1,3.73E2,3.8E1],"tree_param":{"num_deleted":"0","num_feature":"12","num_nodes":"27","size_leaf_vector":"1"}},{"base_weights":[4.4565168E-4,1.3617439E-2,-1.2346331E-3,3.2898139E-3,3.753333E-2,2.714552E-2,-2.226808E-3,-4.8425276E-4,9.453099E-3,5.4047357E-2,-0E0,-0E0,5.0097086E-2,-9.623675E-3,-0E0,-0E0,-6.651856E-5,-0E0,3.7021004E-4,-0E0,1.707193E-3,1.7422016E-3,-0E0,-3.2980012E-4,3.1919033E-5,1.9515104E-5,-4.6059195E-4],"categories":[],"categories_nodes":[],"categories_segments":[],"categories_sizes":[],"default_left":[0,0,0,0,0,0,0,0,0,0,0,0,0,0,0,0,0,0,0,0,0,0,0,0,0,0,0],"id":30,"left_children":[1,3,5,7,9,11,13,15,17,19,-1,-1,21,23,25,-1,-1,-1,-1,-1,-1,-1,-1,-1,-1,-1,-1],"loss_changes":[1.420252E-2,1.3824794E-2,1.2013671E-2,2.180798E-3,8.287134E-3,7.251716E-3,7.6157115E-3,9.246458E-5,1.3414705E-3,5.6836754E-4,0E0,0E0,2.6670862E-3,2.6002266E-3,4.872169E-3,0E0,0E0,0E0,0E0,0E0,0E0,0E0,0E0,0E0,0E0,0E0,0E0],"parents":[2147483647,0,0,1,1,2,2,3,3,4,4,5,5,6,6,7,7,8,8,9,9,12,12,13,13,14,14],"right_children":[2,4,6,8,10,12,14,16,18,20,-1,-1,22,24,26,-1,-1,-1,-1,-1,-1,-1,-1,-1,-1,-1,-1],"split_conditions":[-1.1016741E-1,-1.2873974E-1,6.891169E0,-1.6866958E-1,8.062897E0,6.4861317E0,8.011111E0,6.7375684E0,6.9674067E0,-1.4847402E-1,-0E0,-0E0,2.6923069E1,2.22409E-1,1.1923333E1,-0E0,-6.651856E-5,-0E0,3.7021004E-4,-0E0,1.707193E-3,1.7422016E-3,-0E0,-3.2980012E-4,3.1919033E-5,1.9515104E-5,-4.6059195E-4],"split_indices":[4,3,9,4,5,6,9,5,7,4,0,0,2,4,7,0,0,0,0,0,0,0,0,0,0,0,0],"split_type":[0,0,0,0,0,0,0,0,0,0,0,0,0,0,0,0,0,0,0,0,0,0,0,0,0,0,0],"sum_hessian":[5.84E2,7.2E1,5.12E2,5.4E1,1.8E1,1.3E1,4.99E2,2.4E1,3E1,1.1E1,7E0,7E0,6E0,1.08E2,3.91E2,5E0,1.9E1,4E0,2.6E1,1E0,1E1,5E0,1E0,1.04E2,4E0,3.72E2,1.9E1],"tree_param":{"num_deleted":"0","num_feature":"12","num_nodes":"27","size_leaf_vector":"1"}},{"base_weights":[-4.5472954E-4,1.2659496E-2,-1.4814633E-3,-0E0,3.0942682E-2,1.9493712E-3,-5.1309285E-3,-0E0,-1.042872E-3,4.1873623E-2,-0E0,9.634423E-3,-9.685135E-4,1.3924347E-2,-6.729435E-3,-0E0,-4.2771226E-5,1.3183703E-3,-0E0,-0E0,5.97642E-4,1.4365828E-4,-8.572531E-5,1.0141352E-3,-0E0,-3.2480323E-4,-2.370245E-5],"categories":[],"categories_nodes":[],"categories_segments":[],"categories_sizes":[],"default_left":[0,0,0,0,0,0,0,0,0,0,0,0,0,0,0,0,0,0,0,0,0,0,0,0,0,0,0],"id":31,"left_children":[1,3,5,7,9,11,13,-1,15,17,-1,19,21,23,25,-1,-1,-1,-1,-1,-1,-1,-1,-1,-1,-1,-1],"loss_changes":[6.683616E-3,1.0667443E-2,7.139425E-3,1.6313728E-5,8.27096E-3,6.863156E-3,7.842088E-3,0E0,1.011062E-5,5.5829063E-4,0E0,6.5828026E-3,1.8324836E-3,4.703126E-3,5.205673E-3,0E0,0E0,0E0,0E0,0E0,0E0,0E0,0E0,0E0,0E0,0E0,0E0],"parents":[2147483647,0,0,1,1,2,2,3,3,4,4,5,5,6,6,8,8,9,9,11,11,12,12,13,13,14,14],"right_children":[2,4,6,8,10,12,14,-1,16,18,-1,20,22,24,26,-1,-1,-1,-1,-1,-1,-1,-1,-1,-1,-1,-1],"split_conditions":[6.8652625E0,-1.3569291E-1,2E0,6.411896E0,7.510729E1,2.1796079E0,-1.1432484E-1,-0E0,-2.2589462E-1,7.7849483E0,-0E0,5.116278E1,-1.1835628E-1,7.3356028E0,6.952847E-2,-0E0,-4.2771226E-5,1.3183703E-3,-0E0,-0E0,5.97642E-4,1.4365828E-4,-8.572531E-5,1.0141352E-3,-0E0,-3.2480323E-4,-2.370245E-5],"split_indices":[10,3,1,7,2,0,4,0,3,7,0,2,3,8,3,0,0,0,0,0,0,0,0,0,0,0,0],"split_type":[0,0,0,0,0,0,0,0,0,0,0,0,0,0,0,0,0,0,0,0,0,0,0,0,0,0,0],"sum_hessian":[5.77E2,3.4E1,5.43E2,1.8E1,1.6E1,2.66E2,2.77E2,4E0,1.4E1,1.3E1,3E0,8.2E1,1.84E2,1.6E1,2.61E2,2E0,1.2E1,1.2E1,1E0,4.7E1,3.5E1,3.2E1,1.52E2,6E0,1E1,1.44E2,1.17E2],"tree_param":{"num_deleted":"0","num_feature":"12","num_nodes":"27","size_leaf_vector":"1"}},{"base_weights":[-0E0,1.1723592E-2,-1.6456958E-3,-0E0,2.2166109E-2,-7.7574793E-3,1.4348433E-3,-2.0612886E-3,2.7406774E-3,2.579954E-2,-0E0,-1.2592409E-2,-8.96916E-4,3.7497869E-3,-9.429196E-3,-0E0,-7.498934E-5,-0E0,1.9782294E-4,8.5111224E-4,-0E0,-9.4737254E-5,-8.066536E-4,1.0559163E-4,-1.2013583E-4,3.3380096E-5,5.698069E-4,-0E0,-5.04364E-4],"categories":[],"categories_nodes":[],"categories_segments":[],"categories_sizes":[],"default_left":[0,0,0,0,0,0,0,0,0,0,0,0,0,0,0,0,0,0,0,0,0,0,0,0,0,0,0,0,0],"id":32,"left_children":[1,3,5,7,9,11,13,15,17,19,-1,21,23,25,27,-1,-1,-1,-1,-1,-1,-1,-1,-1,-1,-1,-1,-1,-1],"loss_changes":[1.1220915E-2,8.4210215E-3,1.0810292E-2,2.1168403E-4,3.7858915E-3,5.008477E-3,8.24464E-3,2.3491179E-5,2.9961765E-4,2.1810643E-3,0E0,1.093756E-2,1.2841177E-3,9.867329E-3,2.5477186E-3,0E0,0E0,0E0,0E0,0E0,0E0,0E0,0E0,0E0,0E0,0E0,0E0,0E0,0E0],"parents":[2147483647,0,0,1,1,2,2,3,3,4,4,5,5,6,6,7,7,8,8,9,9,11,11,12,12,13,13,14,14],"right_children":[2,4,6,8,10,12,14,16,18,20,-1,22,24,26,28,-1,-1,-1,-1,-1,-1,-1,-1,-1,-1,-1,-1,-1,-1],"split_conditions":[-1.1016741E-1,-1.6205895E-1,2.557242E-3,6.9674067E0,8.290128E0,9.229498E0,1.2000811E1,-2.2589462E-1,-1.5850595E-1,5.326086E1,-0E0,-4.7065757E-2,9.317778E0,1.0333056E1,1.6538154E-1,-0E0,-7.498934E-5,-0E0,1.9782294E-4,8.5111224E-4,-0E0,-9.4737254E-5,-8.066536E-4,1.0559163E-4,-1.2013583E-4,3.3380096E-5,5.698069E-4,-0E0,-5.04364E-4],"split_indices":[4,3,3,7,7,5,5,3,4,2,0,4,7,6,4,0,0,0,0,0,0,0,0,0,0,0,0,0,0],"split_type":[0,0,0,0,0,0,0,0,0,0,0,0,0,0,0,0,0,0,0,0,0,0,0,0,0,0,0,0,0],"sum_hessian":[6.09E2,7E1,5.39E2,3.4E1,3.6E1,1.91E2,3.48E2,1.7E1,1.7E1,3.2E1,4E0,1.03E2,8.8E1,2.95E2,5.3E1,2E0,1.5E1,8E0,9E0,2.9E1,3E0,6.7E1,3.6E1,2.3E1,6.5E1,2.58E2,3.7E1,2.8E1,2.5E1],"tree_param":{"num_deleted":"0","num_feature":"12","num_nodes":"29","size_leaf_vector":"1"}},{"base_weights":[-0E0,6.1695423E-4,-2.2276975E-2,-1.6766606E-2,1.531249E-3,-0E0,-3.2832853E-2,-5.760544E-4,-0E0,1.5215376E-2,6.534782E-4,-3.6054816E-2,-0E0,-0E0,1.0196519E-3,-4.7207817E-5,1.2805304E-4,-0E0,-1.1777169E-3],"categories":[],"categories_nodes":[],"categories_segments":[],"categories_sizes":[],"default_left":[0,0,0,0,0,0,0,0,0,0,0,0,0,0,0,0,0,0,0],"id":33,"left_children":[1,3,5,7,9,-1,11,-1,-1,13,15,17,-1,-1,-1,-1,-1,-1,-1],"loss_changes":[8.156418E-3,7.529759E-3,4.995737E-3,1.2771627E-3,4.9614655E-3,0E0,1.3634907E-3,0E0,0E0,1.0153759E-2,4.4706515E-3,1.1118557E-3,0E0,0E0,0E0,0E0,0E0,0E0,0E0],"parents":[2147483647,0,0,1,1,2,2,3,3,4,4,6,6,9,9,10,10,11,11],"right_children":[2,4,6,8,10,-1,12,-1,-1,14,16,18,-1,-1,-1,-1,-1,-1,-1],"split_conditions":[1.2055555E1,1.0049095E0,1.5736601E-1,1.016453E1,7.448568E0,-0E0,7.4738984E0,-5.760544E-4,-0E0,-1.4542381E-1,6.6604435E-2,5.0335526E0,-0E0,-0E0,1.0196519E-3,-4.7207817E-5,1.2805304E-4,-0E0,-1.1777169E-3],"split_indices":[7,0,3,5,5,0,0,0,0,3,3,0,0,0,0,0,0,0,0],"split_type":[0,0,0,0,0,0,0,0,0,0,0,0,0,0,0,0,0,0,0],"sum_hessian":[5.82E2,5.67E2,1.5E1,2.2E1,5.45E2,4E0,1.1E1,2E1,2E0,2.5E1,5.2E2,1E1,1E0,1.2E1,1.3E1,3.05E2,2.15E2,1E0,9E0],"tree_param":{"num_deleted":"0","num_feature":"12","num_nodes":"19","size_leaf_vector":"1"}},{"base_weights":[6.59432E-4,1.1019116E-2,-5.701109E-4,-0E0,2.5157578E-2,-5.0955685E-3,3.4316652E-3,-3.2741292E-3,1.6732677E-4,2.9848883E-2,-0E0,-1.117678E-2,8.0289354E-4,6.3669686E-3,-1.1649533E-2,-1.3973447E-4,-0E0,-0E0,1.2628433E-4,-0E0,1.023473E-3,-1.0231386E-4,-5.4123934E-4,7.944612E-5,-2.9281026E-4,3.503594E-4,4.6566554E-5,-4.7066476E-4,-0E0],"categories":[],"categories_nodes":[],"categories_segments":[],"categories_sizes":[],"default_left":[0,0,0,0,0,0,0,0,0,0,0,0,0,0,0,0,0,0,0,0,0,0,0,0,0,0,0,0,0],"id":34,"left_children":[1,3,5,7,9,11,13,15,17,19,-1,21,23,25,27,-1,-1,-1,-1,-1,-1,-1,-1,-1,-1,-1,-1,-1,-1],"loss_changes":[8.41356E-3,1.23863565E-2,9.4018E-3,2.0423847E-4,4.951898E-3,1.004968E-2,1.10113E-2,1.6514074E-4,1.9435682E-4,3.259413E-3,0E0,4.8304945E-3,1.6537278E-3,4.361878E-3,2.3628469E-3,0E0,0E0,0E0,0E0,0E0,0E0,0E0,0E0,0E0,0E0,0E0,0E0,0E0,0E0],"parents":[2147483647,0,0,1,1,2,2,3,3,4,4,5,5,6,6,7,7,8,8,9,9,11,11,12,12,13,13,14,14],"right_children":[2,4,6,8,10,12,14,16,18,20,-1,22,24,26,28,-1,-1,-1,-1,-1,-1,-1,-1,-1,-1,-1,-1,-1,-1],"split_conditions":[-1.1016741E-1,-1.6205895E-1,4.0192988E-2,6.9674067E0,7.8539352E0,9.185207E0,1.1752222E1,-1.6656804E-1,-1.5850595E-1,-1.6285405E-1,-0E0,-4.8683237E-2,4.2489424E0,1.1311115E-1,8.375847E0,-1.3973447E-4,-0E0,-0E0,1.2628433E-4,-0E0,1.023473E-3,-1.0231386E-4,-5.4123934E-4,7.944612E-5,-2.9281026E-4,3.503594E-4,4.6566554E-5,-4.7066476E-4,-0E0],"split_indices":[4,3,4,7,6,5,7,3,4,4,0,4,0,4,0,0,0,0,0,0,0,0,0,0,0,0,0,0,0],"split_type":[0,0,0,0,0,0,0,0,0,0,0,0,0,0,0,0,0,0,0,0,0,0,0,0,0,0,0,0,0],"sum_hessian":[5.77E2,6.9E1,5.08E2,3.7E1,3.2E1,2.5E2,2.58E2,1.8E1,1.9E1,2.8E1,4E0,1.31E2,1.19E2,2.22E2,3.6E1,1.6E1,2E0,9E0,1E1,4E0,2.4E1,6.9E1,6.2E1,1.1E2,9E0,9.5E1,1.27E2,2.9E1,7E0],"tree_param":{"num_deleted":"0","num_feature":"12","num_nodes":"29","size_leaf_vector":"1"}},{"base_weights":[-3.791101E-4,-9.946531E-4,2.2852473E-2,1.0700559E-2,-1.724872E-3,3.7521735E-2,-0E0,-0E0,1.4782717E-3,-4.884792E-3,7.05583E-4,1.2219539E-3,-0E0,2.0027999E-4,-1.0400018E-4,2.2810927E-4,-2.1584002E-4,5.397551E-4,-0E0],"categories":[],"categories_nodes":[],"categories_segments":[],"categories_sizes":[],"default_left":[0,0,0,0,0,0,0,0,0,0,0,0,0,0,0,0,0,0,0],"id":35,"left_children":[1,3,5,7,9,11,-1,13,-1,15,17,-1,-1,-1,-1,-1,-1,-1,-1],"loss_changes":[6.231071E-3,4.0485063E-3,4.1105733E-3,9.163434E-3,4.6607517E-3,9.931158E-5,0E0,6.344725E-4,0E0,7.456265E-3,3.4139038E-3,0E0,0E0,0E0,0E0,0E0,0E0,0E0,0E0],"parents":[2147483647,0,0,1,1,2,2,3,3,4,4,5,5,7,7,9,9,10,10],"right_children":[2,4,6,8,10,12,-1,14,-1,16,18,-1,-1,-1,-1,-1,-1,-1,-1],"split_conditions":[1.0387381E1,7.448568E0,2.6349273E-1,1.730109E-2,9.246665E0,9.246278E0,-0E0,6.708935E0,1.4782717E-3,-1.1259755E-1,9.411067E0,1.2219539E-3,-0E0,2.0027999E-4,-1.0400018E-4,2.2810927E-4,-2.1584002E-4,5.397551E-4,-0E0],"split_indices":[0,5,4,4,5,5,0,5,0,4,5,0,0,0,0,0,0,0,0],"split_type":[0,0,0,0,0,0,0,0,0,0,0,0,0,0,0,0,0,0,0],"sum_hessian":[5.86E2,5.76E2,1E1,2.5E1,5.51E2,6E0,4E0,2.1E1,4E0,2.57E2,2.94E2,5E0,1E0,1E1,1.1E1,3.3E1,2.24E2,1E1,2.84E2],"tree_param":{"num_deleted":"0","num_feature":"12","num_nodes":"19","size_leaf_vector":"1"}},{"base_weights":[7.945703E-5,9.1128E-3,-9.678288E-4,2.258752E-2,-0E0,2.2048853E-2,-1.8036735E-3,3.3263896E-2,-0E0,-5.4900334E-3,3.4919726E-3,3.368649E-2,-0E0,-9.694838E-3,2.7142288E-4,-0E0,1.2574011E-3,-0E0,-1.9079614E-4,-0E0,2.2543757E-4,1.1455729E-3,-0E0,-3.4208168E-4,3.047757E-4,3.3581007E-5,-4.0107692E-4],"categories":[],"categories_nodes":[],"categories_segments":[],"categories_sizes":[],"default_left":[0,0,0,0,0,0,0,0,0,0,0,0,0,0,0,0,0,0,0,0,0,0,0,0,0,0,0],"id":36,"left_children":[1,3,5,7,9,11,13,15,-1,17,19,21,-1,23,25,-1,-1,-1,-1,-1,-1,-1,-1,-1,-1,-1,-1],"loss_changes":[6.3766246E-3,8.8996235E-3,7.961489E-3,7.334049E-3,8.5956906E-4,5.676447E-3,9.197935E-3,4.221225E-3,0E0,1.0463898E-4,6.9940137E-4,2.0989524E-3,0E0,4.1396627E-3,3.300918E-3,0E0,0E0,0E0,0E0,0E0,0E0,0E0,0E0,0E0,0E0,0E0,0E0],"parents":[2147483647,0,0,1,1,2,2,3,3,4,4,5,5,6,6,7,7,9,9,10,10,11,11,13,13,14,14],"right_children":[2,4,6,8,10,12,14,16,-1,18,20,22,-1,24,26,-1,-1,-1,-1,-1,-1,-1,-1,-1,-1,-1,-1],"split_conditions":[-1.1016741E-1,4.705938E0,6.891169E0,7.623032E0,7.024052E0,7.510729E1,7.987027E0,-1.4847402E-1,-0E0,6.7375684E0,-1.6866958E-1,6.4080243E0,-0E0,9.114709E0,1.2777685E1,-0E0,1.2574011E-3,-0E0,-1.9079614E-4,-0E0,2.2543757E-4,1.1455729E-3,-0E0,-3.4208168E-4,3.047757E-4,3.3581007E-5,-4.0107692E-4],"split_indices":[4,0,11,10,11,2,10,4,0,5,4,0,0,0,5,0,0,0,0,0,0,0,0,0,0,0,0],"split_type":[0,0,0,0,0,0,0,0,0,0,0,0,0,0,0,0,0,0,0,0,0,0,0,0,0,0,0],"sum_hessian":[5.86E2,7E1,5.16E2,2.8E1,4.2E1,1.3E1,5.03E2,1.9E1,9E0,1.7E1,2.5E1,1E1,3E0,1.14E2,3.89E2,5E0,1.4E1,2E0,1.5E1,8E0,1.7E1,9E0,1E0,1.1E2,4E0,3.74E2,1.5E1],"tree_param":{"num_deleted":"0","num_feature":"12","num_nodes":"27","size_leaf_vector":"1"}},{"base_weights":[2.3063987E-4,1.0255268E-2,-9.541294E-4,2.1556754E-2,-0E0,2.8789014E-2,-1.9009261E-3,2.9417023E-2,-0E0,-2.7551407E-3,1.8120303E-3,-0E0,4.527873E-2,-2.8625608E-3,1.6946495E-2,-0E0,1.1208074E-3,-0E0,-1.1274808E-4,2.7400738E-4,-0E0,1.4775496E-3,-0E0,-2.3582895E-4,1.09259945E-5,7.36093E-4,-0E0],"categories":[],"categories_nodes":[],"categories_segments":[],"categories_sizes":[],"default_left":[0,0,0,0,0,0,0,0,0,0,0,0,0,0,0,0,0,0,0,0,0,0,0,0,0,0,0],"id":37,"left_children":[1,3,5,7,9,11,13,15,-1,17,19,-1,21,23,25,-1,-1,-1,-1,-1,-1,-1,-1,-1,-1,-1,-1],"loss_changes":[8.018514E-3,8.691999E-3,1.21502895E-2,4.504394E-3,2.0989428E-4,7.6769786E-3,7.937899E-3,5.7513025E-3,0E0,5.351905E-5,6.017092E-4,0E0,9.5432997E-4,8.720094E-3,8.78728E-4,0E0,0E0,0E0,0E0,0E0,0E0,0E0,0E0,0E0,0E0,0E0,0E0],"parents":[2147483647,0,0,1,1,2,2,3,3,4,4,5,5,6,6,7,7,9,9,10,10,12,12,13,13,14,14],"right_children":[2,4,6,8,10,12,14,16,-1,18,20,-1,22,24,26,-1,-1,-1,-1,-1,-1,-1,-1,-1,-1,-1,-1],"split_conditions":[-1.1016741E-1,5.087749E0,6.891169E0,7.623032E0,7.933912E0,6.323865E0,9.835722E0,-1.5296748E-1,-0E0,6.244337E0,9.042349E0,-0E0,7.7849483E0,9.246278E0,9.246278E0,-0E0,1.1208074E-3,-0E0,-1.1274808E-4,2.7400738E-4,-0E0,1.4775496E-3,-0E0,-2.3582895E-4,1.09259945E-5,7.36093E-4,-0E0],"split_indices":[4,0,10,10,7,6,0,4,0,6,6,0,7,5,5,0,0,0,0,0,0,0,0,0,0,0,0],"split_type":[0,0,0,0,0,0,0,0,0,0,0,0,0,0,0,0,0,0,0,0,0,0,0,0,0,0,0],"sum_hessian":[5.95E2,7.1E1,5.24E2,3.4E1,3.7E1,1.2E1,5.12E2,2.3E1,1.1E1,1.8E1,1.9E1,4E0,8E0,4.93E2,1.9E1,5E0,1.8E1,5E0,1.3E1,7E0,1.2E1,7E0,1E0,2.05E2,2.88E2,1E1,9E0],"tree_param":{"num_deleted":"0","num_feature":"12","num_nodes":"27","size_leaf_vector":"1"}},{"base_weights":[1.9482992E-4,7.925031E-3,-6.921007E-4,-0E0,1.5640901E-2,2.8938022E-2,-1.5946192E-3,-3.8905353E-3,-0E0,-0E0,1.9050559E-2,-0E0,1.543722E-3,-5.5014216E-3,2.0268108E-3,-1.6508237E-4,-0E0,9.595055E-4,1.2430978E-4,-2.485148E-4,4.23819E-5,-2.5568606E-4,1.0266237E-4],"categories":[],"categories_nodes":[],"categories_segments":[],"categories_sizes":[],"default_left":[0,0,0,0,0,0,0,0,0,0,0,0,0,0,0,0,0,0,0,0,0,0,0],"id":38,"left_children":[1,3,5,7,9,11,13,15,-1,-1,17,-1,-1,19,21,-1,-1,-1,-1,-1,-1,-1,-1],"loss_changes":[4.7464827E-3,5.752748E-3,1.10837985E-2,2.8758903E-4,2.4275463E-3,5.838275E-3,7.4893106E-3,2.271746E-4,0E0,0E0,3.0024135E-3,0E0,0E0,5.623735E-3,3.1842764E-3,0E0,0E0,0E0,0E0,0E0,0E0,0E0,0E0],"parents":[2147483647,0,0,1,1,2,2,3,3,4,4,5,5,6,6,7,7,10,10,13,13,14,14],"right_children":[2,4,6,8,10,12,14,16,-1,-1,18,-1,-1,20,22,-1,-1,-1,-1,-1,-1,-1,-1],"split_conditions":[-1.1016741E-1,-1.7187636E-1,6.891169E0,8.031062E0,-1.6906038E-1,6.8264027E0,4.3759093E-2,-1.7531396E-1,-0E0,-0E0,7.4222555E0,-0E0,1.543722E-3,1.0033334E1,6.757491E0,-1.6508237E-4,-0E0,9.595055E-4,1.2430978E-4,-2.485148E-4,4.23819E-5,-2.5568606E-4,1.0266237E-4],"split_indices":[4,3,9,10,4,9,3,3,0,0,7,0,0,7,6,0,0,0,0,0,0,0,0],"split_type":[0,0,0,0,0,0,0,0,0,0,0,0,0,0,0,0,0,0,0,0,0,0,0],"sum_hessian":[5.85E2,7.1E1,5.14E2,3E1,4.1E1,1.1E1,5.03E2,1.8E1,1.2E1,7E0,3.4E1,6E0,5E0,2.55E2,2.48E2,1.6E1,2E0,1.4E1,2E1,1.92E2,6.3E1,2E1,2.28E2],"tree_param":{"num_deleted":"0","num_feature":"12","num_nodes":"23","size_leaf_vector":"1"}},{"base_weights":[-0E0,-4.296925E-4,1.505658E-2,8.5584534E-4,-8.4747095E-3,3.234289E-2,-0E0,-1.6050937E-3,7.943484E-3,-0E0,-2.1182302E-2,1.1244251E-3,-0E0,2.049045E-4,-1.2900199E-4,2.8406578E-4,-0E0,-2.5585372E-4,2.9328364E-4,-0E0,-6.655346E-4],"categories":[],"categories_nodes":[],"categories_segments":[],"categories_sizes":[],"default_left":[0,0,0,0,0,0,0,0,0,0,0,0,0,0,0,0,0,0,0,0,0],"id":39,"left_children":[1,3,5,7,9,11,-1,13,15,17,19,-1,-1,-1,-1,-1,-1,-1,-1,-1,-1],"loss_changes":[4.862816E-3,6.4883614E-3,6.7459736E-3,8.792117E-3,8.558366E-3,1.1366345E-3,0E0,7.437299E-3,2.1345196E-3,4.621248E-3,9.420784E-4,0E0,0E0,0E0,0E0,0E0,0E0,0E0,0E0,0E0,0E0],"parents":[2147483647,0,0,1,1,2,2,3,3,4,4,5,5,7,7,8,8,9,9,10,10],"right_children":[2,4,6,8,10,12,-1,14,16,18,20,-1,-1,-1,-1,-1,-1,-1,-1,-1,-1],"split_conditions":[9.835722E0,1.5607135E-1,2.5459588E-1,5.231433E-2,1.0321291E1,9.246278E0,-0E0,-1.1016741E-1,1.1411605E1,8.957225E0,7.8069985E-2,1.1244251E-3,-0E0,2.049045E-4,-1.2900199E-4,2.8406578E-4,-0E0,-2.5585372E-4,2.9328364E-4,-0E0,-6.655346E-4],"split_indices":[0,4,4,4,5,5,0,4,6,11,3,0,0,0,0,0,0,0,0,0,0],"split_type":[0,0,0,0,0,0,0,0,0,0,0,0,0,0,0,0,0,0,0,0,0],"sum_hessian":[5.72E2,5.52E2,2E1,4.66E2,8.6E1,1E1,1E1,3.36E2,1.3E2,5.4E1,3.2E1,8E0,2E0,7.2E1,2.64E2,1.15E2,1.5E1,3.1E1,2.3E1,1E0,3.1E1],"tree_param":{"num_deleted":"0","num_feature":"12","num_nodes":"21","size_leaf_vector":"1"}},{"base_weights":[-0E0,6.976257E-3,-1.4630539E-3,2.941235E-3,3.9026912E-2,1.7039102E-3,-5.687299E-3,-8.423389E-3,7.448774E-3,-0E0,1.5306186E-3,8.329444E-3,-1.1256464E-3,-7.0954743E-3,1.1053978E-3,-0E0,-4.0132622E-4,-0E0,5.623943E-4,-0E0,5.3361355E-4,-9.4470306E-5,1.2158057E-4,-3.310736E-4,-1.1285481E-5],"categories":[],"categories_nodes":[],"categories_segments":[],"categories_sizes":[],"default_left":[0,0,0,0,0,0,0,0,0,0,0,0,0,0,0,0,0,0,0,0,0,0,0,0,0],"id":40,"left_children":[1,3,5,7,9,11,13,15,17,-1,-1,19,21,23,-1,-1,-1,-1,-1,-1,-1,-1,-1,-1,-1],"loss_changes":[6.1991215E-3,9.39686E-3,6.909753E-3,4.9854773E-3,1.9107228E-3,5.697796E-3,1.058306E-2,1.1234026E-3,5.919197E-3,0E0,0E0,6.4110965E-3,1.7664611E-3,4.6264436E-3,0E0,0E0,0E0,0E0,0E0,0E0,0E0,0E0,0E0,0E0,0E0],"parents":[2147483647,0,0,1,1,2,2,3,3,4,4,5,5,6,6,7,7,8,8,11,11,12,12,13,13],"right_children":[2,4,6,8,10,12,14,16,18,-1,-1,20,22,24,-1,-1,-1,-1,-1,-1,-1,-1,-1,-1,-1],"split_conditions":[7.1982784E0,7.1021957E0,2E0,6.269516E0,3.875027E0,2.205028E0,1.0273481E1,6.979865E1,3.0816732E-2,-0E0,1.5306186E-3,5.116278E1,2.5303006E-1,9.66E0,1.1053978E-3,-0E0,-4.0132622E-4,-0E0,5.623943E-4,-0E0,5.3361355E-4,-9.4470306E-5,1.2158057E-4,-3.310736E-4,-1.1285481E-5],"split_indices":[6,6,1,6,0,0,0,2,4,0,0,2,4,9,0,0,0,0,0,0,0,0,0,0,0],"split_type":[0,0,0,0,0,0,0,0,0,0,0,0,0,0,0,0,0,0,0,0,0,0,0,0,0],"sum_hessian":[5.9E2,1.05E2,4.85E2,9.7E1,8E0,2.64E2,2.21E2,2.1E1,7.6E1,3E0,5E0,8.9E1,1.75E2,2.17E2,4E0,7E0,1.4E1,4.8E1,2.8E1,5E1,3.9E1,1.4E2,3.5E1,1.27E2,9E1],"tree_param":{"num_deleted":"0","num_feature":"12","num_nodes":"25","size_leaf_vector":"1"}},{"base_weights":[-1.4249625E-4,-9.0416154E-4,1.5123301E-2,1.9703298E-3,-4.3307506E-3,1.2579707E-3,-0E0,7.5844815E-3,-0E0,9.257209E-3,-7.3393853E-3,-2.6082274E-5,5.3440607E-3,-0E0,5.246985E-4,-5.010597E-5,2.5119956E-4,7.0654694E-4,-2.737425E-5,-2.64148E-4,-0E0,1.8492718E-4,-0E0],"categories":[],"categories_nodes":[],"categories_segments":[],"categories_sizes":[],"default_left":[0,0,0,0,0,0,0,0,0,0,0,0,0,0,0,0,0,0,0,0,0,0,0],"id":41,"left_children":[1,3,5,7,9,-1,11,13,15,17,19,-1,21,-1,-1,-1,-1,-1,-1,-1,-1,-1,-1],"loss_changes":[5.2426485E-3,5.68161E-3,5.7469388E-3,3.553046E-3,1.0832322E-2,0E0,3.7429028E-4,6.352868E-3,2.5270144E-3,8.53627E-3,2.9438883E-3,0E0,8.470734E-5,0E0,0E0,0E0,0E0,0E0,0E0,0E0,0E0,0E0,0E0],"parents":[2147483647,0,0,1,1,2,2,3,3,4,4,6,6,7,7,8,8,9,9,10,10,12,12],"right_children":[2,4,6,8,10,-1,12,14,16,18,20,-1,22,-1,-1,-1,-1,-1,-1,-1,-1,-1,-1],"split_conditions":[9.835722E0,2E0,8.6305E0,2.205028E0,7.4157786E0,1.2579707E-3,8.166667E0,5.116278E1,2.1832076E-1,5.053191E1,7.302325E1,-2.6082274E-5,1.0823897E1,-0E0,5.246985E-4,-5.010597E-5,2.5119956E-4,7.0654694E-4,-2.737425E-5,-2.64148E-4,-0E0,1.8492718E-4,-0E0],"split_indices":[0,1,5,0,11,0,9,2,3,2,2,0,0,0,0,0,0,0,0,0,0,0,0],"split_type":[0,0,0,0,0,0,0,0,0,0,0,0,0,0,0,0,0,0,0,0,0,0,0],"sum_hessian":[5.71E2,5.51E2,2E1,2.84E2,2.67E2,5E0,1.5E1,8E1,2.04E2,4.2E1,2.25E2,3E0,1.2E1,4.5E1,3.5E1,1.76E2,2.8E1,2.1E1,2.1E1,1.94E2,3.1E1,1.1E1,1E0],"tree_param":{"num_deleted":"0","num_feature":"12","num_nodes":"23","size_leaf_vector":"1"}},{"base_weights":[2.7703072E-4,9.491974E-4,-1.3725529E-2,-8.5807815E-3,1.6483039E-3,-0E0,-3.0595675E-2,-1.2147946E-2,-0E0,6.5983394E-3,-0E0,-1.010463E-3,-0E0,-0E0,-3.8191018E-4,5.6002948E-5,6.788403E-4,-2.5011446E-5,3.7593022E-4],"categories":[],"categories_nodes":[],"categories_segments":[],"categories_sizes":[],"default_left":[0,0,0,0,0,0,0,0,0,0,0,0,0,0,0,0,0,0,0],"id":42,"left_children":[1,3,5,7,9,-1,11,13,-1,15,17,-1,-1,-1,-1,-1,-1,-1,-1],"loss_changes":[4.2320346E-3,3.0851914E-3,6.5292455E-3,1.2589057E-3,4.636354E-3,0E0,1.0477891E-3,9.122537E-6,0E0,8.126663E-3,3.7166208E-3,0E0,0E0,0E0,0E0,0E0,0E0,0E0,0E0],"parents":[2147483647,0,0,1,1,2,2,3,3,4,4,6,6,7,7,9,9,10,10],"right_children":[2,4,6,8,10,-1,12,14,-1,16,18,-1,-1,-1,-1,-1,-1,-1,-1],"split_conditions":[1.1962222E1,1.0049095E0,4.142149E0,9.883084E0,2.205028E0,-0E0,3E0,2.7380945E1,-0E0,7.832717E-2,9.835722E0,-1.010463E-3,-0E0,-0E0,-3.8191018E-4,5.6002948E-5,6.788403E-4,-2.5011446E-5,3.7593022E-4],"split_indices":[7,0,0,6,0,0,1,2,0,3,0,0,0,0,0,0,0,0,0],"split_type":[0,0,0,0,0,0,0,0,0,0,0,0,0,0,0,0,0,0,0],"sum_hessian":[5.83E2,5.64E2,1.9E1,2.8E1,5.36E2,9E0,1E1,2.2E1,6E0,1.39E2,3.97E2,9E0,1E0,2E0,2E1,1.13E2,2.6E1,3.76E2,2.1E1],"tree_param":{"num_deleted":"0","num_feature":"12","num_nodes":"19","size_leaf_vector":"1"}},{"base_weights":[-1.679958E-4,9.048344E-3,-1.6767081E-3,1.8485634E-2,-0E0,-5.559408E-3,1.6061305E-3,2.9732725E-3,3.4429785E-2,-2.9116007E-3,5.1299213E-3,-9.766298E-3,-0E0,6.6529587E-3,-2.9838535E-3,1.501139E-4,-0E0,-0E0,1.3786004E-3,-0E0,-1.20774996E-4,3.5635292E-4,-0E0,-3.952984E-5,-4.7356225E-4,2.1258751E-5,-2.7407447E-4,-6.7464075E-6,2.4831138E-4,-3.238549E-4,1.1299908E-4],"categories":[],"categories_nodes":[],"categories_segments":[],"categories_sizes":[],"default_left":[0,0,0,0,0,0,0,0,0,0,0,0,0,0,0,0,0,0,0,0,0,0,0,0,0,0,0,0,0,0,0],"id":43,"left_children":[1,3,5,7,9,11,13,15,17,19,21,23,25,27,29,-1,-1,-1,-1,-1,-1,-1,-1,-1,-1,-1,-1,-1,-1,-1,-1],"loss_changes":[7.30108E-3,5.381894E-3,6.853873E-3,4.3192618E-3,7.043477E-4,5.464014E-3,6.432791E-3,2.3999842E-4,5.706772E-3,6.508421E-5,8.846494E-4,5.235794E-3,9.683095E-4,2.315057E-3,7.4402452E-3,0E0,0E0,0E0,0E0,0E0,0E0,0E0,0E0,0E0,0E0,0E0,0E0,0E0,0E0,0E0,0E0],"parents":[2147483647,0,0,1,1,2,2,3,3,4,4,5,5,6,6,7,7,8,8,9,9,10,10,11,11,12,12,13,13,14,14],"right_children":[2,4,6,8,10,12,14,16,18,20,22,24,26,28,30,-1,-1,-1,-1,-1,-1,-1,-1,-1,-1,-1,-1,-1,-1,-1,-1],"split_conditions":[-1.0850847E-1,5.0125175E0,4.0192988E-2,3.9620624E0,8.031062E0,9.229498E0,1.3985266E-1,7.778472E0,7.0207024E0,6.291396E0,9.042349E0,-4.6931513E-2,4.2489424E0,6.4861317E0,2.2438885E-1,1.501139E-4,-0E0,-0E0,1.3786004E-3,-0E0,-1.20774996E-4,3.5635292E-4,-0E0,-3.952984E-5,-4.7356225E-4,2.1258751E-5,-2.7407447E-4,-6.7464075E-6,2.4831138E-4,-3.238549E-4,1.1299908E-4],"split_indices":[4,0,4,0,10,5,4,11,10,6,6,4,0,6,4,0,0,0,0,0,0,0,0,0,0,0,0,0,0,0,0],"split_type":[0,0,0,0,0,0,0,0,0,0,0,0,0,0,0,0,0,0,0,0,0,0,0,0,0,0,0,0,0,0,0],"sum_hessian":[5.76E2,7.1E1,5.05E2,3.2E1,3.9E1,2.45E2,2.6E2,2E1,1.2E1,2E1,1.9E1,1.36E2,1.09E2,1.34E2,1.26E2,1.6E1,4E0,3E0,9E0,6E0,1.4E1,9E0,1E1,6.4E1,7.2E1,9.9E1,1E1,1.4E1,1.2E2,6.5E1,6.1E1],"tree_param":{"num_deleted":"0","num_feature":"12","num_nodes":"31","size_leaf_vector":"1"}},{"base_weights":[2.2290267E-4,-2.1045054E-5,1.8444112E-2,6.958294E-3,-1.1982786E-3,1.0817136E-3,-0E0,-0E0,1.4138974E-2,-4.530409E-3,1.930436E-3,-6.77082E-5,-0E0,4.96121E-4,-0E0,-2.4652918E-4,-0E0,1.8831306E-4,-6.6011125E-5],"categories":[],"categories_nodes":[],"categories_segments":[],"categories_sizes":[],"default_left":[0,0,0,0,0,0,0,0,0,0,0,0,0,0,0,0,0,0,0],"id":44,"left_children":[1,3,5,7,9,-1,-1,11,13,15,17,-1,-1,-1,-1,-1,-1,-1,-1],"loss_changes":[4.394138E-3,4.0499037E-3,4.678404E-3,4.8555024E-3,5.4188333E-3,0E0,0E0,1.2734448E-4,2.1960754E-3,4.490489E-3,4.7307424E-3,0E0,0E0,0E0,0E0,0E0,0E0,0E0,0E0],"parents":[2147483647,0,0,1,1,2,2,3,3,4,4,7,7,8,8,9,9,10,10],"right_children":[2,4,6,8,10,-1,-1,12,14,16,18,-1,-1,-1,-1,-1,-1,-1,-1],"split_conditions":[1.0387381E1,-1.1016741E-1,2.6349273E-1,-1.7187636E-1,4.920971E-2,1.0817136E-3,-0E0,1.141E1,-8.677309E-2,8.569048E0,1.3985266E-1,-6.77082E-5,-0E0,4.96121E-4,-0E0,-2.4652918E-4,-0E0,1.8831306E-4,-6.6011125E-5],"split_indices":[0,4,4,3,4,0,0,9,3,6,4,0,0,0,0,0,0,0,0],"split_type":[0,0,0,0,0,0,0,0,0,0,0,0,0,0,0,0,0,0,0],"sum_hessian":[5.73E2,5.61E2,1.2E1,6.8E1,4.93E2,6E0,6E0,2.8E1,4E1,2.54E2,2.39E2,2.4E1,4E0,3.7E1,3E0,1.43E2,1.11E2,1.28E2,1.11E2],"tree_param":{"num_deleted":"0","num_feature":"12","num_nodes":"19","size_leaf_vector":"1"}},{"base_weights":[1.7912456E-4,8.720541E-3,-8.937794E-4,-0E0,2.1727165E-2,-4.527586E-3,2.9198257E-3,-3.8325638E-3,6.072377E-3,2.9340357E-2,-0E0,-9.548044E-3,1.902596E-4,1.1834473E-3,1.6942379E-3,-0E0,-1.4750508E-4,-0E0,2.7372708E-4,-0E0,9.725091E-4,-8.15975E-5,-4.3380965E-4,1.1491074E-4,-8.235881E-5,1.2010841E-4,-1.8832518E-4],"categories":[],"categories_nodes":[],"categories_segments":[],"categories_sizes":[],"default_left":[0,0,0,0,0,0,0,0,0,0,0,0,0,0,0,0,0,0,0,0,0,0,0,0,0,0,0],"id":45,"left_children":[1,3,5,7,9,11,13,15,17,19,-1,21,23,-1,25,-1,-1,-1,-1,-1,-1,-1,-1,-1,-1,-1,-1],"loss_changes":[6.1698095E-3,6.494175E-3,7.2692423E-3,1.4293607E-3,4.9433196E-3,7.4748597E-3,6.429119E-3,8.783172E-5,6.420725E-4,1.6983468E-3,0E0,3.0726437E-3,1.5402203E-3,0E0,4.0872158E-3,0E0,0E0,0E0,0E0,0E0,0E0,0E0,0E0,0E0,0E0,0E0,0E0],"parents":[2147483647,0,0,1,1,2,2,3,3,4,4,5,5,6,6,7,7,8,8,9,9,11,11,12,12,14,14],"right_children":[2,4,6,8,10,12,14,16,18,20,-1,22,24,-1,26,-1,-1,-1,-1,-1,-1,-1,-1,-1,-1,-1,-1],"split_conditions":[-1.1016741E-1,-1.3778716E-1,5.0438866E-2,7.7899895E0,-8.677309E-2,9.235934E0,7.448568E0,6.244337E0,-1.6754803E-1,6.398943E0,-0E0,-4.6931513E-2,2E0,1.1834473E-3,1.1433333E1,-0E0,-1.4750508E-4,-0E0,2.7372708E-4,-0E0,9.725091E-4,-8.15975E-5,-4.3380965E-4,1.1491074E-4,-8.235881E-5,1.2010841E-4,-1.8832518E-4],"split_indices":[4,3,4,5,3,5,5,6,4,11,0,4,1,0,8,0,0,0,0,0,0,0,0,0,0,0,0],"split_type":[0,0,0,0,0,0,0,0,0,0,0,0,0,0,0,0,0,0,0,0,0,0,0,0,0,0,0],"sum_hessian":[5.86E2,7.5E1,5.11E2,5E1,2.5E1,2.75E2,2.36E2,2.1E1,2.9E1,1.9E1,6E0,1.43E2,1.32E2,4E0,2.32E2,5E0,1.6E1,9E0,2E1,2E0,1.7E1,6.9E1,7.4E1,7.4E1,5.8E1,1.9E2,4.2E1],"tree_param":{"num_deleted":"0","num_feature":"12","num_nodes":"27","size_leaf_vector":"1"}},{"base_weights":[-0E0,-5.243336E-4,1.4408039E-2,6.813338E-3,-1.8152394E-3,3.6636572E-2,-0E0,-2.673951E-3,1.2919108E-2,9.600196E-4,-4.8821615E-3,-0E0,1.2000985E-3,4.8555024E-3,-0E0,-1.1276334E-4,-0E0,-0E0,5.0201407E-4,2.1940612E-4,-4.6519926E-5,3.3454315E-4,-1.7813267E-4,-0E0,1.7108534E-4],"categories":[],"categories_nodes":[],"categories_segments":[],"categories_sizes":[],"default_left":[0,0,0,0,0,0,0,0,0,0,0,0,0,0,0,0,0,0,0,0,0,0,0,0,0],"id":46,"left_children":[1,3,5,7,9,11,13,15,17,19,21,-1,-1,23,-1,-1,-1,-1,-1,-1,-1,-1,-1,-1,-1],"loss_changes":[5.1372563E-3,4.854903E-3,4.41347E-3,5.287747E-3,4.584561E-3,2.059089E-4,2.5933492E-4,1.3224628E-4,2.408716E-3,4.4479333E-3,3.793016E-3,0E0,0E0,6.58895E-5,0E0,0E0,0E0,0E0,0E0,0E0,0E0,0E0,0E0,0E0,0E0],"parents":[2147483647,0,0,1,1,2,2,3,3,4,4,5,5,6,6,7,7,8,8,9,9,10,10,13,13],"right_children":[2,4,6,8,10,12,14,16,18,20,22,-1,-1,24,-1,-1,-1,-1,-1,-1,-1,-1,-1,-1,-1],"split_conditions":[9.628176E0,-1.1016741E-1,2.2805753E-1,-1.6963056E-1,2E0,2E0,1.0470293E1,1.141E1,-1.7187636E-1,2.1796079E0,6.8587856E0,-0E0,1.2000985E-3,9.999879E0,-0E0,-1.1276334E-4,-0E0,-0E0,5.0201407E-4,2.1940612E-4,-4.6519926E-5,3.3454315E-4,-1.7813267E-4,-0E0,1.7108534E-4],"split_indices":[0,4,3,4,1,1,0,8,3,0,10,0,0,0,0,0,0,0,0,0,0,0,0,0,0],"split_type":[0,0,0,0,0,0,0,0,0,0,0,0,0,0,0,0,0,0,0,0,0,0,0,0,0],"sum_hessian":[5.86E2,5.63E2,2.3E1,7.2E1,4.91E2,6E0,1.7E1,2.2E1,5E1,2.41E2,2.5E2,1E0,5E0,1E1,7E0,2E1,2E0,1.2E1,3.8E1,7.9E1,1.62E2,9E0,2.41E2,1E0,9E0],"tree_param":{"num_deleted":"0","num_feature":"12","num_nodes":"25","size_leaf_vector":"1"}},{"base_weights":[4.044339E-4,7.5288056E-3,-4.1119894E-4,-1.7921091E-3,1.640927E-2,-3.983808E-3,3.0794127E-3,-3.1298562E-3,-0E0,-0E0,2.1807369E-2,-7.852804E-3,-0E0,9.328661E-3,-1.0344033E-4,-1.2600464E-4,-0E0,1.3441268E-3,8.044857E-5,-0E0,-2.7998918E-4,3.4691946E-4,-1.6158683E-5,7.978504E-5,6.6290895E-4,1.4261718E-4,-3.0582148E-4],"categories":[],"categories_nodes":[],"categories_segments":[],"categories_sizes":[],"default_left":[0,0,0,0,0,0,0,0,0,0,0,0,0,0,0,0,0,0,0,0,0,0,0,0,0,0,0],"id":47,"left_children":[1,3,5,7,9,11,13,15,-1,-1,17,19,21,23,25,-1,-1,-1,-1,-1,-1,-1,-1,-1,-1,-1,-1],"loss_changes":[4.2420556E-3,7.6991785E-3,6.7495327E-3,1.8131104E-4,4.3214625E-3,4.7762496E-3,6.015439E-3,1.21665915E-4,0E0,0E0,1.0085562E-2,2.6578829E-3,1.5057963E-3,5.7255104E-3,8.434649E-3,0E0,0E0,0E0,0E0,0E0,0E0,0E0,0E0,0E0,0E0,0E0,0E0],"parents":[2147483647,0,0,1,1,2,2,3,3,4,4,5,5,6,6,7,7,10,10,11,11,12,12,13,13,14,14],"right_children":[2,4,6,8,10,12,14,16,-1,-1,18,20,22,24,26,-1,-1,-1,-1,-1,-1,-1,-1,-1,-1,-1,-1],"split_conditions":[-1.1016741E-1,-1.6086836E-1,5.0438866E-2,1.141E1,-1.7531396E-1,9.235934E0,1.1311115E-1,-1.6329402E-1,-0E0,-0E0,7.4715524E0,2.7979273E1,9.419657E0,6.887755E1,1.0025556E1,-1.2600464E-4,-0E0,1.3441268E-3,8.044857E-5,-0E0,-2.7998918E-4,3.4691946E-4,-1.6158683E-5,7.978504E-5,6.6290895E-4,1.4261718E-4,-3.0582148E-4],"split_indices":[4,4,4,8,3,5,4,3,0,0,7,2,5,2,7,0,0,0,0,0,0,0,0,0,0,0,0],"split_type":[0,0,0,0,0,0,0,0,0,0,0,0,0,0,0,0,0,0,0,0,0,0,0,0,0,0,0],"sum_hessian":[6.06E2,7.4E1,5.32E2,3.1E1,4.3E1,2.77E2,2.55E2,2.8E1,3E0,1E1,3.3E1,1.48E2,1.29E2,9.6E1,1.59E2,2.2E1,6E0,1.2E1,2.1E1,1.3E1,1.35E2,1E1,1.19E2,6.9E1,2.7E1,1.01E2,5.8E1],"tree_param":{"num_deleted":"0","num_feature":"12","num_nodes":"27","size_leaf_vector":"1"}},{"base_weights":[-4.200572E-4,-0E0,-1.713859E-2,-1.8886533E-3,2.9260796E-3,-0E0,-3.104012E-2,3.7820654E-3,-3.645609E-3,6.6819526E-3,-2.747842E-4,-0E0,-1.0186019E-3,4.1872595E-4,-0E0,-1.9952153E-4,1.0170482E-4,-2.3016793E-4,2.7159302E-4,-2.542757E-4,1.1781172E-4],"categories":[],"categories_nodes":[],"categories_segments":[],"categories_sizes":[],"default_left":[0,0,0,0,0,0,0,0,0,0,0,0,0,0,0,0,0,0,0,0,0],"id":48,"left_children":[1,3,5,7,9,-1,11,13,15,17,19,-1,-1,-1,-1,-1,-1,-1,-1,-1,-1],"loss_changes":[4.592949E-3,3.286907E-3,5.89868E-3,3.5370784E-3,3.479754E-3,0E0,9.2995353E-4,3.854732E-3,6.374431E-3,4.393967E-3,4.4165617E-3,0E0,0E0,0E0,0E0,0E0,0E0,0E0,0E0,0E0,0E0],"parents":[2147483647,0,0,1,1,2,2,3,3,4,4,6,6,7,7,8,8,9,9,10,10],"right_children":[2,4,6,8,10,-1,12,14,16,18,20,-1,-1,-1,-1,-1,-1,-1,-1,-1,-1],"split_conditions":[1.2055555E1,5.5625148E-2,1.9315091E-1,-1.1016741E-1,9.838889E0,-0E0,5.0335526E0,4.705938E0,9.908889E0,6.269516E0,1.0243334E1,-0E0,-1.0186019E-3,4.1872595E-4,-0E0,-1.9952153E-4,1.0170482E-4,-2.3016793E-4,2.7159302E-4,-2.542757E-4,1.1781172E-4],"split_indices":[7,4,3,4,7,0,0,0,7,6,9,0,0,0,0,0,0,0,0,0,0],"split_type":[0,0,0,0,0,0,0,0,0,0,0,0,0,0,0,0,0,0,0,0,0],"sum_hessian":[6.04E2,5.89E2,1.5E1,3.54E2,2.35E2,5E0,1E1,7E1,2.84E2,1.22E2,1.13E2,1E0,9E0,2.4E1,4.6E1,2.09E2,7.5E1,1.1E1,1.11E2,4.6E1,6.7E1],"tree_param":{"num_deleted":"0","num_feature":"12","num_nodes":"21","size_leaf_vector":"1"}},{"base_weights":[1.3426832E-3,2.0156035E-3,-1.2608855E-2,-4.5273372E-4,5.5748154E-3,-0E0,-2.8945753E-2,6.4958762E-3,-2.9335306E-3,2.8696254E-2,3.1680204E-3,-9.5920195E-4,-0E0,-0E0,4.1839218E-4,-1.7202174E-4,1.11486355E-4,1.596291E-3,-0E0,-3.37191E-4,1.2484343E-4],"categories":[],"categories_nodes":[],"categories_segments":[],"categories_sizes":[],"default_left":[0,0,0,0,0,0,0,0,0,0,0,0,0,0,0,0,0,0,0,0,0],"id":49,"left_children":[1,3,5,7,9,-1,11,13,15,17,19,-1,-1,-1,-1,-1,-1,-1,-1,-1,-1],"loss_changes":[4.61783E-3,5.627797E-3,5.877774E-3,5.316915E-3,1.0913043E-2,0E0,1.0065595E-3,4.962168E-3,4.934659E-3,9.011952E-3,2.7168228E-3,0E0,0E0,0E0,0E0,0E0,0E0,0E0,0E0,0E0,0E0],"parents":[2147483647,0,0,1,1,2,2,3,3,4,4,6,6,7,7,8,8,9,9,10,10],"right_children":[2,4,6,8,10,-1,12,14,16,18,20,-1,-1,-1,-1,-1,-1,-1,-1,-1,-1],"split_conditions":[1.1962222E1,4.105204E-2,1.4981605E-1,-1.1016741E-1,8.277227E0,-0E0,3E0,-1.5296748E-1,9.908889E0,4.3529404E1,6.7506886E0,-9.5920195E-4,-0E0,-0E0,4.1839218E-4,-1.7202174E-4,1.11486355E-4,1.596291E-3,-0E0,-3.37191E-4,1.2484343E-4],"split_indices":[7,4,4,4,5,0,1,4,7,2,6,0,0,0,0,0,0,0,0,0,0],"split_type":[0,0,0,0,0,0,0,0,0,0,0,0,0,0,0,0,0,0,0,0,0],"sum_hessian":[6.01E2,5.81E2,2E1,3.27E2,2.54E2,1E1,1E1,7.5E1,2.52E2,1.9E1,2.35E2,9E0,1E0,3.4E1,4.1E1,1.88E2,6.4E1,8E0,1.1E1,8E0,2.27E2],"tree_param":{"num_deleted":"0","num_feature":"12","num_nodes":"21","size_leaf_vector":"1"}},{"base_weights":[-0E0,9.335348E-3,-1.2004459E-3,3.555497E-3,3.076898E-2,1.7313175E-2,-1.9135738E-3,-0E0,6.9194767E-3,3.9815623E-2,-0E0,1.0395155E-3,-0E0,-7.6246834E-3,-0E0,3.4273986E-4,-0E0,-0E0,1.3263043E-3,-1.2898393E-5,-4.49169E-4,1.1298064E-5,-4.5046996E-4],"categories":[],"categories_nodes":[],"categories_segments":[],"categories_sizes":[],"default_left":[0,0,0,0,0,0,0,0,0,0,0,0,0,0,0,0,0,0,0,0,0,0,0],"id":50,"left_children":[1,3,5,7,9,11,13,-1,15,17,-1,-1,-1,19,21,-1,-1,-1,-1,-1,-1,-1,-1],"loss_changes":[6.406818E-3,4.5105615E-3,5.2924985E-3,8.242057E-4,3.2149702E-3,6.6094794E-3,4.731139E-3,0E0,1.4698941E-3,9.994851E-4,0E0,0E0,0E0,4.4269892E-3,3.6607091E-3,0E0,0E0,0E0,0E0,0E0,0E0,0E0,0E0],"parents":[2147483647,0,0,1,1,2,2,3,3,4,4,5,5,6,6,8,8,9,9,13,13,14,14],"right_children":[2,4,6,8,10,12,14,-1,16,18,-1,-1,-1,20,22,-1,-1,-1,-1,-1,-1,-1,-1],"split_conditions":[-1.1016741E-1,-1.1605884E-1,6.891169E0,-1.5850595E-1,4.379515E0,7.419354E1,7.987027E0,-0E0,-1.2856224E-1,2E0,-0E0,1.0395155E-3,-0E0,-4.5144483E-2,1.2699534E1,3.4273986E-4,-0E0,-0E0,1.3263043E-3,-1.2898393E-5,-4.49169E-4,1.1298064E-5,-4.5046996E-4],"split_indices":[4,4,11,4,0,2,10,0,4,1,0,0,0,4,5,0,0,0,0,0,0,0,0],"split_type":[0,0,0,0,0,0,0,0,0,0,0,0,0,0,0,0,0,0,0,0,0,0,0],"sum_hessian":[5.78E2,6.4E1,5.14E2,5.5E1,9E0,1.3E1,5.01E2,2.4E1,3.1E1,7E0,2E0,8E0,5E0,1.12E2,3.89E2,2.2E1,9E0,1E0,6E0,6.4E1,4.8E1,3.74E2,1.5E1],"tree_param":{"num_deleted":"0","num_feature":"12","num_nodes":"23","size_leaf_vector":"1"}},{"base_weights":[-0E0,6.5095397E-3,-9.6042186E-4,1.60791E-2,-0E0,1.7529186E-2,-1.578755E-3,2.608222E-2,-0E0,-3.9753364E-3,5.112887E-3,-0E0,3.177367E-2,-2.34876E-3,1.1377662E-2,-0E0,1.0405261E-3,-0E0,-1.513764E-4,3.538354E-4,-0E0,-0E0,1.1015617E-3,-0E0,-1.6951369E-4,1.2310257E-3,-0E0],"categories":[],"categories_nodes":[],"categories_segments":[],"categories_sizes":[],"default_left":[0,0,0,0,0,0,0,0,0,0,0,0,0,0,0,0,0,0,0,0,0,0,0,0,0,0,0],"id":51,"left_children":[1,3,5,7,9,11,13,15,-1,17,19,-1,21,23,25,-1,-1,-1,-1,-1,-1,-1,-1,-1,-1,-1,-1],"loss_changes":[3.497439E-3,4.230486E-3,4.491981E-3,5.0060307E-3,9.2825294E-4,4.389262E-3,4.3016393E-3,3.393841E-3,0E0,1.04478066E-4,8.421318E-4,0E0,1.3613235E-3,3.3508798E-3,5.5710976E-3,0E0,0E0,0E0,0E0,0E0,0E0,0E0,0E0,0E0,0E0,0E0,0E0],"parents":[2147483647,0,0,1,1,2,2,3,3,4,4,5,5,6,6,7,7,9,9,10,10,12,12,13,13,14,14],"right_children":[2,4,6,8,10,12,14,16,-1,18,20,-1,22,24,26,-1,-1,-1,-1,-1,-1,-1,-1,-1,-1,-1,-1],"split_conditions":[-1.1016741E-1,4.705938E0,6.891169E0,7.623032E0,8.031062E0,6.323865E0,9.999879E0,-1.4847402E-1,-0E0,6.244337E0,9.317778E0,-0E0,6.8004956E0,3.7866633E0,8.6305E0,-0E0,1.0405261E-3,-0E0,-1.513764E-4,3.538354E-4,-0E0,-0E0,1.1015617E-3,-0E0,-1.6951369E-4,1.2310257E-3,-0E0],"split_indices":[4,0,10,10,10,6,0,4,0,6,10,0,8,0,5,0,0,0,0,0,0,0,0,0,0,0,0],"split_type":[0,0,0,0,0,0,0,0,0,0,0,0,0,0,0,0,0,0,0,0,0,0,0,0,0,0,0],"sum_hessian":[5.99E2,7E1,5.29E2,2.7E1,4.3E1,1.1E1,5.18E2,1.7E1,1E1,2.3E1,2E1,4E0,7E0,4.97E2,2.1E1,5E0,1.2E1,5E0,1.8E1,9E0,1.1E1,1E0,6E0,3.07E2,1.9E2,4E0,1.7E1],"tree_param":{"num_deleted":"0","num_feature":"12","num_nodes":"27","size_leaf_vector":"1"}},{"base_weights":[1.1875466E-4,9.140004E-4,-9.190083E-3,1.5777487E-2,1.5986446E-4,-1.0526036E-2,-0E0,-0E0,1.3783742E-3,-4.8469068E-4,9.533714E-3,-1.2652569E-2,-0E0,2.355251E-4,-5.3378495E-5,-0E0,4.486651E-4,-3.9575275E-4,-0E0,7.3401025E-6,-1.9146943E-4],"categories":[],"categories_nodes":[],"categories_segments":[],"categories_sizes":[],"default_left":[0,0,0,0,0,0,0,0,0,0,0,0,0,0,0,0,0,0,0,0,0],"id":52,"left_children":[1,3,5,7,9,11,-1,-1,-1,13,15,17,19,-1,-1,-1,-1,-1,-1,-1,-1],"loss_changes":[3.4892287E-3,4.5351144E-3,6.1584124E-4,1.1909556E-2,4.0996796E-3,1.8578488E-4,0E0,0E0,0E0,4.640503E-3,2.0397762E-3,1.6041705E-4,2.8537706E-4,0E0,0E0,0E0,0E0,0E0,0E0,0E0,0E0],"parents":[2147483647,0,0,1,1,2,2,3,3,4,4,5,5,9,9,10,10,11,11,12,12],"right_children":[2,4,6,8,10,12,-1,-1,-1,14,16,18,20,-1,-1,-1,-1,-1,-1,-1,-1],"split_conditions":[8.058252E1,7.448568E0,1.1511111E1,-1.2573195E-1,7.321428E1,6.766333E0,-0E0,-0E0,1.3783742E-3,-1.1016741E-1,9.67251E0,2.4801898E-1,2.3885933E-1,2.355251E-4,-5.3378495E-5,-0E0,4.486651E-4,-3.9575275E-4,-0E0,7.3401025E-6,-1.9146943E-4],"split_indices":[2,5,11,3,2,0,0,0,0,4,5,4,3,0,0,0,0,0,0,0,0],"split_type":[0,0,0,0,0,0,0,0,0,0,0,0,0,0,0,0,0,0,0,0,0],"sum_hessian":[5.81E2,5.46E2,3.5E1,1.9E1,5.27E2,3.2E1,3E0,1.2E1,7E0,4.84E2,4.3E1,2.3E1,9E0,5.4E1,4.3E2,1.7E1,2.6E1,2.2E1,1E0,3E0,6E0],"tree_param":{"num_deleted":"0","num_feature":"12","num_nodes":"21","size_leaf_vector":"1"}},{"base_weights":[3.5070587E-4,8.736234E-3,-6.1317324E-4,-0E0,1.41424015E-2,2.2578904E-2,-1.3976818E-3,1.6419917E-2,-0E0,-0E0,3.64028E-2,-2.5944852E-3,6.27036E-3,5.5609486E-4,-0E0,-0E0,1.2390506E-3,-1.3769024E-4,6.491118E-5,1.2083073E-3,3.460907E-5],"categories":[],"categories_nodes":[],"categories_segments":[],"categories_sizes":[],"default_left":[0,0,0,0,0,0,0,0,0,0,0,0,0,0,0,0,0,0,0,0,0],"id":53,"left_children":[1,3,5,-1,7,9,11,13,-1,-1,15,17,19,-1,-1,-1,-1,-1,-1,-1,-1],"loss_changes":[5.6187483E-3,3.9051836E-3,7.4290982E-3,0E0,1.6538091E-3,5.298983E-3,4.3381983E-3,1.6591009E-3,0E0,0E0,1.7201621E-3,4.5625735E-3,5.9026047E-3,0E0,0E0,0E0,0E0,0E0,0E0,0E0,0E0],"parents":[2147483647,0,0,1,1,2,2,4,4,5,5,6,6,7,7,10,10,11,11,12,12],"right_children":[2,4,6,-1,8,10,12,14,-1,-1,16,18,20,-1,-1,-1,-1,-1,-1,-1,-1],"split_conditions":[-1.1016741E-1,-1.5850595E-1,6.891169E0,-0E0,9.3955555E0,6.323865E0,2.3386529E-1,5.326086E1,-0E0,-0E0,6.7681127E0,1.0142222E1,5.208333E1,5.5609486E-4,-0E0,-0E0,1.2390506E-3,-1.3769024E-4,6.491118E-5,1.2083073E-3,3.460907E-5],"split_indices":[4,4,10,0,7,6,4,2,0,0,7,11,2,0,0,0,0,0,0,0,0],"split_type":[0,0,0,0,0,0,0,0,0,0,0,0,0,0,0,0,0,0,0,0,0],"sum_hessian":[5.93E2,7.1E1,5.22E2,2.5E1,4.6E1,1.2E1,5.1E2,4E1,6E0,4E0,8E0,4.53E2,5.7E1,3.6E1,4E0,1E0,7E0,3.34E2,1.19E2,4E0,5.3E1],"tree_param":{"num_deleted":"0","num_feature":"12","num_nodes":"21","size_leaf_vector":"1"}},{"base_weights":[-0E0,-3.2700735E-4,1.0842622E-2,5.1174457E-3,-1.6307421E-3,1.1078549E-3,-0E0,-2.364127E-3,1.3128796E-2,1.8043458E-3,-6.125564E-3,-8.815657E-5,2.6061835E-3,5.9284117E-5,-2.7372452E-4,-0E0,6.111985E-4,2.669417E-4,-4.7911188E-5,-2.567358E-4,-0E0,-3.84985E-5,-0E0,1.2750115E-4,-0E0],"categories":[],"categories_nodes":[],"categories_segments":[],"categories_sizes":[],"default_left":[0,0,0,0,0,0,0,0,0,0,0,0,0,0,0,0,0,0,0,0,0,0,0,0,0],"id":54,"left_children":[1,3,5,7,9,-1,11,13,15,17,19,21,23,-1,-1,-1,-1,-1,-1,-1,-1,-1,-1,-1,-1],"loss_changes":[2.881596E-3,3.6488199E-3,5.360783E-3,6.7416304E-3,7.684585E-3,0E0,1.0192175E-4,1.9944645E-3,6.809691E-3,6.872938E-3,2.5144918E-3,6.548407E-6,1.3293386E-4,0E0,0E0,0E0,0E0,0E0,0E0,0E0,0E0,0E0,0E0,0E0,0E0],"parents":[2147483647,0,0,1,1,2,2,3,3,4,4,6,6,7,7,8,8,9,9,10,10,11,11,12,12],"right_children":[2,4,6,8,10,-1,12,14,16,18,20,22,24,-1,-1,-1,-1,-1,-1,-1,-1,-1,-1,-1,-1],"split_conditions":[9.679452E0,7.1982784E0,8.6305E0,6.524522E0,2E0,1.1078549E-3,8.166667E0,5.012214E0,2E0,2.47614E0,6.952847E-2,1.0883461E1,1.0823897E1,5.9284117E-5,-2.7372452E-4,-0E0,6.111985E-4,2.669417E-4,-4.7911188E-5,-2.567358E-4,-0E0,-3.84985E-5,-0E0,1.2750115E-4,-0E0],"split_indices":[0,6,5,6,1,0,9,0,1,0,3,0,0,0,0,0,0,0,0,0,0,0,0,0,0],"split_type":[0,0,0,0,0,0,0,0,0,0,0,0,0,0,0,0,0,0,0,0,0,0,0,0,0],"sum_hessian":[5.84E2,5.61E2,2.3E1,9.3E1,4.68E2,5E0,1.8E1,4.2E1,5.1E1,2.53E2,2.15E2,4E0,1.4E1,1.7E1,2.5E1,1.4E1,3.7E1,9.1E1,1.62E2,1.44E2,7.1E1,3E0,1E0,1.2E1,2E0],"tree_param":{"num_deleted":"0","num_feature":"12","num_nodes":"25","size_leaf_vector":"1"}},{"base_weights":[1.7125436E-4,8.837618E-4,-1.3557176E-2,-9.629649E-3,1.5540425E-3,-0E0,-2.851184E-2,-1.2125196E-2,-0E0,6.088512E-3,-0E0,-9.50736E-4,-0E0,-0E0,-4.2889683E-4,5.8481015E-5,7.051896E-4,4.806293E-5,-8.417488E-5],"categories":[],"categories_nodes":[],"categories_segments":[],"categories_sizes":[],"default_left":[0,0,0,0,0,0,0,0,0,0,0,0,0,0,0,0,0,0,0],"id":55,"left_children":[1,3,5,7,9,-1,11,13,-1,15,17,-1,-1,-1,-1,-1,-1,-1,-1],"loss_changes":[4.466881E-3,3.181876E-3,5.7115657E-3,7.691742E-4,3.6632507E-3,0E0,1.2925547E-3,5.9162243E-4,0E0,7.0693158E-3,1.8059732E-3,0E0,0E0,0E0,0E0,0E0,0E0,0E0,0E0],"parents":[2147483647,0,0,1,1,2,2,3,3,4,4,6,6,7,7,9,9,10,10],"right_children":[2,4,6,8,10,-1,12,14,-1,16,18,-1,-1,-1,-1,-1,-1,-1,-1],"split_conditions":[1.1962222E1,1.0049095E0,4.6235085E0,9.883084E0,2.205028E0,-0E0,7.9180017E0,-4.5144483E-2,-0E0,7.832717E-2,9.047191E0,-9.50736E-4,-0E0,-0E0,-4.2889683E-4,5.8481015E-5,7.051896E-4,4.806293E-5,-8.417488E-5],"split_indices":[7,0,0,6,0,0,0,4,0,3,6,0,0,0,0,0,0,0,0],"split_type":[0,0,0,0,0,0,0,0,0,0,0,0,0,0,0,0,0,0,0],"sum_hessian":[5.84E2,5.63E2,2.1E1,2.4E1,5.39E2,1E1,1.1E1,2E1,4E0,1.33E2,4.06E2,1E1,1E0,3E0,1.7E1,1.13E2,2E1,2.64E2,1.42E2],"tree_param":{"num_deleted":"0","num_feature":"12","num_nodes":"19","size_leaf_vector":"1"}},{"base_weights":[2.5821746E-5,7.260814E-4,-1.3604818E-2,-1.1755562E-3,3.749799E-3,-0E0,-2.5364988E-2,2.7435115E-3,-4.5860955E-3,2.7387572E-2,2.1750575E-3,-2.8017163E-2,-0E0,1.7372693E-4,-1.981482E-5,-2.648076E-4,1.1352112E-4,1.2685624E-3,-0E0,-2.2846139E-4,1.0680366E-4,-9.2480687E-4,-0E0],"categories":[],"categories_nodes":[],"categories_segments":[],"categories_sizes":[],"default_left":[0,0,0,0,0,0,0,0,0,0,0,0,0,0,0,0,0,0,0,0,0,0,0],"id":56,"left_children":[1,3,5,7,9,-1,11,13,15,17,19,21,-1,-1,-1,-1,-1,-1,-1,-1,-1,-1,-1],"loss_changes":[4.3726363E-3,3.545091E-3,4.29197E-3,4.621031E-3,5.955004E-3,0E0,1.0555647E-3,1.9795033E-3,7.317478E-3,2.4774661E-3,2.7540354E-3,1.0337345E-3,0E0,0E0,0E0,0E0,0E0,0E0,0E0,0E0,0E0,0E0,0E0],"parents":[2147483647,0,0,1,1,2,2,3,3,4,4,6,6,7,7,8,8,9,9,10,10,11,11],"right_children":[2,4,6,8,10,-1,12,14,16,18,20,22,-1,-1,-1,-1,-1,-1,-1,-1,-1,-1,-1],"split_conditions":[1.1962222E1,4.0192988E-2,5.0335526E0,-7.115308E-2,6.891169E0,-0E0,7.9180017E0,5.012214E0,9.908889E0,7.448568E0,6.7506886E0,1.1619405E1,-0E0,1.7372693E-4,-1.981482E-5,-2.648076E-4,1.1352112E-4,1.2685624E-3,-0E0,-2.2846139E-4,1.0680366E-4,-9.2480687E-4,-0E0],"split_indices":[7,4,0,4,10,0,0,0,7,5,6,6,0,0,0,0,0,0,0,0,0,0,0],"split_type":[0,0,0,0,0,0,0,0,0,0,0,0,0,0,0,0,0,0,0,0,0,0,0],"sum_hessian":[5.91E2,5.7E2,2.1E1,3.3E2,2.4E2,9E0,1.2E1,1.4E2,1.9E2,1E1,2.3E2,1.1E1,1E0,8.9E1,5.1E1,1.34E2,5.6E1,5E0,5E0,1.9E1,2.11E2,1E1,1E0],"tree_param":{"num_deleted":"0","num_feature":"12","num_nodes":"23","size_leaf_vector":"1"}},{"base_weights":[-1.1080278E-4,-1.5204455E-3,3.740874E-3,-6.100873E-3,-0E0,1.3142488E-2,-1.1618875E-3,-0E0,-7.687611E-3,4.810492E-4,-9.700996E-3,3.13027E-2,-3.0739922E-3,-9.373258E-3,-0E0,-0E0,6.812559E-5,-0E0,-2.4990196E-4,-1.6739014E-5,1.3018092E-4,-0E0,-6.210108E-4,-0E0,9.976159E-4,-0E0,-1.9958965E-4,-0E0,-4.1344436E-4,-2.4844575E-4,1.0863086E-4],"categories":[],"categories_nodes":[],"categories_segments":[],"categories_sizes":[],"default_left":[0,0,0,0,0,0,0,0,0,0,0,0,0,0,0,0,0,0,0,0,0,0,0,0,0,0,0,0,0,0,0],"id":57,"left_children":[1,3,5,7,9,11,13,15,17,19,21,23,25,27,29,-1,-1,-1,-1,-1,-1,-1,-1,-1,-1,-1,-1,-1,-1,-1,-1],"loss_changes":[2.8784531E-3,2.6746076E-3,7.3899087E-3,1.6340981E-3,2.1439926E-3,1.8527318E-2,1.3828868E-3,4.125419E-5,4.404271E-4,1.6553759E-3,2.643149E-3,2.4210643E-3,6.395601E-4,1.5452809E-3,1.7105711E-3,0E0,0E0,0E0,0E0,0E0,0E0,0E0,0E0,0E0,0E0,0E0,0E0,0E0,0E0,0E0,0E0],"parents":[2147483647,0,0,1,1,2,2,3,3,4,4,5,5,6,6,7,7,8,8,9,9,10,10,11,11,12,12,13,13,14,14],"right_children":[2,4,6,8,10,12,14,16,18,20,22,24,26,28,30,-1,-1,-1,-1,-1,-1,-1,-1,-1,-1,-1,-1,-1,-1,-1,-1],"split_conditions":[3E0,8.003333E0,4.7311817E1,6.7375684E0,1.1923333E1,8.032344E0,5.4615376E1,6.398943E0,1.6470585E1,1.0195111E1,1.9315091E-1,6.4861317E0,8.108277E0,-1.0860508E-1,6.269516E0,-0E0,6.812559E-5,-0E0,-2.4990196E-4,-1.6739014E-5,1.3018092E-4,-0E0,-6.210108E-4,-0E0,9.976159E-4,-0E0,-1.9958965E-4,-0E0,-4.1344436E-4,-2.4844575E-4,1.0863086E-4],"split_indices":[1,9,2,5,7,9,2,10,2,6,3,6,6,3,6,0,0,0,0,0,0,0,0,0,0,0,0,0,0,0,0],"split_type":[0,0,0,0,0,0,0,0,0,0,0,0,0,0,0,0,0,0,0,0,0,0,0,0,0,0,0,0,0,0,0],"sum_hessian":[5.69E2,4.36E2,1.33E2,9.8E1,3.38E2,5.2E1,8.1E1,9E0,8.9E1,3.17E2,2.1E1,2.7E1,2.5E1,1.6E1,6.5E1,2E0,7E0,7E0,8.2E1,2.3E2,8.7E1,1.1E1,1E1,1E0,2.6E1,6E0,1.9E1,1E0,1.5E1,1.4E1,5.1E1],"tree_param":{"num_deleted":"0","num_feature":"12","num_nodes":"31","size_leaf_vector":"1"}},{"base_weights":[-0E0,-1.0781725E-2,7.824732E-4,-1.3732395E-2,-0E0,5.154093E-3,-4.958417E-4,-0E0,-1.7592305E-2,9.718684E-3,-0E0,-0E0,-1.1070647E-2,-2.6271031E-5,-0E0,-0E0,-6.072469E-4,3.8540573E-5,5.1716476E-4,4.111476E-4,-1.6057484E-4,-2.6592618E-4,2.5113028E-5,-4.1532435E-4,-0E0],"categories":[],"categories_nodes":[],"categories_segments":[],"categories_sizes":[],"default_left":[0,0,0,0,0,0,0,0,0,0,0,0,0,0,0,0,0,0,0,0,0,0,0,0,0],"id":58,"left_children":[1,3,5,7,-1,9,11,13,15,17,19,21,23,-1,-1,-1,-1,-1,-1,-1,-1,-1,-1,-1,-1],"loss_changes":[4.055992E-3,1.3717657E-3,3.5363608E-3,1.6969256E-4,0E0,3.9729476E-3,2.7185516E-3,6.901672E-6,6.505521E-5,3.3263406E-3,4.0047094E-3,2.4516413E-3,8.2268496E-4,0E0,0E0,0E0,0E0,0E0,0E0,0E0,0E0,0E0,0E0,0E0,0E0],"parents":[2147483647,0,0,1,1,2,2,3,3,5,5,6,6,7,7,8,8,9,9,10,10,11,11,12,12],"right_children":[2,4,6,8,-1,10,12,14,16,18,20,22,24,-1,-1,-1,-1,-1,-1,-1,-1,-1,-1,-1,-1],"split_conditions":[1.0049095E0,9.883084E0,2.1796079E0,5.826278E-1,-0E0,2E0,1.138867E1,8.156963E0,-4.7389217E-2,5.116278E1,-3.350415E-2,6.345125E0,1.25222225E1,-2.6271031E-5,-0E0,-0E0,-6.072469E-4,3.8540573E-5,5.1716476E-4,4.111476E-4,-1.6057484E-4,-2.6592618E-4,2.5113028E-5,-4.1532435E-4,-0E0],"split_indices":[0,6,0,0,0,1,6,8,3,2,3,6,11,0,0,0,0,0,0,0,0,0,0,0,0],"split_type":[0,0,0,0,0,0,0,0,0,0,0,0,0,0,0,0,0,0,0,0,0,0,0,0,0],"sum_hessian":[5.79E2,3.1E1,5.48E2,2.6E1,5E0,1.41E2,4.07E2,1E1,1.6E1,8.1E1,6E1,3.85E2,2.2E1,8E0,2E0,4E0,1.2E1,4.5E1,3.6E1,1.3E1,4.7E1,2.7E1,3.58E2,1.8E1,4E0],"tree_param":{"num_deleted":"0","num_feature":"12","num_nodes":"25","size_leaf_vector":"1"}},{"base_weights":[-0E0,6.0498817E-3,-8.0802897E-4,-0E0,1.1307185E-2,-3.4473252E-3,1.6154974E-3,1.3372389E-2,-0E0,-6.1904564E-3,2.1338305E-3,7.524516E-3,-3.3458946E-3,-0E0,4.8374565E-4,-4.0330444E-5,-3.741294E-4,1.9435218E-4,-0E0,-4.332026E-5,3.0549229E-4,5.2210766E-5,-2.674046E-4],"categories":[],"categories_nodes":[],"categories_segments":[],"categories_sizes":[],"default_left":[0,0,0,0,0,0,0,0,0,0,0,0,0,0,0,0,0,0,0,0,0,0,0],"id":59,"left_children":[1,3,5,-1,7,9,11,13,-1,15,17,19,21,-1,-1,-1,-1,-1,-1,-1,-1,-1,-1],"loss_changes":[2.7702008E-3,2.6984268E-3,3.6619992E-3,0E0,9.6580945E-4,4.705628E-3,8.182716E-3,1.4604116E-3,0E0,4.688922E-3,1.142099E-3,3.988248E-3,4.5557804E-3,0E0,0E0,0E0,0E0,0E0,0E0,0E0,0E0,0E0,0E0],"parents":[2147483647,0,0,1,1,2,2,4,4,5,5,6,6,7,7,9,9,10,10,11,11,12,12],"right_children":[2,4,6,-1,8,10,12,14,-1,16,18,20,22,-1,-1,-1,-1,-1,-1,-1,-1,-1,-1],"split_conditions":[-1.1432484E-1,-1.5850595E-1,5.0438866E-2,-0E0,9.042349E0,9.893333E0,9.838889E0,2.210526E1,-0E0,-4.123691E-2,1.193282E1,6.524522E0,1.140751E-1,-0E0,4.8374565E-4,-4.0330444E-5,-3.741294E-4,1.9435218E-4,-0E0,-4.332026E-5,3.0549229E-4,5.2210766E-5,-2.674046E-4],"split_indices":[4,4,4,0,6,7,7,2,0,4,5,6,4,0,0,0,0,0,0,0,0,0,0],"split_type":[0,0,0,0,0,0,0,0,0,0,0,0,0,0,0,0,0,0,0,0,0,0,0],"sum_hessian":[6.07E2,6.5E1,5.42E2,2.6E1,3.9E1,2.79E2,2.63E2,3.3E1,6E0,1.99E2,8E1,1.29E2,1.34E2,5E0,2.8E1,1.22E2,7.7E1,3.5E1,4.5E1,2.1E1,1.08E2,6.1E1,7.3E1],"tree_param":{"num_deleted":"0","num_feature":"12","num_nodes":"23","size_leaf_vector":"1"}},{"base_weights":[4.6895858E-4,1.5634973E-2,-0E0,-0E0,3.0622395E-2,-6.3247205E-4,1.1409172E-2,1.2050876E-3,-0E0,5.6430385E-3,-1.5359692E-3,1.0475263E-3,-0E0,-0E0,3.6670337E-4,-1.4863018E-4,2.4474448E-5,-1.8176491E-6,1.1401853E-4],"categories":[],"categories_nodes":[],"categories_segments":[],"categories_sizes":[],"default_left":[0,0,0,0,0,0,0,0,0,0,0,0,0,0,0,0,0,0,0],"id":60,"left_children":[1,3,5,-1,7,9,11,-1,-1,13,15,-1,17,-1,-1,-1,-1,-1,-1],"loss_changes":[5.4926504E-3,6.5680994E-3,3.2123032E-3,0E0,5.5590514E-3,2.6937295E-3,4.3215165E-3,0E0,0E0,3.1792033E-3,4.373215E-3,0E0,2.0224406E-4,0E0,0E0,0E0,0E0,0E0,0E0],"parents":[2147483647,0,0,1,1,2,2,4,4,5,5,6,6,9,9,10,10,12,12],"right_children":[2,4,6,-1,8,10,12,-1,-1,14,16,-1,18,-1,-1,-1,-1,-1,-1],"split_conditions":[7.448568E0,-1.2573195E-1,9.835722E0,-0E0,6.979865E1,-1.1016741E-1,8.6305E0,1.2050876E-3,-0E0,-1.7187636E-1,9.246278E0,1.0475263E-3,8.166667E0,-0E0,3.6670337E-4,-1.4863018E-4,2.4474448E-5,-1.8176491E-6,1.1401853E-4],"split_indices":[5,3,0,0,2,4,5,0,0,3,5,0,9,0,0,0,0,0,0],"split_type":[0,0,0,0,0,0,0,0,0,0,0,0,0,0,0,0,0,0,0],"sum_hessian":[5.89E2,2.2E1,5.67E2,1E1,1.2E1,5.45E2,2.2E1,1E1,2E0,5.4E1,4.91E2,5E0,1.7E1,2.2E1,3.2E1,2.17E2,2.74E2,4E0,1.3E1],"tree_param":{"num_deleted":"0","num_feature":"12","num_nodes":"19","size_leaf_vector":"1"}},{"base_weights":[-0E0,-5.3157355E-4,1.1820175E-2,5.6749006E-4,-5.2264174E-3,2.103783E-2,-0E0,-9.715949E-4,6.0164575E-3,-0E0,-1.2009027E-2,-0E0,2.70242E-2,1.6480961E-4,-9.5252224E-5,2.4228776E-4,-0E0,-6.825016E-5,3.7874188E-4,-0E0,-5.281909E-4,9.5928466E-4,-0E0],"categories":[],