{"learner":{"attributes":{"best_iteration":"27","best_score":"0.03785208291037968","scikit_learn":"{\"_estimator_type\": \"regressor\"}"},"feature_names":["Fourier_Dominant","HMM_State","RSI","MACD","MACD_Signal","BB_Upper","BB_Lower","Close_Lag_1","Close_Lag_2","Close_Lag_3","Close_Lag_4","Close_Lag_5"],"feature_types":["float","int","float","float","float","float","float","float","float","float","float","float"],"gradient_booster":{"model":{"cats":{"enc":[],"feature_segments":[],"sorted_idx":[]},"gbtree_model_param":{"num_parallel_tree":"1","num_trees":"78"},"iteration_indptr":[0,1,2,3,4,5,6,7,8,9,10,11,12,13,14,15,16,17,18,19,20,21,22,23,24,25,26,27,28,29,30,31,32,33,34,35,36,37,38,39,40,41,42,43,44,45,46,47,48,49,50,51,52,53,54,55,56,57,58,59,60,61,62,63,64,65,66,67,68,69,70,71,72,73,74,75,76,77,78],"tree_info":[0,0,0,0,0,0,0,0,0,0,0,0,0,0,0,0,0,0,0,0,0,0,0,0,0,0,0,0,0,0,0,0,0,0,0,0,0,0,0,0,0,0,0,0,0,0,0,0,0,0,0,0,0,0,0,0,0,0,0,0,0,0,0,0,0,0,0,0,0,0,0,0,0,0,0,0,0,0],"trees":[{"base_weights":[-0E0,5.0796666E-3,-1.7856857E-2,2.7120996E-3,7.3167E-2,-2.6338752E-2,7.675149E-3,2.5863811E-2,-0E0,5.450769E-3,-0E0,5.309712E-4,-3.0276133E-2,2.2602204E-2,-3.087191E-3,3.7673367E-3,3.2988982E-4,1.5255585E-4,-2.1153282E-4,-5.951272E-4,6.767268E-5,-1.0708993E-3,-2.4404154E-4,9.657611E-4,-0E0,-0E0,-2.9221957E-4],"categories":[],"categories_nodes":[],"categories_segments":[],"categories_sizes":[],"default_left":[0,0,0,0,0,0,0,0,0,0,0,0,0,0,0,0,0,0,0,0,0,0,0,0,0,0,0],"id":0,"left_children":[1,3,5,7,9,11,13,15,17,-1,19,-1,21,23,25,-1,-1,-1,-1,-1,-1,-1,-1,-1,-1,-1,-1],"loss_changes":[5.427874E-2,6.636627E-2,3.0870967E-2,2.7483186E-2,1.23124816E-1,1.9653112E-2,7.0014293E-3,5.3156566E-2,1.440567E-2,0E0,1.604648E-3,0E0,6.9682E-3,5.823967E-3,7.109615E-4,0E0,0E0,0E0,0E0,0E0,0E0,0E0,0E0,0E0,0E0,0E0,0E0],"parents":[2147483647,0,0,1,1,2,2,3,3,4,4,5,5,6,6,7,7,8,8,10,10,12,12,13,13,14,14],"right_children":[2,4,6,8,10,12,14,16,18,-1,20,-1,22,24,26,-1,-1,-1,-1,-1,-1,-1,-1,-1,-1,-1,-1],"split_conditions":[1.9575E1,2.6601208E1,9.6875215E-1,1.6814939E0,5.031446E1,-6.416737E-1,6.887686E1,2.4242422E1,1.6675E1,5.450769E-3,3.6840733E1,5.309712E-4,5.423728E1,2.5841667E1,1.1721623E0,3.7673367E-3,3.2988982E-4,1.5255585E-4,-2.1153282E-4,-5.951272E-4,6.767268E-5,-1.0708993E-3,-2.4404154E-4,9.657611E-4,-0E0,-0E0,-2.9221957E-4],"split_indices":[7,0,4,0,2,3,2,2,8,0,0,0,2,7,3,0,0,0,0,0,0,0,0,0,0,0,0],"split_type":[0,0,0,0,0,0,0,0,0,0,0,0,0,0,0,0,0,0,0,0,0,0,0,0,0,0,0],"sum_hessian":[5.91E2,4.59E2,1.32E2,4.46E2,1.3E1,1.02E2,3E1,4.5E1,4.01E2,5E0,8E0,6E0,9.6E1,1.6E1,1.4E1,4E0,4.1E1,2.35E2,1.66E2,3E0,5E0,7.3E1,2.3E1,1.3E1,3E0,6E0,8E0],"tree_param":{"num_deleted":"0","num_feature":"12","num_nodes":"27","size_leaf_vector":"1"}},{"base_weights":[-6.476501E-4,4.6647117E-3,-1.3919664E-2,2.103291E-3,6.02834E-2,2.2448685E-2,-1.6813308E-2,1.1233768E-2,-2.8228834E-3,1.24051906E-1,5.1322263E-3,-0E0,3.5255928E-2,-2.2323798E-2,2.6199135E-3,5.397528E-4,-5.4307224E-4,-1.7698162E-4,2.5513495E-4,4.712712E-3,-0E0,4.349621E-4,-0E0,1.1844358E-3,-0E0,-0E0,-7.1611156E-4,5.6127936E-4,-3.119998E-4],"categories":[],"categories_nodes":[],"categories_segments":[],"categories_sizes":[],"default_left":[0,0,0,0,0,0,0,0,0,0,0,0,0,0,0,0,0,0,0,0,0,0,0,0,0,0,0,0,0],"id":1,"left_children":[1,3,5,7,9,11,13,15,17,19,21,-1,23,25,27,-1,-1,-1,-1,-1,-1,-1,-1,-1,-1,-1,-1,-1,-1],"loss_changes":[4.3505386E-2,5.4323714E-2,1.8546097E-2,1.9313913E-2,4.623235E-2,5.643445E-3,2.0019423E-2,3.0250924E-2,8.850332E-3,1.5664876E-2,1.1817564E-3,0E0,1.2832936E-3,5.6562796E-3,8.147913E-3,0E0,0E0,0E0,0E0,0E0,0E0,0E0,0E0,0E0,0E0,0E0,0E0,0E0,0E0],"parents":[2147483647,0,0,1,1,2,2,3,3,4,4,5,5,6,6,7,7,8,8,9,9,10,10,12,12,13,13,14,14],"right_children":[2,4,6,8,10,12,14,16,18,20,22,-1,24,26,28,-1,-1,-1,-1,-1,-1,-1,-1,-1,-1,-1,-1,-1,-1],"split_conditions":[1.865E1,4.1555458E-1,1.8918917E1,1.6681913E1,8.504676E-1,1.9291666E1,9.6875215E-1,2.3306058E-1,1.7791666E1,8.509316E1,1.7891666E1,-0E0,-4.9559698E-1,-5.64238E-1,7.037037E1,5.397528E-4,-5.4307224E-4,-1.7698162E-4,2.5513495E-4,4.712712E-3,-0E0,4.349621E-4,-0E0,1.1844358E-3,-0E0,-0E0,-7.1611156E-4,5.6127936E-4,-3.119998E-4],"split_indices":[7,3,2,5,3,11,4,4,11,2,7,0,3,3,2,0,0,0,0,0,0,0,0,0,0,0,0,0,0],"split_type":[0,0,0,0,0,0,0,0,0,0,0,0,0,0,0,0,0,0,0,0,0,0,0,0,0,0,0,0,0],"sum_hessian":[6.02E2,4.25E2,1.77E2,4.09E2,1.6E1,1E1,1.67E2,1.5E2,2.59E2,6E0,1E1,2E0,8E0,1.34E2,3.3E1,1.25E2,2.5E1,2.11E2,4.8E1,4E0,2E0,6E0,4E0,7E0,1E0,7E0,1.27E2,1.8E1,1.5E1],"tree_param":{"num_deleted":"0","num_feature":"12","num_nodes":"29","size_leaf_vector":"1"}},{"base_weights":[1.0550983E-3,5.822819E-3,-1.1152841E-2,1.8426251E-3,3.0291421E-2,-1.7172504E-2,2.31156E-2,7.306373E-3,-1.7913362E-2,1.2571067E-1,-1.3732313E-3,-9.147948E-3,-3.583979E-2,-0E0,2.9002402E-2,-4.1973725E-4,2.8458863E-4,9.910139E-5,-7.2505913E-4,-0E0,5.0652884E-3,-2.4107985E-4,4.884258E-4,2.3689901E-4,-4.0568324E-4,-1.3594436E-3,-0E0,1.0121556E-3,-0E0],"categories":[],"categories_nodes":[],"categories_segments":[],"categories_sizes":[],"default_left":[0,0,0,0,0,0,0,0,0,0,0,0,0,0,0,0,0,0,0,0,0,0,0,0,0,0,0,0,0],"id":2,"left_children":[1,3,5,7,9,11,13,15,17,19,21,23,25,-1,27,-1,-1,-1,-1,-1,-1,-1,-1,-1,-1,-1,-1,-1,-1],"loss_changes":[3.4046937E-2,3.890056E-2,3.3014443E-2,3.9764214E-2,1.8482718E-1,1.6144905E-2,5.067506E-3,1.3610324E-2,1.2518261E-2,7.6539814E-2,4.3642228E-3,8.349809E-3,8.685403E-3,0E0,1.3898164E-3,0E0,0E0,0E0,0E0,0E0,0E0,0E0,0E0,0E0,0E0,0E0,0E0,0E0,0E0],"parents":[2147483647,0,0,1,1,2,2,3,3,4,4,5,5,6,6,7,7,8,8,9,9,10,10,11,11,12,12,14,14],"right_children":[2,4,6,8,10,12,14,16,18,20,22,24,26,-1,28,-1,-1,-1,-1,-1,-1,-1,-1,-1,-1,-1,-1,-1,-1],"split_conditions":[1.7342573E1,1.7625E1,9.6875215E-1,1.6783333E1,1.9623684E1,-1.941756E-1,1.1890491E1,1.1343397E1,1.5715751E1,-2.0648308E-1,3.9324768E1,2.3616234E1,2.3830576E1,-0E0,2.6309849E1,-4.1973725E-4,2.8458863E-4,9.910139E-5,-7.2505913E-4,-0E0,5.0652884E-3,-2.4107985E-4,4.884258E-4,2.3689901E-4,-4.0568324E-4,-1.3594436E-3,-0E0,1.0121556E-3,-0E0],"split_indices":[6,11,4,9,5,4,0,6,6,4,0,2,0,0,5,0,0,0,0,0,0,0,0,0,0,0,0,0,0],"split_type":[0,0,0,0,0,0,0,0,0,0,0,0,0,0,0,0,0,0,0,0,0,0,0,0,0,0,0,0,0],"sum_hessian":[5.92E2,4.32E2,1.6E2,3.76E2,5.6E1,1.39E2,2.1E1,2.99E2,7.7E1,1.4E1,4.2E1,1.02E2,3.7E1,2E0,1.9E1,2.3E1,2.76E2,1.4E1,6.3E1,4E0,1E1,3.5E1,7E0,1.6E1,8.6E1,2.7E1,1E1,1.5E1,4E0],"tree_param":{"num_deleted":"0","num_feature":"12","num_nodes":"29","size_leaf_vector":"1"}},{"base_weights":[-7.331257E-4,-1.1590648E-2,4.4523343E-3,9.043962E-3,-1.7613472E-2,5.872141E-3,-1.6431609E-3,2.9318796E-2,-0E0,-0E0,-2.5082983E-2,-2.3832925E-2,8.347728E-3,1.0915118E-3,-0E0,9.4570816E-5,-3.3450124E-4,-8.787103E-5,2.171876E-4,-7.728992E-4,-0E0,-0E0,-1.6398116E-3,4.5875908E-4,-1.5403065E-4],"categories":[],"categories_nodes":[],"categories_segments":[],"categories_sizes":[],"default_left":[0,0,0,0,0,0,0,0,0,0,0,0,0,0,0,0,0,0,0,0,0,0,0,0,0],"id":3,"left_children":[1,3,5,7,9,11,-1,13,15,17,19,21,23,-1,-1,-1,-1,-1,-1,-1,-1,-1,-1,-1,-1],"loss_changes":[3.51655E-2,2.6369091E-2,2.9739205E-2,1.0236359E-2,2.146582E-2,2.8138962E-2,0E0,8.080611E-4,1.6608164E-3,1.0864477E-3,2.6159734E-3,1.6961107E-2,3.6109217E-2,0E0,0E0,0E0,0E0,0E0,0E0,0E0,0E0,0E0,0E0,0E0,0E0],"parents":[2147483647,0,0,1,1,2,2,3,3,4,4,5,5,7,7,8,8,9,9,10,10,11,11,12,12],"right_children":[2,4,6,8,10,12,-1,14,16,18,20,22,24,-1,-1,-1,-1,-1,-1,-1,-1,-1,-1,-1,-1],"split_conditions":[-1.2633081E-1,-4.69178E-1,2.340044E1,2.258064E1,1.6858334E1,1.1310131E1,-1.6431609E-3,1.8663088E1,-5.64238E-1,1.5865151E1,2.228128E1,7.128027E1,3E0,1.0915118E-3,-0E0,9.4570816E-5,-3.3450124E-4,-8.787103E-5,2.171876E-4,-7.728992E-4,-0E0,-0E0,-1.6398116E-3,4.5875908E-4,-1.5403065E-4],"split_indices":[3,3,6,2,7,6,0,0,3,6,6,2,1,0,0,0,0,0,0,0,0,0,0,0,0],"split_type":[0,0,0,0,0,0,0,0,0,0,0,0,0,0,0,0,0,0,0,0,0,0,0,0,0],"sum_hessian":[6.1E2,2.03E2,4.07E2,4.2E1,1.61E2,4E2,7E0,1.5E1,2.7E1,4.8E1,1.13E2,2.7E1,3.73E2,1E1,5E0,1.6E1,1.1E1,3.4E1,1.4E1,1.11E2,2E0,1.7E1,1E1,2.51E2,1.22E2],"tree_param":{"num_deleted":"0","num_feature":"12","num_nodes":"25","size_leaf_vector":"1"}},{"base_weights":[2.4090866E-3,-1.0235543E-2,8.050851E-3,5.388861E-3,-1.652647E-2,1.3649055E-2,-3.920279E-3,1.21006E-3,-0E0,-0E0,-2.415523E-2,7.21073E-3,2.877896E-2,9.6336426E-4,-5.4512486E-2,1.0803793E-4,-4.5808392E-5,-3.170457E-4,3.5033433E-4,-7.508947E-4,-0E0,6.4606767E-4,-3.3879085E-5,2.812604E-3,1.2898675E-4,2.611289E-4,-1.6685943E-4,-1.8624966E-3,-0E0],"categories":[],"categories_nodes":[],"categories_segments":[],"categories_sizes":[],"default_left":[0,0,0,0,0,0,0,0,0,0,0,0,0,0,0,0,0,0,0,0,0,0,0,0,0,0,0,0,0],"id":4,"left_children":[1,3,5,7,9,11,13,-1,15,17,19,21,23,25,27,-1,-1,-1,-1,-1,-1,-1,-1,-1,-1,-1,-1,-1,-1],"loss_changes":[4.195337E-2,1.86005E-2,2.8771348E-2,8.396764E-3,1.4983058E-2,2.4247956E-2,3.6785863E-2,0E0,2.5982043E-4,5.6065936E-3,2.4895035E-3,2.6914664E-2,1.18625104E-1,6.1715553E-3,3.7666485E-3,0E0,0E0,0E0,0E0,0E0,0E0,0E0,0E0,0E0,0E0,0E0,0E0,0E0,0E0],"parents":[2147483647,0,0,1,1,2,2,3,3,4,4,5,5,6,6,8,8,9,9,10,10,11,11,12,12,13,13,14,14],"right_children":[2,4,6,8,10,12,14,-1,16,18,20,22,24,26,28,-1,-1,-1,-1,-1,-1,-1,-1,-1,-1,-1,-1,-1,-1],"split_conditions":[-1.2975122E-1,1.695E1,3E0,-4.459931E-1,-4.525633E-1,2E0,1.7166666E1,1.21006E-3,2E0,1.9291666E1,1.011872E-1,1.5854448E-2,1.9623684E1,1.635E1,4.5618692E-1,1.0803793E-4,-4.5808392E-5,-3.170457E-4,3.5033433E-4,-7.508947E-4,-0E0,6.4606767E-4,-3.3879085E-5,2.812604E-3,1.2898675E-4,2.611289E-4,-1.6685943E-4,-1.8624966E-3,-0E0],"split_indices":[3,7,1,3,3,1,9,0,1,11,4,3,5,10,3,0,0,0,0,0,0,0,0,0,0,0,0,0,0],"split_type":[0,0,0,0,0,0,0,0,0,0,0,0,0,0,0,0,0,0,0,0,0,0,0,0,0,0,0,0,0],"sum_hessian":[5.89E2,1.76E2,4.13E2,4.6E1,1.3E2,2.87E2,1.26E2,5E0,4.1E1,4.4E1,8.6E1,2.07E2,8E1,1.14E2,1.2E1,1.4E1,2.7E1,2.6E1,1.8E1,8.4E1,2E0,8E1,1.27E2,2E1,6E1,5.9E1,5.5E1,1E1,2E0],"tree_param":{"num_deleted":"0","num_feature":"12","num_nodes":"29","size_leaf_vector":"1"}},{"base_weights":[5.144973E-4,6.195122E-3,-1.1247871E-2,3.5330728E-3,8.6524166E-2,-1.5806427E-2,6.0405335E-3,1.3587158E-3,2.6285578E-2,5.01541E-3,-0E0,7.0419093E-3,-2.1866614E-2,1.6639702E-2,-1.0470278E-2,1.8086996E-4,-4.9448933E-4,2.6143556E-3,-0E0,-0E0,6.997668E-5,-3.5099257E-4,6.117926E-4,-9.43389E-6,-7.7005173E-4,7.7610824E-4,-0E0,-4.6540005E-4,-0E0],"categories":[],"categories_nodes":[],"categories_segments":[],"categories_sizes":[],"default_left":[0,0,0,0,0,0,0,0,0,0,0,0,0,0,0,0,0,0,0,0,0,0,0,0,0,0,0,0,0],"id":5,"left_children":[1,3,5,7,9,11,13,15,17,-1,19,21,23,25,27,-1,-1,-1,-1,-1,-1,-1,-1,-1,-1,-1,-1,-1,-1],"loss_changes":[3.9855417E-2,7.9004444E-2,1.6124811E-2,1.7087625E-2,7.785841E-2,2.3237016E-2,7.0911967E-3,3.0051157E-2,5.452395E-2,0E0,2.7204087E-5,8.614625E-3,7.799588E-3,4.848007E-3,7.194147E-4,0E0,0E0,0E0,0E0,0E0,0E0,0E0,0E0,0E0,0E0,0E0,0E0,0E0,0E0],"parents":[2147483647,0,0,1,1,2,2,3,3,4,4,5,5,6,6,7,7,8,8,10,10,11,11,12,12,13,13,14,14],"right_children":[2,4,6,8,10,12,14,16,18,-1,20,22,24,26,28,-1,-1,-1,-1,-1,-1,-1,-1,-1,-1,-1,-1,-1,-1],"split_conditions":[1.8433332E1,2.4336231E1,9.6875215E-1,1.7916666E1,5.031446E1,-4.866532E-1,1.2069783E0,1.6825E1,1.7045963E1,5.01541E-3,4.2284916E1,1.9291666E1,1.7387316E1,2.6309849E1,3.6840733E1,1.8086996E-4,-4.9448933E-4,2.6143556E-3,-0E0,-0E0,6.997668E-5,-3.5099257E-4,6.117926E-4,-9.43389E-6,-7.7005173E-4,7.7610824E-4,-0E0,-4.6540005E-4,-0E0],"split_indices":[10,0,4,11,2,3,3,10,6,0,0,11,6,5,0,0,0,0,0,0,0,0,0,0,0,0,0,0,0],"split_type":[0,0,0,0,0,0,0,0,0,0,0,0,0,0,0,0,0,0,0,0,0,0,0,0,0,0,0,0,0],"sum_hessian":[6.02E2,4.12E2,1.9E2,4.01E2,1.1E1,1.55E2,3.5E1,3.71E2,3E1,5E0,6E0,2.9E1,1.26E2,2.5E1,1E1,2.99E2,7.2E1,9E0,2.1E1,2E0,4E0,9E0,2E1,2.3E1,1.03E2,1.7E1,8E0,7E0,3E0],"tree_param":{"num_deleted":"0","num_feature":"12","num_nodes":"29","size_leaf_vector":"1"}},{"base_weights":[1.0373238E-3,6.028972E-3,-1.0947906E-2,2.3907952E-3,2.5150325E-2,1.2800011E-2,-1.5790105E-2,7.227965E-3,-1.6314402E-2,1.0140656E-1,-1.4041606E-3,9.939692E-4,-0E0,-2.470419E-2,7.2306786E-3,9.227266E-5,6.106577E-4,3.0209685E-5,-7.034788E-4,-0E0,4.0723537E-3,1.5765804E-7,-3.802386E-4,-7.883405E-4,-0E0,4.8191127E-4,-1.3397324E-3],"categories":[],"categories_nodes":[],"categories_segments":[],"categories_sizes":[],"default_left":[0,0,0,0,0,0,0,0,0,0,0,0,0,0,0,0,0,0,0,0,0,0,0,0,0,0,0],"id":6,"left_children":[1,3,5,7,9,11,13,15,17,19,21,-1,-1,23,25,-1,-1,-1,-1,-1,-1,-1,-1,-1,-1,-1,-1],"loss_changes":[3.4273222E-2,2.6125569E-2,1.947483E-2,3.132976E-2,1.3568923E-1,5.7837414E-3,3.0860476E-2,1.3237875E-2,1.0795295E-2,6.473166E-2,1.9977025E-3,0E0,0E0,5.662769E-3,1.4816252E-2,0E0,0E0,0E0,0E0,0E0,0E0,0E0,0E0,0E0,0E0,0E0,0E0],"parents":[2147483647,0,0,1,1,2,2,3,3,4,4,5,5,6,6,7,7,8,8,9,9,10,10,13,13,14,14],"right_children":[2,4,6,8,10,12,14,16,18,20,22,-1,-1,24,26,-1,-1,-1,-1,-1,-1,-1,-1,-1,-1,-1,-1],"split_conditions":[1.735025E1,1.7625E1,-4.9559698E-1,1.6825E1,1.9623684E1,2.352941E1,6.639214E-1,6.81081E1,1.6783333E1,1.7583334E1,8.051088E1,9.939692E-4,-0E0,2.7527666E1,2.340044E1,9.227266E-5,6.106577E-4,3.0209685E-5,-7.034788E-4,-0E0,4.0723537E-3,1.5765804E-7,-3.802386E-4,-7.883405E-4,-0E0,4.8191127E-4,-1.3397324E-3],"split_indices":[6,11,3,11,5,2,3,2,8,10,2,0,0,5,6,0,0,0,0,0,0,0,0,0,0,0,0],"split_type":[0,0,0,0,0,0,0,0,0,0,0,0,0,0,0,0,0,0,0,0,0,0,0,0,0,0,0],"sum_hessian":[5.79E2,4.15E2,1.64E2,3.54E2,6.1E1,2.4E1,1.4E2,2.86E2,6.8E1,1.6E1,4.5E1,8E0,1.6E1,1.04E2,3.6E1,2.24E2,6.2E1,1.6E1,5.2E1,4E0,1.2E1,3.3E1,1.2E1,1E2,4E0,3.3E1,3E0],"tree_param":{"num_deleted":"0","num_feature":"12","num_nodes":"27","size_leaf_vector":"1"}},{"base_weights":[-8.285953E-4,-2.0502815E-3,4.0775858E-2,4.5577087E-3,-9.103815E-3,3.3243203E-3,1.3785063E-2,8.989842E-3,-7.282494E-4,1.8060552E-3,-1.4823632E-2,-0E0,1.6033532E-2,1.04049795E-4,7.428651E-4,5.3933385E-4,-1.1688863E-4,1.5878584E-3,-2.5797487E-4,3.6826212E-4,-5.0094584E-4,5.1790226E-4,-0E0],"categories":[],"categories_nodes":[],"categories_segments":[],"categories_sizes":[],"default_left":[0,0,0,0,0,0,0,0,0,0,0,0,0,0,0,0,0,0,0,0,0,0,0],"id":7,"left_children":[1,3,5,7,9,-1,11,13,15,17,19,-1,21,-1,-1,-1,-1,-1,-1,-1,-1,-1,-1],"loss_changes":[2.7012562E-2,2.8089033E-2,1.4367325E-2,7.837698E-3,1.9674854E-2,0E0,3.5745208E-4,1.2157144E-2,6.188102E-3,5.5954456E-2,1.0756217E-2,0E0,1.5243655E-4,0E0,0E0,0E0,0E0,0E0,0E0,0E0,0E0,0E0,0E0],"parents":[2147483647,0,0,1,1,2,2,3,3,4,4,6,6,7,7,8,8,9,9,10,10,12,12],"right_children":[2,4,6,8,10,-1,12,14,16,18,20,-1,22,-1,-1,-1,-1,-1,-1,-1,-1,-1,-1],"split_conditions":[3.8730812E1,1.6825E1,8.504676E-1,5.050156E0,1E0,3.3243203E-3,8.843688E-1,6.805555E1,1.2658671E1,8.116319E0,-6.289901E-1,-0E0,7.210648E1,1.04049795E-4,7.428651E-4,5.3933385E-4,-1.1688863E-4,1.5878584E-3,-2.5797487E-4,3.6826212E-4,-5.0094584E-4,5.1790226E-4,-0E0],"split_indices":[0,10,3,0,1,0,3,2,5,0,3,0,2,0,0,0,0,0,0,0,0,0,0],"split_type":[0,0,0,0,0,0,0,0,0,0,0,0,0,0,0,0,0,0,0,0,0,0,0],"sum_hessian":[6.05E2,5.91E2,1.4E1,2.98E2,2.93E2,2E0,1.2E1,1.72E2,1.26E2,9.5E1,1.98E2,2E0,1E1,1.33E2,3.9E1,1.3E1,1.13E2,1.7E1,7.8E1,9E0,1.89E2,9E0,1E0],"tree_param":{"num_deleted":"0","num_feature":"12","num_nodes":"23","size_leaf_vector":"1"}},{"base_weights":[-9.6057856E-4,2.9801743E-3,-1.4884538E-2,1.0818577E-3,5.3317435E-2,-4.446281E-2,-8.6994255E-3,1.6199218E-2,-8.8748074E-4,4.4588535E-3,-0E0,-0E0,-4.997413E-2,-1.6336925E-3,-2.9011047E-2,2.7473369E-3,2.1203619E-4,-6.312421E-5,5.411147E-4,3.544254E-4,-1.564799E-4,-1.5976437E-3,-0E0,-4.1230765E-4,1.5494537E-4,-1.1806436E-3,-0E0],"categories":[],"categories_nodes":[],"categories_segments":[],"categories_sizes":[],"default_left":[0,0,0,0,0,0,0,0,0,0,0,0,0,0,0,0,0,0,0,0,0,0,0,0,0,0,0],"id":8,"left_children":[1,3,5,7,9,11,13,15,17,-1,19,-1,21,23,25,-1,-1,-1,-1,-1,-1,-1,-1,-1,-1,-1,-1],"loss_changes":[3.4376808E-2,3.9031513E-2,1.972632E-2,1.5002131E-2,6.781086E-2,3.437668E-3,1.3966594E-2,2.9410064E-2,7.5394637E-3,0E0,1.1130571E-3,0E0,3.2597966E-3,8.585511E-3,9.800481E-3,0E0,0E0,0E0,0E0,0E0,0E0,0E0,0E0,0E0,0E0,0E0,0E0],"parents":[2147483647,0,0,1,1,2,2,3,3,4,4,5,5,6,6,7,7,8,8,10,10,12,12,13,13,14,14],"right_children":[2,4,6,8,10,12,14,16,18,-1,20,-1,22,24,26,-1,-1,-1,-1,-1,-1,-1,-1,-1,-1,-1,-1],"split_conditions":[1.965E1,2.6601208E1,2.0916666E1,1.8969306E0,5.031446E1,2.1520517E1,2.6309849E1,2.4242422E1,2.1150171E1,4.4588535E-3,1.8041666E1,-0E0,2.3503414E1,1.6065933E1,9.287175E-1,2.7473369E-3,2.1203619E-4,-6.312421E-5,5.411147E-4,3.544254E-4,-1.564799E-4,-1.5976437E-3,-0E0,-4.1230765E-4,1.5494537E-4,-1.1806436E-3,-0E0],"split_indices":[7,0,7,0,2,5,5,2,5,0,7,0,0,0,3,0,0,0,0,0,0,0,0,0,0,0,0],"split_type":[0,0,0,0,0,0,0,0,0,0,0,0,0,0,0,0,0,0,0,0,0,0,0,0,0,0,0],"sum_hessian":[6.03E2,4.65E2,1.38E2,4.51E2,1.4E1,2E1,1.18E2,5.7E1,3.94E2,4E0,1E1,3E0,1.7E1,9.2E1,2.6E1,4E0,5.3E1,3.76E2,1.8E1,6E0,4E0,1.6E1,1E0,3.8E1,5.4E1,2E1,6E0],"tree_param":{"num_deleted":"0","num_feature":"12","num_nodes":"27","size_leaf_vector":"1"}},{"base_weights":[1.598255E-4,6.4880867E-3,-1.0481706E-2,3.1715287E-3,5.8114577E-2,-8.558563E-3,-5.2392893E-2,7.2310856E-3,-1.3762947E-2,-0E0,8.564754E-2,-1.4815775E-2,1.7900384E-3,-1.7851999E-3,-0E0,3.157306E-4,-2.4727263E-4,3.8994636E-4,-5.519893E-4,3.6914214E-3,3.3122854E-4,4.7774687E-5,-6.3655287E-4,4.5925644E-4,-5.2182743E-4],"categories":[],"categories_nodes":[],"categories_segments":[],"categories_sizes":[],"default_left":[0,0,0,0,0,0,0,0,0,0,0,0,0,0,0,0,0,0,0,0,0,0,0,0,0],"id":9,"left_children":[1,3,5,7,9,11,13,15,17,-1,19,21,23,-1,-1,-1,-1,-1,-1,-1,-1,-1,-1,-1,-1],"loss_changes":[3.9670024E-2,5.858031E-2,1.0866307E-2,2.4126317E-2,3.9109133E-2,1.4927306E-2,2.0311493E-3,1.5347668E-2,8.844729E-3,0E0,2.708672E-2,1.6389117E-2,1.9249093E-2,0E0,0E0,0E0,0E0,0E0,0E0,0E0,0E0,0E0,0E0,0E0,0E0],"parents":[2147483647,0,0,1,1,2,2,3,3,4,4,5,5,6,6,7,7,8,8,10,10,11,11,12,12],"right_children":[2,4,6,8,10,12,14,16,18,-1,20,22,24,-1,-1,-1,-1,-1,-1,-1,-1,-1,-1,-1,-1],"split_conditions":[1.815E1,1.8921022E1,2.3675303E1,1.6825E1,-3.1154978E-1,5.039731E-1,2.6625E1,1.9678552E-1,1.5715751E1,-0E0,1.9623684E1,-4.866532E-1,1.0666376E0,-1.7851999E-3,-0E0,3.157306E-4,-2.4727263E-4,3.8994636E-4,-5.519893E-4,3.6914214E-3,3.3122854E-4,4.7774687E-5,-6.3655287E-4,4.5925644E-4,-5.2182743E-4],"split_indices":[7,5,6,10,4,3,8,4,6,0,5,3,3,0,0,0,0,0,0,0,0,0,0,0,0],"split_type":[0,0,0,0,0,0,0,0,0,0,0,0,0,0,0,0,0,0,0,0,0,0,0,0,0],"sum_hessian":[5.93E2,3.78E2,2.15E2,3.58E2,2E1,2.09E2,6E0,2.94E2,6.4E1,6E0,1.4E1,1.36E2,7.3E1,5E0,1E0,2.48E2,4.6E1,6E0,5.8E1,8E0,6E0,3.4E1,1.02E2,4.6E1,2.7E1],"tree_param":{"num_deleted":"0","num_feature":"12","num_nodes":"25","size_leaf_vector":"1"}},{"base_weights":[3.16809E-4,1.2321799E-3,-5.587561E-2,-3.7923824E-2,2.1976125E-3,-0E0,-1.8741197E-3,-1.6258042E-3,-0E0,1.3581749E-2,-1.0293726E-3,9.158298E-5,8.7947585E-4,5.13328E-5,-2.1031828E-4],"categories":[],"categories_nodes":[],"categories_segments":[],"categories_sizes":[],"default_left":[0,0,0,0,0,0,0,0,0,0,0,0,0,0,0],"id":10,"left_children":[1,3,5,7,9,-1,-1,-1,-1,11,13,-1,-1,-1,-1],"loss_changes":[2.582671E-2,1.9192213E-2,2.341412E-3,3.2999292E-3,2.2906981E-2,0E0,0E0,0E0,0E0,1.9369641E-2,7.96724E-3,0E0,0E0,0E0,0E0],"parents":[2147483647,0,0,1,1,2,2,3,3,4,4,9,9,10,10],"right_children":[2,4,6,8,10,-1,-1,-1,-1,12,14,-1,-1,-1,-1],"split_conditions":[2.3675303E1,1.1135407E1,3.8541664E1,3E0,1.6596975E1,-0E0,-1.8741197E-3,-1.6258042E-3,-0E0,1.3491667E1,3E0,9.158298E-5,8.7947585E-4,5.13328E-5,-2.1031828E-4],"split_indices":[6,6,2,1,5,0,0,0,0,7,1,0,0,0,0],"split_type":[0,0,0,0,0,0,0,0,0,0,0,0,0,0,0],"sum_hessian":[6.06E2,5.99E2,7E0,1.1E1,5.88E2,1E0,6E0,6E0,5E0,1.36E2,4.52E2,8.6E1,5E1,2.99E2,1.53E2],"tree_param":{"num_deleted":"0","num_feature":"12","num_nodes":"15","size_leaf_vector":"1"}},{"base_weights":[3.2052395E-4,1.22632645E-2,-3.3571534E-3,1.858366E-2,-8.498931E-3,-2.2263364E-3,-5.447002E-2,9.291419E-3,4.043158E-2,-2.3012348E-2,-0E0,-4.675696E-3,1.44608235E-2,-1.8259281E-3,-0E0,7.3923735E-4,-9.2562215E-5,2.6470495E-3,6.6480663E-4,-1.0469764E-3,-0E0,-0E0,-4.6417757E-5,1.9831321E-4,-2.573279E-4,3.6105877E-3,1.1100718E-4],"categories":[],"categories_nodes":[],"categories_segments":[],"categories_sizes":[],"default_left":[0,0,0,0,0,0,0,0,0,0,0,0,0,0,0,0,0,0,0,0,0,0,0,0,0,0,0],"id":11,"left_children":[1,3,5,7,9,11,13,15,17,19,21,23,25,-1,-1,-1,-1,-1,-1,-1,-1,-1,-1,-1,-1,-1,-1],"loss_changes":[2.7680002E-2,2.0850208E-2,2.0796772E-2,1.8810954E-2,2.4546948E-3,1.7604506E-2,2.1953527E-3,1.895004E-2,1.4955044E-2,1.3236627E-3,5.0274197E-5,1.7912406E-2,4.7540773E-2,0E0,0E0,0E0,0E0,0E0,0E0,0E0,0E0,0E0,0E0,0E0,0E0,0E0,0E0],"parents":[2147483647,0,0,1,1,2,2,3,3,4,4,5,5,6,6,7,7,8,8,9,9,10,10,11,11,12,12],"right_children":[2,4,6,8,10,12,14,16,18,20,22,24,26,-1,-1,-1,-1,-1,-1,-1,-1,-1,-1,-1,-1,-1,-1],"split_conditions":[1.660802E1,1.9678552E-1,2.3675303E1,2E0,1E0,8.4787333E-1,2.6625E1,4.4811096E-2,3E0,9.100754E0,1.1701972E1,1E0,1.9362268E1,-1.8259281E-3,-0E0,7.3923735E-4,-9.2562215E-5,2.6470495E-3,6.6480663E-4,-1.0469764E-3,-0E0,-0E0,-4.6417757E-5,1.9831321E-4,-2.573279E-4,3.6105877E-3,1.1100718E-4],"split_indices":[5,4,6,1,1,4,8,4,1,0,5,1,5,0,0,0,0,0,0,0,0,0,0,0,0,0,0],"split_type":[0,0,0,0,0,0,0,0,0,0,0,0,0,0,0,0,0,0,0,0,0,0,0,0,0,0,0],"sum_hessian":[6.08E2,1.49E2,4.59E2,1.18E2,3.1E1,4.52E2,7E0,8.7E1,3.1E1,8E0,2.3E1,4E2,5.2E1,6E0,1E0,4.2E1,4.5E1,6E0,2.5E1,4E0,4E0,3E0,2E1,9.6E1,3.04E2,3E0,4.9E1],"tree_param":{"num_deleted":"0","num_feature":"12","num_nodes":"27","size_leaf_vector":"1"}},{"base_weights":[-0E0,4.841439E-3,-1.0324602E-2,2.4356032E-3,8.345147E-2,-1.5318475E-2,6.055639E-3,1.0291467E-2,-2.3678117E-3,4.549323E-3,-0E0,5.485002E-3,-2.1604186E-2,1.717349E-2,-9.175914E-3,1.8412683E-3,1.9696976E-4,1.7649189E-4,-1.4495668E-4,-1.8888587E-4,5.351954E-4,-2.0443763E-4,-8.03304E-4,7.5241E-4,-0E0,-0E0,-4.333908E-4],"categories":[],"categories_nodes":[],"categories_segments":[],"categories_sizes":[],"default_left":[0,0,0,0,0,0,0,0,0,0,0,0,0,0,0,0,0,0,0,0,0,0,0,0,0,0,0],"id":12,"left_children":[1,3,5,7,9,11,13,15,17,-1,-1,19,21,23,25,-1,-1,-1,-1,-1,-1,-1,-1,-1,-1,-1,-1],"loss_changes":[3.1106606E-2,6.931577E-2,1.7461013E-2,1.602393E-2,6.1369985E-2,2.2521999E-2,8.239051E-3,2.3445992E-2,4.8636924E-3,0E0,0E0,6.215554E-3,6.0975067E-3,5.285575E-3,1.2414069E-3,0E0,0E0,0E0,0E0,0E0,0E0,0E0,0E0,0E0,0E0,0E0,0E0],"parents":[2147483647,0,0,1,1,2,2,3,3,4,4,5,5,6,6,7,7,8,8,11,11,12,12,13,13,14,14],"right_children":[2,4,6,8,10,12,14,16,18,-1,-1,20,22,24,26,-1,-1,-1,-1,-1,-1,-1,-1,-1,-1,-1,-1],"split_conditions":[1.8283333E1,8.4787333E-1,9.6875215E-1,1.6681913E1,5.031446E1,-4.866532E-1,7.232558E1,2.4242422E1,2.8767117E1,4.549323E-3,-0E0,1.9291666E1,2.065975E1,2.6309849E1,9.923753E-1,1.8412683E-3,1.9696976E-4,1.7649189E-4,-1.4495668E-4,-1.8888587E-4,5.351954E-4,-2.0443763E-4,-8.03304E-4,7.5241E-4,-0E0,-0E0,-4.333908E-4],"split_indices":[10,4,4,5,2,3,2,2,2,0,0,11,5,5,4,0,0,0,0,0,0,0,0,0,0,0,0],"split_type":[0,0,0,0,0,0,0,0,0,0,0,0,0,0,0,0,0,0,0,0,0,0,0,0,0,0,0],"sum_hessian":[6.12E2,4.12E2,2E2,4.02E2,1E1,1.58E2,4.2E1,1.6E2,2.42E2,5E0,5E0,3.3E1,1.25E2,2.8E1,1.4E1,8E0,1.52E2,4.6E1,1.96E2,1.3E1,2E1,3.8E1,8.7E1,2.1E1,7E0,3E0,1.1E1],"tree_param":{"num_deleted":"0","num_feature":"12","num_nodes":"27","size_leaf_vector":"1"}},{"base_weights":[-2.1471747E-4,3.9956844E-3,-1.0416115E-2,2.1700049E-3,4.01911E-2,2.4485819E-2,-1.2996133E-2,8.711409E-3,-1.2326892E-3,9.636689E-2,4.2061496E-4,-0E0,3.1650085E-2,-1.8090997E-2,4.315228E-3,7.4728037E-4,-2.26145E-6,5.815093E-4,-1.64736E-4,-0E0,3.2688614E-3,4.1254266E-4,-2.9783982E-5,1.042681E-3,-0E0,-0E0,-5.999798E-4,6.1999465E-4,-2.499358E-4],"categories":[],"categories_nodes":[],"categories_segments":[],"categories_sizes":[],"default_left":[0,0,0,0,0,0,0,0,0,0,0,0,0,0,0,0,0,0,0,0,0,0,0,0,0,0,0,0,0],"id":13,"left_children":[1,3,5,7,9,11,13,15,17,19,21,-1,23,25,27,-1,-1,-1,-1,-1,-1,-1,-1,-1,-1,-1,-1,-1,-1],"loss_changes":[2.5939427E-2,2.276998E-2,1.5287783E-2,9.528419E-3,2.8261067E-2,3.0199983E-3,1.6449483E-2,2.3122817E-2,2.0665916E-2,3.6441796E-3,1.5156182E-3,0E0,6.483039E-4,5.885951E-3,8.643179E-3,0E0,0E0,0E0,0E0,0E0,0E0,0E0,0E0,0E0,0E0,0E0,0E0,0E0,0E0],"parents":[2147483647,0,0,1,1,2,2,3,3,4,4,5,5,6,6,7,7,8,8,9,9,10,10,12,12,13,13,14,14],"right_children":[2,4,6,8,10,12,14,16,18,20,22,-1,24,26,28,-1,-1,-1,-1,-1,-1,-1,-1,-1,-1,-1,-1,-1,-1],"split_conditions":[1.865E1,4.1555458E-1,1.8918917E1,1.660802E1,7.8474486E-1,1.797365E1,9.6875215E-1,4.4811096E-2,1E0,1E0,1.7891666E1,-0E0,-4.9559698E-1,-5.64238E-1,7.037037E1,7.4728037E-4,-2.26145E-6,5.815093E-4,-1.64736E-4,-0E0,3.2688614E-3,4.1254266E-4,-2.9783982E-5,1.042681E-3,-0E0,-0E0,-5.999798E-4,6.1999465E-4,-2.499358E-4],"split_indices":[7,3,2,5,3,6,4,4,1,1,7,0,3,3,2,0,0,0,0,0,0,0,0,0,0,0,0,0,0],"split_type":[0,0,0,0,0,0,0,0,0,0,0,0,0,0,0,0,0,0,0,0,0,0,0,0,0,0,0,0,0],"sum_hessian":[5.87E2,4.09E2,1.78E2,3.93E2,1.6E1,9E0,1.69E2,1.44E2,2.49E2,5E0,1.1E1,1E0,8E0,1.35E2,3.4E1,5.4E1,9E1,3.8E1,2.11E2,1E0,4E0,7E0,4E0,7E0,1E0,1E1,1.25E2,1.8E1,1.6E1],"tree_param":{"num_deleted":"0","num_feature":"12","num_nodes":"29","size_leaf_vector":"1"}},{"base_weights":[5.824725E-4,4.238305E-3,-1.0061295E-2,1.9724425E-2,1.8455442E-3,-1.5515171E-2,5.90079E-3,9.4024554E-2,8.635695E-3,-6.3741714E-4,1.6686328E-2,1.4769448E-2,-1.7913302E-2,1.8543793E-2,-3.2315762E-3,-0E0,3.4470807E-3,-0E0,4.0720962E-4,1.0326156E-4,-5.1428634E-4,-2.3430055E-5,2.4139502E-3,4.9088517E-4,-0E0,-0E0,-5.850734E-4,7.4299355E-4,-0E0,-2.2438983E-4,-0E0],"categories":[],"categories_nodes":[],"categories_segments":[],"categories_sizes":[],"default_left":[0,0,0,0,0,0,0,0,0,0,0,0,0,0,0,0,0,0,0,0,0,0,0,0,0,0,0,0,0,0,0],"id":14,"left_children":[1,3,5,7,9,11,13,15,17,19,21,23,25,27,29,-1,-1,-1,-1,-1,-1,-1,-1,-1,-1,-1,-1,-1,-1,-1,-1],"loss_changes":[2.315765E-2,1.4888764E-2,1.40242195E-2,3.506007E-2,1.6576258E-2,9.003626E-3,5.5168057E-3,1.2969445E-2,3.0136947E-3,2.452449E-2,7.9330005E-2,2.9892894E-5,2.7964972E-3,4.5072148E-3,5.6019996E-4,0E0,0E0,0E0,0E0,0E0,0E0,0E0,0E0,0E0,0E0,0E0,0E0,0E0,0E0,0E0,0E0],"parents":[2147483647,0,0,1,1,2,2,3,3,4,4,5,5,6,6,7,7,8,8,9,9,10,10,11,11,12,12,13,13,14,14],"right_children":[2,4,6,8,10,12,14,16,18,20,22,24,26,28,30,-1,-1,-1,-1,-1,-1,-1,-1,-1,-1,-1,-1,-1,-1,-1,-1],"split_conditions":[1.9158333E1,2.6395937E1,9.6875215E-1,1.3719721E1,1.7891666E1,1.8918917E1,7.0026764E1,1E0,1.6508333E1,1.6783333E1,-1.8515335E-1,-2.3295136E-1,-4.78417E-1,2.6158333E1,2.505E1,-0E0,3.4470807E-3,-0E0,4.0720962E-4,1.0326156E-4,-5.1428634E-4,-2.3430055E-5,2.4139502E-3,4.9088517E-4,-0E0,-0E0,-5.850734E-4,7.4299355E-4,-0E0,-2.2438983E-4,-0E0],"split_indices":[7,2,4,5,10,2,2,1,11,10,4,4,4,11,8,0,0,0,0,0,0,0,0,0,0,0,0,0,0,0,0],"split_type":[0,0,0,0,0,0,0,0,0,0,0,0,0,0,0,0,0,0,0,0,0,0,0,0,0,0,0,0,0,0,0],"sum_hessian":[6.08E2,4.6E2,1.48E2,5.5E1,4.05E2,1.15E2,3.3E1,5E0,5E1,3.42E2,6.3E1,5E0,1.1E2,1.8E1,1.5E1,1E0,4E0,1.4E1,3.6E1,2.7E2,7.2E1,4.9E1,1.4E1,4E0,1E0,1E1,1E2,1.7E1,1E0,1.2E1,3E0],"tree_param":{"num_deleted":"0","num_feature":"12","num_nodes":"31","size_leaf_vector":"1"}},{"base_weights":[-0E0,4.159402E-3,-1.0575728E-2,1.1001431E-3,2.5691353E-2,-1.9436773E-2,-0E0,6.131895E-3,-1.6562205E-2,4.3167355E-3,4.5115696E-3,-0E0,-2.607779E-2,5.9575792E-3,-4.5544423E-2,-6.1145617E-4,2.1687684E-4,-6.03296E-4,-0E0,1.000427E-3,-2.5379188E-5,-3.0230038E-4,4.2776618E-4,-3.2276422E-4,-1.0775739E-3,-0E0,6.3993555E-4,-1.5554453E-3,-0E0],"categories":[],"categories_nodes":[],"categories_segments":[],"categories_sizes":[],"default_left":[0,0,0,0,0,0,0,0,0,0,0,0,0,0,0,0,0,0,0,0,0,0,0,0,0,0,0,0,0],"id":15,"left_children":[1,3,5,7,9,11,13,15,17,-1,19,21,23,25,27,-1,-1,-1,-1,-1,-1,-1,-1,-1,-1,-1,-1,-1,-1],"loss_changes":[2.6342463E-2,2.6473798E-2,1.7211586E-2,3.3985443E-2,1.1218634E-1,1.03536025E-2,1.6898077E-2,7.880453E-3,5.136611E-3,0E0,1.0230424E-2,3.8606282E-3,5.1973946E-3,8.087433E-3,1.6093384E-3,0E0,0E0,0E0,0E0,0E0,0E0,0E0,0E0,0E0,0E0,0E0,0E0,0E0,0E0],"parents":[2147483647,0,0,1,1,2,2,3,3,4,4,5,5,6,6,7,7,8,8,10,10,11,11,12,12,13,13,14,14],"right_children":[2,4,6,8,10,12,14,16,18,-1,20,22,24,26,28,-1,-1,-1,-1,-1,-1,-1,-1,-1,-1,-1,-1,-1,-1],"split_conditions":[1.735025E1,1.7891666E1,2.2806173E1,1.6825E1,1.9189007E1,-4.2542616E-1,2.340044E1,1.109637E1,2.834042E-1,4.3167355E-3,1.7958334E1,1.797365E1,2.1520517E1,8.509249E-1,2.6625E1,-6.1145617E-4,2.1687684E-4,-6.03296E-4,-0E0,1.000427E-3,-2.5379188E-5,-3.0230038E-4,4.2776618E-4,-3.2276422E-4,-1.0775739E-3,-0E0,6.3993555E-4,-1.5554453E-3,-0E0],"split_indices":[6,11,5,9,5,3,6,6,3,0,7,6,5,3,8,0,0,0,0,0,0,0,0,0,0,0,0,0,0],"split_type":[0,0,0,0,0,0,0,0,0,0,0,0,0,0,0,0,0,0,0,0,0,0,0,0,0,0,0,0,0],"sum_hessian":[6.08E2,4.42E2,1.66E2,3.92E2,5E1,9.4E1,7.2E1,3.1E2,8.2E1,6E0,4.4E1,2.7E1,6.7E1,6.6E1,6E0,8E0,3.02E2,6.8E1,1.4E1,9E0,3.5E1,1.9E1,8E0,3.1E1,3.6E1,4.4E1,2.2E1,5E0,1E0],"tree_param":{"num_deleted":"0","num_feature":"12","num_nodes":"29","size_leaf_vector":"1"}},{"base_weights":[4.5493082E-4,1.303336E-3,-5.0520223E-2,-6.1326837E-3,5.1089767E-3,-1.6990281E-3,-0E0,1.1388585E-2,-1.1706906E-2,-1.9496502E-2,7.396072E-3,1.2080981E-3,2.3382621E-5,-0E0,-5.032018E-4,-0E0,-1.4254468E-3,3.7793105E-4,-8.023499E-5],"categories":[],"categories_nodes":[],"categories_segments":[],"categories_sizes":[],"default_left":[0,0,0,0,0,0,0,0,0,0,0,0,0,0,0,0,0,0,0],"id":16,"left_children":[1,3,5,7,9,-1,-1,11,13,15,17,-1,-1,-1,-1,-1,-1,-1,-1],"loss_changes":[2.1308945E-2,1.6851654E-2,2.0337384E-3,1.9112643E-2,2.1725563E-2,0E0,0E0,9.039178E-3,8.7095555E-3,1.3050801E-2,2.066978E-2,0E0,0E0,0E0,0E0,0E0,0E0,0E0,0E0],"parents":[2147483647,0,0,1,1,2,2,3,3,4,4,7,7,8,8,9,9,10,10],"right_children":[2,4,6,8,10,-1,-1,12,14,16,18,-1,-1,-1,-1,-1,-1,-1,-1],"split_conditions":[2.3675303E1,-1.2975122E-1,2.6625E1,-4.69178E-1,1.1369893E1,-1.6990281E-3,-0E0,9.085022E0,1.7433332E1,2.7021497E-1,3E0,1.2080981E-3,2.3382621E-5,-0E0,-5.032018E-4,-0E0,-1.4254468E-3,3.7793105E-4,-8.023499E-5],"split_indices":[6,3,8,3,6,0,0,0,7,3,1,0,0,0,0,0,0,0,0],"split_type":[0,0,0,0,0,0,0,0,0,0,0,0,0,0,0,0,0,0,0],"sum_hessian":[6.04E2,5.97E2,7E0,1.93E2,4.04E2,6E0,1E0,4.2E1,1.51E2,3E1,3.74E2,8E0,3.4E1,4.7E1,1.04E2,2E1,1E1,2.53E2,1.21E2],"tree_param":{"num_deleted":"0","num_feature":"12","num_nodes":"19","size_leaf_vector":"1"}},{"base_weights":[-0E0,3.753878E-3,-1.1325961E-2,1.7394086E-3,5.304488E-2,-1.8536521E-2,-1.937926E-4,1.8142967E-2,-7.6875443E-7,4.2862925E-3,-0E0,3.9803187E-4,-2.2683404E-2,3.970889E-3,-5.074405E-2,2.8931575E-3,2.567387E-4,5.259895E-4,-5.7555855E-5,-4.993673E-4,2.1765713E-4,-0E0,-7.38264E-4,-1.8567933E-5,5.823762E-4,-0E0,-1.7374321E-3],"categories":[],"categories_nodes":[],"categories_segments":[],"categories_sizes":[],"default_left":[0,0,0,0,0,0,0,0,0,0,0,0,0,0,0,0,0,0,0,0,0,0,0,0,0,0,0],"id":17,"left_children":[1,3,5,7,9,11,13,15,17,-1,19,-1,21,23,25,-1,-1,-1,-1,-1,-1,-1,-1,-1,-1,-1,-1],"loss_changes":[2.620867E-2,3.990651E-2,1.048483E-2,1.4459714E-2,7.7461876E-2,1.2848711E-2,1.8984038E-2,2.4697311E-2,1.17879E-2,0E0,1.5294086E-3,0E0,5.558774E-3,6.2147146E-3,2.0997617E-3,0E0,0E0,0E0,0E0,0E0,0E0,0E0,0E0,0E0,0E0,0E0,0E0],"parents":[2147483647,0,0,1,1,2,2,3,3,4,4,5,5,6,6,7,7,8,8,10,10,12,12,13,13,14,14],"right_children":[2,4,6,8,10,12,14,16,18,-1,20,-1,22,24,26,-1,-1,-1,-1,-1,-1,-1,-1,-1,-1,-1,-1],"split_conditions":[1.9158333E1,2.6601208E1,5.039731E-1,1.6814939E0,5.031446E1,-6.416737E-1,2.340044E1,2.4242422E1,1.2658671E1,4.2862925E-3,3.6840733E1,3.9803187E-4,1.7857132E1,2.1199842E1,1.9143354E1,2.8931575E-3,2.567387E-4,5.259895E-4,-5.7555855E-5,-4.993673E-4,2.1765713E-4,-0E0,-7.38264E-4,-1.8567933E-5,5.823762E-4,-0E0,-1.7374321E-3],"split_indices":[7,0,3,0,2,3,6,2,5,0,0,0,2,6,0,0,0,0,0,0,0,0,0,0,0,0,0],"split_type":[0,0,0,0,0,0,0,0,0,0,0,0,0,0,0,0,0,0,0,0,0,0,0,0,0,0,0],"sum_hessian":[6.1E2,4.57E2,1.53E2,4.42E2,1.5E1,8.7E1,6.6E1,4.7E1,3.95E2,5E0,1E1,7E0,8E1,6E1,6E0,3E0,4.4E1,3.3E1,3.62E2,3E0,7E0,3E0,7.7E1,4.2E1,1.8E1,1E0,5E0],"tree_param":{"num_deleted":"0","num_feature":"12","num_nodes":"27","size_leaf_vector":"1"}},{"base_weights":[-0E0,9.427762E-3,-3.4425312E-3,1.5670216E-2,-8.723148E-3,-2.452145E-3,-4.9503025E-2,7.0052748E-3,3.849277E-2,-2.5465943E-2,-0E0,1.1139791E-2,-6.428564E-3,-0E0,-1.6939963E-3,1.4380118E-3,4.6240537E-5,1.641485E-3,-0E0,-1.197618E-3,-0E0,-5.5812292E-5,-0E0,1.6703367E-3,-1.8489545E-5,-0E0,-3.3672992E-4],"categories":[],"categories_nodes":[],"categories_segments":[],"categories_sizes":[],"default_left":[0,0,0,0,0,0,0,0,0,0,0,0,0,0,0,0,0,0,0,0,0,0,0,0,0,0,0],"id":18,"left_children":[1,3,5,7,9,11,13,15,17,19,21,23,25,-1,-1,-1,-1,-1,-1,-1,-1,-1,-1,-1,-1,-1,-1],"loss_changes":[1.9566039E-2,1.9187009E-2,1.4572399E-2,1.9900054E-2,4.2421105E-3,2.2840802E-2,1.976978E-3,1.6223453E-2,1.6938545E-2,2.4282685E-3,8.998924E-5,5.3711195E-2,9.80162E-3,0E0,0E0,0E0,0E0,0E0,0E0,0E0,0E0,0E0,0E0,0E0,0E0,0E0,0E0],"parents":[2147483647,0,0,1,1,2,2,3,3,4,4,5,5,6,6,7,7,8,8,9,9,10,10,11,11,12,12],"right_children":[2,4,6,8,10,12,14,16,18,20,22,24,26,-1,-1,-1,-1,-1,-1,-1,-1,-1,-1,-1,-1,-1,-1],"split_conditions":[1.6681913E1,1.9678552E-1,2.3675303E1,2E0,1E0,1E0,1.9143354E1,2.4242422E1,4.614034E0,9.100754E0,8.2624115E1,8.01353E0,1.6933332E1,-0E0,-1.6939963E-3,1.4380118E-3,4.6240537E-5,1.641485E-3,-0E0,-1.197618E-3,-0E0,-5.5812292E-5,-0E0,1.6703367E-3,-1.8489545E-5,-0E0,-3.3672992E-4],"split_indices":[5,4,6,1,1,1,0,2,0,0,2,0,9,0,0,0,0,0,0,0,0,0,0,0,0,0,0],"split_type":[0,0,0,0,0,0,0,0,0,0,0,0,0,0,0,0,0,0,0,0,0,0,0,0,0,0,0],"sum_hessian":[5.96E2,1.61E2,4.35E2,1.24E2,3.7E1,4.29E2,6E0,9.4E1,3E1,1E1,2.7E1,9.1E1,3.38E2,1E0,5E0,8E0,8.6E1,2E1,1E1,5E0,5E0,2.5E1,2E0,2E1,7.1E1,1.5E2,1.88E2],"tree_param":{"num_deleted":"0","num_feature":"12","num_nodes":"27","size_leaf_vector":"1"}},{"base_weights":[-7.574256E-5,3.047792E-3,-7.910887E-3,-0E0,2.5055734E-2,-1.5490236E-2,-0E0,4.412897E-3,-1.6410362E-2,5.2318677E-2,1.8031513E-3,-0E0,-1.7345894E-2,1.0842792E-2,-9.106153E-3,2.632842E-4,-4.645118E-6,-0E0,-6.022941E-4,4.0111956E-3,3.6834946E-4,-3.1178803E-4,3.686055E-4,4.010112E-4,-1.7327083E-4,-6.791359E-4,-3.6928916E-5,-0E0,6.186214E-4,-0E0,-4.2715634E-4],"categories":[],"categories_nodes":[],"categories_segments":[],"categories_sizes":[],"default_left":[0,0,0,0,0,0,0,0,0,0,0,0,0,0,0,0,0,0,0,0,0,0,0,0,0,0,0,0,0,0,0],"id":19,"left_children":[1,3,5,7,9,11,13,15,17,19,21,23,25,27,29,-1,-1,-1,-1,-1,-1,-1,-1,-1,-1,-1,-1,-1,-1,-1,-1],"loss_changes":[1.4900747E-2,2.756241E-2,1.0278281E-2,2.6325036E-2,2.619017E-2,3.3168476E-3,8.848746E-3,6.5834387E-3,6.269237E-3,5.2194603E-2,4.152891E-3,1.0268234E-3,4.578188E-3,5.0772745E-3,2.9496644E-3,0E0,0E0,0E0,0E0,0E0,0E0,0E0,0E0,0E0,0E0,0E0,0E0,0E0,0E0,0E0,0E0],"parents":[2147483647,0,0,1,1,2,2,3,3,4,4,5,5,6,6,7,7,8,8,9,9,10,10,11,11,12,12,13,13,14,14],"right_children":[2,4,6,8,10,12,14,16,18,20,22,24,26,28,30,-1,-1,-1,-1,-1,-1,-1,-1,-1,-1,-1,-1,-1,-1,-1,-1],"split_conditions":[1.8641666E1,1.8921022E1,2.2806173E1,1.6825E1,1.8283333E1,2.5617283E1,2.4331358E1,4.8723125E0,1.6716667E1,1.9152498E1,1.8583334E1,2.2463919E1,5.947368E1,1.6581078E1,2.275E1,2.632842E-4,-4.645118E-6,-0E0,-6.022941E-4,4.0111956E-3,3.6834946E-4,-3.1178803E-4,3.686055E-4,4.010112E-4,-1.7327083E-4,-6.791359E-4,-3.6928916E-5,-0E0,6.186214E-4,-0E0,-4.2715634E-4],"split_indices":[7,5,5,10,10,2,5,0,8,5,11,5,2,0,9,0,0,0,0,0,0,0,0,0,0,0,0,0,0,0,0],"split_type":[0,0,0,0,0,0,0,0,0,0,0,0,0,0,0,0,0,0,0,0,0,0,0,0,0,0,0,0,0,0,0],"sum_hessian":[5.87E2,4.11E2,1.76E2,3.62E2,4.9E1,8.8E1,8.8E1,2.86E2,7.6E1,2E1,2.9E1,7E0,8.1E1,3.9E1,4.9E1,1.57E2,1.29E2,1E1,6.6E1,5E0,1.5E1,9E0,2E1,4E0,3E0,5.6E1,2.5E1,1.7E1,2.2E1,1.5E1,3.4E1],"tree_param":{"num_deleted":"0","num_feature":"12","num_nodes":"31","size_leaf_vector":"1"}},{"base_weights":[-0E0,6.469863E-3,-5.2079335E-3,-1.2073598E-2,8.840572E-3,-1.4140673E-2,-4.3414393E-4,-0E0,-3.4633648E-2,4.5880564E-3,2.8134191E-2,-0E0,-2.0335747E-2,4.7877375E-2,-6.9061927E-3,-0E0,-3.8272578E-5,-0E0,-1.1257188E-3,7.444113E-4,4.0520423E-5,2.6320087E-4,1.4387098E-3,-1.8307086E-4,7.95282E-5,-0E0,-7.1412855E-4,-2.7527157E-4,2.6037965E-3,2.2292146E-4,-3.1341534E-4],"categories":[],"categories_nodes":[],"categories_segments":[],"categories_sizes":[],"default_left":[0,0,0,0,0,0,0,0,0,0,0,0,0,0,0,0,0,0,0,0,0,0,0,0,0,0,0,0,0,0,0],"id":20,"left_children":[1,3,5,7,9,11,13,15,17,19,21,23,25,27,29,-1,-1,-1,-1,-1,-1,-1,-1,-1,-1,-1,-1,-1,-1,-1,-1],"loss_changes":[1.9900452E-2,1.1169374E-2,1.2779146E-2,5.9516225E-3,1.58796E-2,8.393124E-3,6.6897966E-2,2.115808E-5,2.6041828E-4,1.0314698E-2,8.490087E-3,8.1084855E-4,6.643243E-3,6.406488E-2,1.0634166E-2,0E0,0E0,0E0,0E0,0E0,0E0,0E0,0E0,0E0,0E0,0E0,0E0,0E0,0E0,0E0,0E0],"parents":[2147483647,0,0,1,1,2,2,3,3,4,4,5,5,6,6,7,7,8,8,9,9,10,10,11,11,12,12,13,13,14,14],"right_children":[2,4,6,8,10,12,14,16,18,20,22,24,26,28,30,-1,-1,-1,-1,-1,-1,-1,-1,-1,-1,-1,-1,-1,-1,-1,-1],"split_conditions":[1.6675E1,1.1343397E1,1.7891666E1,6.592356E1,7.685184E1,1.6858334E1,1.8283333E1,1.1777778E1,2.5557983E-1,2.4242422E1,1.3425E1,1.665E1,-4.2148018E-1,-4.3347818E-1,-4.866532E-1,-0E0,-3.8272578E-5,-0E0,-1.1257188E-3,7.444113E-4,4.0520423E-5,2.6320087E-4,1.4387098E-3,-1.8307086E-4,7.95282E-5,-0E0,-7.1412855E-4,-2.7527157E-4,2.6037965E-3,2.2292146E-4,-3.1341534E-4],"split_indices":[8,6,10,2,2,10,9,10,3,2,8,11,3,3,3,0,0,0,0,0,0,0,0,0,0,0,0,0,0,0,0],"split_type":[0,0,0,0,0,0,0,0,0,0,0,0,0,0,0,0,0,0,0,0,0,0,0,0,0,0,0,0,0,0,0],"sum_hessian":[5.91E2,2.58E2,3.33E2,2.4E1,2.34E2,1.08E2,2.25E2,1.7E1,7E0,1.97E2,3.7E1,3.6E1,7.2E1,2.4E1,2.01E2,5E0,1.2E1,1E0,6E0,2.2E1,1.75E2,2.2E1,1.5E1,1.7E1,1.9E1,8E0,6.4E1,9E0,1.5E1,3.4E1,1.67E2],"tree_param":{"num_deleted":"0","num_feature":"12","num_nodes":"31","size_leaf_vector":"1"}},{"base_weights":[6.7426066E-4,4.377823E-3,-8.5772155E-3,3.2244218E-4,2.8238976E-2,-1.6888816E-2,-1.6284775E-4,8.129943E-3,-8.5777845E-3,6.223762E-2,-1.5460412E-4,-0E0,-2.0577025E-2,1.8708607E-3,-3.766768E-2,-3.21321E-4,3.3143244E-4,-2.6103036E-5,-5.7007466E-4,3.4610813E-3,-0E0,-2.5216787E-4,7.6204815E-5,-2.2908731E-4,-0E0,-0E0,-7.6791283E-4,2.6246745E-4,-1.3095533E-4,-0E0,-1.2977081E-3],"categories":[],"categories_nodes":[],"categories_segments":[],"categories_sizes":[],"default_left":[0,0,0,0,0,0,0,0,0,0,0,0,0,0,0,0,0,0,0,0,0,0,0,0,0,0,0,0,0,0,0],"id":21,"left_children":[1,3,5,7,9,11,13,15,17,19,21,23,25,27,29,-1,-1,-1,-1,-1,-1,-1,-1,-1,-1,-1,-1,-1,-1,-1,-1],"loss_changes":[1.9558921E-2,3.8163565E-2,9.412043E-3,2.552724E-2,6.220783E-2,2.6040059E-3,1.02097085E-2,1.1256643E-2,1.1334362E-2,9.119282E-2,1.297164E-3,6.9974666E-4,6.428538E-3,3.9079087E-3,1.2949975E-3,0E0,0E0,0E0,0E0,0E0,0E0,0E0,0E0,0E0,0E0,0E0,0E0,0E0,0E0,0E0,0E0],"parents":[2147483647,0,0,1,1,2,2,3,3,4,4,5,5,6,6,7,7,8,8,9,9,10,10,11,11,12,12,13,13,14,14],"right_children":[2,4,6,8,10,12,14,16,18,20,22,24,26,28,30,-1,-1,-1,-1,-1,-1,-1,-1,-1,-1,-1,-1,-1,-1,-1,-1],"split_conditions":[1.8775E1,1.7625E1,2.2806173E1,1.6458334E1,1.735025E1,1.9158333E1,2.340044E1,1.1330127E1,1.6875E1,1.9623684E1,1.86E1,1.9033333E1,1.7387316E1,2.2708334E1,3.3768353E1,-3.21321E-4,3.3143244E-4,-2.6103036E-5,-5.7007466E-4,3.4610813E-3,-0E0,-2.5216787E-4,7.6204815E-5,-2.2908731E-4,-0E0,-0E0,-7.6791283E-4,2.6246745E-4,-1.3095533E-4,-0E0,-1.2977081E-3],"split_indices":[8,11,5,7,6,7,6,6,10,5,11,8,6,11,2,0,0,0,0,0,0,0,0,0,0,0,0,0,0,0,0],"split_type":[0,0,0,0,0,0,0,0,0,0,0,0,0,0,0,0,0,0,0,0,0,0,0,0,0,0,0,0,0,0,0],"sum_hessian":[5.81E2,4.23E2,1.58E2,3.66E2,5.7E1,7.3E1,8.5E1,2.01E2,1.65E2,2.7E1,3E1,1.8E1,5.5E1,7.9E1,6E0,2.2E1,1.79E2,1.01E2,6.4E1,1.4E1,1.3E1,1.6E1,1.4E1,1.1E1,7E0,1E1,4.5E1,4.5E1,3.4E1,1E0,5E0],"tree_param":{"num_deleted":"0","num_feature":"12","num_nodes":"31","size_leaf_vector":"1"}},{"base_weights":[-0E0,-1.4701562E-3,2.2970442E-2,4.389817E-3,-7.868683E-3,3.663009E-3,4.2243893E-3,-1.8820304E-2,6.0707335E-3,-6.426982E-3,-1.4049478E-3,1.47226425E-2,-5.366973E-3,-0E0,-1.4808426E-3,4.880735E-4,4.460365E-5,-4.5214503E-4,-5.260762E-5,-0E0,5.391517E-4,-0E0,-2.9694816E-4],"categories":[],"categories_nodes":[],"categories_segments":[],"categories_sizes":[],"default_left":[0,0,0,0,0,0,0,0,0,0,0,0,0,0,0,0,0,0,0,0,0,0,0],"id":22,"left_children":[1,3,5,7,9,-1,11,13,15,17,-1,19,21,-1,-1,-1,-1,-1,-1,-1,-1,-1,-1],"loss_changes":[2.0704988E-2,2.0892302E-2,5.5608593E-2,9.685265E-3,9.53983E-3,0E0,4.3374375E-3,6.869693E-3,1.0541912E-2,8.956467E-3,0E0,9.388281E-4,7.032765E-4,0E0,0E0,0E0,0E0,0E0,0E0,0E0,0E0,0E0,0E0],"parents":[2147483647,0,0,1,1,2,2,3,3,4,4,6,6,7,7,8,8,9,9,11,11,12,12],"right_children":[2,4,6,8,10,-1,12,14,16,18,-1,20,22,-1,-1,-1,-1,-1,-1,-1,-1,-1,-1],"split_conditions":[3.0760233E1,1.6783333E1,1.9623684E1,1.1176439E1,2.3375648E1,3.663009E-3,6.712328E1,7.128027E1,1.3583333E1,1.7891666E1,-1.4049478E-3,8.509249E-1,1.8433332E1,-0E0,-1.4808426E-3,4.880735E-4,4.460365E-5,-4.5214503E-4,-5.260762E-5,-0E0,5.391517E-4,-0E0,-2.9694816E-4],"split_indices":[0,9,5,6,6,0,2,2,9,11,0,3,7,0,0,0,0,0,0,0,0,0,0],"split_type":[0,0,0,0,0,0,0,0,0,0,0,0,0,0,0,0,0,0,0,0,0,0,0],"sum_hessian":[5.82E2,5.46E2,3.6E1,2.77E2,2.69E2,4E0,3.2E1,1.4E1,2.63E2,2.63E2,6E0,2E1,1.2E1,1E1,4E0,7.4E1,1.89E2,8.4E1,1.79E2,4E0,1.6E1,2E0,1E1],"tree_param":{"num_deleted":"0","num_feature":"12","num_nodes":"23","size_leaf_vector":"1"}},{"base_weights":[-1.4710469E-4,-2.0652073E-3,2.7662283E-2,4.9533136E-3,-9.349746E-3,3.95371E-3,3.3903285E-3,8.867071E-3,-0E0,-0E0,-1.3659749E-2,-0E0,8.927404E-3,6.046573E-4,9.058726E-5,2.9531147E-4,-6.593265E-5,1.6580739E-3,-2.3231219E-4,-5.1268353E-4,-0E0,-0E0,-4.084182E-5,3.2125638E-4,-0E0],"categories":[],"categories_nodes":[],"categories_segments":[],"categories_sizes":[],"default_left":[0,0,0,0,0,0,0,0,0,0,0,0,0,0,0,0,0,0,0,0,0,0,0,0,0],"id":23,"left_children":[1,3,5,7,9,-1,11,13,15,17,19,21,23,-1,-1,-1,-1,-1,-1,-1,-1,-1,-1,-1,-1],"loss_changes":[2.9982248E-2,2.9832672E-2,7.702122E-2,6.349142E-3,1.0747898E-2,0E0,1.2376468E-3,8.842942E-3,1.8589157E-3,3.8818445E-2,7.503722E-3,1.4827152E-5,4.7014235E-4,0E0,0E0,0E0,0E0,0E0,0E0,0E0,0E0,0E0,0E0,0E0,0E0],"parents":[2147483647,0,0,1,1,2,2,3,3,4,4,6,6,7,7,8,8,9,9,10,10,11,11,12,12],"right_children":[2,4,6,8,10,-1,12,14,16,18,20,22,24,-1,-1,-1,-1,-1,-1,-1,-1,-1,-1,-1,-1],"split_conditions":[2.8928211E1,1.6766666E1,1.9623684E1,4.830087E0,1E0,3.95371E-3,3.6774487E1,1.3583333E1,1.30049305E1,7.375443E0,2.2806173E1,5.714285E1,2.5282766E1,6.046573E-4,9.058726E-5,2.9531147E-4,-6.593265E-5,1.6580739E-3,-2.3231219E-4,-5.1268353E-4,-0E0,-0E0,-4.084182E-5,3.2125638E-4,-0E0],"split_indices":[0,9,5,0,1,0,0,10,5,0,5,2,5,0,0,0,0,0,0,0,0,0,0,0,0],"split_type":[0,0,0,0,0,0,0,0,0,0,0,0,0,0,0,0,0,0,0,0,0,0,0,0,0],"sum_hessian":[6.08E2,5.73E2,3.5E1,2.85E2,2.88E2,5E0,3E1,1.69E2,1.16E2,9.6E1,1.92E2,1.1E1,1.9E1,5.1E1,1.18E2,1.3E1,1.03E2,1E1,8.6E1,1.48E2,4.4E1,4E0,7E0,1.7E1,2E0],"tree_param":{"num_deleted":"0","num_feature":"12","num_nodes":"25","size_leaf_vector":"1"}},{"base_weights":[1.0605323E-3,-6.745199E-4,1.1923919E-2,1.5063991E-3,-1.30042285E-2,7.517502E-2,1.1716093E-3,2.507594E-3,-2.5661353E-2,5.5590826E-3,-1.7822037E-2,-0E0,1.000154E-1,-5.0388277E-3,8.781268E-3,3.4495958E-4,-0E0,-1.0297151E-3,-0E0,-0E0,3.852777E-4,-5.9461046E-4,-0E0,-0E0,3.7102557E-3,-0E0,-5.2393577E-4,4.457888E-4,-1.011335E-4],"categories":[],"categories_nodes":[],"categories_segments":[],"categories_sizes":[],"default_left":[0,0,0,0,0,0,0,0,0,0,0,0,0,0,0,0,0,0,0,0,0,0,0,0,0,0,0,0,0],"id":24,"left_children":[1,3,5,7,9,11,13,15,17,19,21,-1,23,25,27,-1,-1,-1,-1,-1,-1,-1,-1,-1,-1,-1,-1,-1,-1],"loss_changes":[1.2630595E-2,1.5125332E-2,5.484604E-2,9.581067E-3,8.927299E-3,2.2212327E-2,4.2464957E-3,1.042356E-2,3.8791979E-3,1.7114701E-3,3.844548E-3,0E0,1.7041132E-2,2.3902943E-3,4.449074E-3,0E0,0E0,0E0,0E0,0E0,0E0,0E0,0E0,0E0,0E0,0E0,0E0,0E0,0E0],"parents":[2147483647,0,0,1,1,2,2,3,3,4,4,5,5,6,6,7,7,8,8,9,9,10,10,12,12,13,13,14,14],"right_children":[2,4,6,8,10,12,14,16,18,20,22,-1,24,26,28,-1,-1,-1,-1,-1,-1,-1,-1,-1,-1,-1,-1,-1,-1],"split_conditions":[4.345598E-1,1.9158333E1,1.9623684E1,3.0235344E-1,-4.9559698E-1,1.1586427E1,9.6875215E-1,1.3583333E1,1.7147234E1,1.797365E1,2.7527666E1,-0E0,1E0,8.735E-1,1.3710537E0,3.4495958E-4,-0E0,-1.0297151E-3,-0E0,-0E0,3.852777E-4,-5.9461046E-4,-0E0,-0E0,3.7102557E-3,-0E0,-5.2393577E-4,4.457888E-4,-1.011335E-4],"split_indices":[3,7,5,3,3,6,4,10,5,6,5,0,1,4,3,0,0,0,0,0,0,0,0,0,0,0,0,0,0],"split_type":[0,0,0,0,0,0,0,0,0,0,0,0,0,0,0,0,0,0,0,0,0,0,0,0,0,0,0,0,0],"sum_hessian":[6.09E2,5.18E2,9.1E1,4.34E2,8.4E1,1.1E1,8E1,4.23E2,1.1E1,1.3E1,7.1E1,3E0,8E0,3.7E1,4.3E1,9.8E1,3.25E2,9E0,2E0,1E0,1.2E1,6.7E1,4E0,2E0,6E0,2.7E1,1E1,3.4E1,9E0],"tree_param":{"num_deleted":"0","num_feature":"12","num_nodes":"29","size_leaf_vector":"1"}},{"base_weights":[5.128339E-4,4.770446E-3,-8.2884915E-3,2.7346478E-3,3.762111E-3,8.203985E-3,-1.1243224E-2,1.2806212E-2,-1.7738923E-4,-2.663266E-4,1.8705787E-2,-1.6509537E-2,3.6302353E-3,3.3161872E-5,2.9166401E-3,-7.03751E-5,3.9372983E-4,-0E0,-2.179711E-4,6.6240545E-4,-0E0,-1.6487086E-4,-6.380155E-4,3.3190465E-4,-3.379632E-4],"categories":[],"categories_nodes":[],"categories_segments":[],"categories_sizes":[],"default_left":[0,0,0,0,0,0,0,0,0,0,0,0,0,0,0,0,0,0,0,0,0,0,0,0,0],"id":25,"left_children":[1,3,5,7,-1,9,11,13,15,17,19,21,23,-1,-1,-1,-1,-1,-1,-1,-1,-1,-1,-1,-1],"loss_changes":[2.213384E-2,8.802424E-2,9.557566E-3,1.320196E-2,0E0,3.9838124E-3,1.427203E-2,8.7844715E-2,7.865758E-3,3.161043E-4,1.2269802E-3,3.8616322E-3,4.4226493E-3,0E0,0E0,0E0,0E0,0E0,0E0,0E0,0E0,0E0,0E0,0E0,0E0],"parents":[2147483647,0,0,1,1,2,2,3,3,5,5,6,6,7,7,8,8,9,9,10,10,11,11,12,12],"right_children":[2,4,6,8,-1,10,12,14,16,18,20,22,24,-1,-1,-1,-1,-1,-1,-1,-1,-1,-1,-1,-1],"split_conditions":[1.9708586E1,2.18499E1,-5.615765E-1,1.3583333E1,3.762111E-3,1.9291666E1,9.6875215E-1,1.3491667E1,1.8921022E1,1.4606356E1,4.1481476E1,3.490196E1,1.3710537E0,3.3161872E-5,2.9166401E-3,-7.03751E-5,3.9372983E-4,-0E0,-2.179711E-4,6.6240545E-4,-0E0,-1.6487086E-4,-6.380155E-4,3.3190465E-4,-3.379632E-4],"split_indices":[5,0,3,10,0,11,4,8,5,0,2,2,3,0,0,0,0,0,0,0,0,0,0,0,0],"split_type":[0,0,0,0,0,0,0,0,0,0,0,0,0,0,0,0,0,0,0,0,0,0,0,0,0],"sum_hessian":[5.98E2,4.11E2,1.87E2,4.06E2,5E0,2.3E1,1.64E2,9.8E1,3.08E2,8E0,1.5E1,1.26E2,3.8E1,8.8E1,1E1,2.72E2,3.6E1,3E0,5E0,1.3E1,2E0,4.5E1,8.1E1,3E1,8E0],"tree_param":{"num_deleted":"0","num_feature":"12","num_nodes":"25","size_leaf_vector":"1"}},{"base_weights":[-6.611532E-4,-2.5792962E-3,2.2366198E-2,5.324777E-4,-9.810341E-3,3.6680582E-3,2.8586106E-3,-2.755346E-4,6.7611165E-2,-7.593189E-3,-4.319851E-2,-0E0,1.6847158E-2,-5.203676E-4,3.389688E-5,3.1091468E-3,-0E0,-3.8241167E-4,3.2801185E-5,-1.4654889E-3,-0E0,-2.615597E-4,1.17548785E-4,8.001631E-4,-0E0],"categories":[],"categories_nodes":[],"categories_segments":[],"categories_sizes":[],"default_left":[0,0,0,0,0,0,0,0,0,0,0,0,0,0,0,0,0,0,0,0,0,0,0,0,0],"id":26,"left_children":[1,3,5,7,9,-1,11,13,15,17,19,21,23,-1,-1,-1,-1,-1,-1,-1,-1,-1,-1,-1,-1],"loss_changes":[2.444834E-2,1.3443774E-2,6.898967E-2,2.7348347E-2,7.6955296E-3,0E0,3.1035691E-3,1.0637709E-2,1.5535915E-2,8.790101E-3,1.7751139E-3,1.3851231E-3,2.9966894E-3,0E0,0E0,0E0,0E0,0E0,0E0,0E0,0E0,0E0,0E0,0E0,0E0],"parents":[2147483647,0,0,1,1,2,2,3,3,4,4,6,6,7,7,8,8,9,9,10,10,11,11,12,12],"right_children":[2,4,6,8,10,-1,12,14,16,18,20,22,24,-1,-1,-1,-1,-1,-1,-1,-1,-1,-1,-1,-1],"split_conditions":[2.6244347E1,1.6926033E1,1.9623684E1,1.689321E1,2.340044E1,3.6680582E-3,2.2366667E1,1.1369893E1,7.6209044E0,2.2806173E1,2.6625E1,3.8068745E1,1.4847827E0,-5.203676E-4,3.389688E-5,3.1091468E-3,-0E0,-3.8241167E-4,3.2801185E-5,-1.4654889E-3,-0E0,-2.615597E-4,1.17548785E-4,8.001631E-4,-0E0],"split_indices":[0,6,5,6,6,0,7,6,0,5,8,0,4,0,0,0,0,0,0,0,0,0,0,0,0],"split_type":[0,0,0,0,0,0,0,0,0,0,0,0,0,0,0,0,0,0,0,0,0,0,0,0,0],"sum_hessian":[5.96E2,5.55E2,4.1E1,3.79E2,1.76E2,5E0,3.6E1,3.74E2,5E0,1.69E2,7E0,2.5E1,1.1E1,3.3E1,3.41E2,3E0,2E0,1.13E2,5.6E1,6E0,1E0,1.5E1,1E1,8E0,3E0],"tree_param":{"num_deleted":"0","num_feature":"12","num_nodes":"25","size_leaf_vector":"1"}},{"base_weights":[4.5684024E-5,-1.2005159E-3,1.9100891E-2,4.3169074E-3,-7.5979955E-3,3.6167584E-3,2.6169557E-3,-1.5974773E-2,6.718245E-3,2.6122967E-3,-1.3668736E-2,1.0494893E-2,-1.5737174E-2,-6.272563E-5,-1.2317611E-3,5.4393866E-4,5.013134E-5,1.3327878E-3,-1.1786139E-4,3.0363296E-4,-4.6865782E-4,1.9179282E-5,7.8749354E-4,-5.164859E-4,-0E0],"categories":[],"categories_nodes":[],"categories_segments":[],"categories_sizes":[],"default_left":[0,0,0,0,0,0,0,0,0,0,0,0,0,0,0,0,0,0,0,0,0,0,0,0,0],"id":27,"left_children":[1,3,5,7,9,-1,11,13,15,17,19,21,23,-1,-1,-1,-1,-1,-1,-1,-1,-1,-1,-1,-1],"loss_changes":[1.6132167E-2,2.019816E-2,5.7608698E-2,1.3507459E-2,1.781506E-2,0E0,5.1354547E-3,5.002304E-3,1.3427321E-2,3.0207321E-2,8.839756E-3,2.107792E-3,9.35127E-5,0E0,0E0,0E0,0E0,0E0,0E0,0E0,0E0,0E0,0E0,0E0,0E0],"parents":[2147483647,0,0,1,1,2,2,3,3,4,4,6,6,7,7,8,8,9,9,10,10,11,11,12,12],"right_children":[2,4,6,8,10,-1,12,14,16,18,20,22,24,-1,-1,-1,-1,-1,-1,-1,-1,-1,-1,-1,-1],"split_conditions":[2.6601208E1,1.6825E1,1.9623684E1,1.1343397E1,1E0,3.6167584E-3,1.3710537E0,7.128027E1,1.3583333E1,8.01353E0,-6.289901E-1,2.2383333E1,3.6840733E1,-6.272563E-5,-1.2317611E-3,5.4393866E-4,5.013134E-5,1.3327878E-3,-1.1786139E-4,3.0363296E-4,-4.6865782E-4,1.9179282E-5,7.8749354E-4,-5.164859E-4,-0E0],"split_indices":[0,10,5,6,1,0,3,2,10,0,3,7,0,0,0,0,0,0,0,0,0,0,0,0,0],"split_type":[0,0,0,0,0,0,0,0,0,0,0,0,0,0,0,0,0,0,0,0,0,0,0,0,0],"sum_hessian":[6.02E2,5.61E2,4.1E1,2.93E2,2.68E2,4E0,3.7E1,2.6E1,2.67E2,9.4E1,1.74E2,3E1,7E0,2E1,6E0,7.5E1,1.92E2,1.4E1,8E1,9E0,1.65E2,2.3E1,7E0,6E0,1E0],"tree_param":{"num_deleted":"0","num_feature":"12","num_nodes":"25","size_leaf_vector":"1"}},{"base_weights":[-5.0099933E-4,-0E0,-1.3587496E-3,-6.6301893E-3,3.182782E-3,4.194731E-3,-1.05204275E-2,-1.665162E-2,5.101067E-3,-0E0,3.6125327E-4,-7.039591E-4,-1.3366278E-4,-6.2567306E-5,-1.1109525E-3,3.0330318E-4,-1.3156493E-4],"categories":[],"categories_nodes":[],"categories_segments":[],"categories_sizes":[],"default_left":[0,0,0,0,0,0,0,0,0,0,0,0,0,0,0,0,0],"id":28,"left_children":[1,3,-1,5,7,9,11,13,15,-1,-1,-1,-1,-1,-1,-1,-1],"loss_changes":[1.2156902E-2,1.2722175E-2,0E0,8.972669E-3,1.4187147E-2,2.2356869E-3,9.037003E-3,5.2136295E-3,1.8246189E-2,0E0,0E0,0E0,0E0,0E0,0E0,0E0,0E0],"parents":[2147483647,0,0,1,1,3,3,4,4,5,5,6,6,7,7,8,8],"right_children":[2,4,-1,6,8,10,12,14,16,-1,-1,-1,-1,-1,-1,-1,-1],"split_conditions":[2.3675303E1,-1.2975122E-1,-1.3587496E-3,-4.525633E-1,1.1343397E1,1.9158333E1,-3.258078E-1,2.7021497E-1,3E0,-0E0,3.6125327E-4,-7.039591E-4,-1.3366278E-4,-6.2567306E-5,-1.1109525E-3,3.0330318E-4,-1.3156493E-4],"split_indices":[6,3,0,3,6,9,4,3,1,0,0,0,0,0,0,0,0],"split_type":[0,0,0,0,0,0,0,0,0,0,0,0,0,0,0,0,0],"sum_hessian":[6.01E2,5.96E2,5E0,1.96E2,4E2,4.5E1,1.51E2,3E1,3.7E2,2.5E1,2E1,4.2E1,1.09E2,2.1E1,9E0,2.49E2,1.21E2],"tree_param":{"num_deleted":"0","num_feature":"12","num_nodes":"17","size_leaf_vector":"1"}},{"base_weights":[1.0392373E-4,1.8137945E-2,-1.3010981E-3,6.289315E-2,-0E0,-2.7595374E-3,1.3850199E-2,8.682571E-3,3.782858E-3,-5.3758896E-3,1.1106996E-2,-2.6931384E-4,-9.657959E-3,2.7095773E-3,3.0879842E-3,4.1583713E-4,-0E0,-0E0,-2.47169E-4,4.449511E-4,-0E0,-7.296943E-5,2.9755526E-4,5.171956E-4,-3.7645764E-4,3.8073986E-4,-2.8207965E-4],"categories":[],"categories_nodes":[],"categories_segments":[],"categories_sizes":[],"default_left":[0,0,0,0,0,0,0,0,0,0,0,0,0,0,0,0,0,0,0,0,0,0,0,0,0,0,0],"id":29,"left_children":[1,3,5,7,9,11,13,15,-1,17,19,21,23,-1,25,-1,-1,-1,-1,-1,-1,-1,-1,-1,-1,-1,-1],"loss_changes":[1.6707497E-2,4.3541946E-2,1.0972153E-2,3.6820736E-2,1.6727628E-3,7.662692E-3,2.494538E-2,7.8320096E-4,0E0,6.162866E-4,2.3633969E-4,7.69336E-3,9.310658E-3,0E0,5.1263245E-3,0E0,0E0,0E0,0E0,0E0,0E0,0E0,0E0,0E0,0E0,0E0,0E0],"parents":[2147483647,0,0,1,1,2,2,3,3,4,4,5,5,6,6,7,7,9,9,10,10,11,11,12,12,14,14],"right_children":[2,4,6,8,10,12,14,16,-1,18,20,22,24,-1,26,-1,-1,-1,-1,-1,-1,-1,-1,-1,-1,-1,-1],"split_conditions":[1.6814939E0,4.212152E-2,2.6601208E1,-1.46548115E-2,1.3770283E1,1.804243E1,1.9158314E1,1.6159575E0,3.782858E-3,5.5468742E1,1.2379581E0,1.7891666E1,1.8918917E1,2.7095773E-3,7.232558E1,4.1583713E-4,-0E0,-0E0,-2.47169E-4,4.449511E-4,-0E0,-7.296943E-5,2.9755526E-4,5.171956E-4,-3.7645764E-4,3.8073986E-4,-2.8207965E-4],"split_indices":[0,4,0,4,5,6,5,0,0,2,0,10,2,0,2,0,0,0,0,0,0,0,0,0,0,0,0],"split_type":[0,0,0,0,0,0,0,0,0,0,0,0,0,0,0,0,0,0,0,0,0,0,0,0,0,0,0],"sum_hessian":[5.91E2,4.7E1,5.44E2,1.4E1,3.3E1,5.03E2,4.1E1,9E0,5E0,2.7E1,6E0,3.81E2,1.22E2,3E0,3.8E1,7E0,2E0,7E0,2E1,4E0,2E0,3.23E2,5.8E1,8E0,1.14E2,2.6E1,1.2E1],"tree_param":{"num_deleted":"0","num_feature":"12","num_nodes":"27","size_leaf_vector":"1"}},{"base_weights":[-0E0,3.8817844E-3,-8.444308E-3,6.6784135E-4,2.635781E-2,-6.4885393E-3,-4.18465E-2,3.6468497E-3,-1.0436557E-2,-0E0,7.397566E-2,-1.364377E-2,4.0212323E-4,-1.4574433E-3,-0E0,-5.3460116E-4,1.7871482E-4,4.6415764E-4,-4.5223636E-4,4.0932422E-4,-1.6418043E-4,3.6472876E-3,-0E0,-0E0,-4.9414695E-4,2.1809874E-4,-1.0010142E-4],"categories":[],"categories_nodes":[],"categories_segments":[],"categories_sizes":[],"default_left":[0,0,0,0,0,0,0,0,0,0,0,0,0,0,0,0,0,0,0,0,0,0,0,0,0,0,0],"id":30,"left_children":[1,3,5,7,9,11,13,15,17,19,21,23,25,-1,-1,-1,-1,-1,-1,-1,-1,-1,-1,-1,-1,-1,-1],"loss_changes":[1.9159772E-2,2.7258046E-2,6.7191552E-3,1.1532564E-2,5.421113E-2,9.957901E-3,1.9030366E-3,1.3699241E-2,8.725084E-3,3.205281E-3,4.546871E-2,4.3928158E-3,2.5488327E-3,0E0,0E0,0E0,0E0,0E0,0E0,0E0,0E0,0E0,0E0,0E0,0E0,0E0,0E0],"parents":[2147483647,0,0,1,1,2,2,3,3,4,4,5,5,6,6,7,7,8,8,9,9,10,10,11,11,12,12],"right_children":[2,4,6,8,10,12,14,16,18,20,22,24,26,-1,-1,-1,-1,-1,-1,-1,-1,-1,-1,-1,-1,-1,-1],"split_conditions":[1.865E1,1.8921022E1,2.3675303E1,1.6825E1,-1.660527E-1,2.2806173E1,1E0,1.1343397E1,1.5715751E1,3.809523E1,6.3157887E1,-4.2542616E-1,2.4331358E1,-1.4574433E-3,-0E0,-5.3460116E-4,1.7871482E-4,4.6415764E-4,-4.5223636E-4,4.0932422E-4,-1.6418043E-4,3.6472876E-3,-0E0,-0E0,-4.9414695E-4,2.1809874E-4,-1.0010142E-4],"split_indices":[7,5,6,9,3,5,1,6,6,2,2,3,5,0,0,0,0,0,0,0,0,0,0,0,0,0,0],"split_type":[0,0,0,0,0,0,0,0,0,0,0,0,0,0,0,0,0,0,0,0,0,0,0,0,0,0,0],"sum_hessian":[5.94E2,4.14E2,1.8E2,3.67E2,4.7E1,1.74E2,6E0,2.97E2,7E1,3.2E1,1.5E1,9.2E1,8.2E1,5E0,1E0,2.4E1,2.73E2,7E0,6.3E1,1.3E1,1.9E1,8E0,7E0,1.3E1,7.9E1,3.8E1,4.4E1],"tree_param":{"num_deleted":"0","num_feature":"12","num_nodes":"27","size_leaf_vector":"1"}},{"base_weights":[6.6571194E-4,-5.018555E-4,2.1392563E-2,1.2935978E-2,-2.270251E-3,6.700122E-2,4.44616E-6,2.0169758E-3,6.9337576E-3,-1.2037247E-2,1.1656182E-3,3.3634293E-3,-0E0,-0E0,6.936582E-3,6.298605E-4,-1.416761E-4,-0E0,-4.1878104E-4,1.4624823E-4,-1.7825801E-4,-0E0,-1.6790119E-4,2.8805583E-4,-0E0],"categories":[],"categories_nodes":[],"categories_segments":[],"categories_sizes":[],"default_left":[0,0,0,0,0,0,0,0,0,0,0,0,0,0,0,0,0,0,0,0,0,0,0,0,0],"id":31,"left_children":[1,3,5,7,9,11,13,-1,15,17,19,-1,-1,21,23,-1,-1,-1,-1,-1,-1,-1,-1,-1,-1],"loss_changes":[1.6353605E-2,1.2127722E-2,2.8416537E-2,1.1019391E-2,1.7779581E-2,3.0526064E-2,6.2550965E-4,0E0,1.0741266E-2,4.117608E-3,9.439747E-3,0E0,0E0,3.4455437E-4,2.0425156E-4,0E0,0E0,0E0,0E0,0E0,0E0,0E0,0E0,0E0,0E0],"parents":[2147483647,0,0,1,1,2,2,3,3,4,4,5,5,6,6,8,8,9,9,10,10,13,13,14,14],"right_children":[2,4,6,8,10,12,14,-1,16,18,20,-1,-1,22,24,-1,-1,-1,-1,-1,-1,-1,-1,-1,-1],"split_conditions":[2.9867422E1,2.4242422E1,1.8283333E1,1.6814939E0,-1.6128464E-1,5.031446E1,3.9324768E1,2.0169758E-3,-3.5606742E-1,-5.5163753E-1,1.9563614E-1,3.3634293E-3,-0E0,5.2352936E1,4.2965744E1,6.298605E-4,-1.416761E-4,-0E0,-4.1878104E-4,1.4624823E-4,-1.7825801E-4,-0E0,-1.6790119E-4,2.8805583E-4,-0E0],"split_indices":[0,2,10,0,3,2,0,0,3,3,4,0,0,2,0,0,0,0,0,0,0,0,0,0,0],"split_type":[0,0,0,0,0,0,0,0,0,0,0,0,0,0,0,0,0,0,0,0,0,0,0,0,0],"sum_hessian":[5.88E2,5.53E2,3.5E1,5.7E1,4.96E2,9E0,2.6E1,3E0,5.4E1,1.36E2,3.6E2,5E0,4E0,1.4E1,1.2E1,2.8E1,2.6E1,1.4E1,1.22E2,2.46E2,1.14E2,4E0,1E1,8E0,4E0],"tree_param":{"num_deleted":"0","num_feature":"12","num_nodes":"25","size_leaf_vector":"1"}},{"base_weights":[3.2992488E-5,1.4448671E-2,-1.4439131E-3,5.780949E-3,6.991713E-2,-1.2537888E-2,2.1768028E-3,2.5108645E-2,-1.0442302E-3,2.9448515E-3,-0E0,-0E0,-1.48165E-2,-2.112241E-2,3.9211707E-3,8.0360513E-4,-0E0,-0E0,-1.2773435E-4,-0E0,-5.1349966E-4,-0E0,-1.3520748E-3,5.9083855E-4,3.421081E-5],"categories":[],"categories_nodes":[],"categories_segments":[],"categories_sizes":[],"default_left":[0,0,0,0,0,0,0,0,0,0,0,0,0,0,0,0,0,0,0,0,0,0,0,0,0],"id":32,"left_children":[1,3,5,7,9,11,13,15,17,-1,-1,-1,19,21,23,-1,-1,-1,-1,-1,-1,-1,-1,-1,-1],"loss_changes":[1.45215085E-2,2.2796258E-2,2.3437051E-2,1.0083729E-2,1.3959784E-2,4.1458923E-3,1.5188657E-2,9.3718804E-4,4.277363E-4,0E0,0E0,0E0,3.9803945E-3,9.158386E-3,1.5000601E-2,0E0,0E0,0E0,0E0,0E0,0E0,0E0,0E0,0E0,0E0],"parents":[2147483647,0,0,1,1,2,2,3,3,4,4,5,5,6,6,7,7,8,8,12,12,13,13,14,14],"right_children":[2,4,6,8,10,12,14,16,18,-1,-1,-1,20,22,24,-1,-1,-1,-1,-1,-1,-1,-1,-1,-1],"split_conditions":[2.4242422E1,-3.133804E-3,-1.5724154E-1,-4.69178E-1,1.5854448E-2,1.695E1,1.1310131E1,-3.0216807E-1,-3.467457E-1,2.9448515E-3,-0E0,-0E0,-5.5163753E-1,7.128027E1,1.2779953E1,8.0360513E-4,-0E0,-0E0,-1.2773435E-4,-0E0,-5.1349966E-4,-0E0,-1.3520748E-3,5.9083855E-4,3.421081E-5],"split_indices":[2,3,3,3,3,7,6,4,3,0,0,0,3,2,6,0,0,0,0,0,0,0,0,0,0],"split_type":[0,0,0,0,0,0,0,0,0,0,0,0,0,0,0,0,0,0,0,0,0,0,0,0,0],"sum_hessian":[6.19E2,6.3E1,5.56E2,5.7E1,6E0,1.43E2,4.13E2,1.8E1,3.9E1,4E0,2E0,2.2E1,1.21E2,2.4E1,3.89E2,1.7E1,1E0,1.4E1,2.5E1,1.7E1,1.04E2,1.5E1,9E0,5.2E1,3.37E2],"tree_param":{"num_deleted":"0","num_feature":"12","num_nodes":"25","size_leaf_vector":"1"}},{"base_weights":[-9.7666336E-5,-1.5731835E-3,1.7223226E-2,1.621008E-3,-8.407274E-3,3.3273904E-3,1.3942473E-3,6.4527165E-5,6.692895E-2,-0E0,-1.6670316E-2,1.0825895E-2,-5.4114084E-3,4.1731977E-4,-2.9449013E-5,2.9160606E-3,-0E0,2.5432647E-4,-2.9933482E-4,-6.293803E-4,9.695152E-5,-0E0,7.2111015E-4,-2.5876815E-4,-0E0],"categories":[],"categories_nodes":[],"categories_segments":[],"categories_sizes":[],"default_left":[0,0,0,0,0,0,0,0,0,0,0,0,0,0,0,0,0,0,0,0,0,0,0,0,0],"id":33,"left_children":[1,3,5,7,9,-1,11,13,15,17,19,21,23,-1,-1,-1,-1,-1,-1,-1,-1,-1,-1,-1,-1],"loss_changes":[1.3515323E-2,1.2676592E-2,4.941819E-2,3.0398794E-2,1.3880032E-2,0E0,2.9750082E-3,6.5067746E-3,1.5884768E-2,7.520348E-3,1.0161128E-2,1.4660438E-3,5.7308143E-4,0E0,0E0,0E0,0E0,0E0,0E0,0E0,0E0,0E0,0E0,0E0,0E0],"parents":[2147483647,0,0,1,1,2,2,3,3,4,4,6,6,7,7,8,8,9,9,10,10,11,11,12,12],"right_children":[2,4,6,8,10,-1,12,14,16,18,20,22,24,-1,-1,-1,-1,-1,-1,-1,-1,-1,-1,-1,-1],"split_conditions":[2.6601208E1,1.6926033E1,1.9623684E1,1.689321E1,3.809523E1,3.3273904E-3,6.712328E1,1.2658671E1,8.01353E0,-3.5032943E-1,9.287175E-1,2.2383333E1,3.9324768E1,4.1731977E-4,-2.9449013E-5,2.9160606E-3,-0E0,2.5432647E-4,-2.9933482E-4,-6.293803E-4,9.695152E-5,-0E0,7.2111015E-4,-2.5876815E-4,-0E0],"split_indices":[0,6,5,6,2,0,2,5,0,3,3,7,0,0,0,0,0,0,0,0,0,0,0,0,0],"split_type":[0,0,0,0,0,0,0,0,0,0,0,0,0,0,0,0,0,0,0,0,0,0,0,0,0],"sum_hessian":[5.88E2,5.48E2,4E1,3.64E2,1.84E2,4E0,3.6E1,3.58E2,6E0,8.8E1,9.6E1,2.1E1,1.5E1,3.1E1,3.27E2,4E0,2E0,5.1E1,3.7E1,8.3E1,1.3E1,1.5E1,6E0,1.3E1,2E0],"tree_param":{"num_deleted":"0","num_feature":"12","num_nodes":"25","size_leaf_vector":"1"}},{"base_weights":[-1.8727522E-4,-1.5571209E-3,2.040903E-2,2.126882E-4,-9.18459E-3,3.247533E-3,4.2262315E-4,-2.4725117E-2,1.2640151E-3,-1.4371004E-2,9.953219E-3,9.056825E-3,-3.511048E-3,-0E0,-1.149738E-3,-1.33423155E-5,3.6396895E-4,-0E0,-5.3391926E-4,6.2263245E-4,-0E0,-0E0,4.5924247E-4,-0E0,-2.7807898E-4],"categories":[],"categories_nodes":[],"categories_segments":[],"categories_sizes":[],"default_left":[0,0,0,0,0,0,0,0,0,0,0,0,0,0,0,0,0,0,0,0,0,0,0,0,0],"id":34,"left_children":[1,3,5,7,9,-1,11,13,15,17,19,21,23,-1,-1,-1,-1,-1,-1,-1,-1,-1,-1,-1,-1],"loss_changes":[1.4651638E-2,8.377681E-3,4.5267593E-2,9.220967E-3,1.1999326E-2,0E0,1.5373718E-3,1.7227847E-3,9.104086E-3,6.353073E-3,3.9500427E-3,9.4893074E-4,7.112698E-4,0E0,0E0,0E0,0E0,0E0,0E0,0E0,0E0,0E0,0E0,0E0,0E0],"parents":[2147483647,0,0,1,1,2,2,3,3,4,4,6,6,7,7,8,8,9,9,10,10,11,11,12,12],"right_children":[2,4,6,8,10,-1,12,14,16,18,20,22,24,-1,-1,-1,-1,-1,-1,-1,-1,-1,-1,-1,-1],"split_conditions":[2.9867422E1,1.915E1,1.9623684E1,1.1135407E1,9.6875215E-1,3.247533E-3,6.666665E1,1.1962963E1,1.8795439E1,1.7387316E1,7.174556E1,1.0162201E0,1.7866667E1,-0E0,-1.149738E-3,-1.33423155E-5,3.6396895E-4,-0E0,-5.3391926E-4,6.2263245E-4,-0E0,-0E0,4.5924247E-4,-0E0,-2.7807898E-4],"split_indices":[0,7,5,6,4,0,2,7,5,6,2,4,7,0,0,0,0,0,0,0,0,0,0,0,0],"split_type":[0,0,0,0,0,0,0,0,0,0,0,0,0,0,0,0,0,0,0,0,0,0,0,0,0],"sum_hessian":[5.84E2,5.53E2,3.1E1,4.39E2,1.14E2,4E0,2.7E1,1.3E1,4.26E2,9.4E1,2E1,1.6E1,1.1E1,7E0,6E0,3.61E2,6.5E1,1.3E1,8.1E1,1.3E1,7E0,7E0,9E0,2E0,9E0],"tree_param":{"num_deleted":"0","num_feature":"12","num_nodes":"25","size_leaf_vector":"1"}},{"base_weights":[-5.136759E-4,2.48708E-3,-7.294976E-3,1.0837913E-3,7.849072E-2,1.3281482E-2,-1.0887382E-2,-0E0,3.2997802E-2,2.8373399E-3,-0E0,1.843313E-2,-0E0,-1.4815423E-2,1.4117294E-2,9.60442E-5,-2.8363324E-4,3.1121042E-5,1.9100766E-3,6.2397413E-4,-0E0,-4.929695E-4,3.691946E-5,-0E0,5.8672385E-4],"categories":[],"categories_nodes":[],"categories_segments":[],"categories_sizes":[],"default_left":[0,0,0,0,0,0,0,0,0,0,0,0,0,0,0,0,0,0,0,0,0,0,0,0,0],"id":35,"left_children":[1,3,5,7,9,11,13,15,17,-1,-1,19,-1,21,23,-1,-1,-1,-1,-1,-1,-1,-1,-1,-1],"loss_changes":[1.2606603E-2,3.4939464E-2,1.4171553E-2,1.1509913E-2,7.760234E-3,2.38566E-3,1.6878044E-2,1.1346772E-2,4.2462843E-3,0E0,0E0,9.912704E-4,0E0,5.432114E-3,1.3689613E-3,0E0,0E0,0E0,0E0,0E0,0E0,0E0,0E0,0E0,0E0],"parents":[2147483647,0,0,1,1,2,2,3,3,4,4,5,5,6,6,7,7,8,8,11,11,13,13,14,14],"right_children":[2,4,6,8,10,12,14,16,18,-1,-1,20,-1,22,24,-1,-1,-1,-1,-1,-1,-1,-1,-1,-1],"split_conditions":[1.6926033E1,1.689321E1,-5.5313146E-1,3.6840733E1,8.01353E0,4.1481476E1,9.8386294E-1,1.6783333E1,1.5693403E1,2.8373399E-3,-0E0,2.3230152E1,-0E0,2.8740263E1,2.0874487E1,9.60442E-5,-2.8363324E-4,3.1121042E-5,1.9100766E-3,6.2397413E-4,-0E0,-4.929695E-4,3.691946E-5,-0E0,5.8672385E-4],"split_indices":[6,6,3,0,0,2,4,9,6,0,0,0,0,0,6,0,0,0,0,0,0,0,0,0,0],"split_type":[0,0,0,0,0,0,0,0,0,0,0,0,0,0,0,0,0,0,0,0,0,0,0,0,0],"sum_hessian":[5.94E2,4.02E2,1.92E2,3.97E2,5E0,2.4E1,1.68E2,3.87E2,1E1,4E0,1E0,1.9E1,5E0,1.49E2,1.9E1,2.95E2,9.2E1,7E0,3E0,1.7E1,2E0,1.41E2,8E0,6E0,1.3E1],"tree_param":{"num_deleted":"0","num_feature":"12","num_nodes":"25","size_leaf_vector":"1"}},{"base_weights":[-0E0,-1.1148022E-3,1.863959E-2,9.359306E-3,-2.5399663E-3,3.0944603E-3,-0E0,1.8265722E-2,-0E0,1.301338E-2,-3.8366127E-3,-3.0942596E-3,7.7021304E-3,8.256735E-4,-8.2768434E-5,-2.7408425E-4,2.5943667E-4,7.143614E-4,-0E0,-3.9685876E-4,-6.730429E-5,-0E0,-2.7534633E-4,-0E0,2.9029697E-4],"categories":[],"categories_nodes":[],"categories_segments":[],"categories_sizes":[],"default_left":[0,0,0,0,0,0,0,0,0,0,0,0,0,0,0,0,0,0,0,0,0,0,0,0,0],"id":36,"left_children":[1,3,5,7,9,-1,11,13,15,17,19,21,23,-1,-1,-1,-1,-1,-1,-1,-1,-1,-1,-1,-1],"loss_changes":[1.3204838E-2,7.716066E-3,5.1330272E-2,6.1754454E-3,9.276347E-3,0E0,1.0028593E-3,9.169351E-3,2.1668347E-3,5.751785E-3,5.4705706E-3,9.227743E-4,2.931119E-4,0E0,0E0,0E0,0E0,0E0,0E0,0E0,0E0,0E0,0E0,0E0,0E0],"parents":[2147483647,0,0,1,1,2,2,3,3,4,4,6,6,7,7,8,8,9,9,10,10,11,11,12,12],"right_children":[2,4,6,8,10,-1,12,14,16,18,20,22,24,-1,-1,-1,-1,-1,-1,-1,-1,-1,-1,-1,-1],"split_conditions":[2.9867422E1,2.45283E1,1.9623684E1,8.751194E0,1.2614986E1,3.0944603E-3,3.9324768E1,4.4811096E-2,2.290045E1,1.8767466E-1,-3.415405E-1,5.48387E1,8.843688E-1,8.256735E-4,-8.2768434E-5,-2.7408425E-4,2.5943667E-4,7.143614E-4,-0E0,-3.9685876E-4,-6.730429E-5,-0E0,-2.7534633E-4,-0E0,2.9029697E-4],"split_indices":[0,2,5,0,5,0,0,4,5,4,4,2,3,0,0,0,0,0,0,0,0,0,0,0,0],"split_type":[0,0,0,0,0,0,0,0,0,0,0,0,0,0,0,0,0,0,0,0,0,0,0,0,0],"sum_hessian":[5.95E2,5.6E2,3.5E1,5.8E1,5.02E2,5E0,3E1,3.3E1,2.5E1,3.2E1,4.7E2,1.7E1,1.3E1,2.6E1,7E0,1.6E1,9E0,1.9E1,1.3E1,5.8E1,4.12E2,5E0,1.2E1,2E0,1.1E1],"tree_param":{"num_deleted":"0","num_feature":"12","num_nodes":"25","size_leaf_vector":"1"}},{"base_weights":[7.6894206E-4,1.6605405E-2,-5.4313225E-4,6.0744524E-2,-0E0,-1.959032E-3,1.6028749E-2,9.793355E-3,3.5661715E-3,-4.9864757E-3,9.692099E-3,9.078015E-4,-8.209696E-3,3.017099E-3,-0E0,-0E0,4.530645E-4,-0E0,-2.3745465E-4,4.9276836E-4,-0E0,-9.780122E-6,2.6078264E-3,2.9084606E-6,-3.5456743E-4,1.40731E-4,-3.207365E-4],"categories":[],"categories_nodes":[],"categories_segments":[],"categories_sizes":[],"default_left":[0,0,0,0,0,0,0,0,0,0,0,0,0,0,0,0,0,0,0,0,0,0,0,0,0,0,0],"id":37,"left_children":[1,3,5,7,9,11,13,15,-1,17,19,21,23,-1,25,-1,-1,-1,-1,-1,-1,-1,-1,-1,-1,-1,-1],"loss_changes":[1.4144752E-2,4.1010007E-2,1.1576625E-2,3.0394498E-2,1.6604511E-3,9.966242E-3,5.0922923E-2,6.3742674E-4,0E0,5.9456E-4,9.492377E-4,4.5091648E-2,6.3599683E-3,0E0,1.6711603E-3,0E0,0E0,0E0,0E0,0E0,0E0,0E0,0E0,0E0,0E0,0E0,0E0],"parents":[2147483647,0,0,1,1,2,2,3,3,4,4,5,5,6,6,7,7,9,9,10,10,11,11,12,12,14,14],"right_children":[2,4,6,8,10,12,14,16,-1,18,20,22,24,-1,26,-1,-1,-1,-1,-1,-1,-1,-1,-1,-1,-1,-1],"split_conditions":[1.6814939E0,4.212152E-2,2.9867422E1,-1.46548115E-2,1.3770283E1,1.6926033E1,1.9623684E1,-5.0926745E-2,3.5661715E-3,5.5468742E1,9.049312E-2,1.6803513E1,2.8169008E1,3.017099E-3,7.232558E1,-0E0,4.530645E-4,-0E0,-2.3745465E-4,4.9276836E-4,-0E0,-9.780122E-6,2.6078264E-3,2.9084606E-6,-3.5456743E-4,1.40731E-4,-3.207365E-4],"split_indices":[0,4,0,4,5,6,5,3,0,2,4,6,2,0,2,0,0,0,0,0,0,0,0,0,0,0,0],"split_type":[0,0,0,0,0,0,0,0,0,0,0,0,0,0,0,0,0,0,0,0,0,0,0,0,0,0,0],"sum_hessian":[6.02E2,5.1E1,5.51E2,1.4E1,3.7E1,5.14E2,3.7E1,9E0,5E0,2.8E1,9E0,3.42E2,1.72E2,5E0,3.2E1,3E0,6E0,8E0,2E1,6E0,3E0,3.37E2,5E0,4.4E1,1.28E2,2.3E1,9E0],"tree_param":{"num_deleted":"0","num_feature":"12","num_nodes":"27","size_leaf_vector":"1"}},{"base_weights":[-5.754761E-4,5.078929E-3,-3.7044885E-3,-1.4823176E-2,8.558337E-3,3.335669E-3,-6.541721E-3,-0E0,-3.7953485E-2,1.8658752E-4,1.2670599E-2,1.176671E-2,-1.07645765E-2,-9.391405E-3,3.8496512E-3,-0E0,-9.0447626E-5,-1.2320118E-3,-0E0,6.1619683E-4,-1.3922168E-4,2.9207158E-3,9.5107105E-5,-1.3489212E-5,5.9646455E-4,-6.790266E-4,2.4298721E-4,-7.066705E-5,-4.0367508E-4,5.9739064E-4,-2.806041E-4],"categories":[],"categories_nodes":[],"categories_segments":[],"categories_sizes":[],"default_left":[0,0,0,0,0,0,0,0,0,0,0,0,0,0,0,0,0,0,0,0,0,0,0,0,0,0,0,0,0,0,0],"id":38,"left_children":[1,3,5,7,9,11,13,15,17,19,21,23,25,27,29,-1,-1,-1,-1,-1,-1,-1,-1,-1,-1,-1,-1,-1,-1,-1,-1],"loss_changes":[1.040853E-2,1.3419133E-2,8.232378E-3,5.8108456E-3,4.771037E-3,1.2590371E-2,9.23707E-3,1.4543597E-4,2.817884E-4,8.268103E-3,7.8139484E-2,8.892067E-3,9.473668E-3,5.1645767E-3,1.31190615E-2,0E0,0E0,0E0,0E0,0E0,0E0,0E0,0E0,0E0,0E0,0E0,0E0,0E0,0E0,0E0,0E0],"parents":[2147483647,0,0,1,1,2,2,3,3,4,4,5,5,6,6,7,7,8,8,9,9,10,10,11,11,12,12,13,13,14,14],"right_children":[2,4,6,8,10,12,14,16,18,20,22,24,26,28,30,-1,-1,-1,-1,-1,-1,-1,-1,-1,-1,-1,-1,-1,-1,-1,-1],"split_conditions":[1.6425E1,1.1369893E1,1E0,2.5557983E-1,1.3466666E1,1.965E1,5.039731E-1,1.1701972E1,1.3041667E1,1.2857108E1,1.3583333E1,1.7466667E1,9.287175E-1,1.6933332E1,1.014513E0,-0E0,-9.0447626E-5,-1.2320118E-3,-0E0,6.1619683E-4,-1.3922168E-4,2.9207158E-3,9.5107105E-5,-1.3489212E-5,5.9646455E-4,-6.790266E-4,2.4298721E-4,-7.066705E-5,-4.0367508E-4,5.9739064E-4,-2.806041E-4],"split_indices":[7,6,1,3,11,7,3,5,10,5,11,9,3,10,3,0,0,0,0,0,0,0,0,0,0,0,0,0,0,0,0],"split_type":[0,0,0,0,0,0,0,0,0,0,0,0,0,0,0,0,0,0,0,0,0,0,0,0,0,0,0,0,0,0,0],"sum_hessian":[5.94E2,2E2,3.94E2,2.5E1,1.75E2,1.03E2,2.91E2,1.8E1,7E0,6.6E1,1.09E2,6.9E1,3.4E1,2.36E2,5.5E1,3E0,1.5E1,6E0,1E0,1.6E1,5E1,9E0,1E2,2.3E1,4.6E1,2.4E1,1E1,9.6E1,1.4E2,2.8E1,2.7E1],"tree_param":{"num_deleted":"0","num_feature":"12","num_nodes":"31","size_leaf_vector":"1"}},{"base_weights":[9.591518E-4,1.3041936E-2,-3.191775E-4,2.7143494E-3,4.563566E-3,-1.3679849E-2,1.0496934E-3,2.0753773E-2,-1.0279814E-4,-0E0,-1.8235374E-2,3.7750047E-5,2.3131749E-2,1.2240882E-3,-0E0,-1.11193425E-4,7.233899E-5,-6.294824E-4,-0E0,3.4114433E-5,-5.0420384E-4,1.8915485E-3,1.7347098E-4],"categories":[],"categories_nodes":[],"categories_segments":[],"categories_sizes":[],"default_left":[0,0,0,0,0,0,0,0,0,0,0,0,0,0,0,0,0,0,0,0,0,0,0],"id":39,"left_children":[1,3,5,-1,7,9,11,13,15,-1,17,19,21,-1,-1,-1,-1,-1,-1,-1,-1,-1,-1],"loss_changes":[1.0234988E-2,3.1444564E-2,1.0751096E-2,0E0,6.524646E-3,4.006136E-3,8.050622E-3,3.9012167E-3,5.189691E-4,0E0,1.9914582E-3,6.767113E-3,3.8333759E-3,0E0,0E0,0E0,0E0,0E0,0E0,0E0,0E0,0E0,0E0],"parents":[2147483647,0,0,1,1,2,2,4,4,5,5,6,6,7,7,8,8,10,10,11,11,12,12],"right_children":[2,4,6,-1,8,10,12,14,16,-1,18,20,22,-1,-1,-1,-1,-1,-1,-1,-1,-1,-1],"split_conditions":[2.45283E1,1.6814939E0,-3.415405E-1,2.7143494E-3,-4.69178E-1,-5.5313146E-1,3.8730812E1,8.751194E0,2.2868217E1,-0E0,5.6055363E1,1.0666376E0,8.504676E-1,1.2240882E-3,-0E0,-1.11193425E-4,7.233899E-5,-6.294824E-4,-0E0,3.4114433E-5,-5.0420384E-4,1.8915485E-3,1.7347098E-4],"split_indices":[2,0,4,0,3,3,0,0,2,0,2,3,3,0,0,0,0,0,0,0,0,0,0],"split_type":[0,0,0,0,0,0,0,0,0,0,0,0,0,0,0,0,0,0,0,0,0,0,0],"sum_hessian":[5.79E2,6.2E1,5.17E2,4E0,5.8E1,5.4E1,4.63E2,1.7E1,4.1E1,1.2E1,4.2E1,4.48E2,1.5E1,6E0,1.1E1,3.3E1,8E0,3.6E1,6E0,4.27E2,2.1E1,2E0,1.3E1],"tree_param":{"num_deleted":"0","num_feature":"12","num_nodes":"23","size_leaf_vector":"1"}},{"base_weights":[6.7390915E-4,-4.596493E-5,1.8978689E-2,1.4457207E-2,-1.4960594E-3,2.2699272E-3,5.149854E-3,5.001397E-2,-0E0,-2.1735514E-2,-7.09481E-4,1.0394539E-2,-0E0,3.2861778E-3,-0E0,-1.5808252E-4,2.739059E-4,-0E0,-1.0044742E-3,5.250356E-4,-5.635185E-5,-0E0,4.8140064E-4],"categories":[],"categories_nodes":[],"categories_segments":[],"categories_sizes":[],"default_left":[0,0,0,0,0,0,0,0,0,0,0,0,0,0,0,0,0,0,0,0,0,0,0],"id":40,"left_children":[1,3,5,7,9,-1,11,13,15,17,19,21,-1,-1,-1,-1,-1,-1,-1,-1,-1,-1,-1],"loss_changes":[9.813604E-3,1.079729E-2,1.3477993E-2,2.5405064E-2,6.161716E-3,0E0,1.4979037E-3,3.6973536E-2,1.5000072E-3,7.610456E-4,9.433249E-3,1.4440177E-3,0E0,0E0,0E0,0E0,0E0,0E0,0E0,0E0,0E0,0E0,0E0],"parents":[2147483647,0,0,1,1,2,2,3,3,4,4,6,6,7,7,8,8,9,9,10,10,11,11],"right_children":[2,4,6,8,10,-1,12,14,16,18,20,22,-1,-1,-1,-1,-1,-1,-1,-1,-1,-1,-1],"split_conditions":[3.4011044E1,1.6814939E0,1.9623684E1,4.212152E-2,1.1135407E1,2.2699272E-3,7.232558E1,1.6532066E1,1.3745343E1,1.1962963E1,1.2658671E1,1.0162201E0,-0E0,3.2861778E-3,-0E0,-1.5808252E-4,2.739059E-4,-0E0,-1.0044742E-3,5.250356E-4,-5.635185E-5,-0E0,4.8140064E-4],"split_indices":[0,0,5,4,6,0,2,5,5,8,5,4,0,0,0,0,0,0,0,0,0,0,0],"split_type":[0,0,0,0,0,0,0,0,0,0,0,0,0,0,0,0,0,0,0,0,0,0,0],"sum_hessian":[6E2,5.73E2,2.7E1,4.5E1,5.28E2,3E0,2.4E1,1.3E1,3.2E1,1.4E1,5.14E2,1.9E1,5E0,5E0,8E0,2.3E1,9E0,8E0,6E0,2.5E1,4.89E2,6E0,1.3E1],"tree_param":{"num_deleted":"0","num_feature":"12","num_nodes":"23","size_leaf_vector":"1"}},{"base_weights":[7.055971E-5,-7.035618E-4,1.5441142E-2,2.8736778E-3,-5.450397E-3,2.5316374E-3,1.0197625E-4,5.134778E-3,-6.305711E-3,2.4724812E-3,-1.0479867E-2,8.473334E-3,-3.8046713E-3,7.155495E-5,9.952679E-4,-9.6571277E-4,-0E0,1.496087E-3,-1.0707076E-4,-5.199849E-4,-6.737716E-5,-0E0,4.5329737E-4,-0E0,-1.7527188E-4],"categories":[],"categories_nodes":[],"categories_segments":[],"categories_sizes":[],"default_left":[0,0,0,0,0,0,0,0,0,0,0,0,0,0,0,0,0,0,0,0,0,0,0,0,0],"id":41,"left_children":[1,3,5,7,9,-1,11,13,15,17,19,21,23,-1,-1,-1,-1,-1,-1,-1,-1,-1,-1,-1,-1],"loss_changes":[8.373969E-3,9.544724E-3,2.7500328E-2,6.1419415E-3,1.0669075E-2,0E0,1.4802228E-3,1.5640147E-2,7.29815E-3,3.0293174E-2,6.9750976E-3,1.4473603E-3,1.872877E-4,0E0,0E0,0E0,0E0,0E0,0E0,0E0,0E0,0E0,0E0,0E0,0E0],"parents":[2147483647,0,0,1,1,2,2,3,3,4,4,6,6,7,7,8,8,9,9,10,10,11,11,12,12],"right_children":[2,4,6,8,10,-1,12,14,16,18,20,22,24,-1,-1,-1,-1,-1,-1,-1,-1,-1,-1,-1,-1],"split_conditions":[3.0760233E1,1.6858334E1,1.9623684E1,1.9678552E-1,1E0,2.5316374E-3,6.712328E1,1.8472557E-1,1E0,7.6209044E0,8.070491E0,9.8386294E-1,1.8433332E1,7.155495E-5,9.952679E-4,-9.6571277E-4,-0E0,1.496087E-3,-1.0707076E-4,-5.199849E-4,-6.737716E-5,-0E0,4.5329737E-4,-0E0,-1.7527188E-4],"split_indices":[0,9,5,4,1,0,2,3,1,0,0,4,7,0,0,0,0,0,0,0,0,0,0,0,0],"split_type":[0,0,0,0,0,0,0,0,0,0,0,0,0,0,0,0,0,0,0,0,0,0,0,0,0],"sum_hessian":[5.78E2,5.45E2,3.3E1,2.99E2,2.46E2,4E0,2.9E1,2.49E2,5E1,8.8E1,1.58E2,1.7E1,1.2E1,2.31E2,1.8E1,8E0,4.2E1,1.1E1,7.7E1,7.9E1,7.9E1,6E0,1.1E1,2E0,1E1],"tree_param":{"num_deleted":"0","num_feature":"12","num_nodes":"25","size_leaf_vector":"1"}},{"base_weights":[2.8391683E-4,9.687092E-4,-3.7412614E-2,-8.8036765E-4,1.242794E-2,-1.2839078E-3,-0E0,1.4020835E-2,-2.6123212E-3,4.258193E-2,2.206401E-3,1.2744211E-3,-0E0,-3.0530147E-5,-4.4476922E-4,2.6468697E-3,5.8217556E-4,-5.08852E-5,4.3808398E-4],"categories":[],"categories_nodes":[],"categories_segments":[],"categories_sizes":[],"default_left":[0,0,0,0,0,0,0,0,0,0,0,0,0,0,0,0,0,0,0],"id":42,"left_children":[1,3,5,7,9,-1,-1,11,13,15,17,-1,-1,-1,-1,-1,-1,-1,-1],"loss_changes":[1.1699729E-2,1.3582452E-2,1.6234117E-3,1.1748254E-2,2.285881E-2,0E0,0E0,1.9830905E-2,7.2231945E-3,8.68275E-3,4.701882E-3,0E0,0E0,0E0,0E0,0E0,0E0,0E0,0E0],"parents":[2147483647,0,0,1,1,2,2,3,3,4,4,7,7,8,8,9,9,10,10],"right_children":[2,4,6,8,10,-1,-1,12,14,16,18,-1,-1,-1,-1,-1,-1,-1,-1],"split_conditions":[2.340044E1,4.1555458E-1,2.6583334E1,1.6814939E0,1.815E1,-1.2839078E-3,-0E0,5.2066296E-2,2.4383865E-1,5.031446E1,2.1043407E1,1.2744211E-3,-0E0,-3.0530147E-5,-4.4476922E-4,2.6468697E-3,5.8217556E-4,-5.08852E-5,4.3808398E-4],"split_indices":[6,3,9,0,11,0,0,3,3,2,6,0,0,0,0,0,0,0,0],"split_type":[0,0,0,0,0,0,0,0,0,0,0,0,0,0,0,0,0,0,0],"sum_hessian":[5.92E2,5.85E2,7E0,4.97E2,8.8E1,6E0,1E0,4.5E1,4.52E2,1.9E1,6.9E1,1.5E1,3E1,4.08E2,4.4E1,4E0,1.5E1,4.7E1,2.2E1],"tree_param":{"num_deleted":"0","num_feature":"12","num_nodes":"19","size_leaf_vector":"1"}},{"base_weights":[-8.4410254E-5,1.0915901E-2,-2.0096372E-3,7.561545E-2,5.1999316E-3,-1.2586496E-3,-3.63829E-2,2.6412066E-3,-0E0,-7.06993E-3,1.4145977E-2,-1.5746163E-2,-9.2608134E-5,-0E0,-1.2486033E-3,-0E0,-2.814211E-4,2.194819E-3,1.9598499E-4,-7.132493E-5,-1.1114953E-3,4.2354854E-4,-5.34906E-5],"categories":[],"categories_nodes":[],"categories_segments":[],"categories_sizes":[],"default_left":[0,0,0,0,0,0,0,0,0,0,0,0,0,0,0,0,0,0,0,0,0,0,0],"id":43,"left_children":[1,3,5,7,9,11,13,-1,-1,15,17,19,21,-1,-1,-1,-1,-1,-1,-1,-1,-1,-1],"loss_changes":[1.15840295E-2,2.1110915E-2,9.329321E-3,2.415847E-3,9.1498885E-3,6.8949717E-3,1.5359148E-3,0E0,0E0,5.3639733E-4,1.3567773E-2,4.7980356E-3,1.0130154E-2,0E0,0E0,0E0,0E0,0E0,0E0,0E0,0E0,0E0,0E0],"parents":[2147483647,0,0,1,1,2,2,3,3,4,4,5,5,6,6,9,9,10,10,11,11,12,12],"right_children":[2,4,6,8,10,12,14,-1,-1,16,18,20,22,-1,-1,-1,-1,-1,-1,-1,-1,-1,-1],"split_conditions":[2.1154573E0,2.4242422E1,2.3675303E1,1.6814939E0,1.3770283E1,1.1343397E1,3.8541664E1,2.6412066E-3,-0E0,5.5468742E1,1.6191668E1,7.128027E1,1.2366007E1,-0E0,-1.2486033E-3,-0E0,-2.814211E-4,2.194819E-3,1.9598499E-4,-7.132493E-5,-1.1114953E-3,4.2354854E-4,-5.34906E-5],"split_indices":[0,2,6,0,5,6,2,0,0,2,8,2,6,0,0,0,0,0,0,0,0,0,0],"split_type":[0,0,0,0,0,0,0,0,0,0,0,0,0,0,0,0,0,0,0,0,0,0,0],"sum_hessian":[5.87E2,7.9E1,5.08E2,4E0,7.5E1,5.01E2,7E0,3E0,1E0,2.7E1,4.8E1,3E1,4.71E2,1E0,6E0,6E0,2.1E1,3E0,4.5E1,2.2E1,8E0,4.3E1,4.28E2],"tree_param":{"num_deleted":"0","num_feature":"12","num_nodes":"23","size_leaf_vector":"1"}},{"base_weights":[1.1268534E-3,1.4016362E-2,-1.5790343E-4,2.4746442E-3,5.866803E-3,-6.8759755E-3,2.1131968E-3,2.3596926E-2,-0E0,-0E0,-8.064533E-3,3.3924602E-2,2.6465303E-4,9.421165E-4,-0E0,-9.221704E-5,4.154479E-5,-0E0,-3.1403292E-4,-0E0,2.5986976E-3,-4.3459036E-4,5.7821646E-5],"categories":[],"categories_nodes":[],"categories_segments":[],"categories_sizes":[],"default_left":[0,0,0,0,0,0,0,0,0,0,0,0,0,0,0,0,0,0,0,0,0,0,0],"id":44,"left_children":[1,3,5,-1,7,9,11,13,15,-1,17,19,21,-1,-1,-1,-1,-1,-1,-1,-1,-1,-1],"loss_changes":[1.1059031E-2,2.416145E-2,8.500952E-3,0E0,8.0951825E-3,1.7766599E-3,1.903552E-2,2.7979836E-3,3.3276805E-4,0E0,2.3725657E-3,3.1809296E-2,7.724382E-3,0E0,0E0,0E0,0E0,0E0,0E0,0E0,0E0,0E0,0E0],"parents":[2147483647,0,0,1,1,2,2,4,4,5,5,6,6,7,7,8,8,10,10,11,11,12,12],"right_children":[2,4,6,-1,8,10,12,14,16,-1,18,20,22,-1,-1,-1,-1,-1,-1,-1,-1,-1,-1],"split_conditions":[2.4242422E1,1.6814939E0,-1.2975122E-1,2.4746442E-3,-4.69178E-1,-5.64238E-1,-1.3316105E-1,1.8663088E1,2.2988504E1,-0E0,1.6858334E1,1.7466667E1,1.1330127E1,9.421165E-4,-0E0,-9.221704E-5,4.154479E-5,-0E0,-3.1403292E-4,-0E0,2.5986976E-3,-4.3459036E-4,5.7821646E-5],"split_indices":[2,0,3,0,3,3,4,0,2,0,9,11,6,0,0,0,0,0,0,0,0,0,0],"split_type":[0,0,0,0,0,0,0,0,0,0,0,0,0,0,0,0,0,0,0,0,0,0,0],"sum_hessian":[5.83E2,5.9E1,5.24E2,4E0,5.5E1,1.43E2,3.81E2,1.7E1,3.8E1,1.2E1,1.31E2,1.7E1,3.64E2,1.2E1,5E0,3.3E1,5E0,3.2E1,9.9E1,1.1E1,6E0,3E1,3.34E2],"tree_param":{"num_deleted":"0","num_feature":"12","num_nodes":"23","size_leaf_vector":"1"}},{"base_weights":[-0E0,5.8981185E-3,-2.3439808E-3,-5.0690107E-4,1.6173245E-2,5.7605905E-3,-5.078959E-3,1.0862744E-2,-8.222155E-3,5.7262596E-2,1.8472677E-3,-4.7817375E-3,1.2938821E-2,-7.018734E-3,6.9023483E-3,6.1614113E-4,-0E0,-7.9315586E-4,-1.1061834E-4,3.357863E-3,-0E0,-0E0,1.7023063E-4,-0E0,-7.295978E-4,-0E0,5.7435123E-4,-2.9975046E-5,-3.4710564E-4,1.0519408E-3,-2.2192944E-4],"categories":[],"categories_nodes":[],"categories_segments":[],"categories_sizes":[],"default_left":[0,0,0,0,0,0,0,0,0,0,0,0,0,0,0,0,0,0,0,0,0,0,0,0,0,0,0,0,0,0,0],"id":45,"left_children":[1,3,5,7,9,11,13,15,17,19,21,23,25,27,29,-1,-1,-1,-1,-1,-1,-1,-1,-1,-1,-1,-1,-1,-1,-1,-1],"loss_changes":[8.095197E-3,1.2368064E-2,9.603228E-3,8.246347E-3,3.4599744E-2,8.52078E-3,7.845833E-3,4.424247E-3,2.0943014E-3,6.0288377E-2,9.426711E-4,3.9085303E-3,5.0781732E-3,6.841247E-3,1.913496E-2,0E0,0E0,0E0,0E0,0E0,0E0,0E0,0E0,0E0,0E0,0E0,0E0,0E0,0E0,0E0,0E0],"parents":[2147483647,0,0,1,1,2,2,3,3,4,4,5,5,6,6,7,7,8,8,9,9,10,10,11,11,12,12,13,13,14,14],"right_children":[2,4,6,8,10,12,14,16,18,20,22,24,26,28,30,-1,-1,-1,-1,-1,-1,-1,-1,-1,-1,-1,-1,-1,-1,-1,-1],"split_conditions":[1.6692448E1,1.3706019E1,1E0,1.2614986E1,1.3583333E1,-3.415405E-1,9.035245E-1,1.9678552E-1,1.1310131E1,3E0,1.55E1,-3.1911492E-1,1.7466667E1,1.6933332E1,9.8387164E-1,6.1614113E-4,-0E0,-7.9315586E-4,-1.1061834E-4,3.357863E-3,-0E0,-0E0,1.7023063E-4,-0E0,-7.295978E-4,-0E0,5.7435123E-4,-2.9975046E-5,-3.4710564E-4,1.0519408E-3,-2.2192944E-4],"split_indices":[5,5,1,5,11,4,4,4,6,1,8,3,11,10,3,0,0,0,0,0,0,0,0,0,0,0,0,0,0,0,0],"split_type":[0,0,0,0,0,0,0,0,0,0,0,0,0,0,0,0,0,0,0,0,0,0,0,0,0,0,0,0,0,0,0],"sum_hessian":[5.97E2,1.63E2,4.34E2,9.5E1,6.8E1,1E2,3.34E2,3.3E1,6.2E1,1.5E1,5.3E1,3.5E1,6.5E1,2.95E2,3.9E1,1.9E1,1.4E1,7E0,5.5E1,8E0,7E0,1.9E1,3.4E1,2.8E1,7E0,2.2E1,4.3E1,1.37E2,1.58E2,1.5E1,2.4E1],"tree_param":{"num_deleted":"0","num_feature":"12","num_nodes":"31","size_leaf_vector":"1"}},{"base_weights":[6.371998E-4,-2.6375314E-2,1.4073289E-3,-0E0,-1.1632835E-3,1.1863682E-2,-8.0192805E-4,2.00176E-3,3.5891753E-2,-2.2824826E-3,1.5061132E-2,3.566724E-4,-1.3604302E-4,3.0671284E-3,4.0929386E-4,1.4205578E-4,-1.3596857E-4,2.0836692E-3,1.0405744E-5],"categories":[],"categories_nodes":[],"categories_segments":[],"categories_sizes":[],"default_left":[0,0,0,0,0,0,0,0,0,0,0,0,0,0,0,0,0,0,0],"id":46,"left_children":[1,3,5,-1,-1,7,9,11,13,15,17,-1,-1,-1,-1,-1,-1,-1,-1],"loss_changes":[9.959783E-3,1.4815666E-3,1.4629642E-2,0E0,0E0,2.2204729E-2,9.935908E-3,6.0889013E-3,2.9824104E-2,6.9796387E-3,2.1008808E-2,0E0,0E0,0E0,0E0,0E0,0E0,0E0,0E0],"parents":[2147483647,0,0,1,1,2,2,5,5,6,6,7,7,8,8,9,9,10,10],"right_children":[2,4,6,-1,-1,8,10,12,14,16,18,-1,-1,-1,-1,-1,-1,-1,-1],"split_conditions":[1.1135407E1,4.923745E0,1.4421331E1,-0E0,-1.1632835E-3,1.3491667E1,2.6601208E1,1.2875E1,4.212152E-2,1E0,1.8775E1,3.566724E-4,-1.3604302E-4,3.0671284E-3,4.0929386E-4,1.4205578E-4,-1.3596857E-4,2.0836692E-3,1.0405744E-5],"split_indices":[6,0,6,0,0,7,0,7,4,1,7,0,0,0,0,0,0,0,0],"split_type":[0,0,0,0,0,0,0,0,0,0,0,0,0,0,0,0,0,0,0],"sum_hessian":[5.96E2,1.2E1,5.84E2,6E0,6E0,1.09E2,4.75E2,8.1E1,2.8E1,4.41E2,3.4E1,3.8E1,4.3E1,5E0,2.3E1,9.6E1,3.45E2,5E0,2.9E1],"tree_param":{"num_deleted":"0","num_feature":"12","num_nodes":"19","size_leaf_vector":"1"}},{"base_weights":[-0E0,9.567975E-3,-1.6423435E-3,3.517468E-2,5.413032E-3,-1.38250915E-2,-0E0,-0E0,2.2812001E-3,1.8238274E-2,6.768714E-4,-0E0,-2.3374565E-2,-2.5475953E-2,7.1948505E-4,5.941846E-4,-0E0,-6.65196E-5,1.7017647E-4,-1.592276E-4,6.425668E-5,-8.68369E-4,-0E0,-0E0,-1.0040032E-3,4.460973E-5,-1.0035138E-3],"categories":[],"categories_nodes":[],"categories_segments":[],"categories_sizes":[],"default_left":[0,0,0,0,0,0,0,0,0,0,0,0,0,0,0,0,0,0,0,0,0,0,0,0,0,0,0],"id":47,"left_children":[1,3,5,7,9,11,13,-1,-1,15,17,19,21,23,25,-1,-1,-1,-1,-1,-1,-1,-1,-1,-1,-1,-1],"loss_changes":[1.02771735E-2,6.071085E-3,9.879659E-3,1.6537828E-2,3.4414723E-3,6.7533627E-3,9.3177315E-3,0E0,0E0,6.8139983E-4,1.3846507E-3,4.5861432E-4,3.7538763E-3,9.93887E-4,8.576253E-3,0E0,0E0,0E0,0E0,0E0,0E0,0E0,0E0,0E0,0E0,0E0,0E0],"parents":[2147483647,0,0,1,1,2,2,3,3,4,4,5,5,6,6,9,9,10,10,11,11,12,12,13,13,14,14],"right_children":[2,4,6,8,10,12,14,-1,-1,16,18,20,22,24,26,-1,-1,-1,-1,-1,-1,-1,-1,-1,-1,-1,-1],"split_conditions":[2.8813555E1,1.3726992E1,-3.415405E-1,1.3429159E1,-4.69178E-1,-4.2542616E-1,1.1135407E1,-0E0,2.2812001E-3,2.1579763E1,2.2987013E1,2.102012E1,5.0434776E1,2.5557983E-1,2.3675303E1,5.941846E-4,-0E0,-6.65196E-5,1.7017647E-4,-1.592276E-4,6.425668E-5,-8.68369E-4,-0E0,-0E0,-1.0040032E-3,4.460973E-5,-1.0035138E-3],"split_indices":[2,5,4,6,3,3,6,0,0,6,2,5,2,3,6,0,0,0,0,0,0,0,0,0,0,0,0],"split_type":[0,0,0,0,0,0,0,0,0,0,0,0,0,0,0,0,0,0,0,0,0,0,0,0,0,0,0],"sum_hessian":[6.13E2,9.6E1,5.17E2,9E0,8.7E1,5.8E1,4.59E2,5E0,4E0,1.7E1,7E1,2.6E1,3.2E1,1.3E1,4.46E2,1.6E1,1E0,3.2E1,3.8E1,1.3E1,1.3E1,2.5E1,7E0,5E0,8E0,4.4E2,6E0],"tree_param":{"num_deleted":"0","num_feature":"12","num_nodes":"27","size_leaf_vector":"1"}},{"base_weights":[-3.4273605E-4,-1.4236304E-3,1.2730712E-2,4.0074354E-3,-4.7285142E-3,2.339318E-3,5.3728075E-4,7.0594097E-3,-4.654027E-3,4.456268E-3,-6.8797376E-3,-1.535604E-3,7.2723688E-3,1.7476903E-5,4.3600626E-4,-0E0,-2.5186947E-4,-5.631159E-5,4.931806E-4,-7.2672445E-4,-1.412817E-4,-1.4805824E-4,-0E0,4.1323956E-4,-0E0],"categories":[],"categories_nodes":[],"categories_segments":[],"categories_sizes":[],"default_left":[0,0,0,0,0,0,0,0,0,0,0,0,0,0,0,0,0,0,0,0,0,0,0,0,0],"id":48,"left_children":[1,3,5,7,9,-1,11,13,15,17,19,21,23,-1,-1,-1,-1,-1,-1,-1,-1,-1,-1,-1,-1],"loss_changes":[7.577991E-3,1.0429706E-2,2.3929827E-2,5.745347E-3,7.5836563E-3,0E0,1.0874423E-3,6.322149E-3,1.32971E-3,6.192436E-3,8.624375E-3,3.0090974E-4,1.9781096E-3,0E0,0E0,0E0,0E0,0E0,0E0,0E0,0E0,0E0,0E0,0E0,0E0],"parents":[2147483647,0,0,1,1,2,2,3,3,4,4,6,6,7,7,8,8,9,9,10,10,11,11,12,12],"right_children":[2,4,6,8,10,-1,12,14,16,18,20,22,24,-1,-1,-1,-1,-1,-1,-1,-1,-1,-1,-1,-1],"split_conditions":[3.0760233E1,1.645E1,1.9623684E1,8.040557E0,-4.2148018E-1,2.339318E-3,1.04426E0,2E0,-2.7578494E-1,1.9291666E1,-3.5242766E-1,1.996517E1,1.3710537E0,1.7476903E-5,4.3600626E-4,-0E0,-2.5186947E-4,-5.631159E-5,4.931806E-4,-7.2672445E-4,-1.412817E-4,-1.4805824E-4,-0E0,4.1323956E-4,-0E0],"split_indices":[0,7,5,0,3,0,4,1,4,11,4,6,3,0,0,0,0,0,0,0,0,0,0,0,0],"split_type":[0,0,0,0,0,0,0,0,0,0,0,0,0,0,0,0,0,0,0,0,0,0,0,0,0],"sum_hessian":[6.14E2,5.75E2,3.9E1,2.06E2,3.69E2,4E0,3.5E1,1.61E2,4.5E1,6.1E1,3.08E2,1.6E1,1.9E1,9.4E1,6.7E1,1.3E1,3.2E1,3.5E1,2.6E1,2.8E1,2.8E2,1.3E1,3E0,1.5E1,4E0],"tree_param":{"num_deleted":"0","num_feature":"12","num_nodes":"25","size_leaf_vector":"1"}},{"base_weights":[-9.128067E-4,-2.9659978E-4,-3.482233E-2,-1.8361514E-3,7.01199E-3,-0E0,-1.2018268E-3,-7.5997814E-4,-2.3218203E-2,4.7946762E-2,9.3716977E-4,2.4082976E-4,-6.83478E-5,-8.225229E-4,-0E0,1.5653404E-3,-0E0,2.3405791E-4,-2.9234198E-4],"categories":[],"categories_nodes":[],"categories_segments":[],"categories_sizes":[],"default_left":[0,0,0,0,0,0,0,0,0,0,0,0,0,0,0,0,0,0,0],"id":49,"left_children":[1,3,5,7,9,-1,-1,11,13,15,17,-1,-1,-1,-1,-1,-1,-1,-1],"loss_changes":[9.244796E-3,6.291469E-3,1.5333723E-3,9.343051E-3,1.8441781E-2,0E0,0E0,6.007667E-3,2.7491786E-3,1.5139878E-3,6.114688E-3,0E0,0E0,0E0,0E0,0E0,0E0,0E0,0E0],"parents":[2147483647,0,0,1,1,2,2,3,3,4,4,7,7,8,8,9,9,10,10],"right_children":[2,4,6,8,10,-1,-1,12,14,16,18,-1,-1,-1,-1,-1,-1,-1,-1],"split_conditions":[2.3675303E1,4.1555458E-1,3.8541664E1,2.7733666E-1,1.9362268E1,-0E0,-1.2018268E-3,2.4242422E1,2.7301971E1,9.166666E1,1.0666376E0,2.4082976E-4,-6.83478E-5,-8.225229E-4,-0E0,1.5653404E-3,-0E0,2.3405791E-4,-2.9234198E-4],"split_indices":[6,3,2,4,5,0,0,2,5,2,3,0,0,0,0,0,0,0,0],"split_type":[0,0,0,0,0,0,0,0,0,0,0,0,0,0,0,0,0,0,0],"sum_hessian":[6.1E2,6.03E2,7E0,5.1E2,9.3E1,1E0,6E0,4.91E2,1.9E1,9E0,8.4E1,6.2E1,4.29E2,1.7E1,2E0,8E0,1E0,5.7E1,2.7E1],"tree_param":{"num_deleted":"0","num_feature":"12","num_nodes":"19","size_leaf_vector":"1"}},{"base_weights":[3.397459E-4,1.1872002E-2,-8.0599857E-4,3.4752786E-2,-0E0,-1.9744707E-3,1.0969512E-2,2.9375986E-3,6.210797E-3,7.2811227E-3,-5.8034095E-3,-4.629882E-4,-1.7229844E-2,2.0071017E-3,1.1843168E-4,2.9718847E-4,-0E0,-0E0,3.8869955E-4,-0E0,-2.6898252E-4,1.572488E-4,-5.585647E-5,-7.2783104E-4,-0E0,1.8185118E-4,-1.1819779E-4],"categories":[],"categories_nodes":[],"categories_segments":[],"categories_sizes":[],"default_left":[0,0,0,0,0,0,0,0,0,0,0,0,0,0,0,0,0,0,0,0,0,0,0,0,0,0,0],"id":50,"left_children":[1,3,5,7,9,11,13,-1,15,17,19,21,23,-1,25,-1,-1,-1,-1,-1,-1,-1,-1,-1,-1,-1,-1],"loss_changes":[8.872211E-3,1.9180782E-2,6.3733356E-3,3.0445846E-2,1.5792048E-3,9.475157E-3,1.7567614E-2,0E0,7.7768456E-4,7.0682174E-4,3.4322287E-4,3.270834E-3,4.022577E-3,0E0,1.1043785E-3,0E0,0E0,0E0,0E0,0E0,0E0,0E0,0E0,0E0,0E0,0E0,0E0],"parents":[2147483647,0,0,1,1,2,2,3,3,4,4,5,5,6,6,8,8,9,9,10,10,11,11,12,12,14,14],"right_children":[2,4,6,8,10,12,14,-1,16,18,20,22,24,-1,26,-1,-1,-1,-1,-1,-1,-1,-1,-1,-1,-1,-1],"split_conditions":[1.8657132E0,4.4811096E-2,2.6601208E1,1.3583333E1,1.2379581E0,2.2249237E1,1.9362268E1,2.9375986E-3,6.614583E1,1.3434674E1,5.6862736E1,2.8888887E1,9.8386294E-1,2.0071017E-3,7.232558E1,2.9718847E-4,-0E0,-0E0,3.8869955E-4,-0E0,-2.6898252E-4,1.572488E-4,-5.585647E-5,-7.2783104E-4,-0E0,1.8185118E-4,-1.1819779E-4],"split_indices":[0,4,0,10,0,0,5,0,2,5,2,2,4,0,2,0,0,0,0,0,0,0,0,0,0,0,0],"split_type":[0,0,0,0,0,0,0,0,0,0,0,0,0,0,0,0,0,0,0,0,0,0,0,0,0,0,0],"sum_hessian":[5.86E2,6E1,5.26E2,2.2E1,3.8E1,4.87E2,3.9E1,5E0,1.7E1,1.1E1,2.7E1,4.5E2,3.7E1,4E0,3.5E1,1.4E1,3E0,4E0,7E0,1.2E1,1.5E1,7.4E1,3.76E2,2.5E1,1.2E1,2.4E1,1.1E1],"tree_param":{"num_deleted":"0","num_feature":"12","num_nodes":"27","size_leaf_vector":"1"}},{"base_weights":[6.628537E-4,-1.9405859E-2,1.6526087E-3,-0E0,-3.4887694E-2,1.0514424E-2,-5.7538075E-4,-0E0,-7.000222E-5,-1.1635107E-3,-0E0,1.6298156E-2,-2.8439655E-3,-2.0775278E-3,1.7102065E-2,2.9376746E-4,1.548175E-3,-1.349324E-4,-0E0,4.1202552E-4,-1.1957923E-4,2.216375E-3,6.7520166E-5],"categories":[],"categories_nodes":[],"categories_segments":[],"categories_sizes":[],"default_left":[0,0,0,0,0,0,0,0,0,0,0,0,0,0,0,0,0,0,0,0,0,0,0],"id":51,"left_children":[1,3,5,7,9,11,13,-1,-1,-1,-1,15,17,19,21,-1,-1,-1,-1,-1,-1,-1,-1],"loss_changes":[1.0373241E-2,4.3505672E-3,1.2589701E-2,6.5337495E-5,1.4891196E-4,1.1203962E-2,1.0774528E-2,0E0,0E0,0E0,0E0,1.49474535E-2,2.9143563E-4,1.2085696E-2,1.836053E-2,0E0,0E0,0E0,0E0,0E0,0E0,0E0,0E0],"parents":[2147483647,0,0,1,1,2,2,3,3,4,4,5,5,6,6,11,11,12,12,13,13,14,14],"right_children":[2,4,6,8,10,12,14,-1,-1,-1,-1,16,18,20,22,-1,-1,-1,-1,-1,-1,-1,-1],"split_conditions":[1.1238851E1,2.7021497E-1,1.6596975E1,1.1593481E1,1.1176439E1,6.832941E0,3.0760233E1,-0E0,-7.000222E-5,-1.1635107E-3,-0E0,1.8753448E-1,1.5241667E1,-4.69178E-1,1.9623684E1,2.9376746E-4,1.548175E-3,-1.349324E-4,-0E0,4.1202552E-4,-1.1957923E-4,2.216375E-3,6.7520166E-5],"split_indices":[6,3,5,5,6,0,0,0,0,0,0,3,8,3,5,0,0,0,0,0,0,0,0],"split_type":[0,0,0,0,0,0,0,0,0,0,0,0,0,0,0,0,0,0,0,0,0,0,0],"sum_hessian":[6.09E2,2.3E1,5.86E2,1.3E1,1E1,1.26E2,4.6E2,2E0,1.1E1,8E0,2E0,9.3E1,3.3E1,4.3E2,3E1,8.2E1,1.1E1,2.7E1,6E0,4E1,3.9E2,4E0,2.6E1],"tree_param":{"num_deleted":"0","num_feature":"12","num_nodes":"23","size_leaf_vector":"1"}},{"base_weights":[-0E0,9.42183E-3,-1.5924362E-3,5.2400324E-2,4.093631E-3,-5.821539E-4,-1.7006982E-2,2.1426992E-3,-0E0,-1.8199523E-4,2.8445022E-2,-2.6431638E-3,8.844655E-3,-2.6798252E-2,-0E0,8.869789E-5,-1.7661494E-4,-0E0,1.6098717E-3,-2.5321462E-5,-5.0824264E-4,1.301273E-3,-0E0,-1.020573E-3,-0E0],"categories":[],"categories_nodes":[],"categories_segments":[],"categories_sizes":[],"default_left":[0,0,0,0,0,0,0,0,0,0,0,0,0,0,0,0,0,0,0,0,0,0,0,0,0],"id":52,"left_children":[1,3,5,7,9,11,13,-1,-1,15,17,19,21,23,-1,-1,-1,-1,-1,-1,-1,-1,-1,-1,-1],"loss_changes":[8.651124E-3,1.3142925E-2,6.111145E-3,6.2858853E-3,1.0848523E-2,8.767884E-3,4.9775513E-3,0E0,0E0,1.4385531E-3,8.020778E-3,8.625458E-3,2.2120079E-2,3.993704E-3,0E0,0E0,0E0,0E0,0E0,0E0,0E0,0E0,0E0,0E0,0E0],"parents":[2147483647,0,0,1,1,2,2,3,3,4,4,5,5,6,6,9,9,10,10,11,11,12,12,13,13],"right_children":[2,4,6,8,10,12,14,-1,-1,16,18,20,22,24,-1,-1,-1,-1,-1,-1,-1,-1,-1,-1,-1],"split_conditions":[2.1154573E0,2.4242422E1,2.6309849E1,1.6814939E0,2E0,4.1555458E-1,2.7397894E1,2.1426992E-3,-0E0,5.7894726E1,5.124839E-4,2.35775E-1,1.9623684E1,9.287175E-1,-0E0,8.869789E-5,-1.7661494E-4,-0E0,1.6098717E-3,-2.5321462E-5,-5.0824264E-4,1.301273E-3,-0E0,-1.020573E-3,-0E0],"split_indices":[0,2,5,0,1,3,5,0,0,2,3,4,5,3,0,0,0,0,0,0,0,0,0,0,0],"split_type":[0,0,0,0,0,0,0,0,0,0,0,0,0,0,0,0,0,0,0,0,0,0,0,0,0],"sum_hessian":[5.87E2,8.2E1,5.05E2,6E0,7.6E1,4.81E2,2.4E1,4E0,2E0,6.2E1,1.4E1,4.04E2,7.7E1,1.6E1,8E0,2.9E1,3.3E1,8E0,6E0,3.66E2,3.8E1,1.4E1,6.3E1,1.3E1,3E0],"tree_param":{"num_deleted":"0","num_feature":"12","num_nodes":"25","size_leaf_vector":"1"}},{"base_weights":[4.5584646E-4,6.2634577E-3,-1.2897738E-3,-0E0,1.734288E-2,7.2692423E-3,-4.0905993E-3,9.712966E-3,-7.03696E-3,5.832204E-2,2.6396657E-3,2.5007978E-2,-0E0,-5.9547294E-3,4.581124E-3,5.9301726E-4,-0E0,-0E0,-2.2301507E-4,-0E0,2.9205584E-3,-9.877362E-5,2.8332847E-4,1.09875815E-4,2.2825953E-3,2.3872082E-4,-1.12618436E-4,-0E0,-3.3923276E-4,7.981708E-4,-2.9573706E-4],"categories":[],"categories_nodes":[],"categories_segments":[],"categories_sizes":[],"default_left":[0,0,0,0,0,0,0,0,0,0,0,0,0,0,0,0,0,0,0,0,0,0,0,0,0,0,0,0,0,0,0],"id":53,"left_children":[1,3,5,7,9,11,13,15,17,19,21,23,25,27,29,-1,-1,-1,-1,-1,-1,-1,-1,-1,-1,-1,-1,-1,-1,-1,-1],"loss_changes":[6.6287285E-3,1.2044203E-2,1.0547356E-2,6.273088E-3,2.9901398E-2,1.4570054E-2,5.822467E-3,4.512919E-3,2.893242E-4,3.767619E-2,2.5434706E-3,2.663585E-2,1.964047E-3,8.613089E-3,1.8791763E-2,0E0,0E0,0E0,0E0,0E0,0E0,0E0,0E0,0E0,0E0,0E0,0E0,0E0,0E0,0E0,0E0],"parents":[2147483647,0,0,1,1,2,2,3,3,4,4,5,5,6,6,7,7,8,8,9,9,10,10,11,11,12,12,13,13,14,14],"right_children":[2,4,6,8,10,12,14,16,18,20,22,24,26,28,30,-1,-1,-1,-1,-1,-1,-1,-1,-1,-1,-1,-1,-1,-1,-1,-1],"split_conditions":[1.6628174E1,1.3491667E1,1E0,1.2614986E1,1.3583333E1,1.8125E1,8.1082773E-1,1.9678552E-1,-1.7019646E-2,1.370588E1,1.55E1,1.7466667E1,3.809523E1,1.6933332E1,6.78733E1,5.9301726E-4,-0E0,-0E0,-2.2301507E-4,-0E0,2.9205584E-3,-9.877362E-5,2.8332847E-4,1.09875815E-4,2.2825953E-3,2.3872082E-4,-1.12618436E-4,-0E0,-3.3923276E-4,7.981708E-4,-2.9573706E-4],"split_indices":[5,7,1,5,10,7,4,4,4,5,7,8,2,10,2,0,0,0,0,0,0,0,0,0,0,0,0,0,0,0,0],"split_type":[0,0,0,0,0,0,0,0,0,0,0,0,0,0,0,0,0,0,0,0,0,0,0,0,0,0,0,0,0,0,0],"sum_hessian":[6.03E2,1.52E2,4.51E2,9.3E1,5.9E1,1.02E2,3.49E2,3.4E1,5.9E1,1.3E1,4.6E1,3.1E1,7.1E1,2.97E2,5.2E1,1.9E1,1.5E1,1E0,5.8E1,5E0,8E0,1.7E1,2.9E1,2.4E1,7E0,1.8E1,5.3E1,1.48E2,1.49E2,2.3E1,2.9E1],"tree_param":{"num_deleted":"0","num_feature":"12","num_nodes":"31","size_leaf_vector":"1"}},{"base_weights":[-3.0718694E-4,-0E0,-3.260944E-2,-1.5737098E-2,1.0418983E-3,-0E0,-1.1276614E-3,-0E0,-1.1231772E-3,-1.102206E-3,9.034609E-3,-0E0,-8.9756766E-5,2.9016627E-4,-9.420933E-5,4.5858766E-4,-1.7273318E-4],"categories":[],"categories_nodes":[],"categories_segments":[],"categories_sizes":[],"default_left":[0,0,0,0,0,0,0,0,0,0,0,0,0,0,0,0,0],"id":54,"left_children":[1,3,5,7,9,-1,-1,11,-1,13,15,-1,-1,-1,-1,-1,-1],"loss_changes":[8.450764E-3,8.530738E-3,1.3833754E-3,7.4936664E-3,1.0365759E-2,0E0,0E0,1.7007695E-4,0E0,8.841681E-3,1.2877885E-2,0E0,0E0,0E0,0E0,0E0,0E0],"parents":[2147483647,0,0,1,1,2,2,3,3,4,4,7,7,9,9,10,10],"right_children":[2,4,6,8,10,-1,-1,12,-1,14,16,-1,-1,-1,-1,-1,-1],"split_conditions":[2.3675303E1,1.1343397E1,3.8541664E1,7.128027E1,2.0429388E-1,-0E0,-1.1276614E-3,1.1701972E1,-1.1231772E-3,2.4242422E1,3E0,-0E0,-8.9756766E-5,2.9016627E-4,-9.420933E-5,4.5858766E-4,-1.7273318E-4],"split_indices":[6,6,2,2,3,0,0,5,0,2,1,0,0,0,0,0,0],"split_type":[0,0,0,0,0,0,0,0,0,0,0,0,0,0,0,0,0],"sum_hessian":[5.95E2,5.88E2,7E0,3.1E1,5.57E2,1E0,6E0,2.1E1,1E1,4.3E2,1.27E2,3E0,1.8E1,6E1,3.7E2,9.4E1,3.3E1],"tree_param":{"num_deleted":"0","num_feature":"12","num_nodes":"17","size_leaf_vector":"1"}},{"base_weights":[-0E0,2.3375393E-3,-6.106769E-3,-0E0,1.6744697E-2,6.3508498E-3,-8.81626E-3,3.1047773E-3,-1.0448663E-2,7.70996E-2,2.0448258E-3,1.2441224E-2,-0E0,-1.2339263E-2,6.059641E-3,1.9140558E-4,-2.4619301E-5,-0E0,-4.303347E-4,2.7450467E-3,-0E0,-0E0,8.977259E-4,4.1168768E-4,-0E0,-1.895364E-4,-7.842041E-4,5.277646E-4,-0E0],"categories":[],"categories_nodes":[],"categories_segments":[],"categories_sizes":[],"default_left":[0,0,0,0,0,0,0,0,0,0,0,0,0,0,0,0,0,0,0,0,0,0,0,0,0,0,0,0,0],"id":55,"left_children":[1,3,5,7,9,11,13,15,17,19,21,23,-1,25,27,-1,-1,-1,-1,-1,-1,-1,-1,-1,-1,-1,-1,-1,-1],"loss_changes":[8.598329E-3,1.39291575E-2,5.97317E-3,1.1837706E-2,4.3386042E-2,1.66333E-3,8.301873E-3,4.2641093E-3,4.724726E-3,7.536806E-3,4.272404E-3,3.8176868E-4,0E0,6.8103913E-3,2.5597804E-3,0E0,0E0,0E0,0E0,0E0,0E0,0E0,0E0,0E0,0E0,0E0,0E0,0E0,0E0],"parents":[2147483647,0,0,1,1,2,2,3,3,4,4,5,5,6,6,7,7,8,8,9,9,10,10,11,11,13,13,14,14],"right_children":[2,4,6,8,10,12,14,16,18,20,22,24,-1,26,28,-1,-1,-1,-1,-1,-1,-1,-1,-1,-1,-1,-1,-1,-1],"split_conditions":[1.735025E1,1.7891666E1,-5.64238E-1,1.6825E1,8.01353E0,4.1481476E1,9.6875215E-1,5.270762E0,1.5715751E1,6.3157887E1,1.7250793E1,2.5233616E1,-0E0,1.674107E1,2.4416666E1,1.9140558E-4,-2.4619301E-5,-0E0,-4.303347E-4,2.7450467E-3,-0E0,-0E0,8.977259E-4,4.1168768E-4,-0E0,-1.895364E-4,-7.842041E-4,5.277646E-4,-0E0],"split_indices":[6,10,3,10,0,2,4,0,6,2,6,0,0,0,7,0,0,0,0,0,0,0,0,0,0,0,0,0,0],"split_type":[0,0,0,0,0,0,0,0,0,0,0,0,0,0,0,0,0,0,0,0,0,0,0,0,0,0,0,0,0],"sum_hessian":[5.93E2,4.26E2,1.67E2,3.69E2,5.7E1,2.3E1,1.44E2,2.87E2,8.2E1,9E0,4.8E1,1.6E1,7E0,1.22E2,2.2E1,1.7E2,1.17E2,1.6E1,6.6E1,7E0,2E0,4.4E1,4E0,1.5E1,1E0,9.1E1,3.1E1,1E1,1.2E1],"tree_param":{"num_deleted":"0","num_feature":"12","num_nodes":"29","size_leaf_vector":"1"}},{"base_weights":[-4.3375877E-4,-1.5083586E-2,2.1514848E-4,-0E0,-1.0277003E-3,1.6759193E-2,-1.0808079E-3,-0E0,-7.2081435E-5,3.7577584E-2,-0E0,-2.2555336E-3,1.3889373E-2,-0E0,1.3251988E-3,4.968241E-5,-0E0,1.7019834E-4,-1.0422964E-4,2.0989852E-3,-0E0],"categories":[],"categories_nodes":[],"categories_segments":[],"categories_sizes":[],"default_left":[0,0,0,0,0,0,0,0,0,0,0,0,0,0,0,0,0,0,0,0,0],"id":56,"left_children":[1,3,5,7,-1,9,11,-1,-1,13,15,17,19,-1,-1,-1,-1,-1,-1,-1,-1],"loss_changes":[7.193916E-3,6.8017696E-3,1.3785516E-2,8.659555E-5,0E0,1.504058E-2,8.065347E-3,0E0,0E0,4.9302634E-3,2.7426024E-5,4.554277E-3,1.8303055E-2,0E0,0E0,0E0,0E0,0E0,0E0,0E0,0E0],"parents":[2147483647,0,0,1,1,2,2,3,3,5,5,6,6,9,9,10,10,11,11,12,12],"right_children":[2,4,6,8,-1,10,12,-1,-1,14,16,18,20,-1,-1,-1,-1,-1,-1,-1,-1],"split_conditions":[1.1343397E1,1.2281482E1,1.2779953E1,1.1777778E1,-1.0277003E-3,6.594462E0,3.305392E1,-0E0,-7.2081435E-5,1.1703704E1,8.26935E0,1.6814939E0,1.9623684E1,-0E0,1.3251988E-3,4.968241E-5,-0E0,1.7019834E-4,-1.0422964E-4,2.0989852E-3,-0E0],"split_indices":[6,7,6,7,0,0,0,0,0,11,0,0,5,0,0,0,0,0,0,0,0],"split_type":[0,0,0,0,0,0,0,0,0,0,0,0,0,0,0,0,0,0,0,0,0],"sum_hessian":[5.99E2,3.1E1,5.68E2,2E1,1.1E1,4.6E1,5.22E2,6E0,1.4E1,1.9E1,2.7E1,4.91E2,3.1E1,3E0,1.6E1,9E0,1.8E1,5.4E1,4.37E2,4E0,2.7E1],"tree_param":{"num_deleted":"0","num_feature":"12","num_nodes":"21","size_leaf_vector":"1"}},{"base_weights":[1.0999461E-4,6.0595624E-4,-1.1143793E-3,-1.4108054E-2,1.5928438E-3,-0E0,-1.0726821E-3,1.2488384E-2,-0E0,-0E0,-8.331598E-5,9.755052E-5,2.1241312E-3,-6.2955674E-5,2.802876E-4],"categories":[],"categories_nodes":[],"categories_segments":[],"categories_sizes":[],"default_left":[0,0,0,0,0,0,0,0,0,0,0,0,0,0,0],"id":57,"left_children":[1,3,-1,5,7,9,-1,11,13,-1,-1,-1,-1,-1,-1],"loss_changes":[7.1039526E-3,7.1496097E-3,0E0,6.81385E-3,1.061854E-2,1.1569254E-4,0E0,3.384E-2,8.63102E-3,0E0,0E0,0E0,0E0,0E0,0E0],"parents":[2147483647,0,0,1,1,3,3,4,4,5,5,7,7,8,8],"right_children":[2,4,-1,6,8,10,-1,12,14,-1,-1,-1,-1,-1,-1],"split_conditions":[2.3675303E1,1.1343397E1,-1.1143793E-3,7.128027E1,1.3583333E1,1.1777778E1,-1.0726821E-3,1.35E1,5.622398E-1,-0E0,-8.331598E-5,9.755052E-5,2.1241312E-3,-6.2955674E-5,2.802876E-4],"split_indices":[6,6,0,2,10,7,0,10,3,0,0,0,0,0,0],"split_type":[0,0,0,0,0,0,0,0,0,0,0,0,0,0,0],"sum_hessian":[5.8E2,5.76E2,4E0,2.9E1,5.47E2,2E1,9E0,7.6E1,4.71E2,6E0,1.4E1,6.8E1,8E0,3.93E2,7.8E1],"tree_param":{"num_deleted":"0","num_feature":"12","num_nodes":"15","size_leaf_vector":"1"}},{"base_weights":[1.8264243E-4,1.2299101E-2,-7.06237E-4,4.525451E-2,-0E0,8.660013E-4,-5.7984684E-3,7.364456E-2,-0E0,-5.0741946E-3,6.547863E-3,1.0194506E-2,-9.76035E-4,-1.5898338E-2,-1.4522296E-3,-0E0,2.5244385E-3,-0E0,-2.0879006E-4,3.3601798E-4,-0E0,-1.0498852E-4,7.222496E-4,-6.9889145E-5,5.027846E-4,-6.6435774E-4,-0E0,-0E0,-8.0453214E-4],"categories":[],"categories_nodes":[],"categories_segments":[],"categories_sizes":[],"default_left":[0,0,0,0,0,0,0,0,0,0,0,0,0,0,0,0,0,0,0,0,0,0,0,0,0,0,0,0,0],"id":58,"left_children":[1,3,5,7,9,11,13,15,-1,17,19,21,23,25,27,-1,-1,-1,-1,-1,-1,-1,-1,-1,-1,-1,-1,-1,-1],"loss_changes":[7.511544E-3,2.1410732E-2,4.837629E-3,1.4716582E-2,1.1324328E-3,7.8051747E-3,4.5190477E-3,6.1779693E-3,0E0,2.5392702E-4,6.1458675E-4,1.639787E-2,6.422295E-3,4.1418783E-3,4.087378E-3,0E0,0E0,0E0,0E0,0E0,0E0,0E0,0E0,0E0,0E0,0E0,0E0,0E0,0E0],"parents":[2147483647,0,0,1,1,2,2,3,3,4,4,5,5,6,6,7,7,9,9,10,10,11,11,12,12,13,13,14,14],"right_children":[2,4,6,8,10,12,14,16,-1,18,20,22,24,26,28,-1,-1,-1,-1,-1,-1,-1,-1,-1,-1,-1,-1,-1,-1],"split_conditions":[1.6814939E0,5.2066296E-2,1.9158333E1,1.6191668E1,1.41E1,1E0,2.0916666E1,1.3302798E1,-0E0,5.5468742E1,1.2379581E0,1.7283333E1,3.2811785E-1,7.348877E1,2.3675303E1,-0E0,2.5244385E-3,-0E0,-2.0879006E-4,3.3601798E-4,-0E0,-1.0498852E-4,7.222496E-4,-6.9889145E-5,5.027846E-4,-6.6435774E-4,-0E0,-0E0,-8.0453214E-4],"split_indices":[0,3,7,8,7,1,7,6,0,2,0,8,3,2,6,0,0,0,0,0,0,0,0,0,0,0,0,0,0],"split_type":[0,0,0,0,0,0,0,0,0,0,0,0,0,0,0,0,0,0,0,0,0,0,0,0,0,0,0,0,0],"sum_hessian":[5.88E2,4.7E1,5.41E2,1.3E1,3.4E1,3.99E2,1.42E2,7E0,6E0,2.3E1,1.1E1,7.4E1,3.25E2,3.5E1,1.07E2,1E0,6E0,6E0,1.7E1,8E0,3E0,3.4E1,4E1,3.08E2,1.7E1,2.6E1,9E0,1.02E2,5E0],"tree_param":{"num_deleted":"0","num_feature":"12","num_nodes":"29","size_leaf_vector":"1"}},{"base_weights":[5.463858E-4,-1.4473907E-2,1.3979904E-3,-0E0,-9.06267E-4,1.2064209E-2,-4.672659E-5,-0E0,-4.2336633E-5,8.6014165E-4,5.314422E-2,9.45823E-5,-8.615058E-4,4.5947917E-4,-9.809363E-5,-0E0,2.5587042E-3,-3.3406704E-5,3.3130404E-4],"categories":[],"categories_nodes":[],"categories_segments":[],"categories_sizes":[],"default_left":[0,0,0,0,0,0,0,0,0,0,0,0,0,0,0,0,0,0,0],"id":59,"left_children":[1,3,5,7,-1,9,11,-1,-1,13,15,17,-1,-1,-1,-1,-1,-1,-1],"loss_changes":[6.630488E-3,4.382019E-3,1.0340245E-2,2.1906997E-5,0E0,3.0914646E-2,4.9513867E-3,0E0,0E0,5.1353E-3,3.0379456E-2,7.751455E-3,0E0,0E0,0E0,0E0,0E0,0E0,0E0],"parents":[2147483647,0,0,1,1,2,2,3,3,5,5,6,6,9,9,10,10,11,11],"right_children":[2,4,6,8,-1,10,12,-1,-1,14,16,18,-1,-1,-1,-1,-1,-1,-1],"split_conditions":[1.1343397E1,6.81081E1,1.3583333E1,1.1814815E1,-9.06267E-4,1.3458333E1,2.3675303E1,-0E0,-4.2336633E-5,1.2857108E1,1.345E1,7.867009E-1,-8.615058E-4,4.5947917E-4,-9.809363E-5,-0E0,2.5587042E-3,-3.3406704E-5,3.3130404E-4],"split_indices":[6,2,11,9,0,11,6,0,0,5,7,4,0,0,0,0,0,0,0],"split_type":[0,0,0,0,0,0,0,0,0,0,0,0,0,0,0,0,0,0,0],"sum_hessian":[6.18E2,2.6E1,5.92E2,1.6E1,1E1,7.8E1,5.14E2,6E0,1E1,6.4E1,1.4E1,5.09E2,5E0,1.9E1,4.5E1,5E0,9E0,4.51E2,5.8E1],"tree_param":{"num_deleted":"0","num_feature":"12","num_nodes":"19","size_leaf_vector":"1"}},{"base_weights":[2.6893322E-4,-4.280055E-4,1.1902811E-2,1.3716894E-3,-5.761223E-3,2.3883013E-3,-0E0,2.2259234E-2,-0E0,