{"learner":{"attributes":{"best_iteration":"2","best_score":"0.03931352871202438","scikit_learn":"{\"_estimator_type\": \"regressor\"}"},"feature_names":["Fourier_Dominant","HMM_State","RSI","MACD","MACD_Signal","BB_Upper","BB_Lower","Close_Lag_1","Close_Lag_2","Close_Lag_3","Close_Lag_4","Close_Lag_5"],"feature_types":["float","int","float","float","float","float","float","float","float","float","float","float"],"gradient_booster":{"model":{"cats":{"enc":[],"feature_segments":[],"sorted_idx":[]},"gbtree_model_param":{"num_parallel_tree":"1","num_trees":"53"},"iteration_indptr":[0,1,2,3,4,5,6,7,8,9,10,11,12,13,14,15,16,17,18,19,20,21,22,23,24,25,26,27,28,29,30,31,32,33,34,35,36,37,38,39,40,41,42,43,44,45,46,47,48,49,50,51,52,53],"tree_info":[0,0,0,0,0,0,0,0,0,0,0,0,0,0,0,0,0,0,0,0,0,0,0,0,0,0,0,0,0,0,0,0,0,0,0,0,0,0,0,0,0,0,0,0,0,0,0,0,0,0,0,0,0],"trees":[{"base_weights":[-3.8792272E-4,2.9853579E-2,-1.913145E-3,-0E0,2.2867653E-3,-1.2450474E-2,2.0387166E-5,-1.9984642E-2,-6.0558E-3,1.8418424E-2,-2.0390318E-3,-7.376158E-4,-0E0,-0E0,-2.2155565E-4,2.7097694E-3,-1.5907765E-4,7.562309E-4,-8.025426E-5],"categories":[],"categories_nodes":[],"categories_segments":[],"categories_sizes":[],"default_left":[0,0,0,0,0,0,0,0,0,0,0,0,0,0,0,0,0,0,0],"id":0,"left_children":[1,3,5,-1,-1,7,9,11,13,15,17,-1,-1,-1,-1,-1,-1,-1,-1],"loss_changes":[2.4246203E-2,3.0012053E-2,1.2673225E-2,0E0,0E0,1.8518968E-3,1.9369785E-2,1.3398882E-3,5.266876E-4,9.7678296E-2,5.0242594E-3,0E0,0E0,0E0,0E0,0E0,0E0,0E0,0E0],"parents":[2147483647,0,0,1,1,2,2,5,5,6,6,7,7,8,8,9,9,10,10],"right_children":[2,4,6,-1,-1,8,10,12,14,16,18,-1,-1,-1,-1,-1,-1,-1,-1],"split_conditions":[1.2205747E1,4.1059E0,2.6666662E1,-0E0,2.2867653E-3,1.595E1,-1.17746815E-1,1.9277105E1,1.0344826E1,3.4460545E0,5.230679E-1,-7.376158E-4,-0E0,-0E0,-2.2155565E-4,2.7097694E-3,-1.5907765E-4,7.562309E-4,-8.025426E-5],"split_indices":[10,0,2,0,0,7,4,2,2,0,0,0,0,0,0,0,0,0,0],"split_type":[0,0,0,0,0,0,0,0,0,0,0,0,0,0,0,0,0,0,0],"sum_hessian":[5.84E2,2.4E1,5.6E2,1.6E1,8E0,9.4E1,4.66E2,3.5E1,5.9E1,5.1E1,4.15E2,2.5E1,1E1,1E1,4.9E1,1.3E1,3.8E1,5E0,4.1E2],"tree_param":{"num_deleted":"0","num_feature":"12","num_nodes":"19","size_leaf_vector":"1"}},{"base_weights":[4.3466382E-4,1.231585E-2,-2.0057543E-3,-0E0,8.536221E-2,3.3312716E-2,-2.7264715E-3,2.6274532E-2,-8.047244E-3,4.2569293E-3,-0E0,4.4223204E-2,-0E0,-8.642492E-3,-0E0,-0E0,1.3986767E-3,3.7001792E-4,-3.1576477E-4,-0E0,5.0634326E-4,-0E0,1.6225111E-3,-0E0,-3.0284093E-4,2.0996646E-3,-7.213769E-5],"categories":[],"categories_nodes":[],"categories_segments":[],"categories_sizes":[],"default_left":[0,0,0,0,0,0,0,0,0,0,0,0,0,0,0,0,0,0,0,0,0,0,0,0,0,0,0],"id":1,"left_children":[1,3,5,7,9,11,13,15,17,-1,19,21,-1,23,25,-1,-1,-1,-1,-1,-1,-1,-1,-1,-1,-1,-1],"loss_changes":[1.822079E-2,1.0020586E-1,9.377697E-3,1.9224714E-2,6.462718E-2,3.965992E-3,6.8962574E-3,9.412917E-3,3.6361804E-3,0E0,5.697412E-4,2.891085E-3,0E0,2.3827925E-3,5.0898217E-2,0E0,0E0,0E0,0E0,0E0,0E0,0E0,0E0,0E0,0E0,0E0,0E0],"parents":[2147483647,0,0,1,1,2,2,3,3,4,4,5,5,6,6,7,7,8,8,10,10,11,11,13,13,14,14],"right_children":[2,4,6,8,10,12,14,16,18,-1,20,22,-1,24,26,-1,-1,-1,-1,-1,-1,-1,-1,-1,-1,-1,-1],"split_conditions":[-1.17746815E-1,-1.1907866E-1,5.230679E-1,1.47E1,3.1607373E0,7.5362305E1,1.16693415E-2,4.461026E0,1.7536691E0,4.2569293E-3,6.2106485E0,4.2307686E1,-0E0,1.23078165E1,-2.0066746E-2,-0E0,1.3986767E-3,3.7001792E-4,-3.1576477E-4,-0E0,5.0634326E-4,-0E0,1.6225111E-3,-0E0,-3.0284093E-4,2.0996646E-3,-7.213769E-5],"split_indices":[4,3,0,7,0,2,4,0,0,0,0,2,0,11,3,0,0,0,0,0,0,0,0,0,0,0,0],"split_type":[0,0,0,0,0,0,0,0,0,0,0,0,0,0,0,0,0,0,0,0,0,0,0,0,0,0,0],"sum_hessian":[5.91E2,1.07E2,4.84E2,9.2E1,1.5E1,6E0,4.78E2,2E1,7.2E1,8E0,7E0,5E0,1E0,1.39E2,3.39E2,1E1,1E1,3E0,6.9E1,6E0,1E0,1E0,4E0,1.4E1,1.25E2,9E0,3.3E2],"tree_param":{"num_deleted":"0","num_feature":"12","num_nodes":"27","size_leaf_vector":"1"}},{"base_weights":[1.3107852E-4,4.2878613E-2,-2.8779928E-4,-0E0,1.7826757E-3,1.0763872E-2,-2.7467932E-3,2.7443368E-2,-1.1607481E-2,-6.06919E-3,6.259843E-3,-0E0,3.1232748E-3,-0E0,-6.2364154E-4,-2.473246E-4,-2.0315845E-6,1.2416362E-3,-1.5188279E-4],"categories":[],"categories_nodes":[],"categories_segments":[],"categories_sizes":[],"default_left":[0,0,0,0,0,0,0,0,0,0,0,0,0,0,0,0,0,0,0],"id":2,"left_children":[1,3,5,-1,-1,7,9,11,13,15,17,-1,-1,-1,-1,-1,-1,-1,-1],"loss_changes":[1.4746428E-2,6.477616E-3,1.4935583E-2,0E0,0E0,3.847014E-2,1.4412186E-2,1.2898429E-1,4.1178027E-3,3.867329E-3,5.236642E-2,0E0,0E0,0E0,0E0,0E0,0E0,0E0,0E0],"parents":[2147483647,0,0,1,1,2,2,5,5,6,6,7,7,8,8,9,9,10,10],"right_children":[2,4,6,-1,-1,8,10,12,14,16,18,-1,-1,-1,-1,-1,-1,-1,-1],"split_conditions":[5.230679E-1,4.583333E1,1.24500885E1,-0E0,1.7826757E-3,9.896182E-2,1.91E1,4.620944E0,1.0873242E1,1.3531508E-1,2.2747654E1,-0E0,3.1232748E-3,-0E0,-6.2364154E-4,-2.473246E-4,-2.0315845E-6,1.2416362E-3,-1.5188279E-4],"split_indices":[0,2,6,0,0,4,9,0,0,4,5,0,0,0,0,0,0,0,0],"split_type":[0,0,0,0,0,0,0,0,0,0,0,0,0,0,0,0,0,0,0],"sum_hessian":[5.84E2,7E0,5.77E2,2E0,5E0,9.7E1,4.8E2,5.8E1,3.9E1,3.59E2,1.21E2,4.3E1,1.5E1,1.8E1,2.1E1,2.51E2,1.08E2,3.1E1,9E1],"tree_param":{"num_deleted":"0","num_feature":"12","num_nodes":"19","size_leaf_vector":"1"}},{"base_weights":[-9.044316E-4,-1.1144324E-3,-1.842052E-4,1.3414257E-3,-7.3481264E-4,-2.9396813E-3,6.375104E-3,1.6915314E-4,-1.5916099E-4,2.9420422E-3,8.759014E-6],"categories":[],"categories_nodes":[],"categories_segments":[],"categories_sizes":[],"default_left":[0,0,0,0,0,0,0,0,0,0,0],"id":3,"left_children":[1,-1,3,-1,5,7,9,-1,-1,-1,-1],"loss_changes":[1.19481E-2,0E0,1.0294702E-2,0E0,8.908618E-3,9.351739E-3,6.2089097E-2,0E0,0E0,0E0,0E0],"parents":[2147483647,0,0,2,2,4,4,5,5,6,6],"right_children":[2,-1,4,-1,6,8,10,-1,-1,-1,-1],"split_conditions":[1.1246927E1,-1.1144324E-3,1.1891034E1,1.3414257E-3,1.91E1,1.24500885E1,1.7536691E0,1.6915314E-4,-1.5916099E-4,2.9420422E-3,8.759014E-6],"split_indices":[6,0,9,0,10,6,0,0,0,0,0],"split_type":[0,0,0,0,0,0,0,0,0,0,0],"sum_hessian":[6E2,8E0,5.92E2,4E0,5.88E2,4.6E2,1.28E2,9E1,3.7E2,6E0,1.22E2],"tree_param":{"num_deleted":"0","num_feature":"12","num_nodes":"11","size_leaf_vector":"1"}},{"base_weights":[-2.7091065E-4,2.5280885E-2,-1.7967386E-3,1.112499E-3,2.0326106E-3,-9.772074E-3,-2.4949058E-4,-0E0,4.1613244E-3,-1.8268663E-2,-3.255006E-4,6.557185E-2,-2.3220023E-3,2.2559565E-4,-0E0,-0E0,-6.492549E-4,1.3001388E-4,-1.5120688E-4,3.6347965E-3,-0E0,-7.3153834E-4,-3.434326E-5],"categories":[],"categories_nodes":[],"categories_segments":[],"categories_sizes":[],"default_left":[0,0,0,0,0,0,0,0,0,0,0,0,0,0,0,0,0,0,0,0,0,0,0],"id":4,"left_children":[1,3,5,7,-1,9,11,-1,13,15,17,19,21,-1,-1,-1,-1,-1,-1,-1,-1,-1,-1],"loss_changes":[2.0270854E-2,2.2806479E-2,5.794648E-3,1.4717547E-4,0E0,4.475466E-3,5.835181E-2,0E0,2.7921953E-4,2.0362781E-3,1.0590487E-3,4.6862356E-2,9.39256E-3,0E0,0E0,0E0,0E0,0E0,0E0,0E0,0E0,0E0,0E0],"parents":[2147483647,0,0,1,1,2,2,3,3,5,5,6,6,8,8,9,9,10,10,11,11,12,12],"right_children":[2,4,6,8,-1,10,12,-1,14,16,18,20,22,-1,-1,-1,-1,-1,-1,-1,-1,-1,-1],"split_conditions":[1.2214252E1,1.3019965E1,1.3440422E1,1.24600315E1,2.0326106E-3,4.5451324E-2,1.3013793E1,-0E0,1.2554716E1,1.23078165E1,1.2767126E1,-8.6402864E-4,1.465E1,2.2559565E-4,-0E0,-0E0,-6.492549E-4,1.3001388E-4,-1.5120688E-4,3.6347965E-3,-0E0,-7.3153834E-4,-3.434326E-5],"split_indices":[11,5,5,5,0,3,9,0,5,11,8,3,10,0,0,0,0,0,0,0,0,0,0],"split_type":[0,0,0,0,0,0,0,0,0,0,0,0,0,0,0,0,0,0,0,0,0,0,0],"sum_hessian":[5.78E2,2.8E1,5.5E2,2E1,8E0,7.8E1,4.72E2,1.1E1,9E0,3.5E1,4.3E1,1.2E1,4.6E2,7E0,2E0,6E0,2.9E1,1.1E1,3.2E1,6E0,6E0,1.8E1,4.42E2],"tree_param":{"num_deleted":"0","num_feature":"12","num_nodes":"23","size_leaf_vector":"1"}},{"base_weights":[1.4118772E-3,1.4331233E-2,-1.197699E-3,-0E0,7.933959E-2,-1.0675305E-3,-3.4033455E-4,3.247979E-2,-8.566341E-3,4.0939646E-3,9.992339E-3,1.4286944E-2,-2.996438E-3,-0E0,1.7786176E-3,-0E0,-2.9952868E-4,-0E0,1.578443E-3,1.5483861E-3,2.5871494E-5,-1.5740782E-4,1.8007134E-4],"categories":[],"categories_nodes":[],"categories_segments":[],"categories_sizes":[],"default_left":[0,0,0,0,0,0,0,0,0,0,0,0,0,0,0,0,0,0,0,0,0,0,0],"id":5,"left_children":[1,3,5,7,9,-1,11,13,15,-1,17,19,21,-1,-1,-1,-1,-1,-1,-1,-1,-1,-1],"loss_changes":[2.128923E-2,9.153516E-2,1.0753102E-2,2.721704E-2,5.5298038E-2,0E0,1.752366E-2,1.6511098E-2,1.5159058E-3,0E0,7.3064724E-3,2.8781686E-2,8.2996655E-3,0E0,0E0,0E0,0E0,0E0,0E0,0E0,0E0,0E0,0E0],"parents":[2147483647,0,0,1,1,2,2,3,3,4,4,6,6,7,7,8,8,10,10,11,11,12,12],"right_children":[2,4,6,8,10,-1,12,14,16,-1,18,20,22,-1,-1,-1,-1,-1,-1,-1,-1,-1,-1],"split_conditions":[-1.17746815E-1,-1.1907866E-1,1.1246927E1,1.436274E1,3.1607373E0,-1.0675305E-3,1.24500885E1,1.2857922E1,1.47E1,4.0939646E-3,6.2106485E0,3.666665E1,7.499995E1,-0E0,1.7786176E-3,-0E0,-2.9952868E-4,-0E0,1.578443E-3,1.5483861E-3,2.5871494E-5,-1.5740782E-4,1.8007134E-4],"split_indices":[4,3,6,6,0,0,6,5,7,0,0,2,2,0,0,0,0,0,0,0,0,0,0],"split_type":[0,0,0,0,0,0,0,0,0,0,0,0,0,0,0,0,0,0,0,0,0,0,0],"sum_hessian":[5.91E2,1.05E2,4.86E2,8.8E1,1.7E1,8E0,4.78E2,2E1,6.8E1,8E0,9E0,6.7E1,4.11E2,1E1,1E1,3E0,6.5E1,7E0,2E0,1.5E1,5.2E1,3.38E2,7.3E1],"tree_param":{"num_deleted":"0","num_feature":"12","num_nodes":"23","size_leaf_vector":"1"}},{"base_weights":[1.097945E-3,7.472639E-3,-2.4167285E-3,2.859238E-3,1.2920332E-1,-9.5106335E-4,-1.5483261E-3,-5.006834E-3,1.7605502E-2,-0E0,4.243248E-3,-3.4211308E-3,3.5713874E-3,1.2409636E-3,-2.7415913E-4,1.1121854E-3,-0E0,4.67801E-6,-1.905518E-4,6.6058827E-4,-1.7254442E-4],"categories":[],"categories_nodes":[],"categories_segments":[],"categories_sizes":[],"default_left":[0,0,0,0,0,0,0,0,0,0,0,0,0,0,0,0,0,0,0,0,0],"id":6,"left_children":[1,3,5,7,9,-1,11,13,15,-1,-1,17,19,-1,-1,-1,-1,-1,-1,-1,-1],"loss_changes":[1.3361696E-2,1.06605105E-1,5.7812096E-3,2.547501E-2,3.1799078E-3,0E0,3.3914237E-3,2.2446703E-2,2.286303E-2,0E0,0E0,3.4928923E-3,1.5684675E-2,0E0,0E0,0E0,0E0,0E0,0E0,0E0,0E0],"parents":[2147483647,0,0,1,1,2,2,3,3,4,4,6,6,7,7,8,8,11,11,12,12],"right_children":[2,4,6,8,10,-1,12,14,16,-1,-1,18,20,-1,-1,-1,-1,-1,-1,-1,-1],"split_conditions":[-2.0066746E-2,2E0,1.1321128E1,4.137929E1,-1.3442604E-1,-9.5106335E-4,1.91E1,1.1827802E1,-1.0199898E-1,-0E0,4.243248E-3,1.6978617E1,2.3339844E1,1.2409636E-3,-2.7415913E-4,1.1121854E-3,-0E0,4.67801E-6,-1.905518E-4,6.6058827E-4,-1.7254442E-4],"split_indices":[3,1,6,2,3,0,8,6,3,0,0,5,5,0,0,0,0,0,0,0,0],"split_type":[0,0,0,0,0,0,0,0,0,0,0,0,0,0,0,0,0,0,0,0,0],"sum_hessian":[5.72E2,2.13E2,3.59E2,2.07E2,6E0,6E0,3.53E2,1.31E2,7.6E1,1E0,5E0,2.73E2,8E1,8E0,1.23E2,3.3E1,4.3E1,1.08E2,1.65E2,3E1,5E1],"tree_param":{"num_deleted":"0","num_feature":"12","num_nodes":"21","size_leaf_vector":"1"}},{"base_weights":[-4.5297746E-4,3.3574227E-2,-1.141928E-3,-0E0,4.4996068E-2,5.226443E-3,-3.6588034E-3,1.7435069E-3,-0E0,-6.111393E-3,2.5135504E-2,-6.85353E-3,3.7478213E-3,1.9986548E-4,-3.1771106E-4,1.5736123E-3,-0E0,-3.448088E-4,-1.4082916E-4,2.4050276E-3,-0E0],"categories":[],"categories_nodes":[],"categories_segments":[],"categories_sizes":[],"default_left":[0,0,0,0,0,0,0,0,0,0,0,0,0,0,0,0,0,0,0,0,0],"id":7,"left_children":[1,3,5,-1,7,9,11,-1,-1,13,15,17,19,-1,-1,-1,-1,-1,-1,-1,-1],"loss_changes":[1.0790617E-2,4.0274635E-3,9.303084E-3,0E0,6.092921E-3,3.726923E-2,1.0605626E-2,0E0,0E0,6.012991E-3,4.4634245E-2,1.4632028E-3,3.6847424E-2,0E0,0E0,0E0,0E0,0E0,0E0,0E0,0E0],"parents":[2147483647,0,0,1,1,2,2,4,4,5,5,6,6,9,9,10,10,11,11,12,12],"right_children":[2,4,6,-1,8,10,12,-1,-1,14,16,18,20,-1,-1,-1,-1,-1,-1,-1,-1],"split_conditions":[5.230679E-1,4.583333E1,1.6150232E1,-0E0,1E0,1.34204855E1,1.91E1,1.7435069E-3,-0E0,1.2214252E1,-8.6402864E-4,1.664E1,1.7536691E0,1.9986548E-4,-3.1771106E-4,1.5736123E-3,-0E0,-3.448088E-4,-1.4082916E-4,2.4050276E-3,-0E0],"split_indices":[0,2,5,0,1,5,11,0,0,10,3,11,0,0,0,0,0,0,0,0,0],"split_type":[0,0,0,0,0,0,0,0,0,0,0,0,0,0,0,0,0,0,0,0,0],"sum_hessian":[5.96E2,8E0,5.88E2,2E0,6E0,1.55E2,4.33E2,5E0,1E0,9.6E1,5.9E1,3.12E2,1.21E2,1.9E1,7.7E1,2.9E1,3E1,8.3E1,2.29E2,5E0,1.16E2],"tree_param":{"num_deleted":"0","num_feature":"12","num_nodes":"21","size_leaf_vector":"1"}},{"base_weights":[-0E0,1.5103114E-3,-1.7533427E-4,4.8855417E-3,-2.2266696E-3,-6.9324877E-3,2.3729436E-2,-5.155941E-3,4.4564027E-3,1.4446344E-4,-3.7373145E-4,1.6429425E-3,-2.0793077E-5,7.936426E-4,-1.7915218E-4,1.0978176E-3,-1.435149E-4],"categories":[],"categories_nodes":[],"categories_segments":[],"categories_sizes":[],"default_left":[0,0,0,0,0,0,0,0,0,0,0,0,0,0,0,0,0],"id":8,"left_children":[1,-1,3,5,7,9,11,13,15,-1,-1,-1,-1,-1,-1,-1,-1],"loss_changes":[1.0156157E-2,0E0,5.890871E-3,3.6807735E-2,8.628299E-3,6.925758E-3,5.395464E-2,6.2070983E-3,3.988192E-2,0E0,0E0,0E0,0E0,0E0,0E0,0E0,0E0],"parents":[2147483647,0,0,2,2,3,3,4,4,5,5,6,6,7,7,8,8],"right_children":[2,-1,4,6,8,10,12,14,16,-1,-1,-1,-1,-1,-1,-1,-1],"split_conditions":[1.1891034E1,1.5103114E-3,1.6150232E1,1.34204855E1,1.91E1,1.2636924E1,-8.6402864E-4,4.3312815E-1,2.2747654E1,1.4446344E-4,-3.7373145E-4,1.6429425E-3,-2.0793077E-5,7.936426E-4,-1.7915218E-4,1.0978176E-3,-1.435149E-4],"split_indices":[11,0,5,5,10,5,3,0,5,0,0,0,0,0,0,0,0],"split_type":[0,0,0,0,0,0,0,0,0,0,0,0,0,0,0,0,0],"sum_hessian":[5.94E2,3E0,5.91E2,1.56E2,4.35E2,9.3E1,6.3E1,3.13E2,1.22E2,2.4E1,6.9E1,2.9E1,3.4E1,4E0,3.09E2,2.9E1,9.3E1],"tree_param":{"num_deleted":"0","num_feature":"12","num_nodes":"17","size_leaf_vector":"1"}},{"base_weights":[-2.2995225E-4,4.056779E-2,-9.65966E-4,-0E0,1.684942E-3,-9.779325E-4,-3.470495E-4,6.5732948E-3,-3.2219107E-3,-1.3744891E-4,7.96081E-4,-1.8459531E-4,1.0081876E-4],"categories":[],"categories_nodes":[],"categories_segments":[],"categories_sizes":[],"default_left":[0,0,0,0,0,0,0,0,0,0,0,0,0],"id":9,"left_children":[1,3,5,-1,-1,-1,7,9,11,-1,-1,-1,-1],"loss_changes":[1.3675236E-2,5.7609025E-3,8.029542E-3,0E0,0E0,0E0,1.1065997E-2,3.750091E-2,8.307427E-3,0E0,0E0,0E0,0E0],"parents":[2147483647,0,0,1,1,2,2,6,6,7,7,8,8],"right_children":[2,4,6,-1,-1,-1,8,10,12,-1,-1,-1,-1],"split_conditions":[5.230679E-1,-3.1345285E-2,1.1321128E1,-0E0,1.684942E-3,-9.779325E-4,1.6150232E1,1.3340235E1,1.902E1,-1.3744891E-4,7.96081E-4,-1.8459531E-4,1.0081876E-4],"split_indices":[0,3,6,0,0,0,5,5,8,0,0,0,0],"split_type":[0,0,0,0,0,0,0,0,0,0,0,0,0],"sum_hessian":[5.85E2,7E0,5.78E2,2E0,5E0,7E0,5.71E2,1.57E2,4.14E2,9.8E1,5.9E1,2.97E2,1.17E2],"tree_param":{"num_deleted":"0","num_feature":"12","num_nodes":"13","size_leaf_vector":"1"}},{"base_weights":[1.1520379E-4,1.5597624E-3,-1.5422121E-4,-8.004951E-4,8.364653E-5,9.853746E-3,-1.4908839E-3,1.4617791E-7,1.3108023E-3,-3.9960686E-4,-0E0],"categories":[],"categories_nodes":[],"categories_segments":[],"categories_sizes":[],"default_left":[0,0,0,0,0,0,0,0,0,0,0],"id":10,"left_children":[1,-1,3,-1,5,7,9,-1,-1,-1,-1],"loss_changes":[1.3522055E-2,0E0,6.39793E-3,0E0,9.834834E-3,2.562539E-2,9.013172E-3,0E0,0E0,0E0,0E0],"parents":[2147483647,0,0,2,2,4,4,5,5,6,6],"right_children":[2,-1,4,-1,6,8,10,-1,-1,-1,-1],"split_conditions":[1.1891034E1,1.5597624E-3,1.1321128E1,-8.004951E-4,1.24500885E1,1.2250961E1,1.489E1,1.4617791E-7,1.3108023E-3,-3.9960686E-4,-0E0],"split_indices":[11,0,6,0,6,6,9,0,0,0,0],"split_type":[0,0,0,0,0,0,0,0,0,0,0],"sum_hessian":[5.95E2,4E0,5.91E2,8E0,5.83E2,8.9E1,4.94E2,7.2E1,1.7E1,5.6E1,4.38E2],"tree_param":{"num_deleted":"0","num_feature":"12","num_nodes":"11","size_leaf_vector":"1"}},{"base_weights":[2.0972427E-4,1.1584304E-2,-2.1353136E-3,-2.777153E-4,5.376459E-2,1.4220872E-3,-2.8448736E-3,3.7906963E-2,-8.443785E-3,9.78603E-2,1.8353831E-3,-7.7630724E-3,-4.659125E-4,-0E0,1.4262006E-3,-0E0,-3.0808445E-4,3.5471679E-3,-0E0,-3.5601457E-5,1.3993594E-3,-0E0,-2.768179E-4,1.3398767E-3,-5.926307E-5],"categories":[],"categories_nodes":[],"categories_segments":[],"categories_sizes":[],"default_left":[0,0,0,0,0,0,0,0,0,0,0,0,0,0,0,0,0,0,0,0,0,0,0,0,0],"id":11,"left_children":[1,3,5,7,9,-1,11,13,15,17,19,21,23,-1,-1,-1,-1,-1,-1,-1,-1,-1,-1,-1,-1],"loss_changes":[1.6973928E-2,6.040139E-2,1.2937872E-2,2.3878353E-2,4.938706E-2,0E0,4.871483E-3,1.6602892E-3,1.2284797E-3,2.9288597E-2,6.4970953E-3,2.3300443E-3,1.9185524E-2,0E0,0E0,0E0,0E0,0E0,0E0,0E0,0E0,0E0,0E0,0E0,0E0],"parents":[2147483647,0,0,1,1,2,2,3,3,4,4,6,6,7,7,8,8,9,9,10,10,11,11,12,12],"right_children":[2,4,6,8,10,-1,12,14,16,18,20,22,24,-1,-1,-1,-1,-1,-1,-1,-1,-1,-1,-1,-1],"split_conditions":[-1.17746815E-1,-1.2814985E-1,4.3312815E-1,1.1827802E1,3.4460545E0,1.4220872E-3,1.16693415E-2,3.7261593E0,1.47E1,2.2254347E1,6.2106485E0,1.23078165E1,-2.0066746E-2,-0E0,1.4262006E-3,-0E0,-3.0808445E-4,3.5471679E-3,-0E0,-3.5601457E-5,1.3993594E-3,-0E0,-2.768179E-4,1.3398767E-3,-5.926307E-5],"split_indices":[4,3,0,6,0,0,4,0,7,6,0,11,3,0,0,0,0,0,0,0,0,0,0,0,0],"split_type":[0,0,0,0,0,0,0,0,0,0,0,0,0,0,0,0,0,0,0,0,0,0,0,0,0],"sum_hessian":[5.99E2,1.09E2,4.9E2,8.4E1,2.5E1,4E0,4.86E2,1.2E1,7.2E1,1.2E1,1.3E1,1.44E2,3.42E2,4E0,8E0,1.2E1,6E1,1E1,2E0,1.1E1,2E0,1.5E1,1.29E2,8E0,3.34E2],"tree_param":{"num_deleted":"0","num_feature":"12","num_nodes":"25","size_leaf_vector":"1"}},{"base_weights":[1.2451131E-4,7.774821E-3,-2.7634345E-3,-3.5290811E-3,2.6209662E-2,-8.993486E-3,-4.9159444E-5,1.4764154E-3,-6.513961E-3,5.3003985E-2,-0E0,-0E0,-9.193283E-3,3.7284352E-2,-1.1078259E-3,2.024973E-4,-3.789219E-4,-0E0,4.6994397E-3,-2.0667588E-4,1.2649754E-3,-2.7835314E-4,-0E0,-0E0,1.3879571E-3,-8.420384E-5,3.3848744E-4],"categories":[],"categories_nodes":[],"categories_segments":[],"categories_sizes":[],"default_left":[0,0,0,0,0,0,0,0,0,0,0,0,0,0,0,0,0,0,0,0,0,0,0,0,0,0,0],"id":12,"left_children":[1,3,5,7,9,11,13,-1,15,17,19,-1,21,23,25,-1,-1,-1,-1,-1,-1,-1,-1,-1,-1,-1,-1],"loss_changes":[1.3845112E-2,3.882804E-2,6.3497145E-3,1.2738309E-2,4.7434118E-2,2.6337337E-4,8.715534E-3,0E0,9.029938E-3,1.7440416E-1,1.2186505E-2,0E0,1.1857599E-5,2.3616226E-3,5.625811E-3,0E0,0E0,0E0,0E0,0E0,0E0,0E0,0E0,0E0,0E0,0E0,0E0],"parents":[2147483647,0,0,1,1,2,2,3,3,4,4,5,5,6,6,8,8,9,9,10,10,12,12,13,13,14,14],"right_children":[2,4,6,8,10,12,14,-1,16,18,20,-1,22,24,26,-1,-1,-1,-1,-1,-1,-1,-1,-1,-1,-1,-1],"split_conditions":[1.6150232E1,1.34204855E1,1.74E1,1.1891034E1,-8.6402864E-4,1.472E1,1.7486322E1,1.4764154E-3,1.2636924E1,-1.3578741E-1,1.596E1,-0E0,1.741E1,4.583333E1,8.476821E1,2.024973E-4,-3.789219E-4,-0E0,4.6994397E-3,-2.0667588E-4,1.2649754E-3,-2.7835314E-4,-0E0,-0E0,1.3879571E-3,-8.420384E-5,3.3848744E-4],"split_indices":[5,5,9,11,3,11,5,0,5,3,8,0,8,2,2,0,0,0,0,0,0,0,0,0,0,0,0],"split_type":[0,0,0,0,0,0,0,0,0,0,0,0,0,0,0,0,0,0,0,0,0,0,0,0,0,0,0],"sum_hessian":[6.02E2,1.74E2,4.28E2,1.05E2,6.9E1,1.18E2,3.1E2,3E0,1.02E2,3.3E1,3.6E1,2E0,1.16E2,5E0,3.05E2,2.7E1,7.5E1,2.3E1,1E1,3.1E1,5E0,1.14E2,2E0,1E0,4E0,2.76E2,2.9E1],"tree_param":{"num_deleted":"0","num_feature":"12","num_nodes":"27","size_leaf_vector":"1"}},{"base_weights":[-3.0105072E-4,1.1431674E-2,-2.9943509E-3,-0E0,6.794473E-2,-3.0928366E-2,-2.2386995E-3,3.0423082E-2,-5.424129E-3,-0E0,8.511334E-2,-0E0,-3.526052E-2,-1.026104E-2,-0E0,-0E0,1.371912E-3,-2.3805918E-4,6.611163E-5,-0E0,2.7460973E-3,-0E0,-1.1429592E-3,-5.711067E-4,-1.12167574E-4,3.195929E-4,-5.244165E-5],"categories":[],"categories_nodes":[],"categories_segments":[],"categories_sizes":[],"default_left":[0,0,0,0,0,0,0,0,0,0,0,0,0,0,0,0,0,0,0,0,0,0,0,0,0,0,0],"id":13,"left_children":[1,3,5,7,9,11,13,15,17,-1,19,-1,21,23,25,-1,-1,-1,-1,-1,-1,-1,-1,-1,-1,-1,-1],"loss_changes":[1.7423553E-2,6.5281264E-2,6.68275E-3,1.4180076E-2,2.2939667E-2,9.40552E-5,7.967794E-3,2.6065558E-3,1.9889518E-3,0E0,7.506363E-3,0E0,5.9083104E-6,3.260484E-3,6.5509807E-3,0E0,0E0,0E0,0E0,0E0,0E0,0E0,0E0,0E0,0E0,0E0,0E0],"parents":[2147483647,0,0,1,1,2,2,3,3,4,4,5,5,6,6,7,7,8,8,10,10,12,12,13,13,14,14],"right_children":[2,4,6,8,10,12,14,16,18,-1,20,-1,22,24,26,-1,-1,-1,-1,-1,-1,-1,-1,-1,-1,-1,-1],"split_conditions":[-1.17746815E-1,-1.1907866E-1,1.1321128E1,1.1827802E1,1.2445788E1,1.36E1,-3.8601078E-2,1.2554716E1,-1.3305816E-1,-0E0,3.9795914E1,-0E0,2.1443635E-1,1.6975964E1,1.24500885E1,-0E0,1.371912E-3,-2.3805918E-4,6.611163E-5,-0E0,2.7460973E-3,-0E0,-1.1429592E-3,-5.711067E-4,-1.12167574E-4,3.195929E-4,-5.244165E-5],"split_indices":[4,3,6,6,5,7,3,5,4,0,2,0,3,5,6,0,0,0,0,0,0,0,0,0,0,0,0],"split_type":[0,0,0,0,0,0,0,0,0,0,0,0,0,0,0,0,0,0,0,0,0,0,0,0,0,0,0],"sum_hessian":[5.76E2,1E2,4.76E2,8.4E1,1.6E1,8E0,4.68E2,1.2E1,7.2E1,3E0,1.3E1,2E0,6E0,9.7E1,3.71E2,6E0,6E0,6.4E1,8E0,1E0,1.2E1,1E0,5E0,3.4E1,6.3E1,4.8E1,3.23E2],"tree_param":{"num_deleted":"0","num_feature":"12","num_nodes":"27","size_leaf_vector":"1"}},{"base_weights":[-5.072516E-4,1.246176E-2,-3.3372976E-3,4.764772E-2,-0E0,-8.481598E-3,-1.80574E-3,-0E0,9.14715E-2,-7.3963464E-3,2.4552159E-2,2.7774964E-3,-1.1890309E-2,3.4706146E-3,-3.2368882E-3,-0E0,-6.189152E-5,-0E0,2.929608E-3,-0E0,-2.770652E-4,-0E0,2.2406399E-3,-0E0,3.0376777E-4,-4.7248183E-4,-0E0,-1.5674479E-4,-0E0],"categories":[],"categories_nodes":[],"categories_segments":[],"categories_sizes":[],"default_left":[0,0,0,0,0,0,0,0,0,0,0,0,0,0,0,0,0,0,0,0,0,0,0,0,0,0,0,0,0],"id":14,"left_children":[1,3,5,7,9,11,13,15,17,19,21,23,25,-1,27,-1,-1,-1,-1,-1,-1,-1,-1,-1,-1,-1,-1,-1,-1],"loss_changes":[2.1077476E-2,4.7883704E-2,2.8795903E-3,6.193699E-2,1.2324484E-2,4.7438275E-3,5.6389336E-2,4.2561784E-5,8.00164E-3,1.4941408E-3,2.442765E-2,4.840195E-4,3.1481115E-3,0E0,2.7470533E-3,0E0,0E0,0E0,0E0,0E0,0E0,0E0,0E0,0E0,0E0,0E0,0E0,0E0,0E0],"parents":[2147483647,0,0,1,1,2,2,3,3,4,4,5,5,6,6,7,7,8,8,9,9,10,10,11,11,12,12,14,14],"right_children":[2,4,6,8,10,12,14,16,18,20,22,24,26,-1,28,-1,-1,-1,-1,-1,-1,-1,-1,-1,-1,-1,-1,-1,-1],"split_conditions":[-1.17746815E-1,1.5176991E1,1.46897745E1,1.2857922E1,-1.3305816E-1,1.25995245E1,1.4759825E1,-1.6282398E-1,1E0,1.47E1,1.8791412E1,-6.2943706E-3,1.3939439E-1,3.4706146E-3,1.858E1,-0E0,-6.189152E-5,-0E0,2.929608E-3,-0E0,-2.770652E-4,-0E0,2.2406399E-3,-0E0,3.0376777E-4,-4.7248183E-4,-0E0,-1.5674479E-4,-0E0],"split_indices":[4,5,5,5,4,5,5,4,1,7,5,4,4,0,11,0,0,0,0,0,0,0,0,0,0,0,0,0,0],"split_type":[0,0,0,0,0,0,0,0,0,0,0,0,0,0,0,0,0,0,0,0,0,0,0,0,0,0,0,0,0],"sum_hessian":[5.97E2,1E2,4.97E2,2.7E1,7.3E1,9.8E1,3.99E2,1.3E1,1.4E1,5.9E1,1.4E1,1.6E1,8.2E1,3E0,3.96E2,4E0,9E0,1E0,1.3E1,4E0,5.5E1,9E0,5E0,1.1E1,5E0,5.9E1,2.3E1,2.52E2,1.44E2],"tree_param":{"num_deleted":"0","num_feature":"12","num_nodes":"29","size_leaf_vector":"1"}},{"base_weights":[5.109797E-4,2.0219078E-2,-3.157206E-4,-0E0,1.6644105E-3,-7.4887825E-3,8.168339E-4,-0E0,1.1545725E-3,1.6128103E-4,-1.1788219E-2,5.4477427E-2,-1.2868997E-3,7.685888E-5,-0E0,2.8614327E-4,-1.9371948E-4,-1.941932E-4,-8.0500386E-4,4.161327E-3,-1.4712408E-4,-1.0347925E-4,1.2268189E-4],"categories":[],"categories_nodes":[],"categories_segments":[],"categories_sizes":[],"default_left":[0,0,0,0,0,0,0,0,0,0,0,0,0,0,0,0,0,0,0,0,0,0,0],"id":15,"left_children":[1,3,5,7,-1,9,11,-1,13,15,17,19,21,-1,-1,-1,-1,-1,-1,-1,-1,-1,-1],"loss_changes":[1.1756041E-2,1.5847098E-2,5.3120493E-3,1.7329488E-5,0E0,4.1247816E-3,5.9800975E-2,0E0,4.1743384E-5,1.9212062E-3,1.7734794E-3,1.1409925E-1,5.3328187E-3,0E0,0E0,0E0,0E0,0E0,0E0,0E0,0E0,0E0,0E0],"parents":[2147483647,0,0,1,1,2,2,3,3,5,5,6,6,8,8,9,9,10,10,11,11,12,12],"right_children":[2,4,6,8,-1,10,12,-1,14,16,18,20,22,-1,-1,-1,-1,-1,-1,-1,-1,-1,-1],"split_conditions":[1.2214252E1,1.2670082E1,1.46897745E1,1.1765473E1,1.6644105E-3,1.25034485E1,1.5176991E1,-0E0,1.2528358E1,1.2037406E1,1.3258402E1,-8.6402864E-4,1.92E1,7.685888E-5,-0E0,2.8614327E-4,-1.9371948E-4,-1.941932E-4,-8.0500386E-4,4.161327E-3,-1.4712408E-4,-1.0347925E-4,1.2268189E-4],"split_indices":[11,5,5,6,0,8,5,0,5,6,5,3,7,0,0,0,0,0,0,0,0,0,0],"split_type":[0,0,0,0,0,0,0,0,0,0,0,0,0,0,0,0,0,0,0,0,0,0,0],"sum_hessian":[5.98E2,2.8E1,5.7E2,2E1,8E0,8.9E1,4.81E2,8E0,1.2E1,2.4E1,6.5E1,1.9E1,4.62E2,8E0,4E0,1.6E1,8E0,5.4E1,1.1E1,8E0,1.1E1,3.43E2,1.19E2],"tree_param":{"num_deleted":"0","num_feature":"12","num_nodes":"23","size_leaf_vector":"1"}},{"base_weights":[-5.797732E-4,9.4432505E-3,-2.767548E-3,-4.8855506E-4,7.6921254E-2,-8.1272697E-4,-1.9588433E-3,1.6019953E-2,-8.357057E-3,3.3980254E-3,1.0108192E-2,-9.354836E-3,-0E0,-0E0,1.1439655E-3,-0E0,-2.695257E-4,-0E0,1.1950418E-3,-5.1122444E-4,-5.7495297E-5,3.1909868E-4,-4.0956053E-5],"categories":[],"categories_nodes":[],"categories_segments":[],"categories_sizes":[],"default_left":[0,0,0,0,0,0,0,0,0,0,0,0,0,0,0,0,0,0,0,0,0,0,0],"id":16,"left_children":[1,3,5,7,9,-1,11,13,15,-1,17,19,21,-1,-1,-1,-1,-1,-1,-1,-1,-1,-1],"loss_changes":[1.244965E-2,7.4028514E-2,6.85749E-3,1.0538752E-2,2.0515166E-2,0E0,6.2662167E-3,9.835364E-3,5.237106E-4,0E0,4.045187E-3,3.3884952E-3,4.96833E-3,0E0,0E0,0E0,0E0,0E0,0E0,0E0,0E0,0E0,0E0],"parents":[2147483647,0,0,1,1,2,2,3,3,4,4,6,6,7,7,8,8,10,10,11,11,12,12],"right_children":[2,4,6,8,10,-1,12,14,16,-1,18,20,22,-1,-1,-1,-1,-1,-1,-1,-1,-1,-1],"split_conditions":[-1.17746815E-1,-1.1907866E-1,1.1365877E1,1.4531951E1,2.9402263E0,-8.1272697E-4,-5.106902E-2,1.2857922E1,1.5204397E1,3.3980254E-3,6.132894E0,1.6975964E1,-1.7264182E-2,-0E0,1.1439655E-3,-0E0,-2.695257E-4,-0E0,1.1950418E-3,-5.1122444E-4,-5.7495297E-5,3.1909868E-4,-4.0956053E-5],"split_indices":[4,3,6,6,0,0,3,5,5,0,0,5,3,0,0,0,0,0,0,0,0,0,0],"split_type":[0,0,0,0,0,0,0,0,0,0,0,0,0,0,0,0,0,0,0,0,0,0,0],"sum_hessian":[5.96E2,9.8E1,4.98E2,8.5E1,1.3E1,1.1E1,4.87E2,2.3E1,6.2E1,7E0,6E0,9.2E1,3.95E2,1.3E1,1E1,2E0,6E1,4E0,2E0,3.8E1,5.4E1,3.7E1,3.58E2],"tree_param":{"num_deleted":"0","num_feature":"12","num_nodes":"23","size_leaf_vector":"1"}},{"base_weights":[6.6765025E-4,-3.209227E-2,1.2760875E-3,-0E0,-1.0311281E-3,1.2949787E-2,-6.899089E-4,-0E0,3.243075E-2,3.0710764E-2,-1.3332855E-3,8.638881E-5,-1.429851E-4,3.139117E-3,-0E0,-0E0,1.361284E-3,-3.589063E-4,-0E0],"categories":[],"categories_nodes":[],"categories_segments":[],"categories_sizes":[],"default_left":[0,0,0,0,0,0,0,0,0,0,0,0,0,0,0,0,0,0,0],"id":17,"left_children":[1,3,5,-1,-1,7,9,11,13,15,17,-1,-1,-1,-1,-1,-1,-1,-1],"loss_changes":[8.9386795E-3,3.0219555E-5,1.4867491E-2,0E0,0E0,2.542257E-2,7.2448323E-3,8.826657E-4,1.0131798E-1,3.6929124E-3,5.988352E-3,0E0,0E0,0E0,0E0,0E0,0E0,0E0,0E0],"parents":[2147483647,0,0,1,1,2,2,5,5,6,6,7,7,8,8,9,9,10,10],"right_children":[2,4,6,-1,-1,8,10,12,14,16,18,-1,-1,-1,-1,-1,-1,-1,-1],"split_conditions":[1.1321128E1,9.485439E0,1.24500885E1,-0E0,-1.0311281E-3,6.0535707E0,5.230679E-1,1.2636924E1,-8.6402864E-4,4.583333E1,1.454E1,8.638881E-5,-1.429851E-4,3.139117E-3,-0E0,-0E0,1.361284E-3,-3.589063E-4,-0E0],"split_indices":[6,0,6,0,0,0,0,5,3,2,10,0,0,0,0,0,0,0,0],"split_type":[0,0,0,0,0,0,0,0,0,0,0,0,0,0,0,0,0,0,0],"sum_hessian":[6E2,7E0,5.93E2,1E0,6E0,9.2E1,5.01E2,5.4E1,3.8E1,6E0,4.95E2,2.6E1,2.8E1,1.2E1,2.6E1,2E0,4E0,4.7E1,4.48E2],"tree_param":{"num_deleted":"0","num_feature":"12","num_nodes":"19","size_leaf_vector":"1"}},{"base_weights":[-1.0713823E-3,1.7276047E-2,-2.025837E-3,-0E0,1.4234994E-3,-2.7787488E-2,-1.3789984E-3,-2.94525E-2,-0E0,-1.0073461E-2,-6.496973E-5,-0E0,-1.0046134E-3,-5.667412E-4,-7.326325E-5,6.9835386E-4,-1.9609204E-5],"categories":[],"categories_nodes":[],"categories_segments":[],"categories_sizes":[],"default_left":[0,0,0,0,0,0,0,0,0,0,0,0,0,0,0,0,0],"id":18,"left_children":[1,3,5,-1,-1,7,9,11,-1,13,15,-1,-1,-1,-1,-1,-1],"loss_changes":[8.80691E-3,1.3100425E-2,6.459985E-3,0E0,0E0,8.560438E-5,5.3376756E-3,4.2658765E-5,0E0,2.059951E-3,4.5410777E-3,0E0,0E0,0E0,0E0,0E0,0E0],"parents":[2147483647,0,0,1,1,2,2,5,5,6,6,7,7,9,9,10,10],"right_children":[2,4,6,-1,-1,8,10,12,-1,14,16,-1,-1,-1,-1,-1,-1],"split_conditions":[1.2205747E1,4.313503E0,1.1321128E1,-0E0,1.4234994E-3,1.465E1,1.7894733E1,3.0534187E-1,-0E0,1.6216925E1,5.230679E-1,-0E0,-1.0046134E-3,-5.667412E-4,-7.326325E-5,6.9835386E-4,-1.9609204E-5],"split_indices":[9,0,6,0,0,10,2,3,0,5,0,0,0,0,0,0,0],"split_type":[0,0,0,0,0,0,0,0,0,0,0,0,0,0,0,0,0],"sum_hessian":[5.87E2,2.3E1,5.64E2,1.5E1,8E0,9E0,5.55E2,8E0,1E0,6.2E1,4.93E2,2E0,6E0,2.2E1,4E1,7E0,4.86E2],"tree_param":{"num_deleted":"0","num_feature":"12","num_nodes":"17","size_leaf_vector":"1"}},{"base_weights":[1.0726989E-3,1.756366E-2,8.4762796E-5,-0E0,1.4915443E-3,4.266229E-3,-2.7706507E-3,2.2772723E-4,3.4826696E-2,1.071883E-2,-4.9080704E-3,-8.290171E-5,7.7769865E-4,2.416811E-3,3.2643924E-4,-0E0,3.255219E-3,-3.1763752E-4,-4.8547794E-5],"categories":[],"categories_nodes":[],"categories_segments":[],"categories_sizes":[],"default_left":[0,0,0,0,0,0,0,0,0,0,0,0,0,0,0,0,0,0,0],"id":19,"left_children":[1,3,5,-1,-1,7,9,11,13,15,17,-1,-1,-1,-1,-1,-1,-1,-1],"loss_changes":[7.6667466E-3,1.3918025E-2,6.7640957E-3,0E0,0E0,2.598365E-2,8.553828E-3,1.891219E-2,1.7356988E-2,4.2844284E-2,3.9755367E-3,0E0,0E0,0E0,0E0,0E0,0E0,0E0,0E0],"parents":[2147483647,0,0,1,1,2,2,5,5,6,6,7,7,8,8,9,9,10,10],"right_children":[2,4,6,-1,-1,8,10,12,14,16,18,-1,-1,-1,-1,-1,-1,-1,-1],"split_conditions":[1.2205747E1,3.9012172E0,3.4543896E0,-0E0,1.4915443E-3,1.9243134E1,1.3013793E1,1E0,1.7536691E0,1.086327E1,1.7358456E1,-8.290171E-5,7.7769865E-4,2.416811E-3,3.2643924E-4,-0E0,3.255219E-3,-3.1763752E-4,-4.8547794E-5],"split_indices":[11,0,0,0,0,5,9,1,0,0,5,0,0,0,0,0,0,0,0],"split_type":[0,0,0,0,0,0,0,0,0,0,0,0,0,0,0,0,0,0,0],"sum_hessian":[5.78E2,2.6E1,5.52E2,1.8E1,8E0,2.38E2,3.14E2,2.14E2,2.4E1,3.6E1,2.78E2,1.89E2,2.5E1,6E0,1.8E1,3.3E1,3E0,9E1,1.88E2],"tree_param":{"num_deleted":"0","num_feature":"12","num_nodes":"19","size_leaf_vector":"1"}},{"base_weights":[-0E0,8.932855E-3,-1.9295636E-3,-1.0699467E-3,6.005463E-2,-9.947208E-4,-1.3153462E-3,1.677258E-2,-7.6754624E-3,-0E0,7.360114E-2,-8.120435E-3,1.3770102E-4,1.2230288E-3,-0E0,-0E0,-2.5517057E-4,-0E0,2.3540608E-3,-4.4147627E-4,-3.7140264E-5,3.4685337E-4,-1.8907253E-5],"categories":[],"categories_nodes":[],"categories_segments":[],"categories_sizes":[],"default_left":[0,0,0,0,0,0,0,0,0,0,0,0,0,0,0,0,0,0,0,0,0,0,0],"id":20,"left_children":[1,3,5,7,9,-1,11,13,15,-1,17,19,21,-1,-1,-1,-1,-1,-1,-1,-1,-1,-1],"loss_changes":[1.0230617E-2,6.016699E-2,5.639108E-3,9.590625E-3,1.8149436E-2,0E0,5.4566944E-3,6.0076048E-3,7.099039E-4,0E0,5.6859925E-3,2.6986934E-3,4.407876E-3,0E0,0E0,0E0,0E0,0E0,0E0,0E0,0E0,0E0,0E0],"parents":[2147483647,0,0,1,1,2,2,3,3,4,4,6,6,7,7,8,8,10,10,11,11,12,12],"right_children":[2,4,6,8,10,-1,12,14,16,-1,18,20,22,-1,-1,-1,-1,-1,-1,-1,-1,-1,-1],"split_conditions":[-1.17746815E-1,-1.1914396E-1,1.1095603E1,1.436274E1,1.2273793E1,-9.947208E-4,-4.803371E-2,-1.7013595E-1,1.47E1,-0E0,3.9795914E1,1.6380516E1,-2.0832356E-2,1.2230288E-3,-0E0,-0E0,-2.5517057E-4,-0E0,2.3540608E-3,-4.4147627E-4,-3.7140264E-5,3.4685337E-4,-1.8907253E-5],"split_indices":[4,3,6,6,8,0,3,4,8,0,2,6,3,0,0,0,0,0,0,0,0,0,0],"split_type":[0,0,0,0,0,0,0,0,0,0,0,0,0,0,0,0,0,0,0,0,0,0,0],"sum_hessian":[5.8E2,1.05E2,4.75E2,8.7E1,1.8E1,5E0,4.7E2,1.9E1,6.8E1,3E0,1.5E1,9.4E1,3.76E2,6E0,1.3E1,3E0,6.5E1,1E0,1.4E1,4E1,5.4E1,3.1E1,3.45E2],"tree_param":{"num_deleted":"0","num_feature":"12","num_nodes":"23","size_leaf_vector":"1"}},{"base_weights":[3.6850586E-4,1.8407635E-2,-2.69147E-4,1.3820978E-3,-0E0,-2.6789492E-2,-0E0,-0E0,-3.0775836E-2,-8.718361E-3,1.6362296E-3,-0E0,-9.98129E-4,-4.3566915E-4,-3.8029834E-6,2.5874497E-3,-0E0],"categories":[],"categories_nodes":[],"categories_segments":[],"categories_sizes":[],"default_left":[0,0,0,0,0,0,0,0,0,0,0,0,0,0,0,0,0],"id":21,"left_children":[1,3,5,-1,-1,7,9,-1,11,13,15,-1,-1,-1,-1,-1,-1],"loss_changes":[8.432858E-3,1.0630916E-2,6.4191776E-3,0E0,0E0,1.7097173E-4,7.1030306E-3,0E0,1.1679251E-5,2.3728684E-3,7.313746E-2,0E0,0E0,0E0,0E0,0E0,0E0],"parents":[2147483647,0,0,1,1,2,2,5,5,6,6,8,8,9,9,10,10],"right_children":[2,4,6,-1,-1,8,10,-1,12,14,16,-1,-1,-1,-1,-1,-1],"split_conditions":[1.2214252E1,1.1726572E1,1.1321128E1,1.3820978E-3,-0E0,1.36E1,1.3440422E1,-0E0,1.4148929E1,4.9999985E1,1.4759825E1,-0E0,-9.98129E-4,-4.3566915E-4,-3.8029834E-6,2.5874497E-3,-0E0],"split_indices":[11,6,6,0,0,7,5,0,5,2,5,0,0,0,0,0,0],"split_type":[0,0,0,0,0,0,0,0,0,0,0,0,0,0,0,0,0],"sum_hessian":[5.74E2,2.4E1,5.5E2,8E0,1.6E1,8E0,5.42E2,2E0,6E0,7.6E1,4.66E2,1E0,5E0,3.8E1,3.8E1,9E0,4.57E2],"tree_param":{"num_deleted":"0","num_feature":"12","num_nodes":"17","size_leaf_vector":"1"}},{"base_weights":[8.515804E-4,3.8019173E-2,2.1372754E-4,1.5297511E-3,-0E0,6.856313E-3,-2.0431038E-3,-3.617404E-3,2.6681606E-2,-6.2210686E-3,2.040569E-3,4.220028E-4,-2.5202095E-4,2.9560183E-3,4.3006698E-4,-0E0,-1.8910306E-4,7.673071E-4,-1.0346563E-5],"categories":[],"categories_nodes":[],"categories_segments":[],"categories_sizes":[],"default_left":[0,0,0,0,0,0,0,0,0,0,0,0,0,0,0,0,0,0,0],"id":22,"left_children":[1,3,5,-1,-1,7,9,11,13,15,17,-1,-1,-1,-1,-1,-1,-1,-1],"loss_changes":[9.7292485E-3,5.482724E-3,8.980346E-3,0E0,0E0,3.4587838E-2,7.4600573E-3,7.925832E-3,3.7864745E-2,1.4335942E-4,1.359256E-2,0E0,0E0,0E0,0E0,0E0,0E0,0E0,0E0],"parents":[2147483647,0,0,1,1,2,2,5,5,6,6,7,7,8,8,9,9,10,10],"right_children":[2,4,6,-1,-1,8,10,12,14,16,18,-1,-1,-1,-1,-1,-1,-1,-1],"split_conditions":[5.230679E-1,7.5362305E1,1.6150232E1,1.5297511E-3,-0E0,1.4504319E1,1.8727081E1,1.2205747E1,1.4759825E1,1.472E1,1.7860792E0,4.220028E-4,-2.5202095E-4,2.9560183E-3,4.3006698E-4,-0E0,-1.8910306E-4,7.673071E-4,-1.0346563E-5],"split_indices":[0,2,5,0,0,5,5,9,5,11,0,0,0,0,0,0,0,0,0],"split_type":[0,0,0,0,0,0,0,0,0,0,0,0,0,0,0,0,0,0,0],"sum_hessian":[5.71E2,6E0,5.65E2,5E0,1E0,1.54E2,4.11E2,9.8E1,5.6E1,2.15E2,1.96E2,1.6E1,8.2E1,6E0,5E1,2E0,2.13E2,2.1E1,1.75E2],"tree_param":{"num_deleted":"0","num_feature":"12","num_nodes":"19","size_leaf_vector":"1"}},{"base_weights":[-0E0,1.6212247E-2,-5.338794E-4,-0E0,1.3859672E-3,2.6843999E-2,-1.1428002E-3,1.6411964E-3,-0E0,1.3591422E-3,-0E0,-8.536651E-3,-0E0,7.279661E-5,-0E0,-4.349331E-4,-0E0,1.6568331E-3,-4.5674493E-5],"categories":[],"categories_nodes":[],"categories_segments":[],"categories_sizes":[],"default_left":[0,0,0,0,0,0,0,0,0,0,0,0,0,0,0,0,0,0,0],"id":23,"left_children":[1,3,5,7,-1,9,11,13,-1,-1,-1,15,17,-1,-1,-1,-1,-1,-1],"loss_changes":[6.7351004E-3,1.0503789E-2,7.0630303E-3,2.9628784E-5,0E0,3.7771957E-3,4.650902E-3,2.9252846E-5,0E0,0E0,0E0,3.4350804E-3,4.0770963E-2,0E0,0E0,0E0,0E0,0E0,0E0],"parents":[2147483647,0,0,1,1,2,2,3,3,5,5,6,6,7,7,11,11,12,12],"right_children":[2,4,6,8,-1,10,12,14,-1,-1,-1,16,18,-1,-1,-1,-1,-1,-1],"split_conditions":[1.2214252E1,4.242867E0,5.230679E-1,3.7261593E0,1.3859672E-3,1.742E1,1.3417742E1,1.2528642E1,-0E0,1.3591422E-3,-0E0,5.089285E1,1.3013793E1,7.279661E-5,-0E0,-4.349331E-4,-0E0,1.6568331E-3,-4.5674493E-5],"split_indices":[11,0,0,0,0,10,5,5,0,0,0,2,9,0,0,0,0,0,0],"split_type":[0,0,0,0,0,0,0,0,0,0,0,0,0,0,0,0,0,0,0],"sum_hessian":[5.99E2,2.4E1,5.75E2,1.7E1,7E0,8E0,5.67E2,1E1,7E0,4E0,4E0,7.3E1,4.94E2,9E0,1E0,4.1E1,3.2E1,1.2E1,4.82E2],"tree_param":{"num_deleted":"0","num_feature":"12","num_nodes":"19","size_leaf_vector":"1"}},{"base_weights":[-1.3473674E-6,8.326486E-3,-1.8873389E-3,2.293084E-2,-1.0354174E-2,-1.2520413E-2,-5.061683E-4,6.492706E-3,9.447224E-2,-2.9276775E-2,-2.876032E-3,-5.4040353E-4,-0E0,8.397005E-2,-1.8657E-3,8.7800325E-4,-0E0,3.5789907E-3,-0E0,-0E0,-9.413367E-4,-0E0,-1.3622352E-4,-0E0,3.0171091E-3,-1.7051054E-4,1.022034E-5],"categories":[],"categories_nodes":[],"categories_segments":[],"categories_sizes":[],"default_left":[0,0,0,0,0,0,0,0,0,0,0,0,0,0,0,0,0,0,0,0,0,0,0,0,0,0,0],"id":24,"left_children":[1,3,5,7,9,11,13,15,17,19,21,-1,-1,23,25,-1,-1,-1,-1,-1,-1,-1,-1,-1,-1,-1,-1],"loss_changes":[8.7798275E-3,2.9049812E-2,6.019363E-3,5.9850547E-2,2.6437659E-3,2.7022255E-3,4.3742716E-2,5.5589806E-3,2.4609305E-2,3.4967437E-5,2.4658215E-4,0E0,0E0,8.266125E-3,4.2933044E-3,0E0,0E0,0E0,0E0,0E0,0E0,0E0,0E0,0E0,0E0,0E0,0E0],"parents":[2147483647,0,0,1,1,2,2,3,3,4,4,5,5,6,6,7,7,8,8,9,9,10,10,13,13,14,14],"right_children":[2,4,6,8,10,12,14,16,18,20,22,-1,-1,24,26,-1,-1,-1,-1,-1,-1,-1,-1,-1,-1,-1,-1],"split_conditions":[1.24500885E1,1.170716E-1,1.454E1,1.2767126E1,1.1246927E1,7.760511E-2,1.5176991E1,-1.8087651E-1,-8.6402864E-4,3.0534187E-1,1.557096E-1,-5.4040353E-4,-0E0,1E0,1.732436E1,8.7800325E-4,-0E0,3.5789907E-3,-0E0,-0E0,-9.413367E-4,-0E0,-1.3622352E-4,-0E0,3.0171091E-3,-1.7051054E-4,1.022034E-5],"split_indices":[6,3,10,8,6,3,5,3,3,3,3,0,0,1,6,0,0,0,0,0,0,0,0,0,0,0,0],"split_type":[0,0,0,0,0,0,0,0,0,0,0,0,0,0,0,0,0,0,0,0,0,0,0,0,0,0,0],"sum_hessian":[5.98E2,1E2,4.98E2,5.9E1,4.1E1,4.8E1,4.5E2,5E1,9E0,7E0,3.4E1,3.1E1,1.7E1,5E0,4.45E2,8E0,4.2E1,7E0,2E0,1E0,6E0,9E0,2.5E1,1E0,4E0,1.79E2,2.66E2],"tree_param":{"num_deleted":"0","num_feature":"12","num_nodes":"27","size_leaf_vector":"1"}},{"base_weights":[4.2730605E-4,7.5997417E-3,-8.531105E-4,-2.6183452E-3,4.4658534E-2,2.8215498E-2,-1.4809676E-3,1.0565135E-2,-8.416141E-3,8.4222816E-2,-0E0,-0E0,1.2854259E-3,-5.261663E-3,-0E0,6.018898E-4,-0E0,-4.0168266E-4,-5.852743E-5,3.0831592E-3,-0E0,-4.8859896E-5,-0E0,-0E0,-1.9564497E-4,1.6641944E-3,-4.232248E-5],"categories":[],"categories_nodes":[],"categories_segments":[],"categories_sizes":[],"default_left":[0,0,0,0,0,0,0,0,0,0,0,0,0,0,0,0,0,0,0,0,0,0,0,0,0,0,0],"id":25,"left_children":[1,3,5,7,9,11,13,15,17,19,21,-1,-1,23,25,-1,-1,-1,-1,-1,-1,-1,-1,-1,-1,-1,-1],"loss_changes":[6.0811653E-3,4.2566612E-2,6.2747886E-3,5.8359588E-3,4.4350054E-2,3.606754E-3,2.846445E-3,3.1119885E-3,3.6904868E-4,2.3967586E-2,2.652544E-5,0E0,0E0,1.4126452E-3,2.8360166E-2,0E0,0E0,0E0,0E0,0E0,0E0,0E0,0E0,0E0,0E0,0E0,0E0],"parents":[2147483647,0,0,1,1,2,2,3,3,4,4,5,5,6,6,7,7,8,8,9,9,10,10,13,13,14,14],"right_children":[2,4,6,8,10,12,14,16,18,20,22,-1,-1,24,26,-1,-1,-1,-1,-1,-1,-1,-1,-1,-1,-1,-1],"split_conditions":[-1.17746815E-1,-1.2814985E-1,5.230679E-1,1.47E1,3.4460545E0,4.583333E1,1.0185639E-2,-1.6351968E-1,1.578E1,2.25E1,6.132894E0,-0E0,1.2854259E-3,1.2324827E1,-2.0066746E-2,6.018898E-4,-0E0,-4.0168266E-4,-5.852743E-5,3.0831592E-3,-0E0,-4.8859896E-5,-0E0,-0E0,-1.9564497E-4,1.6641944E-3,-4.232248E-5],"split_indices":[4,3,0,8,0,2,4,4,8,9,0,0,0,11,3,0,0,0,0,0,0,0,0,0,0,0,0],"split_type":[0,0,0,0,0,0,0,0,0,0,0,0,0,0,0,0,0,0,0,0,0,0,0,0,0,0,0],"sum_hessian":[5.87E2,1E2,4.87E2,7.7E1,2.3E1,6E0,4.81E2,1.8E1,5.9E1,1.2E1,1.1E1,2E0,4E0,1.4E2,3.41E2,1.2E1,6E0,2.4E1,3.5E1,1E1,2E0,9E0,2E0,1.6E1,1.24E2,8E0,3.33E2],"tree_param":{"num_deleted":"0","num_feature":"12","num_nodes":"27","size_leaf_vector":"1"}},{"base_weights":[-0E0,9.124094E-3,-1.9803394E-3,6.1412908E-2,2.602878E-4,2.5414063E-2,-2.6966997E-3,7.4202664E-2,-0E0,1.2756948E-3,-3.2042323E-3,-0E0,3.994365E-2,-6.5142107E-3,-7.494125E-4,2.489002E-3,-0E0,7.867468E-5,-1.825012E-4,-0E0,1.4319335E-3,-0E0,-2.1654202E-4,2.549938E-4,-7.191318E-5],"categories":[],"categories_nodes":[],"categories_segments":[],"categories_sizes":[],"default_left":[0,0,0,0,0,0,0,0,0,0,0,0,0,0,0,0,0,0,0,0,0,0,0,0,0],"id":26,"left_children":[1,3,5,7,9,11,13,15,-1,-1,17,-1,19,21,23,-1,-1,-1,-1,-1,-1,-1,-1,-1,-1],"loss_changes":[1.032589E-2,4.0627964E-2,7.393062E-3,1.15363E-2,1.7099578E-2,5.3555956E-3,2.8444086E-3,8.268401E-3,0E0,0E0,1.7208942E-3,0E0,2.50109E-3,8.284007E-4,4.5459378E-3,0E0,0E0,0E0,0E0,0E0,0E0,0E0,0E0,0E0,0E0],"parents":[2147483647,0,0,1,1,2,2,3,3,4,4,5,5,6,6,7,7,10,10,12,12,13,13,14,14],"right_children":[2,4,6,8,10,12,14,16,-1,-1,18,-1,20,22,24,-1,-1,-1,-1,-1,-1,-1,-1,-1,-1],"split_conditions":[-1.2192016E-1,2.9402263E0,5.230679E-1,2.25E1,1.1716704E1,1.732436E1,1.16693415E-2,2.2254347E1,-0E0,1.2756948E-3,1.436274E1,-0E0,-4.4125237E-2,1.223977E1,1.3013793E1,2.489002E-3,-0E0,7.867468E-5,-1.825012E-4,-0E0,1.4319335E-3,-0E0,-2.1654202E-4,2.549938E-4,-7.191318E-5],"split_indices":[4,0,0,9,6,6,4,6,0,0,6,0,4,10,9,0,0,0,0,0,0,0,0,0,0],"split_type":[0,0,0,0,0,0,0,0,0,0,0,0,0,0,0,0,0,0,0,0,0,0,0,0,0],"sum_hessian":[5.88E2,1E2,4.88E2,1.2E1,8.8E1,8E0,4.8E2,1E1,2E0,8E0,8E1,2E0,6E0,1.44E2,3.36E2,9E0,1E0,1.5E1,6.5E1,1E0,5E0,1.1E1,1.33E2,4.1E1,2.95E2],"tree_param":{"num_deleted":"0","num_feature":"12","num_nodes":"25","size_leaf_vector":"1"}},{"base_weights":[6.9056486E-4,8.10538E-3,-1.249296E-3,-8.659309E-5,5.199215E-2,9.603135E-3,-3.2103334E-3,2.58285E-2,-5.0727134E-3,1.20660536E-1,-1.26755815E-2,1.8683966E-3,2.3685726E-3,-5.0026337E-3,4.116931E-3,1.1567706E-3,-0E0,5.7098434E-5,-2.5712186E-4,-0E0,3.944655E-3,-0E0,-4.1340358E-4,5.311245E-4,-1.07885695E-4,-4.22614E-5,-1.9603221E-4,4.958221E-4,-3.4717134E-5],"categories":[],"categories_nodes":[],"categories_segments":[],"categories_sizes":[],"default_left":[0,0,0,0,0,0,0,0,0,0,0,0,0,0,0,0,0,0,0,0,0,0,0,0,0,0,0,0,0],"id":27,"left_children":[1,3,5,7,9,11,13,15,17,19,21,23,-1,25,27,-1,-1,-1,-1,-1,-1,-1,-1,-1,-1,-1,-1,-1,-1],"loss_changes":[9.23966E-3,5.3370636E-2,9.202561E-3,1.2527608E-2,1.14462405E-1,2.556352E-2,5.3490954E-3,7.834907E-3,3.074467E-3,1.5473902E-2,1.607642E-4,6.580078E-3,0E0,1.024167E-3,6.007078E-3,0E0,0E0,0E0,0E0,0E0,0E0,0E0,0E0,0E0,0E0,0E0,0E0,0E0,0E0],"parents":[2147483647,0,0,1,1,2,2,3,3,4,4,5,5,6,6,7,7,8,8,9,9,10,10,11,11,13,13,14,14],"right_children":[2,4,6,8,10,12,14,16,18,20,22,24,-1,26,28,-1,-1,-1,-1,-1,-1,-1,-1,-1,-1,-1,-1,-1,-1],"split_conditions":[1.5176991E1,1.4504319E1,1.7574468E0,1.172662E1,-8.6402864E-4,2.0954613E1,7.672414E1,8.687171E0,1.2636924E1,1E0,7.6603074E0,1.7465702E1,2.3685726E-3,3.4543896E0,2E0,1.1567706E-3,-0E0,5.7098434E-5,-2.5712186E-4,-0E0,3.944655E-3,-0E0,-4.1340358E-4,5.311245E-4,-1.07885695E-4,-4.22614E-5,-1.9603221E-4,4.958221E-4,-3.4717134E-5],"split_indices":[5,5,0,6,3,6,2,0,5,1,0,5,0,0,1,0,0,0,0,0,0,0,0,0,0,0,0,0,0],"split_type":[0,0,0,0,0,0,0,0,0,0,0,0,0,0,0,0,0,0,0,0,0,0,0,0,0,0,0,0,0],"sum_hessian":[5.93E2,1.33E2,4.6E2,1.11E2,2.2E1,6.2E1,3.98E2,1.4E1,9.7E1,1.1E1,1.1E1,5.8E1,4E0,3.31E2,6.7E1,1.1E1,3E0,2.3E1,7.4E1,1E0,1E1,1E0,1E1,1.9E1,3.9E1,1.19E2,2.12E2,2.5E1,4.2E1],"tree_param":{"num_deleted":"0","num_feature":"12","num_nodes":"29","size_leaf_vector":"1"}},{"base_weights":[2.235317E-4,-2.5130259E-2,8.285221E-4,-8.02266E-4,-0E0,5.906964E-3,-8.3415594E-4,4.28528E-2,-0E0,-1.1057642E-2,-0E0,5.2850903E-4,2.968724E-3,-1.8613931E-4,3.4463484E-4,-0E0,-4.0410453E-4,3.9392424E-5,-1.8949747E-4],"categories":[],"categories_nodes":[],"categories_segments":[],"categories_sizes":[],"default_left":[0,0,0,0,0,0,0,0,0,0,0,0,0,0,0,0,0,0,0],"id":28,"left_children":[1,3,5,-1,-1,7,9,11,13,15,17,-1,-1,-1,-1,-1,-1,-1,-1],"loss_changes":[6.686555E-3,1.2100814E-4,5.4433956E-3,0E0,0E0,3.8524836E-2,4.472169E-3,2.0579565E-2,9.293494E-3,1.7634323E-3,2.8466834E-3,0E0,0E0,0E0,0E0,0E0,0E0,0E0,0E0],"parents":[2147483647,0,0,1,1,2,2,5,5,6,6,7,7,8,8,9,9,10,10],"right_children":[2,4,6,-1,-1,8,10,12,14,16,18,-1,-1,-1,-1,-1,-1,-1,-1],"split_conditions":[1.1321128E1,1.465E1,1.436274E1,-8.02266E-4,-0E0,-1.3970065E-1,1.557316E1,1.445E1,2E0,1.47E1,2.299E1,5.2850903E-4,2.968724E-3,-1.8613931E-4,3.4463484E-4,-0E0,-4.0410453E-4,3.9392424E-5,-1.8949747E-4],"split_indices":[6,10,6,0,0,4,6,7,1,7,11,0,0,0,0,0,0,0,0],"split_type":[0,0,0,0,0,0,0,0,0,0,0,0,0,0,0,0,0,0,0],"sum_hessian":[5.92E2,9E0,5.83E2,8E0,1E0,1.58E2,4.25E2,2.3E1,1.35E2,3.8E1,3.87E2,1.8E1,5E0,9.3E1,4.2E1,3E0,3.5E1,3.31E2,5.6E1],"tree_param":{"num_deleted":"0","num_feature":"12","num_nodes":"19","size_leaf_vector":"1"}},{"base_weights":[5.134245E-4,9.540601E-3,-1.1359204E-3,3.7378155E-2,-0E0,2.193015E-2,-1.6771399E-3,-2.3332536E-3,7.88519E-2,1.2104884E-3,-3.7973225E-3,3.2395586E-2,-0E0,-5.6610047E-3,-0E0,-1.7895486E-4,-0E0,3.17559E-3,-0E0,-0E0,-2.560203E-4,-0E0,1.2103509E-3,-0E0,-2.0004185E-4,-4.202258E-4,3.1853608E-5],"categories":[],"categories_nodes":[],"categories_segments":[],"categories_sizes":[],"default_left":[0,0,0,0,0,0,0,0,0,0,0,0,0,0,0,0,0,0,0,0,0,0,0,0,0,0,0],"id":29,"left_children":[1,3,5,7,9,11,13,15,17,-1,19,21,-1,23,25,-1,-1,-1,-1,-1,-1,-1,-1,-1,-1,-1,-1],"loss_changes":[9.576217E-3,2.4428727E-2,4.0910933E-3,4.7363393E-2,1.4034105E-2,2.9303231E-3,3.069526E-3,1.8375323E-4,3.1219482E-2,0E0,1.1026745E-3,1.8417644E-3,0E0,1.0464722E-3,5.461119E-3,0E0,0E0,0E0,0E0,0E0,0E0,0E0,0E0,0E0,0E0,0E0,0E0],"parents":[2147483647,0,0,1,1,2,2,3,3,4,4,5,5,6,6,7,7,8,8,10,10,11,11,13,13,14,14],"right_children":[2,4,6,8,10,12,14,16,18,-1,20,22,-1,24,26,-1,-1,-1,-1,-1,-1,-1,-1,-1,-1,-1,-1],"split_conditions":[-1.17746815E-1,3.4460545E0,5.230679E-1,3.7499996E1,1.1716704E1,1E0,1.16693415E-2,1.6329885E1,2.2254347E1,1.2104884E-3,3.8095234E1,4.2307686E1,-0E0,1.2037406E1,1.1929462E1,-1.7895486E-4,-0E0,3.17559E-3,-0E0,-0E0,-2.560203E-4,-0E0,1.2103509E-3,-0E0,-2.0004185E-4,-4.202258E-4,3.1853608E-5],"split_indices":[4,0,0,2,6,1,4,5,6,0,2,2,0,6,6,0,0,0,0,0,0,0,0,0,0,0,0],"split_type":[0,0,0,0,0,0,0,0,0,0,0,0,0,0,0,0,0,0,0,0,0,0,0,0,0,0,0],"sum_hessian":[5.85E2,9.9E1,4.86E2,2.3E1,7.6E1,6E0,4.8E2,1.1E1,1.2E1,7E0,6.9E1,5E0,1E0,1.37E2,3.43E2,6E0,5E0,9E0,3E0,4.1E1,2.8E1,1E0,4E0,1.5E1,1.22E2,2.5E1,3.18E2],"tree_param":{"num_deleted":"0","num_feature":"12","num_nodes":"27","size_leaf_vector":"1"}},{"base_weights":[-3.387827E-4,1.0964515E-2,-2.6502726E-3,-0E0,4.5535762E-2,-5.0253463E-3,-0E0,7.263759E-4,-6.997998E-3,7.093597E-2,5.8908854E-3,4.256951E-3,-6.035684E-3,-2.374972E-3,9.031748E-3,-0E0,-2.5171982E-4,-0E0,2.3252566E-3,-0E0,6.197019E-4,-0E0,2.7523885E-4,-4.1823334E-4,-1.2418251E-4,-0E0,-2.8234711E-4,7.943704E-4,-0E0],"categories":[],"categories_nodes":[],"categories_segments":[],"categories_sizes":[],"default_left":[0,0,0,0,0,0,0,0,0,0,0,0,0,0,0,0,0,0,0,0,0,0,0,0,0,0,0,0,0],"id":30,"left_children":[1,3,5,7,9,11,13,-1,15,17,19,21,23,25,27,-1,-1,-1,-1,-1,-1,-1,-1,-1,-1,-1,-1,-1,-1],"loss_changes":[1.4456068E-2,3.8703844E-2,3.0022464E-3,1.0412609E-2,1.6067151E-2,2.6044007E-3,4.992813E-3,0E0,7.287564E-4,6.6760555E-3,2.5704731E-3,4.6761823E-4,1.7470224E-3,2.4657724E-3,9.4061475E-3,0E0,0E0,0E0,0E0,0E0,0E0,0E0,0E0,0E0,0E0,0E0,0E0,0E0,0E0],"parents":[2147483647,0,0,1,1,2,2,3,3,4,4,5,5,6,6,8,8,9,9,10,10,11,11,12,12,13,13,14,14],"right_children":[2,4,6,8,10,12,14,-1,16,18,20,22,24,26,28,-1,-1,-1,-1,-1,-1,-1,-1,-1,-1,-1,-1,-1,-1],"split_conditions":[-1.2192016E-1,-1.2814985E-1,1.732436E1,1.1827802E1,4.6874992E1,1.2498725E1,7.36842E1,7.263759E-4,1.47E1,1.2445788E1,-1.15137346E-1,1.2214252E1,1.2090407E1,2.353554E1,2.2731026E1,-0E0,-2.5171982E-4,-0E0,2.3252566E-3,-0E0,6.197019E-4,-0E0,2.7523885E-4,-4.1823334E-4,-1.2418251E-4,-0E0,-2.8234711E-4,7.943704E-4,-0E0],"split_indices":[4,3,6,6,2,5,2,0,7,5,3,8,6,5,5,0,0,0,0,0,0,0,0,0,0,0,0,0,0],"split_type":[0,0,0,0,0,0,0,0,0,0,0,0,0,0,0,0,0,0,0,0,0,0,0,0,0,0,0,0,0],"sum_hessian":[5.83E2,9.1E1,4.92E2,6.8E1,2.3E1,2.55E2,2.37E2,1.2E1,5.6E1,1.2E1,1.1E1,1.5E1,2.4E2,1.9E2,4.7E1,7E0,4.9E1,1E0,1.1E1,5E0,6E0,7E0,8E0,3.5E1,2.05E2,1.51E2,3.9E1,1.8E1,2.9E1],"tree_param":{"num_deleted":"0","num_feature":"12","num_nodes":"29","size_leaf_vector":"1"}},{"base_weights":[-0E0,1.4628822E-2,-5.202011E-4,-0E0,1.1457969E-3,2.4422674E-2,-9.756619E-4,1.1236458E-3,-0E0,-7.625571E-3,-0E0,-4.8593394E-4,-5.752381E-6,2.1574664E-4,-3.6507266E-5],"categories":[],"categories_nodes":[],"categories_segments":[],"categories_sizes":[],"default_left":[0,0,0,0,0,0,0,0,0,0,0,0,0,0,0],"id":31,"left_children":[1,3,5,-1,-1,7,9,-1,-1,11,13,-1,-1,-1,-1],"loss_changes":[5.7134395E-3,7.5644418E-3,3.9501237E-3,0E0,0E0,3.4355316E-3,3.1427098E-3,0E0,0E0,2.3725794E-3,3.9349073E-3,0E0,0E0,0E0,0E0],"parents":[2147483647,0,0,1,1,2,2,5,5,6,6,9,9,10,10],"right_children":[2,4,6,-1,-1,8,10,-1,-1,12,14,-1,-1,-1,-1],"split_conditions":[1.2205747E1,4.1059E0,4.3312815E-1,-0E0,1.1457969E-3,1E0,1.9339071E1,1.1236458E-3,-0E0,1.56E1,1.3013793E1,-4.8593394E-4,-5.752381E-6,2.1574664E-4,-3.6507266E-5],"split_indices":[10,0,0,0,0,1,2,0,0,7,9,0,0,0,0],"split_type":[0,0,0,0,0,0,0,0,0,0,0,0,0,0,0],"sum_hessian":[5.76E2,2.5E1,5.51E2,1.7E1,8E0,5E0,5.46E2,4E0,1E0,6.2E1,4.84E2,2.2E1,4E1,6.3E1,4.21E2],"tree_param":{"num_deleted":"0","num_feature":"12","num_nodes":"15","size_leaf_vector":"1"}},{"base_weights":[5.870503E-4,-2.4370216E-2,1.1253033E-3,-0E0,-2.8143235E-2,1.0103851E-2,-3.1808927E-4,-0E0,-9.1650354E-4,-0E0,2.1629266E-2,-4.8838444E-3,1.8030386E-3,1.1278481E-4,-1.317317E-4,1.8369753E-3,-0E0,-3.911218E-4,-4.7838945E-5,6.138518E-4,-0E0],"categories":[],"categories_nodes":[],"categories_segments":[],"categories_sizes":[],"default_left":[0,0,0,0,0,0,0,0,0,0,0,0,0,0,0,0,0,0,0,0,0],"id":32,"left_children":[1,3,5,-1,7,9,11,-1,-1,13,15,17,19,-1,-1,-1,-1,-1,-1,-1,-1],"loss_changes":[5.8972607E-3,1.9912561E-4,8.78345E-3,0E0,5.5565964E-5,1.1090142E-2,5.256007E-3,0E0,0E0,8.49513E-4,3.9406423E-2,3.2629282E-3,1.147465E-2,0E0,0E0,0E0,0E0,0E0,0E0,0E0,0E0],"parents":[2147483647,0,0,1,1,2,2,4,4,5,5,6,6,9,9,10,10,11,11,12,12],"right_children":[2,4,6,-1,8,10,12,-1,-1,14,16,18,20,-1,-1,-1,-1,-1,-1,-1,-1],"split_conditions":[1.1321128E1,1.36E1,1.24500885E1,-0E0,2.1443635E-1,1.3235686E1,4.1830063E1,-0E0,-9.1650354E-4,1.2636924E1,-8.6402864E-4,1.59E1,-1.17746815E-1,1.1278481E-4,-1.317317E-4,1.8369753E-3,-0E0,-3.911218E-4,-4.7838945E-5,6.138518E-4,-0E0],"split_indices":[6,7,6,0,3,5,2,0,0,5,3,9,4,0,0,0,0,0,0,0,0],"split_type":[0,0,0,0,0,0,0,0,0,0,0,0,0,0,0,0,0,0,0,0,0],"sum_hessian":[6.09E2,8E0,6.01E2,2E0,6E0,9.2E1,5.09E2,1E0,5E0,4.9E1,4.3E1,1.76E2,3.33E2,2.5E1,2.4E1,1.5E1,2.8E1,4.1E1,1.35E2,2.9E1,3.04E2],"tree_param":{"num_deleted":"0","num_feature":"12","num_nodes":"21","size_leaf_vector":"1"}},{"base_weights":[1.0906602E-3,9.592149E-3,-2.0111444E-4,2.9337166E-2,-0E0,-1.0977859E-2,5.9976906E-4,8.491897E-4,3.5095464E-3,5.2260826E-3,-9.33176E-3,-4.883623E-4,-0E0,6.9640666E-2,-1.0144508E-4,6.3961645E-4,-1.4470716E-4,-0E0,2.615122E-4,-3.20129E-4,-0E0,2.4936446E-3,-0E0,2.884844E-4,-6.650091E-5],"categories":[],"categories_nodes":[],"categories_segments":[],"categories_sizes":[],"default_left":[0,0,0,0,0,0,0,0,0,0,0,0,0,0,0,0,0,0,0,0,0,0,0,0,0],"id":33,"left_children":[1,3,5,7,9,11,13,15,-1,17,19,-1,-1,21,23,-1,-1,-1,-1,-1,-1,-1,-1,-1,-1],"loss_changes":[7.332561E-3,1.6093928E-2,5.3253276E-3,5.803062E-2,2.9211943E-3,2.237855E-3,2.894024E-2,4.4235094E-3,0E0,1.4151058E-3,3.3480464E-4,0E0,0E0,5.4469723E-3,8.510636E-3,0E0,0E0,0E0,0E0,0E0,0E0,0E0,0E0,0E0,0E0],"parents":[2147483647,0,0,1,1,2,2,3,3,4,4,5,5,6,6,7,7,9,9,10,10,13,13,14,14],"right_children":[2,4,6,8,10,12,14,16,-1,18,20,-1,-1,22,24,-1,-1,-1,-1,-1,-1,-1,-1,-1,-1],"split_conditions":[1.24500885E1,3.666665E1,1.454E1,1.292023E1,1.3013793E1,7.760511E-2,1.5176991E1,1.1827802E1,3.5095464E-3,4.9438194E1,1.598E1,-4.883623E-4,-0E0,3.4460545E0,1.7574468E0,6.3961645E-4,-1.4470716E-4,-0E0,2.615122E-4,-3.20129E-4,-0E0,2.4936446E-3,-0E0,2.884844E-4,-6.650091E-5],"split_indices":[6,2,10,7,10,3,5,6,0,2,8,0,0,0,0,0,0,0,0,0,0,0,0,0,0],"split_type":[0,0,0,0,0,0,0,0,0,0,0,0,0,0,0,0,0,0,0,0,0,0,0,0,0],"sum_hessian":[5.81E2,8.6E1,4.95E2,2.7E1,5.9E1,4.2E1,4.53E2,2.2E1,5E0,3.9E1,2E1,2.7E1,1.5E1,5E0,4.48E2,8E0,1.4E1,7E0,3.2E1,1.8E1,2E0,4E0,1E0,7.1E1,3.77E2],"tree_param":{"num_deleted":"0","num_feature":"12","num_nodes":"25","size_leaf_vector":"1"}},{"base_weights":[9.0917293E-4,9.51016E-3,-4.508211E-4,5.081262E-2,-9.978304E-4,2.2695933E-2,-1.0895554E-3,-0E0,8.37881E-2,1.5519641E-2,-6.7916336E-3,-0E0,3.664398E-2,5.7692993E-3,-2.4517544E-3,3.0575667E-3,-0E0,6.987189E-4,-0E0,-0E0,-2.330493E-4,-0E0,1.3205573E-3,-7.674071E-5,1.1035228E-3,-1.7876897E-4,2.6475009E-5],"categories":[],"categories_nodes":[],"categories_segments":[],"categories_sizes":[],"default_left":[0,0,0,0,0,0,0,0,0,0,0,0,0,0,0,0,0,0,0,0,0,0,0,0,0,0,0],"id":34,"left_children":[1,3,5,7,9,11,13,-1,15,17,19,-1,21,23,25,-1,-1,-1,-1,-1,-1,-1,-1,-1,-1,-1,-1],"loss_changes":[7.6712556E-3,4.3658704E-2,5.108558E-3,3.962735E-2,5.931532E-3,4.76352E-3,4.1857767E-3,0E0,2.2996262E-2,2.5949585E-3,3.2778713E-4,0E0,2.2263434E-3,2.1079075E-2,5.3658895E-3,0E0,0E0,0E0,0E0,0E0,0E0,0E0,0E0,0E0,0E0,0E0,0E0],"parents":[2147483647,0,0,1,1,2,2,3,3,4,4,5,5,6,6,8,8,9,9,10,10,12,12,13,13,14,14],"right_children":[2,4,6,8,10,12,14,-1,16,18,20,-1,22,24,26,-1,-1,-1,-1,-1,-1,-1,-1,-1,-1,-1,-1],"split_conditions":[-1.17746815E-1,3.4460545E0,5.230679E-1,-1.3155818E-1,1.1827802E1,1.732436E1,1.24500885E1,-0E0,5.0344822E1,-1.3442604E-1,-2.4048059E-1,-0E0,4.2307686E1,1.2250961E1,1.0085345E-1,3.0575667E-3,-0E0,6.987189E-4,-0E0,-0E0,-2.330493E-4,-0E0,1.3205573E-3,-7.674071E-5,1.1035228E-3,-1.7876897E-4,2.6475009E-5],"split_indices":[4,0,0,3,6,6,6,0,2,3,3,0,2,6,3,0,0,0,0,0,0,0,0,0,0,0,0],"split_type":[0,0,0,0,0,0,0,0,0,0,0,0,0,0,0,0,0,0,0,0,0,0,0,0,0,0,0],"sum_hessian":[5.77E2,8.8E1,4.89E2,1.9E1,6.9E1,8E0,4.81E2,7E0,1.2E1,1.3E1,5.6E1,2E0,6E0,6.7E1,4.14E2,1E1,2E0,1E1,3E0,8E0,4.8E1,1E0,5E0,5.1E1,1.6E1,2.16E2,1.98E2],"tree_param":{"num_deleted":"0","num_feature":"12","num_nodes":"27","size_leaf_vector":"1"}},{"base_weights":[-2.7433404E-4,-2.0962853E-2,5.652589E-5,-0E0,-2.2685127E-2,1.0642637E-2,-1.5262052E-3,-7.240368E-4,-0E0,-0E0,3.8786754E-2,2.1962289E-2,-2.166433E-3,-9.736579E-5,1.0884788E-4,2.6557443E-3,-0E0,-0E0,1.0710217E-3,-1.3462747E-4,3.388465E-5],"categories":[],"categories_nodes":[],"categories_segments":[],"categories_sizes":[],"default_left":[0,0,0,0,0,0,0,0,0,0,0,0,0,0,0,0,0,0,0,0,0],"id":35,"left_children":[1,3,5,-1,7,9,11,-1,-1,13,15,17,19,-1,-1,-1,-1,-1,-1,-1,-1],"loss_changes":[6.1098337E-3,5.378183E-4,1.0545236E-2,0E0,2.997294E-4,2.520043E-2,5.4666833E-3,0E0,0E0,7.267371E-4,5.1601578E-2,4.580712E-3,4.043636E-3,0E0,0E0,0E0,0E0,0E0,0E0,0E0,0E0],"parents":[2147483647,0,0,1,1,2,2,4,4,5,5,6,6,9,9,10,10,11,11,12,12],"right_children":[2,4,6,-1,8,10,12,-1,-1,14,16,18,20,-1,-1,-1,-1,-1,-1,-1,-1],"split_conditions":[1.1499278E1,8.800514E0,1.24500885E1,-0E0,1.598E1,6.300384E0,5.230679E-1,-7.240368E-4,-0E0,-3.0753545E-2,-8.6402864E-4,1.732436E1,1.8765661E1,-9.736579E-5,1.0884788E-4,2.6557443E-3,-0E0,-0E0,1.0710217E-3,-1.3462747E-4,3.388465E-5],"split_indices":[6,0,6,0,8,0,0,0,0,3,3,6,5,0,0,0,0,0,0,0,0],"split_type":[0,0,0,0,0,0,0,0,0,0,0,0,0,0,0,0,0,0,0,0,0],"sum_hessian":[5.86E2,1.3E1,5.73E2,1E0,1.2E1,8.2E1,4.91E2,1.1E1,1E0,6E1,2.2E1,8E0,4.83E2,3.3E1,2.7E1,1E1,1.2E1,2E0,6E0,3.01E2,1.82E2],"tree_param":{"num_deleted":"0","num_feature":"12","num_nodes":"21","size_leaf_vector":"1"}},{"base_weights":[6.2510674E-4,1.8093822E-3,-7.499912E-3,-0E0,1.9914588E-2,-1.0036516E-2,-0E0,4.2923884E-3,-2.8202003E-3,4.197574E-2,-0E0,-1.0824062E-2,-0E0,-1.21457284E-4,5.2116625E-4,6.7379157E-4,-1.1008648E-4,-0E0,1.5359961E-3,-0E0,1.2222587E-4,-3.4832905E-4,-0E0],"categories":[],"categories_nodes":[],"categories_segments":[],"categories_sizes":[],"default_left":[0,0,0,0,0,0,0,0,0,0,0,0,0,0,0,0,0,0,0,0,0,0,0],"id":36,"left_children":[1,3,5,7,9,11,-1,13,15,17,19,21,-1,-1,-1,-1,-1,-1,-1,-1,-1,-1,-1],"loss_changes":[5.083162E-3,1.8910492E-2,8.3227735E-4,5.594456E-3,1.990242E-2,3.713807E-4,0E0,2.0494903E-2,4.6019014E-3,1.1903394E-2,1.9918884E-4,3.193817E-4,0E0,0E0,0E0,0E0,0E0,0E0,0E0,0E0,0E0,0E0,0E0],"parents":[2147483647,0,0,1,1,2,2,3,3,4,4,5,5,7,7,8,8,9,9,10,10,11,11],"right_children":[2,4,6,8,10,12,-1,14,16,18,20,22,-1,-1,-1,-1,-1,-1,-1,-1,-1,-1,-1],"split_conditions":[2.353554E1,1.93E1,7.884613E1,1.6159466E1,2.2747654E1,2.638E1,-0E0,1.3340235E1,5.230679E-1,-1.3353603E-1,2.288E1,8.431418E-1,-0E0,-1.21457284E-4,5.2116625E-4,6.7379157E-4,-1.1008648E-4,-0E0,1.5359961E-3,-0E0,1.2222587E-4,-3.4832905E-4,-0E0],"split_indices":[5,7,2,5,5,10,0,5,0,4,7,3,0,0,0,0,0,0,0,0,0,0,0],"split_type":[0,0,0,0,0,0,0,0,0,0,0,0,0,0,0,0,0,0,0,0,0,0,0],"sum_hessian":[5.85E2,5.22E2,6.3E1,4.71E2,5.1E1,4.3E1,2E1,1.74E2,2.97E2,2.2E1,2.9E1,4E1,3E0,1.02E2,7.2E1,5E0,2.92E2,3E0,1.9E1,1.8E1,1.1E1,3.7E1,3E0],"tree_param":{"num_deleted":"0","num_feature":"12","num_nodes":"23","size_leaf_vector":"1"}},{"base_weights":[7.0521986E-5,6.9019757E-3,-1.1704165E-3,-0E0,4.667651E-2,-2.4818925E-2,-5.717391E-4,1.1486016E-2,-4.901307E-3,2.6183082E-3,-0E0,-0E0,-2.7057618E-2,7.596388E-3,-2.1151586E-3,-0E0,9.1028697E-4,1.371199E-4,-2.0937667E-4,-0E0,6.773718E-4,-0E0,-8.785974E-4,-0E0,1.148688E-3,-1.1637161E-4,1.3091728E-4],"categories":[],"categories_nodes":[],"categories_segments":[],"categories_sizes":[],"default_left":[0,0,0,0,0,0,0,0,0,0,0,0,0,0,0,0,0,0,0,0,0,0,0,0,0,0,0],"id":37,"left_children":[1,3,5,7,9,11,13,15,17,-1,19,-1,21,23,25,-1,-1,-1,-1,-1,-1,-1,-1,-1,-1,-1,-1],"loss_changes":[5.6252945E-3,3.2083567E-2,4.412394E-3,4.511957E-3,2.3900278E-2,1.9697007E-4,5.582265E-3,6.3044867E-3,1.5914462E-3,0E0,1.529442E-3,0E0,2.1419954E-5,1.8125163E-2,4.7569405E-3,0E0,0E0,0E0,0E0,0E0,0E0,0E0,0E0,0E0,0E0,0E0,0E0],"parents":[2147483647,0,0,1,1,2,2,3,3,4,4,5,5,6,6,7,7,8,8,10,10,12,12,13,13,14,14],"right_children":[2,4,6,8,10,12,14,16,18,-1,20,-1,22,24,26,-1,-1,-1,-1,-1,-1,-1,-1,-1,-1,-1,-1],"split_conditions":[-1.17746815E-1,-1.1907866E-1,1.1321128E1,1.436274E1,2.9402263E0,1.36E1,1.24500885E1,1.2857922E1,1.7536691E0,2.6183082E-3,6.2106485E0,-0E0,9.485439E0,1.2250961E1,7.499995E1,-0E0,9.1028697E-4,1.371199E-4,-2.0937667E-4,-0E0,6.773718E-4,-0E0,-8.785974E-4,-0E0,1.148688E-3,-1.1637161E-4,1.3091728E-4],"split_indices":[4,3,6,6,0,7,6,5,0,0,0,0,0,6,2,0,0,0,0,0,0,0,0,0,0,0,0],"split_type":[0,0,0,0,0,0,0,0,0,0,0,0,0,0,0,0,0,0,0,0,0,0,0,0,0,0,0],"sum_hessian":[5.94E2,1.03E2,4.91E2,8.7E1,1.6E1,7E0,4.84E2,2.1E1,6.6E1,7E0,9E0,1E0,6E0,6.6E1,4.18E2,1.2E1,9E0,3E0,6.3E1,7E0,2E0,1E0,5E0,5.2E1,1.4E1,3.41E2,7.7E1],"tree_param":{"num_deleted":"0","num_feature":"12","num_nodes":"27","size_leaf_vector":"1"}},{"base_weights":[-0E0,-2.1465039E-2,2.4739464E-4,-0E0,-7.5013074E-4,5.058428E-3,-1.2237636E-3,-1.1410121E-3,1.8806227E-2,-6.451601E-3,8.8004983E-4,1.7919508E-4,-2.1631684E-4,-1.0052894E-4,1.0765257E-3,-0E0,-2.3418023E-4,9.8021264E-5,-1.6973059E-4],"categories":[],"categories_nodes":[],"categories_segments":[],"categories_sizes":[],"default_left":[0,0,0,0,0,0,0,0,0,0,0,0,0,0,0,0,0,0,0],"id":38,"left_children":[1,3,5,-1,-1,7,9,11,13,15,17,-1,-1,-1,-1,-1,-1,-1,-1],"loss_changes":[5.10348E-3,5.5873534E-4,4.4664647E-3,0E0,0E0,1.4657506E-2,5.2481494E-3,4.4847964E-3,2.3050351E-2,1.407566E-3,4.321297E-3,0E0,0E0,0E0,0E0,0E0,0E0,0E0,0E0],"parents":[2147483647,0,0,1,1,2,2,5,5,6,6,7,7,8,8,9,9,10,10],"right_children":[2,4,6,-1,-1,8,10,12,14,16,18,-1,-1,-1,-1,-1,-1,-1,-1],"split_conditions":[1.1365877E1,1.359E1,1.6150232E1,-0E0,-7.5013074E-4,1.3440422E1,1.7240255E1,1.2029992E1,-1.9786236E-1,1.4313864E1,2.346086E1,1.7919508E-4,-2.1631684E-4,-1.0052894E-4,1.0765257E-3,-0E0,-2.3418023E-4,9.8021264E-5,-1.6973059E-4],"split_indices":[6,7,5,0,0,5,6,6,4,6,5,0,0,0,0,0,0,0,0],"split_type":[0,0,0,0,0,0,0,0,0,0,0,0,0,0,0,0,0,0,0],"sum_hessian":[5.85E2,1E1,5.75E2,2E0,8E0,1.5E2,4.25E2,9.9E1,5.1E1,1.35E2,2.9E2,3.8E1,6.1E1,2E1,3.1E1,2E1,1.15E2,2.24E2,6.6E1],"tree_param":{"num_deleted":"0","num_feature":"12","num_nodes":"19","size_leaf_vector":"1"}},{"base_weights":[-0E0,6.463985E-3,-1.1929121E-3,-3.864155E-4,4.500921E-2,-8.085162E-4,-6.487872E-4,1.6592355E-2,-4.6590753E-3,2.5359965E-3,-0E0,5.242314E-3,-1.8716956E-3,5.9691234E-4,-0E0,1.3681226E-4,-1.981041E-4,-0E0,6.602405E-4,5.119756E-4,-1.3279078E-4,-4.1203166E-4,-2.5711784E-5],"categories":[],"categories_nodes":[],"categories_segments":[],"categories_sizes":[],"default_left":[0,0,0,0,0,0,0,0,0,0,0,0,0,0,0,0,0,0,0,0,0,0,0],"id":39,"left_children":[1,3,5,7,9,-1,11,13,15,-1,17,19,21,-1,-1,-1,-1,-1,-1,-1,-1,-1,-1],"loss_changes":[4.770688E-3,3.0356595E-2,3.8798815E-3,4.832627E-3,2.2727825E-2,0E0,3.0587607E-3,1.0511565E-3,1.5071891E-3,0E0,1.4530583E-3,8.998793E-3,3.391756E-3,0E0,0E0,0E0,0E0,0E0,0E0,0E0,0E0,0E0,0E0],"parents":[2147483647,0,0,1,1,2,2,3,3,4,4,6,6,7,7,8,8,10,10,11,11,12,12],"right_children":[2,4,6,8,10,-1,12,14,16,-1,18,20,22,-1,-1,-1,-1,-1,-1,-1,-1,-1,-1],"split_conditions":[-1.17746815E-1,-1.1907866E-1,1.1095603E1,1.1827802E1,2.9402263E0,-8.085162E-4,1.24500885E1,-1.3442604E-1,1.7536691E0,2.5359965E-3,6.2106485E0,1.170716E-1,1.3013793E1,5.9691234E-4,-0E0,1.3681226E-4,-1.981041E-4,-0E0,6.602405E-4,5.119756E-4,-1.3279078E-4,-4.1203166E-4,-2.5711784E-5],"split_indices":[4,3,6,6,0,0,6,3,0,0,0,3,7,0,0,0,0,0,0,0,0,0,0],"split_type":[0,0,0,0,0,0,0,0,0,0,0,0,0,0,0,0,0,0,0,0,0,0,0],"sum_hessian":[5.71E2,9.7E1,4.74E2,8.1E1,1.6E1,5E0,4.69E2,1.1E1,7E1,7E0,9E0,6.6E1,4.03E2,1E1,1E0,3E0,6.7E1,7E0,2E0,3.4E1,3.2E1,2.3E1,3.8E2],"tree_param":{"num_deleted":"0","num_feature":"12","num_nodes":"23","size_leaf_vector":"1"}},{"base_weights":[4.9388676E-4,7.5921807E-3,-7.321803E-4,4.2424407E-2,-0E0,-0E0,-7.84741E-3,-0E0,7.585594E-2,1.3742093E-2,-4.317187E-3,-1.3791568E-3,1.2350124E-2,-0E0,-1.0495652E-2,2.830974E-3,-0E0,-0E0,7.935401E-4,-0E0,-1.6156444E-4,-8.370826E-5,1.387859E-4,5.4635387E-4,-0E0,-3.319452E-4,-0E0],"categories":[],"categories_nodes":[],"categories_segments":[],"categories_sizes":[],"default_left":[0,0,0,0,0,0,0,0,0,0,0,0,0,0,0,0,0,0,0,0,0,0,0,0,0,0,0],"id":40,"left_children":[1,3,5,7,9,11,13,-1,15,17,19,21,23,-1,25,-1,-1,-1,-1,-1,-1,-1,-1,-1,-1,-1,-1],"loss_changes":[5.826319E-3,3.0290125E-2,2.6921732E-3,3.305288E-2,3.8925845E-3,7.7770054E-3,1.1199438E-3,0E0,1.9999571E-2,2.2538807E-3,3.7543813E-4,3.2190229E-3,4.592258E-3,0E0,2.0920206E-4,0E0,0E0,0E0,0E0,0E0,0E0,0E0,0E0,0E0,0E0,0E0,0E0],"parents":[2147483647,0,0,1,1,2,2,3,3,4,4,5,5,6,6,8,8,9,9,10,10,11,11,12,12,14,14],"right_children":[2,4,6,8,10,12,14,-1,16,18,20,22,24,-1,26,-1,-1,-1,-1,-1,-1,-1,-1,-1,-1,-1,-1],"split_conditions":[-1.17746815E-1,3.4460545E0,2.4065512E1,3.823529E1,1.1827802E1,1.91E1,2.0397978E1,-0E0,2.2254347E1,3.8743925E0,1.47E1,1.1450725E1,5.602475E-1,-0E0,2.638E1,2.830974E-3,-0E0,-0E0,7.935401E-4,-0E0,-1.6156444E-4,-8.370826E-5,1.387859E-4,5.4635387E-4,-0E0,-3.319452E-4,-0E0],"split_indices":[4,0,5,2,6,8,6,0,6,0,8,0,4,0,11,0,0,0,0,0,0,0,0,0,0,0,0],"split_type":[0,0,0,0,0,0,0,0,0,0,0,0,0,0,0,0,0,0,0,0,0,0,0,0,0,0,0],"sum_hessian":[5.89E2,9.8E1,4.91E2,1.9E1,7.9E1,4.44E2,4.7E1,8E0,1.1E1,1.3E1,6.6E1,3.99E2,4.5E1,1.1E1,3.6E1,9E0,2E0,7E0,6E0,1.1E1,5.5E1,3.37E2,6.2E1,3.4E1,1.1E1,3.4E1,2E0],"tree_param":{"num_deleted":"0","num_feature":"12","num_nodes":"27","size_leaf_vector":"1"}},{"base_weights":[-1.1560748E-5,6.3824384E-3,-1.4781388E-3,-1.5237114E-3,4.2934276E-2,-6.6509405E-3,-1.5408875E-4,8.360868E-3,-5.2834004E-3,2.5009818E-3,-0E0,-1.2584027E-2,-1.0283717E-4,2.2576893E-2,-8.763804E-4,-0E0,5.0447875E-4,1.1250164E-4,-2.2392721E-4,-0E0,6.311649E-4,-0E0,-4.1668906E-4,-0E0,-9.921394E-5,-0E0,2.1406715E-3,3.2666845E-5,-2.2502017E-4],"categories":[],"categories_nodes":[],"categories_segments":[],"categories_sizes":[],"default_left":[0,0,0,0,0,0,0,0,0,0,0,0,0,0,0,0,0,0,0,0,0,0,0,0,0,0,0,0,0],"id":41,"left_children":[1,3,5,7,9,11,13,15,17,-1,19,21,23,25,27,-1,-1,-1,-1,-1,-1,-1,-1,-1,-1,-1,-1,-1,-1],"loss_changes":[4.873442E-3,3.1370997E-2,2.5923178E-3,2.5608111E-3,2.7525403E-2,1.9157573E-3,4.367839E-3,7.1800104E-4,1.6405429E-3,0E0,1.3278971E-3,4.380606E-4,1.8542337E-4,1.1197187E-2,5.7265824E-3,0E0,0E0,0E0,0E0,0E0,0E0,0E0,0E0,0E0,0E0,0E0,0E0,0E0,0E0],"parents":[2147483647,0,0,1,1,2,2,3,3,4,4,5,5,6,6,7,7,8,8,10,10,11,11,12,12,13,13,14,14],"right_children":[2,4,6,8,10,12,14,16,18,-1,20,22,24,26,28,-1,-1,-1,-1,-1,-1,-1,-1,-1,-1,-1,-1,-1,-1],"split_conditions":[-1.17746815E-1,-1.1907866E-1,-5.524096E-2,1.2205747E1,3.1607373E0,1.6975964E1,-4.5967624E-2,4.313503E0,1.7536691E0,2.5009818E-3,6.2106485E0,1.2231264E1,-4.9699135E-2,6.5476284E0,2E0,-0E0,5.0447875E-4,1.1250164E-4,-2.2392721E-4,-0E0,6.311649E-4,-0E0,-4.1668906E-4,-0E0,-9.921394E-5,-0E0,2.1406715E-3,3.2666845E-5,-2.2502017E-4],"split_indices":[4,3,3,9,0,5,3,0,0,0,0,7,4,0,1,0,0,0,0,0,0,0,0,0,0,0,0,0,0],"split_type":[0,0,0,0,0,0,0,0,0,0,0,0,0,0,0,0,0,0,0,0,0,0,0,0,0,0,0,0,0],"sum_hessian":[5.7E2,9.3E1,4.77E2,7.5E1,1.8E1,8.1E1,3.96E2,1.3E1,6.2E1,8E0,1E1,3.4E1,4.7E1,7E0,3.89E2,8E0,5E0,3E0,5.9E1,8E0,2E0,4E0,3E1,3.1E1,1.6E1,5E0,2E0,2.89E2,1E2],"tree_param":{"num_deleted":"0","num_feature":"12","num_nodes":"29","size_leaf_vector":"1"}},{"base_weights":[-6.723942E-7,-2.1931836E-2,1.6868614E-4,-0E0,-7.120625E-4,8.270159E-3,-8.8137825E-4,1.2527868E-3,5.004E-2,-9.476165E-3,-0E0,4.2577696E-4,-6.564442E-6,2.9769144E-3,-0E0,-4.6077522E-4,-0E0,8.064551E-4,-1.9795507E-5],"categories":[],"categories_nodes":[],"categories_segments":[],"categories_sizes":[],"default_left":[0,0,0,0,0,0,0,0,0,0,0,0,0,0,0,0,0,0,0],"id":42,"left_children":[1,3,5,-1,-1,7,9,11,13,15,17,-1,-1,-1,-1,-1,-1,-1,-1],"loss_changes":[4.3454105E-3,1.7791055E-4,5.637732E-3,0E0,0E0,1.7377852E-2,4.3716417E-3,2.7143925E-3,2.669743E-2,2.553753E-3,9.583631E-3,0E0,0E0,0E0,0E0,0E0,0E0,0E0,0E0],"parents":[2147483647,0,0,1,1,2,2,5,5,6,6,7,7,8,8,9,9,10,10],"right_children":[2,4,6,-1,-1,8,10,12,14,16,18,-1,-1,-1,-1,-1,-1,-1,-1],"split_conditions":[1.1321128E1,1.36E1,1.2390175E1,-0E0,-7.120625E-4,1.2250961E1,1.454E1,1.1716704E1,3.666665E1,7.0104174E-2,1.487E1,4.2577696E-4,-6.564442E-6,2.9769144E-3,-0E0,-4.6077522E-4,-0E0,8.064551E-4,-1.9795507E-5],"split_indices":[6,7,6,0,0,6,10,6,2,3,7,0,0,0,0,0,0,0,0],"split_type":[0,0,0,0,0,0,0,0,0,0,0,0,0,0,0,0,0,0,0],"sum_hessian":[5.82E2,8E0,5.74E2,1E0,7E0,7.6E1,4.98E2,6.8E1,8E0,5.2E1,4.46E2,1.3E1,5.5E1,4E0,4E0,3E1,2.2E1,1.2E1,4.34E2],"tree_param":{"num_deleted":"0","num_feature":"12","num_nodes":"19","size_leaf_vector":"1"}},{"base_weights":[1.0403915E-6,3.266107E-3,-1.9807885E-3,3.244397E-2,-0E0,4.005748E-3,-4.12896E-3,-0E0,6.5055914E-2,-7.538341E-3,3.1464184E-3,-0E0,4.68699E-2,-7.7015394E-3,-0E0,-1.2237882E-5,-0E0,2.6880703E-3,-0E0,-0E0,-3.4837297E-4,2.6671373E-4,-0E0,3.9295308E-5,-1.5704505E-4,2.441155E-3,-0E0,-0E0,-3.123715E-4,-1.3896124E-4,2.3820801E-4],"categories":[],"categories_nodes":[],"categories_segments":[],"categories_sizes":[],"default_left":[0,0,0,0,0,0,0,0,0,0,0,0,0,0,0,0,0,0,0,0,0,0,0,0,0,0,0,0,0,0,0],"id":43,"left_children":[1,3,5,7,9,11,13,15,17,19,21,23,25,27,29,-1,-1,-1,-1,-1,-1,-1,-1,-1,-1,-1,-1,-1,-1,-1,-1],"loss_changes":[3.8621842E-3,2.168187E-2,4.401297E-3,3.0809483E-2,5.0009135E-3,1.4125924E-2,3.227077E-3,1.664064E-6,2.5266264E-2,1.5229755E-3,3.366003E-3,5.619382E-4,1.110799E-2,1.9383966E-3,4.684992E-3,0E0,0E0,0E0,0E0,0E0,0E0,0E0,0E0,0E0,0E0,0E0,0E0,0E0,0E0,0E0,0E0],"parents":[2147483647,0,0,1,1,2,2,3,3,4,4,5,5,6,6,7,7,8,8,9,9,10,10,11,11,12,12,13,13,14,14],"right_children":[2,4,6,8,10,12,14,16,18,20,22,24,26,28,30,-1,-1,-1,-1,-1,-1,-1,-1,-1,-1,-1,-1,-1,-1,-1,-1],"split_conditions":[3.4460545E0,-1.17746815E-1,3.4523808E1,3.823529E1,3.783783E1,1.2330917E1,1.7859226E1,-1.2639466E-1,4.6874992E1,-5.2018162E-2,1.7466133E1,2.3376945E1,1.5071097E1,1.3047816E1,7.672414E1,-1.2237882E-5,-0E0,2.6880703E-3,-0E0,-0E0,-3.4837297E-4,2.6671373E-4,-0E0,3.9295308E-5,-1.5704505E-4,2.441155E-3,-0E0,-0E0,-3.123715E-4,-1.3896124E-4,2.3820801E-4],"split_indices":[0,4,2,2,2,0,5,4,2,4,5,5,0,10,2,0,0,0,0,0,0,0,0,0,0,0,0,0,0,0,0],"split_type":[0,0,0,0,0,0,0,0,0,0,0,0,0,0,0,0,0,0,0,0,0,0,0,0,0,0,0,0,0,0,0],"sum_hessian":[5.75E2,2.36E2,3.39E2,2.2E1,2.14E2,7.7E1,2.62E2,1E1,1.2E1,6E1,1.54E2,7.1E1,6E0,1.29E2,1.33E2,9E0,1E0,9E0,3E0,2.4E1,3.6E1,6.1E1,9.3E1,5.5E1,1.6E1,3E0,3E0,4.1E1,8.8E1,9.1E1,4.2E1],"tree_param":{"num_deleted":"0","num_feature":"12","num_nodes":"31","size_leaf_vector":"1"}},{"base_weights":[7.984394E-5,6.1480096E-3,-9.723162E-4,-0E0,3.9237376E-2,-3.998178E-3,1.400651E-3,6.5955636E-3,-1.36683695E-2,-0E0,7.622976E-2,-6.054764E-3,-0E0,1.1957044E-2,-0E0,-0E0,7.3745934E-4,-5.6977436E-4,-0E0,3.1310143E-3,-0E0,-0E0,-2.4187671E-4,2.679198E-4,-4.500779E-5,1.1938437E-3,-7.110164E-5,-6.0896E-5,2.3975952E-4],"categories":[],"categories_nodes":[],"categories_segments":[],"categories_sizes":[],"default_left":[0,0,0,0,0,0,0,0,0,0,0,0,0,0,0,0,0,0,0,0,0,0,0,0,0,0,0,0,0],"id":44,"left_children":[1,3,5,7,9,11,13,15,17,-1,19,21,23,25,27,-1,-1,-1,-1,-1,-1,-1,-1,-1,-1,-1,-1,-1,-1],"loss_changes":[4.1883546E-3,1.9351574E-2,3.6831617E-3,7.6108435E-3,2.3394227E-2,1.671047E-3,4.8014293E-3,6.497518E-3,1.4486006E-3,0E0,1.8867206E-2,1.7698021E-3,8.8886946E-4,1.8593654E-2,2.913306E-3,0E0,0E0,0E0,0E0,0E0,0E0,0E0,0E0,0E0,0E0,0E0,0E0,0E0,0E0],"parents":[2147483647,0,0,1,1,2,2,3,3,4,4,5,5,6,6,7,7,8,8,10,10,11,11,12,12,13,13,14,14],"right_children":[2,4,6,8,10,12,14,16,18,-1,20,22,24,26,28,-1,-1,-1,-1,-1,-1,-1,-1,-1,-1,-1,-1,-1,-1],"split_conditions":[1.24500885E1,1.2213234E1,1.732436E1,1.7050584E-1,1.0303547E1,1.1684036E-1,1.7536691E0,4.620944E0,3E0,-0E0,1.6130293E1,-1.3703083E-1,1.7574468E0,-3.034353E-2,7.70428E1,-0E0,7.3745934E-4,-5.6977436E-4,-0E0,3.1310143E-3,-0E0,-0E0,-2.4187671E-4,2.679198E-4,-4.500779E-5,1.1938437E-3,-7.110164E-5,-6.0896E-5,2.3975952E-4],"split_indices":[6,6,6,3,0,4,0,0,1,0,0,4,0,4,2,0,0,0,0,0,0,0,0,0,0,0,0,0,0],"split_type":[0,0,0,0,0,0,0,0,0,0,0,0,0,0,0,0,0,0,0,0,0,0,0,0,0,0,0,0,0],"sum_hessian":[5.73E2,9.8E1,4.75E2,8.4E1,1.4E1,2.27E2,2.48E2,5.8E1,2.6E1,7E0,7E0,1.44E2,8.3E1,3.6E1,2.12E2,4.4E1,1.4E1,1.7E1,9E0,5E0,2E0,3.6E1,1.08E2,8E0,7.5E1,1.4E1,2.2E1,1.79E2,3.3E1],"tree_param":{"num_deleted":"0","num_feature":"12","num_nodes":"29","size_leaf_vector":"1"}},{"base_weights":[7.316474E-4,-1.9653786E-2,1.2560812E-3,-2.1101868E-2,-0E0,5.798644E-3,-3.1584874E-4,-0E0,-7.1925385E-4,-1.6198272E-3,2.0474633E-2,-6.3617607E-3,7.246196E-4,9.7943215E-5,-1.8868716E-4,-0E0,9.882553E-4,-0E0,-2.1474942E-4,7.6248616E-5,-1.5330515E-4],"categories":[],"categories_nodes":[],"categories_segments":[],"categories_sizes":[],"default_left":[0,0,0,0,0,0,0,0,0,0,0,0,0,0,0,0,0,0,0,0,0],"id":45,"left_children":[1,3,5,7,-1,9,11,-1,-1,13,15,17,19,-1,-1,-1,-1,-1,-1,-1,-1],"loss_changes":[4.460421E-3,1.4488609E-4,4.677372E-3,1.6048085E-5,0E0,1.9882757E-2,3.172624E-3,0E0,0E0,2.740857E-3,1.825397E-2,3.9777835E-4,3.3607522E-3,0E0,0E0,0E0,0E0,0E0,0E0,0E0,0E0],"parents":[2147483647,0,0,1,1,2,2,3,3,5,5,6,6,9,9,10,10,11,11,12,12],"right_children":[2,4,6,8,-1,10,12,-1,-1,14,16,18,20,-1,-1,-1,-1,-1,-1,-1,-1],"split_conditions":[1.1321128E1,1.465E1,1.6150232E1,3.0534187E-1,-0E0,1.34204855E1,1.664E1,-0E0,-7.1925385E-4,1.2029992E1,-1.9786236E-1,-1.6775137E-1,2.346086E1,9.7943215E-5,-1.8868716E-4,-0E0,9.882553E-4,-0E0,-2.1474942E-4,7.6248616E-5,-1.5330515E-4],"split_indices":[6,10,5,3,0,5,11,0,0,6,4,3,5,0,0,0,0,0,0,0,0],"split_type":[0,0,0,0,0,0,0,0,0,0,0,0,0,0,0,0,0,0,0,0,0],"sum_hessian":[5.86E2,9E0,5.77E2,8E0,1E0,1.64E2,4.13E2,2E0,6E0,1.05E2,5.9E1,7.4E1,3.39E2,4.1E1,6.4E1,2E1,3.9E1,8E0,6.6E1,2.72E2,6.7E1],"tree_param":{"num_deleted":"0","num_feature":"12","num_nodes":"21","size_leaf_vector":"1"}},{"base_weights":[6.86458E-4,-8.187485E-3,1.9622627E-3,-1.4818177E-2,-2.2790497E-3,9.845293E-3,3.3367478E-4,-1.8595632E-2,-0E0,-0E0,-1.6631492E-4,5.7412766E-2,-0E0,2.3699932E-2,-0E0,-0E0,-6.060301E-4,-0E0,2.1278285E-3,8.237702E-4,-6.435104E-5,9.886152E-4,-0E0,-3.8570313E-5,1.5057357E-4],"categories":[],"categories_nodes":[],"categories_segments":[],"categories_sizes":[],"default_left":[0,0,0,0,0,0,0,0,0,0,0,0,0,0,0,0,0,0,0,0,0,0,0,0,0],"id":46,"left_children":[1,3,5,7,9,11,13,15,-1,-1,-1,17,19,21,23,-1,-1,-1,-1,-1,-1,-1,-1,-1,-1],"loss_changes":[6.0278946E-3,7.638349E-4,5.693201E-3,7.02037E-4,3.9133633E-4,3.1897254E-2,4.443948E-3,1.8036738E-4,0E0,0E0,0E0,1.0752566E-2,6.3126483E-3,3.108195E-3,2.679355E-3,0E0,0E0,0E0,0E0,0E0,0E0,0E0,0E0,0E0,0E0],"parents":[2147483647,0,0,1,1,2,2,3,3,4,4,5,5,6,6,7,7,11,11,12,12,13,13,14,14],"right_children":[2,4,6,8,10,12,14,16,-1,-1,-1,18,20,22,24,-1,-1,-1,-1,-1,-1,-1,-1,-1,-1],"split_conditions":[1.7894733E1,1.556793E1,-1.17746815E-1,4.131189E0,2.2386543E1,2.9402263E0,5.230679E-1,1.3489544E0,-0E0,-0E0,-1.6631492E-4,2.4698793E1,1.16378565E1,1E0,1.91E1,-0E0,-6.060301E-4,-0E0,2.1278285E-3,8.237702E-4,-6.435104E-5,9.886152E-4,-0E0,-3.8570313E-5,1.5057357E-4],"split_indices":[2,6,4,0,6,0,0,0,0,0,0,2,6,1,8,0,0,0,0,0,0,0,0,0,0],"split_type":[0,0,0,0,0,0,0,0,0,0,0,0,0,0,0,0,0,0,0,0,0,0,0,0,0],"sum_hessian":[5.85E2,6.3E1,5.22E2,2.1E1,4.2E1,7.8E1,4.44E2,1.5E1,6E0,2.3E1,1.9E1,1.1E1,6.7E1,7E0,4.37E2,2E0,1.3E1,2E0,9E0,7E0,6E1,6E0,1E0,3.55E2,8.2E1],"tree_param":{"num_deleted":"0","num_feature":"12","num_nodes":"25","size_leaf_vector":"1"}},{"base_weights":[5.062939E-4,6.6454397E-3,-5.6523184E-4,-1.0475853E-5,4.6591036E-2,-6.085617E-3,2.2694623E-4,9.092721E-3,-4.2921915E-3,-0E0,5.404313E-2,-1.2985369E-2,-0E0,1.0301645E-2,-7.591693E-4,-0E0,7.125893E-4,-0E0,-1.601029E-4,-0E0,1.7371387E-3,-0E0,-4.3483093E-4,-0E0,-2.8904902E-5,9.949428E-4,-4.7537756E-5,-3.5122025E-4,-5.72852E-6],"categories":[],"categories_nodes":[],"categories_segments":[],"categories_sizes":[],"default_left":[0,0,0,0,0,0,0,0,0,0,0,0,0,0,0,0,0,0,0,0,0,0,0,0,0,0,0,0,0],"id":47,"left_children":[1,3,5,7,9,11,13,15,17,-1,19,21,23,25,27,-1,-1,-1,-1,-1,-1,-1,-1,-1,-1,-1,-1,-1,-1],"loss_changes":[4.598198E-3,3.2309495E-2,2.7869313E-3,2.9889776E-3,6.9075823E-3,2.4700903E-3,5.1843654E-3,3.9058104E-3,5.9851026E-4,0E0,3.1313412E-3,6.966777E-4,1.856652E-5,1.5983121E-2,1.1656776E-3,0E0,0E0,0E0,0E0,0E0,0E0,0E0,0E0,0E0,0E0,0E0,0E0,0E0,0E0],"parents":[2147483647,0,0,1,1,2,2,3,3,4,4,5,5,6,6,7,7,8,8,10,10,11,11,12,12,13,13,14,14],"right_children":[2,4,6,8,10,12,14,16,18,-1,20,22,24,26,28,-1,-1,-1,-1,-1,-1,-1,-1,-1,-1,-1,-1,-1,-1],"split_conditions":[-1.17746815E-1,-1.1907866E-1,-5.9914805E-2,1.436274E1,1.2445788E1,1.6975964E1,-2.0066746E-2,1.2857922E1,1.47E1,-0E0,3.9795914E1,1.2231264E1,1.755E1,1.7466133E1,1.1365877E1,-0E0,7.125893E-4,-0E0,-1.601029E-4,-0E0,1.7371387E-3,-0E0,-4.3483093E-4,-0E0,-2.8904902E-5,9.949428E-4,-4.7537756E-5,-3.5122025E-4,-5.72852E-6],"split_indices":[4,3,3,6,5,5,3,5,7,0,2,7,7,5,6,0,0,0,0,0,0,0,0,0,0,0,0,0,0],"split_type":[0,0,0,0,0,0,0,0,0,0,0,0,0,0,0,0,0,0,0,0,0,0,0,0,0,0,0,0,0],"sum_hessian":[6.05E2,1.03E2,5.02E2,8.7E1,1.6E1,7.8E1,4.24E2,2E1,6.7E1,2E0,1.4E1,3.1E1,4.7E1,4.6E1,3.78E2,1.1E1,9E0,3E0,6.4E1,1E0,1.3E1,3E0,2.8E1,2.8E1,1.9E1,1.8E1,2.8E1,9E0,3.69E2],"tree_param":{"num_deleted":"0","num_feature":"12","num_nodes":"29","size_leaf_vector":"1"}},{"base_weights":[1.1189748E-4,-1.9765962E-2,5.79664E-4,-0E0,-2.3024518E-2,1.578463E-3,-6.065578E-3,-7.490828E-4,-0E0,-1.5774541E-4,1.991717E-2,-7.4204635E-3,-0E0,1.901844E-4,-5.4500895E-5,1.4425187E-3,-0E0,-0E0,-2.6643949E-4],"categories":[],"categories_nodes":[],"categories_segments":[],"categories_sizes":[],"default_left":[0,0,0,0,0,0,0,0,0,0,0,0,0,0,0,0,0,0,0],"id":48,"left_children":[1,3,5,-1,7,9,11,-1,-1,13,15,17,-1,-1,-1,-1,-1,-1,-1],"loss_changes":[3.7089386E-3,1.9465992E-4,3.5166705E-3,0E0,2.9934803E-5,1.8917864E-2,5.8198674E-4,0E0,0E0,4.754514E-3,2.6009962E-2,4.972052E-4,0E0,0E0,0E0,0E0,0E0,0E0,0E0],"parents":[2147483647,0,0,1,1,2,2,4,4,5,5,6,6,9,9,10,10,11,11],"right_children":[2,4,6,-1,8,10,12,-1,-1,14,16,18,-1,-1,-1,-1,-1,-1,-1],"split_conditions":[1.1246927E1,1.36E1,2.346086E1,-0E0,1.465E1,1.93E1,2.626E1,-7.490828E-4,-0E0,1.24500885E1,2.2747654E1,2.0364477E1,-0E0,1.901844E-4,-5.4500895E-5,1.4425187E-3,-0E0,-0E0,-2.6643949E-4],"split_indices":[6,7,5,0,9,7,9,0,0,6,5,6,0,0,0,0,0,0,0],"split_type":[0,0,0,0,0,0,0,0,0,0,0,0,0,0,0,0,0,0,0],"sum_hessian":[6.03E2,8E0,5.95E2,2E0,6E0,5.31E2,6.4E1,5E0,1E0,4.81E2,5E1,5.3E1,1.1E1,8.5E1,3.96E2,1.9E1,3.1E1,1E1,4.3E1],"tree_param":{"num_deleted":"0","num_feature":"12","num_nodes":"19","size_leaf_vector":"1"}},{"base_weights":[-0E0,5.6047933E-3,-1.1273692E-3,-0E0,3.368583E-2,-5.241634E-3,2.131285E-4,8.5181035E-3,-2.2250426E-3,4.0728763E-2,-0E0,-1.0524244E-2,-1.3266924E-3,2.4010407E-2,-4.6136577E-4,-0E0,7.4766163E-4,-1.2834747E-4,2.8564058E-5,-0E0,1.3157676E-3,-3.9540103E-4,-0E0,-0E0,-1.8558037E-4,-3.3711432E-5,2.6842968E-3,4.8430473E-5,-1.999973E-4],"categories":[],"categories_nodes":[],"categories_segments":[],"categories_sizes":[],"default_left":[0,0,0,0,0,0,0,0,0,0,0,0,0,0,0,0,0,0,0,0,0,0,0,0,0,0,0,0,0],"id":49,"left_children":[1,3,5,7,9,11,13,15,17,19,-1,21,23,25,27,-1,-1,-1,-1,-1,-1,-1,-1,-1,-1,-1,-1,-1,-1],"loss_changes":[3.8698218E-3,1.4920151E-2,3.2560339E-3,1.9279826E-3,5.067885E-3,1.7169802E-3,8.128336E-3,5.235919E-3,7.7375275E-4,1.7832164E-3,0E0,1.347593E-3,8.695119E-4,3.1971913E-2,4.972551E-3,0E0,0E0,0E0,0E0,0E0,0E0,0E0,0E0,0E0,0E0,0E0,0E0,0E0,0E0],"parents":[2147483647,0,0,1,1,2,2,3,3,4,4,5,5,6,6,7,7,8,8,9,9,11,11,12,12,13,13,14,14],"right_children":[2,4,6,8,10,12,14,16,18,20,-1,22,24,26,28,-1,-1,-1,-1,-1,-1,-1,-1,-1,-1,-1,-1,-1,-1],"split_conditions":[-1.17746815E-1,-1.1907866E-1,1.7025711E-2,1.436274E1,-8.822595E-2,1.6975964E1,-8.6402864E-4,1.2857922E1,-1.3353603E-1,3.9795914E1,-0E0,-3.0753545E-2,-3.4092147E-2,1E0,2E0,-0E0,7.4766163E-4,-1.2834747E-4,2.8564058E-5,-0E0,1.3157676E-3,-3.9540103E-4,-0E0,-0E0,-1.8558037E-4,-3.3711432E-5,2.6842968E-3,4.8430473E-5,-1.999973E-4],"split_indices":[4,3,4,6,3,5,3,5,4,2,0,3,4,1,1,0,0,0,0,0,0,0,0,0,0,0,0,0,0],"split_type":[0,0,0,0,0,0,0,0,0,0,0,0,0,0,0,0,0,0,0,0,0,0,0,0,0,0,0,0,0],"sum_hessian":[6E2,1.02E2,4.98E2,8.7E1,1.5E1,1.4E2,3.58E2,2.1E1,6.6E1,1.3E1,2E0,4.8E1,9.2E1,1.3E1,3.45E2,1.1E1,1E1,5.9E1,7E0,1E0,1.2E1,3.8E1,1E1,6.6E1,2.6E1,9E0,4E0,2.47E2,9.8E1],"tree_param":{"num_deleted":"0","num_feature":"12","num_nodes":"29","size_leaf_vector":"1"}},{"base_weights":[7.301651E-5,3.150231E-2,-1.369102E-4,-0E0,1.1660778E-3,5.5530667E-3,-1.476682E-3,-8.489602E-4,3.13802E-2,-4.9258783E-3,-0E0,1.1732884E-3,-1.3489922E-4,-0E0,1.4407617E-3,-1.8060727E-4,-0E0,-3.124969E-4,3.052787E-5],"categories":[],"categories_nodes":[],"categories_segments":[],"categories_sizes":[],"default_left":[0,0,0,0,0,0,0,0,0,0,0,0,0,0,0,0,0,0,0],"id":50,"left_children":[1,3,5,-1,-1,7,9,11,13,15,17,-1,-1,-1,-1,-1,-1,-1,-1],"loss_changes":[6.954409E-3,2.1181484E-3,3.961073E-3,0E0,0E0,1.8787635E-2,2.5730552E-3,7.5005186E-3,1.5239239E-2,1.3862005E-3,3.244422E-3,0E0,0E0,0E0,0E0,0E0,0E0,0E0,0E0],"parents":[2147483647,0,0,1,1,2,2,5,5,6,6,7,7,8,8,9,9,10,10],"right_children":[2,4,6,-1,-1,8,10,12,14,16,18,-1,-1,-1,-1,-1,-1,-1,-1],"split_conditions":[5.230679E-1,4.2307686E1,-1.2192016E-1,-0E0,1.1660778E-3,1E0,1.16693415E-2,1.6584913E0,1.2758897E1,1.8765661E1,1.1929462E1,1.1732884E-3,-1.3489922E-4,-0E0,1.4407617E-3,-1.8060727E-4,-0E0,-3.124969E-4,3.052787E-5],"split_indices":[0,2,4,0,0,1,4,0,5,5,6,0,0,0,0,0,0,0,0],"split_type":[0,0,0,0,0,0,0,0,0,0,0,0,0,0,0,0,0,0,0],"sum_hessian":[5.77E2,6E0,5.71E2,1E0,5E0,9.4E1,4.77E2,7.3E1,2.1E1,1.48E2,3.29E2,3E0,7E1,6E0,1.5E1,1.37E2,1.1E1,2.6E1,3.03E2],"tree_param":{"num_deleted":"0","num_feature":"12","num_nodes":"19","size_leaf_vector":"1"}},{"base_weights":[9.9682184E-5,2.5127772E-2,-6.949892E-5,-0E0,1.1369259E-3,-1.9462185E-2,5.8028727E-5,-6.1943015E-4,-0E0,4.203945E-3,-1.2389638E-3,-8.960988E-5,5.8629323E-4,-9.747312E-5,8.72662E-5],"categories":[],"categories_nodes":[],"categories_segments":[],"categories_sizes":[],"default_left":[0,0,0,0,0,0,0,0,0,0,0,0,0,0,0],"id":51,"left_children":[1,3,5,-1,-1,7,9,-1,-1,11,13,-1,-1,-1,-1],"loss_changes":[5.048142E-3,3.5660984E-3,3.4080956E-3,0E0,0E0,1.6214326E-6,3.4473813E-3,0E0,0E0,1.914186E-2,3.612025E-3,0E0,0E0,0E0,0E0],"parents":[2147483647,0,0,1,1,2,2,5,5,6,6,9,9,10,10],"right_children":[2,4,6,-1,-1,8,10,-1,-1,12,14,-1,-1,-1,-1],"split_conditions":[5.230679E-1,-3.1345285E-2,1.1321128E1,-0E0,1.1369259E-3,1.6772152E1,1.6150232E1,-6.1943015E-4,-0E0,1.3457956E1,1.902E1,-8.960988E-5,5.8629323E-4,-9.747312E-5,8.72662E-5],"split_indices":[0,3,6,0,0,0,5,0,0,5,11,0,0,0,0],"split_type":[0,0,0,0,0,0,0,0,0,0,0,0,0,0,0],"sum_hessian":[5.99E2,7E0,5.92E2,2E0,5E0,8E0,5.84E2,7E0,1E0,1.57E2,4.27E2,1.03E2,5.4E1,3.04E2,1.23E2],"tree_param":{"num_deleted":"0","num_feature":"12","num_nodes":"15","size_leaf_vector":"1"}},{"base_weights":[1.5444885E-4,8.876053E-4,-0E0,5.8517256E-3,-1.361056E-3,-1.7661713E-3,3.0499524E-2,-6.13176E-3,-3.0839187E-4,1.4677228E-4,-1.6049176E-4,1.7589395E-3,-0E0,-0E0,-2.195004E-4,1.761446E-4,-4.7028432E-5],"categories":[],"categories_nodes":[],"categories_segments":[],"categories_sizes":[],"default_left":[0,0,0,0,0,0,0,0,0,0,0,0,0,0,0,0,0],"id":52,"left_children":[1,-1,3,5,7,9,11,13,15,-1,-1,-1,-1,-1,-1,-1,-1],"loss_changes":[4.3630474E-3,0E0,4.342142E-3,2.1891404E-2,1.7495635E-3,1.8615084E-3,2.301087E-2,4.0359818E-4,2.7615908E-3,0E0,0E0,0E0,0E0,0E0,0E0,0E0,0E0],"parents":[2147483647,0,0,2,2,3,3,4,4,5,5,6,6,7,7,8,8],"right_children":[2,-1,4,6,8,10,12,14,16,-1,-1,-1,-1,-1,-1,-1,-1],"split_conditions":[4.3312815E-1,8.876053E-4,-1.17746815E-1,-1.2814985E-1,1.7555038E0,1.47E1,3.4460545E0,-5.0770186E-2,1.3013793E1,1.4677228E-4,-1.6049176E-4,1.7589395E-3,-0E0,-0E0,-2.195004E-4,1.761446E-4,-4.7028432E-5],"split_indices":[0,0,4,3,0,7,0,4,7,0,0,0,0,0,0,0,0],"split_type":[0,0,0,0,0,0,0,0,0,0,0,0,0,0,0,0,0],"sum_hessian":[5.8E2,4E0,5.76E2,1E2,4.76E2,7.4E1,2.6E1,6.8E1,4.08E2,1.6E1,5.8E1,1.3E1,1.3E1,1.3E1,5.5E1,5.5E1,3.53E2],"tree_param":{"num_deleted":"0","num_feature":"12","num_nodes":"17","size_leaf_vector":"1"}}]},"name":"gbtree"},"learner_model_param":{"base_score":"[5.473821E-3]","boost_from_average":"1","num_class":"0","num_feature":"12","num_target":"1"},"objective":{"name":"reg:squarederror","reg_loss_param":{"scale_pos_weight":"1"}}},"version":[3,2,0]}